2596 100
og_faoh -0.10075276 0.08098825 0.027847603 0.027354926 -0.12918556 -0.011179344 -0.13457525 -0.177648 -0.17033619 -0.017814498 -0.05300691 0.009466085 -0.030380452 0.06789935 0.03868007 0.0508655 -0.058155615 0.13308348 -0.03852473 0.1364726 -0.08101232 0.14757475 -0.05934797 -0.16556038 -0.036597304 0.098314285 0.0019080275 -0.11156004 0.022869552 0.10636641 0.20004444 -0.03515864 -0.083765745 0.061405573 -0.14778797 0.11269216 0.03350092 0.2285104 0.057270613 -0.016982788 -0.09185506 -0.08597883 -0.0006256756 0.0038943016 0.0053397315 -0.16450383 0.026835945 0.07417987 0.10843838 -0.048259076 0.07372909 -0.0105781695 0.15188006 -0.16895506 0.1480541 0.20724025 0.03611639 -0.1853887 0.12490307 -0.002365219 -0.038795874 -0.09877945 0.061530933 0.022452872 0.04337161 -0.028011939 -0.07504256 0.2218457 -0.010346617 -0.03459143 -0.045593124 -0.062327538 0.056505032 0.022903256 -0.01622152 0.037615295 -0.07755849 0.07758899 -0.06791989 -0.1265093 0.11204078 -0.06434684 0.17476939 0.10877544 -0.03109632 0.011937881 -0.012428419 0.05384439 0.08188328 -0.06328513 0.12647991 0.09972584 -0.0639015 -0.1796795 0.15424962 0.18870293 -0.053469 -0.048855685 0.062448062 0.18558231
hann_faoh 0.033630166 0.16257907 0.085158974 0.08029242 -0.052709144 0.013853094 -0.13711394 -0.08578963 -0.1184067 -0.11716318 -0.06534009 0.11406589 0.051113363 0.0633049 -0.01721784 0.20302397 -0.03600001 0.12090509 0.06869243 0.114201166 -0.047312632 -0.0731458 0.09896925 -0.19411296 -0.061353073 0.060949843 -0.0050176117 -0.15340592 0.06258025 0.064064 0.2943226 0.1540426 -0.135277 0.0015994754 0.068371765 0.157971 0.012203447 0.24915229 0.02052272 -0.08321832 -0.0098699145 0.03191336 -0.11132898 0.2123329 0.077944666 -0.041710787 -0.07084099 -0.082935385 0.1838519 -0.026983555 0.012255058 -0.101389416 0.07296435 -0.1283658 0.11701073 0.13759561 0.03775388 -0.04218798 0.107831806 0.0066252444 -0.18488818 -0.1386266 0.0563934 -0.11209049 0.034746237 0.08495134 -0.013922994 0.12135248 0.06295778 -0.040300626 0.08218511 0.0070805564 0.010990478 0.07750964 -0.05517129 -0.02458659 -0.023629814 0.11984975 -0.20727418 0.0627586 0.0058041345 -0.0077107027 -0.060690206 0.15481238 0.050873887 0.003462535 0.00640715 0.06606028 0.08892527 -0.120793544 0.049365144 -0.071877465 0.05966869 -0.17089742 0.050855402 0.038394835 -0.04082234 -0.005155869 0.062255688 0.06701943
at_faoh -0.0456312 -0.054851238 0.13718207 0.062100373 -0.11207062 0.075193964 0.0065025836 -0.14507717 -0.13659716 0.027341897 0.026951669 -0.07306984 0.0045776707 -0.07735116 0.11805804 0.054285455 0.031293 0.21594685 0.03904296 0.14968507 -0.12305622 0.18669787 0.06036145 -0.09216568 0.040473305 0.017683173 0.046497807 -0.20833276 -0.03827316 0.10735156 0.14694777 0.03193536 -0.14585312 0.092211954 0.005027957 0.104868226 -0.041817788 0.21010654 -0.057516254 -0.065513976 -0.12844306 -0.08343859 -0.1138897 0.052982807 -0.044859387 -0.080644734 0.006918059 0.062156584 -0.05163468 -0.039926443 0.16580938 -0.12513667 -0.0053084916 -0.24100466 -0.04155849 0.19713323 -0.06016204 -0.016405324 0.10945335 -0.084797755 -0.09610252 -0.046462383 0.11722354 0.010809737 0.12561798 -0.041825395 -0.094979346 0.2201452 -0.10682204 -0.06341282 -0.048869632 0.07539827 -0.043630607 -0.0942358 -0.09870136 0.021396838 -0.17765176 0.03717321 -0.18685487 0.028243426 -0.007977621 -0.005675181 -0.0016321891 0.058557753 -0.13743569 0.07121404 -0.1056846 -0.07341265 0.10169633 -0.14518271 -0.042895157 -0.044329796 0.04147249 -0.15600869 0.09735359 0.04813307 0.07155838 0.034453966 0.11706922 0.04577422
sum_faoh -0.08018567 0.102591194 0.093158916 -0.026426382 -0.11844342 0.05020596 -0.019072087 -0.17799392 -0.077479325 -0.12758403 0.0036057774 -0.05048903 -0.07599031 0.17452098 0.0732853 0.1827628 0.06621103 0.12999432 -0.14597538 0.048883207 0.0065237423 0.11595788 0.12420673 -0.07814668 -0.053817023 -0.1440974 -0.02392673 -0.12838484 -0.06916697 0.04726848 0.19466417 -0.106141575 -0.11047116 0.09943482 0.028231114 0.18343 0.027023703 0.19184795 0.07954712 -0.09395489 -0.03463508 -0.123822406 -0.051195115 0.07193228 -0.060035612 -0.18513003 -0.085494824 0.034093343 0.03930957 0.0045900014 0.06172778 -0.10284888 0.1588172 -0.17406267 -0.013998999 0.058927525 0.047755912 0.002855255 0.09488708 -0.019623037 -0.057305556 -0.09259492 0.03327357 0.07776531 0.15739922 -0.03643507 -0.06691565 0.053791523 -0.0013314626 -0.094183356 0.021182578 -0.06723433 -0.06706029 0.096599445 -0.09341528 -0.01734184 -0.12677535 -0.028113116 -0.10079799 -0.057462238 0.16640526 -0.12980169 0.009970374 0.028425379 -0.06626792 -0.025019392 -0.057877835 -0.10621955 0.21353926 -0.090485014 0.0662678 0.05117974 -0.012383484 -0.29222563 -0.04923471 0.2109571 -0.025142368 -0.0057763117 0.03397923 0.043674514
við_faoh -0.024438286 0.029009093 0.1511325 -0.064346395 -0.090211615 -0.084523864 -0.009755735 -0.065676525 -0.1257074 -0.054873742 -0.17247227 -0.15608427 -0.07277283 0.0020108535 -0.07433104 0.022855463 -0.007985889 0.07867143 0.06622384 -0.019729726 -0.12276545 0.010659492 -0.030132882 -0.0973288 -0.07070029 -0.103686914 0.013383978 -0.10473102 0.0009601943 0.061556682 0.18083759 0.009556932 -0.10772098 0.070692755 0.016158275 0.06213179 -0.035857886 0.04306846 0.036993016 -0.20564552 0.061775442 -0.1842243 -0.04187864 0.094694756 0.10786687 -0.20732151 -0.011103209 0.011902186 0.18972209 -0.036006544 0.048413422 -0.007681431 0.0819494 -0.09545855 0.11689784 0.18494104 -0.016522424 -0.0069389953 0.053661495 -0.116692424 0.011002444 -0.23022787 0.15181357 -0.11125527 0.14023583 0.022029126 -0.0066066 0.16295922 0.05309078 0.035712816 -0.018100636 -0.08292864 0.10631336 -0.020352427 0.036372162 0.07319916 -0.10770418 -0.073462434 -0.07225021 0.08802781 0.12414785 -0.04429824 0.20304993 -0.12370389 -0.044600688 -0.067888126 -0.049005553 0.013084686 0.09249268 -0.010600652 0.11302392 -0.06154438 0.016794873 -0.20732142 0.32599786 0.11937091 -0.03198389 -0.07907457 0.044996794 0.00980236
teir_faoh -0.038962618 0.083565995 0.079021126 0.020223925 -0.17011055 -0.098648556 -0.06460472 0.042706378 -0.12183574 -0.037313443 -0.106419 -0.05443587 -0.007836338 -0.011007713 -0.06696516 0.081776634 0.05351916 0.07543089 0.09586239 0.072565936 -0.16041422 0.15105692 -0.023450607 -0.16442111 -0.0979791 -0.07704951 -0.069736056 -0.1423353 0.12665431 0.12830187 0.21139553 0.22822164 -0.06838901 0.14283173 0.025498508 0.08749567 0.08148033 0.118747905 -0.061331365 0.03206546 -0.15440968 0.067319795 0.026465835 0.057217 0.09257598 0.028864734 -0.124417566 0.059152935 0.05363208 -0.06381216 0.0024636881 -0.17173351 0.102747545 -0.052784566 0.20235068 0.024682414 0.12223763 -0.016286824 0.029505996 -0.056209724 -0.07608269 -0.019355806 0.02260912 -0.11710939 0.124278694 0.08120818 -0.09581299 0.1529951 0.011429443 -0.11746326 0.014571306 -0.06319952 -0.027917314 -0.028883971 0.112945504 -0.043010067 -0.23699553 0.008953469 0.051715467 -0.11253727 0.023412896 -0.13252781 -0.02991799 0.011988134 -0.032649778 0.013851196 -0.049576096 0.041224044 0.2021756 -0.2128374 -0.005520332 0.12552792 -0.20312995 0.017053986 0.0051684096 0.1727383 -0.050453696 0.001210796 -0.03401182 0.12800728
í_fao -0.08735387 -0.054692682 -0.02309052 -0.050346293 -0.029878097 -0.07767401 0.1378827 0.14780791 0.23928192 0.016446872 -0.09140129 -0.07857784 0.015200267 0.12167439 0.20312923 -0.048604604 -0.14750023 0.010725009 0.042309016 -0.085810326 0.13165537 -0.12136525 -0.03988804 0.088934496 0.14237063 0.033148095 0.055077426 0.05683546 -0.046565626 -0.044588115 -0.089837864 -0.055565737 0.15232442 0.091541484 0.009717113 -0.10892385 0.06256887 -0.08866158 -0.06331696 0.13883272 0.18799673 0.11822853 -0.003002655 -0.10512962 -0.09059841 0.19878906 -0.059669435 0.07280823 -0.05279051 0.0797259 -0.114550866 0.13358541 -0.050060295 0.094049856 -0.12993638 0.003131526 0.102430336 -0.10224483 -0.16701669 -0.07375044 0.12422339 0.05401476 -0.046251886 0.049163047 -0.08705659 -0.054574307 -0.037239127 -0.12922531 0.03839531 0.014790975 -0.06824043 0.047363687 0.03737885 -0.13811009 0.026207492 0.08594806 0.056087438 -0.052061 0.043252274 0.02232317 -0.12240175 0.02123926 -0.03217172 0.11562313 0.098707914 -0.13321751 0.12876314 -0.121198386 -0.11697426 0.16245095 -0.13400151 -0.015414832 0.1214379 0.12000045 -0.07657738 -0.27391845 0.050651543 0.11427973 -0.016133985 -0.06609222
í_faoh 0.016037863 0.105255716 0.11496503 -0.050437532 -0.20614739 -0.005671958 0.009728093 -0.06080941 -0.068451904 -0.07846857 -0.1484925 -0.1797484 -0.0071728905 0.10549912 0.13081434 0.025688028 -0.010597131 0.111789495 0.07645227 0.011319692 -0.024882 0.1304342 0.013632817 -0.18867609 0.009022113 0.039215352 -0.034906186 -0.21649012 0.022009255 0.07643928 0.3640522 -0.00017320986 -0.059182245 0.19156092 -0.045108847 0.03584791 0.021037497 0.15816733 -0.030159906 0.010303703 0.05265181 -0.058033284 -0.03157263 -0.032869514 0.14024384 -0.01042095 -0.019560395 0.008308146 0.14562003 -0.11311981 0.13205008 -0.057288352 0.14099771 -0.12876925 -0.03784472 0.08761778 0.075991474 -0.07709422 0.10074992 -0.07559958 -0.11723259 -0.13853745 0.18039809 -0.011451708 0.15041076 0.000603446 -0.104829505 0.08885027 -0.0036393495 -0.016950421 0.064260945 -0.051470093 -0.030453583 -0.06335242 -0.052638113 -0.061420333 -0.15657069 -0.04478553 -0.023372592 0.071516514 0.05388101 -0.124738134 0.11578055 0.12991318 0.034936957 -0.100553915 -0.0031754714 -0.1229641 0.06284451 -0.12801288 -0.01624733 0.1554274 0.1211167 -0.07698305 0.15273696 0.019057741 0.051266655 -0.11778127 0.0815453 0.01670156
men_faoh -0.030335994 0.054413978 0.10269362 -0.013641977 -0.10677897 0.0044385865 -0.08890719 -0.11788142 -0.19981119 -0.014063929 0.04122561 -0.04171135 -0.030474864 0.08645196 0.052243564 0.08919637 -0.018113082 0.02805428 0.015143028 0.04502985 0.011178586 0.18292367 -0.029789923 -0.06706001 -0.03134151 0.22818986 -0.044986688 -0.18675695 0.08169696 0.034194745 0.22456828 0.022709396 -0.09758255 0.083069235 -0.15807842 0.17036141 -0.033422735 0.10079052 -0.01809475 -0.07529221 0.008914255 -0.03472918 -0.17098422 -0.054176617 -0.1018121 -0.0839605 0.09225095 0.017108252 0.13530917 0.06698066 0.21737286 -0.10865242 0.03380967 -0.07968258 0.18390138 0.09488584 0.11268 -0.08137996 0.11127679 -0.04641751 0.00603666 -0.05620533 -0.007912075 0.031626802 0.041832644 0.06305391 0.122813866 0.116365336 0.12137289 0.04002693 -0.16626655 -0.019620217 0.011454792 0.035928518 -0.051565256 -0.09010297 -0.18374534 0.10654741 -0.08223694 0.028771678 0.06425779 0.070778005 0.22593267 0.06324301 -0.019866254 0.13192749 -0.057431486 0.0018267848 0.16302332 -0.12230431 0.025764868 0.05936047 0.009393781 -0.25870314 -0.014285221 0.13833174 0.06536774 0.11008084 -0.008447549 0.057634905
er_fao -0.10891544 -0.24450697 -0.1422368 -0.063304104 -0.031240467 -0.06613069 0.018865982 0.056281287 0.22901605 0.007779832 -0.08891912 0.07905335 0.10780707 -0.14436541 -0.012055684 -0.08323517 -0.07774495 -0.0090196645 0.1703626 -0.083586566 0.20343931 -0.052171927 -0.0803055 0.1543918 -0.065384485 0.034392312 0.008471971 0.20740245 0.038891207 -0.0999315 -0.17825066 -0.092137024 0.17071778 -0.08885202 -0.04468687 -0.16463487 -0.024718937 -0.2162463 0.08556525 -0.023623995 0.05215196 0.037170865 0.055175237 -0.027117144 -0.119558886 0.06235957 0.008089363 0.06384493 -0.08100578 0.1544309 -0.11789337 0.06977135 -0.012936811 0.100981824 -0.117789336 -0.1510203 -0.036864463 -0.06438939 -0.09870844 0.09933485 0.07464779 0.11027038 -0.10106876 0.02544686 -0.017761614 -0.024876673 0.089090005 -0.11284085 0.07914067 -0.16487806 0.021188796 -0.05665627 0.015570005 -0.08167656 0.0313659 -0.09607744 0.07329023 -0.01499406 0.02309384 -0.012876211 -0.19255495 0.04250985 -0.11632437 -0.06881887 0.026251806 -0.009810801 -0.015527943 -0.05452763 -0.01751062 0.082756795 -0.050930366 -0.12266749 0.043291684 0.20859712 -0.12708542 -0.12808092 0.0644308 0.10250512 -0.044028174 -0.08970057
til_faoh -0.15365142 0.09185223 -0.014443974 0.057632267 -0.07971758 0.053143147 -0.012653352 -0.115427196 -0.042544726 0.008942531 -0.14075552 0.035989247 0.02813866 0.08470112 -0.0030374404 0.0006023963 0.038957153 0.035461128 0.031949196 0.14191717 -0.16547047 0.117967516 -0.013846438 -0.032955017 0.058996737 -0.045246445 0.071001105 -0.1950505 -0.038937144 -0.11710793 0.15633342 0.09822599 -0.10383989 0.066607244 -0.009994104 0.0640555 0.04796393 0.09278078 -0.02527586 -0.08810228 0.015821239 -0.16900054 -0.14624111 0.05823543 0.15185972 -0.071522176 0.12585175 0.04926147 -0.0037549175 -0.10855163 0.16343316 -0.12963857 0.33369184 -0.051951528 0.1285816 0.028319638 0.047284074 -0.0893587 0.09910297 -0.06169265 -0.06049987 -0.1843224 -0.028251667 -0.039289813 0.012963802 -0.051572733 -0.02288276 0.11499683 -0.0244858 -0.1488293 0.05405084 -0.1381973 0.17562643 -0.14486258 0.003186912 -0.11172714 -0.15503824 -0.058042813 0.022157002 0.07118714 0.04483862 -0.053799827 0.124347776 0.1342036 -0.033540946 0.114635535 -0.05604917 0.03114494 0.05320769 -0.10594133 -0.04779819 0.13891675 0.16498281 -0.12496294 0.13488267 0.16489287 0.005945829 -0.022017961 0.12499229 0.04088301
tá_faoh 0.09738867 0.036055434 0.15803562 -0.11560867 0.043595187 -0.01665994 -0.10832992 -0.1378733 -0.20096175 -0.05044666 -0.07405566 -0.22011742 -0.10837091 0.008424304 0.09819173 0.15122657 0.09237243 0.11914156 -0.05561965 0.06947841 -0.06263047 0.09840596 0.14579068 -0.054003153 -0.09839739 0.117122404 0.013650958 -0.19753501 -0.016503645 -0.0891771 0.119923875 -0.05354753 -0.26831067 0.09020008 0.043219235 0.062486645 0.20381121 0.26781663 0.16686845 -0.080830455 -0.040153835 -0.097379096 -0.12479016 -0.11623802 0.021310236 -0.1319238 -0.010256474 0.13083594 -0.014986834 0.027197491 0.08814372 -0.043565053 0.057945818 -0.051869247 0.12525281 0.05064068 0.08887145 0.057979174 -0.0118974 0.028324869 -0.10871034 -0.017766757 0.08383198 -0.09622255 -0.09496216 0.038579445 -4.5275898e-05 0.07676736 -0.032994818 0.003051066 -0.054293014 0.06986406 0.047042876 0.09816532 0.037714865 -0.021060321 -0.12740572 -0.07506809 -0.13681775 -0.03241805 -0.013452783 0.07143162 0.10434047 0.056498624 0.0013077314 0.07518424 0.15720247 0.02485623 0.10737011 -0.1620158 0.014637454 0.094136775 -0.0045190174 -0.047624 0.13890378 0.12436002 -0.049797487 -0.11464288 -0.044481665 0.058014143
eg_faoh 0.04188634 -0.03206124 0.03936273 0.006453013 -0.11775208 0.0069934623 0.08126907 -0.03679931 -0.114881806 0.0017214506 0.06905845 0.045106478 -0.05647589 -0.057548966 -0.19115312 0.07741563 0.06675907 0.15240026 0.219615 0.11022877 -0.009680479 0.024687128 0.046100967 -0.24102317 -0.05169336 0.035426892 0.067872696 0.070786454 -0.042280704 0.0748147 0.18736215 0.05719807 -0.0021446496 0.028057883 0.023418432 0.0491857 0.044067144 0.10087299 0.095818944 -0.06130976 -0.019020608 0.03503936 0.04713742 0.18440887 0.10620968 -0.13399306 0.02592766 -0.07364907 0.0015272353 -0.13436401 0.16018324 -0.059754826 0.047872834 -0.11486215 0.052082952 -0.0077351364 0.032138042 -0.042442445 0.061133347 0.0071601085 -0.16953832 -0.09677474 -0.06682279 -0.09286619 0.097011566 0.115478456 0.17025454 0.10707595 -0.021330154 -0.06922028 -0.11039808 0.027355647 -0.05871583 0.035163827 -0.111346975 -0.10638262 -0.0815201 0.03952496 -0.0109347375 0.026844721 -0.11711426 -0.15446045 -0.03575397 0.007400723 0.06932617 0.07386683 -0.1157502 -0.1048076 0.064184465 0.05074581 -0.1207998 -0.05348614 0.0803689 -0.3960032 0.16897659 0.08283125 -0.1854197 0.005073268 0.008378938 0.14628111
ikki_faoh 0.058859985 -0.007067971 0.096221074 0.10306483 -0.0013429435 -0.065842666 -0.04864754 -0.22555815 -0.14196944 -0.0006259094 -0.036073167 -0.092603505 0.032717515 0.025539694 0.071389146 -0.0041665924 0.07164647 0.052010886 -0.053529106 0.12830786 -0.12816823 0.027178187 -0.03356192 -0.25521392 -0.03458423 0.008597294 -0.116999656 -0.039072793 0.009082316 0.06529117 0.20337388 -0.009186248 -0.084319994 0.050635602 0.07021855 -0.028361253 -0.07176609 0.19617909 0.041755818 0.0044184444 -0.10758907 -0.22428727 -0.107235745 0.06464774 0.0109698465 -0.17610233 -0.02386942 -0.21781799 0.05732897 -0.07928763 0.07161167 -0.066505946 0.15775119 -0.1764527 0.06762409 0.002918868 -0.008233212 0.12610275 0.20522171 -0.043453127 -0.06126756 -0.1647308 0.013632741 0.03090427 0.1321202 0.08240841 -0.037521698 0.10472126 -0.03230707 0.12779692 -0.15762344 0.013132287 0.13885513 0.017567985 -0.14214014 0.03761703 -0.12263553 -0.09318984 -0.020230222 -0.036959037 0.024843762 -0.16123986 -0.06965039 -0.0052450383 -0.048034478 -0.04169145 0.022296427 0.026788885 -0.034084097 -0.2072786 -0.021909554 -0.09672277 0.14851357 -0.114616856 0.062123246 0.16882071 0.0053103766 0.05887072 0.039744884 -0.104765944
av_faoh -0.005961622 0.093096055 -0.019473974 -0.11351965 -0.11893742 -0.10815856 0.020456035 -0.126869 -0.08967433 -0.030667404 -0.06827295 -0.098328024 0.010161125 0.029803792 -0.0391958 -0.09205005 0.060989622 -0.033526603 0.079814345 -0.04765108 -0.10033165 0.25996166 0.07362923 -0.034953784 -0.040285956 -0.22367115 -0.0010480401 -0.20156482 -0.0091046 0.15557228 0.27708563 0.13320859 -0.115574844 0.043222077 0.018592346 0.24786319 -0.072414465 0.29729727 0.096737675 0.0076304167 0.029806942 -0.07405325 -0.035657592 0.024555983 0.14669631 0.011637772 -0.03192887 -0.054156337 0.059218988 0.018162912 0.122661464 0.018252956 0.092176855 -0.17318945 0.111845024 0.05731007 -0.060463917 0.05933424 0.12826447 -0.045465216 -0.07469781 0.021681052 0.1571377 -0.03982611 0.092062026 0.07709799 -0.06846797 0.104556724 0.032264706 0.08840792 -0.0047819545 -0.04310816 -0.0050301454 0.011876138 0.054963734 0.038305536 -0.1200312 0.16002625 -0.10506127 0.07741659 -0.035116363 -0.18676314 0.17611696 -0.013130358 0.05735652 -0.14127521 -0.062043793 -0.09518341 0.059985805 -0.050979763 0.00028529204 0.025269836 0.044323117 -0.0703323 0.14022753 -0.024646237 0.077229686 -0.018043734 0.027833423 0.006555349
tað_faoh -0.040450253 0.10733406 0.11264057 0.055842698 -0.090236336 0.038938094 -0.015194903 -0.11663691 -0.24021949 0.05609633 -0.00032415986 -0.060108766 -0.035117477 0.042404488 0.01900049 0.054830283 0.04498629 0.11237401 -0.004073817 0.20656693 -0.14397895 0.09076891 0.034633495 -0.18918404 0.022505604 0.037607238 0.013584621 -0.0028902553 0.1554747 0.0314318 0.255106 -0.0142214615 0.02900334 0.09790186 -0.061538454 0.15541916 0.0839594 0.035854056 0.026413877 0.045996062 -0.047079377 -0.070954025 0.05205154 0.10988519 0.17413136 -0.05878992 -0.007954643 -0.14219075 -0.0373064 -0.010738942 0.006611264 -0.18076606 0.07867714 -0.13045782 0.0057403864 0.14305094 0.08587637 0.23824272 0.06404753 0.10931667 -0.21830109 0.015285294 0.038684007 -0.16035545 0.1508083 0.109006725 -0.07161151 0.057081137 0.034057472 -0.037258983 0.089342006 0.18684347 -0.0007332774 0.050744787 0.044310443 0.02287072 -0.08779061 0.14863063 -0.050635032 0.019025834 -0.0019330304 0.047422305 0.050143775 0.12135523 0.015758658 -0.050977234 0.118770234 -0.036727026 0.029870184 -0.06346357 -0.114902355 -0.02585237 -0.04876582 -0.2687413 0.098943755 0.093150266 -0.04779148 -0.035244998 0.14908142 0.018774241
um_faoh 0.042455606 0.04466589 -0.049490742 0.015121498 -0.026733149 0.14685458 0.01092986 -0.025058677 -0.082317725 -0.1034203 -0.061912317 -0.018138291 -0.06392409 0.017847817 0.14838924 -0.037130225 0.23116975 0.024674611 0.15569693 0.11972381 0.029757254 0.03865865 -0.049397185 -0.16337007 -0.045503855 -0.10529269 0.002060922 -0.16158578 -0.014082307 -0.04625651 0.24923511 0.014818823 -0.12870899 0.14236659 0.09812613 0.15146266 -0.07032335 0.14098634 0.08031706 -0.06845835 -0.06938736 -0.008081657 -0.04028206 -0.069572635 -0.018907819 -0.2127567 -0.0935153 -0.039537456 0.08574043 -0.16155277 0.14043906 -0.0347297 0.0778694 -0.076607466 0.07634524 0.12948544 0.12862581 0.090364635 0.19878317 -0.02679789 -0.05367828 -0.05276666 0.09196708 -0.10727339 0.12981716 0.039187226 0.061307874 0.088408925 0.09991106 0.036275182 0.05775079 0.022271784 0.08180948 -0.02950683 -0.02471782 -0.028388051 -0.18074326 -0.023911327 -0.09605407 -0.02161872 0.16436043 -0.061491664 0.119211696 0.0525287 -0.0119883455 -0.015223159 -0.053078294 0.024963891 0.12492463 -0.017271506 0.20717041 0.051394917 0.034789603 -0.25176287 0.087924086 0.08143763 0.046803202 0.019627303 0.21826407 0.04040243
er_faoh -0.029258106 -0.15262346 -0.045323897 -0.081450015 -0.16053715 0.07501169 -0.09805136 -0.20195453 -0.008211762 -0.14602493 -0.037652895 0.026860412 0.1310735 -0.16207346 -0.0723601 0.068390235 0.056909855 0.060759973 0.27473232 0.03931031 0.038503185 0.24554503 -0.020791665 -0.09568127 -0.12029634 -0.0025846185 -0.13955948 -0.04468346 0.012141907 0.0017745544 0.1766654 -0.04421282 0.021655165 0.0067481664 -0.11758127 -0.05435075 -0.042189024 0.049556732 0.08491814 -0.1432148 -0.032795724 -0.09392492 0.01664143 0.07908252 0.0398795 -0.15158327 0.029196491 -0.0021443968 0.04286072 -0.04083993 0.099206 -0.053135168 0.15677486 -0.013301961 0.045821387 -0.10123382 -0.022025762 -0.019553868 0.14456402 0.13577983 -0.182663 -0.06573588 0.1410345 -0.09570939 0.14086199 0.10148671 0.035723023 0.08591511 0.07500711 -0.18406159 0.03475703 -0.056816272 -0.058927182 -0.036669225 -0.047258966 -0.24354301 -0.11967427 0.029701624 -0.007951075 0.028507294 -0.02192125 -0.07644819 0.029647656 -0.12266951 -0.109923884 0.06787436 -0.14570908 -0.08913474 0.110106446 -0.17664711 0.086093985 -0.028953552 0.016057122 -0.016153831 0.0923099 0.13332337 0.027759984 -0.08895207 0.08309141 -0.07272082
á_faoh 0.08168335 0.096845485 0.10018251 -0.14429565 -0.064788975 0.024243461 -0.0098406365 -0.098249786 -0.1207462 -0.017056141 -0.0713233 -0.105552465 -0.062114958 0.044422753 -0.14577065 0.03098173 -0.014487572 0.011547201 0.066138476 -0.071732625 -0.15890174 0.12672418 -0.057244178 -0.19634375 0.048553757 0.032918207 -0.039740957 0.014666572 0.017778043 0.07380357 0.38061512 0.013339163 -0.25319618 0.03652401 0.028334875 0.06125507 0.0956843 0.07263611 0.07466345 0.012868833 0.110812455 -0.14790632 0.03150367 -0.13192324 -0.013448521 -0.12677646 0.003305766 0.024711136 0.13182954 -0.11168876 0.042886175 -0.16078159 0.15231998 -0.088539384 0.08508908 0.026383242 0.104454316 0.03349983 0.18343769 -0.091640346 0.0019409115 -0.15260822 0.079899006 0.10096473 0.031896114 0.03682967 0.019105406 0.1696775 -0.013208386 -0.009595545 0.15537508 -0.019629186 0.028494617 0.07734207 -0.00094067183 -0.033986237 -0.21238594 -0.08115815 -0.06874903 -0.030724283 0.06170346 0.07385871 -0.0057912846 0.0014287566 -0.03073857 -0.023142148 0.047716327 -0.024825402 0.07433505 -0.24070641 -0.15636027 -0.011334275 0.038481165 -0.068119556 0.20662598 -0.043984815 0.049468987 -0.0441719 0.042024825 -0.006327916
tí_faoh -0.115567125 0.08467155 0.11625534 -0.03968758 -0.13588198 -0.09405354 -0.054974567 -0.19671069 -0.21866639 -0.023439858 0.018319158 0.110592894 -0.022762705 0.0801889 0.134842 0.048987973 0.13329943 -0.08596748 -0.13284074 0.15693055 -0.07061038 -0.018940128 -0.07999133 -0.17550705 -0.03921997 0.10103599 -0.01183768 -0.109247744 0.10441233 0.06816442 0.07342105 -0.15881823 -0.031302005 -0.01364823 0.073682316 -0.01596829 -0.009314192 0.13838743 0.10979092 0.037535205 0.102720484 -0.0056351717 -0.11158787 -0.00053762464 0.009755837 -0.12990642 -0.058583528 -0.10882041 0.04435057 -0.09319987 0.08301172 0.03694186 0.1517113 -0.03648799 0.16845159 0.09751196 0.063053764 0.106258914 0.11423239 0.0006798678 -0.21008855 0.052817263 0.057730768 -0.06807972 0.2208424 0.21919675 0.046117093 0.065104075 0.08272854 0.00881908 -0.03560222 0.009533301 0.02097253 0.03934408 -0.11393835 -0.025165435 -0.096997224 -0.10300373 0.07964479 -0.048557553 0.16744526 -0.007985208 0.024004765 0.006911541 0.012619203 -0.048180293 0.06820347 -0.020379137 0.20208462 -0.08055492 0.053295616 0.029113503 -0.010333114 -0.15211903 0.21601622 0.17165938 -0.12257679 -0.09568402 0.032269336 0.008738091
tit_faoh -0.103242464 -0.12190396 0.037717048 0.025159556 -0.12536338 0.0041486826 -0.01666321 -0.06569081 -0.048007425 0.044418167 -0.08224688 -0.043564823 -0.020954676 -0.111476935 -0.04836149 0.17276193 0.067754686 -0.048514944 0.08385026 0.1128109 -0.08106508 0.25139713 0.04981675 -0.20539396 -0.06712471 -0.027103495 0.018836606 0.1074605 0.12484787 0.138804 0.13208629 0.1606235 0.10456597 0.11876596 0.11212992 0.036120653 -0.07193897 0.032311726 -0.1198931 0.08509552 -0.28341678 -0.049171705 -0.1754212 0.039180767 0.13376929 -0.0343311 -0.119044974 -0.0024076456 -0.0735776 -0.14931226 0.107304245 -0.12733987 0.037198607 -0.17517662 0.112209536 0.026775159 -0.08968459 0.14562768 0.060122535 0.02438464 -0.03190565 -0.10296878 -0.027364166 -0.10900238 0.059084907 0.066526875 -0.098492235 0.18548305 0.029246744 -0.14868544 -0.028339416 -0.14382796 0.0062126243 0.01033212 -0.12408434 -0.10732343 -0.13240802 0.03409018 -0.040382694 0.08352278 0.10918096 -0.08876904 -0.04329102 -0.007734301 -0.011610195 0.008154031 -0.111836456 -0.11154463 0.0352184 -0.110490985 -0.018147532 -0.01931597 -0.14040242 -0.024803657 0.009206977 0.124815024 -0.043887336 0.004648417 0.0002915153 0.18528546
ið_faoh 0.04881025 0.053372383 0.0044814874 0.10079031 -0.1607363 0.12805235 -0.13337815 -0.06573348 -0.1482828 0.036795456 -0.1137643 0.09418648 -0.00611748 0.0971748 0.005284241 0.0887343 0.16167629 0.050605427 -0.0021385418 0.070875 -0.2538808 -0.018175595 0.035758063 -0.19262351 0.03948447 -0.14858684 -0.056919053 -0.1708419 0.09506736 0.00917318 0.05316819 -0.10753554 -0.12859063 0.09976868 -0.023359194 0.053015884 0.04954418 0.13681239 -0.12095196 -0.032502394 0.0100257695 -0.093350716 -0.022468995 0.11975165 0.059202533 -0.025791558 0.1226531 -0.09655643 0.024116227 -0.051848862 -0.016011693 0.041694675 0.08969682 0.002512689 0.039981224 0.13479714 0.061579105 -0.055787165 0.057593517 -0.04250786 0.044234138 -0.14511013 0.028674264 0.014876926 0.04464233 0.030260943 -0.13905036 0.14998125 0.013388541 -0.012122881 -0.15692726 0.1209799 0.06809067 -0.024243716 -0.02315949 0.07089703 -0.085263595 -0.088711224 0.017729023 0.111028686 -0.024493301 -0.040535394 -0.10145505 -0.057464592 -0.11840906 -0.0006585289 -0.0965139 -0.1480367 0.23339725 -0.11359974 0.3359524 -0.05806491 -0.07485888 -0.22129194 0.091341205 0.011886753 -0.032475792 0.13037817 0.06519933 -0.014259611
og_fao -0.08991035 -0.1176419 -0.04355905 -0.0075466326 -0.0008967493 -0.018014641 -0.048950084 0.09606027 0.06834911 0.092192546 -0.014601604 0.11054144 -0.013058052 0.096849516 0.09564269 -0.1008001 -0.19536617 0.07680256 -0.063286155 -0.04656495 0.13896549 -0.0779561 -0.09064546 0.11408221 -0.005265865 0.12886956 0.021450417 0.19058365 -0.05287933 -0.040044315 -0.23623279 -0.07457088 0.13476774 -0.048745707 -0.091779485 -0.062589556 0.057381175 -0.045603085 0.035787787 0.097590685 0.003553421 0.058784623 0.020963486 -0.14103894 -0.1382122 0.013452748 -0.016517023 0.14271621 -0.026212094 0.04690932 -0.120558746 0.13729493 -0.024917385 -0.021423569 -0.004529565 0.08731268 0.08957796 -0.23185727 -0.06959145 0.01192361 0.24057285 0.1037812 -0.1607038 0.15117644 -0.10482134 -0.14920247 0.03184144 -0.030084189 0.038016215 -0.03034098 -0.17437673 -0.043346763 0.0017339952 -0.08951457 0.005670808 0.14304724 0.110817544 0.058738455 -0.004885854 -0.19398011 -0.023044426 -0.025283596 -0.0882957 0.1390956 0.1288372 -0.050607003 0.10235035 0.06424257 -0.09395567 0.27473328 0.0242894 -0.05389515 -0.019022655 0.048663802 -0.06770389 -0.15388809 -0.027043698 0.09723711 -0.018637365 0.09315592
jesus_faoh 0.016155327 0.037701555 0.09487749 0.05438959 -0.13446963 -0.060270652 -0.19699726 -0.10642 -0.29442483 -0.14445294 -0.048132073 -0.0679009 0.15238266 0.004262469 0.014845545 0.13957451 0.10361342 0.09371896 0.18899228 0.0092343865 -0.06252324 0.022463122 0.07674209 -0.15067963 0.018017607 0.019101422 0.035579555 -0.105565526 0.0029673153 0.06756874 0.23967323 0.048148006 -0.14643686 -0.10762563 0.020636223 0.19698995 -0.11730871 0.018594366 0.064463146 0.07369773 0.20114365 -0.05541061 -0.0043033 0.008281803 -0.08474454 -0.06423761 -0.018312188 -0.17805661 0.09533544 -0.13146333 0.031568676 0.046632 -0.046670537 -0.051880088 0.23095518 0.1680917 0.01145387 -0.058549505 0.092104696 0.055224612 0.041445218 -0.13392021 -0.0065305876 0.10316374 -0.008024214 0.00015002188 -0.09821499 0.10383867 -0.006091622 -0.05030065 0.10776727 0.11842002 -0.112445086 0.0008193266 0.038299445 -0.031430338 0.008257986 0.17198065 -0.100922816 0.011165845 -0.05312668 -0.05144484 -0.09474035 0.012646057 -0.06489447 -0.06886706 -0.093857005 0.13540398 0.1376967 0.0023455087 0.047848634 -0.09078226 0.030619012 0.05837695 0.08101692 0.08256996 -0.15514219 0.12449904 -0.07408798 0.015345895
var_faoh 0.026038265 -0.00967843 -0.03533439 0.0356008 -0.15159619 0.07056916 -0.016788593 -0.1267149 -0.0940065 -0.12946314 0.018794933 0.12965918 0.16536516 -0.1844638 -0.10220504 0.11695598 0.032353498 0.12649484 0.16836902 0.04678974 0.042987138 0.14131783 -0.036539614 -0.1312352 -0.03561212 -0.023659104 -0.22571543 -0.1344024 0.16060665 -0.11542903 -0.023669353 0.071815506 -0.13822274 -0.10994127 -0.16578402 0.07808753 -0.12861308 0.22374858 -0.03477265 -0.11679607 0.032164607 -0.083730206 -0.025932679 -0.09756528 -0.027107015 -0.11829355 0.108753465 0.028869247 0.00931272 0.059178457 0.16447787 -0.040731918 0.021646455 0.044930365 0.071622424 -0.106262416 0.0032616758 -0.0113870585 0.09620028 0.06265241 -0.12393822 -0.059187558 0.21115862 -0.059292313 0.16257323 0.069659755 -0.10015667 0.12819493 -0.043806892 -0.10509388 -0.050150923 0.0023350937 -0.032900754 0.043085374 0.029227298 -0.17947713 -0.1220763 -0.021875398 0.017740928 0.049786814 0.07476988 -0.012170845 -0.034136508 -0.036289144 -0.1526052 0.09498583 -0.14256899 -0.046043407 0.04016249 -0.052113205 -0.016619248 0.1834468 -0.030565185 0.015724607 0.07953902 0.05260484 0.010402947 -0.23664165 -0.0044162157 -0.045975596
fyri_faoh -0.12069189 0.071020104 0.20834383 -0.06848562 -0.07242045 -0.11457183 -0.043380458 -0.17126226 0.010708596 -0.19044393 -0.008386575 0.08912057 -0.04788116 0.13162318 0.06992388 0.0014695844 0.022634085 -0.10129791 0.027428018 -0.0017750341 -0.02684928 0.11313168 -0.09739375 -0.12467859 -0.06892458 -0.008933524 -0.0054550054 -0.11986086 -0.018117152 0.091211565 0.27696425 -0.023634855 -0.18727264 0.12445689 -0.061933063 0.021664824 -0.19559588 0.116335906 0.06703619 -0.03219868 -0.09359376 -0.09773783 0.040241774 0.1427812 0.019595113 0.051302705 -0.08909308 0.15915866 0.069781266 -0.15840082 0.048488062 -0.017892918 0.022188338 -0.06569039 0.027879044 0.06872757 0.0922809 0.07118136 0.14563744 -0.06245595 -0.25794104 -0.0441299 -0.048874985 -0.07275911 0.11715561 0.09385552 -0.09477486 0.006463798 0.035262953 -0.16227567 0.04074845 0.0016134471 -0.034111783 0.09970306 -0.10958996 -0.07761805 -0.10150247 -0.17653759 -0.02746143 -0.0028048097 0.10387712 -0.024165213 0.20945282 0.0649409 0.104664505 0.026485406 -0.1546261 -0.057829477 -0.08787535 -0.061093677 0.113376945 0.06834021 0.020895852 -0.08594899 0.14503926 0.039420683 0.13876353 0.044221446 3.5039735e-05 -0.029148592
segði_faoh -0.046276886 -0.17300266 -0.037866656 -0.1297446 -0.16097325 0.11461258 -0.029235793 -0.21210842 -0.06239244 -0.0548391 0.09388774 -0.18189172 -0.10755584 -0.07230256 0.047511183 0.07568785 0.23549603 0.064736776 -0.090803914 -0.17515436 -0.16936946 -0.0035692905 0.096284546 -0.115938604 0.09477944 -0.030192543 -0.051279545 -0.014921251 -0.1267756 0.2687582 0.23167227 0.09304381 -0.020206966 0.10286527 -0.039263863 0.055684876 -0.17660148 0.17782788 -0.06810905 0.09581073 -0.21165812 0.10563096 -0.05246686 -0.0010151351 0.10278049 -0.083367795 0.059886623 -0.08587083 -0.071729496 -0.061607268 0.07472953 -0.018122986 0.113086216 0.102881834 -0.10263513 0.10502901 -0.038819425 -0.077516824 0.04209217 0.07523666 -0.09510906 0.021031022 0.0990572 0.079385005 0.003585191 0.026457757 -0.049635027 0.11338617 -0.09506323 0.08448371 -0.09303378 0.053608425 -0.06085199 0.0039845835 -0.032548953 -0.033819247 0.05929383 -0.21946955 0.03260649 0.08749287 0.021364504 0.04009874 0.058926582 0.04052529 -0.074002855 0.071921155 0.0153603535 0.08822442 -0.06993958 -0.040622953 0.06828029 0.029272739 0.040399715 -0.039205395 -0.014407153 0.00081698375 -0.032199055 -0.087544195 0.089343145 -0.17322002
tú_faoh 0.055664808 -0.081042364 -0.042580884 -0.10686458 0.10270459 -0.026376255 -0.15113482 -0.16239034 -0.103082106 -0.14313845 -0.0790364 0.005366404 -0.065471016 -0.077972405 -0.12318853 0.2713177 -0.087449476 -0.12023291 0.111426406 0.11842449 -0.10808992 0.047392633 0.02932219 -0.012918237 -0.055147164 -0.106466986 0.012767607 0.08519937 0.07934813 0.106681004 0.18071592 0.023080828 -0.093698815 0.038598023 -0.0421761 0.0143462885 0.04370896 -0.0018621974 0.050885096 -0.041271634 -0.10327346 0.11514429 -0.0937988 0.17666216 0.03134305 0.0233103 -0.0034904357 0.075508244 0.14518486 -0.0021587524 0.10545152 -0.12417253 0.033508107 -0.27834493 -0.0024295577 -0.011825416 0.09420301 0.13308145 0.17353866 0.10730268 -0.10442002 -0.19519743 0.11752611 -0.1350919 0.07047072 0.13509828 -0.034334548 0.026221162 0.11596631 0.037565902 0.09949892 -0.028561588 -0.11692439 -0.1266387 -0.0841018 0.009417499 -0.028197588 0.0024845132 0.06788613 0.03210684 0.13451372 -0.07676011 0.07025995 0.025093587 -0.04273034 0.10628775 -0.036689084 0.047027957 0.06000367 -0.10370392 0.029252192 -0.114870496 0.004168343 -0.16221051 0.10003045 -0.053154748 -0.22234283 0.09235404 0.010942223 0.11312605
eru_fao 0.13529277 -0.25579843 -0.03819172 -0.116992764 0.10226958 -0.18370369 -0.04069784 0.09352293 0.094315514 -0.023429152 0.037738614 -0.05594713 0.077895306 -0.06906416 0.03315931 -0.14874145 -0.06372505 -0.123693384 -0.018369872 -0.01201873 0.19076538 -0.04521008 0.018297587 0.07363609 0.026714373 0.116708815 0.22401652 0.13951123 -0.021879155 -0.056758773 -0.26904643 -0.048846822 0.24760234 -0.18622994 0.07191829 -0.13982677 -0.0031164796 -0.11066871 -0.070118375 0.08984339 -0.024840647 -0.00057161413 0.16231915 0.021120656 -0.011723288 0.07127567 0.13051187 0.10442669 -0.06640899 0.1481004 -0.04107178 -0.017450282 -0.037452705 0.20622703 0.06635358 -0.15153316 -0.06846429 -0.106717885 -0.051606834 -0.019428313 0.003448694 0.026110617 -0.13959949 -0.061418828 0.04306343 -0.015755028 0.06288188 -0.20122387 0.022607675 -0.09047015 0.02350125 -0.013728171 -0.07075624 -0.0452825 0.026017096 -0.04643641 0.1968455 0.043106664 0.01658981 0.032455876 -0.094632834 0.00038534057 -0.06904048 -0.013021006 0.080146246 -0.028511532 -0.0047229896 -0.020068526 0.014577247 0.06909301 -0.0041351896 -0.11356968 0.0698104 0.06783283 -0.12185535 -0.118596226 0.16533603 -0.04116791 -0.06868269 0.05770886
hevur_faoh 0.09999837 -0.22259988 -0.20829545 -0.10941143 -0.11922054 0.14981441 -0.089070894 -0.14011693 -0.024015766 -0.019323304 0.17701322 0.02148859 0.10374815 0.19595465 -0.08039525 0.078423664 0.052965533 -0.0005220071 0.09165341 0.14451003 0.03893992 0.18425366 0.048101127 -0.12745203 -0.0870612 -0.052055508 -0.029179903 -0.15611896 0.107957326 0.11515793 0.09209209 -0.010652468 0.00888 -0.07113411 0.011968897 0.086959146 0.025976507 0.05831848 0.0787127 -0.048571765 -0.052185465 0.050433226 0.059511103 0.0014216094 -0.026044033 -0.095485695 -0.10415931 0.021540157 0.005407033 -0.030544091 0.1883607 0.108252816 0.14526501 -0.056240268 -0.07192105 -0.049265966 -0.07297049 0.0055729467 0.14198619 0.10315025 -0.0703537 -0.10680232 -0.0024416905 -0.059630025 0.015585346 0.14210089 0.011791075 0.06534399 0.014276556 -0.08968873 0.07638643 -0.07399251 -0.014770936 -0.069399945 0.05172717 -0.18454903 -0.12711667 -0.01040409 -0.067471474 -0.04390278 0.004151607 -0.045293204 -0.0011538655 -0.17959091 -0.07847491 0.060701758 0.07828727 0.15912154 -0.049453158 -0.1575575 -0.20018992 0.038725507 0.08375575 0.00071283587 0.1523462 0.19047703 -0.04888273 -0.22485542 0.04391881 -0.07038126
teimum_faoh -0.049141522 0.101938084 0.042738225 0.07725457 -0.080797605 0.06539263 -0.0035821288 -0.07188605 -0.059860457 -0.0292767 0.003115816 -0.12223823 -0.016259631 -0.03692452 -0.0021681613 -0.022834014 -0.033431165 0.040416304 0.017780453 0.1352724 -0.04290005 0.06515126 -0.098920114 0.0009334343 -0.016607167 -0.04712047 0.091618866 -0.0691528 0.07866939 -0.14508912 0.16564529 0.1494675 -0.1554264 0.08236268 -0.14358246 0.1001014 0.058446858 0.070346154 0.081464045 0.12414749 -0.26006353 0.085045494 -0.0016253685 0.15290454 -0.0007601683 0.03459583 0.023323843 -0.14195375 -0.0065651643 -0.0728249 0.25151265 -0.10844768 0.054427665 -0.06435881 0.12274417 0.102680415 0.13930003 -0.058051523 0.0033020987 -0.08329067 -0.24744654 0.1198843 0.10107112 0.06120052 0.011056383 0.084185645 -0.114491045 0.19166663 0.08695343 -1.8155373e-05 0.019614065 -0.06159855 -0.11654467 0.057948496 -0.12451512 -0.030653121 -0.027472584 0.06931163 0.08938897 0.042300303 0.03514944 -0.14038621 0.043665864 0.078223236 -0.24954557 -0.0894273 0.16716395 0.10011956 0.13320176 -0.17678514 0.015117571 0.096013084 -0.07330594 -0.108310744 -0.011286409 0.11306339 -0.08307576 -0.10540509 0.07282935 -0.030736936
tykkum_faoh 0.040216383 -0.025148083 -0.0080852695 -0.011443693 -0.0619806 -0.1334072 -0.013968204 -0.08899257 -0.06862812 -0.09172812 0.04350203 -0.02003267 -0.027063383 -0.11641313 0.05193495 0.09227609 -0.034821633 -0.09316002 -0.06722366 0.35000515 0.036928438 0.09799469 0.041007724 0.0037795992 0.10214194 0.05471013 -0.013672231 -0.061247166 -0.011499391 -0.04103169 0.18143135 -0.056486342 0.041478056 0.07867862 0.053663258 0.15813299 0.052516703 0.133624 -0.12884861 0.07616994 -0.29338595 0.12915574 -0.11591418 0.24357161 0.0534809 0.034017872 0.1032519 -0.15216728 0.010855869 -0.04182642 0.039032403 -0.060948886 0.07510528 -0.051337384 0.029863732 -0.09544927 -0.022012278 0.011687742 -0.018354857 -0.07255561 -0.07722746 0.1081595 -0.069803104 -0.059554506 0.11678066 0.001818445 0.036573093 0.19067025 0.18967274 -0.18125202 -0.03177829 0.03900109 -0.037081573 -0.056320064 -0.14468786 -0.09041057 -0.08807598 0.16672347 -0.0212801 0.11747176 -0.04148409 -0.101941414 0.10448504 0.03454472 -0.09692024 0.057080522 -0.05106877 0.03004593 0.13574661 -0.11308263 0.030999733 -0.004618595 0.062161386 -0.14338098 0.02373671 0.1818165 -0.08921973 0.050944816 0.13134955 -0.08704512
hetta_faoh -0.03295689 0.111312635 0.20065553 0.039543796 0.040230103 -0.08736565 0.028109806 -0.036971767 -0.22193879 0.016154896 0.0011100406 -0.104476295 -0.10248273 0.081308365 -0.016817138 0.113040835 0.16340075 -0.038074486 0.0748214 0.2475274 -0.188235 0.12994699 0.21889873 0.046968397 0.02682618 -0.0018967212 0.07108385 -0.041862667 -0.016487407 -0.10592861 0.16903456 -0.11280272 -0.013606852 -0.052657984 -0.1113557 0.075593114 -0.031665277 0.09123258 0.064346224 -0.14680475 -0.037777964 -0.11121685 0.02172403 -0.013227354 0.2651563 -0.13118914 -0.11226479 -0.043105353 0.033339147 0.06369297 0.079657316 -0.11691369 0.07940459 -0.027246065 0.026439266 0.136077 -0.07430762 0.14170669 -0.07809589 0.027561102 -0.1251691 -0.12639259 0.02897061 -0.086224385 0.0562601 -0.010833124 -0.09375525 0.08726003 0.09310508 -0.1410102 0.00916127 0.110565536 -0.0890142 0.04434034 0.067866296 0.14170271 -0.113896646 0.16231912 -0.04951841 0.02632205 0.107437454 -0.13402605 -0.10955153 -0.025837766 -0.058909647 0.036056258 -0.0066048857 -0.06890014 -0.017357428 -0.060393147 -0.08511183 -0.082917005 -0.03337187 -0.110838704 0.16977632 -0.0044944314 -0.15247704 0.03353288 0.11188424 0.045150694
honum_faoh 0.04094922 0.26263872 0.0032692077 -0.04049855 -0.02585257 0.06936022 -0.13039678 -0.09277637 -0.10177242 -0.070143975 0.12478303 -0.031135703 -0.041215908 -0.15611999 0.16938974 -0.06652614 0.07389585 0.017498255 0.036434308 0.22075969 0.05328661 -0.09815686 -0.0087008355 -0.09521584 -0.03389235 -0.027888428 0.10316229 0.015464643 0.1394007 0.019023724 0.024925627 0.14842433 -0.07832105 0.0033552046 -0.11435954 0.16792275 -0.003421986 0.11497149 0.11611776 -0.007624868 -0.1072022 0.124879405 -0.12762526 0.059137356 -0.0076568876 -0.07252908 0.13618961 -0.072174385 0.015940368 -0.041673105 0.099719316 -0.10716517 0.0845018 -0.06741079 -0.04148887 0.12637533 0.07394302 -0.035028942 0.19258808 -0.055150375 -0.15593791 0.00638012 0.04831303 -0.07409438 0.08837821 0.011437904 -0.052893575 0.18625812 0.06665725 0.004113132 0.13600563 0.06528673 -0.024143841 0.03447113 -0.0022617758 0.15935814 -0.046337064 -0.0673521 -0.023588683 -0.06302194 0.028359849 -0.08139022 0.092499256 0.016123312 -0.1455673 -0.12191015 0.06636147 0.07652749 0.22396989 -0.171775 0.03335568 0.04865875 -0.03851764 -0.12558106 -0.075471364 0.1862019 -0.15923966 0.10746507 0.17579159 0.09370095
hansara_faoh -0.07662127 0.06763699 0.06462803 0.05777526 -0.15875494 -0.036654994 0.08794674 -0.04437139 -0.09781282 -0.074815854 0.049078844 0.08140008 0.11689899 0.0017822678 0.0075982274 0.116880424 -0.13772081 -0.013751944 0.18820372 0.009616125 -0.12734912 0.19392781 0.14307469 -0.15246516 0.025161183 0.01872654 0.02481371 -0.15004681 0.04851297 0.080931805 0.07090594 -0.12527803 0.026845323 -0.022871071 0.07225089 0.1211921 0.09659581 0.30930758 -0.050210502 -0.046540476 -0.01722372 0.021510176 -0.037847877 -0.1045502 0.05624897 -0.17694126 -0.00692156 -0.087031916 0.04476542 -0.2186301 -0.10153906 -0.1317437 0.035737764 -0.09023137 0.08494809 0.057075992 0.06813732 0.027088808 0.073891915 -0.042293854 -0.26077214 -0.0049022636 0.07307515 -0.026536025 -0.0631584 0.07868128 -0.21723194 0.041848913 -0.0072948327 0.11093806 0.10861233 -0.051925153 -0.017601557 0.09151459 0.00558238 0.07209708 -0.045156218 -0.049304213 -0.0119257895 -0.055321176 0.09587892 0.057012808 0.0135566695 -0.12513173 -0.08849429 -0.034709964 0.18478331 -0.050189793 0.17706314 -0.13194267 0.005471819 -0.009859966 -0.006076786 -0.092035614 0.042509943 -0.039517317 -0.21208198 0.06245533 0.1202442 0.11175684
upp_faoh 0.17068022 0.09808688 0.18447997 0.07569152 -0.052319054 -0.073357426 -0.10274903 -0.15695037 -0.18052717 0.1091905 0.011539044 0.08500443 0.022427607 -0.19064023 -0.068639144 0.03820425 -0.0076786294 -0.12129869 -0.017723009 0.038952906 0.063040756 0.10939353 -0.08810057 -0.070677355 -0.108778894 0.028713366 -0.027270485 -0.14459692 0.00877161 -0.03981399 0.10333738 0.051105708 -0.12839384 -0.0067181974 0.012211997 0.04572156 -0.016278416 0.13814601 0.07480998 0.086068526 -0.07351391 0.009865553 -0.025972208 0.12509844 0.2201613 -0.1728662 -0.08970235 -0.12050232 0.14225192 -0.08372485 0.0051020076 0.10039159 0.12504365 -0.003308395 0.022428274 0.1742348 0.09475909 -0.034311138 0.07824636 -0.16013019 -0.05978503 0.12770674 0.16250049 -0.107685186 -0.0012021641 0.022936342 0.0144139 0.08318089 -0.022401383 0.06330459 0.038250826 -0.053657383 -0.09889609 0.0088017415 0.026813282 0.004090857 0.00050942285 -0.14133213 0.21480869 -0.034240402 -4.7377296e-05 0.19969197 -0.0050464845 0.026411543 -0.26853836 -0.12314932 -0.09738788 0.015520227 0.06553618 0.05990474 -0.04411368 0.05552527 0.11567547 -0.06398615 -0.0137404045 0.16084145 0.05104956 0.13469982 -0.006177349 0.14819095
ein_faoh -0.06826868 0.13642044 0.09764503 0.1659949 -0.012834561 0.0011416441 0.044113964 0.0055192905 -0.10774378 0.13301232 -0.03885981 -0.056917068 -0.11857467 0.009122342 0.15031895 0.022473736 -0.1492636 0.09191955 0.056313578 0.08276012 -0.032071546 -0.08895081 0.044302795 -0.16935383 -0.08040931 -0.14983775 0.049821384 -0.0175142 0.09087167 0.095853634 0.10524251 0.15314922 -0.0013887787 -0.00080812495 0.01886391 0.0104021095 -0.037858453 0.13128608 0.046261106 -0.12577292 -0.07286317 -0.016611198 0.1274117 0.07565683 0.0417125 0.021430224 0.02312408 -0.1389692 -0.0124655785 -0.13005067 -0.003797431 0.030442584 0.09809822 -0.095462784 -0.09495231 0.018209433 0.072761245 0.10908848 0.064044446 -0.02774293 -0.037916385 -0.000171803 0.060085956 -0.20744035 0.12242327 0.120361954 -0.1668342 0.0913366 -0.0023124411 0.053343356 0.038062513 -0.022212451 -0.18534827 0.12299986 0.02536931 -0.065250255 0.045097336 0.03489177 0.0033147298 0.065728866 0.09144877 0.03469958 0.13469408 0.015317168 -0.2621586 0.20063359 -0.062790096 0.02175825 0.20381413 -0.07324016 0.002600781 -0.039303493 0.058678932 -0.19283944 0.20940197 0.13423404 0.027981998 -0.2663651 0.026009396 0.046358764
meg_faoh 0.00563491 -0.08684888 -0.020833444 0.06357957 -0.05904398 -0.07792669 0.119102165 -0.150358 -0.22046539 -0.0478182 -0.03726625 0.11198806 0.028615844 0.07818628 0.06939341 -0.0012720112 0.18467851 0.0025512825 0.054477513 0.15440542 -0.049078118 0.020347532 -0.03953507 -0.110578164 -0.07340318 0.1634534 -0.0671884 0.08202733 0.010407998 0.19307412 0.13326845 0.05068538 -0.092048936 0.24951212 0.028090153 0.09134986 0.04748751 0.12161316 -0.0012798025 0.05485629 -0.2255778 0.062109638 -0.06856968 0.17335154 0.22227255 0.091671444 0.046737917 -0.09041139 -0.029480213 0.06570873 0.10030202 -0.1390698 -0.044096358 -0.104931474 -0.06422796 -0.031968627 0.058716763 -0.1503657 0.02734429 0.07920709 -0.07416473 -0.122841984 -0.010342768 -0.11402764 0.07739397 0.0025407108 0.084364794 -0.011905066 0.11936554 -0.10047342 -0.08245238 -0.046362583 -0.044865042 0.09786077 -0.015008206 -0.0038716597 -0.060104135 -0.016919492 -0.044205498 0.09471026 0.06675861 -0.15617277 -0.18289204 -0.05026016 0.06487737 -0.014067333 -0.018827092 -0.16196467 0.12628816 -0.0010429533 -0.0869656 -0.061907727 0.12892252 -0.09698246 0.080805756 0.13152729 -0.10995873 -0.08402114 0.20405024 0.04873482
frá_faoh 0.06997333 0.09125851 0.15882272 -0.12648569 -0.05663485 0.026618114 -0.00923796 -0.083095804 -0.112269856 -0.022770071 -0.1022407 -0.06217407 0.04340905 0.03443477 -0.13238 -0.071036 -0.017645359 0.0520501 0.006415299 -0.028694905 -0.12894605 0.22494423 -0.04493327 -0.18732484 0.07633963 -0.080564454 0.0843188 -0.3253878 0.045105666 0.10330458 0.17914283 -0.011759131 -0.093391865 0.06626714 -0.061780248 0.0074565546 0.032727297 0.17263493 0.03839259 0.041249964 -0.08166571 -0.11764706 -0.042940706 -0.06189452 0.069764204 0.0674072 -0.048976213 0.03021832 0.048519988 -0.107383184 0.01946218 -0.07049168 0.026722074 -0.16355339 0.08067237 0.064680256 -0.00014704846 0.012266346 0.074927434 0.111470446 -0.042821314 -0.12289696 0.05346144 -0.14804627 0.031248922 0.00037097372 -0.020432742 -0.12493073 -0.09234807 -0.00860194 0.024132567 -0.12663299 -0.037215743 0.041227397 -0.20869258 -0.06979233 -0.118550956 0.062444896 -0.08719979 0.19439104 -0.010728681 0.13686123 -0.0003279727 0.079013556 0.05374761 -0.00095978426 0.062437017 -0.12150864 0.114813924 0.07029928 0.11567556 -0.055944573 0.07410472 -0.13692507 0.26507938 -0.12364218 0.18193008 -0.08078283 0.012549011 -0.08908566
skal_faoh -0.017656388 -0.090390764 -0.0802831 -0.11698255 0.0827565 0.055599798 -0.014705807 0.013799621 -0.15746878 0.10894792 -0.12722588 0.10263536 -0.06705423 -0.0954467 -0.032002304 0.10539381 0.019564448 -0.14010301 0.11058215 -1.5434971e-05 -0.0015075315 0.103085704 -0.013126544 -0.070663616 -0.0792364 -0.10581998 -0.10365298 -0.06355519 0.032796796 -0.033517204 0.1551193 -0.043667506 -0.007129339 0.05064744 0.10345082 0.09558998 -0.12730205 -0.050162353 -0.03180099 0.10790886 -0.22868122 -0.041063238 -0.21349078 -0.0021168431 0.0746041 0.09758516 0.045666464 0.18356375 -0.17800868 -0.031372584 0.004699584 -0.051944192 0.05290646 -0.10621852 -0.09241222 -0.09310252 0.11216835 0.107160084 0.14487815 0.09355551 -0.09134812 -0.10909162 0.1665638 0.14534687 0.16312693 -0.14102912 0.09229738 0.046407446 -0.03462682 -0.020883558 0.15043163 -0.03168094 0.0034094974 -0.06959175 -0.04255983 -0.031086909 -0.11395134 -0.010894248 -0.01836531 -0.05132782 0.09133006 -0.09166078 0.130291 -0.17096284 -0.1220032 0.11705114 -0.0011191263 -0.085651495 0.08608039 -0.1719489 0.04207001 -0.16005902 0.011885094 -0.010310764 -0.013533902 0.2335569 0.05888967 -0.1461472 0.13662533 0.041559666
tann_faoh -0.10387696 0.029993523 0.012427153 0.058148846 0.055584323 0.05411845 -0.06257294 -0.019004038 -0.20720525 -0.009546696 -0.040478524 -0.044317324 0.012856733 -0.07742613 0.019195417 0.0130612375 -0.061053865 -0.032658335 0.1270747 0.08215246 0.048979733 0.011942492 0.016093262 -0.17086847 -0.10511537 0.17546856 -0.057290763 -0.07546892 0.09232749 0.23963875 0.14410539 0.12591769 -0.054655418 -0.034240335 -0.005407636 0.019127388 0.1295061 -0.044067364 0.067332245 0.07600919 -0.116479106 -0.07906427 -0.03898034 0.038666412 0.037219584 -0.042260423 -0.07119829 -0.13041358 -0.067401476 -0.11152242 -0.15951242 -0.14089163 0.15764502 -0.23577927 -0.028979423 0.10607084 -0.008388948 -0.018610813 0.13717507 -0.11347613 -0.1295013 0.06912198 -0.009060418 -0.14823431 -0.12540226 -0.004660289 -0.05612263 0.0118769 0.119777635 0.020508872 0.07344694 0.12813742 0.11190913 0.13499667 0.026672913 -0.19295587 0.06832472 0.028842837 0.058502614 0.026570255 0.07862082 -0.012979874 0.11528995 0.17154941 -0.0062727123 0.028491922 0.09632894 -0.060541797 0.14217839 0.049070563 0.14179768 -0.16066368 0.16047353 -0.07498316 0.16180192 0.09871814 -0.06393883 -0.18198593 0.15228708 -0.053344168
nú_faoh 0.028058654 -0.029834563 -0.036432363 -0.14106366 -0.08565232 0.07183092 -0.039905064 -0.15667078 -0.19408092 -0.121038705 0.011977349 -0.16677423 0.046952173 0.03392819 0.05566375 0.1280352 -0.056475703 -0.06140049 -0.02088562 0.120127685 -0.2130653 -0.001931701 0.14952274 -0.03668791 0.110012725 0.0015600552 -0.044490736 -0.119138844 -0.027154261 -0.0034728474 0.11912332 -0.03207938 -0.17180641 0.15376098 -0.09316875 0.06533028 -0.024772802 0.05372099 0.02690754 -0.17215957 -0.10214964 -0.11480102 -0.14228337 -0.05813843 0.1418467 -0.029225107 0.027060788 -0.030021029 0.026548201 -0.16364673 0.20856293 -0.08438034 0.11983231 0.10841025 -0.026754398 -0.052228745 -0.0073841675 0.006671082 0.048593022 0.03828598 0.009974597 0.06593128 -0.06880907 -0.13057987 0.10525296 0.029597724 -0.084285334 0.013658667 0.04394411 0.20225869 0.11590117 0.0052834894 0.10935519 0.124396846 -0.088138446 0.00011803453 -0.1253464 -0.12103195 -0.20622177 0.062061958 0.08160116 -0.062082324 -0.017309424 0.06264092 0.0041629113 -0.010589609 -0.045533296 -0.0108860945 -0.03306306 -0.058540143 0.079279914 0.075641505 -0.105468936 -0.24055684 0.12474692 0.26710945 -0.0760638 -0.012920274 -0.015623466 0.09673866
sigur_faoh -0.05636277 -0.19366348 -0.13043134 -0.12043118 -0.18604456 0.23169224 -0.108280994 -0.09563331 -0.14535297 0.05649973 -0.10177054 -0.064615056 -0.009760779 0.043798372 -0.099585935 0.085851036 0.16424832 0.0070158537 -0.11153229 -0.04970792 -0.140836 -0.13968743 0.16667514 -0.097152196 0.039027765 0.0747862 0.0054491605 -0.054034613 -0.07139643 0.28988194 0.07866508 0.004354067 -0.13293962 0.10382302 -0.19045554 -0.08968267 0.024154212 0.12152131 -0.0706428 0.045181416 -0.0062339073 0.106325075 -0.09587277 0.06928731 -0.00060870487 -0.111633115 0.10275412 0.018065805 0.0016287166 -0.031473197 0.020471346 -0.09811193 0.2103648 0.0393822 -0.12096503 0.02407207 0.04591609 0.082070716 0.050792225 0.17013945 -0.13013525 -0.038393807 0.020744028 0.09514565 0.033971302 0.030079765 -0.1328006 0.07553458 -0.12437474 0.062315095 -0.15020293 -0.0129088005 -0.08778402 -0.024209423 0.0450243 -0.081151135 -0.0018841325 -0.047317963 0.11078903 -0.041596342 0.08006364 0.058300484 0.13077402 0.11858933 -0.10321701 0.06733315 -0.116222605 -0.0071451375 -0.0732328 -0.068709865 0.14491211 0.028440414 -0.010118997 -0.047493063 0.01731567 0.13730048 -0.027445154 -0.09684346 0.1268609 -0.049461123
hevði_faoh 0.2002975 -0.007284794 -0.116890185 -0.0061156303 -0.050560597 0.18793245 -0.09179615 -0.22725472 -0.04574444 -0.037653793 0.06329572 0.057437047 -0.016923562 0.11663826 -0.039121225 0.111859836 0.048456073 0.04289481 0.02405254 -0.011711739 -0.12802938 0.06718932 0.081363 -0.13379635 -0.1825976 -0.04186903 -0.09255375 -0.21806963 0.122364715 -0.022124112 -0.009958347 0.16873649 0.0076136314 -0.022164859 -0.14720508 0.09749855 0.053096987 0.05345804 -0.11030481 0.03818701 0.009677274 0.010457135 0.04665236 -0.15403388 -0.007581621 -0.02566575 -0.12163599 -0.023685245 -0.06781384 0.08100186 -0.045264285 0.057696246 0.15838693 0.10971597 0.0926034 -0.012817637 0.0016882928 -0.029421452 -0.034749694 -0.0065863277 -0.12410875 -0.06071577 0.08791935 -0.1664848 0.15202807 0.10481578 0.08733616 0.12040138 0.051946037 -0.114197 0.15676601 -0.011836257 -0.060786553 -0.103264324 0.13700914 -0.006378019 -0.11322498 -0.07480209 -0.018334687 -0.056534447 -0.046573587 -0.006912552 0.15728 -0.2096284 -0.035775084 0.036812183 0.0024162654 0.21739672 -0.08602058 -0.086050116 -0.13982365 0.041070394 -0.1091475 0.027014459 0.19360553 0.05996024 0.10396068 -0.14327396 0.030943751 -0.13014004
tey_faoh 0.02394745 0.12900695 0.031026846 0.08511225 -0.17087011 -0.035856374 -0.038603745 0.019078117 -0.014165879 -0.05451374 -0.12710123 -0.0006632993 0.07541857 0.085170746 0.023468385 0.015673248 0.0874908 0.06016108 0.034427587 0.028746296 -0.065457776 0.08861453 -0.15815796 -0.15944088 -0.10973811 -0.06615356 0.023410674 -0.025691563 0.12768494 0.17176256 0.012867618 0.17822807 -0.029701814 0.1480254 -0.11000503 0.03028941 -0.04815573 0.18473344 0.14345683 -0.016238425 -0.083655804 -0.07375726 -0.0055998066 -0.053445023 0.106315546 0.030220086 -0.15064572 -0.09997041 0.06291714 -0.07092456 0.19384247 -0.07599996 0.018828642 0.076064706 0.15173507 0.074722804 -0.012636456 -0.0052066953 0.13546266 0.071321405 0.028114447 0.018010585 0.11335542 -0.08475511 -0.13369472 -0.023529693 -0.04721245 0.1189337 0.078052014 -0.30930078 -0.0035662397 -0.070704415 0.14289705 -0.025380075 0.05716635 0.029266827 -0.07704248 0.067330584 0.028125849 -0.057440627 0.107232176 -0.0851154 -0.0072434563 0.014028978 -0.08136051 0.15109146 0.025915027 -0.11375255 0.13502197 -0.30195266 0.03182878 -0.061808236 -0.20767696 0.087885074 0.09176062 0.10728599 0.017544799 0.05674039 -0.11968977 0.08070444
eftir_faoh 0.070297144 0.04773114 -0.02542446 -0.0114306 -0.18817316 -0.06579026 0.16814916 -0.050979994 0.05919048 -0.053518035 0.023848126 -0.06886723 0.037666503 -0.060292922 -0.007100759 -0.063726954 0.15826175 0.07953822 0.1006751 -0.19082786 -0.14475657 0.15035534 -0.06746123 -0.20893036 -0.027837524 0.027207268 -0.12675646 -0.29482254 -0.13535322 0.04048814 0.031473123 0.08310605 -0.012602925 -0.036952086 0.059491318 0.10213536 0.03449891 0.14854299 -0.24254853 0.024271658 -0.008422945 -0.09359149 0.13105765 0.08730057 -0.05455351 -0.051382117 0.06054656 0.060668536 0.07638062 -0.21530698 0.06761332 0.09057671 0.18836658 0.010430051 0.022911826 0.16202925 0.020822778 0.016329875 0.027159927 0.03581833 -0.09987004 0.07152994 -0.029461535 -0.20757207 -0.096165024 0.025456998 0.062283065 0.07797965 -0.05700235 0.04120669 0.06735128 -0.072203346 -0.026598733 0.068249315 -0.008443255 -0.107725844 -0.17331864 -0.012719899 -0.074650876 0.04619466 0.092010826 0.056976713 0.11905568 0.096061274 0.068262495 0.050995614 -0.01349619 -0.13361964 0.116445646 -0.11155167 -0.01721879 0.066435985 0.06445252 -0.07931643 0.030158661 0.19576317 0.1251701 0.045075584 -0.05715233 -0.1156221
sögdu_faoh -0.040128246 -0.18081105 -0.12808576 -0.0608141 -0.025317127 0.16517839 -0.08587086 -0.026133858 -0.05495895 -0.06446145 -0.09107846 -0.05759999 -0.05033857 0.06823438 0.12017422 0.030784765 0.14412464 -0.10776521 -0.14155409 -0.035137914 -0.033852655 0.07611036 0.10179807 -0.11344644 0.08258496 -0.16378483 0.13192452 0.03820658 -0.013098556 0.1526469 0.049438085 0.057902656 -0.1467005 0.11613809 -0.09883784 0.22980365 -0.059564453 0.098313384 -0.15172543 -0.124859676 -0.08363529 0.0054302737 0.11066427 0.063946456 0.16219111 -0.09304141 0.078153595 -0.009286731 0.013920295 0.035366062 -0.0709205 -0.08804714 -0.027787963 0.040692747 -0.19472402 0.09104891 -0.06700312 -0.10792882 0.12670013 -0.026505958 -0.1607771 -0.018716572 0.18859094 0.042360622 -0.044610158 0.13329385 -0.14629072 0.05148706 -0.19174878 0.19679998 0.031348217 0.04578249 0.091881596 -0.04425218 -0.003900646 -0.0638457 0.11418589 -0.010322796 0.13021767 0.008756925 0.05929083 0.16144936 0.029926423 -0.0071679824 -0.20234974 -0.06174538 -0.09856499 0.06678881 0.14497113 -0.06963363 0.027933465 0.18118575 -0.017171009 -0.03255841 -0.076791376 0.0031456575 -0.03762939 0.0037412075 0.041374426 -0.05472001
mær_faoh 0.030696752 -0.11135386 0.055924874 -0.06394771 -0.18989843 0.02839307 0.05677228 -0.028583067 -0.30293798 0.023646353 0.1581298 -0.030995734 -0.0017290841 0.036325343 -0.020806352 0.16158359 0.12382809 -0.014590274 -0.11245471 0.1358241 0.14902715 0.028218994 0.019734785 0.06631208 0.0003975036 -0.12666133 0.022671066 -0.003846689 -0.14182991 0.0122891655 0.07559005 0.07600454 0.005278127 0.14661978 -0.011679493 0.162482 -0.13811041 0.17533784 0.051118657 0.13044842 -0.016156407 0.19869548 0.0008363878 0.06877114 0.06912103 0.077063106 -0.020941304 -0.18702543 -0.044572726 0.17339739 0.056993615 -0.1249158 0.13708213 -0.061800275 0.11232851 0.06183639 0.10604012 0.011068606 0.10329839 -0.1702648 -0.092682526 -0.18979272 0.05153571 -0.07018344 0.038394894 -0.096234 0.00898233 0.014910665 0.07912083 -0.021388311 0.019110778 -0.044346657 -0.048989553 -0.057688974 -0.041722726 0.02786171 -0.1784026 0.06518356 0.08333288 0.05629168 0.05155969 0.094263986 -0.047973827 -0.095347226 -0.026110543 0.011353191 -0.12205175 0.039160036 0.06479485 -0.25727242 -0.013340534 -0.007120916 -0.08974127 -0.12861308 0.089660905 0.14101285 -0.14056048 0.08365331 0.031601768 0.052243937
vit_faoh -0.015853629 -0.17941473 -0.041399937 -0.0074397903 -0.22101627 0.085928716 -0.008257667 -0.059468005 0.097470276 -0.004413057 -0.05935663 -0.021366708 0.1123728 -0.17121018 0.012088668 -0.06002119 0.020095276 -0.033485804 0.024022821 0.012231527 -0.110404365 0.20544273 0.10332166 -0.101541266 -0.05356844 -0.12530513 0.021492483 0.06559567 0.13435018 0.073086746 0.06493815 -0.030166201 0.051095348 0.21105509 0.058410123 0.13029633 -0.032450605 0.07588015 0.094117805 -0.0628855 -0.109920055 -0.06724246 -0.11315845 0.08496378 0.100375086 0.049136076 0.02267316 0.012196548 -0.007774187 -0.101673864 0.05881469 -0.118411094 -0.017873622 -0.14404619 0.12806134 -0.058202464 -0.040235262 0.034216374 0.16042455 -0.01666453 -0.06356306 -0.13701116 0.13521992 -0.13758415 0.17108212 0.11711433 -0.09150603 0.21566431 0.036922965 -0.124503486 0.123075195 -0.19150779 -0.008415871 0.074148014 0.06368147 -0.13256644 -0.23958609 0.04976451 -0.12383195 0.05362372 0.0006169189 -0.026430646 -0.108719714 -0.015577639 0.038711373 0.11869745 -0.06857013 0.019536981 0.06583028 -0.13210948 -0.0059496835 0.024704903 -0.15596803 0.12247316 -0.07484813 0.023074247 -0.12431763 0.16109242 0.058795583 0.06880751
út_faoh 0.065087385 -0.048480723 0.016773172 0.12509318 -0.28274378 -0.041039374 -0.021631692 -0.014111003 -0.0612881 0.018044714 0.18134508 0.0073782913 -0.09872963 -0.03677454 0.045179207 -0.004130696 -0.027684454 -0.01191249 0.03449502 0.13611315 -0.05435758 0.05431116 -0.046061452 -0.2155519 -0.106389195 -0.021131389 -0.11859486 -0.16655111 0.062764734 -0.0459245 0.18005845 -0.14294593 -0.11109488 -0.15600206 -0.046026718 0.18883713 0.01563394 0.17232333 -0.018466113 -0.24244341 -0.07537307 -0.051459756 -0.012256344 -0.046646487 0.16093858 -0.0392598 -0.035198037 0.02980793 0.11979047 -0.046902608 0.11755117 -0.07469372 0.084707424 -0.09574002 -0.05273344 0.16660412 0.06470981 -0.011275809 0.037414897 -0.2228162 0.08335508 -0.028183285 0.06510605 -0.09426569 0.016372634 0.08438519 -0.037243407 0.17657423 -0.06849378 0.083984464 0.20698866 0.061667856 -0.028384505 0.12875512 -0.123434864 0.072008885 0.017188141 0.06119359 0.1721541 -0.115633614 -0.10671145 0.055487815 -0.021899376 0.053413253 -0.07722084 0.036020808 -0.038916785 -0.015683567 -0.019622877 0.0002229674 0.04541629 0.024287866 -0.013831735 -0.024747822 0.009511133 0.22253305 0.12424682 -0.081407644 0.021085223 0.0929736
á_fao 0.10226534 -0.022233406 -0.046264835 -0.11167966 0.12859283 -0.05471604 0.08448605 0.092939414 0.14466621 0.0634 -0.07071932 0.029912667 -0.040439256 0.059379574 -0.10535432 -0.0495395 -0.11047261 -0.10392363 0.021714201 -0.17051768 0.07269146 -0.07332651 -0.061613742 0.0784361 0.13969299 0.008548124 0.091243036 0.27812433 0.041258674 -0.09041049 -0.038279418 -0.021623842 -0.015892506 -0.030420175 0.06875755 -0.049624268 0.16205804 -0.1690652 0.07897275 0.10824146 0.17695229 -0.02445041 -0.026711266 -0.18255286 -0.18440017 0.099333316 -0.08928577 0.07816156 -0.013000769 0.0117228385 -0.14876238 0.037331372 -0.059728023 0.13406292 -0.04724753 -0.048105206 0.057415515 -0.04131738 -0.05630704 -0.111024655 0.24397294 0.087780565 -0.21153964 0.11308903 -0.16481458 -0.012121372 0.03690186 -0.10462795 -0.006089429 -0.0069904565 0.0008026238 -0.0076635913 0.06609157 -0.06230267 0.07346158 0.103930034 -0.017166939 -0.047805417 -0.01890117 -0.08767477 -0.08183149 0.13707873 -0.096850485 0.06567768 0.053418223 -0.0747105 0.16375388 0.022552498 -0.07737841 0.018287368 -0.17077862 -0.11960228 0.003273519 0.09539118 -0.08722355 -0.24910294 0.02654817 0.10502882 -0.050570037 -0.08031411
har_faoh 0.024476932 0.055928256 0.063127056 0.062332273 0.06743184 0.007893791 0.22668909 0.091586456 -0.21679088 -0.07645786 0.046111323 -0.17574657 -0.050002173 0.01877267 0.013355326 0.07071951 -0.025655461 -0.06473318 -0.083236106 0.118357435 -0.100133486 0.11181345 -0.02128632 -0.17750333 -0.0638597 0.16365775 -0.080860294 0.01193727 0.14600995 0.15546629 0.0848221 0.10626513 0.013524286 -0.009430556 -0.08147461 0.05357382 0.013654351 0.20589915 -0.12535475 0.055884544 -0.015442338 -0.06915406 0.18735498 0.09091388 0.17939606 -0.09246888 -0.04714649 -0.12679416 0.0072334437 -0.094053656 0.25836143 0.102393374 0.13925888 -0.018921835 0.0044653737 0.06518882 0.124348685 0.021076392 0.06685501 0.0012855461 0.12850566 0.004518403 0.16306935 0.013328798 0.09271594 -0.11799656 -0.2098437 0.11636437 -0.05846427 0.0450972 0.079562016 0.12483042 -0.018439807 -0.0051822998 0.05019653 -0.021308308 -0.18996766 -0.06911608 0.07033392 0.13214427 0.13549063 -0.019993704 0.030193387 -0.05445135 0.07331389 0.062929176 0.051106848 0.0614861 -0.014158058 0.11063192 0.093844265 0.09654857 0.04874655 -0.10735622 0.14215162 0.017264143 -0.07255839 0.02812262 0.106792994 0.03177643
hava_faoh 0.07577117 -0.18225345 -0.18525481 -0.036123015 0.07252911 -0.031187352 0.05549659 -0.06450669 -0.09163012 -0.13564782 0.12823619 -0.058040258 0.01976598 0.19726668 -0.014060792 -0.008136482 0.16838521 0.04097672 0.035483632 -0.031704016 0.0066488637 0.066739194 0.09356179 -0.03545912 -0.0387253 0.067766964 0.10776815 -0.12582713 0.08000874 0.13731304 0.03730244 -0.07167651 0.032947566 -0.0035895826 -0.041974306 0.063055165 0.029542126 -0.028455567 -0.07794962 -0.06298295 -0.19308287 0.06866049 0.18489976 0.1068099 -0.021115376 -0.26069534 -0.06372983 -0.15145287 -0.050499212 -0.11695628 0.09512662 0.04454268 0.054219898 -0.026548732 0.008452653 -0.23314975 0.047476742 -0.050581302 -0.06388095 -0.11707473 -0.18323267 -0.26510486 0.0409612 -0.108514175 0.16371909 0.16805206 -0.0845332 0.029771179 -0.053565305 -0.13630024 0.071106106 -0.05715307 -0.00721819 0.08044921 -0.06556226 0.063666016 -0.123309925 0.027947616 0.0917051 -0.032666717 -0.032886077 -0.01974205 0.01948682 -0.1265275 0.020593159 -0.0048720306 -0.08896393 0.13096422 0.008532829 -0.07040791 -0.060566407 0.04586786 0.08564913 -0.07518353 0.119595185 -0.077459574 0.10216632 -0.16439885 0.15700674 -0.063718386
so_faoh 0.051905442 0.18446265 -0.00021351577 -0.025020352 -0.08042899 0.02332452 -0.06397525 -0.11960367 -0.004011874 0.072238676 -0.17995213 0.006583444 -0.12594649 -0.11733971 0.16292787 -0.0075749056 -0.09969366 -0.0038812733 -0.06686052 -0.01359684 -0.020185227 0.084941335 -0.059709582 0.003471839 -0.08795599 -0.06442025 -0.0050426726 -0.0760688 -0.009542099 0.0713985 0.13720733 -0.014947804 -0.018619284 0.08457261 0.1011575 0.08309585 -0.0038575088 0.24506482 0.08196212 -0.085770346 0.018620942 -0.111686 0.019058255 0.14324467 0.009092577 0.120196596 0.04280274 -0.045822766 -0.1050767 -0.040818676 0.1582292 0.041063495 -0.020594694 -0.053014923 0.18760861 0.02188834 0.009754869 0.03909912 0.018964322 0.040273637 -0.20641512 -0.19513011 -0.17212611 0.09080733 0.059013978 0.14527056 0.0059784586 0.16769022 0.1344495 -0.058253624 0.005151932 0.050163295 -0.01131709 0.18017548 0.0038795816 -0.002853332 0.016462646 -0.12678261 0.04475937 0.023458397 0.0049461364 0.14770357 0.051164918 -0.0036976156 -0.17118886 -0.20269553 -0.04033783 0.09856185 0.09320465 -0.13913347 0.010594515 0.072915524 -0.03440391 -0.17447779 0.18234105 0.24095066 -0.06599302 -0.13900559 0.07116139 -0.06732365
verða_faoh 0.15371804 -0.06867702 -0.04606908 0.13968055 0.044595905 -0.08695736 0.10275412 -0.057362694 -0.13141198 -0.014948929 -0.038886067 0.10643986 -0.11157863 -0.029696638 -0.024578214 0.02390014 0.042372786 0.06460907 0.10100542 0.15676379 -0.047067072 0.12336255 0.0961747 -0.038206514 -0.15408888 0.02402182 0.08821814 -0.098438874 -0.16002141 0.031037714 0.11140688 -0.14200552 -0.055827357 0.034132782 -0.11043425 0.20897898 -0.018345442 0.015268545 0.009838546 -0.1909654 0.023054425 0.065620065 0.06243155 0.11701635 0.057541627 -0.10189531 0.0042166663 -0.11937138 0.017102012 -0.123201296 0.02652451 -0.13496399 0.041680492 0.04194641 0.026743187 -0.15035047 -0.089672334 0.03608126 0.17730519 -0.14331065 -0.2626791 -0.09120253 -0.10929419 -0.052211665 0.11192852 0.0590689 0.100519605 0.06648714 -0.12564701 -0.14637393 -0.14953826 0.12933923 -0.059663344 -0.0014429719 -0.052234527 0.0018205373 -0.1300379 -0.19326757 -0.10671828 -0.14117238 -0.0050535607 -0.058552906 -0.05970489 0.07284492 -0.19087881 -0.0010237627 0.030182607 0.06515394 0.07709674 -0.057457503 0.08611376 0.16622111 0.014279724 0.02511331 0.18151782 -0.0512595 -0.01832476 -0.083634876 -0.086201616 0.040804323
hjá_faoh -0.061124913 0.047703885 0.1559691 -0.10280459 -0.0009562508 -0.047060646 -0.029219326 -0.108708255 -0.20258616 -0.03342235 -0.14276333 -0.022388289 -0.20204468 0.047543492 -0.062272906 0.047936082 -0.032533146 0.105205856 -0.054319143 -0.18757975 -0.09790009 0.09217776 0.096724294 -0.1976874 -0.029567681 -0.023134744 -0.12131867 -0.097608455 0.01818354 0.10099144 -0.030754942 0.005088141 -0.071780294 -0.010526378 0.11620159 -0.0059995726 -0.055884067 0.07792807 -0.036237627 0.070705235 0.040457103 -0.20453763 0.04699967 -0.20373797 0.0576637 -0.043925047 0.022741873 0.007880893 0.05607569 -0.2145921 0.04626548 -0.18038782 -0.00060218706 -0.17791921 -0.04806282 0.077768944 0.0029825321 0.17512193 0.16981462 0.09520746 0.0738041 -0.12250035 0.07752264 0.019296153 0.03747065 0.0526104 -0.052278448 -0.016656287 -0.010486553 -0.058326572 0.0398338 -0.0071778693 -0.06440496 -0.0031316145 -0.113539346 -0.07260668 -0.2810099 -0.029447211 -0.004349134 0.18521377 0.075265706 -0.14329638 0.1361017 0.054535136 0.07228393 -0.13173325 -0.021327376 0.011834362 -0.003408502 0.063062415 0.045070402 -0.002064462 -0.14479348 -0.04206415 0.18835485 0.06817907 0.17092563 -0.025619484 -0.112175755 -0.017701305
eisini_faoh -0.037260465 -0.0300451 0.029657567 0.15130389 -0.067051165 -0.0010847988 -0.11539365 -0.03063788 -0.066039294 0.21859671 0.06650306 -0.041500647 0.15371592 -0.10598069 -0.014009374 0.096484356 0.12575056 0.03732493 -0.046362888 0.024196828 -0.15558633 0.03487558 0.063278496 -0.26630065 0.03768336 -0.059836514 0.035844356 -0.05905903 -0.03859258 -0.014795765 0.1590608 -0.13583572 -0.030451959 0.05147676 -0.031373743 0.05224092 0.07070972 -0.038189527 0.07394767 0.01627731 -0.13212152 0.030419916 0.15071778 -0.018446533 0.03725601 -0.064037055 0.090826966 -0.089041606 -0.012872529 -0.089661315 0.12444121 -0.12532243 0.04698383 -0.27668816 0.13358432 0.056754123 0.040396973 -0.09477995 -0.05380459 0.008070463 -0.040415417 -0.108842164 -0.086426474 -0.042870604 0.08652151 0.048014138 -0.029090652 0.11447027 0.06065212 -0.08387879 -0.0133102145 -0.0012312338 0.029275723 -0.059534002 0.04291348 0.1614297 -0.032236215 -0.11028021 -0.0050839707 0.12223122 0.05844724 -0.17713131 0.18608488 0.09112822 -0.14169085 0.1686599 0.22288081 -0.04332852 -0.044989176 -0.09412227 0.20858459 0.03333259 0.15290847 -0.12023154 -0.0023927467 -0.031065948 0.02921165 0.05613383 0.18928786 0.108577676
ein_fao -0.048420947 0.0834838 -0.009955495 0.15710689 0.117914714 -0.08957714 0.1265039 0.16767849 0.12687716 0.20795487 -0.06487776 -0.004351938 -0.10699538 0.0061800526 0.15561822 -0.064964846 -0.2284125 -0.008587799 0.004375065 -0.010754528 0.11889865 -0.2646247 0.037180096 0.069274746 0.040688846 -0.110757895 0.10680641 0.16472144 0.09181098 -0.041563682 -0.15811692 0.09599673 0.11247443 -0.075237796 0.10299219 -0.037488475 -0.011103222 -0.13874243 0.0030747652 -0.00079026027 0.03154429 0.033694427 0.120086975 -0.01520951 -0.10940941 0.15375587 -0.057779364 -0.055392038 -0.08844626 0.008391995 -0.2024702 0.19018288 -0.033525635 0.034903422 -0.19432679 -0.06791844 0.06213071 0.07855576 -0.1411709 -0.023164928 0.17443661 0.11218933 -0.12889828 -0.11278147 -0.06558174 0.06316083 -0.07189358 -0.09755749 0.02854439 0.11273985 -0.049200222 -0.055366557 -0.08751625 -0.0033229664 0.041306604 0.0294272 0.19514899 -0.0036546758 -0.003763357 -0.015794381 -0.017955236 0.09060189 -0.006212748 0.018667815 -0.15197238 0.12713045 0.011087492 0.028567266 0.065469585 0.14452381 -0.099658765 -0.13737503 0.08816128 0.0032187651 -0.02633211 -0.052554186 0.031270012 -0.09874646 -0.004064022 -0.002513885
var_fao -0.041459046 -0.1308408 -0.11483623 0.0050063445 -0.00083452207 -0.037104983 0.09142826 0.07820855 0.09665776 0.019366963 -0.010208341 0.14765027 0.14434038 -0.14989233 -0.051083785 -0.037055936 -0.084083065 0.0678954 0.08854041 -0.11329466 0.20718393 -0.062258024 -0.0683712 0.09030295 0.028923443 -0.0030475266 -0.10667189 0.09986621 0.14909959 -0.22718121 -0.38238347 -0.022493761 0.0017742652 -0.19053607 -0.060958035 -0.02200115 -0.094685726 0.0066715674 -0.016178679 0.010254204 0.051332194 0.019356774 -0.040081285 -0.19403847 -0.15635608 0.060443647 0.062662244 0.090995446 -0.09535304 0.17352265 -0.04844704 0.09336514 -0.120219715 0.14197488 -0.058028765 -0.15181695 -0.027511302 -0.07794823 -0.14560695 0.03952353 0.11382351 0.05167793 -0.044027515 0.05743872 -0.0022600763 -0.064388745 0.0042857276 -0.055195197 -0.011172414 -0.08698359 -0.07237008 -0.014057466 0.0376871 -0.0067472886 0.10012527 -0.048556726 0.02591707 -0.079629354 0.0019413261 0.026897298 -0.040392067 0.05393657 -0.15299828 0.038492505 -0.0042679864 -0.045001537 -0.010689708 -0.03714773 -0.071269944 0.17441148 -0.10386307 0.079689145 -0.0008381137 0.2125124 -0.16097286 -0.1684674 0.05126528 -0.0527399 -0.10545953 -0.02660207
skulu_faoh 0.08740186 -0.023765331 -0.07498953 -0.006489319 -0.0066554216 -0.01019493 -0.20668447 -0.057268776 -0.07694529 -0.020670021 -0.104473814 -0.06499801 0.09337987 -0.059135657 0.04105712 0.04833265 0.080712296 -0.14313842 0.102592535 -0.04288288 -0.13473703 -0.060663868 -0.04239232 -0.088560015 -0.068756916 0.034980234 0.07692563 0.10204694 -0.049120974 -0.13934584 -0.026619712 -0.15126269 -0.00761333 0.04291362 0.10818665 -0.10934391 -0.18354814 0.15696374 -0.01135076 -0.06625705 -0.15324229 -0.029574718 0.0015906048 0.22055478 0.021732077 -0.014934565 -0.0034901244 -0.027841387 -0.17454182 -0.038725488 0.029460818 0.1349975 0.035262052 -0.11609499 0.0800585 0.03595683 -0.11127546 -0.07370641 -0.03477617 -0.087065496 -0.14927083 0.06620759 0.11054945 0.087570556 0.16074245 -0.09319743 0.046489496 0.02073159 -0.015855996 0.07070878 0.028134584 -0.030573888 0.031645246 0.029771576 -0.07142904 -0.1250224 -0.054260764 0.17338473 0.010690259 -0.027580855 0.1677374 -0.08170796 0.06839923 0.0033237797 -0.0077034677 0.19343327 -0.15428658 0.022941409 0.04393741 -0.14756545 -0.1255507 -0.067260906 0.14354704 -0.16919656 0.12112481 0.17170209 0.1688841 -0.054285794 0.24952799 0.14548895
av_fao -0.020490017 -0.08426544 -0.098497964 -0.11244002 0.09740745 -0.10714091 0.11865484 0.084100746 0.15792225 0.032826424 -0.09597323 -0.09298452 0.010970991 0.1132405 -0.02695119 -0.16382314 -0.08400339 -0.13044342 0.00664452 -0.13623595 0.03890512 0.019329565 0.020104636 0.18001902 0.02128967 -0.16074269 0.103749804 0.06674117 0.05403306 0.014656669 -0.1400152 0.07419859 0.05676492 -0.060327332 0.10568953 0.10435396 0.016139286 0.025839025 0.020984912 0.11044574 0.12124666 0.031801373 0.0035190077 -0.10195704 0.017972078 0.2571615 -0.104643404 0.005047905 -0.016333856 0.16366437 -0.09282546 0.1365266 -0.0014853358 -0.045421045 -0.029541021 -0.044630166 -0.10535009 0.009948972 -0.09520031 -0.074926406 0.17944227 0.17081165 -0.10427572 0.06733333 -0.08676725 0.01244439 -0.01404392 -0.084873594 0.019581638 0.14167331 -0.04735879 -0.017648762 0.078295514 -0.07628817 0.10075569 0.13887538 0.047984928 0.15028994 -0.06064298 -0.004442622 -0.10061673 -0.057528105 0.07853346 -0.007893256 0.19757353 -0.19360422 0.0947208 -0.024472866 0.0026311302 0.20505297 0.0058354447 -0.041739374 0.03045804 0.15409957 -0.0950156 -0.25818276 0.09705709 0.13626266 -0.050126567 -0.007622041
vóru_faoh 0.13717897 -0.007608122 -0.0187005 0.14945188 -0.11876918 -0.1592478 -0.07529182 -0.033512123 -0.11819944 -0.17204778 0.03388427 -0.057992917 -0.010311953 0.005785577 -0.0019152296 0.07181769 0.09962932 -0.0011913566 0.10908952 0.039484415 0.091322705 -0.011578505 -0.07291221 -0.07463707 0.057162214 -0.023418479 0.17060107 -0.02017951 0.030375116 -0.057212707 -0.020207427 0.076413795 -0.092708886 -0.12160302 -0.055979524 -0.07345188 -0.033054154 0.15505919 -0.053695913 -0.06185437 -0.016425027 -0.21875684 0.17409222 0.028160635 0.07317338 -0.058584414 0.25070667 0.12961878 0.051373854 0.14924009 -0.07173577 -0.19932735 -0.11356948 0.06907329 0.20769295 -0.12255813 -0.03831064 -0.089986615 -0.02406001 0.06435955 -0.103755 -0.02994688 0.09410243 -0.068916984 0.037648633 0.031294398 0.026859045 0.0027168493 -0.040703055 0.053271376 0.07524677 0.10101997 0.055984285 0.20151791 0.026501114 0.043271206 0.01836633 0.078861564 0.121715225 0.087047726 0.12752062 -0.08952692 0.053644754 -0.13135915 -0.10673673 0.1549731 -0.061674457 0.09070006 0.03210509 -0.20635766 0.0010867754 0.015407319 -0.024382364 -0.16160351 0.07404218 -0.14170499 0.024397878 -0.24136169 0.071363084 0.0708091
guð_faoh 0.02259133 0.17806172 -0.07228413 0.067183875 -0.10061311 -0.048529506 0.024721883 -0.1705391 -0.005348402 -0.09062426 -0.010429339 0.11011017 0.12223107 0.11027967 0.078285284 0.14788787 -0.018145386 0.061224755 -0.013277037 -0.07439838 -0.116298266 0.10468947 0.090067305 -0.13466033 -0.088732556 0.061032392 0.076292045 -0.005311433 -0.059005804 0.2335893 0.20864664 -0.01803045 -0.16351344 -0.020555269 -0.002283347 -0.023069432 0.043100517 -0.034311082 0.10492911 -0.09967221 0.090402834 -0.023575354 -0.029589247 0.19881566 0.13838588 0.02154603 0.047658514 -0.09505284 0.0024756293 -0.03357751 0.03256023 -0.1538564 -0.19656697 -0.027583774 0.008864547 0.08083234 0.08792202 0.035671633 0.017367315 0.09250513 -0.15653418 -0.1012983 0.107413515 -0.19736853 -0.07983258 -0.047028888 0.015355505 -0.15167393 0.08100972 -0.031901676 0.02378093 -0.08110485 -0.23704363 -0.044393618 -0.21866226 0.006445972 -0.081074044 0.046097744 -0.12199143 0.147485 0.1226097 0.009131291 -0.041541193 -0.075192116 -0.13349842 0.0749677 -0.033019915 -0.106199205 0.022978518 0.05334003 -0.08628368 -0.088835694 -0.08162189 -0.18296684 -0.055274557 0.106597535 0.02635052 0.11302171 -0.06645171 0.07966544
at_fao -0.07936339 -0.19674523 0.033869945 0.047174226 0.032067604 0.039312534 0.11630706 0.060058545 0.13398549 0.14845149 0.046195924 0.021105133 0.020668563 0.0015650232 0.07569565 -0.056025587 -0.09607573 0.07909743 0.0533569 -0.023147607 0.06870963 -0.043947566 0.00065579335 0.093806915 0.08378476 0.048309453 0.10008662 0.018001175 -0.024340577 -0.068689965 -0.31630906 -0.033490542 0.006085512 -0.02416563 0.06483581 -0.05983643 0.035507154 -0.034064025 -0.05895898 0.012634486 -0.06922136 0.012254424 -0.119875096 -0.080306925 -0.20508005 0.10455614 -0.06278133 0.18968783 -0.14569624 0.103536084 -0.010685557 0.15116216 -0.1635986 -0.04099314 -0.09249437 0.117903985 -0.029132666 -0.03859572 -0.09286438 -0.093490526 0.10867768 0.123117246 -0.19027163 0.06278235 -0.07475826 -0.04759924 0.072418176 -0.015984248 -0.1065688 -0.017677628 -0.1127909 0.099168144 -0.039425965 -0.16907068 -0.06350306 0.20329453 -0.023952657 0.035692547 -0.12178212 -0.039249666 -0.13025407 0.09853584 -0.1617439 0.08160797 -0.0069908737 -0.01411891 -0.023675727 -0.038264453 -0.009245363 0.107023865 -0.15726021 -0.16464819 0.082542755 0.07854188 -0.09049172 -0.19461304 0.16077319 0.20222029 -0.039279677 -0.00089765165
eri_faoh -0.07188761 -0.064246304 0.059736226 -0.008925807 -0.1976788 -0.10491247 -0.07577097 -0.10941517 -0.21108048 -0.24117757 0.036441047 -0.047459986 -0.050637353 -0.15313448 0.04728764 0.21576364 0.07136864 -0.0669294 0.07140485 -0.06297953 -0.021577531 0.039936077 -0.2525192 -0.072641045 0.007859749 0.009385058 -0.0075660706 -0.1543439 -0.18391925 -0.0067382697 0.11296258 0.04515209 0.013420771 0.04587879 -0.14654759 0.106435865 -0.19648862 0.08015495 0.064324774 -0.09514147 -0.10703938 0.09989608 -0.06388799 0.005576253 0.029516028 -0.016226707 0.1408277 0.050938204 -0.09455205 0.0011088811 0.0052943155 0.053314324 0.055932216 -0.04445401 0.18887894 -0.26349935 0.048468806 0.15918039 0.10689043 -0.04503981 -0.0022299527 -0.009937184 0.091223165 -0.12982798 0.07352822 -0.015549104 -0.0034561367 -0.050395045 0.04381393 -0.123040475 -0.02855444 -0.05760054 0.057682276 -0.0020434738 -0.052854124 0.019679774 -0.17702936 -0.009428622 -0.03364091 -0.0022534418 0.024306808 -0.06851749 0.09402073 -0.08707752 -0.13779894 0.06870051 -0.15166667 -0.03323609 -0.12216999 -0.092112064 0.028496776 -0.09744344 0.11543256 0.1788436 0.042920046 0.13045229 -0.083328635 -0.030780757 0.03168346 -0.00828552
eru_faoh 0.15076649 -0.13247286 0.07913385 -0.13543534 0.0066862507 -0.15403154 -0.08850173 -0.111723945 -0.09790433 -0.13797978 0.019817175 -0.121364176 0.08563593 -0.05518763 0.031079216 -0.06649851 0.05019934 -0.05858129 0.044099815 0.12425096 -0.010228155 0.14553118 0.06256005 -0.13172986 -0.00838463 0.11238395 0.15732987 -0.04789413 -0.055366226 0.07650361 -0.017957985 -0.06068374 0.09454107 -0.12953708 0.020358602 -0.056783322 -0.040402055 0.06324748 -0.07576451 -0.03307362 -0.11487559 -0.09120429 0.17609048 0.15301357 0.09286304 -0.11671785 0.19062608 0.025433637 -0.008333949 0.021335835 0.13997197 -0.13607515 0.04662601 0.11808941 0.16544978 -0.10083189 -0.11992215 -0.08326738 0.10492847 -0.033058688 -0.23653463 -0.12793577 0.046656128 -0.13831672 0.19719614 0.084775835 -0.032789193 -0.026174655 -0.0028973767 -0.06735845 0.06883566 -0.01656057 -0.121572845 0.037159014 -0.04021404 -0.1136758 0.106597826 0.07991681 0.016783215 0.05675257 0.03674028 -0.023394484 0.05592227 -0.04923633 -0.021911573 0.066526376 -0.16462989 -0.036405746 0.15497379 -0.1582208 0.060297247 -0.056468327 0.11858119 -0.08652439 0.09529893 0.03839951 0.16748674 -0.19500805 0.040530205 0.10395497
tykkara_faoh 0.025727944 -0.02414006 0.014674184 -0.029135918 -0.095018715 0.047902767 -0.010907984 0.008990027 -0.05616186 -0.08103454 0.12230946 0.025587736 -0.0011259272 -0.1918489 0.017064335 0.024864975 0.034090847 -0.20056084 0.10531709 0.069373764 -0.05475685 0.23340146 0.056882378 0.041695446 0.050809875 0.10902967 0.21306369 -0.01845398 0.11405217 0.007237725 0.26677927 -0.14462548 0.103446394 0.016032506 -0.010671021 0.13232656 0.093254544 0.14132902 -0.039421543 0.09562744 -0.1837118 0.110146195 -0.14636144 -0.08677283 0.024080005 -0.06859154 0.037033398 -0.10596997 -0.06752931 -0.12056426 -0.112190485 -0.09840943 0.06349074 -0.06393166 -0.0579922 0.17052457 -0.1893205 0.15588519 -0.026673378 -0.08305349 -0.12281974 -0.1308677 -0.049206484 -0.044526458 0.129158 -0.05840515 0.09019538 -0.040834617 0.054510325 0.037721306 -0.043482523 -0.035814658 -0.005482681 0.32896346 0.002140563 0.020208307 -0.2365579 -0.069994174 -0.06426869 -0.029093556 0.07015411 0.002423324 -0.049199983 0.0040856004 0.042240728 0.056776073 0.053879138 0.021033343 0.004099745 0.0093969405 0.0043526893 0.0059723733 0.007701299 -0.071596414 0.03120091 0.14466207 -0.13152267 0.044504777 -0.07333927 -0.1071355
havi_faoh -0.0613424 -0.17295043 -0.10309664 -0.09823535 0.036729764 0.11183459 0.035265416 -0.13075377 -0.06781025 -0.21666194 0.046790626 0.03657132 -0.093349874 0.07284798 -0.0058744233 0.22608675 0.091276616 0.060661785 0.077490404 -0.032076675 0.011313951 -0.02720302 0.07782878 -0.090468034 0.016939994 -0.10649956 0.011702019 -0.27825016 -0.058129694 -0.05274001 0.04243948 0.030878471 0.1319078 -0.0744532 -0.0048784814 -0.03043318 -0.03870375 0.01678504 0.07212781 0.11609685 -0.25857547 -0.03135183 0.12382891 0.13580203 0.050097264 0.0215162 -0.03671061 -0.044145834 -0.06452759 -0.039820712 0.06915354 0.10479644 0.054284006 -0.03554152 0.03411599 -0.044547983 -0.037355676 0.061187603 0.13813247 -0.05508999 -0.04558469 -0.22087853 -0.047496416 -0.0706903 0.16575207 0.044311147 0.00077473256 -0.08057007 0.17361014 -0.17255239 0.09282024 -0.032107197 0.022119554 0.022070784 0.009877126 0.059735842 -0.2182632 -0.012136411 0.048757557 -0.047739454 0.03796128 -0.031632487 0.050638426 -0.1278816 -0.10914482 -0.034097943 -0.05107335 0.19558448 -0.17608887 -0.021647872 -0.22484641 -0.14706035 0.01505207 0.13856103 0.03906742 0.06646784 -0.089899294 -0.12661153 0.023987886 -0.057235993
eisini_fao -0.09716924 -0.11004146 -0.056549497 0.11311223 0.09438189 -0.023470802 -0.010425015 0.10557387 0.14332935 0.2566905 0.06209912 0.0153193595 0.16700949 -0.06432441 -0.016464029 0.001969916 -0.004030988 -0.041573547 -0.076939516 -0.108324714 0.03864917 -0.11608839 0.013279739 -0.07668649 0.08118205 -0.037546564 0.05999354 0.13686869 -0.028224787 -0.13665365 -0.13138174 -0.1427664 0.09277548 -0.044961438 0.014758843 -0.049390584 0.053439856 -0.17354178 0.07175546 0.12221068 -0.027369207 0.06991098 0.12897311 -0.14072052 -0.10014553 0.08662727 0.021694329 0.008971948 -0.08039996 0.0057577076 -0.06910769 0.060720734 -0.041520793 -0.11608504 0.012411777 0.006589355 0.048801046 -0.10072199 -0.21631914 0.021417774 0.13553664 0.041574966 -0.2806372 0.036893636 -0.043611914 -0.017960887 0.025299456 -0.05076004 0.102260634 -0.044849087 -0.06929145 -0.033744197 0.03535835 -0.09227439 0.08315837 0.19549024 0.100819774 -0.11209818 -0.0043806103 0.07091522 -0.046011087 -0.10741972 0.04702772 0.09667193 -0.05267618 0.08047477 0.25095752 -0.030378357 -0.11333853 0.09938748 0.09185376 -0.04803434 0.17079058 0.019679103 -0.1514988 -0.19928692 0.033069644 0.18488163 0.055302102 0.07260129
kom_faoh -0.01980451 0.106113456 -0.043094654 0.031035375 -0.08080033 -0.060645044 -0.11211108 0.10598596 0.010596613 -0.1803119 -0.057859544 0.14500263 -0.087288044 -0.23195186 0.014057753 0.13212931 0.015255204 0.1371616 0.03134902 0.074928 -0.08701203 0.040772893 0.054979675 -0.09050317 -0.010175034 -0.023334071 -0.11418434 -0.06126391 0.27136794 -0.059506375 0.31568667 0.14564501 -0.09095584 0.078868814 -0.04640429 -0.064045876 -0.053760856 0.00064685685 0.014490272 -0.068685696 0.020046258 0.0013789583 -0.05518164 0.00032421728 0.042248398 -0.19483493 0.04035888 -0.035504736 -0.05443815 0.09864944 0.06503685 0.11028035 -0.03082004 0.07079521 -0.12287071 0.00017203926 -0.15537879 -0.046966523 0.17237498 -0.0035332 -0.13880208 -0.022931723 0.32047334 -0.01433268 0.07015814 -0.1416015 0.008155175 -0.034690585 -0.11839313 0.013933829 0.020617416 0.05506278 -0.0870303 0.09034592 0.00083962135 -0.09587144 -0.08233418 0.027288819 0.07644849 0.073496364 0.1723505 -0.1165739 0.095979676 -0.017618986 0.019228172 0.051706232 -0.094458774 -0.1010003 -0.09306727 -0.13234718 0.013608841 0.08469037 1.1628443e-05 -0.044886537 -0.10359181 0.04718248 0.0839248 -0.018419597 -0.17811641 0.009107326
fór_faoh 0.11144176 0.08211822 0.022658525 -0.05419271 0.025742106 -0.16790548 -0.14202149 0.14830497 0.0020619314 -0.04438149 -0.0972719 0.062172733 -0.020727469 -0.0856898 -0.049413126 0.050138894 0.10717933 0.25683963 -0.00037836394 -0.0055426015 -0.09570501 0.05845025 0.062035233 -0.073873684 0.0107304575 -0.009989918 -0.08946189 -0.109957196 0.04823066 0.1908563 0.054841563 0.037069406 0.04980328 -0.0027349591 -0.13954273 -0.13388385 -0.13260603 -0.013329373 -0.080608524 -0.022691438 0.052727684 0.028152404 -0.16104105 0.061847452 0.00769169 -0.08067286 0.0016101105 0.032900345 -0.076538354 0.030577198 -0.038752634 0.056793973 0.08679242 0.21112174 -0.022673687 -0.124852374 -0.15363722 -0.033628784 0.14480846 0.14846087 -0.03382236 0.0414571 0.10119146 0.004489001 0.073948845 -0.11402516 -0.15217395 0.079649396 -0.04560388 0.0023596159 0.10510869 -0.027665718 -0.11367981 -0.0014152604 0.008704963 -0.31329125 -0.14852703 -0.0073268176 -0.023438968 0.0076639773 0.20532478 -0.086575486 0.17305356 -0.26041237 -0.070808016 -0.0040306947 0.0485536 0.04448535 0.012481707 -0.099094674 -0.0055990783 0.008307942 -0.1286754 0.05767991 -0.12648945 -0.13505507 -0.0560053 -0.07678905 0.014568113 0.1527026
við_fao -0.03774006 -0.10983121 -0.026306255 -0.07250953 0.07824345 -0.1858696 0.07043862 0.13043101 0.13377728 0.050869316 -0.110729404 -0.024664208 -0.030258847 0.043160245 -0.018524507 -0.08284901 -0.09592738 -0.040852774 0.060343586 -0.16329618 0.029488906 -0.16639161 -0.010221221 0.063355975 0.01011622 -0.0045222114 0.111809194 0.13676286 0.064627685 -0.08499688 -0.23656388 -0.058957182 0.037873495 -0.04321472 0.10825053 -0.08391887 0.03263205 -0.22014134 0.005434873 -0.027765714 0.11835448 -0.073960215 -0.056017388 0.033639323 -0.055030096 -0.010045058 -0.09287198 0.112393126 0.08814629 0.041766513 -0.14699754 0.17851657 -0.109689675 0.07839094 -0.036643986 0.087897845 0.0031888443 -0.041224707 -0.19946857 -0.14108607 0.2500175 -0.02299823 -0.10999717 0.052849393 -0.070898466 -0.011386769 0.08491703 -0.06786909 0.099592574 0.015498015 -0.14899176 -0.06567153 0.1552535 -0.1395161 0.16457298 0.23034622 0.08637872 -0.11526536 -0.03860311 0.023617232 -0.024280632 0.030494539 0.046464503 -0.11284545 0.08607129 -0.14572507 0.051149152 -0.004344513 -0.08354104 0.21656087 0.026809229 -0.14677091 0.028168386 0.0030597327 0.06371173 -0.09016226 -0.009977224 0.06973318 -0.07928721 -0.015712325
teirra_faoh 0.12095712 0.10179365 -0.07829415 0.046531055 -0.0076201553 -0.05252532 0.115523346 0.08559104 -0.24042507 -0.11544366 0.04158341 -0.035723053 0.055907235 -0.12037956 -0.07181751 0.070208244 0.021388454 0.0046869284 0.13926122 -0.05353823 -0.17971745 0.11730424 -0.00891417 0.026547598 0.031534545 -0.042070862 0.009691042 -0.016752113 0.11191998 0.01417589 0.2876584 -0.118164405 -0.10674486 -0.095442474 0.024144558 0.032177374 0.11303877 0.15469289 -0.16875587 -0.0074293693 0.087446235 0.060439132 0.010517342 0.017471401 0.04488654 -0.11280371 0.01421375 0.011959891 -0.008126787 0.01873205 0.13982683 -0.055756398 0.04813683 -0.23758985 0.06025281 0.25077444 -0.0033700082 0.01867512 0.0050068405 -0.17308973 -0.22000296 0.0803577 0.027380707 8.329686e-05 0.0738613 0.09980843 -0.08290818 0.14300816 0.08214964 0.02843407 0.113563426 0.09560323 0.0037486376 0.068694815 0.06043395 -0.01015917 -0.21396047 -0.0988612 0.045326337 0.057175905 0.02697685 -0.059244674 -0.19310239 -0.14066146 0.06622793 -0.05726385 0.08290922 0.11276288 0.18871665 -0.09457466 0.075945 -0.03919621 -0.0944585 0.03131525 0.054846734 0.07656088 -0.023965232 0.01360232 -0.07724556 -0.05583311
sær_faoh -0.034198437 0.15326667 0.17589204 -0.07039061 -0.19002534 -0.0032461034 -0.0705004 -0.03726855 0.0052707293 0.21379304 0.18133585 0.0031783096 -0.025498318 -0.06572529 -0.15693511 0.19448899 0.12884443 -0.042646747 -0.09516728 0.20632698 0.043782704 -0.03605103 -0.071918145 0.114340216 0.056577638 -0.17856757 -0.114087716 -0.012845659 0.045824118 0.07953581 0.15206015 0.21290009 -0.11644131 -0.07705003 -0.0045070024 0.1592079 -0.12383028 0.11648443 -0.0015221777 0.041287974 0.027511053 -0.08339489 -0.0838657 -0.0009024779 0.09574185 0.025450042 -0.062086362 -0.12727581 -0.014092046 0.08052376 0.088949665 -0.09101153 0.18565926 -0.08205181 0.09455267 0.032623075 0.006616233 -0.08547888 -0.10116851 -0.033565298 -0.13354447 -0.04540448 -0.022302471 0.030587299 -0.010504493 0.0021507582 -0.036017008 0.09865519 -0.055780802 -0.010272721 0.10927596 -0.00012575132 0.04290041 -0.01076932 -0.058013834 0.048640124 -0.14633246 -0.032230508 0.11733451 -0.031507563 0.07215603 0.21020631 -0.041329816 -0.109824315 -0.093961984 0.031947635 -0.08008294 0.028694348 0.19763577 -0.16159917 -0.028508171 0.1412099 -0.09567338 0.046044968 -0.009197955 0.13251577 -0.11074806 -0.0131701445 0.14518784 0.015330735
úr_faoh -0.022723584 0.09355808 -0.026637215 -0.086643875 -0.16972114 0.113105096 -0.12843665 -0.07107778 0.17036153 0.064458415 -0.08179766 -0.22338769 0.0038444668 0.112834185 -0.083925396 -0.016923143 -0.046731483 0.19075151 -0.017088875 0.07203229 -0.123864226 0.13375512 -0.06621184 -0.1661359 0.082720764 0.08141581 0.10801976 -0.0939434 -0.028115612 0.06667358 0.28466973 0.18511978 -0.20900027 0.14372918 -0.08410016 -0.04808678 -0.011973824 0.19210592 -0.0073193437 -0.036023747 0.06262312 -0.06882831 -0.10438705 -0.035487045 0.08265737 0.015866496 0.017602649 -0.033736996 -0.045134805 -0.16047764 0.081047125 0.10840697 0.019570898 -0.07731577 -0.0018885478 0.056425046 0.15101437 -0.06526337 0.08867982 -0.07210108 -0.08032106 0.020566488 -0.0025792646 -0.011042699 0.16511841 -0.057363734 0.021496823 -0.12673958 0.028344087 -0.04916579 0.09527929 -0.09171701 -0.06849209 -0.09687162 -0.05586025 -0.039105542 -0.12803656 0.008385885 0.02285108 0.014410817 -0.042207792 -0.08341873 -0.17194504 -0.0652608 0.054708555 -0.06096492 0.06838148 -0.027665468 -0.018969035 -0.0909607 0.09411278 0.14061855 0.016528826 -0.13256481 0.23703822 0.020920917 0.017401075 -0.13465185 0.08997659 0.06924723
pætur_faoh 0.13232216 -0.020937892 0.14701377 0.1636365 -0.042899515 0.04080478 -0.017362965 0.12887296 -0.06725808 0.0551001 0.010445805 0.06203935 -0.061227985 -0.075721346 -0.09919404 0.037052747 -0.11764573 0.070520975 0.05664802 -0.0759562 -0.03781119 0.046469115 0.01484509 -0.19477594 0.028473234 0.1231791 -0.02910588 -0.092477314 0.08927988 0.01715517 0.15849973 0.10884948 -0.20491289 0.06760814 -0.049209524 0.10931854 0.014888455 0.12826689 -0.12870188 -0.029201321 0.109286234 -0.051087953 -0.027391369 0.023847898 0.26059645 -0.18347193 0.08008218 -0.15181905 0.11229242 0.07425353 0.10036207 -0.055804055 -0.026471987 -6.993408e-05 0.11450149 0.04733865 -0.041762546 0.071256086 -0.032216076 0.16061386 -0.020470487 -0.13047999 -0.10562419 -0.074885614 -0.06531986 0.068524614 0.02627125 0.15986276 -0.12822777 0.10413188 0.110662915 -0.15012082 -0.053634435 0.17917824 0.015772661 0.028713644 0.13585973 0.13507374 -0.027721617 0.084948644 -0.03035281 -0.07499187 -0.062352695 0.032017387 -0.037527997 -0.046351153 -0.053894427 0.17177849 0.06543938 -0.10745126 0.027704297 0.023127934 -0.009705763 -0.12321301 -0.040813815 0.09453058 -0.28302234 -0.016905854 -0.117213875 -0.14539252
varð_faoh 0.10175984 0.12752052 -0.015292534 -0.12385586 -0.057858113 0.01731308 0.0014580687 0.004776243 -0.07917703 -0.12926088 0.026577065 0.0496044 -0.14931889 -0.040077087 -0.27036697 -0.039857127 0.1668366 0.19526444 0.28294373 0.01985351 0.05921976 0.05044874 0.054401137 0.06361634 0.052443556 -0.0022183938 -0.14146431 0.010016034 0.13513935 0.12072393 0.1650274 -0.02072205 -0.053343948 -0.08957639 -0.14496097 -0.004692757 -0.1577849 0.013667451 0.039438985 0.025781384 -0.1173242 -0.019819805 0.08510353 0.026325502 -0.03090741 -0.11938082 0.07804825 -0.027732207 -0.1264477 0.07613296 0.008813181 -0.06199521 0.016648825 0.23850174 -0.015775776 -0.077897064 -0.18770427 -0.0066542756 0.079507686 0.1333973 -0.17611334 -0.0855787 0.11623731 0.037993964 0.13478239 -0.08079028 -0.06962871 0.12742569 0.02467491 -0.043810796 0.0685837 -0.055072717 0.13283281 -0.013853472 -0.08554955 -0.05366766 -0.06925539 -0.06511379 -0.10896727 -0.06497321 -0.037864037 0.018206 -0.037716966 -0.123098716 -0.22827625 0.018851256 -0.08116789 -0.09980436 0.06405095 -0.07831848 0.059824083 0.14404674 -0.03682601 -0.12889324 0.05139147 0.01118243 -0.0048805363 -0.10439224 -0.09657946 0.09595074
aftur_faoh 0.06493967 0.040093392 0.06744782 0.14838772 -0.25462705 -0.028797803 -0.0921124 0.15716134 -0.1367298 0.2200197 -0.07282187 -0.016500592 0.045492273 0.13935399 -0.12528886 0.11324783 -0.08815281 -0.11468848 -0.05990111 0.070893854 -0.17501937 0.089364044 -0.043530907 -0.07071538 -0.007591538 0.009818512 -0.0113895135 -0.15672463 -0.1451473 -0.06702896 0.061429944 0.07300066 0.052897416 0.094795294 -0.14720866 -0.035804942 -0.09058838 0.04587946 0.0582407 0.007365229 -0.018202871 -0.14078614 -0.10350778 -0.039198834 0.19796275 -0.1649942 0.11870672 -0.06996127 -0.03031033 -0.0017386827 0.12135116 0.058125477 0.04683498 0.0018833417 0.21640797 0.22968146 -0.006286522 0.017764244 0.07666432 0.028354505 -0.0021228122 -0.10309832 -0.024572803 0.030444114 0.035122447 0.15393013 0.046169695 -0.042660013 -0.06427019 -0.034063287 0.10154781 0.036762733 -0.24938656 0.15993376 -0.03535781 0.036580868 -0.07517371 0.026720554 -0.024071703 0.15868378 -0.06488721 0.02601191 0.09522988 -0.0061350777 0.08164973 -0.005411639 -0.047073275 0.070074245 0.08236178 0.06385045 0.040540867 -0.100499265 -0.035473194 -0.104097806 -0.13741748 0.09217849 -0.016328536 -0.060846034 0.000897938 0.20740601
enn_faoh -0.08049345 0.040493492 0.10185501 0.05043609 -0.23531264 0.12723632 0.10714081 -0.0035847432 -0.31867784 -0.102241665 0.05771813 -0.030111965 0.00792741 0.043186672 -0.108155705 -0.06553629 0.02530585 0.12193669 -0.10872391 0.015124911 0.010573959 0.065330125 -0.006054858 0.014783025 -0.136011 0.053129222 0.028511811 -0.17268714 0.015857713 0.08260237 0.041791692 0.020303527 -0.052819464 0.07436271 0.03320824 0.10124494 0.046288326 0.13370864 0.1001479 -0.1710079 -0.1144823 -0.022697823 0.038552914 -0.09026655 0.100903325 0.082182005 0.016735084 -0.045858286 0.07257794 -0.061833277 0.0836125 0.0063095773 0.10361627 -0.11262223 0.16191976 0.0835771 0.02129497 -0.08251442 0.08654663 0.06475619 -0.2425219 0.0027326439 0.03896898 -0.13587889 0.018738687 0.024505975 0.0133639155 0.108764395 0.14653385 0.19504166 -0.16198143 0.10878126 0.041228056 -0.1275822 -0.07735207 -0.009486249 -0.016743714 -0.19214751 -0.12285282 0.07323258 0.1130633 -0.103941545 -0.016661016 0.075764485 0.024593947 0.09093353 -0.08336961 -0.022406068 -0.06224778 -0.053974487 0.15859282 -0.051885992 0.16496693 -0.08290229 -0.10147891 -0.042329397 0.18300702 0.012911631 0.14282201 -0.05721478
hvör_faoh -0.08155444 -0.040311724 0.059456035 0.09827041 -0.004259889 -0.0730552 0.0340418 0.123147085 -0.10509718 -0.03348657 -0.05814157 -0.06423043 0.03943534 0.14837985 0.027268514 0.12853314 0.1762875 -0.03581349 -0.11579268 0.016979376 -0.04061291 0.13951747 0.15188456 0.058848675 -0.057700757 0.07525543 -0.14091086 -0.02444244 0.037070464 -0.018676132 0.28282437 0.08316137 -0.1381284 0.1517212 -0.13261843 -0.06238386 0.0137986 0.10067132 0.2674538 -0.13132389 0.027683794 -0.014180322 -0.0154684875 0.12688555 -0.031129682 -0.06619575 -0.059769455 -0.11514873 0.1332069 -0.16873749 0.16127905 -0.0853225 0.06836878 0.0004502125 0.01711708 -0.0125841545 -0.123176545 -0.03997023 0.17360888 0.098072074 0.0052028755 0.0147522 0.09530414 -0.14169146 0.12786055 -0.102197565 0.13055642 -0.026920034 0.07104402 0.040087916 0.026041972 0.015625533 -0.17081629 -0.17977503 0.053484507 0.05652051 -0.17190024 0.1595901 -0.04026346 0.017372407 -0.011819175 0.032637235 0.012521768 -0.05458344 -0.008273642 0.08016142 -0.098779276 0.08059846 -0.08936288 -0.10773417 0.0012167327 -0.1274737 0.046920758 0.07580682 0.05535036 0.058179 0.020277392 0.18508947 0.12004638 0.09374702
hövdu_faoh 0.19682598 -0.08555972 -0.018898733 -0.056388967 0.06293008 0.14553086 -0.17056328 0.11123894 0.0057331156 -0.14747547 0.10093967 0.094341286 -0.014029983 0.14855963 0.087605186 0.16388856 -0.00610029 -0.08387892 0.09938436 0.030940326 -0.14399077 0.03315786 0.13385524 -0.013756146 -0.035262983 0.048449934 -0.042083804 -0.22207385 0.03789456 -0.011296413 -0.0044633257 0.07605782 0.0023663472 -0.12512287 -0.1213284 0.08471107 0.09840744 0.09224847 0.018449144 0.0101246545 -0.062238973 0.09191949 0.26370478 0.03586612 0.054329976 -0.16709487 -0.05864524 0.029711954 0.043780237 0.034680776 0.04311466 -0.04040974 -0.081550635 0.11921007 0.1793591 0.049376458 0.052320395 -0.2073856 0.11070988 -0.021966541 -0.1369236 -0.09047108 0.05744208 -0.0886738 0.3061364 0.056980208 -0.11397509 0.03811873 -0.06831507 -0.010264542 0.104384296 0.06332484 -0.025985403 0.07524167 -0.09698389 0.08757553 -0.110610135 0.017042117 0.07901291 0.035376277 0.1464023 0.026498437 0.08861537 -0.0816897 -0.027022509 -0.009878468 -0.1377583 0.0174966 0.002587383 -0.023001976 -0.22259331 0.13417576 0.03485193 -0.017613653 0.09083785 -0.001982179 -0.012271665 -0.02808008 0.008941725 -0.15117098
guðs_faoh -0.16569798 -0.05606227 0.07605747 0.102333605 0.0031043952 0.10093236 -0.06268476 -0.03627826 -0.11588082 -0.095388554 0.101298116 0.12215876 -0.16696377 0.07947446 0.025380071 0.028726932 -0.021246176 0.022554282 -0.017088437 0.08148665 -0.08258631 0.087850876 0.1779522 -0.13536698 -0.08115929 -0.025259415 0.019349847 0.14621645 0.017486505 0.09008669 0.1539623 -0.065728106 -0.10125166 0.029670801 0.043354493 0.06635921 0.028995922 0.24584027 0.0717284 -0.027977541 0.27098554 -0.04369022 0.10739021 0.13797566 0.012882545 0.011806262 -0.18064503 0.023373 -0.06508301 -0.05054058 0.117982596 0.0053702276 0.0703002 -0.0622169 0.05031117 0.04113826 -0.0754584 0.07766162 0.09895244 -0.06780308 -0.10309409 -0.15896685 -0.10002053 -0.095072456 -0.08192699 0.04326194 0.0032054062 -0.015171007 -0.16652612 -0.06839577 0.074195564 0.10144781 0.109205335 0.21201982 -0.13091017 -0.028334748 0.024560392 -0.06370619 0.04054278 0.17410946 0.035738155 -0.13880756 0.083513014 -0.02603601 -0.14389479 0.038111046 0.10482366 0.04045344 0.14024097 -0.08798602 0.09610581 -0.011851716 -0.051578257 0.16194746 -0.026355395 0.0038136358 -0.013220493 0.22878239 0.093236804 0.13635884
tess_faoh 0.027914708 -0.023022225 -0.023989115 0.07448435 -0.15558375 0.00063570286 0.0020178163 -0.08126293 -0.19818977 -0.012560877 -0.05090138 0.06295358 -0.04875171 -0.15770896 0.054022163 0.008495527 0.06789718 -0.25361335 0.07978077 0.08212957 -0.08465569 -0.15646219 -0.04300657 -0.1647676 -0.030972846 -0.09336417 0.025474967 -0.10405995 -0.024997968 0.022527281 0.20777026 -0.0892162 -0.024901982 0.10112982 -0.044660036 0.10997649 0.09149842 0.27009156 0.12324158 -0.05549346 0.045235164 -0.07084442 0.09695062 0.07415223 0.009364274 0.054208897 0.14258736 -0.1369205 -0.05425558 -0.04550675 0.15608345 -0.0032998023 -0.13700889 -0.045724932 -0.021835398 -0.0054511297 -0.026723158 0.013847727 0.062337406 -0.03631236 -0.26589516 -0.11468988 -0.028184688 -0.051024556 0.03462333 0.13270827 0.12191771 0.05770329 0.034532722 -0.027464716 -0.050379463 0.097757384 -0.0152142 0.08945347 -0.09791813 -0.1507138 -0.042061575 -0.04735598 0.011960358 -0.2109552 0.16057783 0.015222508 -0.034892116 -0.124088846 0.122076936 -0.12309065 0.13647349 -0.020556485 -0.022941891 0.082901776 0.09977178 0.21505505 0.006268951 -0.019521633 -0.057113167 0.1660774 0.00376046 -0.028228037 -0.04183339 0.08550899
