2029 100
de -0.20943184 0.0660642 -0.050567333 0.0669236 -0.15555498 -0.0063631306 0.059256323 -0.09471487 -0.12339599 -0.19260094 -0.005712945 0.14174706 0.055192944 0.052756812 -0.08717795 -0.058685306 0.038186975 -0.019252507 -0.03144869 -0.26691058 -0.16693382 -0.08399433 0.1637709 -0.030446224 -0.046607714 -0.15805177 -0.07907737 -0.017669208 -0.0644502 0.05859 0.046930276 0.16225398 0.040659267 -0.035040937 -0.040505685 0.002197232 0.057591528 -0.17653473 -0.058641247 -0.115077734 0.030849582 0.0425743 -0.00044509536 -0.1040764 -0.037797187 -0.04408278 -0.017799644 0.077074684 -0.16282356 -0.01693548 0.14197664 -0.034235295 -0.161793 -0.095685355 -0.016279895 -0.010091142 0.09599687 -0.09346083 0.13818577 -0.010287966 -0.022262454 0.12574174 -0.0009386619 -0.107673556 0.14636625 -0.03818917 0.14621535 0.023655824 -0.16530888 -0.056439377 -0.041141238 0.01957033 0.011494498 -0.040960956 -0.0051568514 0.2862088 -0.09787094 -0.11892302 -0.081325576 0.062341526 0.062272795 -0.063845105 0.10550796 0.009317767 -0.032780923 -0.08220477 0.1083415 0.10787964 -0.08201631 0.06849546 -0.13672605 0.08851188 0.14775166 -0.012759311 -0.097397625 0.15454929 -0.09905429 0.037121344 0.17705907 -0.052212648
le -0.054324258 0.21983512 0.004342132 0.034889553 -0.020404167 0.10684517 0.07877171 -0.11197889 -0.16623312 -0.030273816 -0.06559381 -0.13035743 -0.19981542 0.015905695 0.061633512 -0.016110316 0.018471042 -0.15995377 0.112668425 -0.084750034 0.052370805 -0.005880438 0.107981466 0.096471705 -0.048293874 0.15876995 -0.08937328 -0.08266115 -0.058912594 -0.044027098 -0.10121199 0.1789489 0.18104847 0.11822914 -0.038824223 -0.018494088 0.056811955 -0.08852595 0.08266561 -0.063801 0.056929808 0.08467058 -0.20696612 0.06968957 -0.03096909 -0.062513426 -0.024949772 -0.01797067 -0.039605483 -0.17258175 0.113607384 -0.14372498 0.013737032 -0.03268722 -0.07991492 0.07531757 0.17442665 0.08422285 0.045422338 -0.19097404 0.0052238037 -0.13038616 -0.046050023 -0.031152401 -0.1088692 -0.015421881 0.014249514 0.17175879 0.0031682255 0.035762433 -0.07625226 0.15851171 -0.073359765 0.06707316 -0.10730573 0.06760636 0.14921626 0.0061249253 0.030104551 0.051718358 0.020233518 0.19509158 -0.06428624 -0.056134067 -0.10528202 0.20962742 0.17021598 -0.19282418 -0.036291752 0.01735393 -0.07585732 0.014150586 -0.08740658 -0.08171509 -0.09423851 0.09077902 -0.098795936 -0.045310162 -0.040800538 -0.095127255
la 0.029657673 -0.15808408 0.026435712 -0.091686636 0.11409226 -0.007543106 0.2988543 -0.1680929 -0.13167803 -0.101540595 -0.16598357 0.10167971 -0.088572726 0.03225931 -0.03556303 -0.016690819 0.10987235 0.019696966 0.05949042 -0.18122809 0.105043955 0.10281751 0.06996338 -0.019077476 -0.027986718 -0.02366999 -0.021254389 -0.1095938 -0.113298275 0.08034508 0.010058221 0.24709636 -0.32947376 -0.13314703 -0.07627098 -0.031395797 0.0234796 0.11062412 0.18620412 -0.14875159 0.17888492 -0.019002551 -0.09071332 -0.043533035 -0.09273124 -0.09636619 0.037961688 -0.12477058 -0.10161625 -0.04532865 0.043625418 -0.063589774 -0.074872956 -0.0075095277 0.0884539 0.039130982 -0.15078878 -0.057066873 0.080470845 -0.16750222 -0.12184898 -0.06123384 0.084940664 0.10760866 0.07368312 0.06931569 0.015931195 -0.03446037 0.12080537 -0.06659987 0.01571759 0.2116168 -0.056885235 0.042681992 0.0066762036 -0.09975536 0.088829376 0.0636405 -0.12968263 -0.0063979933 -0.00088460627 0.0007279516 -0.09025917 0.05663041 -0.00574632 -0.06805026 -0.08496699 0.016326513 0.042673085 -0.04938681 -0.044822957 0.12296552 0.01516977 0.004151902 0.043079972 -0.038016506 0.060298987 0.071961656 0.01711669 0.00021523214
les -0.06739799 -0.0065833437 -0.040621478 -0.023426298 0.03155844 0.024134934 -0.03718133 -0.14021085 -0.0031692183 0.0457189 -0.0029570456 0.10696415 -0.11086655 0.020175524 -0.023396133 -0.014751421 0.028464587 -0.106880404 -0.0020815502 0.13540773 -0.025282305 0.049921043 0.014347888 0.036145017 -0.16422606 -0.14735088 -0.05326974 -0.2915395 -0.00628759 -0.06908364 0.19872487 -0.0029607092 0.064263746 -0.09795352 -0.007100936 0.14259373 0.17915119 -0.105829604 0.10028247 -0.020999467 -0.01007724 0.05538505 0.008993615 0.17805181 0.009948364 -0.090596974 0.09082673 -0.07236502 -0.07781213 -0.19280784 0.016932828 -0.18198289 -0.11703408 -0.08719667 -0.03637881 0.19033192 0.052003887 -0.087788515 0.06983041 -0.041941155 0.024058307 -0.13227083 -0.23456356 0.10721113 -0.037618883 0.07792261 -0.21606086 0.05355286 0.122713834 0.12201594 0.17327332 -0.02122079 -0.009600802 -0.08878233 -0.013459486 0.026027026 -0.0015426573 0.23353548 0.063064344 0.07187374 0.0052538337 -0.0011285738 -0.077721335 -0.020640844 -0.095463954 0.026404347 0.033424444 -0.13810213 -0.11461871 -0.10287964 -0.26813152 -0.025677692 -0.04303315 -0.028291928 0.07353942 0.07261249 0.03357978 0.08227562 -0.011930237 0.04066006
à -0.10705513 0.15689555 0.07777983 0.04654977 0.03035036 0.03517103 -0.2240851 0.1453905 0.14136203 0.024682662 -0.06372791 0.12632948 -0.03809386 -0.089144886 -0.010209233 0.12351231 0.07769245 -0.09082344 -0.0855497 0.1712268 -0.1339352 -0.19564736 0.10723774 0.0638909 -0.026253441 -0.22249521 -0.21345763 0.052436333 -0.08556126 -0.21765138 0.029166218 0.04066203 0.04517487 -0.0021574562 -0.21091692 -0.13649215 0.24147676 -0.072783165 -0.13273409 -0.07863234 0.052313313 -0.046051368 0.0790178 -0.11645308 -0.115729764 -0.1176236 0.013623535 0.025016256 0.013075906 -0.023901867 -0.098393366 -0.038907185 0.045136888 -0.07300992 -0.14924522 -0.20883575 -0.17540619 -0.082550265 0.012634533 -0.01917353 -0.05207178 -0.15161179 0.025577025 0.077507325 -0.008419167 0.13336034 0.019722642 -0.02516349 0.0022818053 0.04404361 -0.06937705 0.060044587 0.00454362 0.021099273 0.05427752 0.012630631 0.02772448 0.04293002 0.15642208 0.0571879 0.01745863 -0.015543477 0.07845677 -0.119550936 -0.12648314 0.011654375 0.050710086 0.0062853573 -0.10318963 -0.048768226 0.12714906 0.10316098 0.12422498 -0.10985254 -0.003784278 0.0646766 0.012604244 -0.011487011 -0.024717415 -0.046157297
l 0.058787435 -0.09483433 -0.013546725 -0.0836946 -0.030767823 -0.000713239 0.06318118 0.05194717 -0.27762598 -0.16022977 0.018126156 -0.114374936 -0.12723304 0.01600557 0.14488138 0.051130753 -0.16957474 -0.105553456 -0.12053406 -0.0056111086 0.08781616 -0.08306403 -0.0046773707 0.15618198 -0.031544175 0.2373108 -0.10713347 -0.14274487 0.050630577 -0.11198515 -0.08610236 -0.06818903 -0.0823919 -0.042775013 -0.0017610654 0.016828112 -0.12084139 0.02157886 0.053763542 -0.11935755 0.009487287 0.035142142 -0.12830241 0.07217267 -0.11268959 0.0022685179 0.087684564 -0.2536254 0.19815177 -0.08637802 0.036291763 -0.062270027 0.026646897 0.13619094 -0.06452507 -0.07523365 0.07905049 -0.084612094 0.0472557 0.01157259 0.025022445 -0.14081343 0.003148709 0.22205272 0.04715446 0.05869487 0.016622117 0.03281084 0.004457248 -0.043362297 0.07094501 0.0074184877 -0.02918597 -0.020963129 0.07927363 -0.089370795 -0.10444678 0.014918504 -0.067082584 -0.043406032 0.11214376 -0.13479772 0.09705008 0.036337856 -0.08671623 -0.18641455 0.19934757 0.18636774 0.054455984 -0.07467262 -0.121016786 0.031263918 -0.10164908 -0.044998948 0.12287531 -0.032166198 0.078344114 0.0047382293 0.12028295 -0.112820044
et -0.073738396 0.12818187 -0.078708135 0.09427897 -0.09504269 -0.1397242 0.14376184 -0.056058396 0.060016748 0.0059535187 -0.010065927 -0.0641219 0.11278933 -0.12519602 -0.3665216 0.042050377 -0.07573318 0.036609344 0.094190806 0.09077538 -0.06861925 0.08894006 0.070194304 -0.030398935 -0.025320042 -0.016948609 -0.011876946 -0.06990712 -0.043376468 0.11810887 0.19582467 -0.0026795445 0.051416658 -0.0049189865 -0.014833391 -0.030499427 -0.05682761 0.02789993 0.18203254 0.019537246 0.01953884 -0.030650891 0.08682851 -0.08287551 -0.07007852 0.042736594 -0.089724846 -0.13782078 -0.11184144 -0.041531775 -0.043179657 0.1768641 -0.058172718 -0.14883599 -0.11567412 0.010760684 0.16657369 -0.08373807 -0.09977976 0.02496439 -0.15845989 -0.16806066 0.06264201 -0.19295828 -0.100304745 0.04198053 0.15430085 0.14142941 0.06446908 0.13047473 0.035203 0.08583665 0.032875177 -0.09027397 -0.10933118 -0.07571487 -0.1000948 0.0012712548 -0.01399806 0.12048956 0.06618827 -0.03592065 0.091146015 -0.026238736 -0.086907804 -0.0017972211 -0.17243873 0.18133986 -0.011279865 -0.083003685 -0.157664 0.06677542 -0.06224656 -0.05842569 0.027835762 0.11012349 -0.16698495 -0.08035863 0.06933642 0.028765766
des 0.056405377 0.10621928 -0.02294592 0.14134292 0.05027234 0.14108524 -0.032575697 -0.035397165 -0.10809488 -0.025253363 0.041527048 0.016295193 -0.26997602 -0.047416948 0.11869783 -0.008884547 0.13259818 0.19356583 0.20991316 -0.08525104 -0.13536373 0.0007250791 0.024425866 0.010199251 0.014121286 -0.063782126 0.027162597 -0.045241177 0.01403932 -0.03402069 -0.11262861 0.0021960647 -0.10893994 0.03903018 0.10433712 0.068014674 -0.052574657 -0.03231808 0.039162125 -0.07342883 -0.30194175 0.029265594 -0.0597299 -0.006334268 0.077011526 0.0053907875 0.15443984 -0.028282057 0.019784566 -0.049107987 -0.0061800475 0.11977156 -0.14169474 0.014248183 -0.11283514 0.12778026 0.09191941 0.08276276 0.1440083 -0.013003295 0.06177089 0.022267235 0.032872822 -0.13202697 -0.03496867 0.1252841 0.00031500464 0.07896082 0.027154962 0.21218927 -0.0051515694 0.080735035 0.054703552 -0.0059525417 0.0120513495 0.04780305 0.0015593522 0.045404628 -0.02908544 0.037661005 -0.011585131 -0.00503786 -0.18189481 -0.10866214 -0.11849061 0.06840967 0.17145842 0.098301634 0.19835219 -0.12941502 -0.03218954 -0.10300271 0.035634764 0.0879058 -0.025891906 0.1289519 0.14228962 0.20340645 -0.21175118 -0.10077379
en -0.14873017 -0.05615751 -0.022263363 0.051983275 0.043579962 0.04653918 0.18086828 -0.0019420112 -0.1505677 -0.031691656 0.14102739 0.07415662 -0.10732708 0.11114097 -0.05120645 0.02703914 0.0916313 0.009924837 -0.09192727 0.15773177 -0.12655334 -0.07783774 0.14699234 0.027665393 0.22787844 -0.036221903 -0.19206391 -0.021417363 -0.04792809 0.0344862 -0.08061974 0.110469535 -0.08243551 0.124117754 -0.0070148143 0.0041866405 0.22169498 0.09580148 0.22046977 -0.2739423 -0.068674296 0.006592848 -0.059440546 0.13183577 0.06811338 -0.07734204 -0.0302456 0.019553253 0.057763886 0.030619454 0.0353695 0.031012114 -0.07193435 0.025700323 -0.10359271 -0.045434188 0.06902846 0.13576949 -0.18590069 0.02144644 -0.10739663 0.09495051 -0.0038390325 0.08124706 -0.049189236 -0.00034645144 0.11564894 -0.010585086 -0.09529267 0.026663696 -0.0013769614 0.010848689 -0.020924537 -0.051182244 -0.10341172 -0.030751856 -0.12526426 -0.017774973 0.048055038 0.036539856 0.13327006 -0.038290694 0.13014483 0.055403054 -0.14472392 -0.13197023 -0.015485576 -0.11657708 -0.15193693 0.06535437 0.10451655 0.056139465 0.006124827 0.012016628 0.11468036 -0.0334955 -0.23097543 0.17426242 -0.019320125 -0.12450993
a -0.015444498 -0.0693901 -0.07637565 0.11208937 -0.19354358 -0.10928449 -0.11280957 0.049476102 -0.040935207 -0.11159535 -0.2115752 0.023356253 -0.12177379 0.00824822 -0.030489577 -0.114022836 -0.111837454 -0.15445082 0.17774013 -0.006967888 0.07417258 -0.02756579 0.013608835 0.108557984 -0.085528485 -0.10335083 -0.22028883 0.11872795 -0.09800435 -0.037072282 -0.0074087214 -0.032949995 0.0061150086 0.15160154 0.026435684 0.13488506 0.09295587 0.13632682 0.07436267 -0.010676861 0.05821923 -0.13008782 0.03407487 -0.1181705 0.117054135 0.0063359477 -0.08383195 -0.023910861 0.07319742 0.14363956 -0.050620474 0.108438365 -0.15251745 0.18258928 0.042543806 -0.031997215 -0.09543824 0.08506943 0.08358 -0.15959364 -0.13890699 0.0016949514 0.08594223 -0.17462732 -0.060468115 -0.11885225 -0.06564093 -0.1735081 0.08296185 -0.13592313 -0.035091218 -0.14248252 -0.015526944 -0.06507067 0.023237549 -0.0983187 -0.0095270565 0.119364396 0.03124851 0.12086806 -0.00042294076 -0.035206802 -0.0619975 -0.13673803 0.04918362 0.077576645 -0.01039337 0.11261851 -0.07766996 0.02926666 0.09527773 0.13393818 0.08764988 0.07733233 0.15074198 0.15234461 -0.036314294 -0.067137286 0.010868923 0.13891861
d 0.004710395 -0.10474459 -0.1567551 -0.014560155 -0.051075496 0.077628724 -0.12727356 0.10343999 -0.1516154 -0.0047967094 -0.047611423 -0.13207899 -0.036678355 -0.055653058 0.014894669 -0.15677434 0.035127126 -0.13689618 -0.077185996 -0.08836497 -0.029411515 -0.13195525 -0.04687691 -0.072946675 0.030850587 -0.2762769 -0.16301061 0.119102865 -0.058823977 0.015907904 0.084056236 -0.05742599 -0.072729446 0.0453371 0.0151483165 -0.07005368 -0.12581387 -0.011358785 0.2336176 -0.10096354 0.007587643 -0.06224858 -0.17199299 0.08179634 -0.12663504 0.18299606 0.04162097 0.023968244 0.11060351 0.024416598 0.01594202 -0.00073080405 0.03472714 -0.13855854 -0.029431403 -0.18678135 -0.046752308 -0.2047454 0.00096904574 -0.13999549 0.010705575 0.004606651 0.08266564 0.027257781 0.014434557 0.13489313 0.023736631 -0.036363676 0.1106576 -0.10276956 0.12985954 0.0667029 -0.07018244 -0.020925632 0.08819964 0.023790803 -0.09621815 -0.012638603 0.04547023 0.0066858376 0.1180805 -0.0017734796 0.12910326 -0.034400295 -0.13447952 -0.11596135 0.05703918 0.08499162 0.1274726 0.0546193 -0.18392605 0.11405612 -0.13202776 0.08106369 0.14139532 0.10580869 0.11174936 -0.04691342 0.08246778 -0.18155186
un 0.098906636 0.04033949 -0.14052 -0.013844203 0.14591493 0.0014291579 0.02092181 0.0051586083 -0.08259104 0.08875601 -0.09511022 -0.03994337 -0.04202197 -0.022951 -0.030311564 -0.039849583 0.054349102 0.15875699 0.009214681 -0.050328888 -0.14005238 0.039011884 0.038190935 -0.009421692 -0.060562048 0.030205766 -0.062111735 0.08102729 -0.0019453724 0.029232446 -0.07157146 0.061093356 0.1249105 0.13929832 -0.057364628 -0.056006875 0.15249744 -0.263594 -0.0074819652 0.04882152 0.17663845 -0.21994945 -0.14410363 -0.0071554664 0.1253613 0.084507495 -0.062196128 -0.21881375 0.16201767 -0.01355394 0.050568294 -0.102803275 0.078445956 0.105317295 0.037016366 0.17392051 0.09417567 0.12631695 -0.0428851 0.17547244 -0.0024551626 0.0054011527 -0.11772473 0.08740915 -0.06832925 0.075637266 0.04361282 -0.08171803 -0.07671529 0.14553694 -0.13067687 0.04902276 -0.23060144 0.16862027 -0.03224078 0.09387336 0.09852448 -0.02144399 -0.1211419 0.06830482 -0.07192703 0.006466055 0.043446474 0.0916703 0.08677047 -0.007494906 -0.040823642 0.042098384 -0.17869015 0.029297074 0.10075079 -0.12921226 -0.092806734 -0.17386417 0.05006208 -0.16585681 -0.033600952 0.11687102 0.009728958 0.05626328
du -0.12221252 0.02353666 0.19752307 0.08956578 -0.046148796 -0.0068177325 0.084229164 0.10712397 -0.04279994 -0.0036462506 -0.004103419 0.2647413 -0.028497556 0.091622934 -0.0019702557 -0.09770878 -0.042661972 0.26048955 -0.15445879 0.06493535 -0.015883127 -0.014731517 -0.06876459 0.035462167 0.03243629 0.050079677 -0.13190229 0.045898948 -0.07586455 0.029496571 -0.059142467 -0.17386648 -0.02913314 0.028586088 -0.005323012 -0.050809033 -0.10125259 0.028467776 0.09671919 0.0878914 -0.032666188 0.028554894 0.10723131 -0.09493367 0.010861911 -0.21175168 -0.00094957446 -0.018893642 0.0057558 0.07742244 -0.1008381 0.11160863 0.111045726 0.011968628 0.11552662 -0.0947644 -0.04047236 -0.021857586 0.18125269 0.009104013 -0.076709926 -0.16732006 -0.028183108 0.20968904 0.11325468 0.14009565 0.10424313 -0.07961136 -0.0012270289 0.0759373 0.08382877 0.059628725 -0.122655645 -0.019165277 0.075184 -0.0025419535 -0.014425546 0.112047896 0.034985013 0.104361854 -0.0563449 -0.06446843 0.16543494 0.16665742 -0.03993226 0.011309646 -0.124248356 0.054892056 0.016802028 -0.07285612 -0.02973686 -0.18096216 -0.026551392 0.08231049 0.109508924 -0.0473159 0.12618415 -0.17965905 -0.08190769 0.26584786
est 0.019645724 -0.024397423 0.0021249682 -0.047788333 0.015879238 0.0051119863 -0.16905181 -0.024946967 0.2523043 -0.0903395 0.11275437 -0.109902784 -0.031081393 0.12739146 -0.07887019 0.036409244 0.052298 -0.21738115 0.007223155 -0.04009899 0.23577657 0.10196773 -0.033585384 -0.050123326 -0.26552022 0.06087569 -0.10056937 0.025275676 0.018225575 0.13262048 0.065026805 -0.055933595 0.07462205 0.099132545 -0.017842112 0.038545888 -0.07787466 0.06392118 -0.0940322 -0.07913767 -0.032790683 0.15782791 0.1339924 0.040465835 0.03863122 -0.006622161 -0.04228288 -0.07662958 -0.026932543 0.20307332 0.049077023 -0.055792365 -0.26958784 0.06785997 -0.06779591 -0.03690942 0.07989589 -0.109219044 -0.104506776 -0.09006099 -0.072610036 0.022729313 0.15460505 -0.03294029 0.04887536 -0.039842274 0.058281016 -0.013051564 0.11228521 0.075417496 0.03317404 0.049402718 -0.105136536 -0.12677422 -0.061562028 0.10746384 -0.023833908 0.023806425 -0.052412994 0.17043303 -0.027634913 -0.051425923 0.011759497 -0.12087982 0.100876756 0.026510708 -0.071020365 -0.006897487 -0.10966459 0.11458007 0.037717212 0.039277624 0.17569906 0.099686705 0.19290952 -0.03661341 0.19952814 0.10891923 -0.04506462 0.13497594
une 0.10431731 -0.030057272 -0.036278673 -0.22772366 0.08802267 -0.025493471 0.021486545 -0.062326163 -0.067691274 0.055239134 0.038892925 0.07494233 -0.13874856 -0.097989835 -0.102416806 0.035779778 -0.12291962 0.032738093 0.026082212 0.103031084 -0.084778376 -0.052633956 -0.03317997 -0.101973765 0.0581273 -0.15156156 0.053170297 0.14000206 0.09440697 -0.08469004 -0.11579026 0.15469024 -0.10577905 0.1201598 -0.10770364 -0.0047587375 0.1370708 -0.16580877 -0.017199397 -0.04401156 0.14806391 -0.048955392 -0.031205837 -0.10371108 0.04255177 -0.028451934 0.03398984 -0.062693335 0.009824985 0.07638187 0.13120884 -0.074847706 -0.045891397 0.06417468 0.015129101 0.07299926 0.07021438 -0.12945092 0.15712352 -0.009507861 -0.10541451 0.07137377 -0.1503359 0.07539281 0.08083356 -0.05584304 0.015362901 -0.10807013 -0.14528716 0.027334098 -0.058146235 0.086199865 0.015858438 -0.1699679 -0.06040394 -0.19675204 0.26604915 0.164613 -0.24473348 -0.061806418 -0.11526616 0.10385509 0.013886527 0.039540738 -0.099166535 -0.07706432 -0.009285455 0.12090528 -0.12499103 -0.10684373 0.056043886 -0.11825068 -0.09327116 -0.05570657 -0.00036497603 -0.1316587 0.08845898 0.083617665 0.15094572 0.015327577
que 0.012127551 -0.010015645 0.019505402 -0.048724554 0.076376185 -0.01213182 0.08167274 0.017311156 0.08036666 0.027704857 0.027404923 -0.02258873 0.24433291 -0.068221904 0.17413646 -0.15902095 -0.05246811 -0.0377688 0.09346377 0.07911119 -0.03936633 -0.0005949314 0.058551826 0.11120691 -0.041116405 -0.035267424 -0.053762868 -0.15599124 -0.036889046 0.036556512 0.082767904 0.14465588 -0.012625398 -0.1530062 -0.15343775 -0.13477209 -0.113447994 -0.050443392 0.08746685 0.06270616 -0.004958812 -0.108583555 -0.03067278 0.111793876 0.1526231 0.06319687 -0.04843678 0.07262065 0.07293286 -0.19598235 -0.013712924 0.08502827 -0.20536305 0.009572324 -0.18463537 -0.15316166 -0.09592757 -0.1417433 0.032676715 -0.016988238 -0.017293712 -0.018212419 -0.03189395 -0.1310742 -0.14151816 0.014782066 0.06693069 -0.11523025 -0.092040345 0.17462154 -0.068083905 0.09355656 0.018532502 -0.10891896 -0.05112363 -0.020616207 0.21406054 0.039627273 0.07023664 0.029459553 0.013634334 -0.02870732 0.18848544 0.122646265 0.02896241 -0.11270886 0.061419763 -0.032863345 0.051101565 0.11987068 0.09180623 -0.26783776 0.042314265 -0.019171953 -0.106748104 0.005516711 -0.02957886 0.18201868 -0.17890102 0.007924686
il 0.27548102 -0.041223906 -0.043777842 0.11453176 0.14545393 0.08809272 0.017838519 -0.082169995 0.046790436 0.055461694 0.072305776 -0.039484926 0.004378983 0.020620415 -0.24761686 -0.10421047 0.09740415 -0.065667585 -0.14199975 -0.08504479 -0.17460914 -0.09599831 -0.22076713 -0.02608201 -0.023593972 0.15114032 0.0033060198 -0.060207352 -0.040571712 -0.13189866 -0.15483055 0.17866999 0.080452114 -0.07684292 0.054184977 0.08324474 -0.04788025 -0.07808015 -0.093192294 -0.05769827 0.0123824915 0.010226203 -0.07847526 0.0634023 0.07953473 -0.05774071 0.04775498 0.044623118 0.08246379 -0.026779747 -0.17465866 0.052045677 0.22552131 -0.08194129 -0.16045408 0.010121394 -0.07823049 -0.040325068 0.19412892 -0.06919031 0.022419514 -0.04222281 0.0051996275 -0.114009514 0.012062275 -0.025183761 0.1278805 0.057703376 -0.038063917 -0.027481372 0.025351278 -0.018039025 0.14504182 0.27525282 -0.09762857 -0.033785496 0.24776354 0.03858792 0.02526197 0.052286215 0.030295966 0.077586 -0.017024832 0.09649821 -0.14449906 -0.044169024 0.0019346817 0.07831599 0.029663477 0.08615234 0.09757912 0.06712403 0.0036644626 0.016926803 0.11948103 0.020776268 -0.12330895 0.029066429 -0.03753803 -0.0082091885
dans -0.060917813 0.13697372 0.16447993 0.024637517 -0.03688729 0.026598124 0.073724315 0.08972538 0.13484013 -0.15985864 0.1588164 -0.022440035 0.064211056 0.10258141 -0.015678272 -0.027753696 -0.0034374187 0.033125304 0.22178945 -0.04545198 -0.024002101 0.12926564 -0.11352498 0.08070535 -0.08538852 -0.027974056 0.055426713 -0.06538669 -0.13160932 0.12042237 -0.0011319845 -0.031739917 -0.19038554 -0.09846204 0.18642479 -0.04195586 0.057312466 0.030912088 -0.07367484 -0.015952654 0.059998512 0.042032856 -0.07410271 -0.0947312 0.011449579 0.047824543 -0.059799224 0.07134304 0.023868361 0.1306135 -0.018246073 0.07935748 -0.15895724 -0.06767555 0.004845754 -0.20076375 -0.074084565 0.02191166 -0.014569491 0.2508512 -0.24236263 -0.102760054 -0.0008047538 0.00404359 0.117844276 0.09373559 0.062913336 -0.094403505 -0.018109808 0.08784595 -0.007450489 -0.2012265 -0.050641682 0.011489799 -0.0050924844 -0.12534782 -0.14144646 0.05788817 0.25643596 -0.0052957623 -0.029898558 0.05918927 0.089915216 0.07446757 -0.118809365 -0.20630223 -0.048780248 0.18343869 0.030855345 -0.022937194 -0.100461096 0.09293888 0.03395608 -0.00855725 0.010677322 0.058348473 -0.025309624 -0.0029537834 0.06578088 0.15280293
qui 0.11743293 -0.049804807 0.05573296 -0.13838309 0.012329352 0.030448062 0.0941605 0.14834708 -0.013497959 -0.002467473 -0.09678728 0.059797682 0.0336182 -0.074134775 -0.062260494 0.052238423 -0.02111788 0.036892306 0.09083382 0.03048884 -0.019755684 -0.13442937 -0.122961655 0.15808237 0.0023059736 -0.062356252 0.08660155 -0.16476524 0.03794177 -0.0048236973 0.22717422 0.095743924 0.08685871 -0.09032112 -0.05987346 -0.19244453 -0.15275325 -0.17294075 0.020138234 -0.091788396 0.011660751 0.018921843 -0.13759702 -0.015439372 -0.022919288 0.08453202 0.053488676 0.02597381 0.06296 -0.0800378 -0.016775131 -0.106909424 0.058369156 -0.13808937 -0.12148156 -0.18974812 0.013621566 -0.029777862 0.14743602 0.0755545 0.1060547 0.13806641 -0.05191495 0.07586058 -0.13711697 -0.1928476 0.10023863 -0.08980145 -0.02493332 0.08448932 0.06451321 -0.016991682 0.0020905721 0.12044374 0.063239254 -0.10069733 -0.09995601 0.045664728 0.075037144 -0.0758191 -0.019826222 -0.14656098 0.03445702 0.014048493 -0.25746706 0.12875345 0.0008549048 -0.05667755 0.0075079105 0.12805216 -0.11407031 -0.2492701 0.19447578 -0.11447586 0.053667028 0.067115225 0.008814099 0.014386103 -0.13027613 0.07765953
pour -0.054247268 0.103311986 -0.011660134 -0.06336722 -0.03294038 -0.09007451 0.017535888 0.012468108 0.018893883 0.076813586 -0.041508082 0.033563007 -0.04369379 -0.07901439 -0.02692812 0.022888128 0.033507615 -0.13893053 -0.030137962 -0.05543336 -0.14634834 -0.030593801 0.11583779 -0.09577096 -0.0921167 0.045853287 0.08545644 -0.1853697 0.087855235 0.0027285933 0.01427656 -0.04135083 0.07508362 0.0917756 0.082315296 -0.19711006 -0.08143384 0.0067681363 0.04252459 0.018760795 0.036380064 0.055379387 0.024656786 0.06668004 -0.045226272 0.022021556 0.2169832 -0.07180137 0.10108023 0.0988809 -0.15285198 0.18572916 -0.12542407 0.116721064 0.15572749 -0.15291592 -0.02543631 -0.070387 0.15098026 0.13345192 -0.10161042 0.17268796 0.1722941 -0.07656832 -0.10135512 0.18298538 0.02914126 0.105045825 0.039041188 0.050617844 -0.0066247745 -0.08086896 0.20588243 0.0126278745 0.06358099 -0.13092706 -0.096291006 0.09948695 0.14068894 0.19438438 0.16222315 0.123841144 -0.01249812 -0.10451116 -0.19033003 0.120820664 0.020641861 0.052373827 -0.016991142 0.11875896 0.020677516 0.041757792 0.10802552 -0.119695894 -0.09485545 0.016600039 -0.17510486 0.036623962 0.1247796 0.020478284
au -0.039768424 0.061329793 0.06975006 0.22547117 -0.051929828 -0.10326903 0.1495388 0.008219971 -0.07897144 -0.028404979 0.26905733 0.16358528 0.11298488 -0.11559596 -0.025450451 -0.08727248 0.11253564 0.13877328 -0.12824892 -0.06979579 0.099976726 0.014500865 -0.025054181 0.035068292 -0.032591373 -0.044712998 0.15759031 -0.021615537 0.05874388 0.15099335 -0.06876509 -0.046593055 -0.0042932713 -0.13438606 0.048906796 0.24894753 -0.11535977 0.036144774 -0.108571015 -0.079226695 -0.08001699 -0.028360827 0.012446757 0.09732211 0.15182002 -0.018829484 -0.06332656 -0.0062722703 0.09652101 -0.016854038 0.11693494 -0.06271277 0.03372103 0.08904123 0.16263382 0.007686383 0.088218704 0.048799537 -0.019372389 0.02766237 0.017864665 0.07244989 -0.08811084 -0.1510129 -0.030562935 0.13505341 0.20245676 -0.18843412 0.056665495 -0.018334016 -0.027499126 -0.04195503 -0.06655366 0.034491528 -0.05726648 0.006348426 -0.12595384 0.047276232 -0.0045775464 0.14396313 -0.09452428 -0.0975695 0.080175795 0.17462568 -0.07594821 -0.11542607 -0.013406225 0.115578465 -0.04513287 -0.11626875 -0.1973048 -0.063430786 -0.0531952 0.18726842 -0.16390803 0.04599656 0.054188244 0.00048799312 0.015929127 -0.0047927755
par -0.064701416 0.049668163 -0.08086153 0.08940268 -0.14691149 -0.08969852 0.032529756 -0.061022393 0.036804475 0.17854138 0.00746781 0.082645655 -0.06671207 0.112597406 0.058751225 0.10217035 -0.0052915425 0.101536036 -0.061895426 -0.015512062 0.014716294 -0.06551027 -0.042183645 -0.07950203 0.13126533 -0.0060004466 -0.042715818 -0.14533487 -0.06533306 -0.07291041 -0.01825837 -0.047284085 0.117277294 -0.06883035 -0.24880615 0.010918655 0.059153456 0.016693573 0.057123847 -0.11884032 0.17622279 -0.09764044 0.03538859 0.039149158 0.039261 0.012844334 0.010341607 -0.08288922 0.08986862 0.06862664 0.033531927 0.22057052 0.047031444 0.20093566 -0.14223967 -0.050453395 0.10645761 0.008152964 -0.24774565 -0.10952621 0.15586007 0.09743919 -0.008035053 -0.087151825 0.028989756 0.17196865 -0.012099307 -0.018847864 -0.01436454 0.10254035 0.10007986 0.03164667 0.033631634 0.059024237 0.2004387 -0.026283387 -0.24699335 -0.020307932 -0.043172713 -0.1241576 -0.122122906 -0.029252045 0.060588606 -0.10287418 -0.018328253 -0.11153501 -0.053524513 0.17487678 -0.11971714 0.11912073 0.013155659 -0.0055520358 -0.009800601 -0.1578889 -0.04799737 -0.091100946 -0.099300824 -0.13549809 0.09973251 0.17435771
plus 0.10234719 0.09699459 -0.028888613 0.011682799 -0.018312892 -0.109918915 -0.13823868 0.19871649 -0.026505467 -0.099038854 -0.056417063 0.0035510915 -0.057851683 0.060385715 -0.05793032 0.069817565 0.035246246 0.06609934 0.121222705 0.13900648 0.09570454 0.10927736 -0.09444887 0.011501902 0.014228505 0.2082635 0.06825427 -0.010196958 -0.2318467 -0.15484968 0.06679476 -0.10026005 -0.035136692 0.13721907 -0.09011335 -0.023162628 0.009175775 -0.044401478 0.035640974 0.14560644 -0.05634234 -0.03635142 0.06512959 0.14367114 -0.0062452154 -0.050942864 0.16344513 0.077114135 -0.010420437 -0.0060892035 0.10252628 0.060922477 -0.082997136 0.13045049 -0.19868135 -0.010516822 0.08881745 0.18696567 0.099266574 0.0020413795 0.012425397 0.22938055 -0.18587908 0.06558609 -0.0396981 -0.100610964 -0.0271157 0.028841684 -0.073959716 -0.03929794 0.13305253 0.054947656 0.21923938 -0.11595007 -0.105375215 0.099226326 0.043889835 0.12180371 0.051630694 -0.07912284 -0.014131868 0.19536506 0.1768851 -0.064386055 0.032552022 0.059167285 0.10382282 0.11399545 0.024938738 -0.113633215 0.041830428 -0.054955006 -0.05761734 0.061227817 0.07629935 0.047094986 0.07732038 -0.025696388 0.04542104 0.18795149
ont 0.08357062 -0.103594095 -0.11028461 0.041610576 -0.029490447 0.09228617 -0.15432438 -0.08465276 0.08373941 -0.18135452 0.057586636 -0.03133143 -0.12649496 0.075890854 -0.16799976 0.0011851161 0.1401307 -0.023262378 0.0462573 -0.08579153 -0.17900789 0.089406684 0.07307493 -0.049768645 0.08812307 -0.029546529 -0.09601021 0.11023578 0.09336082 0.13463694 -0.08836093 -0.052886438 0.023858694 -0.046567876 -0.009722744 0.15571362 0.050393447 0.1861751 -0.10805572 0.12837467 -0.07377564 0.086636305 -0.03476477 -0.2667891 0.06699319 0.02908525 0.09326435 0.008629445 -0.058496855 -0.039806668 -0.071795404 -0.14852071 0.0110731665 0.037906446 0.022815485 0.013548005 0.01720044 0.015426917 0.0817016 -0.2086866 -0.02994175 0.030081978 0.1672204 0.0977183 -0.10114676 -0.110549115 0.029037835 -0.09667144 0.07981465 -0.048180006 0.090847015 -0.2358856 -0.023826262 -0.08117489 0.1143598 0.02219648 0.048632257 0.10548194 -0.13056299 0.0825672 0.15042588 0.029863583 -0.09515331 -0.10489259 -0.0033247047 -0.01667341 0.1357353 0.0009421386 -0.15637475 0.078510016 -0.1218212 0.04428078 -0.15212704 0.086755715 -0.030824322 0.097385265 0.1757777 -0.12696664 0.011959091 0.10551087
été -0.040864084 0.056812692 -0.09208016 -0.080713436 0.07656297 -0.16670863 0.05761072 -0.009279842 -0.04037026 -0.12230435 0.09158997 -0.11621513 0.25961024 0.041581012 0.07425387 0.1504319 -0.00024338934 0.025697647 -0.0065328977 -0.016156705 0.006507848 0.111959524 -0.1190108 0.0583001 -0.17008923 -0.051890858 -0.052247085 -0.16517971 0.02260827 -0.0917131 0.036754254 0.01007919 0.17408364 -0.0010092587 0.0011232327 -0.0927559 0.07430193 -0.10607772 -0.03401158 0.005812798 -0.19085315 0.073294416 0.18549924 0.018745877 0.09569246 0.075348996 0.075833544 -0.08762491 -0.20613946 -0.008445378 -0.081200585 -0.1724134 -0.016233677 0.019411888 0.1282518 0.092610404 0.09029176 -0.06807198 0.015356911 -0.050324734 -0.1938742 -0.13198864 -0.03933856 0.18028884 0.026680842 -0.014965545 0.0036926228 0.05297705 -0.018669557 0.17889631 -0.13937622 0.25288266 0.039869674 0.010631175 0.021336362 -0.028589776 -0.15130089 -0.17892374 0.10111912 -0.054967534 0.07198256 0.11499745 0.053986784 0.086944126 0.07352744 0.0733447 0.038108066 -0.13774256 0.19350907 -0.03010125 -0.009121933 -0.10442546 0.037833743 -0.014982136 0.05328463 -0.0069313035 -0.10818212 0.03882529 -0.051753145 -0.11334078
sur -0.02650557 0.07941108 -0.037244815 0.0157404 -0.23266995 0.016010858 -0.1680938 0.012612031 -0.01807739 -0.1330118 -0.04854411 -0.078859776 0.026589023 -0.08768843 -0.0030871565 -0.16482684 0.15209614 -0.0027247053 0.013365091 0.13156156 -0.0040174066 0.006648221 -0.07654326 -0.16850002 -0.029668242 -0.107817546 -0.066792436 -0.14192617 0.046858978 0.01612561 0.0710465 -0.04152232 -0.11675739 0.10596591 -0.13189209 0.10653705 -0.02293189 0.009176308 -0.118787676 -0.019691603 -0.060647845 0.039929334 0.065942585 0.10335041 0.15489912 -0.04639662 -0.15624833 -0.14074126 0.121528484 0.099152796 -0.09920096 -0.036153793 -0.046049118 -0.14247286 -0.09247218 0.0076548713 -0.18816887 0.087896936 -0.17958441 0.04070153 0.030164512 0.1166382 -0.07290701 -0.032559544 0.0562229 -0.1010071 -0.050712977 0.016825225 -0.10790495 -0.0081423875 0.07697533 0.12295272 -0.07183344 -0.013888975 0.0573105 -0.026850991 -0.17839773 0.020283457 -0.10286892 0.05529303 0.059187695 -0.033527873 0.109320894 0.059041932 0.002209671 0.032245394 0.12291647 0.19910161 -0.025190966 -0.10264927 -0.055372845 -0.0942161 0.16286312 -0.08421012 0.04552397 0.07579045 -0.35006788 -0.058570858 0.049054347 0.16738552
qu -0.05942842 -0.28499138 -0.07798441 -0.08752341 0.013690787 -0.20164467 0.013745811 0.04296443 -0.0635349 -0.083458975 -0.08735104 -0.023056908 0.006556585 -0.007180349 0.19266106 -0.008060129 0.05861648 -0.023137048 0.09364886 0.077721566 0.13163635 -0.1279067 -0.025635751 0.087966345 -0.08976259 -0.07457657 -0.0069575603 -0.0615472 -0.12090959 0.059091177 0.020846179 0.014438867 0.12781373 -0.032419827 0.018589862 -0.10724424 0.012622516 -0.020742116 0.113348916 0.07809829 -0.048562296 0.063896246 -0.13302366 0.01748371 0.0274069 0.015034904 0.057251036 0.028599784 0.10651402 -0.11729591 0.045999274 0.08098295 -0.13253833 -0.06446841 0.040567473 -0.2666866 0.03858149 -0.13575177 -0.058543723 0.05415281 0.097999506 -0.13536887 0.1565981 0.0046487306 -0.105423994 -0.22473484 0.28396198 -0.20120817 -0.009790256 -0.10807915 -0.025114669 0.07628967 -0.010200303 -0.06633906 -0.088667154 -0.11415934 0.002622042 -0.03499584 0.206876 -0.079280525 -0.0335436 -0.041647375 -0.018153612 0.082434334 0.04660316 -0.116673134 0.09491281 -0.13393864 0.011879073 0.04191938 -0.08455127 -0.13444522 0.09351113 -0.056740485 0.0113067925 -0.02465388 -0.20339808 0.040698156 -0.07286424 -0.04739733
pas -0.04872026 0.020160304 -0.12313324 0.07569198 0.1104803 -0.063859135 0.1030263 0.07838622 0.0788374 0.23303129 0.083204985 0.036093354 -0.17313033 -0.072667375 -0.120330796 0.07805485 -0.11266656 8.6743654e-05 0.10755884 0.20124157 -0.13640837 -0.040025745 -0.113156974 0.040056653 -0.0064432113 -0.0120590655 0.13299964 -0.23650713 -0.045625273 -0.049767483 -0.13073714 0.1833124 -0.06333806 -0.09642366 -0.046001434 0.001173225 -0.12531681 -0.11378199 0.09185249 0.05811595 0.09549035 0.09515347 -0.09740524 0.042129043 -0.016463315 0.10249903 0.050609265 -0.09465017 -0.15546437 0.09638636 0.0050003533 0.043065894 -0.20829733 0.12589526 -0.034774758 0.04899596 -0.058025226 0.14699529 -0.046409976 -0.019081345 0.06898656 -0.03078151 0.035901867 0.103168115 0.039082117 -0.1166494 -0.10124486 -0.13845947 -0.0041336147 -0.09222955 0.052263193 0.04138836 -0.039722566 0.052796453 -0.03159567 -0.032975093 0.053532977 -0.11542369 0.20367314 -0.035989523 -0.0937676 -0.09303269 0.10577815 -0.1252128 0.07826881 -0.09364691 0.20586182 0.005264086 -0.11769425 -0.0693763 0.03031687 -0.099955514 -0.062124584 -0.042440575 0.052564293 0.16548052 -0.064799644 0.08113869 -0.17456031 0.09018153
avec 0.11447803 -0.060145054 0.28735065 0.09519453 0.016762659 0.042375345 0.14483023 0.015083371 0.13098139 -0.045546927 0.061517473 -0.0053944653 0.02431841 0.045964472 0.21040261 0.062090144 -0.025872502 -0.027376834 0.19158396 0.022667404 -0.047223676 0.06714366 0.065873474 0.15374564 -0.071951374 -0.103056364 0.0060124565 -0.07855761 0.05703079 0.19856603 0.014585694 0.10940463 0.055230547 -0.010556232 -0.07545226 -0.15753686 0.08887352 0.04261104 -0.039115094 -0.10790507 0.10353944 0.003759933 0.0409287 -0.088406935 0.05680368 -0.02546073 -0.018605728 -0.0026809406 0.11210418 0.054242253 -0.10137307 -0.046268284 -0.03993026 0.16983822 -0.14364931 -0.12853445 -0.12244756 -0.19383165 -0.032373987 0.1124186 -0.13759615 -0.1430366 0.005688634 -0.0660662 0.055565 -0.045529872 -0.030292306 -0.053974148 -0.07905634 -0.10699532 0.10411953 -0.11597586 0.105379775 -0.1138193 0.20425905 -0.0029688932 0.08256035 -0.15973705 0.011208035 0.20430903 0.024569754 0.0015733045 -0.020853205 -0.108228676 -0.03814142 0.05881116 0.039327603 -0.08937475 0.17423026 0.14814183 -0.1560236 0.06664534 -0.04382689 0.013050182 -0.016149035 0.16847132 -0.027741075 0.10138904 0.023950852 0.12679778
ce 0.06133598 0.02020088 -0.11866789 0.004864137 0.08085014 0.02623614 -0.0004559512 -0.08932103 0.25601476 -0.25581875 0.12411431 0.07729181 -0.17605215 0.008034447 -0.10095355 -0.1518864 -0.07185588 0.121543854 0.110296585 -0.004047464 -0.056844227 -0.01953963 0.010366266 -0.12402101 0.032960564 -0.10458229 0.04983496 0.0745881 0.0035412663 -0.019598473 -0.10505281 0.04502687 -0.038595017 -0.07515065 0.08492987 -0.0041018403 0.10801756 0.016635846 -0.06538404 0.17755058 0.13156062 -0.1096552 -0.019128487 0.24550545 0.017511748 -0.06556579 -0.08871116 0.052057546 0.03518735 0.040653877 0.1941533 -0.03464744 0.13660166 0.072427094 -0.036731698 0.126475 0.3063111 -0.051918358 0.093611695 0.061127305 0.021338878 -0.15199496 -0.019894458 -0.049652003 0.10066861 0.11651129 0.04101595 0.03454822 0.21388584 -0.18484688 0.0008400588 -0.025578633 0.036886375 0.11991837 0.042941585 0.10906896 0.008890421 0.098304525 0.020754477 0.0673868 0.07242835 0.05582968 -0.12960662 -0.05057597 0.055359375 0.049166247 0.020545932 0.0995715 0.10138279 -0.005901294 0.076292425 0.01335682 -0.1296227 -0.15062457 0.03947423 0.046121333 -0.04324364 -0.04107886 -0.14287852 0.03149195
se -0.0363866 -0.10680001 0.0050053746 -0.030108517 0.079623885 0.022870263 -0.055003252 -0.05967577 0.057750635 0.103994824 -0.047229573 -0.1126257 -0.09679758 -0.082108736 0.006589606 -0.1068501 -0.09589061 -0.072034165 -0.010301295 -0.0015462546 -0.021199599 0.015207861 0.06506116 -0.0009257217 0.11056748 0.09596188 -0.007033809 0.17071992 -0.035670035 -0.08304515 0.08203275 -0.046297226 0.09147551 -0.03852321 0.14612146 -0.09550944 0.069524586 0.15537344 0.032568417 0.086552456 0.0002590065 -0.08298332 0.078281365 -0.12684728 -0.0487697 0.09486671 0.08226431 0.0073847366 -0.037113965 -0.041561093 -0.09665165 -0.14786471 -0.13746224 0.06827655 0.13758853 0.15492089 -0.2681802 -0.017037231 0.102926426 -0.027029462 -0.040685765 0.06598163 -0.15515046 0.057814073 -0.056878537 0.08960284 -0.064408235 -0.00933229 0.06132189 -0.071420684 0.09628176 -0.017201828 -0.0908235 -0.052976765 -0.01772605 0.04138075 0.0027968113 -0.2593024 0.06645526 -0.3158147 0.054481614 -0.10252588 0.017420983 -0.2109183 0.14057076 -0.21433759 0.12512398 -0.04239631 -0.1769063 0.03260288 -0.10465825 0.066481 0.09671195 0.12350969 -0.18865511 -0.0054396614 -0.043761596 -0.067316 -0.10344631 -0.036316633
son -0.010180899 -0.14259237 -0.12649529 -0.044919576 -0.07313299 0.13078827 0.03498553 -0.046150792 -0.044225868 0.021208046 0.09782315 -0.12281594 0.08874114 0.111395635 0.052318893 -0.15259379 -0.006389835 -0.06344767 0.15353952 -0.027448539 -0.057757158 -0.1380307 -0.050208263 0.08321243 0.06535353 0.07323556 -0.016899213 0.09279103 -0.15052284 0.16561213 -0.03916985 0.037581004 -0.010587242 0.008003856 -0.038002253 -0.104922354 -0.03528433 -0.10115403 -0.14551604 0.13628267 -0.12441111 -0.14421664 -0.087901406 -0.055116627 -0.1401715 -0.07280603 -0.0414876 -0.25335187 0.119182244 -0.07087388 0.008043599 -0.17160724 0.10345612 0.062317487 0.07005807 -0.024306597 -0.034713514 0.08135903 0.20745124 0.1452728 0.13685513 0.032237668 0.085014686 0.10273013 0.12418478 0.028443212 -0.069811866 0.06720012 0.026390228 -0.25688496 -0.033828355 0.061253082 -0.10227905 0.050771754 0.06186319 0.0728685 0.059250902 0.12908426 0.0624673 0.19892749 -0.094546884 0.10515114 -0.010626172 0.031540964 -0.10427286 0.14554526 -0.029244222 -0.05829261 0.06882427 -0.054290842 -0.02297256 -0.13644104 -0.06471532 -0.055262137 0.051787045 -0.12951973 0.14023401 0.00058862125 -0.17712322 -0.07405531
s 0.04437377 -0.047458872 -0.09542588 0.00714739 -0.09022538 0.0077852695 -0.05539276 -0.060040444 -0.22501412 -0.10172291 -0.12136717 0.002711429 -0.036505964 -0.055189975 0.05999194 -0.07225779 0.026757265 0.03298958 -0.0239058 0.16416907 -0.036795884 0.04006706 0.09869444 0.07851562 0.110392414 0.11245675 -0.008816629 0.039812017 -0.18669318 -0.06577883 0.033187605 -0.18162246 0.19422857 -0.20295641 0.23105931 -0.2047475 0.04302223 0.027383264 0.06874875 -0.008542225 0.1507093 -0.24485572 0.025256336 -0.11316242 -0.053544737 -0.05753832 0.026370702 0.043926664 -0.023228696 -0.03918249 -0.012005606 -0.1130227 -0.013873386 0.05270615 0.06178286 -0.26328853 -0.06100625 0.05337066 -0.036478624 0.0056402516 0.077576905 -0.11841167 -0.0152297085 0.129651 -0.04894626 -0.12768012 0.038030297 0.046005014 -0.009521607 -0.08016189 -0.0545121 -0.027320394 0.096081935 0.025332509 -0.115751624 -0.10095344 0.06723444 -0.004307367 0.16063784 -0.20190133 -0.054163538 -0.13560537 -0.034612667 0.053129956 0.20349008 -0.13333082 0.11802599 -0.027180616 0.018150335 -0.064984754 -0.14543153 -0.00051705696 -0.046734024 0.08869827 0.09370861 0.016324293 -0.06560131 -0.05390059 -0.14856553 -0.043282405
sa -0.0071512153 -0.060208097 -0.07884939 -0.019566974 0.038091432 0.02788009 0.031843692 0.069463044 -0.14699462 0.09467939 -0.25594085 -0.05450647 -0.13813171 0.05629607 -0.058740277 0.027598195 0.13590729 0.04897959 -0.09089156 -0.06694819 0.032558426 0.011882786 -0.063190915 -0.0783907 0.06269106 -0.05301098 -0.07983094 0.15423922 -0.06757482 0.059992652 0.06442353 -0.10929105 -0.16691779 0.09607663 0.07825252 0.18414503 -0.10345482 -0.04771303 -0.11007839 0.018346403 -0.054040026 0.058169596 -0.047554117 0.053342313 0.04665503 -0.134287 -0.010870641 -0.0102253435 -0.0418303 0.041452087 0.1752088 -0.07940118 0.025215885 -0.070463054 -0.03306239 0.06293089 -0.04665564 -0.2438701 -0.09926114 0.010098236 -0.07375776 0.023328222 0.17220192 0.07374917 0.13104908 0.17136636 -0.0939065 0.084365636 0.007631133 0.15074614 -0.12723489 0.28533387 0.14779775 -0.13831526 -0.1192124 0.06155363 0.0010919856 -0.13644002 -0.11108215 -0.0694818 0.098832734 -0.101727016 -0.042879637 -0.11648638 -0.06210826 -0.038906552 -0.042794388 -0.0666951 0.13834092 0.12952758 0.09418891 -0.05659531 -0.053538006 0.027784573 -0.057853702 -0.07034165 0.099724315 -0.17755082 0.02923762 -0.15740909
sont -0.0052073775 -0.2023779 -0.087699994 0.04641776 -0.0213751 0.01717575 -0.16226433 -0.1347575 0.07883221 -0.031510517 0.03464652 -0.038164012 0.03809442 0.033746634 0.03052368 -0.090528786 0.12802789 -0.036259707 0.05892567 -0.08170035 -0.000753925 0.04105014 -0.011035808 -0.103168584 -0.03127212 -0.021761717 0.04971847 0.016893905 0.032553487 0.3299334 -0.12370078 -0.09012082 -0.0072590415 0.10909103 0.0037484495 -0.087482184 0.16397923 0.034033507 -0.18240133 0.09759983 -0.07257237 0.05573638 0.13378924 -0.19954209 -0.13059668 0.07027289 -0.06524616 -0.19857171 -0.056826975 -0.03628805 -0.10547755 -0.19675432 -0.23430592 0.07075368 -0.07371046 -0.023457566 0.06378353 0.020395806 0.096599825 -0.11091163 0.13231318 0.033717416 0.075829536 0.036177732 -0.14593917 0.13677174 -0.10299107 0.11702259 0.13749541 -0.018297387 -0.035035904 -0.049485214 -0.026354479 -0.035830207 0.10396343 0.06758558 0.0041342173 0.10756517 -0.1036559 0.14683859 -0.114721134 0.10346306 0.0029686678 -0.018000083 -0.017925506 0.06538931 0.12500998 -0.037575193 -0.09072557 0.055233333 -0.20183748 -0.10052327 -0.11273207 3.6013244e-05 -0.0032309836 0.1277504 0.087902546 0.0098528275 -0.071190566 -0.108651556
n 0.19804609 0.085192725 -0.17909038 0.1291267 -0.04327136 -0.03913139 0.0063310848 0.09571723 0.07632397 -0.10202668 -0.059676353 0.07477437 0.2439649 0.114763126 0.13024043 0.03207684 -0.05866102 -0.08869883 -0.18639527 0.02878789 0.16490197 0.042497087 0.03301006 0.08056543 -0.07470237 0.011633188 0.018825822 0.15006137 -0.07943733 -0.18962626 -0.06273733 -0.1206397 -0.05147977 -0.06997261 0.16739242 0.0019028903 0.14003778 -0.12648769 -0.025442107 0.03175395 -0.009429443 0.093393065 -0.1410771 -0.23759718 -0.024206012 0.0061589577 -0.07954507 -0.006580247 0.090703934 -0.13693489 0.09108486 0.13081025 0.17753029 -0.1115886 0.023264995 -0.12095873 -0.050687015 -0.03440506 -0.032237325 0.04984179 0.007944365 0.092457734 0.10877844 0.06792373 0.010933626 0.0085187 -0.06252535 0.11643574 0.016054092 0.06316803 0.029263627 0.13260648 0.09426859 -0.02311691 0.15088743 -0.21607214 0.0892073 0.10997669 -0.17231129 -0.060072463 0.06790651 0.1160354 0.004712646 0.0067928336 -0.13240334 0.12663338 -0.08373775 -0.05658225 -0.070145965 0.045283575 -0.04574081 -0.09117599 -0.04183522 0.013636817 0.0012187924 0.003949182 -0.12829474 0.13185696 0.08188874 0.007332721
mais -0.13555199 -0.032756437 0.09089316 0.107616946 0.10224347 -0.14776652 -0.09249356 -0.0714965 0.009310767 0.20641541 0.051716357 0.04838136 -0.06776131 -0.12268026 -0.040646512 -0.02831167 0.0027256254 -0.16783792 -0.18972898 0.068434805 0.112485364 -0.04557698 0.07044198 0.12429601 -0.032656256 0.10656033 0.06447302 0.08975447 -0.09979673 -0.021752903 0.03997448 0.12946114 0.019556573 0.14835334 -0.17550692 0.0066055963 -0.1047527 0.001677273 0.05904236 0.2670342 -0.1462412 -0.0033772904 0.061576 0.06754132 0.16273789 0.02010476 -0.13453561 0.009607916 -0.042102046 0.059535038 0.081917204 0.0021513056 0.011824398 -0.07380414 0.01245792 -0.075071484 0.12635088 -0.06460359 0.16831309 0.13985585 0.0339174 0.0101218 0.10189178 0.22683914 -0.11053011 -0.19044006 -0.11291707 0.054813866 -0.07425511 -0.058092296 -0.018508041 -0.10678084 0.008257946 -0.046138518 -0.021326644 -0.008480633 0.010100615 0.07091061 0.0053509725 -0.14410077 0.0801614 -0.017494468 0.008788406 -0.020891853 -0.06523211 0.089133866 -0.022873426 0.09386143 0.019670153 -0.079455845 -0.10400003 -0.18217075 0.043088946 0.084375426 -0.04977024 0.25656322 -0.086850144 0.106667474 -0.15958545 0.06702231
était -0.07067918 -0.04248357 0.268776 -0.12384164 0.009972777 -0.15427221 -0.0061901794 -0.108558245 0.12567225 -0.16072029 0.08001578 -0.12348604 -0.022338865 0.064854845 -0.014506121 -0.026515938 0.052086372 -0.21818656 0.12245475 0.095387004 0.1405838 0.23754016 -0.09112864 0.035200585 -0.20932136 -0.02382872 -0.07117061 0.0043657096 0.10260283 -0.124139965 -0.07138985 0.04009981 -0.014996809 0.072594345 0.04372531 0.11414526 -0.00020965828 0.0010038313 -0.03620049 0.13394727 0.025135929 -0.011513974 0.20402505 -0.031055273 0.05503259 0.08008348 -0.05757993 -0.02865286 -0.08905541 -0.07742749 -0.03900852 0.055896543 -0.20433174 0.112903506 -0.06492642 -0.050040696 -0.045957617 -0.114307955 -0.04706831 -0.017528351 -0.04707872 0.02167995 0.022723341 0.023862313 0.09007293 -0.07047569 -0.08234697 0.050520234 0.113303915 0.020650692 -0.22419946 -0.08666842 -0.15131962 0.034915846 0.111099936 0.16452397 0.031347815 -0.14133629 -0.10289967 0.14097632 0.08020952 0.035379183 -0.108071476 0.054629106 0.017036933 0.02813277 -0.120551325 -0.042627063 0.04637308 0.013090129 0.13632563 0.16644433 -0.029577767 0.013231228 -0.008844696 -0.18246174 0.11591268 0.12540004 -0.020044414 0.009303515
comme -0.209398 0.07654392 0.12297122 0.008589387 -0.09626196 0.021802427 -0.08725437 -0.04218361 0.056705568 0.059203338 0.11415513 -0.04958002 0.008656907 -0.14124487 -0.030574262 -0.023151582 0.077898465 0.08373525 -0.033347547 0.041447643 0.002647954 0.39264348 -0.01962017 0.13106553 0.0006284725 -0.007531048 -0.044675767 0.08011753 -0.14355956 -0.036325086 0.01486598 0.07552256 -0.10221776 0.06536141 -0.08721415 -0.02113081 0.042008072 -0.14470737 0.07346934 -0.15143363 0.037829567 0.18237786 0.031165749 0.1235033 0.042414393 0.12470803 0.19601512 -0.05794445 0.03720292 0.112262666 0.17981663 0.077145204 0.12773089 -0.0323843 -0.19469683 -0.067442395 -0.15957032 0.04622102 -0.024767522 0.061336085 -0.0014026015 0.088422194 0.01661951 -0.06442002 -0.077105924 -0.05099446 -0.094148286 0.06353655 -0.05102709 -0.0742585 -0.12679562 -0.20387568 -0.020676168 -0.08480123 0.0589719 -0.18987244 -0.05932224 0.06152201 -0.13753378 -0.057962332 0.03740098 -0.019300288 -0.01166575 0.08758032 -0.023553772 -0.07250986 0.051488463 -0.020772254 -0.10870601 -0.058663856 -0.13617302 -0.16552319 0.063498475 0.118943304 -0.08173158 0.15921935 0.06423143 0.071072996 0.05800614 -0.04190127
ne 0.16663764 0.002968966 0.075949036 0.16450043 -0.033119943 0.055199098 -0.016504679 0.03909503 0.08797392 0.057071023 -0.041440837 0.00904105 0.016803747 -0.05818232 -0.007191356 -0.09127039 -0.011730378 -0.10063528 -0.013861108 -0.03662341 0.030522665 0.015496419 -0.03317068 -0.08865688 -0.04802259 0.11943969 -0.1444858 0.06673251 0.10340843 -0.06937576 -0.08513641 -0.034534205 -0.15752149 0.11495228 0.07732789 0.150056 0.11197847 0.12236026 -0.07166729 0.119890824 -0.21077137 -0.005893746 -0.0752012 -0.19354507 0.0753073 -0.04605596 0.032198325 0.29510596 0.14731535 -0.024578549 0.18724164 0.09562931 0.1426475 -0.097217955 0.10187503 -0.03137872 0.09427302 -0.23377647 -0.1440479 0.1042216 -0.061019484 0.04494631 -0.13341978 -0.029057648 0.0952899 0.10612313 0.01231723 0.06600247 0.02846273 0.049216524 -0.076711215 0.10874715 0.124427535 -0.013239399 0.13611786 -0.25091672 0.04627846 -0.054007873 -0.16371627 -0.04241424 0.065676995 0.07258654 -0.071703285 -0.0064502386 0.004458168 0.0066097714 -0.14315197 -0.073141634 -0.13660856 0.0671393 -0.05423289 -0.019560058 0.03734049 -0.118410304 0.0043880474 0.04412214 -0.13085489 -0.038643986 0.09195309 0.09144113
après -0.07098336 0.1858719 0.11200862 0.06126402 -0.1219253 -0.030967625 0.106481776 0.018336112 0.27952918 -0.07529764 -0.005989098 0.11113491 -0.020218354 0.09156011 -0.17925492 0.11191222 -0.003267751 -0.05810753 -0.0023066048 0.11228543 0.031034483 -0.103742 0.07342886 -0.04773823 -0.15384153 -0.032345843 -0.09020879 0.040283933 -0.034652 0.3153603 0.022690356 0.041212965 -0.0825285 0.08489433 0.007330967 0.12663884 -0.066315405 -0.07137861 0.09223341 0.060772154 -0.071118996 -0.0642383 -0.159763 0.16743767 -0.006629342 0.012232973 0.07127625 -0.09720298 -0.07509591 -0.113952026 -0.075849496 0.060216445 -0.09667534 0.08586695 -0.22898105 -0.013686499 0.078027844 0.059803862 -0.17493156 -0.11193043 -0.00052487577 0.16958652 -0.023580523 0.09615536 0.080535755 -0.12595828 -0.11801213 0.04117797 0.022205811 0.073119506 -0.03761302 0.015537893 -0.04230186 -0.038453408 0.1153061 -0.035399362 -0.11660171 0.07548964 -0.112507395 0.04580591 -0.18109874 0.13852894 0.06202737 -0.15907392 -0.009743818 -0.038859066 0.048859194 -0.015728071 0.20077974 0.0115997605 0.11683943 -0.007256273 -0.00467749 -0.111997716 0.012520316 0.039029565 -0.1463647 -0.023695093 0.03983397 0.039819125
elle 0.0963223 0.02535293 0.05547991 -0.17335087 0.23836203 -0.026891233 0.15516609 0.0018479406 0.12441043 0.13347091 -0.06411325 -0.09480041 -0.10891779 -0.05454741 0.058510646 -0.1265258 0.009802939 -0.21533602 -0.09861707 0.05087704 0.028876986 -0.02138456 -0.17951119 0.19908129 -0.04180863 0.03131389 -0.07353637 0.0063466527 0.04123165 0.016820425 0.049952425 0.09362141 0.0095347855 -0.07013241 0.0515449 0.16863751 -0.020569306 -0.22109078 -0.19838539 -0.18681537 0.1164879 0.037798755 0.17035502 0.031205757 0.044360254 0.0629015 0.10052795 -0.03823679 -0.077555425 -0.09542274 -0.032325942 -0.065678716 0.06917893 0.15959485 -0.16595425 0.053133044 -0.06398193 -0.035157032 -0.02624793 0.0067178914 0.051026285 0.027757358 0.07668749 -0.12478158 0.16841318 0.13276285 -1.5752586e-05 0.04429315 -0.058521114 -0.12118326 0.030268291 0.033855516 0.005490277 0.15313289 -0.115177944 -0.020136422 0.14436415 0.021669727 0.045898665 -0.02450106 -0.01655493 0.17363377 0.09167302 0.06983956 0.05332048 0.1454771 0.026599696 0.17560135 -0.10079373 0.043025453 0.09773095 -0.020332338 -0.029537717 0.099422105 0.08885208 0.013024832 -0.011354302 0.07328438 -0.15661687 -0.08838048
cette -0.2257822 -0.10137622 -0.19331715 -0.1323521 0.146807 0.033164103 -0.017875383 -0.030448487 0.1937029 0.047500726 0.08243651 -0.08098388 -0.05835746 -0.019373452 -0.14216724 -0.042203307 0.019974446 0.020955686 -0.09487211 -0.044520084 0.02660279 0.15691827 0.03153299 -0.14233065 -0.026238866 0.13284971 0.031222235 0.13182156 0.01373374 -0.06094473 0.10133595 -0.13951032 -0.15610981 -0.2702471 -0.033055246 -0.02081395 -0.031468187 -0.037235066 0.057473697 0.019484863 0.02731597 -0.059620734 0.05022624 0.1407556 -0.04733849 0.053967178 -0.18819384 -0.1494008 0.16503891 -0.11393324 -0.0065767565 0.0109217325 -0.041004937 0.0055425544 -0.086769685 0.17327389 -0.009865497 -0.017219871 0.11856816 0.08536028 -0.026054574 -0.19714512 0.017737644 -0.033015266 0.09335303 -0.048739415 -0.15401386 0.121076174 -0.09897744 0.013821168 -0.10385115 0.1927549 -0.0039370083 0.07728037 0.032832082 0.07178771 -0.076151244 0.019409712 -0.15073644 -0.051149447 0.11548709 0.017610678 -0.045417733 -0.007905354 -0.086618654 0.04149689 0.18821184 0.16978876 0.005819285 -0.14580242 0.15460579 0.028287256 -0.018138625 0.062342763 -0.002514998 0.0714621 -0.0846896 0.062096965 0.029032826 -0.08888157
ils 0.24340536 -0.084186524 0.101091914 0.07136392 0.10232563 0.12527311 -0.049396444 -0.073286496 0.18166938 0.15601599 0.09735344 0.111079514 0.06477621 -0.23387481 -0.11502659 0.0061996244 0.16873026 -0.09969277 -0.078781866 -0.03908467 0.089162976 0.065271825 -0.18522462 0.047819763 0.0202065 0.048293874 -0.081733376 -0.25169846 -0.027793879 -0.0555947 0.006440119 0.07954612 0.025160007 0.061261848 -0.010588559 0.16361809 0.06565633 -0.14662841 0.059907224 -0.041864567 -0.0807942 0.019004352 -0.0054851156 0.12009488 0.026107468 0.08657735 0.04619007 0.100736864 0.070337325 -0.026649252 -0.03729904 -0.0068991296 0.072223894 0.14908068 -0.0030259232 0.19668947 -0.042125512 -0.14057043 -0.17878376 -0.032641497 -0.02663283 0.005983445 -0.08129875 -0.027143339 -0.007613872 0.07979307 0.13831551 0.10899462 -0.033364497 0.2054959 0.004499138 -0.00025837964 0.074852966 -0.037993632 -0.00023457741 -0.0051742364 -0.032513674 0.079950266 0.09346282 0.10455001 -0.13378987 -0.009358913 0.16769324 0.04159214 -0.068643846 0.09978033 0.0053006187 0.18985035 0.049231652 0.072740085 0.07518034 0.13588017 0.09166884 0.009269545 -0.17989564 0.00428581 0.0466866 0.12157099 0.059559174 -0.09066829
avait 0.0623707 -0.029145347 0.053424053 0.118703134 -0.03523067 0.04598418 0.026013047 0.068747 0.063924514 -0.053142756 0.039160118 0.090291284 -0.18009208 0.070496574 -0.108829685 0.076376915 0.00033924863 -0.13558163 0.029513728 -0.0103164455 -0.07836674 0.04810357 -0.005378096 0.11777946 -0.036902867 -0.045044854 -0.09958232 0.085025065 0.02570764 -0.12312087 0.021798948 0.036622595 0.013692282 0.09641172 -0.18760909 0.1221841 -0.006574849 0.22562946 0.14989807 0.22784872 0.08750562 -0.08149652 0.032674145 -0.038105316 0.037282016 0.0131797 0.04969021 0.013898124 0.22012497 0.011226505 -0.022186575 0.067804895 -0.21776013 -0.010851019 -0.021042466 0.18139686 0.07396448 0.14107534 -0.09336633 -0.06869903 -0.042673472 0.14895777 -0.033694953 -0.10959046 0.06559369 -0.019877933 -0.14337583 0.0314338 0.17137939 -0.11344112 0.08281766 -0.058282312 0.14218743 0.09835687 -0.004334389 -0.03584947 0.016678235 -0.036842853 -0.013236169 -0.02527373 0.084879555 0.12860638 0.12377042 -0.208225 0.07416351 0.017600494 0.022244146 0.16773987 -0.038081307 0.10897742 -0.017320499 0.09087618 -0.08178078 0.2619154 0.18914756 -0.12114929 0.13649769 -0.04858516 -0.0029869913 -0.060076408
deux 0.07310515 0.08935292 -0.002164783 0.023918081 0.20127945 -0.14511007 0.0029335073 0.0833077 0.08412212 0.072692834 -0.020492602 -0.023418956 0.13738927 -0.029715603 -0.010612421 -0.12432489 0.07215698 -0.065694794 0.09709918 0.026250307 -0.00048011667 -0.018822428 -0.09089225 0.09130459 0.035955656 -0.06797829 -0.03708108 -0.14851698 -0.096275814 -0.09861457 0.0028225724 0.0033293196 0.06904485 -0.2287373 -0.045841403 0.03523569 -0.016779708 0.10211891 -0.1745189 -0.19006349 0.097752646 -0.14676459 0.16850051 0.028524483 -0.28373277 0.119601734 -0.040837787 0.08359894 -0.1277531 -0.08748225 -0.042628918 0.025836239 0.08116286 -0.0064066024 0.062678285 0.034859758 0.028073423 0.18629666 -0.015951188 0.06744819 -0.18383679 0.05980604 0.17647915 0.028320583 -0.13041782 0.0049922513 -0.06119451 0.04581447 0.21423472 0.20047203 -0.1533613 -0.053309258 -0.002729571 -0.06548874 0.11005777 -0.0659661 -0.0656442 -0.09240854 -0.082074836 0.08816773 -0.10617303 0.012767175 -0.14259376 -0.0037834854 -0.0095343115 -0.08480209 0.0642527 0.05051691 -0.07496919 -0.19564341 0.13113022 -0.006904416 -0.09466615 -0.044009827 0.017886814 -0.0020246725 -0.040988285 -0.08104269 0.14113954 -0.07007287
ses -0.12666027 -0.035719525 -0.09079618 -0.09512034 0.085073136 0.048152152 0.017092671 -0.036075335 -0.043362938 -0.010283939 -0.16852513 -0.1546291 0.038122583 0.047000982 0.022600658 0.056981552 -0.04812115 0.022701364 0.015152219 0.20121166 0.07691174 0.016436446 0.008299094 -0.065617 0.06904978 0.011463736 0.00047435984 0.074804276 0.0022276994 -0.22753239 -0.043217115 0.08163248 -0.013040565 -0.054722574 0.11046995 0.01443537 0.02522324 0.0077989027 0.08014153 0.012968262 -0.092696145 -0.108373076 0.095213875 -0.0016810617 0.058980867 0.076138906 0.23715444 0.048829336 -0.014487813 -0.029688809 -0.0028514485 0.018409465 -0.026466712 -0.124442995 0.14107023 0.16254199 -0.0062871156 -0.06328899 0.037958514 0.04885268 0.06270989 -0.23807417 -0.111629516 -0.17750776 0.15462552 -0.017165037 0.06769272 0.09065812 0.023966672 -0.010190567 0.2849737 -0.013414984 -0.053111408 -0.020460315 -0.07613405 0.04156237 0.0036794485 -0.118035264 0.19982031 -0.045932405 -0.16996662 -0.13007982 -0.21024117 -0.13343525 -0.16920386 -0.12212156 -0.087416016 -0.112759635 0.036981456 0.12354327 -0.0049306015 0.029156592 -0.0151578775 0.13970178 -0.07152003 0.08887245 0.039350882 0.18185498 -0.16104715 -0.05180719
aux 0.11564796 -0.038526896 0.018648988 0.06860489 0.010068271 -0.074531645 -0.04367806 -0.07316825 0.049431186 -0.012440278 0.047100503 0.07435199 -0.020398077 -0.02583876 -0.060650248 -0.24499206 0.018712748 -0.032073185 0.06985918 -0.10201683 0.008204798 0.17333975 0.10661027 -0.064473286 0.18944247 0.0071744574 0.24879248 -0.044906672 0.15485878 -0.0073859454 -0.09528784 -0.040988438 0.15083675 0.04159964 -0.06396898 0.16700937 -0.35446382 0.1391057 -0.029425433 -0.090312 -0.017564787 -0.037183452 -0.028201608 0.02098379 0.07328072 -0.01261523 0.088056035 0.015381831 0.02034266 -0.04237867 0.02022412 -0.082310356 0.09521388 -0.027924078 0.0427876 0.033047706 -0.0007241766 0.17586416 -0.002277605 -0.029415656 -0.02111775 0.14820945 0.06895248 -0.0488786 0.01465482 0.023028214 0.20247513 -0.04513223 0.08594562 0.0388555 -0.25933585 -0.12595072 -0.0016011524 0.026764365 -0.03641405 -0.16011223 -0.10617218 -0.17443375 -0.067017436 0.098137595 -0.14657567 -0.07373921 -0.057869226 0.10328802 -3.429775e-05 -0.007404489 0.016843332 0.16006105 0.10433457 -0.19991124 -0.104404725 0.02824261 -0.08368546 0.08815344 0.046266526 0.0833105 0.045864254 -0.04032349 -0.0763477 -0.04985524
leur 0.0958217 0.06595092 -0.021183373 -0.13720137 -0.14736684 -0.20627633 -0.023197869 -0.06439101 -0.09589623 0.07794753 -0.048005592 -0.019117901 -0.0696616 0.20561266 0.0030784567 -0.12793206 0.11137588 -0.13426389 0.0038429608 0.008440835 -0.070114255 0.03707792 0.018532347 -0.10216636 0.027558116 -0.018116202 0.08385555 0.0142896855 0.12602945 -0.0653855 0.07067382 -0.1791374 -0.052956667 0.123091385 0.08454705 -0.012228262 0.06886888 -0.101094685 -0.079487875 -0.098254524 0.10182072 0.108415335 -0.17452425 -0.098392665 -0.04658603 -0.07994501 -0.017641539 -0.17648569 -0.12932196 0.066959135 -0.13665372 -0.16172451 -0.08130951 0.14632522 0.18248901 0.001550532 -0.032723792 -0.08424441 -0.11345052 0.01171164 0.02356629 -0.0098387115 -0.055643443 0.16036734 -0.043343365 0.037484106 -0.049415193 0.15209356 0.043831684 0.18899797 -0.23582329 0.06321529 -0.0063585807 -0.06321127 -0.08761295 -0.020578282 -0.013621834 0.055318873 0.12842336 -0.18127677 0.044470135 0.043030187 -0.03725206 -0.035021562 0.055546258 0.17846203 0.06147976 0.09147354 0.09467117 -0.038928356 -0.21886075 -0.12953545 0.07529591 0.077806816 -0.08695924 -0.04012601 -0.093524374 -0.08418077 -0.085579716 -0.05988613
y 0.10808698 0.052412976 -0.1780507 -0.12895143 -0.046281558 -0.2578023 0.11500191 0.29659683 0.3008403 0.11408822 0.15982667 0.027039079 -0.088253796 0.12271071 0.05393324 0.19095178 -0.1770708 0.06229125 0.038960744 -0.033748712 0.07765969 0.13528441 0.10894643 0.020965943 -0.18238351 -0.019322233 -0.029151531 -0.044477746 0.048875082 -0.00211258 -0.0074370094 0.0073467055 0.0026854526 0.12386946 -0.02943859 -0.051705755 -0.11459304 -0.004231374 -0.006850208 -0.034031652 -0.0046779313 0.033849746 -0.058191963 0.21681176 0.08784621 0.05781541 -0.07009257 -0.109172195 0.02428446 -0.040755775 0.06528991 0.02897754 0.028245844 -0.07383406 0.17748135 0.09066785 -0.009955446 -0.048804644 0.019189741 -0.13005549 0.022564603 -0.0047369916 -0.03728958 0.06822948 0.0041005188 -0.022851506 -0.0063560954 0.016386926 -0.03657384 0.024460925 -0.11223892 -0.050861042 -0.096013814 -0.107981086 -0.113631465 0.061534368 -0.0137396185 -0.17919245 -0.00030465718 -0.0060489825 0.06260804 -0.07769399 -0.05859861 0.051402006 0.059838846 -0.10785811 0.057523064 -0.11490253 0.09199049 -0.00624654 0.08396241 -0.11250929 0.11366684 0.09755244 0.122837745 -0.059349556 -0.1741772 0.074312165 0.09808887 -0.13851337
on 0.19583896 0.10382948 0.019384261 0.043923892 0.012401156 0.18590635 -0.032194667 0.13236757 0.16104811 0.13870636 0.15554933 -0.15296958 -0.07644932 0.07500755 -0.19751213 -0.0556236 0.04400611 -0.025754973 0.060018167 0.035257936 -0.035008106 0.037757423 -0.05597525 -0.027532008 -0.06871856 0.110797256 0.1056187 0.028531048 -0.029671997 0.007114103 -0.052956436 0.032219633 0.07129291 -0.034925453 -0.031868927 0.014820293 0.04393513 0.031739697 -0.063197605 0.12560622 -0.13732935 -0.119469926 -0.06267015 -0.088372186 -0.24058297 0.026662713 -0.06583911 -0.0698223 0.0028063913 -0.01421322 0.032535125 -0.12389468 0.19191422 0.08164718 0.078779586 0.08386793 0.04439462 -0.119147696 0.121852845 -0.019285414 0.061348937 0.19109526 -0.019059349 0.042323265 -0.029131344 0.15423101 0.14834839 0.08000996 0.106533326 -0.16238709 0.053489033 -0.15453218 -0.12404368 0.2176442 0.0019192436 0.097477965 0.13731365 0.04665072 -0.0028231489 0.026263677 0.115503356 0.043910813 0.032735977 -0.0864391 0.06463468 -0.076686956 0.015478157 -0.10166826 -0.0162249 0.11557676 0.13445865 0.02184457 0.13149397 0.08556662 -0.08773116 -0.041492023 0.19466895 0.0034002734 -0.19319825 0.117192835
entre -0.033160366 -0.14394787 0.02122086 -0.05518121 0.011877312 0.009220799 0.1987048 -0.03906519 0.1462821 -0.13355353 0.1537018 0.03833602 -0.105881155 -0.0017940108 0.10553888 0.066353224 -0.0944336 0.091729455 -0.055157166 0.11291558 -0.003438469 -0.072574705 0.0022421002 0.1477311 -0.11902511 0.027638685 0.014349583 -0.033105377 -0.014298153 0.067758024 -0.026407741 0.09484465 -0.02907597 -0.029358732 -0.05779971 -0.048198152 0.15548341 0.1005088 0.099538945 -0.08409654 -0.16020778 -0.03019797 0.15989292 0.082135886 0.27363157 0.07186594 -0.07231741 0.05056295 0.0033634456 0.069302544 -0.0893657 -0.07394512 0.12851678 0.026498267 -0.21317737 -0.09201048 0.050192125 -0.05102233 0.09407027 0.10878811 0.111270055 0.2459656 0.13408567 0.08337878 -0.07252747 0.12625746 0.009701097 0.13223553 0.095983565 0.060638268 -0.005537392 -0.10835847 -0.011049337 -0.07990792 0.020398594 0.0607528 0.10714412 -0.11695726 -0.10348969 -0.0881468 0.113957375 0.13732885 -0.018994428 -0.037251197 0.093609706 -0.05123066 0.098767884 -0.113336205 0.19047329 0.10194938 0.023854256 0.091073126 0.19866838 0.020490525 0.010705482 0.06860506 -0.1191968 -0.15758243 -0.08742164 0.029023733
je 0.13229065 0.12045308 -0.09390257 0.038623903 0.09807971 -0.05078957 -0.044619925 0.013976761 -0.061969712 0.10457534 0.17388935 0.10536123 0.01901506 0.22578806 -0.14370503 -0.09983568 0.10177825 -0.17848034 -0.05069987 -0.036005635 0.10885563 0.078161776 -0.11051085 -0.1936519 0.068159394 0.09133089 -0.07973252 0.08130607 0.0901328 -0.053424373 -0.04725958 0.03172652 0.07341206 -0.038553096 0.03107709 0.1072178 -0.10086328 -0.13540052 0.040420055 0.10874746 -0.067429654 -0.12466753 0.02133169 0.08090713 0.06841242 0.034398902 0.008962048 -0.02686132 -0.13336585 -0.010146197 0.08342381 0.1443864 -0.12825395 0.07234275 0.077385165 -0.0515006 -0.14348224 0.112516575 0.0033718715 0.06254138 0.08221158 0.03499289 0.018326707 -0.09476605 0.15973012 0.06353696 -0.060424898 0.12855999 0.024405029 -0.14463101 0.051855605 -0.16870846 -0.13252577 0.046176948 -0.106926896 0.16458303 0.14678454 0.041841544 0.07062254 -0.18583536 0.14757617 -0.004422987 -0.011744473 -0.020194294 0.12291963 0.014065638 0.074704915 -0.031399265 0.11932548 0.28046077 0.11177076 -0.007644782 0.043032613 0.064114496 0.113763586 0.12619475 0.018098464 0.12121652 -0.032044422 0.04210246
fut -0.12786107 -0.062060587 0.10408876 -0.021583803 -0.063748784 0.19019021 -0.012604601 0.07525214 0.043057226 0.10588393 -0.009914392 -0.1379636 0.1289054 0.24276134 -0.04411042 -0.04274445 -0.21808125 0.07572678 0.07992207 -0.06782047 0.17681725 0.08952575 0.00062957604 0.053074494 -0.06541841 -0.05693854 0.021070365 0.059662703 -0.022179978 -0.047958 -0.060313955 -0.09175764 0.09182562 0.18598555 -0.1319851 -0.12558635 0.060027808 -0.07345565 0.043454133 0.009138381 0.019175025 0.013355066 0.03354421 -0.017095199 0.08856859 0.03933878 -0.011807129 0.10186444 -0.17757577 0.055838607 0.047999244 -0.11723872 -0.24221775 0.13655305 0.030902816 -0.16733836 -0.07416453 0.08850657 -0.034482498 -0.031309057 -0.013748206 0.04507413 0.023567481 0.034957174 -0.08589867 0.019508313 -0.18538149 0.021449829 -0.020335 -0.1357923 -0.10633917 -0.22608285 -0.13095197 -0.29414123 -0.0002114717 -0.030548647 -0.040662244 -0.0036439933 0.002364114 -0.017216602 -0.07799047 -0.026716512 0.03024704 0.104865864 -0.13801369 -0.034334544 0.04799876 -0.061089713 -0.15899491 -0.09393288 0.06446806 0.11822396 -0.014852815 0.077841274 -0.00782477 0.029785616 0.18232548 -0.019652702 -0.11872238 -0.10025399
nous -0.1702819 -0.035584107 -0.13604149 -0.20192352 0.06203724 0.08492366 -0.10030801 0.18016484 -0.013289053 0.13237481 -0.043026917 0.08382925 -0.016048286 0.0023716227 0.050385747 0.12351861 0.071254574 -0.10400543 -0.095082894 0.015272858 -0.03230947 -0.04481827 -0.083794504 -0.19967525 -0.041630708 0.30350006 -0.062007006 -0.07742386 -0.20164248 0.1006188 0.007633142 -0.15245801 -0.015412252 -0.17318678 -0.04258894 -0.033317894 0.06773523 -0.020275451 0.09029071 0.112193294 0.0075674555 -0.041029967 -0.026669033 -0.01733997 0.07661933 0.176419 0.02122007 -0.04409408 -0.03349894 0.071087785 0.1579057 -0.057131886 0.05308174 0.10622646 0.029821305 -0.06828147 -0.12807536 0.04812639 0.044078078 0.024560569 -0.022565208 0.055224523 -0.18701066 0.08986637 0.05406884 0.012614054 -0.062057298 -0.03332581 -0.016540233 0.05885546 -0.052275192 -0.11325468 0.014589962 0.0052430173 0.057248384 -0.013989148 -0.028075363 -0.0662572 -0.09861781 -0.078255154 -0.03689077 0.12763178 -0.003170352 -0.063732214 0.07492751 0.12648876 -0.04133374 0.18863611 -0.22685388 0.1297624 -0.028312314 0.12016679 -0.0661057 0.083843775 0.17414778 -0.12036518 0.13677219 0.039801758 -0.112403564 0.17614216
c 0.22381605 0.07475084 0.0048154667 0.113488145 0.08169256 -0.0143680535 -0.013869211 0.03278418 0.011911935 -0.16294947 -0.06577654 0.08994101 0.035606503 -0.06279996 -0.05645429 -0.10609235 -0.11226696 -0.15207158 -0.051944237 0.06773024 0.030808792 -0.034859788 0.070359536 0.051215846 0.027006095 -0.08939212 0.03591507 0.09095814 -0.06361051 0.06913503 -0.08841884 0.09390402 0.03159584 -0.07909946 0.104331754 0.0076557607 0.0867547 0.16092545 -0.056304 -0.11949685 0.20773286 0.034480322 -0.023305312 0.07527657 -0.04899367 -0.09169926 -0.008105138 -0.14727604 0.06538757 -0.14506559 0.0141961705 0.1327132 0.1275537 -0.014626837 -0.2267612 -0.14101264 -0.0032844085 0.13160217 -0.08015575 0.1731616 -0.029104786 0.13515966 -0.086125284 -0.035721585 0.015839407 0.04930388 -0.02621685 0.09899086 0.012920572 -0.0043958104 -0.0123503925 -0.067989536 0.12767483 -0.0048303395 -0.040250532 -0.15678962 0.08337763 0.027183611 0.1209442 -0.17086452 0.04768631 0.08801023 -0.14107467 0.116555996 0.055265956 -0.06803692 0.10460891 0.10549393 0.04125572 0.08930992 -0.05607924 -0.10819727 -0.07939922 0.24170774 0.02083737 -0.04862252 -0.28893325 -0.15176016 -0.09640403 0.10025352
pendant -0.20088533 -0.085074924 -0.0028750796 0.012245041 -0.043877903 0.11065791 -0.011571505 0.07154129 0.20814602 -0.013426688 0.08110584 -0.06024598 -0.064183176 0.034927625 0.05063641 0.09672828 -0.07347797 0.058504194 -0.060508 0.0452148 -0.04566631 -0.038748592 -0.11823384 0.1550505 0.097608395 0.01993351 0.09535747 0.076819666 -0.11983409 0.29612467 -0.05001033 0.12605938 0.0034253786 -0.042960014 -0.042209547 0.31873167 0.024361588 -0.14021108 0.009568627 0.0038176258 0.13641055 0.14181489 0.05981848 0.016108442 0.036603786 0.074513525 0.021456566 0.0278781 0.1422641 -0.12852037 -0.076417886 0.07798489 -0.19978404 -0.09242522 -0.09016135 -0.23585877 -0.04729706 -0.0048903585 0.009519766 0.015357219 -0.06496729 0.0986665 -0.04928563 -0.18787669 -0.090612896 -0.0651252 0.039389048 0.019820113 -0.072768405 0.21956557 -0.040669877 -0.051581636 -0.10343841 -0.006765916 0.14097518 -0.06020846 0.020823464 -0.019267347 -0.013755301 -0.05808237 -0.01686384 0.014341535 -0.1999922 -0.1831084 -0.14023565 -0.031573676 0.085673206 -0.07366383 0.13241932 0.010925171 0.036350172 0.079035364 0.015708398 -0.07805722 -0.046803225 -0.068649426 -0.054775123 -0.025939936 -0.011008513 0.091600396
ou 0.14943404 -0.041651554 0.032427542 -0.1236685 -0.047369152 0.04402174 -0.026608322 -0.1003587 -0.014783073 0.18306176 -0.041890148 -0.05298658 -0.12272021 -0.005669759 -0.08190159 0.15158549 0.05898477 -0.021417322 -0.029671801 -0.08318126 -0.014769055 -0.047058515 -0.0078653935 0.050582014 0.056776986 0.10798262 0.0006819427 0.09197145 0.017049035 -0.054247715 0.031860784 -0.015851159 0.0031908315 0.08308317 -0.093995735 -0.17627497 -0.06663446 0.10718266 0.09435802 0.2343553 0.15666854 -0.15276745 -0.17381446 0.0041935556 -0.14260037 0.08349949 0.033047292 -0.023109006 0.11244975 0.12983148 -0.10311687 -0.053092346 -0.085328095 -0.1350467 -0.010630482 -0.1815835 0.1254146 -0.23176236 -0.06700665 -0.11234673 0.13341744 -0.020649882 -0.1602219 0.18357065 -0.14997679 -0.24490252 0.03949682 0.067866094 -0.051192682 -0.070368394 -0.12976463 -0.0066681113 -0.042756733 -0.058948133 -0.009876386 0.06420793 0.0049242657 -0.032216415 0.033083808 0.07240821 0.12301019 -0.010771627 0.030698445 -0.005079331 -0.076072454 -0.0735353 0.046357192 0.013600011 0.23288931 -0.092161655 0.10330588 -0.21361697 -0.015325535 0.026494922 -0.009316486 0.021337295 0.016335731 -0.019544497 0.040076327 0.1872631
être 0.13285685 -0.111154355 -0.15715565 -0.114299685 0.07059306 -0.14852497 0.027077626 -0.09050479 -0.11666267 0.026251912 0.061240382 0.050708704 0.007894674 -0.051707927 0.04809293 -0.0048390366 0.13086122 0.09528638 -0.10457177 0.18766055 0.020681066 -0.18663472 -0.20188399 0.11431585 0.041070487 0.066341475 -0.02680794 0.008581445 -0.021768048 0.010859622 -0.08814608 -0.11924196 -0.016204586 -0.11430957 0.07040142 -0.0025033706 0.147812 0.036399603 -0.10687617 -0.014104635 -0.03946097 -0.119041845 0.118846014 -0.017944047 -0.015876196 0.0022565112 0.049911458 0.10121353 -0.26713824 0.11403133 0.14709298 -0.17239143 -0.15470639 -0.13277048 -0.04244918 -0.08221977 -0.011909321 0.00785393 -0.04304405 -0.022543468 0.16988476 -0.121193536 -0.049859066 0.084543765 -0.0016915273 -0.00037443364 -0.0050431867 0.03649565 0.16024274 -0.12256157 -0.014822953 0.04760853 0.06923559 0.06838359 -0.031755485 -0.022176677 0.15936191 -0.12101467 -0.05913433 -0.09988569 -0.001643471 0.06719147 0.041680638 0.17854646 0.16740595 -0.00843881 -0.14455022 -0.11995723 -0.06359866 0.043451015 -0.03656474 0.15707073 0.035809625 0.07031043 -0.084810905 0.16446301 0.19447356 0.12505326 -0.06361027 -0.036961563
années 0.03439443 0.043400474 -0.05685748 0.10586155 -0.15250197 0.041466963 0.011527288 -0.052836318 -0.0947552 -0.101862915 -0.009369945 -0.055161245 -0.005365401 -0.029612664 0.115508005 0.12911697 0.13030365 0.13818689 0.09115792 0.20397972 -0.14551412 0.034136314 -0.2177518 -0.073305465 0.04098123 -0.043517463 -0.022230387 -0.031087967 -0.18735583 -0.15332109 0.06929178 0.0898031 0.07280394 -0.2770591 -0.19464123 0.05981701 0.07431919 -0.0023394004 -0.036108896 -0.20218487 -0.12770164 0.012335639 0.037394725 -0.052964754 0.039107285 0.18627442 0.13549939 -0.014026058 -0.14939246 0.16688775 -0.00052371976 0.023537897 0.031086933 -0.03240031 0.25375402 -0.013932218 -0.050916377 -0.072483234 -0.0031150929 0.03282525 0.0070725847 0.008094265 -0.01491638 0.130166 -0.0055793286 -0.149891 -0.015392387 -0.00029698748 -0.047546066 -0.026980875 -0.0109187635 -0.038835414 -0.08567338 0.025959255 -0.002778989 0.21793914 0.037108134 -0.14827155 -0.11575105 0.08732115 -0.038268033 0.097662576 -0.1112806 0.005123218 -0.042195134 0.11911232 -0.067067556 -0.105208784 0.06359634 -0.15377313 -0.021337654 0.14650625 0.08883955 -0.021845648 -0.078368776 -0.08661511 0.033310067 -0.0693171 -0.03744694 -0.110411786
également 0.08108398 0.08449581 -0.03529089 0.102669016 -0.048741277 -0.116191775 0.0019501243 0.13586803 0.21306512 0.008252231 0.060823787 -0.13359039 -0.15858045 -0.073975585 0.050528865 0.06281534 -0.11431275 0.00084241753 0.04167439 -0.016371667 -0.022623284 -0.0029473181 0.17065428 -0.059463352 -0.120303445 -0.08289794 0.020575736 -0.07218374 -0.07957619 0.037645496 0.099013634 0.08955763 0.019652858 0.07550453 -0.230051 0.008651906 0.20976278 0.11359472 0.076035775 0.087436676 0.027020842 0.08343627 -5.8803864e-05 0.08478146 -0.015585501 0.120144196 0.05117004 0.15129651 -0.03198576 0.04146132 0.025805583 0.069912404 0.0074482434 0.06915592 -0.105417974 0.11208751 -0.16252963 -0.030723471 0.012533512 0.15329963 0.09963564 -0.07971183 0.041590437 0.029690992 0.16233155 -0.06753651 -0.046483554 0.09176264 0.22960553 0.064263314 -0.0475216 0.07009953 0.12284353 0.005192722 0.09965809 -0.042586565 -0.15509467 0.04021891 0.057389412 -0.08692783 -0.020294508 -0.05786522 -0.059351515 0.26071712 -0.13874207 -0.0647871 0.011768123 0.07021931 0.16258883 -0.05445778 0.06612156 -0.2982814 -0.09995717 -0.015245668 -0.1356959 -0.049907666 -0.11630189 0.038913917 0.020633519 0.04484547
ces 0.060610447 0.052938074 -0.20888425 0.008113092 0.13606021 -0.08928142 0.019750267 -0.078987114 0.02212887 -0.06633491 0.0108263185 0.008623033 -0.032761462 -0.12662373 0.22123738 0.13610026 -0.016908798 0.04768153 -0.027232593 0.12035099 -0.123900644 0.12041651 -0.031663716 -0.040386353 0.036037844 0.02531138 0.063704684 -0.015534182 -0.16050756 -0.11740568 -0.011066878 0.023981957 -0.073084496 -0.051820643 0.29431295 -0.03840059 0.13559875 -0.0035655606 0.021093471 0.12611961 -0.045179382 -0.11708084 0.08602284 0.06098441 -0.118169025 -0.001305701 -0.02554305 0.047084276 0.15266131 0.003904863 0.022277705 -0.037424672 -0.028585214 0.06022856 0.051418886 0.1525211 0.09269951 -0.09779293 -0.12214272 -0.028241713 -0.07411331 -0.0987697 -0.19857495 0.1474381 0.13736074 -0.025706463 -0.09778655 0.04027998 -0.085396744 -0.009604522 0.05276595 0.1976608 0.050352093 0.14273201 -0.008530039 0.3301015 0.027585445 0.13299844 0.10618274 -0.06849282 -0.008427775 0.032646675 -0.13417648 -0.068644255 -0.1160492 0.107600264 0.017029714 0.031274766 -0.035678577 -0.13297752 0.09253238 0.000915274 0.020004334 -0.114715286 -0.047074083 0.1270428 0.024621462 0.16908208 -0.020817362 0.065739535
avant -0.051698178 0.062236454 0.042516235 0.08243156 0.010200744 0.014935176 0.062799565 -0.11544681 0.16124532 0.049863562 0.068217725 0.02392614 -0.07568481 0.11271085 -0.0061010495 -0.009953142 -0.091767825 0.15642522 0.041054606 0.13275059 -0.051338937 -0.031266313 0.024075538 -0.027641697 -0.15866743 -0.04750838 0.113325804 0.031966645 -0.11489811 0.092686124 0.21254258 0.07872363 -0.014666626 -0.017543428 -0.14769268 0.03662898 -0.0016174151 0.026186127 -0.08698411 0.055922534 0.11748488 0.07254126 0.09151032 -0.07596461 0.042675335 0.0756914 -0.110484324 -0.21534097 -0.07313808 -0.014346606 0.0011745289 -0.034396198 -0.11607432 -0.08326741 -0.10295648 0.016506542 0.060587034 0.094761744 -0.115117684 -0.020552991 -0.17558262 0.20886329 -0.10892464 -0.017615328 -0.079179116 0.1292272 0.09583385 -0.07141267 -0.13093704 -0.06965412 0.060481038 -0.032417648 -0.084233865 0.012953195 0.15333088 -0.026378628 -0.08712627 0.0997971 -0.10673077 -0.03904091 -0.13103163 0.2386687 -0.006016071 -0.18910907 0.17541008 0.03450345 0.13920285 0.19699433 0.14109439 0.066574514 -0.05754728 -0.08982423 -0.08422263 -0.052326184 0.17975856 0.15702696 0.017210575 -0.12422739 -0.11560161 -0.02008859
où -0.01943413 -0.023004295 -0.109825686 0.067771144 0.021067258 -0.125199 -0.06715068 -0.075377524 -0.04580337 -0.108425654 -0.042488325 0.078280754 0.0349866 0.10007336 -0.13490976 0.019540394 -0.1605011 0.028081747 0.11253586 0.039755415 -0.047168754 -0.08420185 0.11239021 -0.17924844 0.06604691 -0.08414085 0.046749704 0.12174999 0.018865254 -0.1032553 -0.014364934 0.01266204 -0.025085902 0.13642937 -0.0487027 -0.008435375 -0.08402034 -0.11718109 0.0634561 -0.10154826 0.084715664 -0.081260994 -0.07002877 -0.0942535 -0.14175667 0.07528773 -0.09125098 -0.13104464 -0.018735418 0.11372272 0.049308132 -0.05312322 -0.1352051 0.14465785 0.11390538 0.099638656 0.06598257 0.034303077 -0.1697277 0.263473 0.14298967 -0.007220875 0.040368084 0.17478299 -0.13026917 -0.056154206 0.07610479 -0.07572811 -0.09253375 0.12662764 -0.063878305 0.04215361 0.074760444 -0.24474736 0.017980445 -0.088315725 -0.18377566 -0.034220714 -0.02899069 -0.017220449 0.15964523 -0.12339509 -0.015218246 0.097930305 0.062956214 0.114075996 -0.031384833 0.017647643 -0.07697333 -0.14301847 -0.03679372 -0.15706538 0.19458006 0.003214674 -0.0846145 -0.009696371 0.0975708 -0.02906173 -0.17312144 -0.13645577
guerre 0.029326422 0.01801935 -0.067752846 0.04392505 -0.024942188 0.061400294 0.08342715 0.14522634 0.0060286364 0.0014473053 -0.24129482 -0.115798704 0.021174418 0.08236006 0.09839047 -0.050071433 0.012068004 0.04267783 -0.25078362 0.10233691 -0.19431122 -0.01131503 -0.16065131 -0.024630224 0.16301869 0.04353636 -0.093356535 0.019441482 0.09387398 -0.060457475 0.08937833 -0.044153266 -0.044035602 0.10556894 -0.07060535 0.03137697 -0.09225288 -0.1834338 -0.18312186 0.012978407 -0.0052234363 -0.11364898 0.2931481 0.1103044 0.036378037 0.05751199 0.061514128 0.046843722 -0.10951842 0.0842456 0.041059107 0.19965409 -0.1334089 0.024579257 0.013979649 -0.041217748 0.017067477 -0.008583777 -0.020963758 -0.057590842 0.13809854 -0.13458772 -0.2324392 -0.01985742 0.010718801 0.0060966755 0.044219255 0.06796555 0.05343962 0.042868793 -0.043594915 -0.09344969 0.13134305 0.13926747 0.019445105 -0.09356163 -0.03352428 0.1439053 0.044175427 0.05439789 -0.04303113 0.0924962 -0.14782532 0.031292446 0.011576355 0.14987792 0.08856056 -0.06820796 0.06036952 -0.061598927 -0.01404743 -0.014205661 0.00013916347 0.28865612 -0.11041994 -0.05835272 -0.027996048 -0.025277268 0.06944848 -0.0039790906
bien 0.12387444 -0.09602522 -0.10265697 0.13819458 -0.003998044 -0.17127866 0.03186063 0.10493958 -0.06312563 0.10587093 0.103684984 0.23583794 -0.074118346 -0.011578414 -0.058806177 0.038459398 0.041523915 -0.07915448 -0.11974361 0.095260225 0.0008830687 0.034896478 -0.17675142 -0.088497534 0.0054269037 0.00065609446 0.02646205 0.08194012 -0.03753473 -0.042092547 -0.1221069 0.09509351 -0.09613288 0.046070646 -0.031315036 0.06361755 0.13196121 -0.031215606 0.124239035 -0.06034647 0.030989323 0.15210076 0.13292377 -0.024267847 0.020945664 0.16010045 0.08276831 0.20468058 -0.032437734 -0.12358655 0.030500997 -0.108351074 -0.13565198 0.116043806 -0.12679824 -0.013905969 -0.1000643 0.16910012 -0.12358331 0.14465347 -0.013460636 0.034332614 -0.004090929 0.0865241 0.056908574 0.06858612 -0.13562997 0.13998221 -0.17616107 -0.013875676 -0.12985921 -0.083784334 0.108360164 0.075231716 -0.10731065 0.10827912 -0.1567402 0.0028127718 0.018775752 -0.17014234 -0.13272852 0.2150355 -0.01043911 -0.062088832 0.06328517 0.016881468 0.1234073 -0.045407545 -0.06303098 0.13942315 0.16749926 0.007985877 -0.0146786645 0.057761606 -0.06888999 -0.06915178 0.059719212 -0.061764237 -0.08036781 -0.103807874
partie -0.056595854 0.030754188 -0.054712918 0.20655029 -0.0017108709 0.20829126 0.09786029 -0.24374557 0.105506845 0.051011544 0.10559466 -0.19661216 0.1018899 -0.064844586 -0.052736353 0.07205318 0.0006192351 0.066436864 0.13808085 0.17919216 -0.01795842 0.059615705 0.13233194 0.04957221 -0.05471453 0.0467724 -0.13705248 -0.07482112 0.04740624 -0.21052891 0.03638209 0.16401748 0.11958922 0.08091955 -0.0449635 0.10376049 -0.01777661 -0.064632274 0.13902815 0.04906354 0.081597604 -0.07501814 -0.047053315 -0.042108368 0.1874157 -0.01672282 0.090698 0.18645467 0.014016672 0.057007987 0.05999737 -0.114904165 0.029633014 0.045036215 0.025621027 -0.1197685 0.08574878 0.13896407 -0.08763812 0.09970202 0.123211496 0.12139973 0.08239134 0.03515452 0.014375378 0.08938143 0.047154736 -0.018343506 0.057304375 0.008751972 0.05048853 -0.046623867 -0.06467597 -0.14397827 0.10222567 0.017157147 -0.17558324 0.104236536 0.07978716 0.110396914 -0.07119422 0.082535654 -0.13795063 -0.10712445 0.07957855 0.013070686 0.15019035 -0.16480319 0.04534998 0.00049266464 -0.122232795 0.039351802 -0.039017275 -0.036949977 -0.087662324 -0.16457233 0.06298117 -0.09247465 -0.103885494 0.011791737
ans -0.19273107 0.044318482 -0.08710304 0.011457317 0.0046378593 0.09319591 0.20482194 0.008402685 0.051213264 -0.0026795738 -0.024061134 -0.089269646 -0.13961203 0.044741627 0.07355816 -0.012693047 0.039790504 0.14249775 -0.011884083 0.10859688 -0.069026135 -0.04542733 -0.23521635 0.11374039 -0.06179046 0.048985314 -0.023346182 0.020626439 -0.07145548 0.084461495 -0.0034885956 -0.08748856 -0.1229954 -0.099483594 0.069642305 -0.0740624 -0.14395112 0.017568512 -0.16991034 0.08203945 0.13091739 0.07626785 -0.11541251 0.10936503 0.15717235 0.12519427 -0.05928035 -0.023652181 -0.043426823 0.10401716 0.12603413 -0.10764812 -0.09892513 0.036376197 0.15657026 -0.0035879344 0.052423052 0.21477202 0.14680175 0.17699878 -0.17464453 -0.16903974 0.0855822 0.06556748 0.06332055 -0.10885923 -0.03388029 -0.018425811 -0.113176376 -0.010788847 0.025000684 -0.009547072 0.17381378 -0.035172485 0.07843613 -0.095426895 0.0017924655 -0.24339433 0.08061675 -0.005668975 -0.023169491 0.04262781 -0.12335981 -0.048333053 -0.023954833 -0.031614266 0.04425503 0.0013335746 0.05945467 -0.14289509 -0.18306892 0.08915133 0.06831738 -0.02755002 0.0834155 -0.083318286 -0.037555486 0.09121782 0.044136506 0.17863591
si 0.036758184 -0.118523516 -0.061388712 0.27975187 0.14322346 0.020290138 0.035759192 0.008126773 -0.09570091 -0.0010818565 0.10420397 0.14927976 -0.059042502 -0.00756819 0.079527795 -0.06274404 0.13473058 -0.06661507 -0.028090784 -0.13252777 0.2058086 -0.1162143 -0.04969311 0.072993144 0.12961818 -0.16090827 0.11117715 0.013548781 -0.036214102 0.00732935 -0.058982015 -0.013114672 -0.07855256 -0.035025276 0.014129125 -0.13790697 -0.018316649 0.14724115 -0.1868212 0.21341363 0.06167402 0.12647204 -0.04597169 0.031011583 -0.07759042 0.037895106 -0.08225285 0.10273177 0.13120879 -0.09901135 0.11164192 0.021348396 -0.10893433 -0.14079179 -0.1632662 -0.14147574 -0.25178018 -0.101447135 0.030319087 0.023049353 -0.084541306 -0.08783395 0.004551112 0.059796236 0.002033421 -0.071160294 0.13229173 -0.00895091 -0.0828281 0.007926126 0.04317553 -0.06812872 0.06105981 0.044374973 0.08527216 -0.106769696 0.048840586 -0.06948836 -0.03929273 -0.044969704 0.03210763 -0.026126394 -0.20007412 0.07877904 0.054173004 -0.052775536 -0.04489479 -0.0602681 0.07316133 0.017623413 0.018184254 -0.17489246 -0.12335733 -0.14888935 0.1199986 0.2006709 -0.032904245 -0.043185677 0.00017108399 0.09269475
dont 0.060737617 -0.033180017 -0.09066355 0.1710756 -0.07909804 0.00095239544 -0.028088765 -0.030362114 0.094404615 -0.100852974 -0.09204253 0.16260013 0.027864467 0.025448598 -0.12646931 0.030735705 -0.033841256 -0.069991745 -0.040003426 0.17853162 -0.06792268 0.054725986 0.08267305 -0.0186479 0.12709987 0.08773986 -0.13091978 0.097635634 -0.08379856 0.13618463 -0.12792358 0.1404262 0.07998419 -0.049796477 -0.06598197 -0.02644052 -0.05101466 0.015006492 0.069701776 0.10981713 0.00021488176 -0.11648434 0.04902843 -0.10899839 0.0067832326 0.04830935 -0.029530426 -0.04461649 -0.12783487 0.12049474 -0.2501722 -0.12103951 -0.04423841 0.0021657357 -0.12319211 -0.105162695 -0.04296644 0.096833296 0.0350141 0.049838796 0.26966977 -0.013882618 0.14525145 0.12219765 -0.08860413 0.080150634 0.1798528 -0.2072392 -0.12845095 0.12871508 0.06728181 -0.08046495 0.14781593 -0.0031646916 -0.036576137 0.09944625 -0.13531163 0.13491102 0.17625546 -0.12271775 0.046040192 -0.002615211 0.055804625 0.02227795 -0.031548627 0.06599021 0.12598878 0.0443298 -0.0062335166 0.10168738 -0.19080222 -0.019816427 -0.14284736 0.109658025 -0.14258397 -0.026546393 -0.019309048 -0.03256407 0.059044354 -0.0109024225
peut 0.044749387 -0.055091705 0.085227035 0.049784284 0.008532358 -0.01710037 -0.14080743 0.04509839 0.0015861437 0.04764952 0.059660636 0.061953835 -0.12472355 0.19369756 -0.1337838 0.035462115 -0.10765322 -0.0009988488 0.09011918 0.010156931 0.03882186 0.15909776 0.068394445 -0.1315944 -0.10062904 -0.24276805 0.027808182 -0.1434912 -0.1718078 0.009379919 -0.1679486 -0.1576141 0.008185824 0.0122116115 -0.026690777 -0.059154414 0.04012591 -0.03463476 -0.031770337 0.023063784 0.0068008895 0.15868415 0.16727883 0.08332513 -0.018068627 -0.06054172 -0.13621806 0.09581737 -0.0076794205 0.1058152 0.12917797 -0.07417485 -0.19199096 -0.08111414 -0.049321342 -0.031243514 -0.102171205 -0.07216847 -0.013334052 0.17670088 0.041685212 0.011228586 -0.033586387 0.033932842 -0.18125197 0.004010879 -0.08201402 0.17624536 -2.6466374e-05 0.08521923 -0.024443973 -0.010881545 -0.0031888827 0.11138631 -0.05203784 -0.0924518 0.039850216 -0.0701624 -0.1073221 0.07492074 0.092296295 0.05395537 -0.035367224 0.00038088765 0.05103983 0.17924677 0.08509508 -0.02884386 -0.007087305 0.10469699 0.07850938 -0.047675025 0.004574036 0.014069896 0.38464457 0.11669259 0.12864782 -0.11380873 -0.0110864 -0.12223267
autres 0.04691493 -0.14064239 0.08696963 -0.1422167 0.16697606 -0.07825743 0.019858183 -0.14183775 0.18491279 -0.12549713 0.012638425 -0.07773684 -0.17188926 0.012995248 -0.11211212 0.23084757 -0.015468574 0.063309945 0.15173043 0.054455336 -0.046060275 -0.113788724 -0.12730809 -0.03481311 0.010177385 0.15779491 0.16389047 0.043251112 0.04642201 -0.038990933 -0.20906118 -0.052236214 -0.040247366 0.00937059 0.12627633 -0.01112584 0.17720543 -0.004132213 0.05612888 0.020897713 0.031609517 -0.045139737 0.020252962 -0.049410626 0.122785285 0.15101172 0.065083005 -0.047710925 0.033581033 -0.047122374 0.04933312 0.020037994 0.09742786 -0.035394274 -0.12539257 -0.10834718 0.065658204 0.027964808 0.246648 -0.050276954 -0.0891626 0.11053646 -0.14115258 -0.13917518 -0.039257284 0.034257226 0.10257661 -0.14234975 0.069693565 0.05155319 -0.082170494 -0.06554479 0.03511155 -0.18905137 -0.093704365 0.16526824 0.044743117 -0.0064377477 -0.13116637 0.07706782 -0.062259547 0.10501535 -0.022236345 -0.07813068 -0.009404374 0.091327496 0.002095944 -0.015767984 -0.025312232 -0.09669557 0.016030772 -0.22422586 0.028200049 0.08865711 -0.1883637 0.06336782 0.067802645 0.060108196 0.02651954 0.06290952
lui -0.0005024188 0.023429317 0.0041852756 -0.09005896 0.11033712 0.13688591 0.1398572 0.17365196 0.15289608 0.023400689 0.008400139 0.04418081 0.034050275 0.11955328 -0.09795023 0.022419386 -0.019380113 0.108546935 0.099985965 0.020626234 -0.0039574876 -0.017560868 -0.11761869 -0.07764846 0.0059469687 -0.03337873 0.1462617 0.048374888 -0.15586424 0.1511881 -0.04801748 0.07376807 0.027981378 -0.02290973 -0.11317241 0.11408531 0.049386296 -0.10858321 -0.026855277 -0.074171856 0.06631733 -0.110211454 -0.024541415 0.03648099 -0.08667729 -0.0906191 -0.015609342 -0.035212237 0.030665865 0.020978084 0.023194551 -0.20702443 0.13338076 0.26810113 -0.079348974 -0.045748852 0.043305453 -0.0020578527 -0.03961438 0.08685027 -0.15861602 -0.14035988 0.2065667 -0.2690826 -0.061772976 0.17544746 -0.16825087 0.13298255 -0.00097192236 0.04866876 0.07856816 0.08341527 -0.02804439 0.10078793 0.011480435 0.07954411 0.0494764 -0.029501697 0.18123904 -0.0407357 -0.025302501 -0.16822873 0.022831965 0.036909305 -0.041913062 -0.03942323 0.0669769 0.086872175 -0.0014077453 -0.18210497 -0.08869117 -0.15078288 -0.12123092 -0.016617086 -0.009308375 -0.11544175 -0.02811142 -0.21482077 0.004348181 -0.054957084
quand -0.16685997 -0.10170402 -0.099846184 0.045060173 -0.07201396 -0.13438831 0.12136332 0.020449596 0.25042763 -0.0490329 -0.0010779412 -0.08283536 -0.06617375 0.043390747 0.045160487 0.17265865 0.15290663 0.104513824 0.09532082 -0.044307906 -0.023848034 -0.024605075 0.12623177 -0.006129665 -0.05097262 -0.07535096 0.077267 0.014852852 0.017924894 -0.12433865 0.015952732 0.018249094 -0.039569534 0.039313294 0.12240912 -0.024007257 0.124588504 -0.0073752836 -0.06583353 0.12758195 -0.011226854 0.15889943 -0.1804695 0.030524671 -0.01673532 -0.0014410622 -0.023162603 0.014865583 0.09779885 0.06129544 0.017773269 -0.06800895 0.0018873563 0.038168725 -0.08850268 -0.18486519 0.03695291 -0.09900258 -0.25489643 0.30352494 -0.026511358 0.058804866 0.077838406 -0.018053599 -0.12154791 -0.06583191 -0.04498924 -0.10022476 -0.11856207 0.026709257 -0.08833036 0.036585227 0.054256275 0.14413562 -0.030433305 -0.03804696 0.14031461 -0.13784629 0.07557186 -0.099453785 0.10682207 -0.058401693 -0.12753287 0.10237696 -0.11023295 0.09969387 0.12405831 0.011306651 -0.04460601 0.057143413 0.08030345 -0.06183689 0.14812359 -0.07933379 0.16098627 -0.041300442 -0.13150534 -0.16435522 -0.08663764 0.1217769
ville -0.02948787 0.11724715 -0.10215034 -0.10071657 0.11695624 0.024213677 0.106018566 -0.08707425 0.06791888 -0.058954764 0.04687975 -0.007906514 -0.15763834 -0.09211997 0.054700077 0.022190716 0.04418814 0.065953314 0.03948442 0.14430457 0.044965696 0.00559034 -0.023823524 -0.0019132268 0.22524922 0.09238027 -0.26135707 0.07444344 -0.045015216 0.017818592 0.18574072 0.067011066 0.054861795 0.14484659 0.054505054 0.101947285 0.054650243 -0.11749195 -0.16353267 0.06215429 -0.028376594 0.078923896 0.26147705 0.0004675777 0.20259166 0.015143522 0.08575338 0.048627026 -0.03267586 0.026502477 0.15729174 -0.029444156 -0.1872691 -0.015662255 0.009613222 0.011052584 -0.0261202 0.11470242 -0.056682568 0.06886837 0.11727087 -0.00020555289 -0.11160928 -0.005136612 -0.08906763 0.028475186 0.10791107 0.030211303 0.092073865 -0.067779586 0.13505143 0.11200347 -0.20230693 0.004637716 0.08009641 -0.010727543 -0.24016508 0.11792713 -0.04343169 -0.055939272 0.10158145 0.026341802 -0.058700006 0.11926283 0.040899888 0.2496717 -0.026367152 -0.008661922 0.151424 -0.016186487 0.02011471 0.037984785 0.06515684 -0.14530939 -0.0024639657 -0.09241272 -0.06457092 -0.04061271 -0.006392034 -0.095893905
tout 0.18812107 0.04571376 0.12302261 0.16941503 0.075712584 -0.090894654 -0.04466189 0.12632306 0.11143338 0.026144367 0.103905566 -0.10134469 0.01208244 0.13414422 0.027082197 0.07940047 -0.004008024 -0.06638164 -0.15894678 -0.24959041 -0.013130225 0.061805334 -0.05615367 -0.14526251 -0.016895924 0.021321889 0.15856804 0.0457732 -0.013106331 -0.13531037 -0.07890614 -0.081786565 -0.047344945 -0.13868597 -0.074364394 -0.15368032 0.01434378 -0.07840764 0.11250223 0.015541659 0.05507551 -0.122360125 0.044931684 0.04064566 0.05233499 -0.05418384 -0.12384874 0.09103988 -0.08792649 0.085353345 -0.175905 0.033015516 -0.094745725 -0.100822315 -0.07273188 -0.14753081 0.14974026 0.007627861 0.048822463 -0.022000518 -0.01983208 -0.118188 0.09809134 0.07148831 -0.17602724 -0.02723884 0.09599482 0.039381996 0.011043093 -0.002301934 0.083908655 0.017359298 0.10019059 0.019334873 -0.11797399 -0.13064685 0.0778491 -0.10640308 0.08994197 -0.16345403 0.25350288 0.06811672 -0.17856044 0.081783816 -0.043441836 0.12390521 0.018351074 0.056270596 -0.12842637 0.009162598 -0.14463153 -0.026481757 -0.0073073846 0.19346544 0.07691962 0.05495461 0.11995569 0.02107451 0.033208493 0.083222024
jusqu -0.023696506 -0.085588306 0.008411472 0.050769467 -0.0988977 -0.05248727 -0.076283574 -0.110571526 0.18537714 -0.0022372026 0.18663378 0.043005243 -0.043803424 0.17409958 0.026949374 0.09706672 0.12705317 0.049679875 -0.18261567 -0.014227371 0.03790704 0.1395395 -0.04959255 0.11737693 0.1035521 0.085895635 0.039924923 -0.11902393 -0.09936502 0.060650364 0.103895575 -0.24515499 0.07757335 -0.116626166 -0.13926588 -0.09594966 0.099422924 -0.05813943 -0.080653034 0.14209202 0.07013267 -0.012668137 -0.034939844 -0.0054243994 -1.0475189e-05 -0.019807577 0.14667478 0.2567486 -0.002641517 0.0160615 0.07829175 -0.06180101 -0.14504105 0.05010805 0.079688914 0.012800283 0.05376333 0.048092797 -0.032792695 -0.0025191833 -0.059806794 -0.0023499166 0.08501365 0.004762235 -0.01345729 -0.20740089 -0.085333854 -0.06615889 -0.020253781 -0.18200417 -0.12992662 0.16285545 0.07764064 0.08000394 -0.065181024 -0.058279086 -0.07217974 -0.057380695 -0.20741744 0.024464156 0.089920625 0.013566302 0.056997176 0.20402083 0.10250119 0.041356444 0.05536964 0.062152687 -0.15264873 0.046382576 0.015207623 0.20695715 -0.14011692 -0.0566675 -0.14175291 0.03267014 0.040772058 -0.05436018 -0.058885586 0.0350157
avaient 0.028725743 0.027308445 -0.0073702633 -0.115415305 0.1274974 0.010678261 0.032326274 -0.08480391 0.023969343 -0.118493035 0.023651507 -0.043682106 -0.20358333 -0.0104761 0.017013999 0.0035367545 0.08087089 0.025727201 -0.04652386 -0.08174911 -0.07755978 0.05319059 0.2501961 0.13314112 0.062108856 0.21027955 -0.10046335 0.157547 0.011099743 -0.08320254 0.07727621 0.06848076 -0.030089878 0.0023924762 -0.14162952 0.056152202 0.07446071 0.04125154 0.0067287046 0.22068875 -0.01617862 0.012662342 0.09903508 -0.022311406 0.06766603 -0.0116313 -0.0055670715 0.06314665 0.08748674 -0.14095448 0.0053875297 0.19832821 -0.13593304 0.051447295 -0.09071434 0.105880275 -0.022266285 -0.0726162 0.061741922 -0.118320934 -0.050868373 0.07283986 0.0036386861 -0.015322365 -0.15685117 -0.035896745 0.013340012 0.0058472403 0.3229769 -0.061640456 -0.0025514525 -0.23047571 -0.018708328 -0.20818652 0.05260039 0.045132138 -0.035998344 0.03789721 -0.036497336 -0.070449546 0.06722803 0.086284995 0.13810185 -0.10933699 0.05944319 0.0730207 0.1332252 0.007875224 -0.059341818 0.06285757 -0.025403325 0.052940823 -0.14429767 0.2395909 -0.049197678 0.10210477 0.047411885 -0.18337896 -0.020644557 0.063369974
nord -0.05464819 0.027609248 0.024705919 0.037227117 -0.058143973 0.05734971 0.18994795 0.12591319 -0.097860865 0.076036185 -0.11914755 -0.031231828 0.12791368 -0.022326013 0.03633699 0.09068597 -0.05745096 0.14513353 -0.0057830308 -0.005014012 -0.0651804 0.06909332 0.016732085 -0.19715583 -0.12152996 0.0848423 0.01388998 -0.10045781 -0.09029941 0.045737375 0.041298263 0.10190803 -0.06733616 -0.0949239 0.10788589 0.065845355 0.06712726 -0.15652077 -0.12717879 0.032184575 0.047796726 0.17122404 0.19776072 -0.0001738071 0.052168835 0.17312242 0.09502611 0.016467396 -0.020092372 -0.0035684668 -0.08559114 -0.16557285 -0.06761799 0.007554153 -0.19311707 0.03451725 -0.13986148 -0.045965116 -0.016985869 0.047100052 0.040652934 -0.0013104099 -0.19127142 -0.09563341 -0.09127655 0.04921565 0.00340984 0.09991351 -0.06330801 0.044832528 0.13553348 0.18591186 0.06128168 0.04180641 -0.073344044 -0.079068966 0.07564483 -0.091932006 0.15845339 0.07129484 -0.22378461 0.0051081963 -0.051845454 0.0018600416 0.058386043 0.10850393 0.32228056 0.11040942 -0.12718974 -0.030139344 -0.13569383 0.09738201 0.027062083 0.0564132 0.016937355 -0.11666275 0.12767799 -0.004391943 -0.09314062 -0.015269554
étaient -0.031738643 -0.026662279 0.08089606 -0.16106081 0.06669543 -0.18837567 0.004279748 -0.21850616 0.059404388 -0.05660005 0.09948972 -0.12671629 -0.080688156 0.11342194 0.0032169558 -0.13836077 0.09579261 -0.04503705 0.015601491 0.09809545 -0.124568895 0.06419882 0.11552039 -0.022321641 -0.08458358 0.15381926 -0.025515527 0.05925061 -0.026731245 -0.13903731 0.026396433 0.11175951 -0.0705783 -0.05900077 -0.09058743 0.008642136 0.082103394 -0.14314812 -0.13862985 0.1444004 -0.040027607 0.008749389 0.16064334 -0.022123896 0.12502424 0.06726382 0.0006140415 0.07043884 -0.052516364 -0.036764387 -0.12418001 0.13878484 -0.11504982 0.037179172 0.00694785 0.040603068 -0.009002004 -0.15986663 -0.010531588 -0.23046745 0.089067556 -0.017842753 0.13140656 0.04572222 -0.07593622 0.0015277734 0.015257581 -0.0011248713 0.12083012 0.09825398 -0.21349867 -0.2468585 -0.1751184 -0.15224105 0.14943339 0.07896523 0.004416158 -0.017275624 -0.10822893 -0.042841163 0.04342448 0.03235355 -0.039155107 -0.02168797 0.05861964 0.08576639 -0.0056696273 -0.12212204 0.07582134 0.06748939 7.6120637e-07 0.22336698 -0.13291423 0.08762161 -0.091705754 0.0861843 -0.081299916 -0.026271114 -0.093601935 0.06508315
très 0.08889604 -0.027954292 0.14348139 -0.09145092 0.058245372 -0.06741889 0.04163148 -0.05058874 0.08676933 -0.16664301 -0.10951956 0.12082828 -0.06347946 -0.09858711 0.14787152 0.06376734 0.025348367 0.06586316 -0.15220997 0.0902536 0.04745464 0.119475946 0.14954478 -0.0033469456 -0.12589443 0.020752208 -0.061018437 0.021024568 0.07290246 0.08839949 -0.12997453 0.14487529 0.01820846 0.01952793 0.067531005 0.11994238 -0.032197695 0.09229311 0.07148501 0.07817574 -0.037657507 -0.021882046 -0.22528028 0.1280298 -0.09530841 -0.043243032 0.06710367 0.08739787 0.030868703 -0.052761063 -0.053996537 -0.014755218 -0.0022717486 -0.044538293 -0.0031527053 -0.093266934 0.08740814 -0.11386876 0.032390267 0.007931028 -0.014025822 0.24211802 -0.025002575 0.0698583 -0.15900946 -0.008523387 -0.10701059 -0.10616115 0.057360858 0.047526747 0.08803936 -0.024465518 0.1472497 0.18310286 0.06436571 -0.07653946 -0.057924453 -0.0030795494 -0.104697846 0.1450915 -0.10133204 0.016021041 -0.0476839 -0.31600165 -0.054366674 0.034922395 0.045989733 0.10548457 0.15972732 -0.04208891 0.10911563 0.025810659 -0.0062733884 0.083759665 0.10176629 0.17882925 -0.24034876 -0.08481213 -0.13705964 0.00990611
avoir 0.1718952 -0.122175306 -0.02108121 -0.09403135 -0.11909899 0.032931775 0.10086077 -0.09342311 -0.026477728 0.10979968 -0.033988714 -0.07782663 -0.012982087 0.14653367 0.025450505 0.20497271 0.052385494 -0.22241302 -0.14526491 0.090126485 -0.0038117762 -0.05905729 -0.06633467 0.03633154 -0.0699706 0.013841858 0.049612492 0.12608664 -0.16769946 -0.034953494 0.0596162 0.084759265 0.07663237 -0.070736796 -0.016140452 -0.082312725 0.12583704 -0.022286272 -0.05603886 0.10404159 0.09589701 -0.1216897 0.0073746163 0.018825637 -0.1314892 0.07774047 -0.030383818 0.24427938 0.101086244 -0.035822485 -0.0751635 -0.08139411 -0.23178765 -0.14467709 -0.025698287 0.047365192 0.014999167 0.08536342 -0.031948525 -0.025071 0.23805828 -0.14530513 -0.15386157 0.087718025 0.04153531 -0.07969688 0.04337855 -0.14233224 0.066403 -0.08360838 -0.050645497 -0.13496457 0.1621302 -0.14495683 0.01202931 -0.20636207 0.08909675 0.10348783 -0.06879829 -0.026808608 -0.07968524 -0.057375982 -0.14397548 0.008115213 0.002369619 -0.05483829 -0.043972522 0.063584104 0.12658131 0.097935 -0.042787947 -0.037835386 0.03529318 0.14772521 -0.063891925 0.079776965 0.059323967 0.120727204 -0.017814204 0.02553697
fait -0.07440326 -0.024214027 0.086231776 -0.03340263 -0.0031178258 -0.07411595 0.11567332 -0.020816268 0.07123431 0.05923259 0.06702587 -4.0631512e-05 -0.065035544 0.17516498 -0.006651589 -0.034854002 -0.071893975 -0.026034327 0.04183054 0.05468666 -0.101887606 0.24867435 -0.11516951 0.1336595 -0.24786744 -0.099777594 0.0010407979 -0.07304885 0.05789193 0.025361564 -0.107659794 0.053799704 -0.038933884 -0.036423396 -0.16081797 0.021378351 0.097092174 0.07767357 0.011862604 0.041809615 -0.027415374 0.12405625 0.06796741 0.28514618 0.045216776 0.0795907 0.18005168 -0.2319709 0.0028825658 0.1399622 -0.03710203 0.105106615 -0.025904093 -0.043101385 0.06527045 -0.099945754 0.15631242 0.05447821 -0.14782779 0.09321068 -0.041987438 0.112427354 -0.033106133 -0.114236176 0.06693504 -0.03293314 -0.1498529 0.2714864 -0.17768873 -0.028828096 0.14928164 0.008063527 0.0729 -0.0036749605 -0.029171694 -0.0445992 0.15083349 -0.08081483 -0.19874533 0.09640583 0.1020197 0.01943784 -0.08365931 0.047904067 -0.034975726 -0.008530884 -0.008175763 -0.02523283 -0.042957403 0.13071239 -0.011231215 0.07385737 0.0101286275 0.14547898 0.0013298573 -0.0131674325 0.034951992 0.077300236 0.025130833 -0.10271868
