350 100
an -0.08293837 -0.0794394 -0.11059448 0.047973543 -0.002250811 0.032268748 -0.072403066 -0.29291862 -0.13872136 0.06863313 -0.0015104507 0.0029737798 -0.08198632 -0.1559137 0.15317549 -0.07230883 0.07213261 -0.014993747 -0.08818487 -0.045939334 0.3064799 0.07845714 0.13522716 -0.043494936 -0.020938663 -0.08446924 -0.16196948 0.07660576 0.08103988 -0.055576004 -0.07444093 -0.0082418835 0.08362148 -0.051677648 -0.11473244 0.20942734 -0.17187719 0.070154615 -0.09504241 -0.16379991 -0.13932613 0.112668924 0.099646494 -0.030197065 0.040505752 0.14551824 -0.05190619 -0.11266656 -0.07134423 -0.07720165 0.052291688 -0.02899794 0.023426855 0.09484103 -0.16262741 0.0040402776 -0.025506439 -0.06964159 0.0064568045 -0.019298118 0.1237452 0.050456308 0.09608869 -0.03447193 -0.1183344 0.08014404 0.204781 -0.011373843 0.074271716 0.049677 -0.12540019 0.06427189 -0.07063514 0.06812148 -0.04057251 0.114310674 0.17375356 -0.07031748 -0.022381196 -0.04034711 0.1357781 0.09255058 -0.064649224 -0.10118524 -0.20276384 0.013302299 0.11676252 -0.0043928493 -0.062231272 -0.10765677 0.055760127 0.05927005 -0.015324421 -0.044655826 -0.10933992 -0.07076305 -0.040590823 -0.0017934222 -0.036490716 0.10212475
agus -0.08163583 0.07780212 -0.18315394 0.057096105 0.024524515 -0.0865864 -0.11557252 -0.08751883 -0.04496318 0.007816033 -0.09121236 -0.016143808 -0.046573166 0.0064449417 0.0603176 -0.09763646 0.058607526 -0.020219052 0.09817759 -0.11550575 0.035668876 0.054197565 0.11810858 -0.1407196 -0.14481512 -0.17552488 0.076529704 -0.06414893 0.115608886 -0.13604522 -0.07169076 -0.07463277 -0.10672534 0.0039530816 -0.024863327 0.17981456 -0.10761212 -0.0521103 -0.027658097 -0.17466722 -0.0025603783 0.13961376 -0.086515926 -0.042250503 -0.0124012325 -0.0010139244 -0.09807939 -0.04594218 -0.032955784 -0.10219484 -0.17716874 -0.1720876 0.08472629 -0.020628657 -0.05570345 0.02914581 -0.14906824 0.19579941 0.06871912 0.014881915 -0.13129593 0.10713322 0.14377852 -0.04947599 -0.0627751 0.11635276 0.1382906 -0.1378698 -0.049074102 0.12368596 -0.116722174 -0.008617521 -0.07450819 0.089353874 -0.11929978 -0.00010039539 0.015455593 -0.05916841 0.18759844 -0.0037445268 -0.07240616 -0.06646891 -0.19062975 -0.0997997 -0.07778239 -0.12531967 0.12069776 0.008687839 -0.030554876 0.05501229 0.09770722 0.00089973165 0.10471046 -0.10572378 -0.019073533 -0.16312698 -0.07983519 0.032606564 0.050976932 0.27466097
a -0.081168704 0.20077498 -0.006506875 0.08486164 0.18529408 0.03818767 -0.016433774 0.06750379 -0.20637017 0.13142858 0.05687065 0.07349821 0.06148676 -0.10978121 0.09648307 0.03359347 -0.030305149 -0.0070369192 0.06777304 -0.02750601 -0.11786011 0.12973519 0.012830777 -0.056441586 -0.16280045 0.015880069 -0.12221019 0.13985299 0.08051416 -0.01936413 0.16013421 -0.12304225 0.079595 0.1150788 -0.014084972 0.16044153 0.11331325 0.09635873 -0.10000948 -0.024476878 -0.11321038 0.08988851 -0.05400078 0.050467506 -0.088263944 -0.12880622 -0.15742426 0.059281465 0.063453734 0.09752187 -0.013958988 -0.13662297 -0.14233626 0.04273346 0.070620455 0.12012093 0.014584567 0.0780997 0.15549654 -0.024445754 0.06963644 -0.043396167 0.05325245 0.019771526 -0.11789916 0.14808652 -0.018585306 -0.12119863 0.03554398 0.039548658 -0.20998521 0.08795385 0.06835797 -0.13552745 0.0051306984 -0.038879793 0.05135344 0.21572544 0.16501567 0.18693604 -0.08777486 -0.071663655 -0.12508532 0.0087321745 -0.2197294 0.11922203 0.084239535 0.0012664892 0.05890072 0.043597106 -0.009120357 0.03127952 0.1188195 -0.061326712 -0.04895492 0.087862134 -0.0011050842 -0.059464104 0.1053885 -0.016829854
do -0.04052597 0.08131975 -0.14605875 0.076430574 0.020519702 -0.018464742 -0.14606212 -0.027366951 0.15330009 -0.026065381 -0.31582564 0.08026752 0.011588204 0.08670701 -0.09915031 0.010834387 0.063916884 -0.0715189 0.020719271 -0.02909992 0.13600524 -0.05976632 -0.13018943 -0.05471405 0.065480776 0.13709198 0.08828285 0.004912084 0.10164013 -0.20041564 -0.04056176 0.104735486 -0.08030034 -0.21433347 0.009939157 0.041572057 0.025758067 -0.2023671 -0.006818538 0.08662854 -0.044765405 0.10009443 -0.040234815 0.017657608 -0.25558457 -0.009235235 -0.039033365 -0.03880104 -0.02255274 -0.03334004 0.064178884 -0.05477546 -0.057486404 0.12607472 -0.022054069 0.014707182 -0.15522517 0.0017120758 -0.106253505 -0.14926389 -0.10489266 -0.1739579 0.060729254 -0.052319497 0.030795224 0.0592963 0.15505734 0.07042661 0.0028973394 0.023064727 -0.05262187 0.101752505 0.009376265 0.18674399 -0.16014947 0.05020623 -0.09696703 -0.101108335 -0.028759545 -0.077645354 0.13692775 0.0797781 0.05999136 -0.13538016 -0.024853906 -0.05916456 -0.022329096 -0.07385591 -0.057482738 0.119993344 -0.029666873 0.010131388 0.048853718 0.13072398 0.06430902 -0.045237985 0.01454015 -0.022312593 0.23601553 0.18131576
na 0.058681328 -0.036749337 -0.08689601 0.060014155 0.12610671 -0.03854306 -0.13178456 0.07798142 0.11453138 0.050480533 -0.23237734 0.114873156 -0.16821963 0.002497315 0.21969387 -0.008071899 0.032484118 -0.09327055 -0.1323512 0.02312335 0.0706583 0.029407915 -0.010096836 -0.09590808 -0.02246665 -0.0646234 -0.14366639 0.02502317 -0.1127404 -0.06869416 -0.18087567 0.1588156 -0.08336503 -0.16211553 0.018751806 0.13453859 -0.13563432 0.077659905 0.06231683 0.041152284 -0.0144583 -0.16330051 -0.007250515 0.05360097 0.07654728 0.0054647834 -0.06607411 -0.036699656 -0.0043116407 -0.043010585 0.04634909 0.048686843 -0.009396767 0.099034496 0.033216447 -0.1648694 -0.17216662 -0.059757464 0.12738353 -0.07114663 0.05877016 0.18596238 0.13560012 -0.2420304 -0.0050013782 0.052526258 0.05331272 -0.18430364 0.0459681 0.053912777 -0.021327782 -0.046532128 -0.1367549 -0.11978948 -0.023376692 0.08395419 0.06023613 0.19898729 0.004988358 0.032182295 -0.0057715876 0.09890044 -0.10059762 -0.049979825 -0.14191581 -0.10273258 0.08785269 -0.18731014 -0.13134173 0.037591133 0.052199073 -0.073219106 0.012266506 0.08210039 -0.04911584 0.00487488 0.027172705 -0.108832955 -0.14243393 -0.072371945
ar 0.013371197 0.11298674 0.21200587 0.06023664 0.09809223 0.009762735 0.01790333 -0.11487202 -0.12897131 0.049093626 -0.047975678 -0.04039395 -0.13442852 0.008169074 0.037935354 -0.25461578 0.030406248 -0.12121002 -0.20631082 -0.087529846 0.05163401 -0.038430165 -0.20492613 0.021442028 -0.12645994 -0.06440961 -0.12375586 -0.121694975 0.023341639 0.08613829 0.05844062 0.0141686695 -0.0031268706 -0.1282455 -0.027286544 0.21528234 -0.036538344 0.082208656 -0.111811094 -0.11999732 0.024224954 0.019737074 -0.1619121 -0.02281711 0.015008561 0.050461784 -0.0553275 -0.08803564 0.014213073 -0.06462417 0.06672048 0.08520906 0.018294916 0.044277314 -0.009981841 -0.009222599 -0.025951957 -0.08924131 0.015155132 0.017813409 0.31117973 0.12815367 0.037083298 -0.03656943 -0.08773196 0.18608885 0.048387744 -0.13779564 0.00449739 0.014776373 -0.04368937 0.21684954 -0.041800104 -0.0137486 -0.095298335 0.22611858 0.04259957 0.059228674 0.012333373 -0.08569608 -0.0031979603 0.078227274 -0.018326782 -0.04821329 -0.03232645 0.05014906 -0.004889699 -0.075414516 -0.15485051 0.11576196 -0.0035967901 -0.056515343 -0.13412082 -0.06682649 -0.09654401 -0.20976536 0.07162252 0.14429832 0.03815998 -0.01978955
ag 0.029589081 0.028203418 0.061925825 -0.024155632 0.107314534 -0.15094292 0.27301905 -0.0545979 -0.15746143 -0.028586907 0.051937606 -0.071190275 -0.099357046 0.16534548 0.015609955 -0.16807365 -0.054783184 0.06329044 -0.025242701 0.016756173 -0.093112715 -0.05105885 0.037141625 0.013409271 -0.017836029 -0.104462266 -0.0033401959 -0.13341954 0.079027764 -0.00093008304 0.015646407 -0.026553787 0.047738742 0.0852376 -0.0377157 0.19833782 0.0023741385 -0.022870412 0.020901047 -0.10873633 0.005432914 -0.2592471 -0.09153645 0.09792741 0.044150796 -0.057765648 0.030977363 0.036898807 0.008028085 -0.028915128 -0.0936525 -0.12640497 0.04038854 0.0041272356 0.030123554 0.103513494 -0.07389082 0.15513653 0.1332549 -0.026570912 -0.047666024 0.082448736 0.23709458 -0.022335848 0.1667761 0.12895134 0.067856215 -0.15585771 0.019083181 0.03817336 -0.098922215 -0.15600462 0.0074914107 -0.05203681 0.07955243 -0.18878853 0.1315232 0.09727029 0.16682206 0.059335873 -0.111212984 0.08126754 -0.14251825 -0.03500425 -0.011597817 0.049184468 0.10776785 0.05655379 -0.004144554 0.06363351 0.015211919 0.12268388 0.1313193 -0.048867617 0.13012592 -0.21414797 0.011429699 -0.0025930917 0.056852844 0.205579
bhí -0.06257734 0.15390144 0.12664226 0.08420092 0.048036966 0.009055798 -0.049319003 -0.11578432 -0.16047616 0.07874752 -0.12803224 0.14350773 -0.17739922 -0.049171757 -0.11608673 -0.13973558 -0.0017854504 0.12987243 0.005534808 -0.049618285 -0.081665546 -0.044244874 -0.106970035 0.045712896 -0.16755778 -0.06893793 -0.0037131007 0.031218393 0.09315853 -0.040895652 0.10372684 -0.018974453 0.16021459 -0.23299454 0.014161182 0.18908815 -0.04633084 0.14356466 -0.097427554 -0.08495858 -0.02814497 -0.062294737 -0.14929214 0.08205047 -0.13074104 -0.12750746 0.16246065 0.028521076 -0.118134014 0.07838608 -0.062047075 0.104429185 0.007325473 0.05920668 0.062397435 0.08900051 -0.09734505 0.117561646 0.10897511 0.116788514 -0.020794906 -0.028321102 -0.090822294 0.09906369 0.00386239 0.09795052 0.028070496 0.054470543 0.021215713 0.04133926 -0.13135886 0.066460155 0.065426864 0.0809353 0.20733525 0.20066585 0.026893144 0.094502054 -0.02911444 -0.20170471 -0.024131972 0.08995797 0.075638376 0.0033274454 0.120622285 0.030420914 -0.08227266 -0.12461128 -0.07618516 0.07125359 -0.057044566 0.101209305 -0.17230931 0.031770077 0.05323628 -0.105043575 -0.029071027 0.082892835 -0.087941766 0.10673703
go 0.027619272 0.012455892 -0.12595005 0.07494206 0.007598669 -0.2281889 -0.07014622 -0.11934586 0.1390992 0.040087797 -0.1506923 -0.055485826 0.007555626 0.07087114 0.07309604 -0.070840485 0.120798 0.07131913 0.04348277 0.10479017 0.008585027 0.08047648 -0.09325087 0.062354703 0.027455682 0.05308528 0.17625965 0.01182943 -0.035714872 -0.18344052 -0.07220914 0.07800764 0.05482329 0.08475255 -0.12196906 0.12371404 -0.114623226 -0.10915636 -0.036273453 0.034452315 -0.15009703 -0.036838494 -0.20296225 0.11955277 -0.11860192 -0.07128996 0.06969856 0.25425315 0.18954238 -0.118660524 0.10950816 -0.009350621 0.00794816 0.12323463 0.10092599 0.14313293 0.00074187934 -0.0026129377 -0.08448034 0.19144808 -0.03445638 0.041287687 0.024980547 -0.111551635 0.026220314 0.020310301 0.037404377 0.06512987 0.013797069 -0.05617737 -0.055409294 0.06114352 -0.058558986 -0.1024399 -0.034883562 -0.1160622 -0.054011427 -0.1263051 0.041254036 -0.1203793 -0.011733063 0.05744432 0.011839174 0.005049931 0.027786314 -0.052916445 0.022548242 0.022091461 -0.056789987 0.028671253 -0.17003329 0.13454954 -0.013142819 0.09358696 0.17697817 -0.023458743 0.08399706 -0.035376627 0.28575736 -0.1927462
i 0.04904598 0.0025920486 -0.04986721 -0.020413892 0.0020886022 -0.084133536 -0.061189827 -0.08461006 -0.20987126 -0.05045227 0.037944067 -0.05922006 -0.037013277 0.029059429 0.021467488 -0.073853984 0.13986489 0.0913873 -0.19983844 0.08379934 -0.018574297 -0.16117069 -0.110164925 0.090383425 0.015075059 -0.056949843 -0.056505546 0.110698156 -0.11595326 -0.063046396 0.15745899 0.09479734 0.100533396 -0.038572967 -0.035364963 0.12345207 -0.07883078 -0.24651496 -0.06746193 0.060397584 -0.07110178 -0.16056065 0.030358778 -0.075893074 -0.07852322 0.044319086 0.026403187 -0.18020187 -0.06625831 -0.13599935 -0.1504636 -0.08027865 -0.006584345 0.15198223 0.010918502 0.19827536 -0.15406968 0.048098158 0.17806463 -0.037305 -0.21683772 -0.2124637 0.03615872 0.01964442 0.071424074 -0.011000009 0.060703374 0.028518766 0.040608447 0.106063016 0.029737175 -0.19454013 -0.13706167 -0.18344346 -0.036498938 -0.016731955 0.012291786 -0.16533376 -0.05541109 -0.034899212 0.05482475 0.0036281229 -0.049604435 0.025228608 0.019730873 -0.11509874 -0.0260717 -0.040855877 0.14288795 0.18788722 0.07550022 0.090489656 0.03336797 0.08499553 0.07190998 -0.04236894 -0.098628186 -0.10309906 -0.034495577 -0.0070600896
sé -0.14972705 0.09268118 -0.114711635 0.01764385 0.12475125 -0.1351994 0.012559512 0.04952438 -0.002666772 -0.07368629 -0.083759904 0.051435735 -0.025098313 -0.037705835 0.15698013 0.20327942 -0.010877058 0.04956311 0.02167334 -0.022471081 0.082022995 0.04696845 0.3378292 -0.005132228 0.10053775 -0.04191226 0.061241515 0.11048751 0.042603895 -0.048744574 -0.016515143 0.008181728 0.21492375 0.002302957 -0.06349897 -0.0003764679 0.069951005 0.17412044 -0.052487012 -0.041415468 -0.1982855 0.05940813 -0.010440777 -0.052495845 -0.131639 0.06533004 -0.14824897 0.10936672 -0.0081701325 0.0032186834 0.03294799 -0.064561345 -0.15465494 0.029873617 -0.003300812 0.07974198 0.010099975 -0.0030420863 -0.12339924 -0.035212174 -0.025371665 -0.14554092 0.04524463 -0.05798458 -0.10745101 0.15553749 0.05468832 -0.10634686 0.007263974 -0.03250522 -0.030613787 0.1285402 0.01736148 0.05366779 -0.08083263 -0.0006323544 0.210002 -0.004930442 -0.022330768 0.12793513 0.16118957 -0.08521515 -0.0860809 -0.14619112 -0.16600762 0.118223965 0.2293153 0.053805593 -0.00724998 0.031985596 0.16724059 0.24620171 0.058862526 0.017879099 -0.025258135 0.04228532 0.019844998 -0.014621298 0.06553994 0.07969193
le -0.06498439 -0.04116005 0.021306014 0.10371748 0.24425077 -0.11767344 0.13735795 -0.081739984 -0.1136975 0.03428301 -0.067932926 0.018215908 -0.06939325 0.17971212 0.003634443 -0.09559241 -0.015833676 0.05571218 -0.112884946 -0.03815795 -0.11712418 -0.06871717 -0.08678023 0.09126126 -0.08053837 -0.1141947 -0.12488801 -0.04648309 -0.11646814 -0.042697486 0.085344315 0.07707766 0.05791104 0.059684034 -0.008420088 0.13608506 0.09453983 0.0272677 -0.0018870585 0.0100004 -0.10765804 -0.25120977 0.003312867 0.11628699 -0.032592624 0.060040053 0.23283742 0.07415709 -0.10147369 0.1265288 0.20181935 0.12926571 0.01819103 0.07284246 0.038489707 -0.003352604 -0.17390841 0.080134965 0.14865798 -0.077061415 -0.14406036 -0.017593283 0.16599014 0.13373283 0.013830901 0.03319894 -0.05422046 -0.054100223 0.01752814 0.057844646 -0.052889187 -0.029311845 0.12383214 -0.12403172 0.021585068 -0.046532247 -0.07046507 0.1601792 -0.021548968 -0.15613547 -0.08463314 0.10100589 -0.030491393 -0.0637114 0.034343973 0.048409227 0.080780536 -0.047773458 -0.16250911 0.015853785 -0.02197377 0.1688253 -0.07433503 -0.05257938 0.1543544 -0.02512732 0.0682638 -0.20989664 0.12293248 -0.024162823
ní -0.13840964 0.087657996 -0.009467774 0.020792801 0.11464502 0.014984191 0.056311194 0.049330395 -0.055532318 0.072100095 0.06573931 0.11048175 -0.077918075 -0.095928155 0.0025129884 0.029556569 0.024271913 0.13859394 -0.09902263 -0.035792243 -0.022094697 -0.03147259 0.032692797 -0.094450906 0.0016532362 -0.040850896 -0.05446099 0.25072724 0.091658525 0.0652096 -0.038085412 0.021268373 0.27868104 0.07196794 0.06763545 0.021169294 0.010949812 0.0028709471 -0.061930653 -0.0646209 -0.14586943 -0.11596581 0.083119325 -0.15789934 -0.055221435 -0.18257947 -0.06642791 0.063295916 -0.16501042 0.07344651 -0.06271916 -0.10785347 -0.029463837 -0.13098681 0.16717522 0.15710552 -0.09995839 0.065747134 0.23184116 -0.007085236 -0.12869337 -0.11825814 -0.0089776525 0.005542859 -0.16077593 0.0670346 -0.023062546 0.017163567 -0.04977621 0.057410896 -0.11378956 0.07717356 -0.1317489 -0.18537916 -0.07877125 -0.15698543 0.10782881 -0.0011753778 0.08152901 0.1813631 -0.13115165 -0.07275084 -0.058508225 0.041647073 -0.15382601 0.070905924 0.09309126 0.05306793 -0.006956882 0.1310032 0.105250254 0.10218076 0.17198592 0.03745382 0.042427972 0.121742174 0.0040239277 -0.015977593 -0.12332892 0.063825995
sin -0.05636958 0.13357717 -0.01471801 0.020279348 -0.087446555 0.019226538 0.057116296 -0.13934116 -0.14916378 0.18674356 -0.028274542 0.13502684 0.05022096 -0.05850351 0.14589344 -0.09802323 0.08058029 0.09852125 -0.062981986 0.056628745 -0.059908308 -0.104780324 0.048180785 -0.108680055 -0.09621876 0.08186823 0.0714067 0.09362374 0.14627282 -0.02504425 0.07442651 0.050559975 0.20258205 0.081438154 -0.00085834047 0.0513588 -0.09211504 0.008358886 -0.008362295 0.03270604 -0.16119662 -0.04753094 -0.09670824 -0.109800465 -0.07622173 -0.026505072 -0.13574602 0.0499927 0.015415843 0.03582351 0.17889003 0.122866996 -0.05462817 0.14020574 -0.09536583 0.16462499 0.1449201 -0.12563188 -0.05717083 -0.0083115585 0.095922485 0.048063695 -0.018831072 -0.115893215 -0.17569599 0.13386334 0.07585334 -0.0044782413 -0.021877201 0.1329954 -0.1847785 0.1335101 -0.03635001 0.18373333 -0.04561097 0.16441904 0.13059607 0.05765524 -0.044302274 0.039278146 0.16313307 -0.062480684 -0.021929359 -0.17938001 0.030904012 0.021211205 0.13677 -0.04953459 -0.19923759 -0.00059529237 0.07264418 0.10644796 -0.017158473 -0.11167701 -0.029384077 -0.017123375 -0.12813464 0.025181143 0.030436758 -0.1611045
is 0.07224557 0.06868381 -0.05988266 0.02795253 0.13301037 -0.054619752 -0.018035436 -0.04461743 -0.17867726 -0.008225722 -0.03404109 -0.022559358 -0.0030672783 -0.17898746 0.0334045 -0.030484986 -0.11193478 0.0014546206 0.04792099 -0.05240352 -0.12190645 0.08366813 -0.006923376 0.01886253 0.020552391 -0.006865977 0.06446253 -0.100383945 -0.05328092 -0.05831589 0.07265197 0.050635047 0.08026491 0.12226728 -0.07611715 0.16342348 0.2583608 0.104553044 -0.0029617806 -0.07325357 -0.059825115 -0.11853271 -0.14608343 0.14383782 0.015075358 0.17901331 0.08228157 0.043465678 0.12363809 -0.09529486 -0.057197474 0.02316458 0.0014654956 0.10786717 -0.15345486 0.32797498 0.019045705 0.05591114 0.16423896 0.1420507 -0.0893327 -0.105689704 0.17773007 0.10899505 0.032494593 0.13219981 -0.0055847173 -0.059848987 -0.06255364 -0.015385868 -0.2150768 0.057550326 -0.073245384 -0.080558866 0.1351867 -0.10559428 -0.057549592 0.056585778 -0.0132851 0.050926097 0.0074845203 -0.043310747 -0.09191037 -0.1464077 -0.0926013 -0.07709563 -0.019901924 0.024110796 0.008554638 -0.011491728 -0.017039074 0.26703393 0.058072984 -0.095587276 -0.14153221 0.043403137 -0.04252487 0.13625719 -0.034189332 0.05557847
é 0.040756006 -0.0069551608 -0.030543322 0.13004088 -0.023355076 -0.11117844 0.03898736 -0.016017688 -0.020486346 -0.021025488 -0.087622546 -0.046200812 0.0801617 -0.07675226 -0.039821375 -0.06915788 -0.10956863 -0.0793474 0.20092532 -0.057385698 -0.06414917 0.18048792 -0.095414095 0.15694146 0.0071519054 -0.04173386 0.15122588 0.060781542 -0.120508 -0.061629605 0.031505696 0.09731282 0.03883344 0.06369738 0.023586536 0.16549943 0.26401302 -0.048336316 0.00042628119 -0.05364187 -0.03448142 -0.10773671 -0.14769106 0.12212179 -0.08512321 0.12903039 0.07342453 -0.0028200308 0.21163525 -0.060088374 -0.10976805 -0.020962002 0.00927284 0.08552626 -0.1514396 0.30224335 -0.048132323 0.11438776 0.12466875 0.1166487 -0.24963354 -0.1363921 0.012829128 0.05359882 0.024140354 0.01138358 -0.124691956 -0.058391254 -0.007357831 0.020451339 -0.21777143 0.03757831 -0.07768253 -0.097325824 0.08005115 0.04180944 -0.12553626 0.037320834 0.025794724 -0.022827726 0.11160803 -0.013311417 0.08932958 0.044562895 -0.061497465 -0.094415784 -0.0040177465 0.10635776 0.02050832 -0.0064964797 -0.02573993 0.17507648 -0.018112574 0.013887963 -0.11497362 0.17906412 -0.024682743 0.06239936 0.08552022 0.03931974
mo 0.039604716 0.057323586 -0.10573195 -0.013338287 0.011960749 -0.09185258 0.045919612 0.0308558 0.038012184 0.050298303 -0.03494124 0.17331578 -0.007859354 0.008222823 0.033086818 -0.08721145 -0.06292184 -0.029364128 -0.028818281 -0.03032527 -0.20167217 0.11529872 -0.16515279 0.09303339 -0.00478184 -0.015849182 -0.07935134 0.035405762 -0.09320751 -0.0108764935 -0.045168336 -0.0016368438 0.02243619 0.20964722 0.040013492 0.054100607 0.23197128 -0.012925739 -0.098116055 -0.09575974 -0.18437815 -0.14021815 0.115963496 0.0026466222 0.043365076 0.00041167793 0.079017535 0.0055973325 0.13108934 -0.061622575 0.03211297 0.03584591 -0.020014599 0.032676827 0.025074046 0.047567945 -0.13346788 0.05515969 0.16936229 -0.0029911767 -0.17497884 0.017681316 0.10490635 0.1276576 -0.06211016 -0.13116091 -0.015728863 0.12143942 -0.050628882 -0.022857377 -0.026474575 -0.0017854362 -0.08403923 -0.15999658 0.023384042 -0.1454871 -0.11762147 0.12412072 0.062172733 0.10510238 -0.213187 0.014326368 -0.093606435 -0.17569427 -0.15484218 0.040009983 -0.089556575 0.16458136 -0.020688592 0.030166179 0.017106477 0.037979405 0.28822547 0.088594206 -0.105511956 0.25008053 0.049561393 0.035804573 -0.11010723 -0.11228071
ann -0.07274323 -0.012952109 0.01599905 0.022000547 -0.013013491 -0.068127654 0.078165576 -0.00014679086 -0.011621743 -0.034262948 -0.08949285 0.0514721 -0.048600182 -0.14906883 0.16842519 0.03593642 -0.045287754 -0.069239184 -0.23642626 -0.07455537 0.27133948 0.10760187 -0.016802032 0.03233217 -0.065206125 -0.0749157 -0.245953 0.00080843974 0.029210608 -0.0058771214 -0.1095647 0.17663151 0.037265316 -0.13833943 -0.12643026 0.05432179 0.09731732 0.18552579 -0.09904476 -0.07199853 -0.061172973 -0.17494991 0.07436058 0.012672166 0.11298819 0.09051537 0.14026134 -0.03526547 0.09702708 -0.080140844 -0.01629849 0.04002287 -0.10576708 -0.029024718 -0.045894615 -0.14435974 -0.15716958 0.019852437 -0.0008150623 -0.013461619 0.17790663 -0.064390905 0.08725502 -0.04517155 -0.00022947975 -0.12174928 0.0040932256 -0.00600392 0.014161248 0.0897626 0.13163745 0.063416794 0.0039591794 -0.025723876 0.08998106 0.09521666 0.21626043 0.15779114 0.013907843 0.16855699 -0.1304716 0.17924963 0.06901918 -0.06633509 -0.078532584 -0.14710449 0.07019889 0.03515126 0.08705123 0.017197382 -0.08924746 -0.09089081 -0.060413003 0.066519186 -0.042993877 0.07137226 0.14098796 -0.11469046 0.0783345 -0.10272057
gach -0.1553241 -0.021633422 0.09590109 0.014145322 0.087960474 0.11198181 -0.02763903 -0.008045133 -0.20021158 0.0054839826 -0.0414167 0.0505124 -0.06263895 0.027017208 -0.05600747 -0.040554803 -0.11267333 0.05763414 -0.03091451 0.062202875 0.10334605 -0.056497794 -0.15082154 0.14506358 0.10491222 -0.0704264 -0.11774854 0.045927916 0.09275816 -0.05867369 0.11020389 0.062110804 -0.11162056 0.020156827 -0.02587187 0.02689114 0.04508994 0.0008235091 0.21317382 -0.07494478 -0.06237903 -0.08489117 -0.042943906 -0.041099343 0.20917495 0.01476702 0.010927704 -0.030476118 -0.073738135 -0.08005667 -0.23952435 -0.07625304 0.1406218 -0.0737186 0.06613163 0.06901227 -0.17986393 -0.14458522 -0.049431834 -0.09942305 -0.0037609327 -0.14425842 0.09800497 0.16606872 0.20707099 0.117990226 -0.037982255 -0.009165997 -0.18234804 0.07187274 0.08882105 0.009552983 -0.04830736 -0.028489083 -0.06910068 -0.048502773 0.003607805 -0.24214812 -0.07006309 -0.10257304 0.009323266 0.011175295 -0.030836644 0.026868327 -0.04212859 -0.08681855 0.171087 -0.09840868 0.047059633 0.12545095 0.07797933 0.14613827 0.18212147 -0.022119967 -0.14135695 -0.22357044 0.0038541753 -0.037930146 0.0057551954 -0.05377964
ó 0.021763846 0.018572932 -0.01339686 -0.06645224 -0.33729288 -0.18173973 0.15284461 0.021208588 0.003665191 -0.009059888 -0.037233137 0.074087955 -0.023969991 0.03422565 0.0048981784 -0.026171137 0.09620934 -0.0015978183 0.033106193 0.029904589 -0.0879328 0.11767371 0.011090303 -0.064800926 0.06108771 0.13404274 0.05209522 0.02552479 0.09049107 0.045882147 -0.17270899 0.047306422 0.092790276 0.16752438 0.07316295 -0.012472835 -0.06968712 -0.018791948 -0.0103899 0.08303614 -0.124709606 -0.05626909 0.123277545 -0.044782616 0.00863952 0.013255112 -0.004035109 -0.06801252 0.19678459 0.007241735 0.06874199 -0.092128284 -0.08038141 0.16493745 -0.15483023 0.19024232 -0.10486513 0.023680571 -0.053499613 0.14293139 -0.08791205 -0.08748872 -0.109317735 -0.15299878 -0.18922122 -0.010320433 -0.11498808 0.20222698 -0.03265149 -0.020120671 0.12153631 0.069226705 -0.050337978 0.043162838 -0.04288504 0.02975821 0.10224042 0.11994427 0.05710812 0.10383791 0.14570133 -0.054710295 0.014414513 -0.07471807 0.03967938 -0.088285595 0.11760715 0.098638594 -0.03836481 -0.10951033 0.14633568 0.035061453 0.0057168873 -0.014388832 0.086444266 0.22277251 -0.05285181 -0.000281422 0.16981818 -0.19562179
d -0.033163596 0.029630935 0.0029741565 0.087763876 -0.14240253 -0.06409481 0.10629425 -0.08184359 -0.00031481983 0.03905927 -0.014865264 0.024964452 -0.025627133 0.14199279 -0.020748382 -0.16073057 0.061300945 -0.08189942 0.03797448 0.105706185 -0.027458958 0.018577872 -0.060033325 0.19228105 -0.1773105 0.01127015 0.04991014 0.0966689 0.079979576 0.16221742 -0.03447325 0.005714785 0.11923883 -0.014859155 0.09708106 0.21434908 -0.079290405 -0.05361998 0.0043290593 0.026437836 -0.024228489 -0.039980695 -0.12767066 -0.11341003 -0.06870343 -0.17157915 -0.20171888 -0.12434166 -0.0113111315 0.042352792 0.10740696 -0.07684564 -0.03272609 0.07094571 -0.06633086 0.13177608 -0.043034334 -0.14882237 -0.09847506 -0.024677044 0.20062202 0.1755855 -0.030885773 -0.12713729 -0.16740572 -0.011474512 -0.05333617 0.01190442 0.102887 0.11406752 -0.033783168 0.12141622 -0.076398544 -0.010009985 -0.0030127452 0.3111752 0.045500357 0.0652822 0.04290494 -0.050886 0.19121476 0.009599279 0.05376405 -0.03758665 -0.1542771 0.037121188 0.06080485 -0.0012335981 -0.21365197 -0.081431106 0.10540283 -0.14318645 -0.052114114 0.09989556 0.035696726 -0.008114474 -0.11176133 -0.01201402 0.058383714 -0.13165732
so -0.052372333 0.09173894 -0.17766075 -0.013159879 -0.117323 0.0016585413 -0.11037602 -0.10288949 0.08578178 0.17730328 -0.21395487 0.046401195 0.094215736 0.094006 0.10979619 -0.21343793 -0.015165691 -0.17130046 -0.057816274 -0.012628391 0.15694793 0.047464445 -0.085440114 0.0441286 -0.13361977 0.013792267 -0.2974605 -0.17259149 -0.15995999 0.08139039 0.005847293 0.07605005 -0.05386782 0.012077182 -0.017609559 0.034309924 0.062166512 -0.19167274 -0.06793352 0.0024256003 0.06650327 0.06030139 -0.14590682 0.009946656 -0.035626292 0.007319985 -0.014970668 -0.1715985 -0.044963617 0.0038893814 0.018023947 -0.102100365 0.02148998 0.06419852 0.0030725815 0.14939833 -0.0941446 -0.10373656 0.062084578 -0.02116712 -0.1313176 0.084355675 0.047956493 0.059064683 -0.0627641 -0.06079577 -0.01369177 0.103169404 0.16043277 0.05400845 0.07207724 -0.034020215 -0.117048785 0.10335886 0.023388023 -0.009067064 0.100805685 0.032757074 -0.061963737 -0.00390572 0.059703432 0.050529145 -0.02590037 -0.0626179 0.03197959 -0.07482226 -0.090616055 -0.033697598 -0.07346456 -0.01426041 0.14709274 -0.293234 0.058514528 0.16433845 -0.1381261 0.10022683 -0.030828742 -0.11954063 -0.04979437 -0.01548526
gurab 0.07770673 0.08208588 0.0041288426 0.048944205 -0.14432065 0.007381484 0.020622812 0.105523355 0.007193029 -0.12872447 0.0054656025 -0.06573012 0.0497387 -0.042042624 -0.00064465083 -0.114075415 -0.166737 -0.10659194 0.078129895 -0.057709 0.0525109 0.103096075 -0.25553107 -0.014118777 0.0483452 0.15471993 -0.04575085 -0.08253894 0.022260806 0.10579204 0.09170418 0.11707134 -0.031643 0.10869867 0.05121535 0.07059876 0.19496581 -0.12832671 0.030031603 -0.007072304 0.013635585 -0.043743476 0.023438115 0.06502433 -0.12016812 -0.06255828 -0.028519163 -0.08782305 0.12311517 -0.015917402 -0.034018498 -0.24061225 -0.088492185 0.19022946 -0.20110139 0.2426432 -0.13726567 -0.0011729558 0.09592006 0.06479722 0.0420679 -0.15893804 -0.008377518 -0.03867182 0.049453367 0.019406052 -0.005175439 -0.036888443 0.1146181 0.10259777 -0.05078833 0.16317688 -0.12370882 -0.035933204 0.005063686 -0.054004475 -0.20957379 0.010298278 0.08909327 0.040723644 0.09498332 0.030911552 -0.049584012 -0.015728537 -0.08241092 -0.095501035 0.024800863 0.089107834 0.0863117 -0.04301831 0.015266575 0.027818328 0.030401198 0.18421537 -0.10290539 0.21787803 -0.18674485 -0.0035615168 0.12632243 0.08925237
mar 0.20550612 0.099376835 0.14600067 0.060027767 0.0076148165 0.024716957 0.0029686994 -0.07257673 -0.033389878 0.08116003 0.04012214 0.01827595 -0.057967853 -0.13595855 -0.0892099 -0.22396931 0.17707174 -0.04448811 -0.20032257 -0.08559009 -0.043677088 -0.034526516 -0.3471534 -0.03288278 -0.13125192 -0.05681362 0.03357897 -0.008088196 -0.008941346 0.009616899 0.040610865 0.05664238 0.044701375 -0.053917628 -0.06513122 0.0155805955 0.01888636 0.0029219617 -0.108214006 0.029959355 -0.0042831684 -0.08410576 -0.10083712 0.010482522 0.09071493 0.009385972 -0.023956168 -0.042948168 0.15247737 0.029219037 0.016562562 0.16977638 -0.07664335 0.14823909 -0.01134504 -0.14847216 0.044865116 0.18410368 0.03314498 0.0006234062 -0.013715568 0.008019041 -0.024397502 -0.14695245 -0.19710293 -0.069508456 0.059713643 -0.052339993 -0.011801068 -0.04487286 -0.017411511 0.1864043 -0.09915189 -0.03208655 -0.10337158 0.030277256 -0.1167939 -0.03344236 0.06422291 -0.084682666 -0.22262688 0.06309137 -0.061298314 -0.011681154 -0.046177406 -0.0053018373 -0.15780579 0.105725124 -0.17235398 0.14641944 -0.16942236 0.06417805 0.01125738 -0.109131105 -0.057783652 0.0063751293 0.11344464 0.17122829 0.05641418 -0.07728111
ná -0.144611 -0.016701447 -0.00716848 0.02805365 -0.10489555 -0.16747873 0.076198995 0.13917877 0.002367356 0.06923017 0.0532927 0.14773728 -0.1104111 0.04814901 -0.016187375 0.095377 0.09776765 0.047767077 -0.03619247 0.025200825 -0.20970435 0.07934642 0.057760738 -0.111310266 0.003971435 0.01800394 0.039757177 0.0797723 -0.0611966 -0.09874481 -0.2621971 0.047999166 -0.003956415 0.14964794 0.1391808 0.056276437 0.063935466 0.014356579 0.04748933 0.038522393 -0.14785163 -0.08553469 0.12220293 -0.09112742 0.113295846 0.0055821156 0.10002593 -0.068090305 -0.026793672 0.010001775 0.012472475 -0.030212121 -0.0025442992 0.082572915 0.13387997 0.16513489 -0.1129234 0.012777434 0.08132796 0.023498826 -0.112280235 -0.017690295 -0.028404525 -0.054738384 -0.12119724 -0.019593209 -0.037251137 0.08323452 -0.12237147 -0.08021608 0.04643387 0.07601266 -0.13932039 -0.0097893495 -0.15939559 -0.08479946 0.032802742 0.16178158 0.101512395 0.17215315 -0.07209003 -0.20070657 -0.1453326 0.0023143091 0.065782465 0.022048369 0.16453321 -0.050192732 -0.015746316 0.09974084 0.12946522 -0.042033073 0.023235708 -0.17748612 0.105489336 0.15230043 -0.054859143 -0.055340525 0.038592126 -0.29747927
gu 0.083971895 0.06977201 -0.018812336 0.026976217 -0.16482022 -0.02349017 0.060832668 0.0894754 0.105137 -0.0114932265 0.035174616 0.115141004 -0.12208654 0.038735885 -0.13881071 -0.13812836 0.07756887 -0.023184143 -0.13159792 -0.12404403 -0.08277771 -0.002877168 -0.18730356 -0.05669195 -0.03964479 0.13594532 -0.13255198 -0.0736787 0.06415919 0.06311933 -0.105751745 0.103224605 -0.08143196 0.02309576 0.014024501 -0.04512496 -0.04218954 0.056666467 -0.12361033 0.058817886 -0.08430831 -0.045017026 0.100815326 0.033078406 0.08892294 -0.11241988 -0.06037681 -0.07042727 0.16095695 -0.0031736623 0.039290942 -0.16549556 -0.13512942 0.0097623365 -0.0928156 -0.012932272 -0.2259066 -0.0011244596 -0.1742534 0.090365596 0.101501405 0.13015911 -0.1031857 -0.0843979 -0.1587691 -0.091080695 0.06221651 -0.08664509 0.038367722 0.028034706 0.14928015 0.06404299 -0.27272913 -0.032473486 -0.079175115 -0.098453544 0.03540843 0.18444112 0.06325678 0.098535955 -0.11401734 -0.084628396 -0.057599824 -0.18152496 0.041383423 -0.026761658 -0.029059693 0.0046903645 -0.13041748 0.11467076 0.057709057 -0.19718409 0.10973881 6.800522e-05 -0.121341616 0.14938875 -0.11901294 0.0040735602 -0.034369443 -0.006991604
raibh -0.098638184 0.08817853 0.06874713 0.041787732 -0.034032885 0.12207071 0.06566177 -0.039910655 -0.022533907 0.20487109 0.1274681 0.0543373 -0.1372977 -0.13748416 -0.19606921 0.05957779 0.16004877 0.011309569 0.15166837 0.0017133603 0.0074984054 0.07515523 -0.16596422 0.020740852 -0.10789916 0.08939547 -0.07810164 0.06932964 0.102966115 0.040297933 -0.092222705 -0.00949039 0.15687679 -0.0058190823 -0.15277314 0.014899177 -0.024755988 0.046267938 0.019804772 0.0028890856 -0.1821491 -0.027828721 -0.13871975 -0.021327797 0.045631103 -0.055488583 -0.004797757 0.15096891 0.04489782 0.1289318 0.051185194 -0.19418785 -0.12831837 0.16159514 0.12153375 0.14055113 -0.0020127704 0.09566474 -0.19955719 -0.00034761065 0.1158806 -0.039700117 -0.045844562 -0.030720873 -0.13124183 -0.058184046 0.028792769 0.08276842 -0.07017135 -0.026454829 -0.05149934 0.2515741 -0.047936115 -0.0158241 -0.039349064 -0.0073412755 0.10747214 -0.082594 0.074341 0.039224565 0.07134266 -0.1643602 0.07120569 -0.039332155 -0.09614646 -0.035854284 -0.120175 0.07490301 -0.11396657 0.017910454 -0.12487401 0.056086835 0.08072356 -0.18839996 -0.031753287 0.06702012 0.11458054 -0.03249963 0.19656274 -0.10783705
dá 0.029051151 0.12843846 -0.033903446 -0.005705304 0.2540953 -0.01717168 -0.07314321 0.019071266 -0.056822494 -0.07068985 -0.036744554 -0.024016751 -0.089077435 -0.024139937 0.054616965 -0.11145238 -0.011942121 0.11363249 0.01088868 -0.03267469 -0.007706115 0.009048703 0.15589699 -0.020106494 0.037482433 -0.043248463 -0.15585612 -0.15039565 0.08010035 0.022350084 0.19466731 -0.13685271 -0.07448163 0.0022579597 -0.048203595 0.15472306 -0.040550753 0.21008994 -3.3259254e-05 -0.16072075 -0.16171831 0.008352537 -0.08720164 0.14212938 0.00037888126 0.04511524 -0.16700785 0.06582372 0.04982256 -0.058928426 0.013542762 -0.019744683 0.016018892 0.07245409 -0.11501545 0.00393989 0.020168176 -0.17026876 -0.08357291 0.090870306 0.15188496 0.05485676 0.29555288 0.10829231 0.1039836 0.16353932 0.15211537 -0.04043928 0.09808748 0.022412745 -0.007648489 0.031810537 0.0027728672 -0.009331014 0.07654921 -0.07092773 0.038607128 -0.0880022 0.0246936 -0.020332202 0.028190041 0.17049256 0.0005087487 -0.057574775 -0.081082575 0.02757266 0.043287635 -0.07284298 -0.0071747424 0.027329082 0.11298217 0.2559019 0.1491963 0.18374655 -0.16847433 -0.07894494 -0.041922484 -0.0064636143 0.029766029 0.14962809
ach -0.20565791 0.11600053 0.094582 0.035434082 0.012530889 0.016372163 0.14329897 -0.10053998 -0.20520401 0.018893696 -0.023730254 0.13325448 -0.0035968705 0.036125038 -0.029969465 0.036558636 0.077050515 0.11399587 0.0073424303 0.027611276 0.0049388474 -0.022534138 -0.04961137 0.17522128 0.017612789 -0.06431572 -0.092177704 0.18373758 0.004847259 -0.10574059 0.13717519 0.099565476 0.14080419 0.109047905 0.022486443 0.056429975 0.07456348 -0.083082646 0.047427997 -0.059421524 -0.23091678 -0.070187114 0.028339548 -0.11949373 0.09854938 -0.0008827809 0.11636142 0.121261254 -0.09266342 -0.0075163445 -0.12004422 -0.09596348 0.19733547 -0.19726624 0.07933081 0.10680192 -0.12497247 -0.05246704 -0.052558295 -0.09535679 -0.15824628 -0.11494913 0.0067256475 0.26800057 0.062387813 0.0133497985 0.0019864484 -0.014982401 -0.097857125 -0.034445815 0.14814007 -0.029998442 -0.03151015 -0.034099072 -0.08779986 -0.15514001 0.12483022 -0.15258874 -0.031034876 0.047217697 -0.08851018 -0.04064629 0.00033734727 -0.045662846 0.06374937 0.12783937 0.16154252 0.063302286 0.027254602 0.17322989 0.079978496 0.023837917 0.04885485 -0.06068719 -0.011653379 -0.111922085 0.11977518 -0.08928049 0.100726925 -0.023701508
nach -0.17232491 -0.005208562 0.07134791 0.10080777 -0.0111823315 -0.030619979 0.10809787 -0.1383259 -0.061564524 -0.079171814 -0.034611244 0.07579745 0.0392826 0.10732877 0.015663845 -0.03581389 0.0079084765 0.056199506 0.036566313 0.056470957 0.029563256 -0.045140155 -0.1524194 0.19816369 0.078813195 -0.031244447 -0.014175468 0.19272009 0.010945428 -0.082519375 0.103116944 0.17851 0.06783433 0.23129684 0.11144933 0.044162564 0.13621648 -0.1801601 0.11728692 -0.035032388 -0.1598835 -0.13005272 0.035320856 -0.08958504 -0.02769847 -0.041311495 0.098588236 0.082673565 -0.067189686 -0.024852514 -0.06052884 -0.0153925605 0.26869813 -0.12903963 -0.02205926 0.18350601 -0.17458488 -0.038688324 0.057403475 -0.07850886 -0.22745569 -0.19345927 0.01790452 0.21095367 0.031238956 -0.016233034 -0.07412711 -0.029517017 -0.12562643 0.017057663 0.088392325 0.023353739 -0.00080271164 -0.1095284 -0.07917442 -0.07431064 -0.0417701 -0.06356819 -0.04339442 -0.15187673 0.061994683 0.062610686 0.0076858066 0.05513951 0.023980498 0.063921764 0.20735018 -0.011753226 0.07261642 0.047093026 0.0043255882 0.05117253 0.056881055 0.077229045 0.0923347 -0.08056191 0.11092704 -0.025245208 0.110935844 -0.053994473
fhios -0.061824072 0.046385538 0.034079578 -0.035502903 -0.06493311 -0.14772712 0.1872953 0.04862347 -0.080647275 0.016195264 0.1637949 0.08359311 -0.12877059 0.06927293 -0.10514371 -0.0031764633 0.098439164 0.06980119 0.018341277 0.0358393 -0.02270251 -0.027052358 -0.016701974 0.08167751 -0.03477872 0.12687035 0.070828944 0.047146022 0.090278074 0.14053515 -0.016093306 0.07274365 0.21901502 0.12880647 0.01939008 0.04439441 0.04429995 0.05895829 -0.15692733 0.10604843 -0.11916592 -0.078715935 0.023602232 -0.12819166 -0.086368494 -0.14036097 0.01648879 0.1129645 0.001192278 0.15826683 0.055669807 -0.2650291 -0.055814136 -0.008827622 -0.0036675273 0.34005368 -0.13140184 0.10860101 -0.056950584 -0.0035809474 -0.01294324 -0.03535923 -0.118265264 -0.04589577 -0.11405147 -0.06397876 0.035088055 0.0074076587 0.016702231 0.060353767 0.05578909 0.010178222 -0.15031558 -0.13943745 -0.02397696 -0.18459928 0.12918106 0.10142261 0.20345898 0.16811058 0.004783045 -0.11798106 0.0650055 0.015686989 -0.047743935 0.04103305 0.10984254 0.050010893 -0.02691983 -0.060491618 0.15414473 -0.008094497 -0.034411483 0.0012918528 0.14855304 0.04258862 -0.040358033 -0.06535113 0.15726838 0.012600671
féin 0.011317449 0.058993384 -0.04218676 0.05141107 -0.053042922 -0.0764283 0.046928357 -0.12815759 0.013775803 0.08000548 -0.029242747 0.029304039 -0.0008636539 -0.09688374 -0.09529675 -0.040588222 0.09300764 0.11587509 -0.036336545 0.06436158 0.09453087 0.09214481 -0.12621212 0.18252781 0.08923029 -0.048392583 0.16029277 0.13724965 0.030541582 -0.018279389 -0.09679751 -0.027278403 0.19332677 -0.02145996 -0.063255414 0.026746584 0.11219875 -0.015613312 -0.10323216 0.10240535 -0.1207584 0.035273377 -0.14593375 -0.10723679 -0.044031963 -0.0080417115 0.01209131 -0.01311003 0.10896703 0.021565419 -0.034451455 0.06714767 0.1027779 -0.069799505 -0.013890555 0.10540195 0.08900233 0.084701404 -0.020565629 0.08277334 -0.27923992 -0.012854627 -0.10827278 -0.036397517 -0.09437471 -0.002945492 -0.003839755 0.040219326 -0.11787833 -0.112351805 -0.05993575 0.19744317 -0.19773631 0.06986148 -0.12209083 -0.052282277 -0.12083984 -0.3197703 -0.08816723 -0.091689646 0.012346705 -0.023398835 -0.0005446204 0.040997732 -0.043920513 0.16013674 -0.036721777 -0.07256316 -0.076219715 0.12887093 0.040740464 0.22828807 -0.08876282 0.1921467 -0.080685906 0.14078431 0.011574257 0.099238515 -0.118173026 -0.08888132
dochum 0.14446642 0.07837872 -0.008202691 0.060535952 -0.1392603 -0.11407108 0.12333584 0.061916217 0.0048188837 0.03146614 -0.12974794 0.04426178 -0.18381217 0.03238709 -0.15001689 0.006933166 0.03803303 0.0032789847 -0.17095798 -0.18302642 -0.10162131 0.072092466 -0.16840968 -0.08837646 0.10152645 0.09115607 -0.094512254 -0.060064152 -0.053914074 -0.026794663 -0.19157942 0.02239322 -0.14654295 -0.04994843 0.054451957 0.04075836 -0.035600677 0.015796585 -0.09521021 0.08067636 -0.11232218 -0.09320816 0.08009235 0.08977456 0.058438376 0.016125422 0.08834263 -0.12609284 0.18073428 -0.027818203 0.062305015 -0.030524077 -0.027701642 0.088464215 -0.07709241 -0.05249975 -0.21187554 0.01748719 -0.16695847 0.12985274 0.002860012 0.12091421 0.056707792 0.00062347157 -0.06289496 -0.0113698 0.0063690357 0.056148533 -0.0751253 -0.07785062 0.12341228 0.11474531 -0.17813545 0.13015865 -0.036662113 -0.054634403 -0.07059846 0.20008501 0.017759345 -0.017522482 -0.19544765 -0.077572055 -0.022720203 -0.14272884 0.098942235 0.061265998 -0.16298611 -0.06625803 -0.113802016 0.102496594 0.081887 -0.090828024 0.0063305874 -0.023148362 -0.13052478 0.21883853 -0.014665596 0.118971296 -0.0045410744 -0.081515655
air -0.011344766 0.09374061 0.08480897 -0.07883033 0.07581851 0.10473157 -0.04004339 0.1262504 -0.10152887 0.06250869 0.010502464 0.02695765 -0.008533746 -0.04984689 -0.16174538 -0.03257298 -0.12759712 0.05522394 -0.1037214 -0.0463754 -0.18051384 -0.06729312 -0.14268932 -0.06746881 0.058792066 0.09012823 -0.19196053 0.07301877 0.026421888 -0.060481124 0.1415119 0.04672627 0.05505772 -0.06304856 -0.041419458 -0.09059235 0.023377517 0.039529804 -0.091487296 -0.00649869 0.04131859 -0.031382974 0.004606113 0.17157342 -0.08904909 0.0006817451 -0.08106913 -0.031519447 0.03958283 0.018636066 -0.14552358 -0.117003225 -0.13288087 -0.05414866 0.099174224 0.18905848 -0.21727568 -0.031064786 0.18484916 0.12848093 -0.14657943 -0.1414596 -0.025457203 0.13662584 0.00218902 0.17775755 -0.13815328 -0.023921506 -0.15318665 0.017464394 -0.13422377 -0.06116682 -0.011268501 -0.12066167 0.013014115 -0.015255334 0.088411495 0.030088693 -0.19372578 0.21804604 0.122933574 -0.15158375 0.021875318 -0.039130427 0.0374127 -0.067632414 -0.049865015 -0.08482638 -0.00050360395 0.103698306 0.09083298 0.027302884 0.17648944 -0.09522047 -0.11776651 -0.0021039485 -0.03995235 0.12663405 -0.16492273 0.07865667
lá -0.11047261 0.044456266 0.17108826 -0.009602708 -0.0658843 0.097754665 0.06333484 0.09843419 0.01873174 0.038776502 0.07541654 0.044888765 -0.15447024 0.021345418 -0.037098046 -0.030247424 0.046600748 0.044301946 0.12450315 0.10226869 -0.338719 0.07894631 -0.16589962 0.06407099 -0.18343152 -0.05100635 0.027087793 0.18943201 0.013927654 -0.052086182 -0.04339511 0.019005409 0.12835062 0.021814395 0.076166674 0.1400023 0.06928504 0.021275131 0.047269527 0.046538893 0.035059012 -0.17410906 -0.06598787 0.015763894 0.0014031531 -0.06476728 -0.00537026 -0.05505135 0.044551637 0.020644305 0.03730162 0.040882315 -0.00014110733 0.09657643 0.08026854 0.040316 -0.115141116 -0.03570325 0.1646487 0.1416043 0.022386564 0.055984456 -0.011054211 -0.028910842 -0.08227238 0.04360314 -0.18055339 0.044592056 -0.1378286 -0.06951772 0.035572857 0.09955552 0.044204842 -0.12702207 -0.0042424835 0.20371024 -0.004622561 0.21169779 -0.05512144 0.013645961 0.116627365 -0.18936999 0.00030266028 -0.009081845 0.005390614 0.0040776106 0.1432225 -0.19693139 -0.13363369 0.102888234 -0.094292805 -0.056657992 -0.07859976 -0.121201426 0.04513803 0.044149064 -0.02045745 -0.14195369 0.017327428 -0.25756875
d'á -0.011553294 0.006022376 0.063124545 0.030438704 -0.03941651 0.033337906 -0.06700147 -0.077755705 0.01841983 -0.07567788 0.006661229 -0.01162981 -0.0017395414 0.053298112 -0.0052592666 -0.10370647 0.060388505 0.01022124 -0.019205982 0.033015773 -0.16284871 -0.07792061 -0.22252166 0.006134881 0.052701157 -0.057359762 -0.044619527 0.014951094 0.021882137 -0.1993566 0.3104451 0.0037428443 0.01695688 0.09346714 -0.003901102 -0.09006553 -0.09252373 -0.094250865 -0.16840787 0.055678573 -0.07880873 -0.020318333 0.08739351 0.21083362 -0.21106571 -0.016189054 -0.08783446 -0.057201806 0.103627615 -0.032215253 -0.03711769 0.06999793 -0.061248813 0.1885447 -0.0055932472 0.020584047 -0.13015442 0.066713825 0.062095407 0.10298385 -0.15870029 -0.16548635 0.056080684 0.07135089 -0.064690195 0.04225149 -0.07039407 -0.0408885 0.025460195 0.0071162204 -0.082847424 0.021001931 0.15453626 0.09073908 0.08480966 0.049452715 -0.019945934 -0.06470595 -0.12119922 -0.28478923 0.12720934 0.0797378 0.03387467 0.039023567 0.009370133 -0.059273403 0.14710276 -0.06125903 0.08864327 0.14853705 -0.112389944 0.08351813 -0.013925248 0.17001352 0.097052895 -0.061269 -0.019762602 0.0650763 0.24268837 0.14934191
rabh 0.0030536018 0.16534512 0.0011491323 -0.019878361 -0.23319963 -0.032465972 0.09218025 -0.1320704 -0.26966628 0.061206955 0.02270664 0.06260737 -0.029161695 0.053094476 -0.118770726 -0.066217504 -0.0060612033 0.06968072 0.09266523 -0.03846759 0.036431227 0.06019807 -0.117725536 0.123029865 -0.155068 0.103553854 -0.08899846 0.20021681 0.15032002 0.14366783 0.050825704 -0.14144598 0.12873153 0.014339147 -0.075539626 0.20630339 -0.06533494 -0.05113714 -0.08571097 0.016277896 -0.10529936 0.01540883 -0.026708411 -0.111346915 -0.17876405 -0.21487986 0.04186499 -0.048337527 0.14194304 0.10440108 -0.09287872 -0.18661065 0.016000327 0.057236396 -0.12525481 0.07500324 -0.08586634 0.10061888 -0.12464583 -0.012084425 -0.042930778 -0.058404457 -0.12666564 0.07939725 0.07191885 -0.071945556 -0.02383246 0.19071525 -0.025959833 -0.0010168813 0.1166669 -0.019925129 0.031378534 0.057045978 0.07011357 0.065028556 0.037073135 0.032502405 0.10927751 -0.09967923 -0.07673041 0.028394317 0.08977824 0.079119004 0.0037561327 0.015214937 -0.16037431 0.03039071 0.13747084 -0.09234141 0.05583259 -0.0709438 -0.01767315 0.101774424 -0.0067030867 0.08582016 0.103534944 -0.10758629 0.123311505 -0.0725538
eile -0.029787265 -0.017321097 -0.038842414 -0.046993036 0.33784908 -0.039097123 -0.086908005 -0.032028586 -0.0801927 -0.007605986 -0.04638853 -0.028096665 -0.16450961 -0.031504385 0.045301992 -0.1152746 -0.16410264 0.01409989 -0.16452064 -0.086853035 0.0015521243 0.053175025 -0.06489049 0.048592996 -0.010027536 -0.091331005 -0.11888326 -0.12807073 -0.022380365 0.041636195 0.018808104 -0.06317567 -0.039415296 0.0099361725 -0.10556328 0.044213176 0.018363675 0.1870452 -0.18804124 -0.113210455 -0.015531417 -0.09394374 -0.03926523 0.08438008 -0.002493586 0.06595075 0.046037473 -0.030965103 -0.09027204 -0.06986377 -0.013431684 0.061295398 -0.045046475 0.043284632 0.036808822 0.082187265 -0.14526208 -0.017728655 0.12254806 0.031055609 0.101311564 0.015492468 0.22482893 0.20437832 0.025699252 0.06308392 0.027804924 -0.049990773 -0.028031088 0.06469198 -0.26249155 0.0038566655 -0.09902438 -0.12448805 0.120615624 -0.09324253 0.019138528 0.10732404 0.023385009 -0.05735908 -0.036319617 0.060259286 -0.11832721 -0.13508244 -0.23027775 0.015186037 -0.06067864 0.046118524 -0.05231754 -0.035062782 0.05205306 0.19845434 0.08738209 -0.012265283 -0.13956091 0.03719672 -0.048059978 0.13507193 -0.14105158 0.2263178
aige 0.00683076 0.16944167 0.10341322 0.06524442 0.027240764 -0.09143654 0.227493 -0.010675445 -0.19134293 -0.07284544 -0.041411735 -0.037064966 -0.047591563 0.17151651 -0.012388892 -0.012062955 0.011730311 0.15533322 0.08689046 -0.044566043 -0.091682486 -0.041793153 0.065325506 0.18535747 -0.063456394 0.03471836 0.14304534 0.13942629 0.08103892 0.017695887 0.10289597 0.025322352 0.25067797 0.03430768 0.06464395 0.26114964 0.03665224 0.06929886 -0.028349917 0.001668144 -0.11073316 -0.12866364 -0.11156055 -0.012857232 -0.2558061 -0.20900562 -0.03194581 0.0896997 0.07931748 0.14176401 0.039596163 -0.12100392 0.079815626 -0.05873616 -0.19660796 0.13576701 -0.08396182 -0.07638376 -0.062492415 0.06971336 0.022204084 0.02695746 0.0022467468 0.07726154 0.0067433803 0.005083655 0.0069904556 -0.08130732 0.074185215 0.13069193 -0.002005393 -0.1346087 -0.005507858 -0.006585387 0.00036619903 0.016752824 0.087139614 0.19425921 0.023373185 0.037682362 -0.0086773345 -0.06543389 0.13426496 0.026298577 -0.01747254 0.05813601 0.13123117 -0.03697542 0.044616565 -0.11811822 0.08930511 -0.03470223 -0.07598 0.00604293 0.07625464 -0.009027652 0.04174304 -0.1406862 0.17433353 0.044796344
duine -0.28147548 0.11371643 0.15469828 -0.10380933 0.048535388 -0.06565464 -0.0906555 0.16907291 -0.05599641 0.014311573 -0.076806076 0.15539029 -0.21858658 -0.08209557 -0.008832891 -0.03695902 -0.06257526 0.0010299052 0.046129867 -0.054198477 0.047626216 0.17292157 0.041270036 -0.042381212 0.054415792 -0.041441705 0.0066625723 -0.008125249 0.15594815 -0.038364884 -0.13803113 -0.09601075 0.04493723 -0.049680244 -0.019865561 0.0010921613 0.05020686 0.34542882 -0.09380764 -0.06396653 -0.1365289 0.034360733 -0.10323836 -0.04351391 0.012933076 -0.08620659 -0.013547765 -0.046557397 -0.014603968 0.0814429 -0.19478935 -0.025128935 -0.04266568 0.036998753 0.15899102 0.061981384 -0.03761136 -0.008857172 0.014617484 0.13590068 -0.005173777 -0.051864263 -0.022390526 0.008334633 -0.051217087 0.13395357 -0.03609396 0.15441564 -0.13576795 -0.09625532 -0.06463627 0.16563602 -0.08893232 0.17291328 -0.13004048 -0.020742156 0.18717155 -0.019602286 0.0891891 0.043266945 -0.014723934 -0.07674314 -0.07848291 0.088469416 -0.15758874 0.090899445 0.1501479 -0.04284221 -0.030541526 0.066814154 0.12178384 0.15855993 0.0022291094 -0.062427204 -0.08057323 -0.00045647458 0.062106747 0.013128191 0.10411335 -0.007556349
as -0.09992909 -0.04790296 0.029899966 -0.0429112 -0.06000554 -0.049075257 0.10426809 0.018672673 0.14796515 -0.06936435 -0.010557903 -0.020413108 -0.023811506 0.1392012 -0.16544835 -0.19196557 0.07545024 0.004291075 -0.05097906 0.006515599 0.11486892 -0.016560199 0.02161801 0.24516037 -0.09070528 -0.05551136 -0.034383714 -0.031639528 -0.12421733 0.16184704 -0.16454051 0.11844258 0.08828014 -0.18040612 0.06991583 0.01889246 -0.054113418 -0.16742454 -0.029516652 -0.04490521 0.036504768 -0.076498784 -0.116123274 -0.1581815 0.04537172 0.010160223 -0.111634575 -0.14285302 -0.115235254 -0.10828333 -0.05932383 -0.04369207 -0.0044087274 -0.03277282 0.10225233 0.20023468 -0.12504043 -0.10639973 -0.00041134583 -0.0610184 -0.02918849 0.09843681 0.10403481 0.08263974 -0.016705278 -0.1433345 0.098801024 0.11478454 0.054543313 0.08085597 0.100073695 -0.06531724 -0.24664594 -0.05525526 -0.049660545 0.06760027 0.15371424 -0.10899934 -0.00094583665 0.102103144 0.16499488 -0.0696087 0.09550235 0.018721605 -0.016013786 -0.085039556 -0.13351128 0.18941009 -0.12624504 0.014520975 0.1598434 -0.11468368 0.09781167 -0.019763619 -0.013801349 -0.010968446 -0.044887956 -0.05273461 -0.13991624 0.002144134
leis -0.028118398 0.13115455 -0.031658683 -0.00040771413 0.07146129 -0.09003514 0.096756965 -0.061752196 -0.23370284 0.09923428 -0.032361336 -0.0056965025 0.013480523 -0.0060774665 0.022411367 0.12373012 -0.013208409 0.17656274 -0.21885122 0.07131023 0.08151979 -0.12113543 0.14619823 0.033831697 0.013535295 -0.1010567 0.053025916 0.10589663 0.033084236 0.027735347 -0.0023468018 -0.043029457 0.24331205 -0.04709345 -0.10351396 0.0113251265 0.116325945 0.1632906 -0.07420685 0.07579667 -0.044925578 -0.0836669 -0.11597616 -0.04647477 -0.076830834 0.008263603 -0.06842002 0.050643332 -0.11297337 0.109002605 0.03252557 0.1362567 -0.06957459 0.0194778 -0.035490092 0.14140143 0.17049979 0.03930353 0.010197991 -0.0015158893 -0.1690469 -0.1063423 0.14207529 0.12985507 -0.041691802 0.11650191 0.05691567 0.0063166455 -0.13820106 0.039323766 -0.1950624 0.050203897 -0.051080443 0.280466 -0.044780817 -0.013384142 0.14024241 -0.053598534 -0.13169314 -0.008268284 -0.037044056 -0.043117616 -0.05847296 0.02088799 0.038427435 -0.037468802 0.05351742 -0.08790424 0.06380188 -0.057676043 0.06877317 0.32521453 -0.057512995 0.004193828 0.124111995 0.094614595 -0.0077332444 0.012452191 0.031085541 -0.07909139
trí -0.030133646 0.12659825 0.010398131 -0.03375619 -0.095435984 0.07718791 -0.041973714 -0.052250665 -0.10361936 0.10860936 0.1016519 -0.031075379 0.03359683 0.022006052 0.011416217 -0.16549435 0.013017059 -0.038178023 0.022285348 0.08207731 0.11055344 -0.13165769 -0.050851382 0.08511648 -0.14302225 -0.0630216 -0.27684543 -0.07107575 -0.1282624 0.20663707 0.24653888 0.0045472076 0.03375837 0.020445991 -0.055854443 0.035599712 -0.06324622 -0.056394275 -0.07270911 0.025112705 0.122044675 -0.03707251 -0.061252892 -0.011813145 -0.028035047 0.027419563 -0.12819095 -0.015700754 -0.13276054 0.06633302 -0.06418303 -0.17123502 -0.0076583303 0.10898081 -0.10520262 0.23163077 0.018844742 -0.05427201 0.03826191 -0.05191657 -0.061455056 -0.021495095 0.14361133 0.09166087 0.017343873 -0.056047894 0.08037828 -0.01804388 0.17270383 0.14127211 -0.06417339 -0.07669953 -0.09002847 0.009700399 0.08316542 0.18139648 0.13448305 -0.040550232 -0.03742972 -0.10760019 0.16931054 0.08365156 0.05598947 0.1949601 0.08226975 -0.14220533 -0.036390144 -0.11874736 0.06957296 -0.053494096 0.070093974 -0.08049006 -0.09444953 0.15584171 0.055480987 -0.020924466 -0.086403996 -0.19979532 0.12128211 0.08264439
mé -0.013843079 0.011822315 -0.06417301 -0.12094447 -0.13307323 -0.075600185 0.10570281 0.08398156 0.15340114 -0.021594679 0.027035391 0.12658696 -0.13407977 0.023951538 -0.025731346 -0.038446583 0.06871145 0.047296755 -0.14182803 0.03556091 -0.19001286 0.0042303093 0.02698236 0.059918202 0.009393874 -0.0088357795 0.019844763 0.0050898367 0.0026630743 0.14396271 -0.095994584 -0.010114411 0.20551774 0.07010345 0.10788829 -0.0028425893 0.09493912 -0.11139368 -0.025928488 0.0002178186 -0.1001614 -0.20316237 0.02870191 -0.12962452 0.047552686 -0.1214045 -0.036051504 -0.12873143 -0.043772247 -0.04090754 0.059786584 -0.07838121 -0.16692546 0.08410324 0.09859559 0.05042217 -0.1293796 -0.085492685 0.05686052 0.06490029 -0.022405673 0.048312213 0.084902465 -0.074773185 -0.113859385 -0.18568097 0.06298649 0.18221006 0.010203272 0.0416335 0.10460931 0.051491372 -0.13930087 -0.022721492 0.09323352 -0.024173895 0.03536711 0.04818394 0.020118875 0.16836376 -0.12078085 -0.14248216 -0.09184825 -0.26006228 -0.1121684 0.03479122 -0.14533412 0.10436564 -0.10230148 0.10029568 0.11659991 -0.0845925 0.22382128 0.09596065 0.052841756 0.09993291 -0.07726541 0.06390632 -0.17218512 -0.12119766
gur -0.00086794456 -0.10710479 -0.036168125 0.036479615 -0.04009671 0.047440175 0.0058520576 0.17162654 0.043119293 0.0339341 0.1829116 0.03465694 -0.094886124 -0.0030807634 -0.15590185 0.023480952 -0.0014897203 -0.038042814 -0.11515351 0.059939098 -0.08482288 -0.10676961 -0.06917762 -0.11083323 -0.064955816 0.039805755 0.0010562071 0.013904793 -0.031593908 0.12961283 -0.060651187 0.02414305 0.018360423 -0.06120499 0.12730767 0.07357962 0.07364666 -0.07536908 0.09570641 0.0745127 0.053897955 -0.12212308 0.07892669 -0.13598013 0.056516122 -0.102324985 -0.036094867 -0.23131818 -0.22115234 0.05471331 0.08741066 -0.13987975 -0.1489037 0.16004075 0.101219274 0.11221603 -0.16607602 -0.05866253 0.07280553 -0.11397601 0.1852039 -0.03339453 -0.006789482 -0.16629761 -0.049987476 -0.08857879 0.043249607 0.019635774 0.042404078 0.17337668 0.009372489 0.14870544 -0.15063936 -0.15877222 0.011539275 0.09690779 -0.13332385 0.0035843297 0.07967822 0.094654925 0.016739918 -0.118239306 -0.017276598 -0.00793812 -0.07710859 -0.051829398 -0.08564365 -0.11602263 -0.053287275 0.10820226 0.098183036 -0.08351296 0.06260998 0.049497414 0.09175141 0.08082725 -0.29075643 -0.06596474 -0.14217244 -0.10706496
aon -0.08294326 0.089047454 -0.029886218 -0.020835578 0.21527375 -0.105547786 0.051187687 0.012241053 -0.1083416 0.22126871 -0.020605922 0.12883775 -0.16737904 -0.13854024 -0.1271747 0.065226026 -0.07520621 0.09046897 0.04458123 -0.006495838 0.044634793 0.070311785 0.19000943 -0.067880146 0.0068252715 -0.17196436 0.054201562 0.08461083 0.058337223 0.05265926 -0.017739534 -0.102192506 0.2148751 0.02051444 -0.044282205 0.12899275 0.08750958 0.28925025 -0.074995734 -0.042801715 -0.06071382 -0.07000491 -0.08155886 -0.087032236 0.005394973 -0.018913511 0.079865515 0.15927225 -0.1098624 0.18930772 0.005827445 0.010842218 0.024623016 0.0018332668 0.119596556 0.09932347 -0.038201008 0.08390963 -0.045952667 -0.051340673 -0.112201855 -0.06566087 0.114388816 0.03546728 0.00434103 0.0635694 0.046662007 -0.065584525 -0.10500432 -0.023175225 -0.16456202 0.10965011 -0.012385643 0.015130854 0.09956331 -0.081674285 0.17515497 -0.048903294 0.10829302 0.07891899 -0.14997993 0.010918202 0.07690276 0.07876842 -0.12168043 0.064384624 0.0029260304 -0.0012443728 -0.016617188 -9.826523e-05 0.17178684 0.2708865 0.010229755 -0.01406847 0.020836836 -0.0059981816 0.1517625 0.075432524 0.019910676 0.07674781
iósa -0.079194576 -0.010246533 0.07097345 -0.010850527 -0.10787182 -0.047823675 -0.024190515 -0.013403128 0.059179522 -0.03267541 -0.104396485 -0.059480447 -0.22011322 0.08075086 0.09902634 -0.21152997 -0.090381116 -0.10159909 -0.03218105 -0.08359468 0.1291306 0.051355433 -0.08439858 0.14324068 0.08825321 -0.06587331 -0.14811052 -0.1293479 0.043169815 0.13289365 0.0077310554 -0.028731287 -0.051720094 -0.042974345 -0.015778357 0.12865509 -0.089748755 0.1500263 -0.12482822 0.0037288289 -0.06855906 0.052958474 -0.081939615 -0.024520533 -0.040720142 -0.0634089 -0.11913608 -0.18854071 0.09316386 -0.03713783 0.007599153 0.019488633 0.052586503 0.07546949 -0.091581866 -0.035678014 -0.12928317 -0.22884001 -0.20836681 0.1102866 0.25077748 0.13958167 0.016089305 0.028926812 -0.009153081 0.07790526 -0.056656856 -0.030671654 0.05054801 0.0009570293 0.069579326 0.10289258 -0.121914305 0.13258074 0.015968071 0.08486266 0.14666648 0.011127845 -0.08188381 -0.12651968 0.08092952 0.046920907 0.07506636 -0.06826125 -0.08679741 0.032089442 0.07958614 -0.085728325 -0.13863988 -0.019172953 0.11374668 -0.10785086 -0.10329927 0.1726864 -0.2805744 0.02179514 -0.030954935 0.084882304 0.014828918 -0.0074061183
adubhairt -0.008048076 0.098729804 0.110513106 -0.19190587 -0.100459926 -0.022176648 0.08311483 0.10584231 0.086003445 -0.11708776 0.068686664 0.03163172 -0.2425901 -0.00465612 -0.1423203 -0.119213186 0.08002719 0.12514025 0.028306026 0.055369265 -0.10238404 0.08372909 -0.0139872935 0.07572126 0.13016313 -0.012498073 -0.09856018 -0.014100758 0.12994756 0.03980149 0.024470458 -0.09721277 0.18961886 0.00502886 0.01393159 -0.13391663 -0.08147872 0.15109555 -0.19282614 0.0013807556 -0.14305687 -0.016737733 0.18419564 0.059637554 0.028182687 0.0014529928 -0.10893583 0.029031059 0.12526907 -0.027471159 -0.06441986 -0.08812884 -0.1376163 0.020733748 0.005945579 0.03764954 -0.13390188 0.022468345 -0.10691176 0.26994443 0.06902781 0.034904364 -0.00067818473 0.06813759 -0.0076569435 0.02093945 0.019178988 0.13987389 0.032433666 -0.09109807 0.18555082 0.093647175 -0.07741473 0.013177323 0.16883577 -0.06984235 0.15796745 -0.067385696 -0.047873918 0.11242 0.06711615 -0.012392306 0.08966744 -0.103343 0.014161796 0.12666051 0.00017889909 0.05185532 -0.033520065 0.1510725 0.12366924 0.13993748 0.06712846 0.17561808 -0.082714826 0.11726623 -0.052124027 0.08438021 0.0072178207 0.09188674
thug -0.062278297 0.14808077 0.07252115 -0.09915896 -0.09022149 -0.12399479 -0.01879493 0.20087647 -0.061827872 0.007853513 0.082389176 0.0034432507 -0.057229917 -0.008650833 -0.06929981 -0.097538516 -0.05932692 0.13727339 -0.025056306 0.03866107 0.07830165 -0.07272743 0.023080382 0.1678037 0.12670355 -0.08469492 0.009864746 0.01260171 0.119451605 0.08734944 0.08582334 -0.0043008598 0.009659352 -0.04164442 0.041262925 0.049777996 -0.1033035 0.1670737 -0.090765215 -0.04940534 -0.0027785457 0.037226737 -0.07097417 -0.12847254 -0.0041819606 -0.055899464 -0.22355087 0.008320295 0.03458122 0.013269466 -0.17062405 -0.03576444 -0.012112118 -0.09296268 -0.053655818 0.10792328 -0.119467296 -0.100536354 -0.15219073 0.10751856 -0.044219352 0.014030971 0.06412067 0.039116375 -0.010213089 0.12323403 0.019684184 0.00076009345 -0.10890424 0.01890921 -0.1376355 0.034678556 -0.1405329 0.058447376 -0.0072433064 0.163976 0.15131746 -0.24063155 -0.024956113 0.068167575 0.0063251154 -0.05663431 0.0883077 0.14700805 0.054764695 0.03044361 0.028594678 -0.10681797 -0.08757565 -0.07253274 0.3370987 0.058636162 -0.14536719 0.056138966 -0.052955005 -0.16524054 0.01039838 0.2758669 0.046342816 0.0038218503
achd -0.12781583 0.090553954 -0.043031134 -0.06533455 -0.05242092 0.010198951 0.08265468 0.035000768 -0.0047564744 0.013629185 0.03489487 0.1481975 -0.056875087 0.006239843 -0.02694727 0.0059946724 0.14597157 0.1253914 -0.1477443 0.01081503 -0.032017026 0.037529934 0.017958945 0.03152448 0.016427957 -0.09367243 -0.20345344 0.05319658 -0.080779776 -0.05270285 -0.017540937 0.12947886 0.060951658 0.007390109 -0.011711969 -0.17831646 -0.007004054 -0.08795321 -0.0146538215 0.07292008 -0.13100368 -0.07592907 0.10368701 -0.035938323 0.19281891 0.080975905 0.03222298 -0.012886782 -0.003224481 -0.032225117 -0.15178883 -0.110170394 -0.0434832 -0.08570461 0.112653986 -0.059162784 -0.10758231 0.05110733 -0.027040074 0.013160262 -0.30376208 -0.054485902 0.07170729 0.03173504 -0.04543623 -0.15053372 0.034884457 0.057875846 -0.011026473 -0.101581156 0.2477343 -0.055361953 -0.11383099 -0.031454965 -0.09317744 -0.21854112 0.09289645 -0.16693357 -0.05813963 0.15227738 -0.16203903 -0.07248369 -0.088342845 -0.08133918 0.10000972 0.10291591 0.07999068 0.10770917 -0.12758645 0.2981413 0.15980749 -0.012219357 0.072155416 0.030687835 -0.048567176 0.030002749 -0.02207712 -0.13552609 -0.012449706 -0.012574896
bheith -0.04131612 -0.17292899 -0.21486089 0.024891552 -0.08571169 -0.003327023 -0.04427608 -0.10324311 0.14848216 0.09800372 0.07673522 0.12841651 -0.17924823 0.08918585 -0.046528187 -0.15010525 -0.06891399 -0.007429731 -0.024932012 0.056971412 -0.09697014 0.034821313 -0.052392103 -0.032381248 -0.012111948 -0.10358778 -0.18671839 -0.077419184 0.024764495 0.017125638 -0.054648858 -0.072319746 0.010003147 -0.07325597 -0.083118126 0.026456837 -0.14629838 -0.09112545 -0.045034572 0.011671768 -0.06786251 -0.029373057 0.051376723 0.16681005 -0.09382831 -0.0072713997 0.029257566 -0.06338771 -0.07199023 0.025606778 0.030319897 0.016781164 -0.033857506 0.061290614 0.08296825 -0.02747803 -0.20400569 0.19464034 0.10592671 -0.07207458 -0.291158 0.09912033 0.16631931 0.0087496005 0.023913082 -0.14171013 -0.0049090283 0.092940606 -0.021556027 0.0043598264 -0.07470829 -0.019849723 0.02020738 0.033913855 0.19176513 -0.023378294 -0.06867895 -0.07888832 -0.07398726 -0.1570416 0.04381519 0.08455726 0.014454421 -0.10539908 0.004782059 0.04896675 -0.12977086 0.040664613 -0.2870757 0.06584766 0.018746063 -0.010563276 0.05032582 0.20269467 0.06437452 0.06093815 -0.108088635 0.08690571 -0.18219702 0.13520396
siad -0.041155413 0.0945532 -0.07646163 0.049951725 -0.13073418 -0.10465958 0.018075805 -0.12197344 -0.23830892 0.046933964 -0.0075874184 -0.044672303 -0.0347626 0.08311792 0.053201083 0.030239685 -0.00839795 0.097876675 -0.19141026 0.07973487 0.14940715 0.035189588 0.075286835 0.07283103 -0.19616377 -0.062223062 -0.015980333 0.116853595 0.016154561 0.16539325 -0.07230197 -0.05213618 0.01481875 -0.063516356 0.002750305 0.19690461 -0.055947807 -0.04694325 -0.010924216 0.08565481 0.02360017 -0.07330167 -0.049749542 -0.16350979 0.036217 -0.15691014 -0.012101244 -0.17827067 -0.13948217 -0.030271197 -0.059771232 -0.03420255 -0.014007305 0.14989434 -0.06140201 0.01717842 0.05384352 -0.029722132 -0.07581464 -0.11368606 0.096035995 0.017009197 0.16834517 0.011451447 0.09436214 -0.13765407 0.11953506 0.14337932 0.10394535 0.177372 -0.038374178 -0.044196896 -0.011883633 0.13229558 0.08573123 0.19176616 -0.0002380009 0.08516703 0.11016604 -0.10615692 -0.1483327 0.08498596 -0.07588088 0.09091789 -0.04252029 -0.04560669 -0.087300666 -0.05084383 0.14715055 -0.025447655 0.024868438 -0.100351796 -0.039044537 0.17375359 0.15533277 0.102247454 -0.12614599 -0.104347 0.06052331 -0.19195265
dhá 0.070237726 0.09612281 -0.05150174 0.04916975 0.15088527 -0.10033548 -0.08256129 0.08913995 -0.12735486 0.038130805 -0.10543825 0.1400869 0.0034046504 -0.094106525 0.05693176 0.008712343 -0.011598704 0.031494167 -0.13178925 0.007421438 -0.022241684 -0.036880154 -0.06391438 0.14715539 -0.05476825 0.006856869 0.0015715905 0.094338596 -0.024809752 0.036784474 -0.017304625 0.055955973 -0.08801014 -0.124306366 -0.11840183 0.1404136 -0.014482942 0.2261784 -0.10503828 0.08791161 -0.049869206 -0.11553034 -0.25935686 -0.038564794 0.062115174 -0.06784798 -0.014208461 -0.12314546 0.09785489 0.0093578175 -0.028100617 0.06314598 0.026053926 -0.08652089 -0.07630539 -0.07378144 -0.039444756 -0.14292356 -0.041455023 0.010503087 0.007401069 0.100970425 -0.06178829 -0.10285977 -0.07381031 -0.035148043 -0.09324598 -0.01764499 -0.10188422 0.059135165 -0.055072144 -0.15358108 -0.14444245 -0.23880894 -0.1045154 0.14994597 -0.007549215 -0.10128342 -0.05395796 0.08547961 -0.09715612 0.011438828 0.06940779 -0.01959104 -0.15493171 -0.06454402 -0.17398618 -0.1685649 -0.19172458 -0.0926347 0.14868885 -0.014208172 -0.04555736 0.031714566 -0.16011633 -0.08948393 0.13469571 -0.048487704 -0.19798653 -0.19376795
nuair 0.050258446 0.086228386 0.041411176 -0.053952858 0.15170002 0.07577073 0.026952622 0.047483303 -0.24852858 0.17735572 0.065362826 0.09866707 -0.030630572 -0.1250996 -0.22170694 0.022054654 -0.035224494 0.015116178 -0.037589792 0.035437696 -0.13063878 -0.028547406 -0.10839278 -0.14381392 -0.009950465 0.11466822 -0.16567294 0.098850355 0.029694319 -0.06401674 0.113207944 -0.054731343 0.14762706 -0.030641677 -0.08190353 0.0022070643 0.04981524 0.12379453 -0.13753484 0.052603964 -0.08617619 -0.0550608 0.019910067 0.09463602 -0.03289968 0.076835215 -0.032460555 0.071460195 -0.0074548656 0.11808753 0.0038288694 -0.112320945 -0.011691145 -0.03395297 0.0348499 0.30043045 -0.07212358 0.028934086 0.14695226 -0.0055226013 -0.071792595 -0.016200319 -0.043224238 0.11852946 0.01160425 0.21846414 -0.073773935 -0.03262231 -0.109228246 0.022489782 -0.12724699 0.030670442 -0.06803191 -0.14283703 0.0356671 -0.035079923 0.0673788 -0.008434259 -0.06242825 0.2460471 0.15106487 -0.039530803 0.12204114 0.04470526 -0.056076556 0.056140002 -0.11317437 -0.11305291 -0.022697229 0.07320939 0.13980512 0.15574403 0.16259602 -0.031606317 -0.09124409 0.10244596 0.0037362233 0.009343638 -0.16742156 0.08051425
aca -0.20238356 0.005333093 -0.068117045 0.03050097 0.0489036 -0.058790244 0.082528055 -0.035649046 0.014012877 -0.052811854 0.059815582 0.13602991 -0.004852876 0.045681607 -0.05464018 -0.017973905 -0.02565844 0.060618117 -0.13110906 -0.14234595 0.20010448 -0.09727097 -0.09226942 0.18761617 -0.047835357 -0.05040981 -0.12028943 0.12937607 0.040710725 0.112056814 0.021765845 0.096720345 0.111861855 0.03165221 -0.09549139 -0.07066542 -0.008723695 -0.019574085 -0.17832266 -0.051126897 -0.102790415 -0.052617863 0.028869746 -0.09051854 -0.04846775 -0.039337303 -0.03289125 0.093534715 -0.06359378 0.069045395 -0.14311467 -0.11520198 -0.13296317 -0.14025462 0.106199585 -0.020501371 -0.17490153 0.049821593 -0.17140593 -0.1313107 -0.111396864 -0.12447815 0.042697597 0.14265527 -0.08760858 -0.18363965 0.029677795 -0.047282916 -0.04058585 -0.014382746 -0.025336647 0.009336657 -0.08672786 -0.12507632 -0.05378042 -0.13575868 0.18709773 -0.13601385 0.073148616 0.0039861547 -0.17795305 -0.004363535 -0.03983951 -0.0022047122 -0.17050385 0.057993755 -0.02020033 0.19412209 -0.05197674 0.012385485 0.13902448 -0.0014572856 0.07988455 0.0315598 -0.05988472 -0.08908531 0.18537894 0.06915835 0.17075637 0.17411308
bhfuil 0.022161365 -0.070655435 -0.03859809 0.037799817 0.045900866 -0.10675265 -0.05499304 0.012156846 0.006288779 0.13758741 -0.046734914 0.06469253 -0.082304075 0.019914022 -0.13523938 -0.10558393 0.15196176 0.021497935 0.18664856 0.09541966 -0.26909122 -0.0077490276 -0.065639526 0.09571351 -0.07921702 -0.1803928 0.034242455 0.046836723 -0.14003667 -0.15858123 0.14420216 -0.041367397 0.056679178 -0.034405302 0.05301085 0.12423302 -0.046947047 -0.1388877 0.039641455 0.040686492 -0.08297256 -0.079623304 -0.091373384 0.07408456 -0.03520918 0.032811616 -0.02273362 0.09224419 -0.024111548 0.0562794 -0.030118918 0.15749854 -0.03852618 0.15463395 0.15783542 -0.06701778 -0.0730693 0.22459185 0.06305345 -0.059277218 -0.32630813 0.00093957287 0.11266957 0.023194874 0.0081245685 -0.043877624 -0.050300438 0.041043587 0.020981366 -0.12664966 0.017743265 0.006888129 0.124040164 -0.04677857 0.2265871 0.010444899 -0.019438202 -0.10081084 -0.0017973549 -0.121734776 -0.043219082 0.09937526 0.14413698 0.0013496672 0.064058885 0.06273214 -0.056874946 0.039707553 -0.20376931 0.17385408 -0.10892139 0.12528276 -0.008710874 0.08899104 0.09995155 -0.02433784 0.06546369 0.031704467 0.1053669 -0.0003304924
n-a -0.11036719 -0.046668503 -0.02729761 0.09325804 0.13406466 -0.12766519 0.006041002 0.10776647 -0.088265106 0.02688307 0.11750159 0.0037679935 -0.010061123 0.06467325 0.01520692 0.07963587 -0.08385316 0.045017343 -0.027243538 -0.07027472 0.054757133 -0.22677049 -0.008876953 0.07920002 0.100204244 -0.023259295 -0.054618545 0.07387193 -0.16458073 0.013010515 0.07979157 0.14007151 -0.021805886 0.0002423156 -0.07975904 0.14935444 0.014256773 0.040610243 0.080518484 0.0075949496 -0.060795337 -0.15673576 -0.08987693 0.04566575 -0.1158512 0.029711325 0.03282141 0.14953187 -0.06758312 0.108708 -0.04664484 -0.02952022 -0.14946522 0.15157141 0.07046238 0.112141475 -0.13786279 0.026564706 -0.07850575 -0.12051392 -0.19159628 -0.23468623 0.1612535 -0.0024150223 0.045250855 -0.01833894 -0.010314831 -0.08186485 -0.093789905 0.022292584 -0.1420922 -0.105977364 0.015178402 -0.1708212 -0.06322565 -0.03239224 0.09925934 -0.008516248 -0.03560463 -0.07042183 -0.039861415 -0.11811612 0.0054189283 0.13111068 0.016568271 -0.1525643 0.049544483 -0.050432473 0.03110299 -0.121289216 -0.0028481833 0.15284508 -0.10453942 -0.13355467 0.15118784 -0.16418734 0.09230355 -0.10766499 0.30340526 -0.05919467
beag 0.08008111 0.062950015 -0.015949968 0.04543265 0.10929716 -0.06533018 -0.04996571 0.026329305 -0.049191527 -0.031765547 0.006747716 0.02556119 0.005843627 0.015691724 -0.013380007 -0.072410926 -0.20221701 -0.05821786 0.15238932 0.036773097 -0.09894706 0.10466693 -0.2336249 0.11554203 0.098503835 0.08368266 0.051681228 -0.057610095 0.057677668 0.0024569868 0.16124073 -0.007912098 -0.025992485 0.19036831 0.064012 0.18109494 0.18529601 -0.05942482 0.0016647 -0.10604453 -0.10241298 -0.02622074 -0.023452641 0.06439128 -0.1452786 -0.050301775 0.009668928 0.035146218 0.05707257 -0.029240247 0.00058595586 -0.08438902 0.03977517 0.07606922 -0.01300959 0.2329323 -0.14155899 0.011441619 0.13259223 -0.0370962 -0.015257687 -0.011720579 0.11213987 0.11162075 0.1318329 0.065403834 -0.021383218 -0.053982034 0.016992293 0.0721754 -0.22062753 0.04112047 0.009320722 -0.19120632 0.17389964 -0.08581715 -0.19732991 -0.01617304 0.13059644 0.01977808 -0.047189947 0.061918203 -0.012824006 -0.07527027 -0.22896089 0.1168002 -0.020418024 0.11766916 0.032409493 0.011686223 0.015474646 0.09387513 0.12270796 0.17734511 -0.12839653 0.039078087 -0.022555064 0.23124234 0.022018973 0.117853954
isteach -0.24801521 0.09249442 0.116681635 0.044657044 0.026574723 -0.004241713 0.061139904 -0.10193284 -0.1678669 0.12490918 0.024010334 0.06843602 -0.13260368 0.05930431 -0.036152087 -0.13775459 0.0040625264 0.0023981873 0.10160158 0.041921463 -0.03456301 0.08487262 -0.053037867 0.049169656 -0.08680239 -0.011814995 -0.24616213 -0.03821454 -0.026486514 0.021558918 -0.0057032853 -0.017846482 -0.008434495 0.15869643 -0.08196304 0.13734798 0.03795895 0.12913692 0.1154035 -0.08357502 -0.1462572 -0.06415169 -0.11615488 0.015020752 0.18681447 0.046980757 0.070422985 0.06549532 0.003665665 0.008742476 -0.05540074 -0.0729943 0.18645205 0.048131928 0.051496632 0.15299489 0.05850342 -0.18522267 -0.18095504 0.065218255 0.20794761 0.1063806 0.07531823 0.12325171 0.09060246 0.1208327 -0.025813445 0.02691947 -0.041215695 -0.03532172 0.14156458 0.1229941 0.0012927267 -0.0645449 -0.031350803 0.08677288 0.13157128 0.016306603 0.028417235 -0.0756802 0.1411331 0.01941093 -0.008340793 0.07357106 -0.008861388 0.09834518 0.09953416 -0.1175313 -0.05106303 0.10180994 0.013494929 0.0645905 0.09770534 -0.08550886 -0.12161308 -0.16380474 0.067769855 -0.17194737 0.08802349 -0.198448
anois -0.032421354 -0.0521526 -0.06516649 -0.10580129 -0.06509295 0.059787948 -0.03641627 -0.03711949 -0.124701224 0.035038095 0.028545307 -0.016125262 -0.10512127 -0.15216002 0.027260162 -0.011919706 -0.03969364 0.09922985 -0.08664645 -0.06341165 0.1385921 -0.034014843 0.14759935 -0.13715714 -0.003666844 -0.030096354 -0.19979364 0.1071116 0.075377725 0.14723966 -0.018185308 -0.05773402 0.28020266 -0.10174433 -0.21019582 0.121037476 -0.16750169 0.04102055 0.06936082 -0.047713637 0.04446849 -0.17248487 -0.08392715 0.07320498 -0.011814631 0.014185139 -0.03083536 -0.058508877 0.025606105 -0.03547932 -0.13800909 -0.053116452 -0.20199043 0.17282024 0.07976065 -0.003034264 -0.062630616 -0.0027239313 0.00974535 0.1633701 0.026961092 -0.14186087 0.09870416 -0.123025924 0.039261084 0.04880573 -0.069678456 0.192919 -0.116356 -0.08278706 0.11742335 0.028916419 0.12308324 -0.13012587 0.19550592 0.0002206233 0.24720456 -0.0334065 -0.09579815 0.041048747 -0.023557689 0.0011959492 0.006674211 -0.06273855 -0.07070052 -0.2194767 -0.042796332 0.011626376 0.0087846145 0.010550773 0.014134344 0.14964376 0.09842743 -0.014710642 -0.050050233 -0.06570994 0.09884046 -0.053316202 0.022148108 -0.052518174
mbeadh -0.15315501 0.024044441 0.0022650817 0.012336738 0.0503287 -0.011757136 0.18499477 0.03693388 -0.03220055 0.20918463 0.1344722 0.12624662 -0.07888832 -0.011448394 -0.16085003 -0.08904545 -0.08847199 0.018753689 0.06591072 -0.038310993 -0.13005425 0.044297967 0.07685066 -0.004845197 -0.08005541 -0.106646374 -0.117294796 -0.0264539 0.04609674 0.17152505 0.090808555 -0.06493224 0.16055697 0.15895088 0.060637113 0.04779586 0.16582483 0.24105112 -0.021236029 -0.0028562867 -0.068034016 -0.14060651 -0.12815204 -0.07273205 0.098928794 -0.06366607 0.05859047 0.09208551 -0.061524764 0.25928974 0.116148785 -0.100393385 0.0065449458 -0.07256096 0.046418 0.16719086 -0.12524918 0.06095535 -0.021058436 -0.017082123 -0.03784829 0.05889132 0.063772194 0.009501314 -0.115615465 -0.024276763 -0.095917344 -0.054070156 0.031590085 0.117145486 -0.07790459 0.1449574 -0.023313383 -0.12211804 0.16776615 -0.007855415 0.06795737 0.067209266 0.14204715 0.06777103 -0.1396039 -0.027999567 0.12027607 0.107657686 -0.11104096 0.13363098 -0.02046492 -0.099391945 -0.17231911 0.031564917 0.19129284 0.030351615 0.017802853 0.120956816 0.056194678 0.052280396 -0.027742632 -0.07861171 -0.011679919 0.031733874
acht -0.13098012 0.18302831 -0.08294204 0.020183789 0.0984532 -0.076503165 -0.0044034435 -0.07153786 -0.13984722 0.046140272 -0.0866755 0.07032741 0.10575837 -0.16080093 -0.041494563 -0.007884712 0.061944764 0.11909041 0.07410063 0.0063647726 0.05522763 0.14287105 0.115359604 0.017680423 -0.020036688 -0.030514145 -0.13409075 0.13897473 -0.055047944 -0.093862884 0.004941287 0.044021558 0.19062436 0.06303418 -0.1788032 -0.0116688 0.1432046 0.039600097 -0.018271577 -0.058968127 -0.19960539 -0.048737295 -0.048805498 0.09494944 0.045237295 0.15699598 0.12342786 0.16535446 0.05612364 0.031622097 -0.10386778 -0.06920125 0.0015155815 -0.11272151 0.026884625 0.09686883 0.1360637 -0.00029200042 0.003365063 0.079233415 -0.25563982 -0.1176161 0.062057033 0.18426396 0.06645961 0.13109794 -0.027975775 0.029717166 -0.07556096 -0.11341121 0.026037436 0.0038065778 -0.04367402 -0.040863942 -0.06588109 -0.07680747 0.034265347 -0.22685777 -0.08844182 0.12056883 0.039474018 0.030709175 -0.029512063 -0.046063714 0.034998033 0.020715196 0.01836573 0.081371546 0.0072537875 0.19288367 0.007856779 0.28359455 0.017786197 -0.04653837 -0.14854015 0.05404504 0.09740968 -0.14515525 0.056401726 -0.07356046
mac 0.15397745 -0.0027360895 -0.026151925 0.062084105 -0.116611965 -0.0048561627 -0.06399799 -0.01619515 0.047286794 0.118480064 -0.03206533 -0.103143536 0.007120581 -0.033962876 0.027229179 -0.15609649 -0.034867384 -0.092846096 0.027711777 0.09723053 0.030998403 0.12056914 -0.25208563 0.03677349 -0.057616882 -0.109563924 0.0635844 -0.053158134 -0.00047691973 0.026326941 0.0798381 0.040712975 -0.11916229 0.05770382 0.016183676 0.045029398 -0.01492113 -0.102101505 0.08698297 0.05492898 0.06845543 0.0037080413 -0.16107827 0.028041214 0.09247889 0.017002707 -0.23371084 -0.08379286 0.0768466 -0.05045759 0.040745463 0.112610646 -0.0007507314 0.21656995 -0.11515506 -0.028133757 0.049925614 0.064944156 0.016248481 -0.04615061 -0.02579574 0.0635884 0.16672072 -0.12924549 -0.10317725 0.03798308 -0.044039674 0.01340727 0.024496939 0.07468482 -0.10279015 0.24099612 -0.041185424 0.10090065 -0.0031501523 0.16838862 -0.24011439 -0.18799123 0.038490504 -0.1100138 0.06524552 0.1298244 0.043104656 0.03573212 -0.091315694 -0.081806436 0.053978924 0.051145904 -0.22134559 0.0017764798 -0.05813689 0.09273939 0.05387115 0.202232 -0.09540746 0.16891213 -0.08845705 0.15669288 0.11037957 -0.12442781
éireann 0.049169187 -0.048650403 -0.13908783 0.026350694 0.06910821 -0.0039516822 -0.05084107 0.043929104 0.03230847 0.0929081 -0.026099697 -0.10678044 0.07192504 -0.16978553 0.0011169417 0.025170675 -0.09805179 -0.12799625 -0.13123827 0.02576875 0.20806886 -0.020513594 -0.08642336 0.05385493 -0.062242113 -0.07785604 -0.16562828 -0.14557317 -0.14024122 0.07083276 0.07095022 0.19821078 0.0036429923 -0.13276945 -0.085963845 0.068179496 0.20299278 0.024548968 0.027438605 -0.0047943443 0.1275405 -0.21282911 -0.13523893 -0.025881024 0.10451982 0.099772744 0.079675905 -0.06791116 -0.07636644 -0.006129176 -0.013549714 -0.08017029 -0.06886751 0.058814943 -0.009968522 0.1367709 -0.13851851 0.018249333 0.11769676 -0.1078137 0.016959028 -0.14735408 0.07054135 -0.119380526 0.012369477 -0.057393964 -0.05623995 -0.047161937 0.09525331 0.23279308 -0.074111596 0.037487045 -0.10113484 -0.19322674 0.10526566 0.087636925 -0.0221876 -0.12527585 -0.032760765 0.15035908 0.008436372 0.1250421 0.11035292 0.08245485 -0.08448763 -0.27146238 -0.08301839 -0.043998603 0.01821824 0.01944334 0.013071622 0.0068626064 -0.00995431 0.1637009 -0.008325569 0.121807694 -0.047609437 -0.13488412 -0.028632829 -0.0077050705
m 0.037454758 -0.0043560616 -0.008390179 0.0936651 0.11545014 -0.1770786 0.042511232 0.11200141 -0.09352101 0.06592166 0.04681004 0.037619464 -0.16078027 0.03548468 0.04004436 0.10886139 0.06076033 0.022933291 -0.1400883 -0.0049780034 -0.21898708 -0.032843474 -0.09711424 -0.053684257 0.017472573 -0.059526835 -0.1071178 -0.025805125 -0.25119007 -0.1458293 0.042804718 0.082067035 -0.017901257 0.09741961 0.111465134 0.19412081 0.08032578 -0.061735142 -0.04339981 -0.050566606 -0.18544729 -0.20660837 0.14757736 0.060649935 0.008584469 0.066120595 0.16128723 -0.0017855546 -0.15413244 0.02179764 0.10015367 -0.03020404 -0.006547188 0.13885051 0.061770923 0.1505174 -0.2543042 0.053733278 0.18448514 -0.04601501 -0.104751565 0.003496246 0.19231047 0.10925946 -0.0012839177 0.01185146 0.052366786 -0.08801429 0.023873068 0.022812411 -0.07363142 0.010552387 -0.15028198 -0.09005248 0.05915837 -0.10340375 -0.051125877 0.16795187 0.079395056 0.0674396 -0.18553737 -0.08305291 -0.08058113 -0.04352012 0.07445955 0.044520605 0.05646446 -0.06290069 0.037157234 0.10508365 0.061340984 -0.030256227 -0.046454348 -0.03194865 0.12969023 0.11171793 -0.044216283 0.0046804575 0.05300572 -0.06735476
dia -0.14062339 -0.04602138 -0.006729952 0.03147838 0.011021263 -0.079521894 0.11988412 -0.07218713 0.066929266 -0.02302253 -0.20574096 0.11079909 -0.05239211 0.11727023 -0.005098668 -0.008060157 0.046323556 -0.07597386 0.1464928 0.09484944 0.08494219 0.099542156 0.06340807 0.18033744 0.05949834 -0.092705294 -0.08542645 0.014053599 -0.0036242127 -0.13572688 -0.007893733 0.118870355 0.113083 0.04039 0.107348494 0.09839376 0.07915396 -0.09179509 0.1607162 -0.1363304 -0.19406883 -0.104722545 0.113825515 0.01977537 0.114380494 0.14135757 0.013923363 0.1376804 -0.028881403 -0.031340994 0.034044433 -0.013880463 0.08310208 -0.019643899 -0.00014526673 0.013849527 -0.2049862 -0.053582266 -0.07271363 -0.14452067 -0.002534918 -0.0028658903 0.15374564 0.08199785 0.08129572 0.005345299 0.0006118947 0.024166623 0.07272983 0.0028730766 0.20775838 0.089268155 0.14153098 0.025654288 0.13365391 0.02342931 0.10444643 -0.015206079 -0.015784873 0.08350935 0.13986455 0.16862363 0.11719845 -0.179059 -0.10094148 0.084250055 0.221587 0.1687269 -0.115449555 0.03545606 0.09060049 0.0592613 0.14331575 0.09659837 0.005037806 0.006106367 0.108864464 -0.018965803 0.16943143 0.051010154
hé -0.025197923 0.010399287 -0.11004563 -0.015569751 0.08672322 -0.065421686 -0.029368151 0.014690223 0.11920898 -0.0072324486 -0.20930424 0.052603334 -0.24104431 0.017678402 -0.041814726 -0.07926922 0.037153076 -0.022589173 -0.094600886 -0.057797544 0.09629114 0.10766862 -0.06317985 0.07086423 0.1022071 -0.090583004 -0.088822976 -0.162523 0.06470789 -0.0315824 -0.08518788 -0.013572321 -0.050092082 -0.16656488 -0.022462508 -0.03541364 -0.007023965 0.18054968 -0.10465742 0.03592348 -0.15301874 0.017441232 -0.067428865 -0.009421552 0.054116778 0.0049722567 -0.06208562 -0.13314755 0.043413803 -0.052025776 0.0063200486 0.012193761 -0.02303967 0.04279105 -0.0009989458 -0.097484976 -0.15383805 -0.013401669 -0.2427202 0.053183947 0.052892514 0.06535577 0.05912837 0.015784109 -0.051086538 0.0055227084 0.07721779 0.026100006 0.036535896 -0.02938698 0.08733905 0.14406183 -0.19175166 0.12409157 0.015679987 -0.15872443 0.08213487 -0.13034771 -0.047532305 -0.008607093 -0.056167785 0.09996265 0.059087917 -0.1694294 -0.1281239 0.08493945 -0.0034725245 0.0022340294 -0.20322292 0.15727746 0.13590717 0.107080005 0.09394044 0.25299904 -0.22110166 0.14245483 -0.056569766 0.08096355 -0.0682486 0.17125183
san -0.006511974 0.112101585 0.0070362594 0.1278817 0.105383836 0.050927304 0.00561037 -0.16021125 -0.2031666 0.10817251 0.1845655 -0.10604215 -0.022282958 -0.14894038 0.031582363 -0.09900933 -0.0019419084 0.07363788 -0.011670811 0.034577977 0.031591296 -0.03382083 -0.115936995 -0.11891296 -0.04733736 -0.04536382 -0.15816821 0.062108815 0.026681356 0.11174256 0.18497683 -0.04387119 0.14604662 0.18516131 -0.100473754 0.022971736 0.0021272495 -0.01733912 -0.033738773 -0.036405884 -6.715573e-05 -0.038998313 0.06166484 0.110840656 -0.085123904 -0.052821234 -0.04979995 0.042321544 -0.09414151 0.10573051 0.025028089 -0.13626057 0.009332344 0.12916653 -0.09359977 0.16345468 0.117306136 0.08872382 0.119160816 0.05584626 -0.12141791 -0.1608763 0.059720717 0.10918596 -0.09773436 0.08452838 0.023815343 -0.07716619 0.05259711 0.04661474 -0.24747628 0.15812531 -0.01985634 0.029289264 -0.01407521 -0.14481126 -0.0019598461 -0.095563 -0.0058607757 -0.1349823 0.0636747 0.07379548 -0.10322718 0.13659266 0.018859668 -0.060882814 0.11171168 0.016353182 0.09546023 0.0009320406 -0.15094402 0.30268118 0.01567952 0.053000156 0.0008946093 0.09153393 -0.060592785 -0.028365139 0.16909806 0.074160874
seo 0.0035794408 -0.08153804 -0.03461679 0.0019443984 -0.21624541 -0.2099621 0.120727085 -0.041085318 -0.06305611 -0.07157482 0.06433482 -0.092164785 -0.026058355 0.2153578 -0.027146166 -0.08153929 -0.054736424 0.019372372 -0.019069837 0.0042120726 0.015800944 -0.13973211 -0.0006304493 0.15725654 0.07742286 0.0018437195 0.07128181 0.07772529 -0.09771411 0.23743004 -0.1496354 -0.026490813 0.099202715 0.12303257 -0.060449407 0.17386389 0.067587264 -0.16071694 0.15749592 0.0891157 -0.0068123834 -0.15283033 -0.051234543 -0.07646379 -0.09083379 -0.11661487 0.027231459 -0.048079073 0.10486503 0.035714123 -0.04741666 -0.026655514 -0.032459002 0.13543464 -0.075688034 0.027219014 0.06946541 -0.020748165 -0.114747845 1.20592595e-05 -0.19000898 -0.025655655 0.05411094 -0.1222612 0.09797225 -0.011107727 -0.04514832 0.16841556 -0.14121158 -0.08965802 0.16747594 -0.13868463 0.013894116 -0.05588947 -0.11361354 0.012880852 -0.08467702 -0.005701928 -0.050615735 -0.21930258 -0.021678725 -0.056096137 -0.10904218 0.0141002415 -0.0026307905 -0.08427876 -0.0016174956 -0.035380073 0.0048653227 -0.08925423 -0.049984917 0.07944195 0.01166186 -0.0037251129 0.11309009 -0.041882604 0.019516475 -0.15341742 0.096577965 -0.28823206
maith -0.09448581 -0.010988262 -0.07064634 0.04141846 0.015631333 0.039790396 -0.042169664 -0.1046981 -0.08430397 0.16079828 0.13600263 0.08073514 -0.021784855 -0.08387519 -0.085679196 -0.18359159 -0.08934732 -0.00094978075 -0.004932699 0.023508204 -0.013335966 0.13784268 -0.1786924 0.052472368 -0.1813214 -0.20939665 -0.17251043 0.0772767 0.019075206 -0.03655372 0.08287852 -0.0060080383 -0.07144569 0.14579523 -0.007357328 -0.06585131 0.1274437 0.048205584 -0.10574877 -0.09385829 0.0065647564 0.0059819934 0.12535731 0.036524624 0.097321644 0.13632737 -0.07093422 0.009910867 0.009445241 -0.0038907854 -0.13695115 0.112424 0.002078543 -0.006806591 0.048710994 0.0412404 -0.05126107 0.23281969 0.1628867 -0.060943868 -0.24017583 -0.05388894 0.14662324 0.21053213 -0.06721165 -0.052928988 -0.012189586 -0.037901714 -0.12097465 0.0018950348 -0.14860456 0.13416581 0.026139438 0.0013293668 0.08532152 0.034012686 -0.10756769 -0.0706309 0.060380466 -0.07457621 -0.0006708205 0.1511534 0.023727847 0.110162765 -0.06968374 0.095565766 0.05509486 0.045503855 -0.06636534 0.121822104 0.022387754 0.16185425 0.1676627 0.09513936 -0.11737081 0.14250614 -0.021137789 0.17692688 -0.061141364 0.07133847
dhéanamh -0.14090231 -0.028965864 -0.17779583 0.122597836 0.015544233 -0.10023151 -0.11421556 -0.0003465879 0.036451124 0.08774171 0.0030676965 0.12030693 0.119419 -0.038909297 -0.04898904 0.15798126 0.09489257 0.05447447 0.00671516 0.00486927 -0.058418423 -0.028560324 0.029558273 0.17503531 -0.022414787 -0.07968875 -0.12959333 0.20124753 -0.062016863 -0.17561765 0.018857671 -0.050865397 0.03776918 -0.008496044 -0.15830187 -0.04657128 0.10931847 0.13327761 -0.22657207 -0.008035568 -0.25386217 0.05297229 -0.11706149 0.05685896 -0.08926803 -0.0012753932 -0.012623493 0.14166515 -0.009906146 0.0808766 0.018090868 0.02486507 -0.12846904 -0.0740806 0.01232813 0.14350955 -0.022553096 0.03786664 -0.09274431 -0.0056917323 -0.019980768 -0.04557008 0.023734346 0.21450055 -0.074948385 -0.031002719 -0.0176578 0.009360393 -0.041470025 0.00496744 -0.18252449 0.060192525 -0.10704617 0.008428789 0.09537145 0.13432257 0.10011602 -0.037563 -0.09534955 -0.07342916 0.002451339 -0.056789953 0.031561874 0.110106416 -0.013110281 -0.06003408 -0.12786902 -0.17665216 0.14399004 0.003381318 -0.136002 0.016253682 -0.061138164 0.13388982 0.1534852 0.19305734 0.04316772 -0.10786818 0.023915837 -0.21669023
buck 0.034804497 0.10294367 0.09441136 -0.01487777 0.006612813 -0.028172772 0.07770423 -0.10023315 -0.2528431 0.031491973 0.039774235 0.060866915 0.060668167 0.015344094 0.0030077468 -0.106198184 -0.06971607 0.020426057 -0.13607398 -0.0104317665 0.07251988 -0.110811055 0.04853749 0.18922518 -0.13979767 -0.028852286 -0.037507735 0.24306186 0.07876234 0.26977018 0.17350443 -0.14538181 0.1741169 -0.023224315 0.042479996 0.18303393 -0.058259517 -0.038996 -0.11906491 -0.07284662 0.037063282 -0.032062367 -0.018947449 -0.20929118 -0.096395195 -0.1254523 -0.2385752 -0.10878358 -0.13823022 0.028114948 -0.06785152 -0.046554826 -0.08061377 -0.081781104 -0.028278869 0.08667546 -0.0640981 -0.1402145 0.09056678 -0.17428185 0.02589552 -0.013462591 0.021914672 0.101901606 -0.085787974 0.017784258 -0.031145142 -0.02786727 -0.06407391 0.12820037 -0.08177452 -0.03549811 -0.03541258 -0.038339984 0.0011269553 0.23174085 0.15135221 -0.007315233 0.0067924056 0.019308263 0.015683044 -0.0028735856 0.0010114183 -0.00021818161 -0.14469698 0.0715605 -0.06930132 0.0645123 0.03453024 -0.09881393 0.20595735 -0.023419682 0.05338124 0.021318076 -0.015722504 -0.042753253 0.07361007 0.10921219 -0.055212315 -0.014495445
re 0.028039759 -0.03377036 -0.12688406 -0.029409437 -0.06321772 -0.018306345 -0.20391104 0.04219671 0.090649635 -0.011479382 0.02451011 -0.039108306 0.11291492 -0.005361191 0.030745428 -0.03317358 -0.0061733257 -0.00033275023 0.051533993 0.08934426 -0.06492441 -0.13514987 -0.04324489 -0.0186559 0.118558384 0.012674726 -0.11653712 0.016252555 -0.14755309 -0.03885782 0.20037152 -0.029709063 -0.037659727 0.024961608 -0.056108087 -0.0003163099 -0.078177355 -0.21823794 0.018179148 0.040709533 -0.00987847 -0.024375703 0.0032437886 0.1448952 -0.16272692 0.09570662 -0.12129611 0.03126428 -0.008723572 -0.09104753 -0.0910711 -0.049303275 -0.16490883 0.249107 0.031588554 0.19087596 -0.012334907 -0.019574834 0.16142844 0.062817104 -0.2073382 -0.19091462 0.09596907 -0.023825677 0.10801954 0.0761047 0.0037136618 0.10186902 0.0728395 0.006732386 -0.16850804 -0.0575694 0.0585706 -0.117278196 0.1061714 0.09489512 -0.045893725 -0.14516184 -0.12676263 -0.14909957 0.22956187 0.050153352 -0.009471646 0.1001502 0.078492 -0.15750146 -0.09066115 -0.10649776 0.12503092 0.078156106 -0.057100195 0.14299235 0.029842535 0.16539049 0.09220109 0.0074605616 -0.08389045 -0.05129782 0.096134774 -0.00425561
dho 0.0541583 0.015793387 -0.025877729 0.020145565 -0.061107382 -0.03429524 -0.17814066 0.12765999 0.119537115 -0.023253707 -0.07361283 0.060339067 -0.04175006 -0.015104077 -0.044531073 -0.10020642 -0.06114392 -0.17598929 0.022832138 0.0356842 0.025101222 -0.07199745 -0.19694951 0.18543088 0.024702897 0.054895982 -0.03367686 -0.068250604 -0.07521592 0.112394854 -0.027591929 0.12906714 -0.13907543 -0.119481824 -0.0831618 0.12731978 -0.03322543 0.039465815 -0.07848517 0.04414289 0.05850094 -0.07237074 -0.15527438 0.055685036 0.06392962 -0.017372362 -0.10690659 -0.1417122 0.0580166 -0.060623363 -0.06304689 -0.025858743 -0.021882916 -0.05181329 -0.08547582 0.034815077 -0.17746484 -0.2103068 -0.13334413 0.013276662 0.032609865 0.16305338 -0.04566783 -0.04121339 0.0023765296 0.009273794 -0.088917956 -0.05818314 -0.08903793 -0.023139581 -0.020390792 -0.096765734 -0.24243325 -0.15070894 -0.044098943 0.17319599 0.080485046 -0.050217956 -0.16012338 0.015571189 0.10042051 -0.07133018 0.038338147 -0.13817553 -0.039465453 -0.19705871 -0.11898736 -0.09851623 -0.2134353 -0.052792367 0.10008477 -0.20921418 -0.041100856 -0.02274854 -0.20127368 -0.10477719 0.07295707 0.085674495 -0.071515284 -0.0707479
sí 0.068793215 0.08810928 -0.05423335 0.11450782 0.04262112 -0.09596864 0.10741687 -0.027678637 0.11000828 0.09110628 -0.04609241 0.06698962 0.039805286 -0.04516821 -0.088908084 0.058311343 0.089868665 -4.8764727e-05 -0.16183464 -0.004189448 0.14102265 -0.074714944 -0.026114177 0.04017722 -0.025451435 0.11929794 0.0008813741 0.022612382 -0.035321064 0.031487882 -0.03483981 0.19371776 0.22552538 -0.13581318 -0.050014824 0.009174165 0.009889325 -0.047594406 -0.07801315 0.0062699355 -0.11102063 -0.0762752 -0.07005133 0.012110649 -0.09950701 -0.00092297787 -0.044224158 0.2245887 -0.04150228 0.11705817 0.1359579 -0.16283922 -0.29724365 0.030635696 0.0695403 0.18577409 -0.087682754 0.04136113 -0.15323277 -0.1033165 0.06342037 -0.02445215 0.056132965 -0.11949393 -0.15116717 -0.05743016 0.13319217 -0.20677568 0.10104889 0.08658857 -0.1528986 0.21609509 -0.18052647 0.050834082 -0.0065162536 0.0411929 0.09532554 0.0015078114 0.015824065 0.108332805 0.0045665456 -0.05702348 -0.019178817 -0.10267409 0.0045739156 0.031688705 -0.09376701 0.13634937 -0.15123177 0.025440771 0.04452167 -0.01650176 -0.095242836 -0.0699959 0.12645626 -0.003686995 0.030720705 0.09606704 0.16144109 0.014658445
atá -0.05616193 0.08011577 0.07088314 -0.018187137 -0.11812989 0.0047397017 0.0880367 0.1459142 0.058510702 0.030671652 -0.009836659 0.14378451 -0.030856369 -0.032129988 -0.034419995 -0.0063873096 0.024005 0.093035534 -0.06474342 -0.14224648 -0.13027905 -0.01298336 -0.15181449 -0.05858956 0.10089553 0.092239656 -0.24848783 0.075208604 -0.07270902 -0.0048218677 -0.07837472 0.057135496 -0.043699432 0.062320005 -0.080332816 -0.19572422 -0.060455974 0.069486775 -0.05500517 0.07042544 -0.10686004 -0.05933313 0.10518381 0.099126846 0.07450754 0.02872858 0.007975489 0.014468327 0.2245269 -0.008635021 -0.0589395 -0.0316757 -0.18695448 0.043821733 0.054865062 -0.008224159 -0.14539775 0.021095866 -0.031933717 0.1914169 -0.18806536 -0.12602505 -0.07997255 0.04777018 -0.13510592 0.026188554 -0.19851471 0.08117805 -0.14171062 -0.14338955 0.08597662 -0.003532951 -0.05059954 -0.067878045 -0.14247538 -0.15285552 0.1386788 0.11938808 -0.10943472 0.0025611077 -0.04007398 -0.1698702 -0.065337114 -0.025369475 0.14789127 -0.12308758 0.04169284 -0.03239342 -0.0068767737 0.08178594 -0.0074078655 0.04331418 0.05372746 -0.17695951 -0.11213366 0.14640938 0.047095843 -0.1195229 0.022481397 -0.18350856
fós -0.032380097 -0.061009213 -0.022413732 -0.058787495 0.03913266 -0.19626044 0.0055156415 0.21082631 0.105492845 -0.06205366 0.010141786 0.049679663 -0.12526366 0.16593267 0.026300583 -0.02259146 0.11382306 0.053396724 -0.039893106 -0.0037281448 -0.29083368 -0.013120985 0.17726378 0.013933686 0.05672061 -0.008124578 -0.020341855 -0.16397183 -0.11772904 -0.084551096 -0.13581906 -0.040359244 -0.030270142 0.008437611 0.14679404 0.07699972 0.014350526 0.069951154 0.001847621 -0.113869116 -0.21070676 -0.1759821 0.06589133 0.11457456 0.0040357667 0.07663821 -0.07391019 0.009296964 -0.070535675 -0.058006313 0.05380072 0.025078334 -0.1752795 0.17270224 0.08988772 0.08458478 -0.10652632 -0.09336764 0.09155844 0.13841379 0.01904797 0.13467078 0.24600257 0.01929238 -0.025353288 -0.024030691 0.13311861 0.24967465 0.10468666 -0.02409274 0.02882438 0.010630758 -0.12649807 0.016797675 0.09789065 0.0017367773 0.08550006 0.116760835 0.022027075 0.07512774 -0.037209384 -0.038809396 -0.050350003 -0.08723406 -0.0041771242 0.014459053 -0.013911641 -0.05348698 0.010617239 0.047985196 0.03861151 0.09112198 0.11732377 0.094040245 0.13866459 0.06641882 -0.13635837 -0.11572955 0.076895155 -0.12035161
tú -0.114918634 0.12954213 0.031056913 -0.031179702 -0.0052842987 -0.045224357 0.077853866 0.14067647 0.17212918 -0.013352131 -0.1132609 0.10207108 -0.0060641025 0.06830362 -0.053991262 -0.11763641 -0.004488208 -0.08630205 -0.123858534 -0.039841697 0.18583709 -0.06429237 -0.065971434 0.18976417 0.012913964 -0.010542519 -0.2193207 -0.12098184 -0.010062493 0.1382433 -0.12103719 0.17053486 0.0070384345 -0.12846294 0.04069042 -0.06915677 0.05538014 0.018581884 -0.04528398 -0.09705583 -0.006778976 -0.05654549 -0.045783468 -0.07606628 0.085739374 0.04212253 -0.17019749 -0.04218651 -0.09890113 0.03934399 -0.042378344 -0.09737719 -0.1038479 -0.103008024 0.00043555797 0.028452624 -0.19067651 -0.17652719 -0.10200841 -0.105165586 -0.02260245 0.09456124 0.15631363 0.05632679 -0.12317645 -0.034674417 0.06461624 -0.019020084 0.0026923835 0.048115358 0.008662987 0.05020429 -0.19603227 0.08974029 -0.13476546 0.1229116 0.18086983 -0.06985866 -0.06070996 0.12931304 0.08659291 -0.009027419 -0.02355469 -0.12476772 -0.07523436 -0.031350054 -0.005394529 0.06640893 -0.21244563 -0.04731004 0.26058102 -0.1369234 0.042386614 -0.018448677 -0.10497538 -0.11124729 0.101331435 0.06994592 -0.021875866 0.05446151
agam 0.030526912 0.027129687 -0.08704165 0.121034205 0.18246579 -0.15960908 0.118250415 -0.061235633 -0.030420462 0.11540838 -0.13826627 0.11811099 0.04887368 0.040728163 -0.034465633 0.14539754 0.07978354 -0.02090227 -0.0105359685 0.02793375 -0.09223885 0.07380671 0.030484403 0.025871348 -0.051636677 -0.026252605 0.13435261 0.039581608 -0.19431263 -0.28552648 -0.08586738 0.0988834 0.061325535 0.015516079 -0.024653781 0.10559005 0.24955674 -0.054424446 0.013057245 -0.0028217267 -0.21357216 -0.18584348 -0.103985265 0.044153724 0.021057483 0.15044774 0.17332718 0.12800896 0.028057637 0.0112829115 0.10991134 -0.010641254 0.024109991 0.009434564 0.07185062 0.1652793 -0.05887206 0.17695907 0.02661498 -0.18220954 -0.18279842 0.04427466 0.16740789 0.0012847193 0.036164526 -0.0382074 0.08517993 -0.16224016 -0.016595043 0.024016092 -0.081585415 0.032135006 -0.08529747 -0.025285166 -0.031674415 -0.032874182 -0.08057293 0.054774523 0.0802326 0.09454077 -0.090850264 -0.056099113 -0.007165501 -0.08541116 -0.06253074 0.18819836 -0.058777496 0.021536727 -0.06785721 0.16822922 0.03130972 0.05113587 0.08459752 -0.071332425 0.09356645 0.049415585 0.10822384 -0.07782259 0.042856846 0.004419012
thart 0.057274647 0.070114516 -0.025815766 0.09513021 -0.0039349087 -0.06167946 0.052523308 -0.0655799 -0.14943759 -0.049712297 0.08900566 -0.108402476 -0.06522584 -0.013297759 -0.1056722 -0.019585608 -0.08473303 0.18564317 -0.08131567 0.016347926 0.043206163 0.017452758 0.0033105828 0.060826506 -0.06268421 0.01055023 0.13664685 0.1567748 0.18611903 0.08748054 0.02093857 -0.08753576 0.16656409 -0.055866126 -0.033671565 0.30287847 -0.03923922 0.07014742 -0.017434731 -0.018000906 0.027972154 -0.09214909 -0.066532016 0.053446464 -0.109076045 -0.22303453 -0.0256368 0.0057098656 0.007952764 0.012345335 -0.05176944 -0.10094416 -0.13691391 0.061483905 0.008134927 0.08319056 -0.023325963 -0.028555622 -0.09766292 0.12850098 0.2477234 0.025757728 0.067028224 -0.041763216 0.14267677 0.06095953 0.05726389 -0.046657234 0.055858593 0.02244376 -0.17190886 0.12668015 -0.08708311 0.023863947 0.17663106 -0.06978347 -0.06488615 -0.05216121 0.13250957 -0.03784262 -0.25784865 0.028886782 -0.10332677 0.080809064 -0.052834183 -0.0192515 0.02198262 -0.05577454 0.1419376 0.064570606 -0.018574974 0.14379545 -0.16215846 0.12683856 0.038224045 0.02373053 -0.16554344 0.079059124 0.20919561 -0.057720732
againn 0.04307947 -0.007768701 -0.03757535 0.09194314 0.11373181 -0.11844448 0.03892576 -0.0463341 -0.10736446 0.1697699 -0.0986682 0.10689141 -0.056957427 0.0079227155 0.027270928 0.23847304 0.07805307 -0.15195505 -0.012649444 0.17308067 -0.039746325 0.027263174 -0.09898612 0.15300445 -0.05038709 -0.05356152 0.017734746 0.009984075 -0.20837012 -0.2109487 0.02364353 0.16840446 0.023182122 0.03951165 -0.10630748 0.15626566 0.18617533 -0.047124706 0.010546542 0.09322493 -0.075351916 -0.21202199 -0.040280983 0.108763404 0.114898585 0.17434408 0.10938671 0.17528737 -0.024374438 -0.005531876 0.025861941 -0.029256675 -0.003310733 0.08541178 0.082820415 0.15852946 -0.1052783 0.104071856 -0.04910301 -0.19053613 -0.084428035 0.009295809 0.22065723 0.049301397 0.08321962 -0.058199264 0.049158547 -0.15254581 -0.041294727 -0.010257421 -0.029144742 0.014319559 -0.022341227 -0.042902242 0.10490261 -0.018228535 0.06907606 0.09719291 0.0024328625 0.00034452524 -0.017644288 -0.004351519 -0.023843246 -0.12784824 -0.106807776 -0.044967506 0.11620476 -0.054792818 0.009638326 0.08565668 -0.09369233 -0.04485167 0.011249542 -0.06479681 0.07449931 -0.078489296 0.17449252 -0.02116088 0.20501012 -0.04755797
oír -0.06715326 -0.03978976 0.06311719 -0.01917215 -0.154447 -0.053670444 0.15488017 0.13099994 0.09803233 0.02205683 0.006938845 0.12512755 -0.18316697 0.04166722 -0.08314842 0.10823562 0.1775556 0.093013905 -0.0073960144 -0.037977703 -0.21136954 0.033926796 0.050722536 0.0391504 0.0333403 -0.033289988 0.006776673 0.14703031 -0.043971606 -0.014393339 -0.19495463 -0.025559159 0.19163176 -0.13099222 0.02221066 0.06183472 -0.016934859 0.024827275 -0.03860264 0.08019442 -0.19204068 -0.15827331 0.0104559595 0.0014549878 -0.00077133777 -0.04341684 0.073881716 -0.056187473 0.079093404 0.03676418 0.027835736 0.021460673 -0.14683491 0.07316147 0.10573928 -0.03171763 -0.13220617 0.031826336 -0.04021952 0.15919366 -0.039426014 0.049069002 -0.035037678 -0.042708803 -0.07548812 -0.078988835 -0.048471358 0.21072304 -0.095571406 -0.13709332 0.20880929 0.029091092 -0.08362939 0.026757427 0.032979157 -0.024826776 0.13856322 0.12638235 -0.094066806 0.07498835 -0.067028515 -0.21938634 0.066222884 -0.13341877 0.079773545 -0.049655758 -0.068093196 -0.042964768 -0.07737861 0.12879673 -0.022057405 -0.060282525 -0.051569305 -0.07808856 0.03161242 0.16927345 0.038494717 -0.17614388 -0.046474244 -0.25625613
.i. 0.13818747 0.010373777 0.07235061 0.09773359 -0.14791551 -0.07895254 0.19720533 -0.04659252 -0.15710853 -0.07348707 -0.053535588 -0.07560942 -0.10405864 0.05036921 -0.06603529 0.09043167 0.103274606 0.0063412376 -0.09624757 0.080864124 0.1262789 0.052920997 -0.1714268 0.17205556 0.05112139 -0.08943677 0.044977244 0.091787025 -0.033084996 -0.048953127 0.010276638 0.12140124 -0.039536282 -0.050146673 0.08196879 0.1198751 0.053832293 -0.14610846 0.08883749 0.06312017 -0.035320476 -0.1358793 0.11631766 -0.032997947 0.13092361 0.07920152 -0.06445814 -0.04641147 -0.0022687514 -0.051358774 -0.08972226 -0.011936964 0.04185685 0.14519335 -0.189226 0.0058524413 -0.11753583 0.07360553 -0.14149572 -0.1509295 -0.048374284 -0.01858202 0.2132279 0.07168542 0.10808795 -0.028391851 0.12504911 -0.0971406 -0.027847238 0.012593746 0.12561484 0.122650415 -0.11922316 0.26582605 0.013181505 -0.034590565 -0.040251106 -0.13164067 0.012657991 -0.07361695 -0.06873603 0.08428057 -0.0049860775 0.071225144 0.05557112 -0.058203693 0.16902146 0.023878189 0.09725417 0.042725615 0.016415503 0.068358004 -0.10988491 0.13399674 0.060716204 0.15313639 0.015175054 0.07939847 0.25159305 -0.0508916
