1974 100
の 0.09370407 0.2517018 0.06602216 -0.10251517 0.08882914 0.09826156 -0.14856152 -0.0032495076 0.018190151 -0.248783 -0.09828599 0.09893057 -0.06685221 -0.007651389 -0.06036987 -0.0024546548 0.019468177 -0.01776731 0.043975346 -0.18924093 0.012700117 -0.022636589 0.18993376 0.041062586 0.18712035 0.07224393 -0.06883309 -0.073082924 -0.12579198 0.10023071 0.013117965 0.026073014 0.019265661 -0.019348681 -0.13695636 0.11076308 -0.18898469 -0.13723074 -0.01640287 0.14688532 0.069123864 0.0073935813 -0.2099721 -0.13618548 0.017818348 -0.0109026795 0.028957382 0.11101663 0.045830652 0.11961276 -0.011118772 -0.092307836 -0.085609704 -0.12945132 0.09975762 0.032217823 0.04951469 -0.062676094 -0.07050757 -0.011523897 -0.15793075 -0.15247248 -0.10432147 -0.10491996 -0.03490466 0.03890352 0.24090944 0.048821256 0.058882993 0.04494498 -0.114133745 0.0065981485 0.04635647 -0.05170907 -0.057871256 0.017585762 0.10921216 0.041597676 -0.07217292 0.06897275 -0.052352857 0.21598467 -0.01784705 0.070012 0.013545975 0.14342873 -0.18569152 -0.09666465 0.003097005 0.05902884 0.16604453 -0.017142938 0.008783038 -0.055501882 0.02111561 0.084036045 -0.13916399 0.00021792349 -0.06429938 -0.012515302
に -0.016874198 -0.028418232 0.06041834 -0.0533807 -0.0064259735 0.06467599 -0.15059535 0.13085341 0.007019317 -0.18816945 -0.025863172 -0.05293528 -0.041073307 -0.0040854937 0.026539946 0.061661866 0.06675591 0.021038506 0.09513289 -0.024871219 0.106301226 -0.04610706 -0.06810595 -0.14777702 -0.0050450503 -0.005870523 -0.062447093 0.0456908 -0.08259567 0.04265299 0.081684865 0.0014981667 0.047419176 -0.08677458 0.089095704 0.026823353 -0.044370208 -0.0012420194 0.11878839 0.10919744 -0.0010097331 -0.22477837 -0.016871596 0.098455794 0.016647456 -0.10529238 0.02071265 -0.053823717 -0.11442072 -0.010812917 0.20928952 0.04139586 0.031998668 -0.16297372 0.045108262 -0.053412966 0.0014414969 0.0523511 -0.2550246 0.031972345 -0.04882551 -0.1336983 -0.12295153 -0.13346598 -0.024409706 0.07763068 -0.16622552 -0.16062061 -0.031413205 -0.055893503 -0.08239051 0.0970361 0.10558276 0.044895675 -0.041299395 -0.14407977 0.12247805 0.038521502 0.021671016 0.062075052 0.060353372 0.068808064 0.2506958 0.12942412 0.12836255 0.042095106 -0.11283994 -0.26496652 0.019567315 -0.14944546 0.24019778 -0.012309855 0.118566334 -0.025769789 -0.16998236 0.031374697 -0.14092372 -0.04857342 0.09418629 -0.10180667
は 0.048881903 0.10760365 0.1141541 -0.028245004 0.056225277 -0.07755162 -0.029129624 -0.023343137 0.124996625 0.01778719 -0.16751479 0.05755164 0.3065515 -0.018574113 -0.024249878 -0.081299596 0.10848884 0.103195876 -0.108156115 -0.09385689 0.007638217 0.13256815 0.12677722 -0.009223438 0.09096136 0.10584484 0.098965 -0.03484406 0.23544538 0.013140483 0.09177806 0.032340966 0.11866657 0.03427365 -0.057739384 -0.04052639 -0.08823526 -0.01989024 0.11743659 0.09121104 0.032742053 -0.07922056 -0.049607296 -0.02115926 -0.07208994 0.10643836 -0.00720483 0.07080064 0.055737156 -0.0591823 -0.019954657 0.1474537 -0.15598781 -0.17810173 -0.033712454 0.015567173 0.019699033 0.1622534 -0.026536291 0.08228956 -0.16872264 -0.02500305 0.0817527 -0.048837103 -0.094054304 0.14651707 0.025443137 0.05428495 0.030241841 0.1209799 0.014244483 -0.36263692 -0.14232409 -0.06258975 0.06198455 0.11298596 -0.13237059 0.062356245 -0.009344055 -0.12858272 0.050197944 0.038490366 0.061586402 0.016006507 -0.0084754275 0.072071575 -0.0011942576 0.06443926 -0.027585661 -0.10500581 0.24630137 0.07151581 -0.018494338 -0.086990535 0.007363443 0.077077985 -0.023302767 0.11455129 -0.11219854 -0.06669035
た 0.19616377 0.07725798 -0.073905304 0.010132772 -0.031700715 -0.19575648 -0.054418094 -0.08423581 0.06450839 -0.1500303 -0.050230056 0.047242638 0.05732553 -0.17929427 0.018925374 0.0620756 0.012890015 -0.13556713 -0.12774101 -0.14649567 -0.15581332 -0.09291378 -0.06778254 0.0149017945 -0.07621411 -0.01488852 -0.2704063 0.0015666954 -0.05734316 -0.012911995 0.120408215 -0.10820857 -0.030995175 0.0012919316 -0.061099403 -0.017698959 0.052636724 -0.06869806 0.06772275 -0.06411325 -0.047777373 0.11140765 -0.07605211 -0.043770317 -0.19564548 0.07564285 0.14839806 0.038203258 -0.058018576 -0.023565717 0.082240365 -0.06616409 0.08869706 -0.10126046 0.050482478 0.031463563 -0.031240659 0.037779614 0.07837641 -0.16815698 0.13133104 0.13161828 -0.051465925 0.11455207 -0.29744804 -0.058616426 -0.11670952 -0.20200172 0.13378012 -0.022998832 -0.11960949 -0.24089949 -0.029878186 0.025711548 -0.091048256 0.070562534 0.03722701 0.14701104 -0.050260335 -0.0029358885 0.012113916 0.15369304 0.02378952 0.023670418 0.13724498 0.030138114 -0.09248965 -0.1293471 -0.042496443 0.042620376 -0.08300779 0.031583007 -0.043296397 0.035382617 -0.020822763 0.09782315 -0.11477318 -0.03682332 0.0276936 -0.06629401
を 0.012769051 -0.020277882 -0.11530256 0.02681376 0.10471961 0.07661933 0.10258114 0.058582813 0.04185799 -0.101011634 -0.1040712 -0.075677015 -0.07984882 0.17429462 0.0060017803 0.07203258 0.17004673 -0.066973664 0.016065288 -0.097912185 0.08305339 -0.04991642 -0.0039521516 -0.108474046 0.094035245 0.22593506 0.25815347 -0.2184372 0.049773697 0.059914675 -0.044075876 -0.058637574 -0.08710781 0.043004 0.08801391 -6.573135e-05 0.07091507 -0.04951927 -0.01973763 0.162848 -0.005102303 -0.081507675 0.030345106 0.07682537 0.07210188 -0.022149988 0.107436664 -0.018948108 -0.007900263 0.17937736 0.15125476 0.061497804 -0.03348463 -0.10163176 0.015056012 -0.17520045 0.17351773 0.0743321 0.18839854 -0.100815766 0.045417003 -0.0590879 0.04619403 -0.06681466 -0.20907493 -0.009313381 -0.08316096 0.02226266 0.06488545 -0.1481101 -0.07153778 0.056412276 0.010865852 -0.048522506 0.19543776 -0.07874584 -0.05097207 0.100342155 -0.01663332 -0.053698465 0.1033166 0.19545276 0.03277483 0.11684548 -0.015363356 -0.019856935 -0.10808535 0.075044736 0.018761903 0.13674848 0.054143313 0.0005740774 0.06999147 -0.090365484 -0.13113962 -0.03637909 0.10705857 0.22272868 -0.10989937 0.004969905
が 0.069599375 0.13042253 0.010729045 -0.10898628 -0.08061352 -0.053603414 0.0062656184 -0.10782494 -0.01472006 -0.051882863 0.0015154912 0.053271297 0.25343254 -0.015550232 -0.19103318 0.07840602 0.1695488 -0.011392854 0.041783597 -0.056807198 0.1351293 0.080911055 -0.04931073 -0.12368743 -0.07544131 0.07317028 0.013188978 -0.019656975 -0.031238988 0.10043463 0.09843304 -0.0025111155 0.10360077 -0.13337468 -0.024747768 0.21344513 -0.21643314 0.079189904 0.10263658 0.063316785 -0.09386368 -0.25103983 -0.06381348 0.075122915 0.14795898 -0.1139711 -0.07439573 0.087575175 0.059719335 -0.02974906 0.0226767 0.08730144 0.04513104 -0.08460609 -0.21124566 0.10159089 0.11726576 -0.008879477 -0.0041379216 -0.14714257 -0.15620765 -0.12659574 0.054871894 -0.053925764 -0.11598416 -0.066620104 -0.048629873 0.14156318 -0.058335677 -0.060717646 0.073579066 0.05647299 -0.030487137 0.0896606 -0.14289333 -0.06779046 -0.102837406 0.18322751 0.044645112 -0.00096173864 0.09363211 0.16359021 0.100268245 0.16723424 0.1359797 0.09146278 -0.11493185 0.083758906 0.06271382 -0.016113153 -0.075283065 0.027468614 0.003917557 -0.069820374 -0.03348315 -0.044177793 -0.00630844 -0.076384604 0.1083965 0.0022317027
て 0.18049209 -0.019806331 0.12999386 -0.041240092 -0.092873074 0.08840768 0.06977653 -0.099826075 0.025449242 -0.18522455 0.11380037 -0.020495571 0.13415647 0.04567841 -0.055259753 -0.028280806 -0.07125519 0.044260032 -0.09688883 -0.15493707 0.0073720547 -0.18848015 0.048051797 -0.063818626 -0.04155738 -0.045841545 -0.07080258 0.115662545 0.0039139017 -0.08505012 0.32129186 -0.19771062 -0.041388236 0.075034216 -0.012676961 0.037828192 -0.11511113 -0.1572642 -0.020895334 0.11400408 0.09148823 -0.019216366 -0.057560794 0.10370569 -0.08889287 -0.006654862 0.082071275 -0.009545733 0.14074108 0.041545812 0.102402575 0.051802468 -0.19543625 0.16587271 -0.0055158446 -0.07160385 0.08926196 -0.122628964 0.05654996 0.09532079 0.075908415 0.13094473 0.09533048 -0.10048127 -0.060091857 0.06420752 -0.0948873 -0.1459517 0.09091678 -0.19759168 0.030514622 -0.129477 -0.06319364 -0.052612353 -0.021555139 -0.06332058 0.20524742 -0.0010387658 -0.18965696 0.06368736 0.12155843 0.087325335 -0.09311205 0.032782722 0.034725714 -0.0017007142 -0.0053645866 0.009339133 -0.017456047 0.002262293 -0.05708543 -0.023819797 0.02581811 -0.035394307 0.0017457872 0.1990526 0.08976898 -0.113997854 0.059730995 0.09811003
と -0.017918965 0.12637873 0.0042995056 0.24118571 -0.0037728804 0.26048478 0.0064640064 0.10189453 0.016072832 -0.07823332 0.12283569 -0.0066004377 0.09820573 0.023679793 0.060071774 -0.14827225 0.13519573 -0.06865716 -0.05560126 -0.12619573 0.20620757 0.06571288 -0.11865342 -0.20663737 -0.12796853 0.17535236 0.004682281 0.07778665 -0.12470339 0.0060025644 -0.07967242 0.10802343 0.047887202 -0.1634497 0.019544054 0.034412537 0.003432501 -0.1024298 0.0016286462 -0.021293012 0.015549803 -0.052386597 0.024806025 0.06930198 0.03951317 -0.0115522975 0.19350652 0.15245576 -0.14441821 -0.04622497 0.12687682 0.019201249 0.13147843 -0.10206593 -0.036600556 -0.02032877 -0.18792607 -0.14275898 -0.0014075144 -0.16472013 0.0026340082 -0.09636277 -0.15158966 0.08987728 0.013625788 -0.091018416 -0.057458073 0.027912857 -0.07143709 -0.11953197 -0.069401875 -0.09745393 0.051142193 -0.19009008 -0.0018205328 -0.0393171 -0.049519274 -0.0337975 -0.040126078 -0.016715087 0.15051596 0.006425745 0.08156458 -0.06441629 0.11090867 0.117209174 0.06498349 0.005523948 0.1078358 0.120614596 -0.03189376 0.07548948 0.010615951 -0.07556767 -0.009727499 0.034209084 -0.17316192 -0.11075216 -0.07949498 -0.093231164
で -0.08216975 0.0200464 -0.14147043 -0.1661066 0.19784465 -0.0018362413 -0.004005131 -0.045051668 -0.019463891 -0.09111362 -0.0546337 -0.13270241 0.04297349 -0.07340365 -0.066029675 -0.09275126 -0.06500419 -0.007115116 0.042026635 0.02205246 0.008939062 -0.031253584 -0.07832561 -0.08378964 -0.10048801 0.17387441 0.028724601 0.049350325 -0.19011176 0.13991405 0.09162586 -0.057712946 -0.080284834 0.06707565 0.13921973 0.106852986 0.0069464147 0.04451086 -0.06123314 -0.06039638 -0.040772934 -0.25804734 -0.08408971 -0.13829991 -0.02869409 -0.13171718 -0.044486053 0.052375082 -0.083610155 0.20794494 0.15394948 0.3340862 -0.008915516 0.053339895 0.10359885 0.07072025 0.07731281 -0.09827437 -0.007871191 -0.16177231 -0.27794227 -0.021453282 0.055647906 -0.12376213 -0.09923498 -0.005918771 -0.12734406 0.032474447 -0.0008863077 -0.20363621 0.0211963 0.026068168 -0.0020740912 0.0007935035 0.092794366 -0.04550479 -0.02736627 -0.011678591 0.03453206 0.14211157 0.12458451 -0.14940093 -0.018009836 -0.019219022 0.14062448 0.09666112 0.015073628 -0.080888815 0.08257437 -0.04621994 -0.06971131 -0.030525103 0.054321833 0.022483313 -0.03763469 0.053758442 -0.10949182 0.0060264645 0.020442545 -0.00066847977
し -0.0055240667 -0.21662183 0.04592448 -0.087794654 -0.029219415 0.07774165 -0.088869095 -0.08087121 -0.04859001 0.096398674 -0.07592066 0.21061929 -0.08275017 -0.07554878 -0.0602793 0.10399392 0.20377979 -0.10921676 0.093863994 -0.023644954 0.049219046 0.114402786 0.11578419 0.05137979 0.029560462 -0.037962794 0.13640086 -0.057363994 -0.068770096 0.036792126 -0.1033724 0.009985185 -0.041485053 0.0022061113 -0.1066718 0.16468342 -0.071678616 0.19725722 -0.28183728 0.090315245 0.068497844 -0.12540013 0.06116678 -0.045379344 -0.01706663 -0.061966263 -0.17674457 -0.031136312 0.029416323 -0.11153377 -0.11643776 0.08533367 0.024024269 -0.08032782 -0.0015914941 0.027542846 0.015606224 0.13818942 -0.15753703 0.031887826 -0.2514558 0.06848619 0.074087866 0.13973789 -0.057695683 -0.0028429432 0.06393858 0.15012242 -0.12692946 -0.13796104 0.027017908 0.020893719 -0.06478657 -0.13940552 0.029030595 -0.05707286 0.115547225 0.012813479 0.07890234 -0.050189603 -0.09817493 -0.14048304 0.09200909 0.14408742 0.020605113 -0.05844771 0.04721124 -0.032245003 -0.039158266 0.095552534 0.1874545 -0.1293699 0.08254794 0.03905494 0.083482616 -0.011518885 0.04046106 -0.02990018 0.13289592 -0.055115037
こと -0.006336801 0.0221922 -0.06143006 -0.080658585 -0.15477079 0.02882174 0.032319564 -0.034108672 -0.1287275 -0.07154446 0.23214552 0.020450443 -0.15245673 -0.004911926 -0.10133283 0.20233269 0.17181867 0.0425342 -0.31266108 -0.13549924 0.0968762 0.041519072 0.112495914 -0.18253198 0.14294094 -0.09025379 -0.10465228 0.042394973 0.019244926 0.012621963 -0.007967208 0.0703187 0.0058120503 -0.034032207 0.06740401 0.15058139 -0.087788895 -0.082604855 0.11462888 -0.03564346 0.10529886 -0.12717275 0.15845579 -0.078631274 -0.13018888 0.105082795 -0.04370461 -0.07018589 -0.14189312 0.2300518 -0.07040923 0.16797136 0.0687043 0.07140103 -0.0105097145 0.11940015 -0.038955707 -0.13832587 -0.042407144 0.07447724 -0.11764283 0.0884627 -0.034291934 0.008028959 -0.01575282 -0.06311904 0.071158744 -0.069609754 0.14424984 -0.035978887 -0.17344324 -0.119686924 -0.06464109 0.06714533 -0.039989904 -0.058381896 -0.13659146 -0.07791264 0.024770087 -0.029584039 0.07212269 -0.028079504 0.035112318 -0.08013904 -0.09231365 -0.096201256 -0.03931668 -0.05711123 0.16867141 0.05374439 -0.043581057 0.055666074 0.08679765 0.015479874 -0.028995642 0.042546656 0.07914263 -0.073662385 -0.05408208 0.10056102
いる 0.113648586 -0.13449934 -0.09648335 0.080439806 0.06420959 -0.08309782 -0.05465388 0.009965062 0.028316814 -0.0057278117 0.058255877 0.17849174 0.00943816 0.01339855 -0.10682417 0.028126227 -0.09217259 0.01159474 -0.15342908 -0.17116822 -0.019829052 -0.054225195 -0.070627615 0.14354281 -0.016762579 -0.0917891 -0.11607359 0.04745348 0.024483854 0.08760694 -0.113327295 -0.24499811 -0.0273485 0.08215654 0.01073185 -0.17385434 -0.0032481404 -0.16274929 0.032745633 -0.14993915 -0.027827213 0.014538527 -0.054623708 0.08305175 -0.16106983 -0.08659743 0.068288594 -0.13253999 -0.058805168 0.025432 0.17289127 -0.08972543 0.104386106 -0.050627712 -0.022147002 0.13432248 0.05866389 0.16207612 -0.0799504 -0.21208425 -0.057236906 -0.18329944 -0.004226276 -0.091513395 -0.14439796 0.0013608083 -0.094347164 0.004167689 0.045664508 0.011617137 -0.13124008 -0.036120094 -0.022818917 -0.03350785 -0.21696623 0.16177294 -0.19184022 0.098388866 0.009259311 -0.10970988 0.061314657 -0.060734373 -0.01019412 0.0060917903 0.12269264 0.06136165 -0.05955447 0.15225746 0.06876232 -0.015319829 -0.07372396 -0.11903613 0.03870481 -0.011665455 -0.089607485 -0.023136716 -0.18363512 0.040016275 0.14060159 -0.1128929
ある -0.17189905 0.006102932 0.06472825 0.0049565295 0.15237719 -0.027226916 -0.012116113 0.12679902 0.13204765 -0.3317002 -0.066429414 0.06573056 -0.03518791 -0.06820235 -0.0046800817 -0.023129404 0.08691212 0.112933956 -0.0054460173 -0.0795754 0.023332618 -0.08463931 -0.036321584 0.10265281 0.20048425 -0.06331824 0.02274695 0.12378001 0.030481214 -0.10846823 -0.03467513 -0.03468597 -0.09250882 -0.13299021 0.05135653 -0.10651254 0.06621213 -0.149449 0.04332202 -0.051416732 0.12387184 -0.03406523 -0.135695 -0.056965698 -0.14376812 0.05192075 -0.030967735 -0.092385195 0.10583268 0.09638041 0.093959786 -0.00022623659 -0.230447 -0.06681287 0.012318699 0.10645998 -0.1243749 -0.08671206 0.1278258 0.054008275 -0.10145449 0.03875683 0.007885389 0.04519953 -0.004538153 0.12975399 0.10560004 0.07256855 0.032746796 -0.061603196 0.12791134 -0.049494077 0.08795447 -0.06619966 0.031352814 0.095086895 -0.0153644085 -0.0057217875 -0.009269265 0.0068271197 0.11519244 0.08978037 0.06961252 0.13451758 0.10128462 -0.3351676 -0.03580218 0.08200679 0.038173974 0.09471173 0.15146063 -0.13706142 0.11799879 -0.080284394 -0.004741114 0.022430329 0.13645673 -0.047352754 0.0608593 -0.11403472
さ -0.13035773 -0.12303469 0.0039987667 -0.052882496 0.023168052 -0.14024548 -0.17442933 -0.08162335 -0.067545444 -0.08002783 0.118815 -0.039545234 -0.06660351 0.073463365 0.05309227 0.00311706 0.14120884 0.011513608 0.15215209 -0.07536486 0.027210549 0.06911407 -0.10248006 -0.21274298 0.028814059 0.0065212417 -0.0018983522 -0.17155848 0.03238165 0.15262401 0.06443978 0.083701916 0.04443914 0.11756526 0.13888416 0.019680122 -0.22982611 0.06976602 -0.14698257 -0.09969603 0.09125699 -0.0029202485 0.10271555 -0.008588611 -0.21826878 0.017392742 0.09827496 0.032469515 -0.036766544 -0.04318249 -0.0035563316 -0.067285344 -0.027521502 0.1646274 0.05669841 -0.015208279 0.015314199 -0.020921992 -0.009283854 -0.03691407 0.08909665 0.29459977 -0.08707742 -0.0950222 0.011199786 -0.20809716 -0.01428629 0.036216766 -0.012516273 -0.012491521 0.08016571 0.027106779 0.041772377 0.08581006 0.16115929 0.1341561 0.01730193 2.2302194e-05 0.16910975 -0.10965838 -0.16189666 0.18631485 0.02476556 0.070159405 0.0458926 0.12507567 0.022491913 0.08616025 -0.04615182 0.031445652 0.16407853 0.08463868 0.01967501 0.044789717 -0.08201455 0.14058807 -0.044676635 -0.17549059 -0.0124284355 -0.0050124405
年 -0.13794433 0.15590678 -0.04356014 -0.20429067 0.15592648 0.021113321 -0.090871386 0.036694255 0.15485339 -0.13496655 0.08754784 -0.13461573 0.02145729 0.02338124 -0.0487946 0.046595175 0.01829319 -0.10653375 0.024359172 0.08367057 -0.010181661 0.1319808 0.21175197 0.004113064 -0.13343826 0.08064476 0.020873105 -0.05757133 -0.029190134 -0.14226444 -0.0767704 -0.032694194 0.093482584 -0.060539767 -0.2652498 -0.084868304 0.020217484 0.006109341 -0.03734012 -0.035207193 0.2173708 0.06104038 0.10384761 -0.18779041 0.14668936 -0.07027203 -0.07256802 -0.06416303 -0.060458742 0.059903555 -0.10825202 -0.0021276288 0.10276933 -0.01948049 -0.14099216 -0.09757711 -0.020372491 0.014314284 -0.0066888854 0.0034442097 -0.007591852 0.095330454 0.19562362 0.033349283 -0.082732804 0.00955305 0.013892799 -0.046871465 0.014656849 0.021473562 -0.003896678 0.05682552 0.061221212 0.14778915 -0.10780586 -0.04994942 0.02959934 -0.118689 -0.021041932 0.10817646 0.0035652707 -0.011152225 -0.011544861 -0.22102462 -0.053374317 0.23725422 0.31930277 0.07864107 -0.011907328 0.0766203 -0.04651407 0.09897019 -0.024090547 -0.01792409 0.016664276 0.06033488 -0.047566872 0.03566154 -0.03097584 0.09588836
れ 0.016765678 -0.023457646 -0.06774553 -0.11352144 -0.094100684 0.055693857 -0.201188 0.020656936 0.007191658 -0.008302474 -0.0032662952 -0.13112362 -0.17461789 -0.06855399 -0.0012308812 0.028327098 0.0081034545 -0.00635046 0.06360972 0.084275804 -0.03893639 0.07449945 -0.25156343 0.0493139 0.10414818 -0.10272253 0.017671147 0.029648548 -0.01774657 -0.07263731 -0.08953593 -0.1058859 -0.04385349 -0.08941715 -0.03065769 0.08983121 0.096257955 -0.17999154 -0.12553352 0.054908633 0.14681154 -0.03297405 -0.2240422 0.015290254 0.030745381 0.02660629 -0.042688295 -0.11235428 0.0496935 -0.06721387 0.15533604 0.08979021 0.06387336 -0.06178161 0.0056970967 -0.09188283 0.049350463 0.06068189 0.01640343 0.073711015 -0.056123573 -0.22318013 -0.036469616 0.27679214 0.019394914 0.049350772 0.05251893 0.0507208 0.011716775 -0.045121524 -0.12984025 -0.017206937 -0.10156206 -0.1888067 0.070592046 -0.055123985 0.04638536 0.093370765 -0.035179485 -0.09558456 0.045560364 -0.26046506 -0.04279506 0.0750115 -0.13200796 -0.010580106 0.09897126 0.0005356376 0.049966063 -0.12202908 0.019033853 0.15603866 -0.073865816 -0.010678033 -0.030517532 0.037047565 0.13241382 0.23576328 0.16561587 0.13904124
な -0.08513092 -0.16100897 0.097998075 -0.025653137 0.10791533 0.012595411 -0.10352135 -0.03275011 0.06851535 -0.0022467964 -0.021814188 -0.058747157 -0.041745108 0.18420354 0.017419001 -0.01887556 0.0005530231 0.027365958 0.008137841 -0.113338776 0.061525285 -6.01141e-05 0.061569598 -4.6850102e-05 0.025990734 0.08902075 -0.16037367 -0.072087176 0.07031143 0.00884737 0.1673372 -0.110373184 0.054811854 0.056627423 0.16652901 -0.024593996 0.083181955 -0.11754539 0.23765016 -0.043438487 -0.09637609 -0.15053344 -0.15137742 0.1365071 -0.018798536 -0.10711689 -0.0035863724 -0.17006876 -0.034593523 0.17412978 -0.035012104 -0.08141852 0.12470503 -0.054265022 -0.10271707 0.038034875 -0.034113083 -0.10700259 -0.055085756 -0.086208306 -0.07209163 0.03703785 -0.08038535 0.17464815 -0.0105818715 -0.055397023 0.027264103 -0.07575887 -0.16944169 -0.15977739 -0.058705796 0.14315557 -0.21557009 -0.075427584 -0.1021862 0.046085786 0.01751304 0.06345337 0.1273672 -0.108085625 -0.062767155 -0.027730204 -0.011544647 -0.07337004 -0.030026281 -0.11702355 0.00807492 -0.17644355 -0.20255834 -0.12675746 0.024569783 0.12239852 -0.16987902 0.04749665 -0.041231796 0.11113552 0.06018844 -0.22754641 0.058486205 -0.013081416
する -0.030011341 0.0026477452 0.06189202 -0.22521736 0.09001427 -0.030912751 -0.071212456 0.056132965 0.08546002 0.011816163 -0.037403684 -0.05285694 -0.05342036 0.07584291 -0.03320679 -0.04164134 0.04302246 -0.14245917 0.11585188 -0.23106724 -0.088326834 0.08550855 -0.09851911 0.11026211 -0.035486206 -0.028929597 0.042201698 0.103344575 0.033611763 -0.034408025 -0.07149124 -0.036327086 0.0039906236 0.17059615 -0.11151669 -0.018384766 -0.01758158 0.09019256 -0.09606392 -0.1405393 0.32127434 0.11245916 0.19468132 -0.07777991 -0.05497461 0.03329867 0.08089657 0.050538614 -0.059989724 -0.1624577 0.01628802 -0.0982323 0.08620246 -0.09828761 0.11132227 0.07103017 0.04369237 -0.009239538 0.09987315 -0.08467898 -0.037330378 0.020276833 0.042651005 0.059174854 -0.109798424 0.029501677 0.08345575 0.17540969 -0.1483798 -0.16083372 0.07312985 -0.19268028 -0.24426611 0.08036561 -0.07604541 -0.051165454 0.14991814 0.014061864 0.036647946 0.020664189 0.09903538 0.056389302 0.07101462 0.120733924 0.11736394 -0.06344124 -0.053542778 -0.105321415 -0.07781686 -0.0017311677 -0.028868774 0.12134798 0.057610378 -0.053169753 -0.051642835 0.011860363 -0.015105137 -0.18423977 0.15276706 0.09720121
い 0.12272641 -0.063107975 -0.063674055 0.058299854 0.05858533 -0.031587068 0.052963935 0.15636042 -0.072074264 -0.0056900335 0.07779336 0.24543962 -0.11760571 0.06674775 0.07528592 -0.17599474 0.018522916 0.041036475 -0.09620716 0.007023074 -0.041447505 0.101252615 0.0001528867 0.05038234 -0.032538477 0.06753898 0.05797639 -0.13305587 0.07103011 0.03434213 -0.17663467 0.033149704 0.083668694 0.010437682 -0.0042870347 -0.20587468 -0.03367033 -0.0076836185 -0.021244593 0.10945133 -0.087958366 0.060094815 0.11668059 0.06747152 -0.15284112 0.042044204 0.007923046 -0.16816995 0.18397723 -0.04351929 0.09084807 0.042365372 0.19835527 -0.05010519 -0.042276658 0.25196078 0.08655119 0.0025692447 -0.1696668 0.004856159 -0.019620433 -0.17540507 -0.03215503 -0.0041429517 -0.12768483 0.06441314 0.09628904 0.06873995 -0.051782012 0.13338064 -0.18980251 0.13266931 0.10096277 0.15956277 5.0579227e-05 0.22235794 -0.05371309 0.13738167 -0.008658721 -0.1741068 -0.037777092 0.06157104 0.087209485 0.050445184 -0.055161215 0.10029411 0.035744086 0.14925763 0.07350977 -0.021947006 -0.12692825 -0.06389799 0.02562922 0.0046347836 -0.07541716 -0.037269313 0.009724746 -0.072075866 0.008495502 -0.14056514
も -0.013573504 0.08379282 0.20049503 0.097671814 0.044272434 -0.03495202 0.26124907 -0.16120316 0.06745526 -0.1407387 -0.08656767 -0.032223232 -0.028287902 -0.0902268 -0.010570247 -0.01492863 0.14575222 -0.08676508 -0.21326973 -0.012086197 0.056144234 0.09696669 -0.13792354 0.047437396 0.050706167 -0.0679522 0.06432217 -0.24702565 0.0077188197 0.050091267 0.0013464147 0.11950657 -0.01570865 -0.0058521577 0.034167822 0.087138064 -0.21243398 0.08796463 -0.01361607 0.04620601 -0.05491309 -0.080310114 0.03822863 0.06228911 0.060400072 0.10358166 0.170735 -0.21062194 0.07390251 0.115723565 0.03354434 -0.0037247033 0.013918051 -0.16026591 -0.02778346 0.15363093 0.05461651 -0.033098426 -0.16416508 0.09737379 0.0019617446 -0.025695948 -0.1703461 -0.12338043 -0.077052005 -0.060976602 0.009507395 0.14047457 -0.026371589 0.0746672 0.044890802 0.0013662991 0.007973018 -0.07716962 0.012675867 -0.07048153 0.11532175 0.16037902 0.027927523 -0.041982837 -0.11079498 -0.11032432 0.03559449 0.0837846 0.114200406 -0.008315779 -0.06855653 -0.06600543 -0.075296596 0.025833962 -0.15969674 0.050279617 -0.18532844 -0.09597508 -0.17543302 -0.0330277 0.02138227 0.11419095 -0.03844318 0.115374334
彼 -0.070872724 0.09393764 0.02727427 0.23385693 0.0035442037 -0.049253315 0.04527484 0.06560181 0.008178776 0.06319764 0.13337949 0.0071506067 0.09932139 0.14858387 0.071270354 -0.10314209 -0.03309357 0.058528792 0.016536659 -0.0337655 -0.11801838 0.02266051 -0.11538034 0.14639616 0.06478455 -0.14375862 -0.02675899 -0.017351853 -0.1762433 0.0058645946 0.016290652 -0.081974685 -0.18545768 -0.038332168 -0.08690208 0.094470225 -0.08892167 0.20220584 -0.17195638 -0.13816887 0.04768847 0.06894264 -0.029610073 0.1506658 0.09026777 -0.20231152 -0.04480557 -0.06389297 -0.15765098 -0.023574477 -0.037113365 -0.052900344 0.066887274 0.017320223 0.07257014 -0.097863086 -0.10460248 -0.14910404 -0.0874318 0.070487484 0.035562687 0.044011895 -0.0077676615 0.0075242347 -0.030965151 0.24115115 -0.10496971 -0.17139074 0.1645106 -0.07865905 0.06027826 0.07312802 -0.020650923 0.043617282 0.17304115 0.11878041 -0.027064785 -0.012229963 -0.0074477093 -0.019504314 0.14212404 0.0928918 -0.03540448 0.072470374 -0.24178183 0.00801719 -0.14612663 -0.13470194 -0.075401485 0.18682244 -0.044515282 0.08734212 0.02558061 0.05611236 0.06198954 -0.04418747 -0.05768137 0.036031928 -0.10726675 0.026260577
的 0.030933918 0.104523875 0.09211922 -0.01548244 -0.112021945 0.12741068 0.04630117 -0.081839845 -0.12106472 -0.023893971 -0.004455336 0.124459565 -0.014192038 -0.13556138 -0.09118929 0.019952435 0.17071429 -0.043380234 -0.09033368 -0.023797851 -0.17934893 -0.01039306 0.005702502 -0.1352842 -0.039789718 0.11465557 -0.04291995 -0.100935824 0.100618005 0.010397844 0.05905041 -0.025757434 0.043982156 -0.031149143 0.06673178 -0.17181559 -0.04996717 -0.15936056 -0.18795387 -0.11243494 0.01562662 0.14544778 0.065155186 -0.009319767 -0.13123684 -0.11782988 -0.0027937293 0.17134924 -0.19641763 -0.12667547 0.10213024 0.0940961 -0.10283206 -0.022984996 -0.035495136 0.114570394 -0.0048406655 0.05548053 -0.042032912 -0.035774898 -0.048061054 0.23845369 0.01790436 -0.15272564 0.08707213 0.011949378 0.18255411 0.16858602 -6.238721e-05 0.01097593 0.17338485 -0.024095869 -0.106313534 -0.08820683 0.026071671 -0.14503647 0.062570326 -0.017829807 0.09906169 0.15100998 -0.10371715 0.13085929 -0.040663365 0.10557359 3.674016e-05 0.15932713 0.030389605 -0.07227437 0.049360014 0.08481134 0.014407605 -0.13613242 0.18004319 0.028678956 -0.13642038 0.023108743 0.12333062 0.121988066 -0.026400246 0.057363275
ない -0.011019571 0.08864396 0.022896664 0.13364026 -0.07606169 0.013360603 0.07745867 -0.04819626 -0.019187871 -0.019666817 0.059290335 0.045292962 0.13469504 0.072155066 -0.19362324 0.12398699 -0.04626584 0.06583495 -0.07421075 -0.102768995 -0.199558 -0.08462154 -0.10358052 0.0818614 0.13795856 -0.13729107 -0.09374296 0.09944328 0.05554602 -0.08194431 -0.046000447 -0.21564573 -0.033430476 0.001126924 0.016051056 0.16353852 -0.0064406297 0.023848444 0.011043776 -0.017853357 -0.058094952 -0.007370149 -0.06362517 0.11333996 -0.02594316 0.06764374 0.24075617 -0.048711818 -0.12517436 -0.025507066 0.07295281 0.05935483 0.07886415 0.13808727 0.118317895 -0.09757951 -0.17466302 0.031336147 -0.015626786 -0.2728898 -0.07520641 -0.06974531 -0.012621537 -0.13236691 0.020147081 -0.06085364 -0.17450261 0.0929773 0.050690923 -0.07305228 0.12820698 -0.01630104 -0.08213376 0.018307129 -0.15586203 0.006454344 0.13625728 0.118316606 -0.16853362 -0.0173903 -0.010841648 0.16357003 0.13895209 0.15734428 0.02411737 -0.14819454 -0.11465016 0.031660292 0.13284138 0.075619064 0.03353193 0.009959078 -0.00741276 -0.09333353 -0.052702338 -0.09565843 0.0012299683 -0.104618505 0.14550075 0.07678787
から 0.03483084 0.16806222 0.1609816 -0.032857332 0.015493344 0.08611618 0.02741158 -0.20371927 -0.037999477 0.035760406 -0.09744244 -0.04610467 -0.058882218 -0.057609018 0.14268152 -0.003994171 0.074126095 0.05833038 0.10300955 -0.022643974 0.09704804 -0.19312683 0.013299473 -0.14578892 -0.17752846 -0.035342135 0.06397851 -0.15724356 0.09940184 -0.1430596 0.27733782 -0.02594024 0.011342401 0.09889837 -0.05409253 -0.13249709 -0.006660461 0.13612121 -0.052058667 -0.030775566 0.03890808 0.008115674 0.002758553 0.05738841 0.27280194 -0.086651914 -0.14738798 0.049296115 -0.060786698 0.021587951 0.17609484 -0.04836537 0.02592296 -0.08970632 0.022313992 0.25060043 0.07770012 0.037141126 -0.050290965 0.046699554 -0.06516216 -0.19282429 -0.03651185 0.12388009 0.017964344 0.0053145955 0.032909956 -0.09479952 0.019321816 -0.0005374482 0.020677697 -0.046400692 0.04063955 -0.030077863 0.03909389 -0.10192214 0.11017429 0.0703493 0.024303703 -0.00581763 0.18596925 0.100694925 0.1232474 0.06753769 -0.09676447 0.025219548 0.031087423 0.09435722 -0.00071805064 -0.0938477 0.14615342 -0.12344421 -0.09693433 -0.055047248 -0.12504011 -0.114373 -0.034647074 0.05308368 0.15386325 -0.08339123
その -0.020847509 -0.00790128 0.11029048 -0.10954634 -0.104353346 -0.18109392 0.03489214 -0.11059899 -0.053733353 -0.11108764 0.07760591 0.14404078 -0.16867177 -0.09566846 0.07168893 0.21571413 -0.06392008 0.060655616 0.08838508 0.040956184 -0.009497137 0.15434949 0.16400217 -0.041635517 0.06781834 0.23897092 0.05571628 -0.011275347 0.028657863 -0.034936223 0.008120014 -0.08709508 0.04998644 -0.055476367 0.019336106 0.09515972 0.090788394 0.07041901 0.029342504 -0.011957245 -0.06031615 -0.14573936 -0.095153555 -0.051671084 -0.2168413 -0.015539773 0.13841459 -0.07491436 -0.16792403 -0.08652532 0.06580802 -0.13449112 0.15843074 -0.07642641 0.01982451 -0.10462531 0.0046018157 -0.20235345 -0.047756143 0.24450654 -0.024105277 -0.04444987 -0.042842053 0.034460735 0.14253049 -0.00757529 -0.019734366 -0.015270977 0.041178565 -0.013579599 -0.100841306 0.08688047 -0.15355843 -0.050710164 0.051458288 -0.0026918675 -0.074915975 0.075248234 -0.13451314 0.16047853 0.07022847 0.07720304 -0.015656106 0.077396505 0.17189038 0.007898318 0.07787722 0.005009498 -0.02627417 0.04555264 0.035564393 -0.15040475 0.037284307 -0.00857406 0.25112852 -0.034029476 -0.0735816 -0.101728946 0.0845992 -0.05526326
この -0.08385911 0.15847494 0.036251143 0.045675043 -0.04782993 -0.07582771 -0.081225365 0.08026189 0.0668151 -0.14662343 -0.0072952635 0.15174623 -0.097680576 0.12797864 -0.07378573 -0.10167457 0.040692765 -0.008825312 -0.096938275 -0.08509721 -0.109623365 -0.093255855 -0.07000874 -0.0540081 0.046334065 -0.14145894 -0.1726889 0.15308352 -0.0342226 0.06927502 -0.13600124 -0.11362503 0.028773922 0.09395139 0.11310893 0.08374986 0.09580022 0.10230499 -0.032550856 0.1572419 -0.13750601 -0.033322405 0.1014242 -0.2065097 -0.079432495 -0.2597206 -0.08689784 -0.020290656 0.04409376 -0.052912764 0.09989638 -0.09608756 -0.059388123 -0.11737867 0.17954406 0.07459585 0.021889053 0.07899067 0.14755076 0.06690475 -0.0065486305 -0.012864078 -0.031437486 0.01336338 -0.12903576 0.053417716 0.075054884 0.0012621611 -0.12557659 -0.07992919 0.05695218 0.2498605 0.05323408 -0.0653905 0.026989259 0.111705795 0.037014376 0.12693581 -0.05805199 -0.017593209 -0.1333158 0.11575008 0.12643126 -0.0022337947 -0.030113844 -0.09192724 -0.018365394 -0.0133857485 -0.03415085 -0.038205147 -0.022903344 0.033969883 -0.013429879 -0.11003004 0.22692816 -0.10500884 -0.12207293 -0.0905903 -0.15956926 0.103892624
か -0.10349798 -0.14712444 -0.05632662 0.11156662 -0.08723362 0.0033402347 0.13126454 -0.02380919 -0.13216558 0.23537627 0.06726183 0.061559726 0.04326106 -0.12712437 -0.08343121 -0.03938062 0.245346 -0.0827318 -0.20527026 -0.0201745 0.07328447 -0.027813878 -0.055468448 -0.05968948 0.07023433 -0.044913337 -0.19885501 0.08351535 0.005425408 -0.08731106 0.067298986 0.023079613 -0.07034374 0.05280269 0.03478637 0.0023507331 -0.14866796 -0.10445472 -0.029890375 -0.16636766 -0.07820898 -0.08477847 -0.01843929 -0.0111988755 -0.0070782998 0.033039764 0.016066635 -0.02265275 0.1307483 -0.2022239 -0.056216996 0.106195405 -0.11335427 0.083369285 -0.055099245 -0.04843377 -0.027219314 -0.27228984 -0.097666256 0.07237386 -0.047698516 -0.13749276 0.03994706 -0.09503081 -0.23112018 -0.027006112 -0.019106343 -0.088310026 0.03946957 0.04469145 0.1486895 0.06000025 0.067371294 -0.11323431 -0.046570048 0.008819627 0.0027520892 -0.0033002866 0.092817485 0.09837065 0.17970921 -0.120782174 -0.18174739 0.017798461 -0.00064589904 0.055221222 -0.089500315 -0.16317312 0.026966397 0.071807265 0.07881546 -0.014701976 -0.053793672 -0.08857947 -0.16131417 -0.15369354 0.04001702 -0.038704302 -0.037899915 0.019876415
人 0.1696184 -0.03861057 0.035393894 -0.111388035 0.15173677 -0.029249819 0.10466897 0.008242829 0.003015413 -0.1081801 0.14756577 -0.06665182 -0.11836177 -0.11376051 -0.02641569 -0.116449974 0.15238266 0.068276905 -0.017503224 0.02165465 -0.038508277 0.21405567 -0.044605304 0.116180144 -0.056274224 -0.1543103 -0.048812605 0.021422384 -0.062367346 0.07920299 0.08915628 -0.1580607 -0.02920646 -0.062136807 0.02689302 -0.07679039 0.098359935 -0.014382767 0.12118628 0.06518779 -0.020585638 0.14067313 0.04125915 -0.09803014 0.09325824 -0.03791429 -0.1313756 -0.13263802 -0.20868033 0.13112293 -0.034778662 -0.12157764 0.18085116 -0.018538916 0.010117445 0.07852787 -0.0043988083 0.06612644 0.08288223 0.21583362 -0.1567935 0.1659389 -0.019410415 -0.15244934 0.060055558 0.09207776 -0.061378624 -0.06668356 -0.02554425 -0.061694045 0.035501327 -0.09070525 0.21799237 -0.15789685 0.04868014 -0.23249781 -0.013968987 -0.024129724 -0.15168178 -0.04250061 -0.010802762 -0.13386638 -0.10474002 0.0751506 -0.0018403176 0.015854754 0.0038701203 0.037481178 0.091763645 -0.057691265 -0.030238556 -0.14217465 0.038754478 -0.0869 0.09050422 0.02697207 -0.0033083889 -0.013198025 -0.041916616 -0.18314473
者 0.09596482 0.19301483 -0.046581507 -0.080841474 -0.09547917 0.02151364 -0.011105304 -0.048478276 -0.05108089 -0.043021705 -0.0056491997 -0.20799264 0.16019575 0.028361168 -0.04463599 0.30939314 0.06513108 -0.16033639 -0.009036114 -0.013200343 0.0038548692 0.07447347 0.040665004 0.028590431 -0.11017336 0.07661696 0.03647616 0.0019298265 0.11472993 -0.1546516 -0.08539969 -0.116309166 -0.052322686 -0.038859 0.07815355 -0.100748874 0.12288976 -0.036178462 -0.081539966 -0.09881939 -0.09305472 0.19919893 -0.082591146 -0.15399446 -0.03870475 -0.07035918 -0.135318 0.074156776 -0.13783798 0.04691276 -0.009499905 0.027825896 -0.14861813 0.14192247 0.049409557 -0.08021751 -0.07227092 0.042864893 -0.119499855 0.26082262 -0.028706271 -0.120489135 -0.058130562 0.030640388 0.18965209 -0.013811473 -0.18857242 -0.03406481 0.121484324 0.052234255 -0.034701303 0.07204426 -0.11674711 0.055408187 0.11084263 -0.01373658 -0.07575642 0.042243373 -0.15178658 -0.1331416 0.021192873 0.08751076 0.041160118 0.06593893 -0.10821276 -0.00779411 -0.17606603 -0.06120343 -0.05157876 -0.050598532 -0.078571334 -0.037770305 0.14778072 0.072771765 0.041648615 0.12158342 0.03267492 -0.039632373 -0.041549258 -0.070498936
や 0.10333479 0.048565276 0.0193814 -0.026135022 -0.051815294 0.15467675 0.030772582 -0.05020677 0.0027840023 0.042228896 0.08294557 -0.0832886 -0.028583277 0.0062717693 -0.041157927 -0.21618526 0.01410412 -0.07148831 -0.11001243 -0.14970838 -0.019883415 0.14536348 0.11641833 -0.039924633 0.08775202 -0.09383854 -0.014210016 -0.19150753 -0.19993472 0.27765617 -0.18780619 0.17321263 -0.17293736 -0.00281359 -0.013382005 -0.08942697 -0.006487845 -0.034307703 0.034082755 -0.006659051 0.016299317 -0.026875291 0.10337942 -0.09489533 -0.022869134 -0.07154354 0.11602891 0.13576253 0.08341385 -0.0003816656 0.14828256 -0.15556745 -0.17333044 -0.13531236 0.03724498 0.025797363 -0.052840415 0.014594634 0.0019103847 0.061860584 0.08263032 0.096307 0.05283938 -0.0057613016 -0.0378343 -0.13774326 -0.10971947 0.042826973 0.007167938 -0.12477524 -0.045480017 0.2516598 0.11468365 -0.14305061 -0.14630061 -0.04727424 -0.04470569 -0.117848136 -0.00895147 -0.049330853 -0.029780705 0.08743451 -0.07559446 0.0433308 -0.04006338 0.0779843 0.0207 0.021455392 0.042695474 -0.10474812 0.22630587 0.019563902 -0.12459642 0.02885114 0.028324688 0.04921294 0.07313213 0.1280276 -0.08354075 0.14939384
だ -0.072316885 -0.2588628 0.056839056 0.077544704 0.057541218 0.03416766 0.086323164 -0.0545921 0.2950005 0.061379325 -0.1468474 -0.15096462 -0.0011699476 -0.13526931 -0.048506286 -0.2298062 -0.20217207 -0.06765345 0.15827021 0.0053357976 -0.12390541 -0.23427998 -0.055813693 -0.15574907 0.024366846 0.021208256 -0.13481429 -0.015142171 0.047668487 0.005021318 0.059475347 -0.008427733 0.05684009 -0.037292667 -0.05139311 0.017327018 0.079406306 0.019993689 -0.10917503 0.054290175 0.07291422 0.05246365 0.019318495 -0.05292996 -0.17090432 -0.06145584 -0.036641706 -0.045320377 -0.022296129 0.16712157 0.0020843507 0.21280529 0.055469587 0.034328304 -0.05606482 0.060885333 -0.089280024 0.04411416 -0.1367515 0.09420803 -0.053953975 0.14998052 0.16533121 -0.044761866 -0.045880456 -0.049473345 -0.056984894 0.033760596 -0.12998171 -0.0011474064 0.048523225 0.0710477 -0.043209534 -0.18702707 -0.06749028 -0.033439398 -0.021086613 0.036930703 0.13565168 -0.07764585 0.076251894 -0.029518813 0.09808699 -0.041996 0.08301285 -0.0092383465 0.031047013 0.02293136 -0.023251364 0.074400745 0.14625593 0.073246576 0.05210833 0.079088144 0.068441175 -0.23144156 0.12975807 0.0155651495 -0.035146825 0.027975664
それ -0.21517013 -0.03309418 -0.004300943 -0.005228137 0.10568048 0.041532554 -0.10722991 -0.07424547 -0.0037494744 0.010925703 0.29622665 0.050556157 0.16930385 0.13351497 0.0018111411 0.08269526 -0.034377016 -0.14917955 0.03385686 -0.010227122 -0.05759645 0.06748532 -0.07901855 0.1003839 0.12510732 -0.14441948 0.048097875 0.17708415 -0.10290316 0.13509908 -0.17837757 -0.15303232 -0.11538152 0.20983414 -0.023682192 -0.08220296 -0.054283593 -0.17123064 -0.1034222 0.06530654 0.024623193 0.00015514484 -0.09612934 0.0610522 -0.001632951 0.078348204 -0.08080524 -0.17326616 -0.075634435 -0.009068333 0.06921703 -0.19204001 0.23287532 0.048112966 -0.097139016 0.07029983 -0.034771185 0.060184903 -0.15444387 0.04866088 0.112825066 0.023184357 0.096267484 -0.056879442 -0.053286567 -0.048808787 0.10403015 -0.039900698 -0.116816424 0.017020471 0.12908474 -0.06677876 -0.07852584 0.08381831 -0.12918994 -0.056579016 -0.0069949133 0.032615993 0.019615194 0.1641243 0.040543977 -0.025910156 -0.118584156 0.0040737647 0.15084249 -0.08615867 -0.1431463 -0.042984545 0.06787367 0.12880425 -0.01365417 -0.032604553 -0.020218192 -0.11513273 0.07463202 -0.015886249 0.017466323 -0.047662903 -0.045555074 -0.051632565
ます -0.11564883 -0.07718739 -0.06770839 -0.15648203 0.010218528 -0.04103374 -0.01718056 0.17349909 0.013220105 -0.1778439 0.20931372 -0.04267904 0.10306877 -0.061312925 0.004710271 0.110416 -0.12034817 -0.13476105 -0.06742773 -0.115605354 -0.028079428 -0.0993709 0.0740274 0.09844762 -0.007896259 -0.015846653 -0.050164957 0.012942261 -0.0046164356 -0.0061121294 -0.0695439 -0.2918281 0.19187447 0.2236493 -0.09269666 -0.06641445 -0.083200485 -0.13975103 -0.00293012 -0.056749597 -0.12353153 0.15753457 -0.09676662 -0.20956126 -0.030743904 0.036233637 0.24483392 -0.065199055 0.049227264 0.021337366 0.021300917 -0.0024106998 0.084379934 0.05069079 0.04435955 0.1020426 0.016410176 0.07146959 -0.048964627 -0.056866948 0.09590907 -0.030185493 0.00051282847 0.20457852 -0.09752952 -0.083380364 -0.07647675 -0.056880176 -0.03557165 -0.017351847 0.18297096 -0.11310263 -0.012844937 -0.07144194 0.02599233 0.08287127 -0.124772795 -0.0012772079 0.09357212 0.08223014 0.025148826 0.036377847 0.11536361 -0.061556067 0.15579379 0.07385667 0.0040194825 -0.026756829 -0.0062289005 0.06598482 -0.021331415 -0.096202075 0.0035669475 -0.01128936 -0.109437555 -0.028199129 -0.22070128 0.10915094 0.03983729 0.11045774
ため 0.08353801 -0.029232224 0.022890855 0.14119425 -0.013374053 -0.12019533 0.12057612 -0.100820296 -0.0053367587 0.06273639 0.015452734 0.03821841 -0.02590096 0.1367892 -0.099338435 0.033390135 0.08420042 -0.07447386 -0.06476824 -0.0025669516 -0.03630197 0.022151768 0.023464134 -0.21794039 0.10526344 0.05688707 -0.05365542 0.054052774 -0.190436 0.12829414 -0.01494566 0.03364703 -0.18217812 0.047454983 0.004028666 0.023276811 0.029619142 0.11205241 0.19746847 0.0196726 -0.14334947 0.06937258 -0.13393983 0.030191168 0.040073488 0.025155535 0.007673822 -0.010442028 0.16476063 -0.04023907 -0.050182503 0.040711835 -0.17813298 -0.020123594 -0.023622353 0.12797923 -0.22129475 -0.07605692 -0.14661966 -0.01316318 0.042373173 -0.085094094 -0.11178244 0.0021492047 0.15673806 0.00988754 0.039843466 -0.027092718 0.24960482 -0.07599133 0.0601607 -0.102550566 -0.11391719 0.116005085 0.02137175 -0.05465737 -0.006754888 0.06146918 -0.14176133 -0.1398107 0.1595246 -0.18621904 0.029129598 -0.011376785 0.22445533 0.0007818904 0.23402995 -0.017515792 -0.045383614 0.087941535 -0.07017407 -0.043141745 0.09700964 -0.035228696 -0.055774976 0.014630068 0.19108702 -0.08355817 0.02351158 0.12781174
月 0.039103612 0.11652815 -0.07916651 -0.02090434 0.010218728 -0.004403795 0.09131029 -0.046708163 -0.0026052245 0.11283366 -0.103661 0.18803698 -0.12055813 -0.033504177 0.19424786 -0.026755797 -0.07878331 0.07663693 -0.095149264 -0.004936295 -0.12011127 0.16048154 -0.17967647 0.07969667 0.097699486 0.054225057 0.09826876 0.06420358 0.07415047 0.21297453 -0.0825507 0.03992323 0.18465142 -0.021893827 -0.028204713 -0.0836838 0.024798896 -0.05059849 0.16048451 0.15012233 0.106849544 -0.13979368 -0.020635003 0.053306054 0.055067983 0.08453122 -0.074598245 -0.09701197 0.18588004 0.008477662 -0.16658755 0.009456875 -0.10001113 0.019205729 -0.00338198 0.15134828 -0.057941873 -0.026834862 0.098110706 -0.02552713 0.12846975 0.006234159 -0.034588594 0.10519505 0.10612544 0.14733908 -0.11761537 -0.11235686 0.027120497 -0.094503015 0.17161855 0.034735654 0.1945488 0.010077029 -0.021509062 -0.058172047 -0.012701248 -0.10206522 -0.19319615 0.0815365 0.049152333 -0.018015685 0.048729975 0.017794568 0.1143526 0.12997113 0.19128193 -0.013813322 -0.0028728987 -0.0024885857 -0.05512018 -0.11955639 0.10299096 0.022488061 0.18815136 -0.016759893 -0.15816721 -0.10473341 0.09186876 0.0104175545
まし -0.014481956 0.09622 -0.116011135 -0.0518131 -0.11329767 -0.052576803 -0.08866757 0.039453097 0.021351812 -0.11545491 0.07556653 -0.03355752 -0.104320705 0.20422399 0.013432103 -0.018452255 -0.06800005 -0.024969548 -0.0089405915 -0.039131712 0.070617415 0.029311182 0.12830135 0.08846042 -0.19274907 0.07249725 -0.0073895967 0.085321724 0.15722686 0.050798867 -0.13913028 -0.33879483 0.20414202 -0.005566502 -0.040029585 0.12114938 0.024138138 -0.113696516 0.043750465 0.013226243 -0.10816077 0.03638987 0.00386238 -0.21331367 -0.06669873 0.05403203 0.14395466 -0.17086944 0.011623432 -0.025176588 0.10082542 0.12775658 -0.043940954 -0.01011227 0.123935096 0.05464742 0.05207701 0.01900433 -0.13857117 -0.06520571 0.084941216 0.15686178 -0.01669092 0.056986835 -0.013523098 0.050276358 0.0043022283 -0.08367167 0.0558049 -0.01851739 0.16014802 -0.0089728255 -0.041006543 -0.1575299 0.019030051 0.014933247 0.037515443 0.12718977 0.15703262 -0.0021498005 -0.02868438 -0.20272745 0.06285601 0.11646306 0.09735194 0.048720524 -0.14975175 -0.014385698 0.03330322 0.10226062 0.014950254 -0.099073134 -0.0028395792 0.058329985 -0.22118206 0.04912107 -0.08289864 0.18387392 0.061088987 0.07492041
よう -0.11375125 -0.068078645 -0.057678208 -0.19195917 -0.15448889 0.17362332 0.005564279 -0.0042101406 0.09134659 0.1039314 0.07741169 0.0893095 0.09175011 0.0035641373 0.029077742 0.09023908 0.27582577 -0.06311625 -0.16473892 -0.083055995 -0.15830866 -0.07945162 0.082964934 -0.23529972 -0.007580274 0.04970496 0.059904657 0.034179296 -0.050234362 -0.07176802 -0.005384613 0.05950339 0.11741759 -0.05389122 0.0094147865 0.007923047 0.023191996 0.021374302 -0.048773415 0.09944817 0.10536261 0.025028503 -0.0006424892 -0.022426138 0.106494054 0.05507312 -0.027835807 0.06278274 -0.039451707 -0.045684207 0.06861964 0.047966097 -0.054537166 0.11184808 -0.05475599 -0.022810094 -0.06489237 0.023058953 0.017679695 0.012254601 0.054712143 -0.09541545 -0.19137919 -0.19517677 0.12325386 -0.118628345 0.031185556 0.10720651 0.12949507 0.10560155 -0.16945441 -0.2102798 -0.13558482 0.12287144 -0.037314013 0.00224135 -0.13237321 -0.03979659 0.027603272 0.10801195 0.06639283 -0.003776457 0.09070469 0.040791646 -0.023154253 -0.10280434 0.008321833 0.025822675 0.109356485 0.045359395 -0.2675786 -0.19715488 0.07257063 0.04095628 0.0046051843 0.009300222 0.0884392 -0.012618774 0.041036937 0.22791575
より 0.06793322 -0.095216885 0.11045992 0.007861196 0.011991328 -0.07534642 0.05769134 0.021652637 0.024052389 0.0546731 0.14460596 -0.20345815 -0.031570878 0.10085925 -0.008530845 0.12542583 -0.18416455 0.10345012 -0.058906753 -0.16144034 -0.1146657 0.067792825 -0.029443821 -0.17728415 0.059101988 0.15717499 -0.036185473 0.124954104 -0.03631485 -0.17454472 0.16597286 0.022213683 -0.07161025 -0.04797278 0.030822122 -0.056064308 -0.013034449 -0.0078535685 -0.21222158 -0.107750274 0.041592795 0.09522422 -0.09983371 -0.20545146 0.15566784 0.12963428 -0.03146602 0.07584691 0.110442914 -0.101498 -0.18087225 0.06290924 0.07327189 0.0045626895 0.095390484 0.022178898 -0.073074274 0.032465372 -0.023866856 -0.15669335 -0.101090536 -0.0020834398 0.06780098 -0.044087503 -0.04088065 0.11000478 0.012751439 -0.053270593 0.007919486 -0.030980371 -0.09122319 0.14289024 -0.036773406 0.08340981 0.011059656 0.21867703 -0.08398535 -0.021966627 0.06640747 0.034783553 0.13219611 -0.024379127 -0.104205355 0.1204421 0.23030354 0.088625364 -0.006509882 0.037031047 0.057297688 -0.0023855898 0.050180674 -0.25006542 0.06345892 -0.02986555 0.0055326778 -0.053353142 0.14524156 0.04860363 -0.12507401 0.06277674
ら -0.0894855 -0.04823534 -0.11513475 -0.011758654 -0.19815601 -0.1045509 0.15116201 -0.06419675 -0.058271285 -0.12513545 -0.23422351 -0.22060926 -0.10109846 -0.1087627 -0.040073104 -0.11498023 -0.047188655 -0.02538165 -0.0024715068 -0.021701926 0.16597256 -0.020978618 0.02251574 0.041632954 -0.040930856 0.042240303 -0.07196985 -0.18804477 0.1723259 -0.03029777 0.0799223 0.09657141 0.16142188 0.09778964 0.08629632 0.053261638 0.14953512 -0.17331916 -0.030849583 0.05569495 -0.028457837 0.014842366 0.12057032 -0.033718508 0.071868405 0.04305578 0.047666073 0.037510842 0.10832648 0.03732593 -0.008859381 0.117918044 -0.080423236 0.07886188 -0.108842336 -0.027927745 -0.1424458 0.0071394406 0.017479636 -0.07684827 -0.029408062 0.016202455 -0.008127477 -0.03591528 -0.11212136 -0.17241427 0.082282804 0.05984291 0.10132912 0.061507788 0.06379474 0.10231151 0.017654883 -0.055871166 -0.066525295 0.09356414 -0.03658478 0.20018128 -0.045793645 0.08754511 0.14152326 -0.07918997 0.19428113 -0.17413007 0.025470795 -0.024331218 0.19602817 -0.13047107 -0.03233954 -0.13345864 -0.15893137 -0.12401789 -0.117450856 -0.068356425 -0.044634122 0.011709346 -0.059769344 -0.021253362 0.06884835 0.124828376
なっ 0.098383375 -0.124720186 0.11122185 0.009708234 0.071097314 -0.045117397 -0.2137825 0.072227016 0.16250777 0.1669664 0.0012071911 0.009129614 -0.026490828 0.1007285 -0.09484648 0.02157756 0.102184005 0.032218732 0.027261386 -0.028570507 0.021716585 -0.13834615 -0.19136249 0.0929586 -0.038870145 -0.023138152 -0.028111672 -0.10501283 0.08424061 0.0028113213 -0.054549757 -0.09460878 0.028261075 -0.019182935 -0.15269817 0.18198307 -0.060783897 0.1882253 0.050555248 -0.1015011 -0.11566574 -0.069782645 -0.033139434 -0.08737449 0.054799568 -0.012858971 0.07019107 -0.072760426 0.16008838 0.13945483 0.0168306 -0.08961485 0.010594633 -0.022411933 0.34769988 -0.16267653 0.029372156 -0.15913558 0.007055807 0.098863795 -0.11840601 -0.07739863 0.0338925 -0.092075594 -0.0499192 -0.112349264 0.040506557 0.051793974 -0.027632473 -0.1235951 0.2761541 0.006286221 -0.076917335 -0.04460556 0.10285276 -0.13792329 -0.08834948 0.10521036 -0.00059920165 -0.052830786 0.029680464 -0.093969405 -0.017244855 0.0897118 0.077323526 0.051090986 -0.051228613 0.056373667 -0.05098712 0.04896889 0.16630076 -0.038834162 0.058646914 0.07238063 0.16806284 0.090197295 0.026205027 0.10066524 0.08552318 0.032933585
あり -0.21645077 0.09132326 -0.02393423 0.102700464 -0.05842689 -0.14881763 -0.09637148 -0.023283275 0.03580892 0.08738927 0.053373896 0.103769995 -0.10322882 0.07684841 0.03716086 -0.06615153 0.09913886 0.06913572 0.0074668275 0.035982355 0.07931294 0.003994657 -0.15220244 -0.05327283 0.09894708 0.09288201 0.0018841294 0.0069778664 -0.0662288 0.019106327 0.08764768 0.132239 -0.20189354 -0.03047408 -0.23612012 -0.04927426 0.01707914 0.11341373 0.036767002 0.052982826 0.13645604 0.112567484 -0.13473918 0.16492902 -0.09285545 -0.008151318 0.034603857 -0.04569497 0.16383383 0.096504375 0.018795941 -0.024654606 -0.100450076 0.059283756 0.1973518 -0.1224614 -0.22425118 -0.0051364508 -0.021604227 0.0107254675 -0.18016988 0.05657913 0.019479932 0.048076697 0.04414278 0.02743609 -0.21877548 0.0346609 0.041059665 -0.0070841177 0.026067045 0.14011556 -0.08470485 0.0011500549 -0.073616385 -0.13890964 0.008039105 -0.018685061 -0.022370024 -0.16659887 -0.06713629 0.05588712 -0.15431237 0.12022814 -0.03662251 -0.14812575 0.14545938 0.1064638 -0.12254123 -0.052010354 0.061063856 -0.0027921938 -0.013738851 -0.10847872 -0.09293966 -0.12114374 0.18301812 -0.1341878 0.09613642 -0.05953563
これ 0.07057382 0.08454597 -0.022606784 0.019806167 0.01923288 0.02851988 -0.16177005 -0.04770757 -0.083285876 -0.06668737 0.09768629 0.051235236 0.06725517 0.053871516 0.013417984 -0.0062204427 -0.044863857 0.12086306 -0.0070035835 0.026253808 -0.28181466 0.12730272 -0.06067823 -0.10558644 0.24159057 0.040485565 0.027185246 0.17644878 -0.10432625 -0.05575688 -0.05172575 0.12735708 -0.11016639 0.22779562 0.1217573 -0.009243501 -0.024619361 0.1943591 -0.010982544 -0.13484158 -0.05085322 0.026092116 -0.01389874 0.107932895 0.0144503405 0.009138859 0.017719282 -0.07523415 -0.11665085 -0.042450707 0.035036597 -0.109837994 0.096343376 0.14254509 -0.0068254224 -0.14620155 -0.097261816 -0.012650596 -0.12285635 0.12453848 0.09397172 -0.1042988 -0.0770571 -0.12902558 -0.012518981 -0.0013676075 -0.008879291 0.071401514 -0.04530576 -0.05539592 -0.06570338 0.14783308 -0.01810821 -0.004345416 0.04201519 -0.12304447 0.14585143 -0.017016254 -0.19846313 -0.13021459 0.09106436 0.043845654 -0.11811846 0.014524891 -0.080312975 -0.11465349 -0.23012029 0.043503355 0.006644277 0.17681566 -0.13208799 0.021828087 -0.067895964 0.09602109 0.0049334103 0.18074447 -0.00735424 -0.086994134 -0.06904948 -0.12478072
私 0.017457793 0.11684844 -0.102764696 -0.16010347 -0.019973354 -0.076505005 0.02368548 0.1616562 0.08672699 0.26163325 -0.005995509 -0.056886688 -0.116164744 -0.18661837 -0.0061550853 0.052502673 0.027966605 0.056443147 0.09526988 -0.08240756 -0.05677432 0.077394806 -0.030533472 -0.0797355 0.13550356 -0.11839447 -0.046083063 -0.23777956 0.08196335 -0.14188616 0.12433232 -0.124511406 -0.053110037 -0.088678725 0.089436576 0.017933752 -0.0896826 -0.12859078 0.08084707 -0.061472278 0.021885976 0.15249255 0.014623289 -0.11839554 0.053735357 0.010917233 -0.1093562 0.049992267 -0.06812329 0.022664228 0.047272123 0.03922 0.10065375 0.17538497 -0.015001636 0.026223486 -0.28821287 -0.13026579 0.032847676 -0.018146617 0.019029273 -0.20737906 -0.0754397 -0.020018991 0.0154123865 -0.120794296 -0.03638615 -0.05752825 0.06288873 0.062053446 0.08745424 0.033293396 -0.030875279 0.029224476 0.08216535 -0.19295526 0.15662166 -0.060736205 -0.040488098 -0.0055484413 -0.04875289 0.024808004 0.04996628 0.03661774 -0.01223051 -0.018711615 0.030078027 -0.26681545 -0.10449617 -0.066717885 -0.040275764 -0.074191265 0.01111591 -0.109990776 0.17173225 -0.14445168 0.020614851 -0.06720991 -0.09482183 0.015762815
れる -0.020067828 -0.06588481 -0.05692858 -0.011898654 0.0767918 -0.09219985 -0.00183936 0.17629744 -0.07558182 -0.16667736 0.11273895 -0.11044492 0.0017497782 0.068588406 -0.053585377 0.005247412 -0.16578096 -0.047876336 -0.15869702 -0.010535426 -0.21105549 -0.16164532 -0.21691917 0.014288855 -0.070908 -0.021980118 0.017404662 0.103323445 0.023504278 -0.14930098 -0.1725508 -0.024299743 -0.05980202 0.057170212 -0.03530058 -0.05101685 0.20141518 -0.25101444 -0.13442154 0.1700777 0.009643968 0.04568622 -0.1035748 0.11609816 -0.07675067 0.0023478928 -0.03127675 -0.09183221 0.103345014 -0.019677132 0.005015556 0.003995167 0.090167314 -0.13131957 -0.10148635 -0.0015058101 0.13305521 0.04266787 0.11471906 0.08325503 -0.1259051 -0.18527302 -0.019254163 0.09304812 -0.18518434 0.0014565887 0.11840912 0.08925381 -0.053442277 -0.12516123 0.03715403 0.0012782096 -0.19422688 -0.058569625 -0.06555734 0.08579806 -0.017432945 0.12131803 -0.13186283 0.02863396 -0.02682877 0.010420246 -0.027354185 0.054916542 0.010576443 0.0030407754 -0.1259719 -0.03960246 0.039968144 -0.09494596 -0.011021616 -0.124398604 -0.17063043 0.06734799 0.04752245 0.11987038 -0.10537446 0.02806353 0.12450931 -0.029245684
彼女 -0.08955469 -0.1515891 0.105600774 0.028839495 0.012837396 0.064658105 0.1396628 -0.04901263 0.055312265 -0.028607978 0.035101593 -0.1571114 0.07037137 -0.056263745 -0.091666356 0.16597822 -0.017553622 0.044511437 0.12555236 0.07406119 0.0024960341 -0.011928837 0.026323767 0.064163595 0.020415502 -0.027421623 0.054363616 -0.0057750237 -0.0035219109 -0.1330159 -0.26618156 -0.21209894 -0.11189635 0.12799539 -0.10971851 -0.08232726 0.1121975 0.039162993 0.16102235 -0.12307382 0.02224516 -0.13510433 -0.045439593 0.021516055 -0.07114488 0.09428697 -0.00055765634 -0.18910988 -0.10637311 0.091365375 0.05507457 -0.0016522952 0.121760994 -0.15262738 -0.12955761 0.108467124 0.06629796 -0.2586843 -0.1336 0.06010806 -0.08425884 0.12527211 -0.11757718 -0.07577992 -0.011369295 0.07488455 -0.03327057 0.051698297 0.038549807 -0.22495113 -0.054401606 -0.06968181 0.027792942 -0.050766964 0.08367565 0.08237282 0.04212137 0.017746964 0.0069247643 0.17002968 0.026319582 0.101375945 -0.09885823 0.07502232 -0.20479676 -0.1839466 0.19584626 -0.049181662 0.083607666 0.04125367 -0.03821311 -0.020881897 -0.046769608 0.06776123 0.08340925 0.02994531 -0.042560004 -0.05267263 0.022452762 0.038100537
1 -0.16649735 -0.023451064 0.09279821 -0.120170884 -0.10990059 -0.1324107 0.09444882 0.10354646 -0.17525628 0.05243758 -0.052812316 0.02343047 0.012395622 0.009855281 0.08498517 -0.040434796 -0.053641617 -0.030652884 0.024659783 -0.007856252 0.09458555 0.019440621 -0.00021245613 0.010402062 0.032291424 0.028788477 0.0730327 0.052481715 -0.13374859 0.24587925 0.042471807 -0.14762066 0.12535582 -0.12816708 0.117574215 0.073654935 -0.08772996 0.004749405 -0.1492379 0.048906475 -0.11229328 0.09613921 -0.014471237 0.10751061 -0.16223212 0.14103131 0.09918027 0.104171716 -0.23484017 -0.06419152 0.03025056 -0.15360418 -0.13461262 0.019855812 0.022512618 -0.19427508 -0.040954396 -0.069589555 -0.03292488 0.07939621 0.037394594 -0.0041857627 0.008617702 -0.054298688 7.0818336e-05 -0.037502084 0.23828478 -0.09625093 -0.13751775 0.18509026 -0.15975682 0.015169278 0.0794197 0.01816199 0.028218728 -0.13520494 0.036782067 -0.19147371 0.044804443 -0.08433966 0.06597089 0.03343744 -0.019349877 -0.036439665 -0.02637718 0.027948163 0.10921342 -0.041121982 -0.13079609 -0.002141283 0.0445089 0.014111562 -0.20370358 -0.17813778 -0.16867267 0.07524407 0.10050868 -0.052947268 -0.038431622 0.04478852
あっ -0.09182028 -0.12594843 -0.109455995 0.17287481 0.1718055 0.060759757 -0.053578377 0.20775579 0.0001786638 -0.028784355 0.0016191411 -0.1621938 -0.05571067 0.099759944 0.0034413463 -0.060782768 0.06361432 -0.0696266 0.19347493 -0.14816651 0.019255284 -0.118149005 -0.2199252 0.022482757 -0.07372368 0.14326209 0.13901694 -0.033478353 0.13634802 -0.10408568 -0.15454267 0.07029972 -0.027809571 -0.2129772 -0.15749358 0.06852712 -0.019236866 0.05588369 -0.023811422 0.012189639 0.05698276 -0.058107957 -0.09321311 0.091891706 -0.014836627 0.030375162 -0.051920332 -0.0042819297 0.06210924 -0.053702313 -0.0008678021 -0.07251256 0.023261378 0.16049269 0.087530024 0.029846184 -0.029305499 0.067767255 -0.033358075 0.11951271 -0.16166605 0.16560382 0.013125819 0.038384292 0.06263277 -0.11825537 0.010272762 -0.08465032 -0.020935865 -0.014749154 0.031711835 0.14207228 -0.026636463 -0.05128743 -0.09012445 -0.0043591666 -0.12648617 -0.022993479 0.100093536 -0.07316217 0.049781714 -0.11801962 -0.20730172 0.014979585 -0.157093 0.060256213 -0.16044317 0.16845278 -0.118663296 -0.103699535 0.10553709 0.0064282096 -0.044200815 -0.10106021 0.14815149 -0.016965535 0.1121145 0.08317977 0.12684269 -0.07593837
まで 0.09911251 0.05597825 0.01621353 -0.008824125 0.051039018 -0.1428876 0.1417628 -0.0129714655 -0.089305736 0.23257911 -0.034569886 0.029285364 -0.010001719 0.12607633 0.08628343 0.011931926 0.071676925 0.14972982 0.065142535 -0.17049663 -0.0079715485 -0.03709422 -0.08607887 -0.09286605 0.21827327 0.1760876 -0.17100543 -0.055166773 0.120927475 0.06283068 -0.108335175 0.12715156 -0.02289852 -0.19529065 -0.077013664 0.1383917 0.1306574 -0.046170104 -0.0058237496 0.056430116 -0.029913036 0.07537722 -0.12096131 -0.014430125 -0.06643032 -0.08098216 -0.062391173 0.0536482 -0.0063473904 -0.039920393 -0.03435742 -0.05887608 -0.09206486 -0.047753196 0.010551911 -0.06750755 0.17139515 -0.11131319 -0.03665042 0.013017233 -0.12528616 0.006605132 0.22418709 -0.09697474 0.15626544 -0.013470604 -0.08257776 -0.06641077 0.013665599 0.11005806 -0.04162795 0.0012702465 0.0033790288 -0.121284 -0.16699481 0.009998113 0.038733426 -0.086103864 -0.13636552 0.06595667 0.0148747945 -0.024873916 -0.1676041 -0.045745563 0.14270587 -0.052169014 0.109369755 0.057396628 0.13062592 -0.060395125 -0.033045232 -0.25940743 -0.040002745 0.10403005 -0.17946346 -0.100719266 -0.034564324 -0.030275654 0.04707513 0.11066978
日 0.14311747 -0.01224392 0.09543677 0.086861 0.06882849 -0.0031112756 0.03680924 -0.107140616 -0.057665423 0.014866957 -0.08294062 -0.19118953 0.192969 -0.007673276 -0.09375563 -0.02706301 -0.12754828 -0.099466935 -0.16522858 0.0035612646 -0.050573327 -0.22248535 -0.10453709 -0.032193404 -0.01790906 -0.008765244 0.017373707 0.09297578 0.14892566 -0.15587874 -0.0199331 -0.043606456 0.07150062 -0.024029817 -0.014397707 -0.1423982 0.037823197 0.2815734 0.025020832 -0.10673499 0.0042267977 -0.022536911 -0.094284035 -0.009678364 0.08675115 -0.12055996 0.1084354 -0.03848924 -0.15506881 0.20986593 -0.029618405 -0.09334122 0.028407728 0.08090623 -0.02362762 0.07122111 0.02570531 0.03799698 -0.08292204 -0.20025581 -0.0062491917 0.0428228 0.047900498 0.19673872 0.06955288 0.1185078 0.0058300737 -0.0047969227 -0.19353671 -0.017453361 -0.05801255 0.052333117 0.10980162 0.057291288 0.062294077 0.10604363 -0.03755344 -0.052609473 -0.13976479 0.023464084 -0.14177293 0.18671411 0.03615956 -0.07705703 -0.08243872 0.056491166 0.0005950653 0.1146066 0.0858102 0.13820268 0.047366478 0.05035663 -0.13829528 0.057257887 0.044212963 -0.027267018 -0.017961143 0.25782177 -0.039742902 -0.04246467
なる 0.0750164 0.07234956 0.13057287 -0.07500335 0.1219747 -0.062445723 0.0760528 -0.09474875 0.07127222 0.038985323 -0.071348436 0.088326156 0.007897629 -0.07473247 0.09884996 -0.04378629 0.0062828553 -0.09550192 -0.10051106 0.26128623 0.015063644 -0.07358852 -0.14251252 -0.046667572 0.065584935 -0.07573931 -0.12619632 -0.17279859 -0.14820682 -0.08393755 -0.0990074 -0.14301951 0.04042846 0.07580827 -0.0760987 -0.08971988 -0.047788907 0.14056925 -0.014440078 -0.07049678 0.033407543 -0.08695872 0.017654153 0.06801013 0.057674594 0.06060445 -0.07232365 -0.07739348 -0.008012092 0.15487324 -0.19942422 -0.22658183 -0.042684738 -0.0664398 0.15842628 -0.11072707 0.025906501 0.012500249 -0.011011874 0.15471676 0.078779414 -0.015409242 0.18188937 -0.10665889 -0.09766448 -0.020490164 -0.040947556 0.14444146 -0.06762682 0.01328919 0.36967018 -0.026568457 -0.07858631 -0.040704913 -0.014839825 -0.06345464 0.009344282 0.09931778 -0.054631136 -0.12816776 0.1917653 0.02932344 -0.07089164 -0.090580605 0.082682006 -0.046313826 -0.12365866 -0.07797536 0.012042576 -0.024850544 0.009312043 0.047179785 0.08988602 0.022249209 0.009197153 0.13584803 0.06456963 0.012623934 0.13307433 -0.032014627
後 -0.0512012 0.027062915 -0.12700246 -0.0138573395 -0.12238011 0.042549007 0.08542276 0.07587221 0.0017221707 0.17611952 -0.056615505 0.0053352006 0.04295982 -0.017516868 -0.0095396545 -0.16689715 0.018635383 0.18424232 -0.2173829 -0.16938424 0.06077498 0.0011378743 -0.0647988 -0.0468641 -0.003784433 0.01883142 -0.10039863 -0.0074694674 0.11818346 0.050911035 -0.03717134 0.047606196 0.09728532 -0.08960733 -0.05569007 -0.21627758 0.09397859 0.062466614 -0.038773134 0.026271738 0.10864152 0.14637816 -0.080507904 -0.09856214 -0.058662213 -0.0188188 -0.005520065 0.040486015 0.08609797 -0.074856825 -0.05367495 -0.09938792 0.056988154 -0.023682814 -0.0009773454 0.08604261 0.084278606 0.17967892 0.21293119 0.07700846 0.096039526 0.07658815 -0.080326386 0.052100886 -0.04970818 0.13095914 0.013042906 0.03795396 0.012312479 -0.15348437 0.065392 -0.10799848 0.10807498 0.2202498 -0.07290431 -0.05728579 0.26516563 -0.17356357 0.0018910716 -0.07316966 0.0643373 -0.061044984 -0.21768296 -0.069954865 -0.030498317 0.024813566 0.07830357 0.19153842 8.771053e-05 -0.11437302 0.086143166 -0.1445834 0.10030631 -0.042683277 -0.12833984 -0.0572295 0.018055594 -0.048990298 -0.07403846 -0.15742719
つ 0.2655515 -0.053232677 0.053718593 -0.017534861 0.038547363 0.062322877 0.063723 0.049976703 -0.12996103 -0.01065813 0.023508811 -0.11225683 0.05284283 0.023279924 -0.057245262 -0.14014658 0.0233199 0.10292227 -0.09073946 0.068904996 0.02029167 -0.11831792 0.013730252 0.042811435 0.0058132317 -0.06947848 -0.007485296 -0.11318533 0.21915196 -0.024400622 -0.14321491 0.060586713 -0.08171036 -0.115236215 -0.035654098 -0.0077060806 0.043321397 0.14927919 0.15181342 -0.094995335 0.0888165 -0.08325753 0.11520106 -0.053203177 0.06595785 -0.08776288 -0.040103357 -0.10638311 -0.00036246044 0.09232277 -0.034110073 -0.11074599 -0.06385896 0.19525973 -0.102371864 0.12163549 -0.1065704 0.1191175 0.06554958 -0.20399214 0.052490313 0.04630104 -0.04808935 0.19208863 0.084699355 0.2712734 -0.1882689 0.09140948 0.08471296 0.020292392 0.0077810334 0.061973277 0.028231278 0.05690102 0.14773743 0.020951299 0.06392123 0.06558315 -0.07425164 0.19401939 0.038399074 0.06691136 -0.0110983495 -0.034091048 -0.11359698 -0.01599357 -0.06534209 0.03368277 0.030583886 0.1196116 -0.03614946 0.13891216 0.039183788 -0.08469225 0.012276345 0.14893837 -0.21115926 -0.042966634 0.14982937 -0.10074319
しかし -0.0032141036 0.1485779 0.12065105 -0.044836793 -0.06706149 -0.011451419 0.015336845 -0.21306382 -0.15390384 0.14526582 0.06111206 -0.077721715 -0.077345096 0.08225944 -0.09131038 -0.086240925 -0.027116796 0.079363525 -0.08161092 -0.14065439 0.090068065 -0.03182855 -0.1341152 0.043376192 -0.011725806 0.06422257 -0.06243201 -0.027533071 0.05565153 0.020890437 -0.067023166 -0.031992506 0.08143419 0.06114397 -0.01335387 -0.009380744 0.18660723 -0.15014128 -0.05182566 0.001479951 0.043838922 -0.015534715 -0.042707592 -0.12042334 -0.20226508 0.060053904 0.10777178 -0.038643703 0.2301771 -0.121586286 -0.021043926 0.08011955 0.156502 -0.019727407 0.064828135 -0.14960703 0.03264536 -0.05902531 -0.018794272 -0.09809968 -0.15085766 0.09164013 -0.17313682 -0.11039768 -0.02975377 -0.03385154 -0.083855934 -0.04203681 -0.039110124 -0.08451561 0.06871122 0.19745733 -0.12676895 -0.010413706 -0.037108496 0.12622544 0.047586985 -0.028840063 0.17172635 -0.06472893 0.16339318 0.018330833 0.05205378 -0.021939421 -0.07042648 -0.18100087 -0.09444332 -0.011964451 0.096518256 0.08357263 0.13278677 -0.11736746 -0.091051236 -0.14192197 -0.047999885 -0.05736936 -0.018749783 0.30402672 0.03746768 -0.020205915
また -0.03350018 0.063887894 -0.035653044 0.06718633 0.09921572 -0.015703594 0.09264921 -0.050621495 -0.09625062 0.14555702 -0.08674676 -0.041755483 -0.03351456 -0.023342522 0.055126972 0.093031034 0.024052495 -0.03903082 0.18418267 -0.07011088 -0.073029734 -0.0733208 -0.095232494 -0.1306524 0.22048736 -0.04236743 -0.19253458 -0.07622532 0.120083265 0.014060882 0.0462687 0.1129898 -0.01690808 0.17430054 -0.11131903 0.029353527 0.03220278 -0.21641731 0.033540804 0.11667281 -0.017114442 -0.0833641 -0.0023664208 -0.09303069 -0.015379599 0.04344026 -0.034498435 0.20219506 0.048229776 0.08813774 0.08531611 0.032036696 0.051675793 0.056715265 0.058511205 0.06658155 -0.34982237 -0.06718683 0.13258746 -0.015956433 0.10518861 -0.0038596103 -0.12506533 -0.08850672 0.026017763 -0.03259349 -0.055552326 0.20226553 0.09427932 -0.1446137 0.10483946 -0.046269704 0.102095015 0.09206556 0.034736548 -0.036520984 0.119954064 0.062453836 0.027633762 0.05172023 0.002214724 -0.025562169 -0.062539876 0.02249946 0.004957249 0.100737885 -0.12570167 -0.01898958 -0.113803655 -0.17567152 -0.1360522 -0.10732911 0.0049936427 -0.076730065 -0.16902627 0.07948203 -0.0051045436 0.14394124 0.1893982 -0.039120667
なかっ 0.039428886 0.10389582 -0.00395496 -0.02171043 -0.14368206 -0.013435119 0.009496444 -0.049073625 -0.03456578 -0.109031335 0.14936936 -0.06961284 0.016841242 -0.053489834 -0.123013265 -0.14880496 0.22772716 0.086240284 0.0011754568 -0.18419959 0.092442095 -0.0916075 -0.2533044 0.039591808 -0.0036306041 -0.20047718 -0.045043353 -0.092996255 -0.047291875 -0.11058134 -0.19757831 -0.11712668 -0.055831682 0.096422546 -0.056647167 0.025645168 -0.092693135 0.097945504 0.1487985 -0.117878176 0.08836369 -0.033950616 -0.030168 0.023632493 -0.045166522 0.04061637 0.09131925 -0.01903094 0.032963093 -0.06985524 0.21719418 -0.017656438 0.09924069 0.06445961 0.020155674 0.020607319 0.06265401 0.08622613 -0.15481421 0.029509865 -0.030621268 -0.08301257 0.07297578 0.0142036285 0.14660797 -0.009660374 -0.07856718 0.021909447 0.13001274 -0.2037771 0.24162704 0.059218902 0.09960027 -0.064366445 -0.038853023 -0.030341974 0.18813066 0.080560096 -0.08607601 -0.054673303 -0.11748278 0.049584486 0.019670822 0.062429823 -0.0068517257 0.035765316 -0.062853225 0.23420392 0.07949377 0.017268827 0.028200818 -0.0491962 0.031435296 0.02280598 -0.019927332 0.039362248 0.08588082 -0.06444664 0.20106876 0.121517286
られ 0.014974491 -0.03653002 -0.1983064 0.061590012 -0.113971636 0.027848488 0.15579876 0.08783269 0.13229364 0.083871394 -0.051502634 0.07185362 -0.0056409473 -0.11774818 0.005059066 -0.09048204 0.16130409 -0.026542386 0.08827718 0.09325726 -0.16037749 0.026828103 0.012085723 0.014975605 0.012257527 0.117833614 -0.036751285 0.03108241 0.005878155 0.16516748 0.020344976 -0.009579738 -0.046388123 0.09029171 -0.0031301125 -0.04169635 -0.15622175 0.051077377 -0.044326454 0.08323528 0.021109654 -0.12668362 0.13945092 0.10049574 -0.14327665 -0.09211045 -0.05739474 -0.12126801 0.027186707 -0.094926044 0.10191507 0.029401835 0.024463179 0.017282844 0.21049157 -0.108853474 0.08558099 -0.02499668 -0.061182946 0.2724158 0.08030382 -0.0705858 0.03578227 0.06401883 0.036877863 0.21955073 0.071469516 0.03827858 0.0077739237 -0.14177053 0.06797678 0.12326559 0.0943799 -0.16086276 0.045011345 -0.061570637 -0.16902569 -0.013418206 0.08351066 -0.19139852 -0.14219719 0.16071379 -0.06984733 0.08580711 -0.03652027 0.06352745 -0.058214128 -0.20350052 0.050987486 0.004060136 -0.0929662 0.013841157 -0.11201134 -0.07152703 0.19591987 -0.030192574 0.044848293 0.036935497 0.17267828 0.00048525952
もの -0.017898653 -0.20613869 -0.14514011 0.20304908 -0.08086502 -0.086208075 0.10372393 -0.0029447398 -0.05642597 -0.0010440114 0.013723866 0.05503489 -0.07455551 -0.03943397 0.01899962 0.055919457 0.016577378 -0.055418808 -0.10934947 0.04303511 -0.009445973 0.15517254 0.0650882 -0.20832975 0.02509415 0.033518113 0.05427957 -0.14361311 0.119248 -0.12135232 -0.034281068 -0.06359795 0.13214019 -0.1335139 0.10149242 0.081700236 -0.11223947 0.061476227 0.03021776 0.05570499 -0.10067754 -0.15528134 0.14216416 -0.20164469 0.055816304 0.04552583 -0.0017217606 -0.20449412 -0.10445436 -0.053199787 0.12694749 -0.0517313 -0.06833745 0.09758712 -0.009049688 0.07923791 0.03369195 -0.059081066 -0.018393025 -0.050113816 0.26865757 -0.11841515 0.13189964 -0.024811061 0.11683405 0.052415073 0.11997704 -0.011298218 0.11322314 0.099262536 -0.072149046 0.0061405487 0.08042579 -0.23259294 -0.017335655 -0.044749472 -0.0025160946 0.03198482 -0.046378277 0.14362551 0.006732982 0.048817955 -0.088197984 0.18813898 0.0050180545 0.015666554 -0.027225794 -0.1623038 0.060916457 -0.0059233373 0.09298057 -0.01436761 -0.14865837 -0.124753945 0.06058819 0.03835443 -0.13639283 -0.102512345 0.01042005 0.14847395
多く 0.06210862 -0.19052504 -0.017970249 0.06522495 -0.16491298 -0.03608527 -0.052918136 0.053832367 -0.050605863 0.027090462 -0.024488416 -0.13055381 0.17683065 -0.0035754233 -0.08659123 -0.067563556 0.14760621 -0.0998735 -0.035048246 -0.023742132 -0.082263365 -0.18430439 -0.08655538 -0.00097649306 -0.16977414 0.10096741 0.034749676 0.03290682 0.039246332 -0.003323742 -0.08903394 0.010849463 -0.02939315 0.26288706 0.09463137 0.005372286 -0.019593956 -0.1445951 -0.056767218 -0.0655815 0.13591957 -0.13164665 -0.11902025 0.02042979 -0.14498588 -0.19166422 0.10705819 0.045488477 -0.13160092 0.032720145 0.055573624 -0.05123472 -0.044818744 -0.015855657 0.14828765 0.044242278 -0.11451697 -0.09047397 0.10798537 0.17024224 0.0009798172 -0.041203555 -0.1405468 -0.011406314 0.15076174 -0.047579337 0.08763215 0.020306457 0.09195811 0.06839325 0.052495524 0.081057586 -0.0896925 -0.23345782 -0.06861191 -0.06627405 0.12964906 -0.11377004 0.011569829 -0.20865352 -0.066878095 -0.07733824 0.12455254 0.053360604 0.08792716 -0.174679 -0.08799611 0.0052867588 -0.025251694 0.14289851 -0.0068516633 0.059641372 -0.1319141 0.042259105 0.06893289 0.12929423 -0.12287945 -0.014952778 -0.04624657 -0.050918285
へ -0.05391002 -0.021577975 -0.10755089 0.015661113 0.053134017 -0.08251754 0.039660137 -0.07769928 -0.07431479 0.00745039 -0.17219229 0.029265998 0.06302899 0.07594095 0.053878967 0.05992094 -0.07421866 -0.051134676 0.05525133 -0.0578289 0.0023472258 -0.028900709 0.14869043 0.10730498 -0.11787256 0.08636947 -0.05869559 -0.1632641 0.0046139965 -0.0589399 -0.11742981 -0.025594668 -0.12717284 0.07864347 0.1854048 -0.10913553 0.018597221 -0.10254818 -0.13554123 -0.0020521288 0.1307106 -0.008622901 0.07461448 0.08334848 0.17295901 -0.0070120916 0.031530887 0.07332681 0.081657186 0.006083097 0.03830177 -0.08775409 -0.037423395 -0.020285526 0.014184438 -0.079822935 -0.10332081 -0.038017552 -0.05662005 -0.057848096 -0.0684583 0.10991625 -0.050790317 0.038647328 0.1411126 -0.15930316 -0.25756392 -0.18217653 0.004758613 0.10231353 0.06322206 0.0145435305 -0.18553051 0.0035028951 0.08989019 -0.085424565 -0.17746858 -0.028490882 0.012024364 -0.08836657 0.23681544 -0.076171994 0.2012425 -0.08641344 0.1303808 -0.07077209 0.024060613 -0.09253677 -0.061625533 -0.020288644 -0.056052785 -0.025294933 0.20274948 0.12448325 0.078254946 0.25503474 0.11297672 -0.038380194 0.15198362 -0.07436941
いう -0.10421609 0.03788839 0.030959079 -0.12801296 0.15159343 0.012860103 0.06567495 -0.10725847 0.047727082 0.007156493 0.11153405 0.09837621 -0.0030517369 -0.1396783 0.09960129 0.22016104 -0.0926025 -0.09124922 -0.13019243 0.030833194 -0.10005042 -0.05133762 0.035080045 -0.12723345 -0.07873462 0.037711352 -0.0027764947 -0.20049576 0.04138744 -0.10157687 -0.01437556 0.0036927224 -0.13878384 -0.06644141 0.09084553 0.0120581435 -0.00808633 0.024055166 0.02457661 0.03893778 -0.039264884 -0.058472965 0.09899393 0.00031460685 0.010085744 -0.00057726423 0.07218863 -0.19495657 0.13982618 -0.09872332 -0.1612896 0.054686163 -0.111682914 0.022190034 0.25411898 -0.031569555 -0.018987933 0.13249548 -0.08136004 0.18524277 0.10087341 0.048062045 0.025096355 0.06197732 -0.093142726 -0.07496546 0.2909868 0.020412613 -0.10714058 0.022902902 0.036582336 -0.050216343 0.02464293 0.07707397 0.21385078 -0.025579771 -0.10322422 0.05783401 -0.062613145 -0.025947556 0.098298766 0.07330295 -0.030753508 -0.037014376 0.26452124 -0.12165991 -0.06045368 -0.12967043 0.11259854 -0.07800016 -0.0037891322 0.04554072 0.03685605 -0.08394264 0.026548835 -0.06974145 0.013996948 -0.18321045 0.1369147 0.042680196
2 -0.16844732 -0.025067484 0.12760755 -0.07173575 -0.063486435 -0.07421051 -0.016523989 0.1302245 -0.12683415 0.018073734 -0.1430664 -0.0068483623 0.08103893 0.11355621 0.059246633 0.10115893 -0.14368254 -0.14307387 0.05737391 -0.0832399 -0.09540787 0.03317148 -0.11388139 0.05257005 -0.11764697 -0.019718155 -0.036740165 0.07046135 -0.19582424 -0.027850714 0.026178623 -0.19222657 0.09571251 -0.08023038 -0.053716466 0.21179073 -0.018679308 0.060253188 0.0031759401 -0.08699914 -0.14190443 -0.048233714 -0.0016898356 0.015171006 0.008639959 0.13963115 0.111320585 0.13317333 -0.17854233 -0.004838238 0.1176406 0.051070686 -0.10947209 -0.026515901 0.11454151 -0.19530629 -0.006064893 -0.018463943 -0.118759885 0.117010385 0.042985283 -0.049247853 -0.21915607 -0.15694326 -0.10860208 0.0058632125 0.19120057 0.04299529 -0.032131683 0.06002747 -0.03872826 0.0035001133 -0.0136832325 -0.07441533 0.09503609 0.08729482 -0.08947483 -0.009799084 0.14521213 -0.11000768 -0.036133666 0.07590931 -0.09357514 -0.041322906 0.12221898 0.015025061 0.059900314 0.048347276 -0.06071306 0.050242048 -0.010497735 -0.006973749 -0.120327465 0.23514223 -0.13842438 -0.015873225 0.088344865 0.11757048 -0.11400749 0.15665911
性 -0.06838829 -0.0060685743 0.003938357 0.113978155 -0.28646278 -0.06259172 0.021860698 -0.11117415 0.022895016 0.02973797 0.05764836 -0.003796308 0.1049956 0.024771886 0.05792959 -0.13122427 -0.09739205 -0.028180454 -0.16592003 -0.010134897 0.12010495 0.07351816 0.06823767 -0.056345183 0.10103249 0.012595152 0.014159865 0.11389398 0.074531004 0.08320294 0.031211026 0.03961631 0.12650855 0.0641135 0.08593647 0.0145049095 0.082713544 -0.011415006 -0.09387083 0.05406802 -0.100582376 0.04425201 -0.037842683 -0.13089119 -0.13123743 -0.10163158 0.04548519 -0.21511802 0.05698778 0.1564366 0.010671499 0.1394602 0.21973069 -0.031881183 0.01581656 0.20248257 0.03770882 -0.14446673 -0.0014022618 -0.103489086 0.053241562 -0.13621551 0.20633887 -0.0075300965 0.1330722 0.08317962 0.006418718 0.14860587 -0.16225143 0.14570428 0.05662286 -0.058929197 0.0037741952 -0.060663357 -0.03297132 0.01248403 0.05264273 -0.14272404 -0.06471287 0.15903094 0.12748215 -0.019828238 -0.010414962 0.06827764 0.00924604 -0.1558819 -0.16511866 -0.01377462 -0.041173033 -0.019235333 0.16696088 0.2105281 -0.040456038 0.010750891 -0.11357931 -0.073645264 0.14174558 -0.05431343 -0.052688673 -0.05105426
たち 0.07690424 -0.056820113 0.13516635 -0.014773468 -0.0551576 0.1487247 0.044660494 -0.045238417 -0.16874635 -0.11171755 0.011063835 -0.14863592 0.21526265 0.22097051 -0.04515718 -0.18658493 -0.02724338 -0.03641111 0.01256403 -0.05849056 0.062212724 -0.06226939 -0.036458477 0.03122325 -0.07404557 -0.1123329 0.03500706 0.018110279 0.07326734 0.13091575 0.10157058 0.036651775 -0.14256816 -0.010902231 -0.064510055 -0.010656757 -0.0026692357 0.06160593 0.06172937 -0.15217896 0.0797363 -0.0023969808 0.124371596 0.06624893 0.033151764 -0.19788517 0.028256789 -0.15510416 -0.13153665 0.076487474 -0.02795441 -0.0012977167 0.15356526 0.0023079717 -0.06225672 0.027288023 0.06642201 -0.037087534 -0.2484376 -0.10986719 -0.0919792 0.15025018 -0.07073217 -0.1531808 -0.06381811 -0.14293389 0.13691318 0.09952737 0.08688133 -0.011956936 0.0726716 0.09109069 0.12505978 -0.18845563 0.021779837 0.17503938 0.08981895 -0.06938769 0.03987559 0.033167966 -0.008391537 0.12889826 -0.18849996 -0.06084813 0.08849545 -0.07565102 -0.050179627 0.0055860225 -0.092666686 -0.13535783 0.036104444 -0.06666107 -0.08610976 0.014218551 0.07101237 -0.10580708 0.14602369 -0.052559257 0.05070362 0.11379431
前 0.09039339 0.033031967 -0.15034513 0.08324112 -0.11987253 -0.07583135 0.04758816 -0.11747157 -0.10545926 0.060753446 0.03622178 0.013999719 -0.022930615 0.05998042 0.09557035 -0.036671996 0.08151788 0.070351355 0.10706714 -0.057148512 -0.071393095 0.030035134 0.020784857 -0.093849175 0.02346372 -0.13826893 -0.06887401 0.021120597 0.10897747 0.094940886 -0.05864507 -0.18427214 0.08921626 -0.04684198 -0.057269484 -0.0034106746 -0.004301038 -0.07023619 -0.07022007 -0.051308498 -0.23286928 -0.18424737 -0.17227703 -0.028071985 0.009665977 -0.15857291 -0.116682954 0.0011141468 0.035915475 0.011123368 -0.26099837 0.015746744 -0.15982902 0.049025673 0.020802645 0.024404895 -0.110545926 0.1902525 0.16081885 -0.14834686 0.14639536 -0.010655317 -0.042190056 0.054967683 0.0056408746 -0.11279391 0.11518369 0.012938891 -0.08219559 0.2193365 0.050413083 -0.056592707 0.06529096 0.15138102 -0.09118818 -0.03618248 -0.07824643 -0.04447146 -0.25861537 0.08371713 -0.12541369 -0.07576793 -0.06895697 -0.09808867 0.18697828 -0.04488587 0.08859151 0.006071806 0.116386406 -0.008682247 -0.052809924 -0.008391204 -0.02664693 -0.053917866 -0.13476594 -0.13277845 -0.14319982 -0.006175413 -0.0055475947 0.042181034
3 -0.20798884 0.12097783 -0.025642904 -0.118903615 -0.062208246 -0.06745155 -0.0026022017 0.18555492 -0.11532566 -0.123941965 -0.18297945 -0.16040933 -0.027183492 0.10932896 -0.01342017 -0.01621445 -0.029051729 -0.02190411 -0.023789598 0.001586619 0.10432896 0.047315255 -0.08504329 0.04853193 -0.0009523063 -0.10840516 0.10489007 0.069328904 -0.087936394 0.07662117 -0.15573396 -0.16100463 0.15769443 -0.12165022 -0.040938806 0.076645434 -0.11793326 -0.017550971 -0.10151293 0.060765896 0.03736287 0.05380426 -0.07885341 0.18234853 -0.04348236 0.1956151 -0.07228124 0.21399428 -0.1277374 -0.02069797 0.041605275 0.048301756 -0.14106286 0.021097643 -0.06779548 -0.05796973 -0.019254152 -0.15761718 0.06382005 0.2152426 0.000105760344 0.047891304 -0.15475106 -0.038835403 0.11068887 -0.032041788 0.012076439 -0.14869282 0.0349471 0.08723932 -0.15046954 0.10367234 0.02118313 -0.0635672 -0.11630609 -0.14482014 0.02391102 -0.01730948 0.11745229 -0.0030499082 0.061363425 -0.089316614 -0.1624337 0.004978147 0.18127358 -0.0057381517 0.12984177 0.058226857 -0.087652214 -0.012901922 0.00045756015 -0.15941311 -0.0701459 0.12782751 -0.079726174 0.08135281 0.032771703 -0.07562791 0.08562956 0.01793969
中 -0.093987286 -0.022413965 0.1604524 0.15061527 -0.11722841 -0.105143815 -0.053721156 0.09355015 0.18775405 0.02173108 0.039072223 0.048532464 -0.121153764 0.069244966 0.08388052 0.020338027 0.023557456 -0.09421633 -0.111131236 0.0014923697 -0.11880306 0.040726207 0.003187522 0.036485627 -0.06624264 0.2317295 0.082372196 -0.027329188 -0.0049418057 -0.21673281 0.115956016 -0.21111748 -0.012678456 0.09398217 0.07916565 -0.12859985 0.09917086 -0.21823566 0.10656411 -0.048504554 -0.2671582 -0.065538116 -0.058944378 0.037405144 -0.08409069 0.0767704 -0.18397123 0.18270406 0.13706866 -0.043484338 0.0077681188 0.078882545 -0.05334626 -0.0694204 -0.09809248 -0.015283512 -0.15237229 -0.008446203 0.042135783 0.10572381 -0.15411551 -0.11330687 -0.1242357 -0.07165226 0.082098 -0.0007255666 0.05180586 0.043675542 0.047840677 0.094212435 0.10520505 -0.0072040106 -0.09149606 -0.024698082 -0.137599 0.07017255 0.15639965 -0.09304631 0.08594789 -0.041765083 -0.061542653 0.13232468 0.075025916 -0.02668759 -0.035849344 -0.048396852 0.0034490773 0.03739084 -0.068026535 0.06827288 0.17246577 0.04075526 0.06066404 0.061819836 0.012604118 -0.005244639 -0.05501508 -0.15158385 -0.0013021816 0.11128727
間 -0.08087843 0.038703494 0.1964613 0.05592132 0.019762877 -0.00611352 -0.114565566 -0.012761156 -0.034129996 0.040909376 -0.0027097005 0.08336939 0.0872802 -0.010893146 -0.05055864 0.10693819 -0.04928775 -0.037390225 0.106674075 -0.08088257 -0.23747194 0.07986528 0.039536905 0.10203829 0.067015134 0.034632538 0.15039463 0.14734353 0.068692096 -0.019006083 -0.044889383 -0.14220351 -0.008229297 -0.11592023 0.06340223 0.04486901 0.037387524 0.13049684 0.2627054 -0.0053240205 -0.075363845 -0.025138967 -0.06318738 0.07521424 0.25403887 -0.002637579 -0.07411055 -0.14823772 -0.018263932 -0.12698561 -0.104360744 0.042675816 0.00327868 0.15846291 -0.08681813 0.034584973 -0.10070501 0.1058887 0.15585399 -0.08646225 0.10267759 -0.004360079 0.053087335 0.019141879 -0.053652603 -0.06516473 0.05086174 0.0137589285 0.011753395 0.07122767 0.14702281 0.028864235 -0.0638975 -0.0061706225 0.27838033 0.12497555 -0.044436947 0.19418295 0.027167445 0.11266505 -0.00010368701 0.031041304 -0.16619505 -0.09616351 0.1722697 -0.061417438 -0.08817168 0.15963951 0.17111862 0.0024443483 -0.02020468 0.008866801 0.1796695 -0.103108704 0.042162 -0.0120673515 -0.020660399 -0.04596116 0.08770367 -0.094877996
つい 0.007694869 -0.11101312 -0.037765455 0.25914237 0.1831352 -0.14474823 -0.19632325 -0.09602059 0.1472372 0.03054671 0.0914831 0.12822467 0.1601518 -0.06722171 -0.0060268138 -0.081508584 0.06961989 -0.11428351 0.102969445 0.12557961 -0.06359369 0.028323544 -0.16334124 -0.08910426 -0.10715581 0.05547944 0.059270117 -0.040591888 0.042932726 -0.18902394 0.09385902 -0.22612943 -0.036011107 0.06375511 -0.028683122 -0.0073981737 0.085025184 -0.021911902 -0.017576266 -0.19375543 -0.08903147 -0.0062124548 -0.10916095 -0.07210474 0.08410561 0.052902795 0.0206298 -0.01705116 0.0879023 -0.059502263 -0.04767846 -0.078910656 0.01953878 -0.12821852 0.04414196 0.031231306 0.02708415 0.022733947 -0.077288374 -0.18891521 -0.0720449 -0.108767964 0.014584626 -0.071129136 -0.058393016 -0.1363757 0.13160174 0.08950455 -0.03495746 0.03974837 -0.031254433 0.12471048 -0.09875648 0.12622266 -0.08391585 0.06371132 -0.067667924 0.16828778 0.063026 -0.15691215 -0.041854702 0.010849299 0.011082741 -0.22961766 -0.101453945 -0.0015287213 0.1152265 0.19395925 0.16806036 0.046435766 0.062358927 -0.027822142 0.047286756 0.06055688 0.0039446 0.037031513 -0.053834017 0.04953008 0.099314354 0.030240461
できる -0.019576242 -0.109050944 0.044842694 0.08359589 -0.054883625 -0.22008738 -0.03794344 0.06516188 0.070011385 0.075732104 -0.10708678 -0.064008445 -0.21351261 0.063186266 0.12804489 0.089654125 0.07421067 -0.030004526 -0.00023222023 0.08521234 0.1160465 -0.03124739 -0.16336103 -0.05013682 -0.04805332 -0.05207178 0.08970023 -0.06816871 0.06909288 -0.030771641 -0.053722966 -0.14972582 -0.09935851 0.049037166 -0.06617561 -0.0997763 0.015510351 0.0005679024 0.03958763 0.23940824 0.09780774 -0.071063235 0.11199991 -0.18339905 -0.03518701 -0.18984471 0.19206494 -0.053809103 -0.05600521 0.15923564 -0.0010823543 -0.07595388 0.024214568 -0.08776555 0.032303475 0.10111875 -0.18230703 -0.014884227 -0.026974918 0.010148362 -0.08982227 -0.080850355 0.15600431 -0.07598087 -0.012206849 -0.14984368 -0.035501465 -0.05084085 -0.12760855 0.010680463 0.085150965 -0.019204976 -0.04618052 -0.28187248 -0.10980246 -0.0163475 0.01496376 0.15562189 -0.001188546 -0.011518247 0.14652164 -0.021926684 -0.090487696 -0.035627365 0.005805959 0.04801507 -0.015041826 -0.07316202 0.029354779 0.11837725 -0.11898321 -0.14485832 -0.14222628 -0.03540097 -0.11151455 0.10127146 -0.037595823 0.081230186 0.149132 -0.16183236
10 -0.10488096 0.029840622 0.04430044 -0.11619166 -0.04997163 0.14365654 0.038024537 0.18564963 -0.09364227 0.06543556 -0.106749475 -0.055110063 -0.024248896 -0.16483176 -0.12280713 0.12881453 -0.011686843 0.0399897 -0.0068089985 -0.0198558 -0.1890019 0.030922463 -0.13368405 -0.017842535 0.004866634 0.12047659 -0.05511739 -0.021386055 0.03740275 0.017425572 0.030069828 0.05853276 0.1027168 -0.020957973 -0.10114724 0.1614431 -0.19889857 0.011401033 -0.03506834 -0.092574045 0.15626694 -0.10680654 0.059481744 -0.04358164 -0.12348269 0.13001035 -0.011460065 0.0029993395 -0.19638404 0.13511947 -0.02538318 -0.06795195 -0.07692492 -0.049324248 0.0045131897 -0.26772487 -0.016879711 -0.08982654 0.0052736057 0.05226583 -0.017846532 0.0305754 -0.15119518 -0.0054233917 0.092210665 -0.01520326 -0.0050404905 0.0009862459 -0.053393867 0.038263094 -0.20827295 0.05209552 0.120280996 -0.09612791 -0.12126271 -0.10125979 -0.01633105 -0.12695134 0.00036490825 -0.1113599 -0.0856019 0.18078227 0.16735402 0.1105124 -0.026636586 -0.073638745 0.11455137 0.12574829 -0.00028977022 -0.11907926 0.034737226 0.21808118 -0.11951008 0.09695312 -0.04510453 -0.14264527 0.0052520717 0.13008872 0.022773976 0.13949935
海 -0.2432192 -0.013653237 -0.03694928 0.10700273 0.061561644 -0.056246858 0.024784634 0.09885541 -0.16435136 0.1558226 0.019768167 -0.00834984 0.032238796 -0.16061848 -0.053634055 0.105054 -0.011766462 0.0017249853 -0.040413562 -0.055605724 -0.15102795 0.034852736 -0.023621906 -0.092534 -0.0028460748 -0.11840601 0.018633235 0.18594244 0.0028725856 -0.07624129 -0.030736191 0.0027752935 -0.012544752 0.046543352 -0.11101135 -0.025565961 -0.037030067 -0.021074284 0.23683591 -0.14073609 0.10705267 0.040223993 0.19260485 -0.021073246 0.10088632 0.084011406 -0.18023826 -0.07411567 -0.017985553 -0.015840719 0.10052704 0.00426484 -0.03318372 0.07226264 0.26978776 0.13737702 0.19121036 0.012602721 0.20942205 0.21238934 0.03811833 0.027980551 0.02796405 -0.13252652 0.0477933 0.022912327 0.08104459 0.09088607 -0.18462922 0.05770262 0.056983624 0.08923466 -0.06809735 0.08706602 0.099142656 -0.069405705 -0.071853034 0.06608657 -0.08376166 -0.119138084 -0.01611052 0.15881114 0.10945309 -0.05694992 0.01853688 -0.07538141 0.14774436 -0.12978554 -0.010906731 -0.029208722 0.010026367 0.0077313357 -0.0039097057 0.0070308424 0.11093503 0.056904484 0.12971896 -0.050659895 -0.101442486 -0.1215405
可能 -0.048857316 0.20525555 0.014679049 0.13328913 -0.03576673 0.07492763 0.15224814 -0.0026662461 -0.18410839 0.0068229297 0.089520395 -0.17310639 -0.14893079 -0.0693495 0.042583894 -0.033419184 0.002237582 -0.046686318 -0.014453444 -0.0009308916 0.004348027 -0.025154224 -0.013532057 -0.07117235 -0.107152015 0.022550134 -0.02248954 -0.07909998 -0.13347049 -0.14499436 0.058592346 -0.20001514 0.02982241 0.14515404 0.020899871 -0.23198743 -0.039391264 0.13220821 0.20897563 -0.0128418645 -0.07623156 0.01158034 0.10267728 0.22030339 0.101839505 0.094035104 -0.028029159 0.17995326 -0.07873855 -0.14459743 -0.09371142 0.012496166 -0.16169736 0.11065681 0.05836709 0.04263109 0.093202755 -0.100284465 -0.13056996 -0.02888557 -0.012678321 -0.06040427 -0.053064115 0.029720899 0.011170096 0.0034779739 0.10967519 0.004232187 0.014213204 -0.11700761 -0.15352438 0.1134957 -0.15375963 -0.08121992 0.06815472 0.035080664 -0.20836961 -0.05558484 0.053828802 0.1043722 -0.10939262 0.09434876 0.10200088 0.045512065 0.12911543 0.0696537 -0.15329102 -0.04670407 0.06593062 0.07784036 0.05059518 -0.135055 -0.05745418 -0.083937414 0.040803563 -0.004510288 0.005480729 0.047660388 0.16924715 -0.04800609
必要 0.046167735 -0.031589285 0.110998645 -0.027677603 -0.014017431 0.1376871 0.10338916 -0.019638984 -0.0338009 0.08548039 0.13794924 -0.036102697 -0.018707035 -0.111684956 -0.12101226 -0.062336203 -0.0095409425 0.007990058 -0.035785843 -0.066311695 0.005985507 0.031221345 -0.056642447 -0.27112475 0.07929113 -0.13975225 0.062383547 -0.09707399 0.009358535 0.050903738 -0.08149631 -0.07110045 -0.057373233 0.06987007 -0.09040712 -0.20188232 0.062887564 0.15111054 0.04755258 -0.04056109 0.03531289 0.23100853 0.0044047786 -0.08088307 -0.029655518 0.003997633 -0.30803612 0.052214574 -0.14440604 -0.007623994 0.0061319084 -0.07359012 -0.1055045 0.0940766 -0.07987334 0.037567765 0.07486589 -0.013000117 -0.13940735 0.09136441 0.049312487 0.0792488 -0.17573823 -0.20120959 -0.08110519 -0.04770059 0.0009445005 0.04394162 0.00078071305 -0.023691079 -0.030218767 -0.052571133 -0.09279647 -0.038896274 0.04455944 0.036261324 -0.18992156 -0.07422469 0.021644609 0.047772348 -0.033746038 0.0036544064 -0.2015484 0.13090748 0.013755212 0.005965513 -0.18343702 -0.1563009 0.14534664 0.016539466 -0.22101803 0.112224385 0.123292565 -0.12468576 -0.123730056 0.013529814 0.061992824 0.08832914 0.077540174 -0.06604467
地域 0.0019879865 0.054873824 -0.06232295 -0.08517091 0.07599714 -0.21385601 -0.120224275 0.006181705 -0.32777396 0.0040907986 -0.13357681 -0.15033741 -0.048433736 0.04768899 0.05989213 -0.087287955 -0.07116643 0.13544174 -0.15279695 0.02660686 0.026283972 -0.13189511 0.103787065 0.053094044 -0.009526444 0.018315773 -0.09311883 -0.05682178 -0.16249076 -0.06521525 0.13904318 -0.10401432 0.095954314 -0.0924342 0.05506444 -0.060148627 0.1461412 -0.15509732 0.095039405 -0.0068362756 0.039527055 -0.017877182 -0.03718575 0.12684643 0.17687918 0.035000287 -0.0030713384 0.08323745 0.1003957 -0.15824682 -0.081846505 0.086168125 -0.09638774 0.030532297 -0.11077807 -0.028734623 -0.10216348 -0.0002141031 -0.0437417 -0.11684375 0.04721863 0.08440024 0.011383324 -0.058061555 0.10439695 -0.14584689 0.05547519 0.052433174 0.0972015 0.22900857 -0.070054084 -0.06896286 -0.026030893 0.012527651 -0.028508745 -0.03335877 0.10540566 0.08242725 0.11711391 -0.09996172 -0.14095008 -0.04011737 0.1338731 -0.067581974 -0.030504534 0.0041755685 0.121266454 -0.13031086 -0.009632332 0.07271693 -0.22037238 0.0014497702 0.118154794 -0.06426472 0.11393151 0.043388862 -0.07426303 0.14056706 0.10844853 -0.016278457
なく -0.24933751 0.027027637 0.20633174 0.058633782 -0.0010746121 0.003155121 -0.008961698 0.2489838 -0.10373322 -0.1426683 -0.0685832 -0.07938251 0.10332484 -0.047331285 0.18376292 -0.15209389 0.111273654 -0.18171076 -0.044111017 0.011773842 -0.038695175 0.024871675 0.035016816 0.02138872 -0.11647947 -0.035586715 -0.076861374 0.006088738 0.08141476 -0.16771573 -0.01471937 -0.087794244 -0.11688378 0.21656245 0.029120045 0.10964477 -0.04329971 -0.08160582 0.03768387 -0.05457031 -0.07732202 0.058845185 0.11082091 0.0112556275 0.04431015 -0.062195066 0.06342157 -0.26539564 0.09652243 -0.016759166 -0.07096665 -0.045874376 0.039137688 -0.018613469 0.03771111 0.0066126883 0.018286217 0.047802746 0.00013049987 -0.002434099 0.108250566 -0.114418015 0.12681675 -0.054008488 0.18196763 -0.052863926 0.043762654 -0.22891691 0.07875901 -0.11953883 -0.05431587 -0.014752836 -0.017145788 -0.016226152 -0.07950608 -0.07181936 0.108152755 0.11764903 0.01792367 -0.06972461 0.09029281 0.013825098 0.038645506 -0.083523355 -0.09704049 0.058241516 -0.109261885 -0.06304925 0.12936321 0.09476539 -0.07282864 -0.25515938 0.012373799 0.00078068324 -0.07662441 -0.022382172 -0.050835762 -0.11727542 0.10904801 -0.1193521
でき 0.076834716 -0.06254143 -0.0056306752 -0.03163454 0.041365676 -0.091440804 -0.037406504 0.0047494397 -0.0058637867 0.03537226 0.026238943 -0.13479318 -0.08011551 0.050333254 0.18609841 0.047484215 -0.0054800683 -0.01921946 0.2543329 0.092247374 -0.040425677 -0.06693979 -0.19966586 -0.020270316 -0.14164755 0.062460013 0.0035002215 0.059542783 0.21654305 -0.10058163 -0.20764847 -0.021570068 -0.020750443 0.22869025 0.03338252 -0.041938946 -0.047676176 -0.017429048 0.037486807 0.046923246 0.049462568 -0.10881029 0.004681911 0.021230463 -0.016582064 -0.03865157 0.075415775 0.15078418 -0.022511693 0.15311745 -0.0783419 0.009608931 -0.038330805 0.12898707 0.20508468 0.062236205 -0.10522244 -0.036770936 -0.122356 0.13397983 -0.14589588 0.14081204 -0.1425823 0.020721568 -0.055410545 -0.03439138 0.12616089 -0.12647752 -0.12734182 -0.017155075 0.004422593 0.12939146 -0.08602454 -0.12518546 0.13493271 0.038203184 0.008954775 0.10762718 0.016671138 -0.22307378 0.09821917 -0.10071914 -0.06824246 0.029013848 -0.02316579 -0.03764387 -0.11148806 -0.1275271 0.20731303 0.03367537 0.020487573 0.0231162 -0.03348871 -0.14750457 -0.0035534918 0.054132923 0.20328492 0.020065662 0.09331275 -0.065249324
よる 0.05115187 0.100288406 -0.009607085 0.17956775 0.15530317 -0.01172055 -0.008543665 -0.14616553 0.038319707 0.27832234 -0.18120861 0.0069641555 0.14965586 0.16693771 0.050372347 0.025757233 -0.073512875 0.00221461 -0.032960903 -0.01751509 -0.18055767 0.11520334 0.035778407 -0.06768984 -0.22092669 0.040407095 -0.049797796 -0.16347378 -0.044375177 0.03868572 0.07123211 -0.13667051 0.021150345 0.011750053 -0.012530739 0.15883143 -0.030613976 0.08719095 -0.121041454 -0.09846116 0.10731741 0.08777901 -0.008888835 -0.17885025 -0.06525005 0.004862966 0.025506757 0.05972593 -0.05575399 -0.016222492 -0.1099968 0.21258909 -0.11105919 -0.007779849 0.15355301 -0.14535892 0.013290141 0.011997665 0.20315188 -0.011691941 0.019920902 0.10056217 0.11714139 -0.026764788 0.034943674 -0.055522062 -0.057298537 0.11183712 -0.0061761416 0.008925982 0.13902202 0.03426718 -0.056554016 0.0998791 -0.08469281 0.017287446 -0.15068725 -0.14585836 0.005833523 0.0119562475 -0.18156427 0.033355862 0.062797755 -0.07961074 -0.04539805 0.123934366 -0.010055585 0.049923167 -0.026907768 -0.020655716 0.12940499 0.012728103 0.12046817 -0.09715014 0.12124237 0.12864204 -0.018046347 0.0050007785 0.1576382 0.08471204
家 -0.007534023 0.029875403 -0.020608494 0.009820521 -0.052196305 0.086244196 -0.013151289 0.06328051 0.14858252 0.012155412 0.20706524 -0.062355604 -0.033197165 -0.06969704 -0.12143094 0.15585218 0.012412546 -0.049904805 0.0016732347 0.0033690224 0.0020540457 0.15624155 0.004783451 0.18025953 -0.025348844 -0.026241409 0.06919953 -0.1438862 -0.09952468 0.07596419 0.051071092 0.13489676 -0.13233343 0.12255757 -0.04996943 -0.058816675 0.1912051 0.0104688285 0.09708021 -0.1405078 0.009572597 0.0648956 -0.063544445 0.08039638 0.029163856 0.016561799 -0.18976897 -0.03458528 0.021945428 0.16090807 0.0102083245 -0.17213012 0.0719583 0.1739319 0.13401955 0.050471984 -0.08034866 -0.052610453 -0.19134334 -0.081240535 0.06433933 -0.064100556 -0.06273099 -0.1529068 -0.05611213 -0.15666513 0.046771247 -0.007539269 -0.30990928 0.12788281 0.07225691 -0.0034044476 -0.13272272 -0.12881029 0.0010643745 -0.080176935 -0.031504493 0.2192052 -0.01897101 0.074336685 0.0065972037 0.0813204 -0.047191788 0.027475232 -0.11721642 -0.016668918 0.02342166 0.1578328 -0.055506613 0.03098485 0.030538242 -0.023085343 -0.05087264 0.08608343 0.1796083 0.07614226 0.01421981 -0.1068371 -0.17561202 0.039195117
ず 0.065324 0.11180667 0.16567412 -0.021361714 0.05532321 -0.0023878163 -0.018502634 -1.97026e-05 0.001698656 -0.13371506 0.12532596 -0.016439652 0.012624941 -0.030566115 -0.1118592 0.114524245 0.039976604 0.118887834 0.082436085 -0.11742367 -0.1923965 -0.10732465 0.038686264 0.008864251 -0.053745944 0.2538933 0.03310345 0.08717869 0.064471275 -0.014008933 -0.014684904 0.0024781113 0.07800513 0.02187931 0.08174522 0.07448036 -0.10651888 0.02181014 -0.13677013 -0.10111951 0.0817018 0.089742176 -0.014393576 0.16740158 -0.10305134 0.097865224 0.19462839 -0.03030439 0.08252312 0.13429613 0.090891644 -0.14093633 -0.02609223 0.22129838 -0.11594173 0.13289624 -0.15206274 -0.037542947 0.009049998 -0.026378104 0.074700266 -0.009025459 -0.021679958 0.06848655 -0.038104415 -0.08471918 0.02653486 -0.09255969 -0.0832036 0.004281239 0.024347292 0.1045277 -0.0171466 0.17750108 -0.10293823 0.2847383 -0.00012206897 0.19990182 0.018424923 -0.045579698 -0.06795207 -0.01307686 0.24766774 -0.17878403 -0.035296734 -0.05871426 -0.08168506 0.03157373 0.08760103 0.05526646 0.10621593 -0.031005584 0.061576143 0.05295736 0.025680782 -0.08827472 0.0018683845 -0.05612861 -0.069793515 0.18498339
世界 0.097621284 -0.11538955 0.0939736 0.0713427 -0.016532421 0.17064793 0.24874775 -0.11080073 0.20453192 0.11164839 0.097871 -0.1422603 0.03080956 0.19136514 0.031214923 0.004989335 -0.17796664 -0.032658216 -0.10334008 0.008787722 -0.0753449 -0.08821838 -0.021437991 -0.1115591 0.12084013 0.0011823463 -0.030004675 -0.01503506 -0.12439941 0.16138396 -0.10868878 -0.017278716 0.012654307 -0.10593996 -0.084915124 0.011918335 -0.039040405 -0.024821792 -0.05540566 -0.047779955 0.018983312 0.045297302 0.102156654 0.03465402 0.051790167 -0.044020023 -0.06858232 -0.13971566 -0.16905212 0.038268674 0.048234425 -0.09732268 -0.05477326 0.09314626 -0.14110085 0.05871728 0.07617897 0.22175832 -0.006062319 -0.11791166 -0.17603827 -0.05940466 0.03348582 0.004548924 0.01848765 -0.010668953 -0.0739741 0.039370384 0.12653099 0.024382554 0.012808855 -0.06928101 -0.12091574 0.10027855 -0.110324554 0.27385065 -0.03541603 -0.069073915 0.09342431 0.12455999 -0.057220887 -0.06777012 -0.057390824 0.050378837 -0.14693217 0.023334263 -0.032964494 0.060256407 0.04585042 0.042805467 0.21885523 0.0058314265 0.0920214 0.10986769 0.053005725 0.03690515 -0.07781299 0.0027554717 0.22362944 0.053374946
ば 0.15555002 0.11704748 -0.11504013 -0.03876258 -0.059825726 0.034815732 0.075547226 0.12388764 0.05762984 0.095485754 -0.05385624 -0.116423555 -0.020571303 -0.010292305 -0.14196984 -0.22309561 -0.06806651 -0.02510759 0.043345127 0.03656704 -0.0108407475 0.1236964 -0.0787016 -0.08993103 0.065444745 0.020800592 -0.05024422 0.08074641 0.1418461 -0.032405395 -0.09628891 0.0829677 -0.042029165 0.08222446 -0.10177101 -0.047669064 -0.1545885 0.03416415 0.006239179 -0.024313858 -0.1572511 0.021759838 -0.10250831 0.11302878 -0.14855237 0.1399568 0.1632526 -0.13443018 0.103359565 0.14782073 0.054890458 -0.048997235 0.06968763 0.10646091 0.00088821235 -0.0022521224 0.006313869 -0.03829543 -0.120317124 -0.21583194 -0.012190305 0.070787646 0.12036356 -0.06449904 -0.15372518 0.16756217 -0.0029689195 -0.060834493 -0.079657644 -0.014351774 -0.06343662 -0.07865912 -0.013739005 -0.15136874 -0.1157087 -0.09094462 0.04440497 -0.005711743 0.06124219 0.08285341 0.04789316 -0.099645175 -0.09226673 -0.069701314 -0.15220724 -0.00034778044 -0.1499948 -0.07670855 0.20944886 0.0026182048 -0.00559863 -0.10592721 0.18507314 0.09182614 0.23677266 -0.14496002 0.15909828 -0.050232872 0.03495734 -0.0048612705
だろう 0.026091918 -0.023226025 0.03410481 -0.035272077 -0.09473189 0.1385894 0.13624008 -0.020232696 0.07450349 0.0024858702 -0.024688996 -0.027435027 0.10601401 -0.10089043 0.050259177 0.12338938 0.0972421 -0.058208093 0.073167115 0.028805401 0.085057534 -0.037189495 -0.025237858 -0.044217817 -0.062004674 0.060654175 -0.2168186 -0.15121917 0.057127826 0.14495349 -0.09935966 -0.19324262 -0.10297511 -0.030631686 0.15207712 -0.055529132 0.011849725 -0.008066194 0.1392398 0.060065173 0.07846037 -0.05257551 0.046870425 0.1043148 -0.0927542 0.17864299 0.02478699 -0.084657006 -0.06783132 0.09797552 -0.1562854 0.09940431 0.0020350493 0.18213381 0.057899166 -0.0044550397 -0.06558982 -0.18902087 -0.011214317 0.20261803 -0.09110256 0.014740592 0.03597613 -0.12283349 -0.16504309 -0.07509531 -0.06626666 0.04427203 -0.06449845 -0.1496989 -0.04947712 -0.017968597 0.114991195 -0.07680512 -0.011820406 0.12001979 -0.20376459 0.09675481 0.08498699 0.11500905 0.017433736 -0.06039504 -0.013336762 0.3027768 -0.050817385 0.09318284 0.03967163 0.05564569 0.030616142 0.117214374 -0.045346294 -0.13239124 -0.0663258 0.07461464 -0.18894115 -0.08891969 -0.11625056 0.009487525 0.036803167 0.116144575
一 -0.23844056 0.015170436 0.009876511 -0.0020467036 -0.10160531 -0.05137299 0.08312463 0.2163263 0.13380459 -0.15434784 -0.031616177 0.021575158 0.08718613 0.1082172 -0.017585365 -0.0065301848 -0.022476064 0.03890365 -0.08627596 -0.062216345 -0.030378712 -0.03213691 -0.09072989 0.020266792 0.014459175 0.0462299 -0.0016330692 0.05585739 -0.094772056 0.10301095 0.01575256 -0.2048943 0.18288866 -0.032793675 0.01234379 0.16794358 -0.04706403 -0.06475799 -0.15539472 -0.014313999 0.009889054 0.06957727 0.0330397 -0.14042102 0.050226886 0.19669095 0.033340875 0.22533411 -0.009790773 -0.071667925 0.18613927 0.13759221 0.050604425 -0.08042779 0.009445707 -0.06847606 -0.092441626 0.030500533 -0.02884207 0.23827912 -0.015268925 0.0165369 0.054629195 -0.10410294 0.012051787 0.01433575 0.13175051 0.058477882 -0.028724948 0.15715331 -0.066376984 0.02267288 -0.009198655 -0.105814114 0.076816306 -0.0077502467 -0.042742524 -0.16954182 0.079259016 0.10543502 0.14123607 -0.046084475 -0.22468077 -0.14684163 0.045873366 -0.05960341 -0.08280996 -0.017949814 -0.19716845 -0.094888836 0.043266527 -0.0027134034 -0.10080614 0.04844623 -0.13084601 -0.07035415 0.0108613875 0.021909049 -0.059344456 0.20821358
