287 100
है -0.1364594 0.08836758 -0.1758432 0.03319448 0.11181631 -0.045238364 0.12893398 0.19503579 0.024144627 0.013375751 -0.117410086 -0.053265076 0.09294274 -0.10288839 -0.015361846 0.07388045 -0.15130979 -0.14523026 0.030838031 -0.014028388 -0.046922784 -0.07816278 0.24157004 -0.06999638 -0.023397975 -0.05935138 -0.020601712 0.05338727 0.12683918 0.062359877 0.046301764 -0.023350561 -0.05525864 0.1773882 0.092453666 -0.012467685 -0.028473731 0.09901327 0.05554049 -0.04314754 -0.12380115 0.085093774 -0.087864965 0.044171236 0.059583664 -0.035865247 -0.16220105 -0.10387288 0.15134802 0.03099628 0.179274 0.04057797 0.059574503 -0.05220754 0.11440099 0.059137862 0.10343959 0.027333163 -0.06720526 0.18213858 -0.2454269 -0.11672272 -0.14315309 0.02367145 -0.023080144 0.024531733 -0.044562887 -0.13006347 0.01394082 0.14207226 0.0057794214 -0.1031097 0.14868304 0.06787841 0.021424377 -0.057116345 0.1632499 0.119653836 -0.079223216 -0.11606275 0.0043484606 0.021226602 -0.03047408 0.15240611 0.10107036 0.015613596 -0.02971827 -0.023500813 0.0921667 0.15693885 0.059571013 -0.10787004 -0.14489664 0.0008101522 0.07766486 0.24613295 -0.059368517 0.056006115 -0.053895578 -0.03956234
विच 0.08993345 0.019326856 0.0017353138 -0.047450982 0.0828203 -0.16026744 -0.047563035 0.18094505 -0.12602049 -0.035174027 -0.1626207 -0.04635161 0.12435968 0.11154044 0.010821151 0.15940227 -0.11212332 8.9677495e-05 -0.09398473 -0.09871167 0.08695181 -0.041368518 0.06593797 -0.06373642 0.0032851817 -0.045309704 -0.12172612 0.07075923 0.0035614138 0.026280023 0.009881326 -0.099859565 0.020743404 -0.029197881 -0.06472073 0.05797301 -0.21118346 -0.09678661 -0.11037978 -0.049771734 0.09270163 -0.074490406 -0.19903196 -0.035590332 0.051149137 -0.0051040202 -0.16219369 -0.057788465 0.009604534 -0.041096393 0.030019747 0.09948364 0.09593844 0.023352986 -0.13304424 0.09444757 0.05589499 0.23312895 -0.11073267 0.029678194 -0.21954596 0.026749305 -0.13441429 -0.032971047 -0.16891344 0.17909381 0.011523252 -0.021371387 -0.10883907 0.19768092 0.08002659 -0.15805034 0.08032405 0.038365856 -0.02619318 -0.031278495 0.1340421 0.10558988 -0.050123833 0.07367279 -0.06426055 0.07898269 0.13794304 0.12802391 0.19869383 0.116983786 -0.03270882 0.16066752 -0.08443607 -0.001161039 -0.03569462 -0.020345706 -0.1284882 -0.12642586 0.025269723 -0.035640463 0.10311373 -0.04526619 0.08956695 0.09372688
दा 7.62002e-05 0.11419528 -0.12349545 0.016319713 0.11749394 0.074646994 0.1204868 -0.021268792 0.10541171 0.037714094 -0.15312643 0.07367879 0.041134953 -0.11452029 -0.025695467 -0.061230596 -0.035196137 -0.05593057 0.22985157 -0.1338521 0.02053097 0.007975868 0.15353845 -0.0005415482 0.10440577 -0.019890279 0.18466869 0.24456921 0.14977556 0.13380826 -0.16132034 0.068220116 0.08248431 -0.06690997 -0.05433133 -0.075320356 -0.024628842 0.12546258 0.14984654 0.049311593 0.017649828 0.056847494 -0.1361805 0.040947642 0.03598039 -0.07600528 -0.019570814 0.16529272 0.06456793 -0.10886728 0.088476405 -0.0973449 -0.008757601 -0.12812148 0.049642116 -0.04553147 0.041135117 -0.083146766 -0.052147374 -0.017252505 -0.016475938 -0.10760672 0.0441048 0.12343094 -0.16099447 -0.045284353 0.011526239 0.035273995 -0.014776937 -0.027449865 0.23010466 0.17291498 -0.049066763 0.100382335 0.008268844 0.07943038 0.0643441 0.23248805 -0.14311174 0.0017159219 0.016009849 -0.12098465 0.083797336 -0.039555803 -0.063782535 -0.04781184 -0.060776383 -0.07646794 0.099911846 0.055324685 -0.09613454 -0.16831045 -0.026171578 0.013671967 0.1686293 0.048008226 -0.0050255125 0.079702556 0.18450984 0.11684014
जो 0.039662343 -0.04353243 0.1574762 -0.00565019 -0.18641773 -0.08191983 -0.030828996 -0.033950035 0.06385606 0.012710923 -0.14666125 0.07307442 0.15872924 -0.00023346276 0.15094638 0.06501302 -0.15052682 -0.16318487 0.062956624 0.014835204 -0.07706092 -0.20185159 -0.007945089 0.112806246 -0.014188215 -0.15472737 0.13691728 -0.011235875 0.121829025 -0.04233007 0.048830252 0.08519051 0.095625125 0.050200596 0.16069543 -0.17080061 -0.026125563 0.076742336 -0.08404866 0.022040889 -0.019025385 0.16018239 -0.092264175 0.005925645 0.2025029 -0.024910655 0.12600824 -0.11270707 0.19433989 0.07302842 0.062078208 0.0017559635 0.011942858 -0.095938146 0.01207827 0.11788513 0.103722 0.07554994 0.029854761 0.006318615 -0.03682134 0.059100963 0.013630838 -0.044839073 0.016036605 -0.14218712 -0.011543829 0.05519606 0.061085105 -0.049875963 -0.075429074 0.008963962 0.09872188 0.031323835 0.19426127 -0.057166945 -0.011753962 0.08878834 -0.11544877 -0.14434661 -0.020612229 -0.1182372 -0.044753257 0.30311698 -0.063560165 -0.19696768 0.09868222 0.05530007 0.0172066 0.059864264 -0.07265819 0.03705161 -0.022160625 0.14769873 -0.0115093775 0.0063524437 -0.0029397912 -0.10524711 0.08953208 -0.19148168
हन 0.0094091 0.039667033 0.034864534 -0.021475513 -0.1361569 -0.13461752 0.052287728 0.046402417 -0.076581165 0.021028468 -0.048608657 -0.0004915777 0.23028396 -0.07097936 0.062498454 -0.043934066 0.07130286 0.049061496 0.06387252 0.23225692 -0.054678805 -0.040321454 -0.013142565 -0.10372265 -0.0135310795 -0.005741956 -0.056466028 0.10247581 0.16029759 0.011714802 -0.054983426 0.04432805 -0.09480803 0.10926595 0.16604231 -0.108265564 -0.28821898 -0.22934088 -0.064148866 0.008299962 0.023430187 -0.025343178 -0.09473571 0.019486314 -0.069759466 -0.011295387 -0.103125885 -0.029268285 0.025681041 -0.15751675 -0.006842235 -0.0791127 0.090843834 0.07126954 -0.13817818 -0.059238184 -0.004124436 0.081034556 0.025294088 0.15006655 -0.041239724 0.12780553 -0.028113721 0.08069365 -0.14292426 0.07770549 -0.041124564 0.016084813 -0.054023918 0.18685323 -0.016252832 0.13996021 -0.025383743 0.06489485 0.010130943 0.14620975 0.03193596 0.20235695 -0.24501301 -0.10127223 -0.096367136 -0.032317463 0.07848473 -0.04588269 -0.098501705 0.12985186 0.10392676 0.046864633 -0.036142 0.06050464 -0.1512409 0.0750839 -0.041841254 0.036361005 0.080171615 0.040637974 0.15846798 -0.075338505 0.02190698 0.21934067
दी 0.06774802 -0.10353901 0.024249867 -0.07599342 0.060620032 -0.05893915 -0.10151874 0.11278435 -0.09631188 -0.06721553 0.029147169 -0.004129612 0.19011499 0.14438005 0.20051752 0.15293916 -0.14392066 -0.101354636 -0.09674127 -0.18060555 0.122183874 -0.1426805 -0.046028 0.11801734 0.025817482 -0.03430063 -0.166269 0.07332625 -0.16016312 -0.041096162 0.14081152 -0.14986576 0.143552 0.0592878 0.032867085 0.062223304 -0.22050121 -0.063299514 -0.10011752 0.054051377 0.00088850036 -0.070391834 -0.08625603 0.120208725 0.049214523 -0.013968971 0.030221092 -0.015455888 -0.069982104 0.097234204 0.05611569 0.058811005 0.08846422 0.008939649 -0.02142887 0.10633322 -0.07841369 0.1588534 0.03807543 0.17740619 -0.030160638 0.12820382 -0.051423315 0.021797841 -0.11684935 0.048326526 0.14427638 0.08942679 0.16202305 0.1021613 0.07572098 -0.117701836 0.041150574 -0.16818048 0.16093118 0.039613366 0.008705629 -0.043985937 -0.022120215 -0.16686685 0.10824726 0.08973325 -0.009889869 0.09308631 0.021489503 -0.030287994 0.10365623 0.1068175 -0.118079275 0.03870438 0.020066505 0.1434928 -0.14230667 0.054379217 0.045963697 0.11389142 0.021902146 0.040745452 0.061652936 -0.10884698
नी 0.17628074 0.011860682 0.009356151 -0.07981634 -0.08474161 -0.0774659 -0.18817656 0.14782251 0.1256351 0.036816657 -0.14408082 0.10400132 0.216013 0.0066595767 0.014149352 -0.0046082926 0.054010283 -0.12444388 0.090610504 -0.080700554 0.05907049 -0.0979323 0.09180587 0.08458656 0.03659875 -0.08177549 -0.012565774 0.05874012 -0.09119937 -0.027419018 -0.008196257 0.20542006 0.07954136 -0.043524135 -0.041271724 0.0068656756 -0.12277581 0.22905008 -0.06712153 0.016120395 -0.0919754 -0.031715143 -0.026031088 -0.016277157 0.04814994 -0.12929422 0.08713906 -0.026177922 0.18895406 0.1082322 0.098388314 0.044923156 0.043852743 -0.13986254 -0.0032471246 0.14262496 -0.034859627 0.10380694 0.0953602 0.17748085 -0.014066987 0.08772568 -0.06373167 0.07309732 0.10953032 0.027679583 0.046203658 -0.035642758 -0.08227495 -0.106372386 0.12860201 0.10108135 0.03041158 0.036127422 0.08381095 -0.07590041 0.037311036 0.058435194 -0.19664101 0.022244457 0.2718138 -0.13502763 -0.060213458 0.095595956 0.0076001515 -0.06770195 0.023482028 0.08723056 0.21817455 0.15784232 -0.019233473 -0.008740468 0.065886855 0.040135 -0.1389761 0.08111464 -0.086393446 0.050408 0.10687262 -0.1293897
दे -0.008142452 -0.007861688 0.030906618 -0.049621426 -0.039541528 0.0048788334 -0.0060464726 0.06745739 0.020879436 0.04413977 -0.11925851 0.05957706 0.19709332 -0.18579541 0.08736886 -0.07446952 -0.11406766 0.07424286 0.14353341 -0.029301517 0.045582555 -0.20249602 0.092468776 -0.08129962 -0.08979965 0.07876942 0.08029784 0.059078373 0.09689822 0.09156506 -0.009296333 0.07175934 0.05742345 0.091300175 0.08744486 -0.14506413 -0.12394412 -0.16836129 -0.018111559 0.030978832 -0.06571025 0.0023929847 -0.06529143 -0.04651127 0.12020861 -0.033246174 0.03302984 0.023626097 0.072483234 -0.083826475 -0.048268184 -0.03715083 0.12439642 0.00693186 -0.103047594 0.13647613 0.059896335 0.17659225 -0.08947865 -0.0480303 -0.03101753 0.12304222 0.040263243 0.131324 -0.030483022 0.057872195 0.050065868 0.117899396 -0.025946371 0.167046 0.07639134 -0.06833182 -0.1692049 -0.081002526 0.15696341 0.08354418 0.03540706 0.06261532 -0.3578081 -0.080511294 -0.08430215 -0.17749229 0.013897075 0.2160042 0.05899924 -0.056143906 0.12203332 0.07731657 -0.026628567 0.07178721 -0.0890352 -0.0424765 -0.08952641 0.054632463 0.08834508 -0.047439013 0.1958702 -0.05477472 0.07913537 0.14335494
सैह -0.0103977015 -0.06617388 0.019246142 -0.052711993 -0.029867096 -0.19063163 0.009125173 0.12899928 -0.23950407 -0.08107236 0.04990465 -0.15926275 0.08463723 0.1984431 -0.071371764 0.11382746 -0.046127915 -0.042607516 -0.1177204 0.09417047 -0.12058534 0.14130571 0.023471113 0.056156393 0.1518441 0.023187434 -0.03324952 -0.09006394 0.10070321 0.10131243 -0.018028809 -0.030476546 0.0442941 0.079328924 -0.045853376 -0.12635005 -0.10525997 -0.028624754 -0.13059814 -0.080837525 -0.057547234 -0.0063921507 -0.06849482 0.17994398 -0.1934 -0.004491161 -0.1687468 -0.06288212 0.09315969 -0.14360423 -0.0099264495 -0.013737883 0.01997395 -0.05880903 0.005815385 -0.07993771 -0.074853 0.08035939 0.08090961 0.06077558 -0.011213002 -0.025994323 -0.030247211 0.09476074 -0.12994713 -0.045052093 -0.019136636 0.08959046 -0.014686771 0.046219792 -0.21154813 0.15218967 0.16634363 0.08165026 -0.22893792 0.15428913 -0.008545417 0.15550499 0.008759292 -0.14742653 -0.005874151 0.02485147 0.042944666 -0.059550256 -0.026249675 0.094767444 0.090680584 0.12196337 -0.08307054 -0.06859862 -0.06276803 0.17904198 -0.07796459 0.08283867 0.023344548 0.12718184 0.012932706 -0.2004787 0.07531259 -0.037626974
ते -0.05102975 -0.006461461 0.0037186176 -0.036643047 -0.03444095 -0.1464593 -0.06393269 0.07046583 -0.051729847 -0.038050923 -0.12163221 0.106258325 0.12998864 0.06891505 -0.01272812 0.18215004 -0.18000159 0.040751033 0.020421302 -0.121320546 0.06725163 0.005606044 0.042322867 0.09537631 -0.008739971 0.054664783 0.02534329 0.14258036 0.07086691 0.08296078 0.14550257 0.11546436 0.08867451 0.13526359 -0.10671687 -0.11014944 -0.14013144 0.07620929 -0.00074950035 0.13361427 -0.062020548 -0.031542018 -0.086751714 0.10167358 -0.011083079 -0.0947891 0.01725614 -0.11512824 0.23666915 -0.017609704 0.107114494 0.00014294162 0.2175842 -0.047134776 0.09265584 0.0629997 -0.048459914 0.13550396 -0.07185354 -0.10595182 -0.08239186 0.21707436 -0.036653556 0.18331806 -0.08865666 0.09145314 0.0047891713 0.15747514 0.09330141 -0.028783938 -0.076342605 -0.11644647 -0.10250895 0.019287057 -0.04539822 0.10766723 -0.016253278 0.21643803 0.028939888 -0.16951865 -0.02813387 -0.15204446 0.015290039 0.062232707 0.0840697 0.0046078293 -0.081885144 0.16703004 -0.028476154 -0.056395784 -0.027954753 -0.13533187 -0.022296872 -0.08859192 0.13993447 -0.005503165 -0.09842865 -0.0840731 0.19560753 0.05345757
ही 0.10563806 0.03190516 0.04378556 -0.118935235 -0.071872786 -0.013237262 -0.1218791 0.08911252 0.0812843 0.05984776 -0.0437498 -0.06248347 0.03637407 0.04425708 -0.069059454 0.067888856 0.06097965 -0.096022904 0.063292995 0.022206888 -0.0055295546 0.015645389 0.1199601 -0.0538781 0.04475865 -0.16451266 -0.012303008 0.11358036 0.17620757 0.11124063 -0.080689296 0.1552737 0.081952326 0.08852218 0.024889331 -0.20324287 -0.0684405 0.13910688 0.09816464 0.03728733 0.09478339 0.04446634 -0.04295927 0.14736578 -0.22071153 -0.11088133 -0.099646576 0.07110866 0.22483283 0.035922725 0.15848798 -0.060161393 -0.004669578 -0.17297202 0.0904698 0.0024669555 -0.10615627 -0.0010813619 0.12790778 0.1523005 0.0048032408 -0.0127720265 -0.16224915 0.04424491 -0.071869455 -0.06601081 0.08035329 -0.044897087 0.06658659 -0.16490877 0.00953039 0.2411711 0.01708553 0.19861913 0.10942144 0.1569493 0.087790795 0.10973288 -0.0317902 -0.0018997587 0.11952876 0.05688177 0.10974208 -0.09934294 -0.071317814 0.047551274 -0.016948886 0.13026278 0.14786297 -0.008132154 0.15651697 -0.02413216 0.11432529 0.0393602 0.034740757 0.030361824 -0.15803169 0.036271054 0.060404975 -0.031623907
तुसां 0.18002158 -0.0704351 0.06459227 -0.100959 -0.12185699 -0.15914361 -0.1044196 0.04001038 0.05214735 0.13439614 -0.031923432 0.0011339133 0.18179628 0.12093791 0.0891647 -0.087230265 0.022136891 -0.028631747 0.042375565 -0.0009144636 -0.074981056 -0.06376186 0.16600768 0.020678828 -0.17597711 -0.05332722 0.0051929923 0.24450342 0.101731956 0.033234075 -0.0074164495 0.19599026 -0.031783268 -0.049801085 0.09673494 -0.056763496 -0.1046137 0.013508238 -0.035109192 0.027705038 0.0102821 -0.10296829 0.014038201 0.038261622 -0.19220525 0.01871181 -0.0008610551 0.23091015 0.046847887 0.0029389153 -0.0247653 0.011888509 0.046393067 0.05382361 -0.0011488651 0.053941283 -0.167988 -0.0019265934 0.039018705 0.14005764 0.04223388 0.14261156 -0.04670926 0.043627962 0.004880204 -0.05255 0.008735507 -0.25870183 -0.009878781 0.062462825 0.08620129 0.26976043 -0.10568007 0.12651874 0.033868957 -0.030406706 -0.019504044 0.07774867 -0.17379768 0.017245173 0.050068893 -0.0870788 0.12581041 0.00504141 -0.07898664 0.07442983 0.1572972 0.16705151 0.025548832 0.09550242 0.040550567 0.062674485 -0.042829067 0.12808879 0.011447808 0.0038742693 -0.0683176 0.11241366 -0.07774323 0.19986066
भी 0.08453918 0.007559967 0.066669576 -0.14602749 -0.10544074 -0.16133623 -0.0696772 0.1810243 0.0018909888 -0.018301925 -0.014869985 -0.042860042 0.12673019 0.033508476 -0.12550619 0.19118804 -0.12855312 0.08693908 0.013242528 -0.0018177568 0.03654979 -0.009221898 -0.041926973 0.005918824 0.13493617 -0.18286203 -0.017962791 -0.025831744 -0.087253 -0.078898534 -0.03586394 -0.021615919 0.033700336 0.006231486 0.07913369 -0.17100383 -0.06426221 0.096155584 -0.20900206 -0.06040084 -0.054170087 -0.042673364 -0.122222595 0.08596311 -0.027351022 -0.006257462 -0.00652615 -0.15658973 0.1255995 0.04196522 0.005805016 0.030887403 0.13536261 -0.12011943 -0.012236096 0.06048563 -0.11022036 0.1351129 -0.06883467 0.18105811 -0.12894173 0.10686644 -0.100096755 0.099742495 0.013050659 0.12600845 0.11895853 0.05446267 -0.029888595 0.04709838 0.00039841564 -0.106156304 0.013419682 -0.023424892 -0.12469144 0.13174844 0.06278476 -0.009462633 -0.24563809 -0.14226858 0.03472426 -0.04677288 0.18260178 0.10980459 0.15917186 0.12451027 -0.029502016 0.11508919 0.06575772 0.052862305 -0.07138733 0.22598056 -0.05015233 0.1483291 -0.034380585 0.12820151 -0.042741217 -0.0741877 0.027940359 -0.14407744
कने 0.11528801 0.057643943 0.096701495 -0.10814675 -0.043701604 -0.046004415 -0.042639315 0.0038272208 0.03755603 -0.038890332 -0.222861 0.13455427 0.17727713 -0.06225112 0.1976595 -0.013551742 -0.008714306 -0.20022295 0.021822155 0.07945034 -0.058102928 -0.09928331 -0.023846332 -0.0619153 -0.025704635 -0.0656604 -0.17402305 0.09220967 0.070180774 0.09893282 -0.023263061 -0.0035788435 0.02846392 0.088971555 0.069846354 0.025628196 -0.32842928 -0.033915717 -0.21766481 -0.027889118 0.067064315 0.087188676 -0.10282428 0.00086800323 0.10941137 -0.11169087 -0.05231583 0.023679748 -0.061444312 -0.07540344 -0.01343667 0.06551965 -0.10793789 0.024158943 -0.15963508 0.057660837 0.15109019 0.0486636 0.11582259 -0.040599983 -0.04383824 0.06508675 0.0009521193 0.05260074 -0.015227982 0.033369962 -0.08168123 0.047891133 0.0019528004 -0.010893915 0.006696466 0.045493428 0.015272101 0.04726215 0.17511068 -0.052503 -0.014739038 0.022696353 -0.16720295 0.07389569 0.07107262 0.04673365 0.005072473 0.2546851 -0.120640285 -0.15282227 0.16333938 0.06265775 -0.15223038 0.08805156 -0.08536163 -0.08671893 -0.101754814 0.047257945 -0.043588854 -0.10721163 0.22668912 -0.032101233 0.10936411 -0.047787137
गेया -0.0052868375 0.075392604 0.018395603 0.0032620786 0.08713134 -0.20564862 -0.10574013 0.0779438 -0.038919047 -0.0919804 0.023729596 -0.086683355 0.087640405 0.18082008 -0.14328709 0.16397423 -0.23531757 -0.073793426 0.038385473 -0.029251058 -0.10309539 0.11073466 0.16612886 0.018977601 0.11136971 0.04695737 0.08555566 0.03173568 0.15229744 0.08774787 -0.13303125 -0.08219376 0.047934745 0.007868679 -0.045625478 -0.06668589 -0.015779175 0.055306524 -0.23881066 -0.06818368 -0.074538685 0.012344508 -0.073254734 0.21395019 -0.10247234 0.03184955 -0.023221994 -0.03951221 -0.070444435 -0.18060966 -0.0132373925 0.007220964 0.062763095 -0.09217541 0.16570784 -0.17633887 -0.02651275 0.021531943 0.104580685 0.049097437 -0.07825363 -0.039535973 0.05791886 0.095346965 -0.07523477 0.045778804 0.1006516 -0.03876758 0.02549171 0.08520996 -0.031937223 -0.0016685334 0.07202531 -0.046121027 -0.38273096 0.06873346 0.019129224 0.04921192 -0.044621285 -0.12825118 0.02020466 0.04268294 0.04701155 0.028199082 -0.03767766 0.123601325 -0.000274987 0.09783849 -0.08287038 -0.1325683 -0.0076851905 0.016784305 -0.09777458 0.16375002 -0.0062035606 0.1693973 -0.052222528 -0.05443759 -0.062977865 -0.041949484
होई 0.06266534 -0.03503358 0.08139362 0.039683077 0.13446222 -0.098179795 0.066109024 0.23373856 -0.098647445 0.07527761 0.0006112699 -0.16519131 0.052795812 0.06800628 -0.048667874 0.11082722 -0.112194076 -0.022016559 0.0035661985 -0.05270545 0.029083656 0.021591906 0.032869637 -0.050037097 0.13559489 0.042441167 -0.08323034 0.14027426 0.07679537 0.06724062 -0.15867993 -0.25887594 0.075438626 0.096134186 -0.034574635 0.015658967 -0.015753247 -0.12069251 -0.086723484 0.07501002 0.06351525 0.020248322 -0.104063906 0.041223247 -0.08109867 -0.09596005 -0.08427892 -0.02678523 0.056574907 -0.108659536 0.013479637 0.0791642 0.048293952 -0.067860566 0.015729336 -0.005969214 -0.013138922 0.06105482 -0.024100909 0.27943686 -0.12687983 -0.10061185 -0.16216731 0.0099695735 -0.21163733 0.03821387 0.12071468 0.06286317 0.031607427 0.03706081 -0.08970136 0.17282958 0.158457 0.14100157 -0.12120712 0.26056665 0.069737054 0.11781693 -0.10658293 0.102976926 -0.14302476 0.07273123 0.039982803 -0.097662464 0.0793885 0.12310658 -0.06528944 0.011827444 -0.17068003 -0.11672653 0.06275632 0.047557008 0.08491551 0.052998688 0.12626927 0.02887523 -0.0001300705 -0.017514303 -0.06006394 0.021729862
मैं 0.00993255 -0.14015095 -0.14611389 0.084428765 -0.10145437 -0.1428573 -0.045241892 0.066004194 0.06895508 0.0038298818 -0.12196697 0.13184778 0.09796042 0.055170827 0.044499695 0.060441528 0.12776643 -0.027913105 0.0043498203 0.08446148 -0.20672128 -0.017444083 0.12254391 0.01018642 -0.072027616 -0.045857012 -0.11503572 0.1369555 0.0030454358 -0.034236006 0.090930775 0.092550166 0.05475152 0.036439992 0.04736995 -0.048081987 -0.21401277 0.09181676 0.08369402 0.07607811 -0.023896411 0.025316041 0.012051478 0.16470236 -0.048474383 -0.008410618 -0.079286315 0.14923899 0.19294412 0.026089113 0.12127833 0.037526567 0.0437413 0.070389 0.049017373 0.022254132 0.034791004 -0.06179196 0.107770726 0.103391215 0.1441568 -0.025351098 -0.078782864 0.1289331 0.040617425 0.0056057116 0.07568796 0.011444218 -0.037211407 0.098788045 0.123112544 0.21683034 0.088363245 0.040094376 0.19645184 -0.11563125 -0.012809222 0.08420908 -0.11442062 -0.09272393 0.07732451 -0.17056416 -0.05956594 0.21704958 -0.167777 -0.07614253 -0.022405466 0.05923399 0.12870952 0.2771492 -0.071301565 0.027009068 -0.044880755 0.13324857 0.038994 0.05324411 0.09527588 0.112339936 0.031055981 -0.0898306
तां 0.2233354 0.09140321 0.13388677 -0.19237313 -0.020828461 0.10285115 -0.11495184 0.050442845 -0.05864588 0.031750463 -0.09623035 -0.054407965 0.13701832 0.099476576 -0.09217929 0.060685538 -0.004327136 -0.03454499 -0.10790278 0.012180416 0.13930522 -0.018664049 0.09363164 -0.15112159 0.039980542 -0.07374916 -0.16780894 0.12045782 0.1352392 0.052028373 -0.011356493 0.08795711 0.021947348 0.06850298 0.065283045 -0.21760453 -0.2598797 -0.0015408813 -0.027152428 -0.06661249 0.008300338 0.08442432 -0.03745852 0.11393286 -0.063975886 -0.13920638 -0.06455359 0.13746281 -0.005643503 0.031105451 0.098098025 0.118322276 0.026216634 -0.075091556 0.069038354 0.016183361 -0.04450644 0.09267052 0.06796751 0.25764665 -0.12527825 0.055255584 -0.18582113 -0.0005712331 -0.03632616 -0.05759023 -0.011346422 -0.049188025 0.15039186 -0.048696484 0.0626465 0.10845155 -0.1284829 0.024603074 0.12479566 -0.033329267 0.05641598 -0.019083042 0.14470086 -0.035326153 0.07424139 0.08539928 0.004353649 0.015157283 -0.1373942 0.17500696 0.16569762 0.15632063 0.027265208 -0.0021526623 0.009259609 -0.046169974 -0.007422095 0.021553604 -0.03150312 0.12660497 -0.18749864 0.09850968 0.038987715 -0.04944873
था -0.103152476 -0.09959482 -0.012444067 0.064089976 0.17027536 -0.118819475 0.027251674 0.2966862 0.09793531 -0.022623518 -0.01407598 0.0751796 0.06521717 -0.060107753 -0.1387791 -0.05883129 -0.062245168 -0.11883742 0.2168617 -0.15073305 -0.103244014 0.07267798 0.21051757 0.00867215 0.06104925 -0.03136118 0.05226521 -0.024507584 0.04735461 0.045891427 -0.14679621 0.08067087 0.09537238 0.12339848 -0.065106384 0.015295422 0.05548643 0.11629961 -0.1090696 -0.08888314 -0.07577639 -0.012938511 -0.019993892 0.08854641 0.013015628 -0.072381064 0.024144378 -0.082258135 0.041641667 -0.1397605 6.4379565e-05 -0.044043243 0.13750449 -0.23137388 0.112227805 0.013716469 0.0009193071 0.022310881 0.020915827 0.13316642 -0.11695668 0.05023069 -0.044217657 0.073250204 0.008212696 0.054205574 0.055256408 -0.08583196 -0.07617005 -0.0074833515 -0.015994184 0.057425957 0.20255035 0.14197035 -0.26144385 0.07320555 -0.010632917 0.15012869 -0.19823667 0.04619624 0.15293732 -0.15025383 0.08459396 0.09359397 0.09442083 0.09648521 -0.07957174 0.009870966 0.067224294 -0.04586088 0.13477942 0.08007354 0.038106445 0.09335999 0.022647796 0.08517321 -0.06129708 0.00048775153 -0.047108583 0.04518104
एह -0.10864762 0.06501443 0.02676764 -0.007679097 0.24570362 0.029508691 -0.08936783 0.0800281 0.12523982 -0.06025011 -0.0936801 -0.09481217 0.23198049 0.0067704953 0.13648438 -0.020800734 -0.0534722 -0.23501828 0.003426289 -0.029794967 0.050245866 -0.10661504 0.23486875 -0.06336582 0.04214779 -0.024247907 -0.07520387 -0.094787546 0.25716984 0.2179577 -0.08723507 0.050413255 0.066998504 0.08302778 -0.13644685 -0.014597521 -0.21913445 -0.058670614 -0.04006952 -0.051506672 0.09486141 0.040950257 -0.068969265 0.038544554 0.041475333 0.008505401 -0.02600029 -0.033156026 0.015876565 -0.051941052 -0.050148748 -0.09434513 0.0842939 -0.1546389 0.012652669 -0.020575682 0.077435195 0.14816506 0.20680235 0.14202268 -0.11641848 -0.012769831 -0.1010553 0.079616755 -0.045252305 0.030602565 0.13346086 -0.06588797 -0.05336721 0.102588885 0.12708318 -0.10315278 0.07698211 0.006941957 0.07471404 0.051918507 0.06114685 0.0019537392 0.030506682 -0.014584409 0.046448756 0.04337938 0.043663464 -0.07770792 0.0027257116 0.16082093 0.19637884 -0.034908455 0.08601783 -0.03364841 0.0890066 -0.116692975 -0.030309636 -0.052780114 -0.111806214 0.13952868 0.01296495 0.10140567 0.056000583 0.09873673
तिह्नां 0.13913153 -0.05567728 0.31607416 -0.17257307 0.000172801 -0.15034047 -0.15524383 0.14118887 0.009332328 0.0482755 -0.015136587 0.04821253 0.18147027 0.062676154 0.29684275 -0.037735842 -0.013680707 -0.1407288 0.0059817317 -0.054339718 -0.00080768485 -0.17697296 -0.011710286 0.0053948904 -0.01296518 -0.035120234 -0.015872786 -0.10974589 -0.05065209 0.00434544 0.0018189831 -0.11096394 0.14404817 0.021074016 0.08140595 0.055647615 -0.14132565 -0.0655561 -0.17711727 0.12299607 0.07313639 -0.051385444 -0.08875154 0.09846521 0.0019907139 0.018217277 0.060761094 0.037589572 -0.06542775 -0.025178175 -0.06439879 0.034307525 0.022669261 -0.039511375 -0.050893646 0.11160809 -0.028583048 0.15466852 0.09770864 0.04620224 -0.058976702 0.19448555 -0.023512349 0.044400953 -0.12453997 0.06314664 0.10286513 -0.08045251 0.10123526 0.049762197 -0.067116775 0.0392389 0.1836133 -0.05589629 0.023432927 0.06162403 -0.021357477 0.029236432 -0.22637285 -0.12238627 -0.048159953 -0.02501057 0.07456987 0.006068317 0.092147216 -0.013073454 0.06920441 0.115466826 -0.24844101 -0.008311405 -0.06921083 0.116497375 -0.08870092 0.103633836 -0.106572956 0.01889259 0.048612755 -0.07314682 0.06550374 -0.06812392
के -0.031132044 -0.019299885 0.18904883 0.11981619 -0.090231225 -0.06962694 -0.041737188 0.14886436 -0.26202366 -0.119458355 0.01740598 -0.019891657 0.025742967 0.08780113 -0.02450419 0.1657677 -0.18371198 -0.07150438 0.08885012 0.032285154 -0.15917324 0.06890954 0.11443869 -0.04404671 -0.07974656 0.09616402 -0.021706115 0.045817252 0.22339827 0.05762172 -0.066966675 -0.010138388 0.04707307 0.03763393 0.03602907 -0.16606534 -0.035805985 -0.21484667 -0.08575222 -0.071534395 -0.020954596 -0.03228604 -0.010277391 0.028923498 -0.09396042 -0.094005585 0.083450295 -0.036843855 -0.017885106 -0.20029703 0.06827996 -0.114053726 0.010556756 -0.058497135 0.110232264 -0.048609365 -0.02232279 0.16167544 -0.06546327 0.032525703 -0.008691936 -0.0030365947 0.0040664813 -0.10149852 -0.23413606 -0.14938982 0.09054756 0.15278772 0.06306348 0.03264388 -0.11568926 0.1096149 -0.08624317 0.18874994 0.058158107 0.07888566 -0.045759466 0.050653346 0.045077037 0.01190373 -0.086754166 -0.03213649 0.0368016 0.018691247 -0.1513999 0.00663768 0.08218087 0.15411046 -0.13739629 -0.14707519 0.04884758 0.043852434 0.054662813 0.063084885 0.175439 -0.02216546 0.08833186 -0.1494198 -0.05681794 0.06738333
पर -0.046383075 -0.13415913 0.050017625 0.08797509 0.09860982 -0.14726447 -0.06600972 0.20366096 -0.19426861 -0.0815147 0.031039085 0.002533178 0.18658257 0.12296693 0.043139637 -0.04631923 -0.13340268 -0.30589062 0.069623664 -0.13403423 -0.10174681 0.03249081 0.14649719 0.062344044 -0.08901161 0.08519198 -0.0418141 -0.15751666 -0.044381592 0.035874207 -0.1666218 0.041035507 0.07388862 -0.0845878 -0.03413303 0.1361861 0.0032965257 -0.030434774 -0.2748103 -0.14796625 0.025659801 -0.097354464 -0.058789372 0.049710155 0.08302342 0.05736523 0.13254492 -0.06398757 -0.11836344 -0.08072617 -0.100830644 -0.065268055 -0.0031341983 -0.012144758 0.078968376 -0.041496072 -0.081239 0.10242133 0.079337485 0.10777774 0.03968829 -0.018208778 0.07413091 0.009553169 -0.043394465 -0.12040828 0.06449829 -0.015756924 -0.0034269192 0.09396419 -0.019805841 0.041126527 0.11051074 -0.029270642 -0.04415294 -0.0090256445 -0.037928525 -0.09765942 -0.14572378 0.10356624 0.1713761 -0.0127112195 -0.0051167826 0.05939002 -0.10079127 -0.07097504 0.10412235 0.07972458 -0.058494244 -0.016580926 0.15523 0.16691291 0.0499123 0.120317206 -0.073997356 0.14168867 0.13411896 -0.010196288 -0.10250443 0.039217483
क्या 0.086365126 -0.09546071 0.10545369 -0.01083102 -0.04009457 0.07362926 -0.09374719 0.06333434 -0.041292377 0.034992814 0.060483716 -0.1553162 0.16327189 0.07402116 0.18727091 -0.08520148 -0.07756142 -0.14744595 0.15517701 -0.0906005 -0.09725539 -0.06365533 0.18581225 0.13405658 0.012802653 0.0014945086 0.07810685 0.091297336 0.089564204 0.09037884 -0.08905175 0.12699024 0.04438358 -0.17793597 -0.021647837 -0.02841328 0.029290235 -0.036575753 -0.029328397 0.0711459 0.0076393886 -0.16098496 -0.0418698 -0.082396045 -0.12246972 0.009741621 0.1310952 0.08470016 0.143964 0.031357877 -0.0039162436 -0.15781571 -0.021336049 -0.11022502 -0.015530014 -0.009754619 -0.12083398 0.116430596 0.078284495 0.20834652 0.051481377 -0.00833394 0.0034806991 -0.016266426 -0.0021269345 -0.12836058 0.06761109 -0.07632695 -0.07660947 0.1317069 0.037665166 0.2518255 -0.15188876 0.102474146 -0.084281676 0.14324711 -0.077851444 0.027898073 -0.1537794 0.06880838 0.009959865 0.019110031 0.060173023 -0.21263185 0.0113404235 0.035656452 0.09499981 0.08070629 0.15756471 -0.10268284 0.028999124 0.0832738 -0.019258464 0.07618208 -0.04787964 0.21143612 0.025198292 0.054021295 -0.04432172 0.17207581
मिंजो 0.35372344 0.100950226 0.10711732 -0.05473641 -0.15964256 0.01196726 -0.06430533 -0.015583944 -0.039355073 0.07848166 -0.17443745 -0.052651443 0.21740992 0.1533967 0.031672318 0.09677967 -0.08522625 -0.2081165 -0.02614869 -0.00019589115 -0.0875144 -0.104343936 0.11488819 -0.018101756 0.063773304 -0.08304213 -0.014709636 0.086299375 0.054464668 -0.08164854 -0.045535047 0.08172751 0.037565213 -0.24306762 0.07549967 -0.14033446 -0.070927694 0.14550196 -0.068603635 -0.06798884 -0.1256828 0.062320273 -0.062089738 0.047325972 0.07607332 -0.017937912 0.06173875 0.04745829 0.13494119 0.035637714 0.032124754 0.038148437 -0.17502959 -0.10857557 -0.02381016 0.060225748 -0.084147476 0.10185591 -0.039405387 0.12509233 -0.052220926 -0.044951096 -0.0116561465 0.02010863 -0.012101556 -0.11054943 -0.12012252 -0.054323044 0.011715727 -0.032511685 0.048153445 0.08988963 0.07333855 0.117845915 0.09616964 -0.039946105 0.093978666 -0.06015375 -0.09493505 -0.05100657 0.17510265 -0.0128793875 0.056161027 0.122324795 -0.118345544 -0.017292587 0.038091727 0.11861825 0.13833125 0.049271613 -0.08187642 0.08730304 -0.06900931 0.07242583 -0.08075598 0.12898527 -0.11005481 -0.022216026 0.12876044 -0.19331074
ने 0.10252583 0.007943503 0.019957844 0.12370485 -0.043810405 -0.1630297 -0.0017004006 0.03520777 -0.028056191 -0.05804118 -0.26689917 -0.008266791 0.20959252 0.042951103 0.011816179 0.09112846 -0.069779895 -0.17080258 0.0563941 0.10162673 -0.08216026 -0.0049236715 0.030526334 0.016939074 -0.057675917 0.05610173 -0.118505456 0.20134084 0.028713075 0.014801408 -0.055544134 -0.076026514 0.009358666 -0.044266634 -0.055687528 0.1510827 -0.16578145 -0.023030167 -0.23106755 -0.07745301 0.07185461 0.11149581 -0.15257965 0.007661629 0.11003586 -0.084453724 0.056453414 0.038747787 -0.13418771 -0.2062762 -0.07636632 0.10662547 -0.19157974 -0.01902018 -0.049668156 -0.10913239 0.09552892 -0.015662178 0.040357806 0.022158513 0.06450989 0.013165518 0.10058555 0.013668839 -0.011040859 -0.058240943 -0.07698052 0.008435294 0.010426804 0.0063326634 -0.02394369 0.049271107 0.022660438 0.0023838107 0.10570268 0.007106523 -0.025171874 -0.08085078 -0.14160031 0.08599408 -0.020952906 0.071634516 -0.022667997 0.2308996 -0.16965641 -0.19276434 0.06196755 0.025925277 -0.14360507 0.0076406077 -0.058747884 -0.003086648 -0.010661301 0.22689879 0.094682954 -0.095859714 0.24343683 -0.053689484 -0.050925583 -0.06874369
इस 0.036230754 -0.014704614 0.080611736 -0.06761715 0.1151055 0.0018380119 -0.07646344 0.060978502 -0.011656145 0.000319175 -0.18543886 0.06376952 0.046850525 -0.0926831 0.09000039 0.035941683 -0.19877356 -0.12887962 0.07503941 -0.1502669 0.06356578 0.01481537 0.0546607 -0.13557811 0.014103776 0.086118646 -0.096213676 0.16445959 0.09244547 0.17901014 0.05266362 -0.10348175 0.08317826 0.10628474 0.012352929 -0.027074246 -0.0959927 0.09352333 -0.060824245 0.029184349 -0.0051827943 0.021682546 -0.08138868 0.0020432726 0.14341204 -0.11078238 -0.02708189 -0.12032119 0.15379342 -0.08475772 0.040549744 0.11800967 0.014139677 -0.05366211 -0.08353788 0.13391012 0.19662328 0.2006144 -0.007943983 0.046292156 -0.15135649 -0.119912244 -0.16299649 0.040371697 -0.18572897 0.009732544 -0.04176717 0.20349576 -0.04024888 -0.0013627438 0.012687506 -0.023237698 -0.097782776 0.10108596 0.009472575 0.0432071 0.14970322 0.07204992 -0.16747586 0.18729706 -0.020474182 -0.0763744 -0.09231587 0.16755047 0.1260534 -0.065546095 -0.06832247 0.08102777 -0.038531058 0.15240817 0.026999695 -0.24017727 0.00444387 -0.13839275 0.026791796 -0.046089053 -0.011392054 0.029622419 0.079185195 0.02929161
कोई 0.21230613 0.0368911 -0.039154653 -0.041132882 -0.08636466 0.059109688 -0.08987192 0.06941947 -0.1090786 0.06528488 -0.13705166 -0.0361384 0.21131924 0.022952517 0.13062398 0.0612001 -0.06459938 -0.09795172 0.038195226 -0.06327607 0.13653761 -0.08227943 0.11090675 0.032892756 0.118721165 -0.02371653 -0.15669446 0.22289258 -0.050685633 -0.014191686 0.047384765 0.113471776 0.017718075 -0.08091222 0.011854796 -0.027674701 -0.11574809 0.17025863 0.0127658 0.05584791 -0.02772796 -0.087233834 -0.114102125 0.017338483 0.028096499 -0.13969591 0.079039425 0.03320137 0.17232938 0.10631313 0.12391245 0.052675806 -0.047571942 -0.04072565 -0.09806096 0.05940362 -0.04784705 0.13423662 -0.043765463 0.27488413 0.029752182 0.04467091 -0.1435399 0.04584182 -0.05557897 -0.0684838 -0.0021572425 0.0025087418 0.09142549 0.00980243 0.17045613 0.14866859 -0.16235134 0.052627962 0.16765128 0.052656006 0.16852117 -0.009485768 -0.14126478 0.012453384 0.22885436 0.092781544 -0.08412236 0.057769626 -0.07421752 -0.013683028 0.07913063 0.13331547 0.15462905 0.019962389 0.004100826 0.025526471 -0.011673467 -0.016693523 0.02843646 0.1556532 -0.051771924 0.12553674 0.048472565 -0.09345936
असां 0.17040403 -0.0130876405 0.13550745 -0.10959454 -0.097632654 -0.026024198 -0.16724688 0.11730122 0.0018702862 0.09737081 -0.12071281 0.01122259 0.08710596 0.07810262 -0.023023764 0.10665661 0.032620724 -0.021048155 0.0062609473 -0.061791815 0.12194474 -0.093021415 0.1000859 -0.11794038 -0.11831568 -0.036549516 -0.0903023 0.15771003 -0.019900443 0.031613503 0.06740047 0.17411578 0.10383957 0.06450783 0.06826794 -0.18318228 -0.096796095 -0.070956595 0.0788916 0.07365051 0.054940082 -0.067313954 -0.12639306 0.120496266 -0.05965053 -0.09759021 0.0414144 0.20127782 0.04693199 0.046419065 0.09554974 0.13486671 0.08422433 -0.02353347 -0.028653154 0.16290294 -0.075959824 0.14965358 -0.088436045 0.095787376 0.0008321636 0.14419861 -0.083437614 -0.010161104 -0.051847003 -0.12805508 0.10140509 -0.06106405 0.23196362 -0.0010502212 -0.009162023 0.049140792 -0.15669852 -0.00020544317 0.34021866 -0.14703414 -0.02959683 0.019027784 -0.061070476 -0.08050236 0.09984198 -0.124210574 0.032408148 0.10345287 -0.011147456 -0.027849779 0.050651748 0.204806 0.01624158 0.081293486 0.050183237 -0.008589865 0.012010008 0.117121726 0.022337787 -0.08341227 -0.023282403 -0.050100468 0.08265608 0.05475133
तित्थू 0.028219387 -0.098377556 0.1417935 -0.083782345 -0.10694552 -0.16693328 -0.04250691 0.20293146 -0.21988009 -0.17327715 -0.04300826 0.04019395 -0.074823424 -0.11253692 -0.021680761 0.025997525 -0.07034525 0.05521092 0.05736411 0.022054007 -0.13772593 0.086639926 0.072297156 -0.051733926 0.016404612 0.02948881 -0.0013797481 -0.06142255 0.097214416 0.1255053 0.06398583 0.09293375 0.057591364 0.075023696 -0.024345273 -0.17518738 -0.14205413 -0.043298285 -0.045642104 0.060318403 -0.23023583 -0.047598775 -0.0977336 0.016275484 -0.10537928 -0.02238542 -0.025040599 -0.117408186 0.0071844817 -0.1464874 0.035804264 0.012525423 -0.0043612015 0.05304574 0.09104847 0.1009264 0.037991926 0.085190736 0.101377234 -0.0650989 -0.0944656 0.03049113 -0.015067232 0.07517042 -0.068594284 -0.059285764 -0.09423133 0.118108734 -0.014512297 0.024566479 -0.12746537 0.17208487 -0.041229516 0.20916456 0.041389864 0.104979336 -0.12895873 0.2203547 -0.036919463 -0.1747705 0.011260303 -0.07847749 -0.10333521 0.13886115 -0.0009810736 -0.066727705 -0.0010096803 0.2176633 -0.1622904 -0.017905489 -0.15231782 -0.016500853 -0.11377014 0.12078932 0.09447942 -0.08386683 0.08775247 -0.13030152 0.061031807 0.06660974
करी 0.110484 -0.22325334 0.13104485 0.022413678 -0.14969411 -0.086720526 0.04340888 0.10554939 -0.162426 0.0032087145 0.0088271955 -0.012934803 0.122843236 0.14179401 -0.05565955 0.09766554 -0.14734294 0.030886732 0.034422956 -0.15164019 0.018901708 -0.005848069 -0.03282571 0.13216464 0.01677694 -0.13159369 0.11802997 0.117910095 -0.11524398 -0.21525863 -0.088002995 0.0011410842 0.10559542 -0.03212682 0.07595714 -0.15510656 -0.06372957 -0.05858748 -0.06975985 -0.020294482 -0.025155427 -0.014864599 -0.07077317 -0.025136089 0.04585569 0.039273363 0.18627669 -0.010103687 0.13524537 0.026212318 -0.038939886 -0.028361166 0.04082394 -0.100195326 0.06769678 0.02039578 -0.21247634 0.16343193 -0.08839063 0.10233188 0.011719998 0.14157104 -0.026853096 -0.04475768 -0.11483497 -0.13870336 0.030343512 0.12878352 0.07991319 -0.04146146 -0.07585534 0.010001016 0.04182383 0.058852237 -0.0050838725 0.21292415 -0.113211855 -0.03950613 -0.04234445 -0.06760573 -0.055710204 -0.11106466 0.10198767 0.008645947 -0.03506332 0.020156182 0.11171898 0.29043517 -0.060047023 -0.08155817 -0.057041343 0.20089981 0.0684145 0.19117552 0.08356902 0.022067964 0.015125457 -0.07469593 -0.07420039 0.0052589746
इसा -0.015622692 -0.1143996 -0.0588854 0.00039773865 0.025229098 -0.08022318 -0.11162448 0.11499474 -0.031749807 0.0029508336 0.045841914 -0.04031527 0.20666423 0.031738956 0.16387717 -0.051727414 -0.045016404 -0.1319114 0.067255095 -0.13645932 0.022791535 -0.07994556 0.044266112 0.06717103 -0.11632247 0.08196393 -0.12223552 0.036136717 -0.1418492 0.20401642 0.036516365 0.0039309845 0.10114196 0.002074688 -0.022897018 0.19093798 -0.09246929 -0.074304365 -0.051982526 0.077192836 0.13812561 -0.18734118 -0.061519478 0.03073109 0.030981725 -0.0075245537 -0.10490248 0.014706889 -0.040053144 -0.012210151 0.02286763 0.0018236012 0.03542935 0.09896551 -0.12505673 0.10484698 -0.010642066 0.109274454 0.078590415 0.17593679 0.10624544 -0.012788067 -0.039527167 0.026900368 -0.11902759 -0.049509924 0.15984173 0.055567384 -0.012666256 0.23578762 0.1704534 0.18547842 -0.07411042 -0.017398018 0.12220587 0.049646553 0.06548438 0.03759091 -0.27891916 0.10061893 -0.0147401225 -0.121981114 0.014071791 0.017543133 0.01806723 -0.17373955 0.076145686 0.021868465 -0.02072565 0.09945811 0.116665035 0.11781178 0.08667096 0.009151019 0.09463768 -0.0052413084 0.16550426 0.11354173 -0.0017752725 0.21114908
इक्क -0.019098496 -0.15313861 0.10466781 -0.00852003 0.09755043 0.11955103 0.04346715 0.048839632 -0.022529915 -0.11444754 -0.119258195 -0.028647626 0.22625448 -0.065556824 0.24913217 -0.045569297 -0.02624499 -0.23353347 0.0009059436 -0.01719427 0.075977705 -0.108103804 0.06530723 -0.01751092 0.013060104 -0.13170263 -0.19056097 -0.0017645751 0.010837544 0.052919358 0.03563457 0.08073978 0.027858773 0.0063513215 0.07013705 -0.03630751 -0.25205848 -0.16777119 -0.08962797 -0.06606615 -0.037436694 0.008972241 -0.12528974 -0.077185035 0.0868703 0.024397857 0.029046679 -0.027347315 -0.027833452 0.016251028 -0.07117933 -0.036208935 0.066355795 -0.16294783 -0.17145571 0.057221156 0.09314236 0.13088952 0.08252956 0.28917485 -0.07538024 -0.013782207 -0.072217345 0.088753685 -0.072645396 -0.050676998 0.03613625 0.08761621 0.01309112 0.10574625 0.040060103 -0.006670166 0.05848485 0.087385796 0.23673297 0.013895045 -0.027393334 -0.0624533 0.0030679025 0.15279041 0.12735243 0.09207433 0.032643493 0.03680753 -0.051291514 0.067396 0.23233247 0.028481612 -0.0062609827 0.046128307 0.048951443 -0.0076331985 -0.094216086 0.016851358 -0.047069013 0.18635462 0.0728799 0.14519295 0.019933328 0.06873053
दिया 0.014940471 0.08825863 -0.018433522 0.035724267 -0.048523527 0.053214893 -0.0930697 -0.009757307 -0.18724366 -0.14585978 -0.016080862 0.16526575 0.113007225 0.094062015 0.15895258 0.08010003 -0.1173197 -0.13423717 0.09233242 0.076025605 -0.2701568 0.056698043 0.00072643615 -0.031166753 -0.083874285 0.05831937 -0.1455593 0.08666253 0.033719726 0.109989695 0.0009707515 -0.033707175 -0.019758357 0.01686063 0.092091255 0.08300271 -0.19245718 -0.20891142 -0.21298239 -0.0018644857 -0.12244471 -0.08918492 -0.053219274 0.16751908 -0.17649786 -0.073194325 -0.08193646 -0.008891629 -0.16337192 -0.17076194 -0.06728003 0.0467237 -0.10094674 0.056781504 -0.121545196 -0.025588386 0.054428384 0.092664525 -0.00974038 0.0099709425 0.02177795 -0.10312995 0.12439003 0.036338393 -0.07354828 0.057538193 -0.03877391 0.15434869 0.008653503 0.09422677 0.07072606 0.16707052 -0.122419655 0.046583533 0.046389583 -0.11892853 -0.16433376 0.12194661 -0.053543795 -0.073827595 0.0045705303 -0.026778448 0.07050127 0.012866431 -0.12456455 -0.115534745 0.028435051 0.015244176 -0.081192575 0.1539273 -0.031381484 -0.049974367 -0.12366839 0.089600846 0.009635419 0.023888651 0.114712894 0.025448807 0.10164081 0.12221546
थी -0.058181506 -0.07705783 -0.09301445 0.0735836 0.06304448 -0.064226784 -0.088917576 0.16093794 -0.038606677 -0.050696146 -0.063763134 -0.1451285 0.25265616 0.23210393 0.068499394 0.08173694 -0.054413363 -0.19184744 -0.14225942 -0.06428094 0.054732878 -0.04692598 0.080539614 0.1656307 -0.07298876 0.032937795 -0.23948535 0.09265383 0.0021182913 0.03469059 0.004690445 -0.049550626 0.1438281 0.11223652 -0.15194364 0.01499503 -0.2212275 0.039393388 0.0652478 0.020778278 0.17695886 -0.030982038 -0.013514435 0.10360677 -0.0624775 -0.011674773 -0.011208347 0.031852733 0.09528181 0.012402722 0.06858354 0.061370544 0.048521318 0.05253618 0.067154355 -0.010447039 -0.0120074535 0.095292 0.094867595 0.19785282 0.079171225 -0.016402096 -0.13210502 -0.036049224 -0.083796754 -0.16753654 0.29894015 0.05407037 0.06352184 0.07444686 0.08860054 -0.009787008 0.04911673 -0.05255764 0.21008494 0.047439627 -0.03558114 -0.038065393 0.055580202 -0.034668297 -0.009733135 0.04920489 0.00986244 0.0497105 -0.14406058 -0.042219765 0.20120841 0.040754892 0.045634016 0.012198861 0.027190086 0.10884722 0.030080926 0.09084652 0.10177922 0.07600862 0.06679106 0.055019666 -0.07071494 0.032635804
जे -0.06398551 0.019817516 -0.11966666 0.019861046 0.10206311 -0.15759803 -0.033587135 -0.0037906023 0.025817256 -0.012379818 0.016323736 -0.023794154 0.1532731 0.19383025 -0.13895391 0.025675047 -0.15836598 -0.20261498 -0.022017501 -0.074102335 -0.15683857 0.1076981 0.27782395 -0.004101266 -0.005424343 0.019936768 0.022625351 -0.051758565 0.18442935 0.09955212 -0.10365208 0.02526079 0.00019369906 0.022864807 0.015018397 -0.006266089 -0.06605811 0.108690605 -0.16604388 -0.20762473 0.022564666 0.072021246 0.059693042 0.15861025 -0.087086186 0.036592737 -0.1214848 -0.0062569394 0.030097984 -0.021541871 -0.1016274 -0.024097765 0.018821688 0.09525841 0.15943798 -0.017791782 -0.14305578 0.0013388032 0.21742651 0.019891197 -0.120466046 -0.0003342988 -0.021528667 0.07793665 -0.02976132 -0.03773098 0.02557527 -0.09608953 -0.03717755 0.018932791 0.11634536 0.03253788 0.14049473 0.039474163 -0.20113295 -0.083856754 0.14909193 0.0148836365 0.07922877 -0.0025030281 0.22350171 -0.020199522 0.053693384 0.093852066 -0.16393174 -0.019080462 0.19066745 0.04980202 0.012389221 0.055748213 0.19832528 0.0129453 0.012554685 -0.008390026 -0.072375305 0.07562732 -0.109154776 0.08755625 -0.08454517 0.0050077136
हुण 0.1272827 0.020123282 0.15007786 -0.071169555 -0.020099645 0.12517694 -0.057150587 -0.03668064 0.10812132 -0.0056356667 -0.13589817 -0.057116117 0.15110706 -0.12638123 0.14412542 0.06644571 -0.062437367 -0.021406507 0.06875806 0.02676909 0.16725643 -0.044605535 0.032406412 -0.011223373 0.15462342 -0.083619356 -0.07011104 0.26703998 0.20206289 -0.01959106 0.0575652 -0.034581713 0.08147741 0.06140794 0.003912518 -0.022418292 -0.21121268 -0.028486433 -0.004895748 0.086648576 0.045760293 0.021543417 -0.09455069 -0.049203906 0.09352913 -0.09795979 0.052144583 -0.0028048581 0.043511793 -0.016672945 0.02809644 -0.07662856 -0.028462762 -0.21652406 -0.120859355 0.11331955 0.11487673 0.1458761 0.08971655 0.22440574 -0.14867291 0.05374709 -0.18392457 -0.02002921 -0.1426517 -0.0038419152 0.021306751 0.11739049 -0.009940996 -0.07404844 0.1549652 -0.026757512 -0.12289243 0.20021473 0.06474893 0.11576422 0.15060583 0.046691034 -0.08836901 0.1286035 -0.06610548 0.05015905 0.0034456255 -0.017045619 -0.020548355 0.17286292 0.09145283 0.073843695 0.005623718 0.056376345 -0.10250775 -0.15325594 -0.0009904902 -0.086271785 0.027554773 -0.049153548 -0.0517356 0.08094312 0.116433166 -0.01063561
गल्ल 0.21988903 0.0017848666 0.1688005 0.00867722 -0.04993102 -0.0034434292 -0.116537124 0.042886265 0.009051766 -0.08978795 -0.1886148 0.018234422 0.094835594 0.039322674 0.09486899 0.0045998916 -0.073935926 -0.16634755 0.1627616 -0.008735188 -0.02033335 0.027019775 -0.10131203 0.13010779 -0.053669 -0.16331597 -0.17028758 0.12767917 0.025817525 0.020508438 -0.13343138 0.053801883 0.16196033 -0.14923036 -0.05899423 0.03328995 -0.22593485 -0.013570078 -0.22477089 -0.03421785 0.12189863 -0.055093907 -0.02239647 0.003435312 0.042113982 -0.025810346 0.09555852 -0.11045053 -0.090763405 -0.045333877 -0.022534156 -0.061686438 -0.11255672 -0.08704489 -0.06716666 -0.030443871 0.075954065 0.040829487 0.06540791 0.20439926 0.07780247 -0.050721698 -0.14189972 -0.19311774 -0.0074192863 0.014453605 0.053794194 0.07282053 -0.067381136 -0.09001488 0.16549374 0.16465938 -0.027734138 0.11547518 0.13769644 0.031572938 -0.06901501 -0.06329007 -0.06329903 0.12307273 -0.0872123 0.042070072 0.071203165 -0.01589507 -0.09939529 0.029444095 0.00919544 0.05635972 0.013662996 -0.040482823 -0.086857244 0.17309263 0.114953496 0.23173779 0.048782412 -0.100254916 0.04319412 0.10416262 0.0064393734 0.033157606
गेई -0.01509105 -0.033128224 0.10310348 0.034138374 0.04236817 -0.13288201 -0.018823178 0.15100151 -0.31695864 -0.18356767 0.03644288 -0.04556872 0.020943962 0.15797594 -0.026494863 0.24006556 -0.2833471 -0.057360284 -0.0059303395 -0.007499048 -0.059604943 0.121989705 0.103642285 -0.049798194 0.059205256 0.06882049 -0.043316945 0.10511966 0.1261493 0.06252334 -0.053534787 -0.11344537 0.0068121348 0.0009067077 -0.027673144 -0.07220006 -0.13391921 -0.0908125 -0.18166663 -0.07412356 -0.072081 -0.024151742 -0.06917132 0.06982 -0.09702135 -0.030696848 0.009197625 -0.08929175 -0.11232258 -0.17377472 0.049996164 0.05674764 -0.057445303 0.0064273844 0.11466939 -0.06612214 -0.04185527 0.15681468 0.074731424 0.05064758 -0.13374646 -0.10041127 -0.016986651 -0.061371073 -0.21781908 -0.045842595 0.017089108 0.1686274 0.07005528 0.03159713 -0.13518366 -1.9916028e-05 -0.02655917 0.12570089 -0.13350624 0.1095362 0.011275493 0.009643238 0.12463358 -0.055129994 -0.081175484 0.09677693 -0.013677251 0.009070921 -0.06414146 0.041735534 0.036410764 0.16797696 -0.17624253 -0.13222139 -0.013861178 -0.0719962 -0.04308926 0.034754664 0.11833444 0.040196978 0.044219755 -0.11570076 -0.05694147 -0.00848582
जा -0.053091228 0.09022722 -0.08225503 -0.050873734 0.054796882 -0.048867933 -0.13111727 -0.015873011 -0.017726725 0.026701443 0.0054177395 0.06463014 0.12602486 0.036240704 0.01333741 0.06952161 -0.15468644 0.032959774 0.04809894 0.0001280232 -0.048782047 -0.04079689 0.014095964 -0.033508964 0.033035185 0.055118043 -0.06478794 0.20882058 0.17767945 -0.06812063 -0.0129534295 -0.09900751 -0.037541732 0.15180475 0.07729254 -0.00404063 -0.08559551 0.120780975 -0.13554825 0.04457821 -0.12373469 0.028512718 0.12837222 0.114721656 -0.097331576 -0.05901036 0.00984047 -0.05276911 0.030591425 -0.029697862 0.13501611 0.090402596 0.21794401 -0.005766888 0.15633683 -0.0898963 -0.111636326 0.07530884 0.019990684 0.20097204 -0.102569304 0.057100978 -0.10473434 0.1273885 -0.109741114 0.08841207 0.09888612 -0.043468673 -0.030198332 0.03912145 0.053584903 -0.040774647 -0.088458486 -0.034070037 -0.3286506 0.17189719 0.021713242 0.06561267 -0.1387234 -0.07644815 0.101911135 0.03764484 -0.00091219204 -0.008147491 -0.027822472 0.3097012 0.022021072 0.07253481 -0.019718856 0.040216055 0.039644793 0.040393215 -0.06975682 -0.10767758 0.062287055 0.20219631 -0.1776307 0.1372403 -0.056367613 -0.08300115
तिन्नी 0.12754959 -0.04999016 0.22024944 -0.088025145 -0.117269285 0.036930192 -0.14749558 0.1454601 0.09504344 -0.10940246 -0.20863841 0.050429203 -0.0048295693 -0.018647391 0.11543893 -0.05436676 0.040354725 -0.11020431 0.09852763 0.051853757 -0.0009277128 -0.021225717 -0.042135417 0.07098675 -0.013446781 -0.07933968 -0.07604667 0.0036679122 -0.052814815 0.08051935 -0.07308803 -0.013631889 0.21783796 0.044615313 -0.053774126 -0.10583409 -0.21392071 0.06935868 -0.026992496 0.011064617 0.09727874 0.08299019 -0.1066667 0.011312417 0.016757777 -0.13882662 0.071435735 0.08228427 0.013425697 -0.061883558 0.017449291 0.040873114 -0.055718355 -0.12062109 -0.007228452 0.073947765 0.114968695 0.094840266 0.096348956 -0.013759743 0.0018329719 0.07179949 -0.069608 -0.101678945 -0.066343516 -0.05115301 0.11289962 0.12441513 0.04547541 -0.20295368 0.030172216 0.22796127 0.03327193 0.065832116 0.30609253 -0.037696194 -0.21013497 0.076050065 -0.04553957 0.06124579 -0.04987884 -0.061496086 -0.03931497 0.0626852 -0.0663042 -0.18051666 0.08967667 0.123395436 -0.036420505 0.017129129 -0.18527576 -0.006978641 0.026863145 0.2168729 -0.05583367 -0.040033516 0.062146302 -0.05172317 0.09443597 -0.06046805
दित्ती -0.010180212 -0.15912691 0.04264851 0.045356933 0.041532908 0.019832717 0.060363263 0.07213803 -0.08638157 -0.08451079 -0.11225524 0.168948 0.14530717 -0.041681767 0.30401644 0.040463585 0.010399008 -0.19831753 0.049362015 -0.07025485 -0.12208817 -0.18494877 0.047506962 0.17282638 -0.08491725 -0.14391202 -0.06450575 0.020646472 -0.16894001 -0.059046842 -0.074544236 -0.035084195 0.15705808 -0.07967509 0.026613714 0.007759064 -0.19147044 -0.054606345 0.0129032 0.0272198 -0.07573889 0.019451493 -0.059359826 -0.0024644984 0.09719917 0.037477512 0.03933749 0.00505494 0.003940876 -0.07488636 0.026292054 9.117704e-05 -0.028127693 -0.122950174 -0.060595747 -0.022515116 0.023266438 0.070338376 -0.008758898 0.01650504 -0.026665695 -0.041035164 0.037019905 -0.08586917 -0.051152144 -0.10970181 0.058764286 0.01812101 -0.05992765 0.07860442 0.04722867 0.009821672 0.1856232 -0.07542124 0.22454756 -0.01338464 -0.16990283 -0.005752848 -0.13657756 -0.06663545 0.13854174 0.017286412 0.026701646 0.14492129 0.12092281 -0.094004884 0.097588114 0.018797947 -0.016542196 0.12631963 -0.10803426 0.14260516 -0.25058728 0.123550236 0.08582484 0.098080166 0.21859519 -0.014977558 0.095437676 0.04128749
थे 0.06669323 0.06507942 0.058190286 -0.08614985 -0.015067648 -0.08457919 -0.16008812 0.15382163 -0.020258153 -0.03181114 -0.10798127 0.064426765 0.18833429 -0.14311276 0.0045954143 0.067309946 -0.1165935 -0.06376247 0.1521777 -0.031197686 0.06369776 -0.0422835 0.15946549 -0.092495106 -0.025748815 0.04348365 0.07436882 -0.17483428 -0.051049065 0.113690495 -0.066895254 0.10355813 0.08134981 -0.037729856 0.09587139 -0.111715466 -0.039812274 -0.09511371 -0.1642562 -0.09254498 -0.051998653 -0.046259556 -0.1463192 0.03639678 0.09039765 -0.004500451 0.02489718 -0.09467369 0.006595922 -0.123274304 -0.05640307 0.0067980047 0.12560771 -0.009421038 -0.1479379 0.100984685 0.0012910013 0.22335207 -0.068180576 -0.053973403 -0.0024009196 0.09304245 0.09772349 0.11399321 0.03078714 0.092596315 -0.03929877 0.11156948 -0.036078054 0.14923868 0.028574653 -0.09185823 -0.09415405 -0.05012073 0.10495916 -0.029291697 -0.013935767 -0.022806976 -0.32694346 -0.05576643 0.1149402 -0.06743594 0.05657266 0.19893372 0.068058304 -0.1553102 0.007640246 0.18823281 0.021142323 0.02749334 -0.009121862 -0.023680693 -0.056495395 0.15115914 -0.087660514 0.050488893 0.2133704 -0.11564324 0.08168876 -0.0014604718
तिसा -0.00331226 -0.10353054 0.15121824 -0.047343053 0.0018652184 -0.08874107 -0.15584779 0.12924185 0.13596578 -0.19643436 -0.036652863 0.027657706 0.034437474 -0.03618153 0.0050495495 -0.03280388 -0.104023784 -0.091366045 0.17760037 0.008206474 -0.011733374 0.032280266 -0.015361886 0.13676615 0.06464186 -0.20075436 -0.062379103 0.046783585 -0.0007883547 0.001996735 -0.025994133 0.06916473 0.19214955 0.05713428 0.0070322026 0.04587041 -0.117355786 0.10936808 -0.25443462 0.107108414 0.07739498 -0.023483068 -0.09484241 0.12430562 0.072763905 0.048766416 0.02662082 -0.13867438 -0.07203118 -0.07097797 -0.002401255 0.008097538 0.13714792 -0.15319929 0.033438697 -0.0012391527 0.16034578 -0.0748039 0.22591682 0.27025348 -0.015831783 0.09655203 -0.11985321 0.02746924 0.052204277 0.02284127 0.17488475 -0.023728259 -0.018403979 -0.05681975 0.023382891 0.115408935 0.114724234 0.03162512 -0.13469811 0.007896157 -0.06534747 0.06834466 -0.11752654 -0.042015757 -0.020791205 -0.035242245 -0.023003964 0.14697637 0.035099205 0.09558058 -0.02976984 0.10974379 -0.035835724 0.009100502 -0.021403924 0.07434004 0.08270085 0.2855023 -0.049171425 0.038140386 -0.043095935 0.17008096 -0.049046107 -0.018800141
इसते 0.08321132 0.047556404 -0.05041346 -0.15776853 0.002982877 -0.08296749 -0.09445101 0.05771148 -0.020788813 0.0014232601 -0.08981677 0.13742538 0.15790829 0.11951857 0.07160034 0.09378901 -0.15706979 -0.00758628 0.04491468 -0.17063726 -0.052586373 0.018044556 -0.10921179 0.022605618 0.06617338 -0.014399614 -0.09429204 0.19170775 -0.0015246216 0.06887117 0.06777372 -0.0012266859 0.07530215 0.16601203 0.036426608 -0.06303014 -0.23866373 0.0051476266 -0.14005691 0.056516226 -0.08600285 -0.060272165 -0.023358952 0.14890112 -0.10887362 -0.20043175 -0.16313647 -0.06808744 0.117263414 0.006519088 0.104299344 -0.02526313 0.14336129 -0.004221086 -0.031067582 0.10629647 -0.0625577 0.13861369 -0.0338436 -0.0033922412 -0.06725066 0.057338104 -0.09412692 0.14118607 -0.1829146 0.22170907 -0.0069666845 0.15753052 0.05720865 0.036574967 0.04995287 0.110522866 -0.05586145 0.020020723 -0.050711125 0.10871102 0.020233713 0.26528174 -0.08620535 -0.07014802 0.008021884 -0.13576166 0.08133302 0.012572372 0.04954913 -0.016608434 -0.03113023 0.105747946 -0.044715565 0.07059539 -0.012607565 -0.016181184 -0.12995596 -0.07598259 0.06806001 0.040888127 -0.07619342 -0.02823014 0.25754064 0.032701343
लोकां 0.096012495 0.027141916 0.20418017 -0.15056662 -0.030746004 0.10319561 -0.05570464 0.053086195 0.01066854 0.011071417 -0.17383145 0.07572342 0.12115213 0.02978958 0.1710546 0.054198056 -0.16347182 -0.078204274 0.060403265 0.010763727 0.030227752 -0.057524346 -0.026864916 -0.04967923 0.022828264 -0.10701406 0.020002175 0.23466778 0.11746562 0.1007814 -0.040883146 -0.048918854 0.12214725 0.16586763 0.13406862 -0.11143087 -0.182687 -0.15728354 -0.1585937 0.060075257 -0.029023899 0.12677366 -0.09527344 0.09458517 -0.07517017 -0.12680008 -0.10569778 0.0499554 -0.008884946 -0.10529236 0.018072441 0.07401084 0.002973354 -0.13289315 -0.14402957 0.0818006 0.11844488 0.082892366 -0.00090747705 0.04038595 -0.09299841 -0.06579051 -0.10780774 -0.03693404 -0.15464671 0.10603425 -0.028794918 0.12425333 0.021930555 -0.04970524 -0.06298055 0.18515263 0.025774574 0.09920135 0.045961354 -0.012646491 -0.047671717 0.122042194 -0.010414225 0.0029303525 -0.14652073 0.014005734 0.057655666 0.09525274 0.037498314 -0.029510688 0.09413882 0.14002104 -0.13908671 0.031928133 -0.028175509 -0.23989756 -0.08516912 0.0987885 0.022905936 -0.08091831 0.080339424 -0.10680916 0.18823883 -0.023539184
करदा -0.05618908 -0.028472679 -0.15393406 0.124444924 0.12735184 -0.13783512 0.102244854 -0.04034094 0.05046467 0.059111282 -0.1461555 0.06692051 0.17161983 0.012440099 -0.09296723 -0.013458366 -0.11952868 -0.01882363 0.18774894 -0.25479397 0.050616957 0.028181875 0.1095855 0.14058633 0.05755359 -0.045829054 0.15066674 0.2851852 0.046211503 -0.11134032 -0.18491794 0.06563909 0.13428777 0.007624321 -0.011661089 -0.011685392 -0.051917523 0.11599915 -0.01667797 -0.0040527317 -0.032124702 0.026081251 -0.08133097 0.0850974 0.026756234 0.0921869 0.07995883 0.018793102 0.07359527 -0.057984054 -0.08146268 -0.060798645 0.18734023 -0.10473897 0.09278819 -0.056842767 -0.107897416 -0.06870484 -0.09010735 0.14344567 -0.0074769175 0.07211912 0.02169969 0.1674626 -0.026506916 -0.029099973 0.028014312 -0.025224674 -0.056131095 -0.005019957 0.19311345 -0.06560138 0.11253157 -0.044043064 -0.24785544 0.10920016 -0.004562133 0.11401544 -0.148738 -0.10350668 0.10706568 -0.11850539 0.07566791 -0.027192255 -0.009918897 0.122190475 -0.02608945 0.043048047 0.0928128 0.08307676 -0.03289431 -0.026150389 -0.008167364 0.12896568 0.14805625 0.075523324 -0.041496374 0.074543245 0.03700398 0.05730721
घरे -0.12460132 0.11398073 -0.00078266877 0.119584285 0.09334459 -0.065081984 -0.029251259 0.0793193 -0.024483569 -0.13099198 -0.13840619 -0.056458957 -0.0074260095 -0.09914142 -0.030264363 0.19061925 -0.24941419 -0.16953303 0.19719471 -0.018861093 0.037462316 0.0019392421 0.19732885 -0.028827984 0.02361096 0.05104827 0.060271617 0.035453536 0.14726588 0.07058328 -0.08249883 -0.040253483 0.15121241 0.045133278 -0.0037390438 -0.09388402 0.07787337 0.13690826 0.026812749 -0.0027279935 0.0583326 0.12240269 -0.10930996 0.090571724 0.09622207 -0.051649254 0.18095076 -0.07226651 0.01959878 -0.15460244 0.059891704 0.030483734 0.000990152 -0.06785252 0.16651207 -0.05664935 0.01571024 0.088499695 0.0047311005 -0.025161719 -0.037281785 -0.01050934 0.09257019 0.0053978064 -0.05711856 -0.1936662 0.1303556 0.031682376 0.21879421 -0.09185965 -0.05833216 -0.20578451 -0.03904132 -0.081182666 0.17583935 0.011683977 0.06544429 -0.058601186 -0.07307439 -0.17057092 0.051559713 0.028140351 -0.116064794 0.12469244 0.04084602 -0.14854269 -0.074837565 0.07403626 -0.001334764 -0.051927846 0.0052949204 -0.06752041 0.015379399 0.21577759 0.03794841 0.065814964 0.03808783 -0.04238022 -0.046967674 -0.17240737
च -0.13983358 -0.051265694 -0.024392476 0.16262172 0.030976787 -0.24110201 -0.022127384 0.07611055 -0.059940595 -0.07808248 -0.15069671 -0.031011537 0.18832612 0.16195895 -0.080593355 0.18171762 -0.04297699 -0.07085558 -0.02688696 0.08906788 -0.06390245 0.0018384764 0.17208198 -0.00996915 -0.056558475 0.09020448 -0.09062864 0.13081108 0.113582276 -0.023234928 0.06755754 -0.029191175 0.05926183 0.03796142 -0.13947909 -0.11021814 -0.15092935 -0.03425316 0.02655331 -0.0060052415 0.11910843 0.02625956 -0.14142619 0.16993771 0.098190054 -0.038781174 0.07527249 0.08016667 0.04324857 -0.20916279 0.057373412 0.08302201 0.1280853 0.06244814 0.17137605 -0.13754526 -0.01712115 0.08056002 0.04887536 -0.03598161 0.025903063 0.10482916 0.05054716 0.12772769 -0.13306856 -0.13252014 0.21282451 0.075049154 0.12937938 0.0862335 -0.083710216 -0.07654689 0.014817521 -0.044302404 0.20739551 0.0033967192 -0.02422029 0.08365054 -0.066449076 -0.13053578 -0.039864838 -0.1029272 -0.0080593815 0.1348126 -0.21842608 -0.051939096 0.016593894 -0.046956483 0.018866044 0.02898337 -0.07476995 0.08787272 0.011364309 0.10728301 0.14178586 0.02373979 0.054690454 -0.03846428 -0.0042013344 -0.01602812
रेह्या -0.03324817 0.034572937 0.118456855 -0.04393861 0.019642288 0.09330584 -0.078569986 0.0068353084 -0.05864894 0.007080304 -0.020235576 -0.10563429 0.12143508 0.12260764 0.0766021 0.105697684 -0.13813114 -0.09820551 0.08528869 -0.041308034 -0.08101325 -0.011916923 0.15926334 0.08887083 0.058444485 -0.025139168 0.09111108 0.060934033 0.32354677 0.11107841 -0.030995868 0.09014327 0.07962173 -0.020380965 -0.10987223 -0.15510887 -0.051068652 -0.0015853356 0.08216094 0.1166751 -0.020398209 -0.0003121953 -0.06813931 0.05158644 -0.09507452 -0.059014596 0.019706605 0.045913707 0.20198424 -0.0923363 0.11451771 -0.20185803 0.099362366 -0.22221364 0.15930778 -0.10295421 -0.09494902 0.03728253 0.03592114 0.027123582 -0.046544876 0.016009882 0.009838842 0.15664984 -0.1605007 -0.1405922 0.12528515 -0.013541559 0.037092105 0.004074178 -0.080094695 0.07153107 -0.0757184 0.08160898 -0.123040736 0.16584273 -0.010517205 0.16928114 0.022809677 -0.12037278 -0.102249734 -0.07247162 0.11979064 -0.18770951 -0.027771957 0.09126651 -0.023597287 -0.0064910864 0.018797832 -0.14168406 -0.0036828371 -0.036158748 -0.012722917 0.0046023093 0.037189107 0.15342109 -0.16519208 -0.03239074 0.13733254 0.1265567
करदी -0.09095489 -0.14592503 -0.08391324 0.04279294 0.07937233 -0.12725146 0.004000273 0.056003973 -0.07561602 0.0014172537 -0.03216531 -0.037059348 0.27347147 0.21305348 0.0717093 0.09736746 -0.09023873 -0.011964908 -0.06279592 -0.18721287 0.06857043 -0.04623344 -0.012630417 0.16915193 0.010083325 -0.00037906703 -0.07621753 0.21019976 -0.010339134 -0.12913151 0.021196598 -0.05287308 0.13502653 0.19178225 -0.058665466 0.017053483 -0.21708582 -0.023690185 -0.011705303 0.061006818 0.006142985 -0.046147052 -0.015882727 0.12723051 -0.046831697 0.011194011 0.042780977 -0.0030646939 0.07704762 0.021672487 0.023890536 -0.050539296 0.22729419 -0.03703106 0.14309607 -0.01755345 -0.16671373 0.107928544 0.045968454 0.2076455 0.0020859854 0.17192218 -0.07099464 0.11442362 -0.13562712 -0.026335983 0.17142841 0.06020153 0.06826805 0.061541576 0.04406892 -0.07103759 0.07232551 -0.0988691 -0.08169265 0.19595627 -0.05208228 0.09998281 0.03169159 -0.15141676 0.03318692 -0.042005062 0.036104437 -0.102696374 -0.048110295 0.16033773 0.1235393 0.0749869 -0.02703595 0.008001947 0.020959185 0.1115659 -0.054417487 0.031825263 0.1665291 0.10894154 -0.04778087 0.026244137 0.024822928 0.04979716
तांईं 0.2184752 0.012971739 0.017194882 -0.037299518 -0.08649254 -0.04478159 -0.12802324 0.15592933 -0.061758358 -0.06202738 0.0032746089 0.033883024 0.18204731 0.123197965 -0.18679786 0.12211166 0.030243881 -0.019083653 -0.11598925 0.014906079 -0.012092443 -0.031745933 0.12484183 -0.1510244 -0.01473345 0.08758229 -0.17512318 0.052855346 0.019027844 0.007455922 0.02886049 0.04182395 0.0020748025 -0.06259726 0.009536572 -0.14929518 -0.21831469 -0.11371782 -0.05043988 -0.06640764 0.040197916 -0.019235259 -0.05044162 0.10918016 -0.0036361252 -0.13416319 -0.02274971 0.108724646 -0.0028529938 0.007698308 0.049088523 0.18182604 -0.0479413 0.122940294 0.049612906 0.034099076 -0.043655284 0.13921733 0.10070791 0.1264147 0.011312347 0.06544212 -0.033027925 0.06229895 0.024385393 -0.09454562 0.100488186 0.102865785 0.14642324 0.06771025 0.02394833 0.11538274 -0.09872807 -0.021111563 0.34915987 -0.147755 0.0049731773 -0.031440757 -0.032175355 -0.0097880205 0.07540803 -0.023691654 -0.031071344 0.24040653 -0.24580091 -0.12602705 0.10673471 0.14135836 0.056535754 0.10055742 0.0049439464 0.043397896 0.104983 0.08400626 -0.005750149 0.02987257 0.014959494 0.07271668 -0.030152125 -0.02963928
लगी -0.076060794 -0.04682752 -0.09033017 0.23010413 0.045579776 -0.22100885 -0.021408116 -0.0028093986 -0.07564253 -0.0375654 -0.16139516 -0.0012359289 0.12598199 0.080060326 -0.13644035 0.17048694 -0.13496152 -0.1458776 -0.02234239 0.022320922 -0.072564915 0.073631465 0.23381265 0.06316402 0.010136196 0.10295887 -0.0013434166 0.096364036 0.21170002 -0.051580828 -0.08510157 -0.107484505 0.15168843 0.0048316815 -0.066679545 -0.12325701 -0.00094762834 0.049708497 -0.040602792 -0.12030312 0.10233243 0.075334676 0.012929891 0.20644565 0.08697068 0.039389383 -0.014796147 -0.0925565 0.14628226 -0.21184382 -0.08553346 0.119938605 0.08361856 0.030213684 0.14571357 -0.06409759 0.023690682 0.07159492 0.009752689 -0.0061861007 -0.06425219 -0.035095125 -0.07449005 -0.03250283 -0.095186576 -0.08334891 0.12216568 0.09331906 -0.07305525 -0.0058207037 -0.031157432 -0.14978398 0.21369146 -0.019021958 0.051816933 -0.16720338 0.099749856 -0.030213354 -0.1084215 0.0025442203 -0.031812523 -0.030996758 -0.045913704 0.22500095 -0.035126906 -0.03802055 -0.014163973 0.032799043 0.094666556 0.10534356 0.043442227 0.036439057 0.064940274 0.11814084 0.07822503 0.06006969 -0.009705138 0.0059795766 -0.039368033 -0.15473224
करदे 0.0200614 -0.105797455 0.054255277 0.033775594 0.017730525 -0.13626936 -0.024506217 -0.024679821 0.045730036 -0.012716856 -0.0975517 -0.03192328 0.2813032 0.033488348 0.013650332 -0.041376233 -0.017582608 0.034877926 0.051860943 0.019116046 0.12626673 -0.061590478 -0.0028366398 -0.008593984 0.04837863 -0.07507154 -0.09118095 0.27186686 0.20590724 -0.10519283 -0.08283321 0.05308118 0.016925385 0.11607215 0.04741518 -0.017700328 -0.31726244 -0.08164692 -0.151821 -0.0442544 0.11647932 -0.018508662 -0.05538176 0.028968716 0.00014000278 0.019474827 -0.019989302 0.019265478 0.044541303 -0.035756767 -0.10554765 0.011737496 0.14935449 -0.030590132 -0.045910235 -0.03683223 -0.012617768 0.038646687 0.07505903 0.321301 -0.050235264 0.15647984 -0.17139769 0.08315644 -0.04909909 0.075411975 0.06294662 0.010241239 -0.06703379 0.047497526 0.14085664 0.04439654 -0.006825322 0.026045432 -0.09708862 0.110698126 0.091041885 0.07882208 -0.1316496 0.08422678 -0.018961454 0.034180958 0.047926296 -0.0033652135 -0.13250645 0.29820734 0.1733782 0.021495625 -0.0117208045 0.045912854 -0.004360516 0.08038522 0.058505394 0.043537684 0.110567085 0.023625158 -0.037527204 0.13976014 -0.07688797 0.110787354
दित्ता 0.045207758 -0.20516737 0.10276066 0.05540701 -0.06568269 0.042108875 0.047278527 0.081615396 -0.13168055 0.0011267265 -0.1424072 0.14310998 0.11488095 0.06317375 0.16420051 0.06975394 0.027997598 -0.13319845 0.023225935 -0.05723858 -0.16136315 -0.115909 0.046447292 0.17182122 -0.1369015 -0.09378783 0.017057935 0.018653333 -0.14812228 -0.09020793 -0.1270463 -0.025352286 0.20281158 -0.08671429 0.024190256 -0.11794427 -0.108279005 -0.10878794 0.042834487 -0.010764163 -0.092005976 0.096699394 -0.017118594 0.025927292 -0.01216911 0.004743349 0.0809421 0.08190306 0.097472854 -0.11320741 -0.017451875 -0.0121545335 -0.029019257 -0.14986975 0.010231088 -0.005630269 -0.068323225 0.08637279 -0.09741771 -0.077149615 -0.015972996 -0.0066794814 0.05908867 -0.124898024 -0.053396728 -0.16658834 0.010250078 0.07343394 -0.048018053 -0.039018355 -0.0863141 0.09499185 0.18818682 -0.026238142 0.21520163 -0.041047014 -0.25777793 0.008636561 -0.054323748 -0.027250344 0.032914333 -0.115579665 0.061391495 0.091677815 0.0947724 -0.11458143 0.08546794 0.11791306 -0.012972195 0.086924426 -0.08991891 0.13082579 -0.15808621 0.18853751 0.0770972 0.06602674 0.15276766 -0.11982224 0.10385267 0.06826061
सारे -0.062319882 0.07613511 0.10071675 0.08896378 0.024386285 -0.13541001 -0.045300435 0.09247278 -0.053445816 -0.052526195 -0.1860726 0.020720497 0.083466984 -0.074387945 -0.08916147 0.17335881 -0.024386996 -0.04924703 0.13083923 0.12947372 0.003302825 0.029502323 0.15051913 -0.1463172 -0.08239624 0.1714616 -1.267531e-05 0.001639689 0.20777336 0.13383284 -0.13601981 -0.014998111 0.0640361 0.031290412 -0.07061449 -0.17174876 -0.08225649 -0.13725558 0.015767712 -0.02782391 0.113825284 0.09298988 -0.13834776 0.08460611 -0.04977532 -0.10682142 0.057837382 0.070422575 0.044202216 -0.29865232 -0.051843636 0.10808437 0.095505506 -0.042088047 0.03153072 -0.06618101 0.016951593 0.15985173 -0.04928586 -0.12903991 -0.05901525 0.064407356 0.1508569 0.102643915 -0.10828064 -0.0699764 0.07823533 0.21384656 0.12779127 -0.04007045 -0.11846936 -0.12053964 -0.09669035 0.025970059 0.19369972 -0.0035418856 -0.06675464 0.035621464 -0.12395161 -0.002106881 -0.13519399 -0.09667329 0.035004433 0.04644097 0.03388234 -0.10450837 -0.057649408 0.015446148 -0.03995097 -0.020610731 -0.024929766 -0.11789218 0.08259127 0.08228073 0.08536296 -0.0691788 0.13237816 -0.12974772 0.04977499 0.022216804
कित्ती 0.04899689 -0.10442799 -0.0058231466 0.080329984 -0.00011232706 0.0070364494 0.05438918 0.08504351 -0.17671958 -0.16038024 -0.093807064 0.15604293 0.08036366 -0.049648948 0.19065163 0.025946358 0.04899192 -0.15431334 0.015602385 -0.011698257 -0.08847462 -0.10977555 0.03669562 0.052901123 -0.06026094 -0.10820062 -0.15274774 0.034979522 -0.16491151 -0.05229099 -0.046352696 -0.040795933 0.107973345 -0.11552429 -0.019379238 0.005328959 -0.25596792 -0.09833329 0.025689796 -0.013403842 -0.020327082 -0.045244318 -0.089251846 -0.026226433 0.13613899 0.03837522 -0.04904542 0.02464518 -0.13999549 -0.12791851 0.012495013 0.07733452 -0.08347668 -0.028462 -0.10939635 0.007381791 0.057831302 0.12506336 0.019657299 0.00497504 -0.031699315 -0.039883647 0.065976165 -0.10750772 -0.13820176 -0.123714596 0.0045976616 0.053704187 -0.01560616 0.11388575 0.12559633 -0.014337456 0.13161397 -0.022367492 0.28438333 -0.1213521 -0.12531845 -0.041859854 -0.13103221 -0.047826387 0.12678726 0.04651004 0.009421695 0.17658913 0.014028346 -0.135092 0.104979314 0.042311613 -0.044520184 0.16629021 -0.1349721 0.077431165 -0.16556542 0.06967525 0.09936469 0.013451988 0.26823992 -0.031409726 0.07585229 0.042734876
कनै 0.19372627 0.062187076 0.012003638 -0.11757749 -0.048002493 -0.28472877 -0.00018470484 0.04389918 -0.10226269 0.055281896 -0.069065675 0.03914729 0.10806575 0.11703853 -0.06948114 0.07363329 -0.09549609 -0.06534811 -0.046422567 0.04053394 -0.12073571 0.06919107 0.044707812 -0.102713555 0.08418305 -0.033303987 -0.028026279 0.082861334 0.21236797 0.010794325 -0.13051082 -0.017566614 -0.059609152 -0.008871519 0.07254114 -0.15911648 -0.20472156 0.030147772 -0.21887629 -0.15769953 0.05633575 -0.0299377 -0.026094155 0.13106953 -0.08175661 -0.056169584 -0.18502544 -0.009070327 0.14044458 -0.051335633 -0.061252825 -0.00028793968 -0.031004943 0.101239935 -0.037103713 0.027115375 -0.11803479 0.095760405 -0.0018221026 -0.11793079 -0.20937324 0.11286498 -0.029777717 0.121250436 -0.14091426 0.09984271 -0.11945078 -0.005064243 0.0097059 0.02971744 -0.017769324 -0.003791785 0.09142463 0.10111616 -0.13734995 0.012028828 0.18921566 0.13427533 -0.1404409 0.018058496 0.108588114 0.009011446 0.16025278 0.113183394 -0.084665954 0.07765683 0.07139965 0.13646244 -0.111224785 0.015252023 0.027579583 0.05607945 -0.12531804 -0.109370835 -0.006574406 -0.01992504 -0.01949862 -0.11570439 0.056926798 -0.07790103
बड़ा 0.012412029 -0.10094093 -0.020934168 0.12606166 -0.10124862 -0.0055629667 -0.110370584 0.056699466 -0.16553685 -0.056598317 -0.061464958 -0.0309537 0.04386062 0.19730541 -0.027636128 0.06972151 0.11780806 -0.13484727 -0.021521427 0.046702333 -0.13129428 0.025687369 0.028371079 0.035231274 -0.07874597 0.05149513 -0.21545798 0.032322075 0.028176945 0.03174212 -0.07389847 -0.024927853 0.12440787 0.032808386 -0.09194386 -0.044755716 -0.14803645 -0.06907957 0.11396765 -0.0052088597 0.10118442 0.01555042 0.011442462 0.08170473 -0.17437454 -0.08157992 -0.013631208 0.08910874 0.008423789 -0.084893435 0.0502935 0.0544763 -0.036435053 0.0048964783 0.068789214 0.007180287 0.026161406 0.10314899 0.06561295 0.102580294 0.11626111 -0.055478204 -0.059442304 -0.12370258 -0.19938715 -0.2834622 0.17784655 0.16684882 0.04718913 -0.07079229 0.059016906 0.22449738 0.010723124 0.124228284 0.17927368 -0.061897572 -0.12527597 0.028028572 0.08881141 0.08901855 -0.02209487 -0.12632164 0.022868337 -0.06955876 -0.21783741 -0.06495463 0.14971325 0.062267106 0.054922752 0.10937251 0.041476324 0.069841996 0.21009497 0.06547891 0.16478087 -0.033194404 0.066930845 0.018638736 0.03331589 0.09393732
बड़ी -0.06878465 -0.13015032 -0.12850371 0.06880159 0.057821263 -0.0935811 -0.021488411 0.087428726 -0.2030127 -0.03844717 -0.03553894 -0.057106055 0.14685066 0.24323419 0.0357173 0.06747081 0.021569138 -0.120922565 -0.08381638 -0.089848295 -0.04807312 0.03586442 0.05797553 0.096543126 -0.10005529 0.11223038 -0.19931282 0.10288874 -0.058967836 0.12593533 -0.07309581 -0.12567559 0.10189549 0.033301186 -0.15139337 0.1002708 -0.18372607 -0.046632096 0.07119387 0.03630892 0.15291664 -0.05595996 -0.023537243 0.12864742 -0.17263013 -0.04034259 -0.0929486 0.093386605 -0.03401243 -0.082806475 0.0030156563 0.099095434 0.003356222 0.13168578 0.06609163 -0.054450702 -0.07465476 0.059488676 0.068639405 0.05568706 0.09922268 -0.011173256 -0.037250128 -0.039056532 -0.22386676 -0.18387866 0.18902789 0.11975611 0.038465004 0.08945557 0.10665913 0.15690023 0.00030628633 -0.009195292 0.019974917 0.054903314 -0.08360573 0.027786408 0.056231167 0.017639853 -0.08240881 -0.033103596 0.03764979 -0.12138384 -0.08142696 -0.07299014 0.14665127 0.07367158 -0.0527406 0.07014756 0.08654759 0.049018074 0.11935822 0.008928735 0.2022707 0.0058311173 0.15096788 0.032000285 0.009171675 0.19445176
तिस -0.030761315 -0.07726828 0.15304711 -0.037084393 0.04858543 -0.08098124 -0.13912892 0.14280091 0.099456474 -0.18283437 0.0031671247 -0.027544063 0.07085978 -0.0026649265 0.119680196 -0.0039157895 -0.16619949 -0.24435022 0.1051289 -0.032675065 -0.045739446 0.016804822 0.116626166 0.10768462 0.117502004 -0.1359541 -0.0074523366 -0.12577327 0.008006499 0.046096418 0.0016165467 0.057020016 0.17780924 0.0045994474 -0.017740708 0.021202233 -0.047771208 0.14274423 -0.2033352 0.051128034 0.010955079 -0.041792516 -0.115173265 0.16863899 0.12750657 0.08303935 0.06753547 -0.17497516 -0.023680752 -0.054226425 -0.021029962 -0.01685903 0.06907165 -0.15273811 0.075327106 0.0039908523 0.13062419 0.007627465 0.24063808 0.18880786 -0.044037126 0.039926015 -0.086814456 0.073338464 0.017724123 -0.07350031 0.18997599 -0.040648077 0.03994008 0.004170154 -0.088123865 0.027955342 0.21820512 -0.004326756 -0.07582538 -0.020966934 -0.036448978 0.023901787 -0.07244931 -0.1131792 0.11028761 -0.007655337 -0.06049846 0.15268162 0.00778465 0.010018553 0.020440184 0.06326872 0.0016957392 -0.014313848 0.031437065 0.07489692 0.017463502 0.24292548 -0.15182744 0.1510078 -0.053063966 0.09783757 -0.025257507 -0.11528934
दोयो 0.0005989748 -0.059899766 -0.13987215 0.16285586 -0.061021958 -0.08577243 0.09023094 0.03667842 -0.2010989 -0.11722242 0.0012372538 0.14296298 0.04710499 0.012844605 -0.041975863 -0.08897474 -0.10972722 0.0031200387 0.10889337 -0.019764837 -0.22188132 0.09573753 0.052960556 -0.03170248 -0.0031872594 0.22979555 0.005679611 0.095815234 0.11541877 0.04105052 -0.047733862 -0.014613327 -0.049465712 0.02637099 0.022824477 -0.037328225 -0.07279382 -0.18375112 -0.14274243 -0.11310325 -0.10954414 -0.11233642 -0.014385138 0.019510524 -0.19585663 -0.014372637 0.011101294 0.06799923 -0.03575246 -0.19517703 -0.0854265 -0.0036342654 -0.04148024 0.15474576 -0.0010278429 0.035264913 0.0061297566 0.155072 -0.048434168 -0.04214558 -0.022955926 -0.023098672 0.09768149 0.026725456 -0.17703289 -0.053609066 -0.040531103 0.20479639 -0.10417528 0.14568248 0.12564422 0.16657174 -0.10686424 0.13518575 -0.04849244 -0.0058583226 -0.076746166 0.15555437 -0.07231256 0.08233845 0.012736248 -0.043450195 0.0053791176 0.09398911 -0.1919773 -0.033653527 0.13780779 0.11517209 -0.014542169 0.08078 -0.046290163 0.0032531656 -0.15807766 -0.028108964 0.14040445 -0.02187212 0.17498945 -0.014215346 -0.042881187 0.14782076
तिसदी 0.09362797 -0.088947885 0.05063681 -0.07122513 -0.020556426 -0.113076285 -0.13268586 0.11056235 -0.011541449 -0.117054686 -0.036105704 -0.041864272 0.12064318 0.15876324 0.0072074425 0.07578097 -0.19709711 -0.11721751 -0.009780034 -0.16083853 0.04416404 0.060804628 -0.0009940099 0.22367972 0.11856449 -0.13919422 -0.11420468 -0.004415627 -0.1471156 -0.008639375 0.046193574 0.035629816 0.19920562 0.011231544 -0.060235437 0.014879275 -0.13653362 0.15767366 -0.22015779 2.2452597e-05 -0.00019359529 -0.100367576 -0.021852199 0.2092582 0.04991127 0.05705554 0.041521695 -0.16438591 -0.016367735 0.059400804 0.00543625 -0.044786662 0.0853875 -0.08085219 0.085945785 0.07645815 0.0027154698 0.037081543 0.12732841 0.25376013 0.016699843 0.038718365 -0.19615635 -0.0014310143 -0.0069697457 0.020284038 0.17741317 0.030080263 0.028786127 0.0055836923 0.08495486 0.05055034 0.10497016 -0.050080493 -0.070940435 -0.0015990653 -0.011807168 -0.03901096 0.006601237 -0.12501954 0.08931977 -0.000915952 -0.011224909 0.09976131 -0.05175655 0.04228723 0.057209224 0.12923723 0.0022349642 -0.033971816 -0.0045748204 0.23401377 -0.028955493 0.23765819 -0.054377463 0.14605862 -0.0807325 0.09449036 -0.020253416 -0.09731942
गेइयो -0.034314808 0.052207686 -0.04673024 0.07789308 0.04620889 0.0063410723 -0.024649125 -0.041509222 -0.276206 -0.18460782 0.005586661 0.033315524 0.13403387 0.065737605 0.04912027 0.07703268 -0.24000795 -0.15664312 -0.02797639 -0.052540556 -0.052580476 0.017892718 0.06344594 -0.041406523 0.05811425 0.029743126 -0.103339 -0.00673557 0.06104238 -0.013905671 -0.014193521 -0.1017135 0.017053511 -0.062604845 0.036462314 0.027380222 -0.19330543 -0.106112 -0.18730555 -0.14917912 -0.10663923 -0.04357745 -0.090526745 0.063889325 0.11929278 0.1056634 0.011637893 -0.07002157 -0.26871413 -0.14141195 -0.04712089 -0.031372186 -0.098333724 0.013897775 0.0028612702 -0.029188773 0.04131715 0.17648418 0.08583053 0.032142177 -0.057166632 -0.061145343 0.0808746 -0.013921224 -0.23386984 -0.07918441 -0.007885615 0.10862216 0.071843415 0.15830383 0.13554637 -0.1840151 -0.01833871 -0.03995537 -0.010285368 -0.06992185 0.066441044 -0.1246805 0.009680583 -0.05944836 0.11270529 0.0855909 -0.028224971 0.13132617 -0.18202086 -0.02010228 0.15512437 0.084484324 -0.16879605 0.06384936 -0.06428541 -0.018910458 -0.14705923 7.335477e-05 0.043239996 0.12424982 0.13758191 -0.035042908 -0.0071467455 -0.05535676
खरे 0.09213723 0.10056404 -0.044447985 0.025606805 0.13531101 0.04234677 -0.0077783805 0.076188534 0.10999046 -0.08827842 -0.09677605 -0.002272759 0.22209871 -0.08861919 0.10807368 0.041631706 -0.07633326 -0.19326589 0.18517165 -0.049770005 0.011034861 -0.05261689 0.114908054 -0.026704712 0.038370304 -0.057218555 -0.058504727 0.09135281 -0.03303938 0.054248333 -0.21857208 -0.059316598 0.10401841 -0.174379 -0.02729747 0.0487624 -0.24054556 -0.093251385 -0.071868226 -0.037415683 0.09354052 0.08008906 -0.17901771 0.0027338602 0.07341874 -0.01568606 0.019056797 0.058673423 -0.15624295 -0.17934689 -0.11594731 0.050196655 -0.10274675 -0.064152785 -0.158662 -0.07205162 -0.018948149 0.07732891 0.09308226 0.10364429 0.019569667 -0.09941903 0.123309344 0.072580926 -0.003781282 0.032891486 0.024675816 0.058173362 0.059611145 0.047913693 0.21424589 -0.011956316 -0.004298158 -0.076404646 0.24495259 0.09006808 -0.033569366 -0.11618189 -0.22932397 0.008823959 0.030338038 0.068026945 0.07446364 0.03637756 0.026796846 -0.12911548 0.010138972 -0.05199059 0.026796252 0.067600206 -0.084018186 -0.035699792 -0.020317236 0.19102703 -0.03809552 0.021281919 0.196055 0.10073175 0.05817313 0.029954022
कमरे 0.07326641 -0.012016237 0.00023266017 0.028242053 0.09735974 -0.060268026 0.0032180327 0.1025306 0.042006604 -0.12260372 -0.074602395 0.0075515583 0.21417989 -0.03964933 0.10424056 0.043400574 -0.08185668 -0.14965591 0.1431994 -0.04097571 -0.01968774 -0.08073156 -0.0005834317 -0.021739338 -0.030816311 -0.100313716 -0.076628655 0.06292964 -0.11331791 -0.0030535355 -0.19184673 -0.03500464 0.06619489 -0.09623166 0.0015358309 0.04868138 -0.27575782 -0.15886505 -0.19778332 -0.07972416 0.08050026 0.015400973 -0.18346635 -0.038905658 0.10384474 0.002760964 0.048061233 -0.03908049 -0.14537874 -0.08954004 -0.1707317 0.08350526 -0.088823035 -0.038093448 -0.21117428 -0.038163368 -0.019749708 0.1434966 0.081455216 0.092145905 0.030400727 -0.03321834 0.14215095 0.026258063 0.056978423 0.09912734 -0.019034833 0.089286625 0.05108075 0.08640429 0.1355561 -0.10207737 -0.00394376 -0.07516007 0.228941 0.14396337 -0.084165245 -0.14393508 -0.18296517 0.0009806998 -0.014764634 0.07978148 0.080541335 0.06587694 0.09759032 -0.12010256 0.054670617 0.037208274 -0.023565099 0.038489286 -0.06102923 0.040500864 -0.045563865 0.18429898 -0.05487306 -0.05412412 0.24910179 0.018730791 0.011540416 0.007657637
मते -0.10209017 -0.17186394 -0.02107727 0.0014523548 0.014772886 -0.25480866 -0.07647379 0.0740422 -0.07100697 -0.04569104 -0.029592097 0.099908225 0.18649977 0.17981745 -0.06382205 0.13151205 -0.06096393 0.02767168 0.00711816 -0.09787342 -0.007178868 0.026988706 0.11321882 0.04322907 -0.16469064 0.08160679 0.03614476 0.050852127 0.0701603 0.07882402 0.12936842 0.17305136 0.03277825 0.009537955 -0.10218546 -0.07772266 -0.15195847 -0.067025 -0.012666912 0.013803461 0.083387606 -0.12058001 -0.08574997 0.13717258 0.04516633 -0.07001853 0.0014556686 0.026278445 0.1401224 -0.030620657 0.006645048 -0.0021674235 0.22711657 0.09256296 0.13935599 -0.07334331 -0.172912 0.04476118 -0.00014009082 -0.20380615 0.02972998 0.25625792 0.085553095 0.21743248 -0.02472295 0.012860824 0.06248179 0.086789876 0.1168454 0.1180553 -0.14310765 -0.054016314 -0.09340557 -0.11542735 0.03835537 -0.041491598 -0.02340184 0.13364904 -0.007999588 -0.10618146 -0.03525413 -0.16888346 0.036136247 0.090719655 -0.047576208 -0.11251063 -0.027351761 0.059351776 -0.030514456 -0.030578507 0.11011266 0.04431197 0.083245516 -0.042821225 0.089826934 -0.013651342 -0.022888891 -0.071779996 0.05304093 0.17997026
छैळ -0.0059836996 -0.07405019 0.058180384 0.03738834 -0.1377953 -0.12708199 -0.0760471 0.09293743 -0.0884196 -0.026110277 -0.20150188 0.06680829 -0.050291244 0.12876493 -0.06399697 0.13395815 0.14174098 0.010040029 -0.0047369185 0.093612164 -0.13462672 0.05874359 0.07429905 0.0044105947 -0.13294362 0.040055126 -0.12819386 0.073605224 0.064288035 0.051187906 -0.0016222757 0.102726825 0.07019397 0.06883531 -0.09244833 -0.1765012 -0.12594874 0.0580617 0.1382066 -0.035824835 0.059682094 -0.02071964 -0.023098657 0.09259778 -0.13092345 -0.17304759 0.029850516 0.14834462 0.14222252 -0.0466345 0.14391638 0.0372819 0.091894254 -0.004195329 0.16877988 0.042478886 -0.0048602726 0.095680684 -0.04820673 -0.049126804 -0.036578838 0.03462906 -0.082143165 -0.083289 -0.12026114 -0.18634968 0.1665512 0.08103609 0.043089032 -0.085554846 -0.01376791 0.18592621 -0.07263433 0.12932463 0.2674107 -0.14291385 -0.17038219 0.18331811 0.061906476 0.05182891 0.03748331 -0.22493696 -0.014239552 0.021011053 -0.13674544 -0.005057918 0.04155795 0.080315776 0.04221663 0.080316946 -0.06798668 0.09948553 0.003920751 0.03154149 0.1215643 -0.053240694 -0.053929463 -0.06794766 0.055919554 0.057787832
बरखा 0.031171411 -0.04053251 -0.095266365 0.16368453 0.100417435 -0.17993872 0.07128488 -0.030209742 -0.101707675 0.020579636 -0.1641699 -0.023223044 0.19089608 0.050858684 -0.04591975 0.11838878 -0.14487569 -0.20237885 0.024888806 -0.047996856 -0.065684706 0.0059612556 0.2219579 0.055573426 0.08247884 0.10247149 0.13789527 0.084122874 0.12944454 -0.089980595 -0.22745451 -0.12288486 0.11187266 -0.14832486 0.017987462 -0.03698999 0.0059774583 0.045217384 -0.0860073 -0.14580376 -0.0428714 0.090314545 -0.04855236 0.10040996 -0.004113635 0.03402234 0.028931046 -0.028201105 0.13687652 -0.16399945 -0.18004934 0.090035506 -0.011906357 -0.0013991809 0.093318194 -0.08807952 -0.036994714 0.08863377 -0.020961141 0.03594334 -0.116208956 -0.1648876 0.017089529 0.02853945 -0.07221632 -0.030024275 0.004628282 0.07622698 -0.055238366 0.012346657 -0.0022294533 -0.05976261 0.2676648 -0.072995156 -0.055156413 -0.07858621 0.118380435 -0.03507416 -0.17456642 0.11164369 0.079190165 0.08982785 -0.020261351 0.13308598 0.091628194 -0.003912352 -0.003586589 0.07294817 0.09641993 0.13250329 0.07333996 -0.01455835 -0.04725791 0.07164323 -0.01895061 0.18469879 0.047736403 0.014310085 -0.009764142 -0.1706363
बाद 0.12911698 0.03014245 0.054665014 -0.10411412 0.04221988 -0.023655238 -0.007796482 0.13665581 -0.1414807 -0.069152564 -0.20465785 0.08986904 -0.007451312 0.036261495 -0.027080644 0.22455874 -0.18491885 0.047817912 0.019742005 -0.0992324 0.07314644 0.0931217 -0.01582851 0.001999113 0.13022995 -0.0036584586 -0.074139826 0.21560824 -0.008429831 0.13121048 -0.045577347 -0.071253635 0.10195537 0.06588847 -0.04490927 -0.09736388 -0.11445587 0.060939617 -0.13416919 0.052133553 -0.12844443 0.07844004 -0.08830233 0.0864339 -0.12916814 -0.12917554 -0.065440804 -0.069983475 0.13522555 -0.071259335 0.082460545 0.18614352 0.020271596 -0.07778945 0.0031888974 0.079206906 0.038191795 0.10773094 -0.071001045 0.030124864 -0.1892397 -0.18535297 -0.149209 0.017580211 -0.05923588 0.10335925 -0.06615015 0.26641536 -0.037882056 -0.15083297 -0.06481003 0.13080728 -0.036613636 0.11511611 -0.029934313 0.06673844 -0.05612681 0.13552336 0.018857917 0.0074540116 -0.056604415 -0.0020649675 -0.042863403 0.056072682 0.10517035 -0.003980415 -0.10117849 0.18735732 -0.079192124 -0.03505008 -0.081140645 -0.18796124 -0.0908745 0.034636047 0.09750672 -0.01272649 -0.019648107 -0.03389513 0.13791673 -0.04084549
अम्मा 0.09641146 0.07527498 -0.010499967 -0.032023847 -0.053167447 -0.073424295 -0.1250828 0.04240029 -0.022968661 -0.041565236 0.024255807 0.10925396 0.186569 0.07179041 0.011971186 0.049966794 -0.09992773 -0.028941521 -0.027669325 -0.06415077 -0.078864545 -0.11388252 0.05325475 0.067939416 -0.0033615788 -0.0012153643 -0.049684774 -0.06251901 -0.068733945 -0.010119427 0.00037047162 -0.051484473 0.10960222 -0.09768261 0.030041808 0.038324606 -0.16105554 -0.06068368 -0.14948553 0.028532725 -0.07096278 -0.09410307 0.07884214 0.14170247 0.031279035 0.106709026 -0.017933197 -0.0076348097 -0.21254042 -0.050516102 -0.038014457 -0.010284921 -0.048050366 0.13606463 0.036777142 0.030062255 -0.08489892 0.067174554 0.094141625 0.016195554 0.04693993 -0.00037771897 -0.0095114065 0.0021560874 -0.09463579 0.07894734 0.1995585 -0.034453556 0.0047556013 0.19143365 0.29851297 0.0066776522 0.024047114 -0.11148288 0.13817222 -0.062774345 0.055052552 -0.12271449 -0.25620702 -0.23985913 0.04310933 -0.053943735 0.05810148 0.17430137 -0.08131623 -0.09853767 0.1277849 0.10506644 -0.109081045 0.1250041 -0.1396773 0.18067981 -0.15214725 0.19061296 0.02144561 0.052745342 0.16167796 0.073167644 0.012772131 -0.06251464
मन्दरे 0.037228838 0.11887659 0.056747507 0.025258554 0.034388017 -0.04137479 -0.060437005 -0.019881362 -0.1360812 -0.10287009 -0.2838306 0.100865826 0.08258488 -0.19378935 0.05705971 0.062645495 -0.16553038 -0.12181526 0.1376916 0.020422097 0.14635402 0.008496427 0.04457977 -0.06073083 0.04426542 0.04100314 -0.07514993 0.15238243 0.13772035 0.100254335 -0.1243948 0.021938246 0.12579487 0.028984472 -0.020791473 -0.07537165 -0.13606633 0.03175591 -0.11775166 -0.04286198 0.04300683 -0.01012385 -0.119739585 0.07756744 0.12526092 0.0036088922 0.049678873 -0.07979559 -0.08005954 -0.18738699 -0.044342436 0.10186058 0.032345902 -0.0909292 -0.11820615 0.0015876088 0.14559893 0.15194137 -0.10722093 0.02144726 -0.03467918 -0.0047176494 -0.0022214814 -0.014570404 -0.1858907 -0.018807631 -0.06462123 0.14645454 0.050696507 -0.020802697 0.14459504 -0.1952973 -0.16054042 -0.022256097 0.066017576 -0.066788256 0.020144144 -0.058355093 -0.21409316 0.018084219 0.08347004 0.1263063 -0.020843852 0.12921631 0.026021803 0.03652327 0.0264713 0.1039561 -0.05681926 0.049014743 -0.050932176 -0.15644677 -0.09066139 0.07312301 0.08504359 0.005537669 0.23882985 -0.07596786 0.06888286 -0.118486024
अपणा 0.030619565 -0.003137599 0.1772141 -0.08566951 0.0019767073 0.12723981 -0.10118481 0.123635925 0.02134466 -0.0035051862 -0.18768631 0.15388459 0.025631705 -0.050412368 0.0915294 -0.02502974 0.02559183 -0.22740257 0.07579226 0.00886199 -0.067494944 -0.076729424 0.1007343 -0.081333086 0.02301532 0.005883027 -0.027277797 -0.03342242 0.19740142 0.15516171 -0.10821675 0.061886255 0.15402506 0.029555012 -0.008278917 -0.17719048 -0.056969915 0.0952972 -0.022319496 0.015447791 0.042763177 0.038081557 -0.001119277 0.06606878 0.0014531211 -0.1453146 0.024785424 0.10891708 0.1545883 -0.04253872 0.088188015 0.04532427 -0.025251769 -0.14337638 0.06365074 0.05755709 0.12904873 0.090474576 0.057195276 -0.0037989994 -0.04760738 -0.10442873 -0.11113441 -0.038441222 -0.14769241 -0.15866238 0.14319018 0.08617501 -0.0086268885 -0.1250848 0.011948547 0.2265525 0.0007165872 0.12861782 0.25894544 -0.1608576 -0.0014051861 0.10527616 -0.13814148 0.13800564 0.10896596 -0.05900273 -0.059760917 0.15346782 -0.050965007 -0.12100907 0.092244126 0.09942761 0.03464056 0.12081924 -0.001170041 -0.14666042 0.01546464 0.053168036 -0.07033308 0.051168017 0.05111175 -0.019930637 0.12024049 -0.08190826
तिसजो 0.055196498 0.03457208 0.18404925 0.0037702038 -0.15776643 0.0065052756 -0.15955377 0.049453344 -0.0067448425 -0.13271469 -0.031707067 -0.12603402 0.06967643 0.030196348 0.066507116 0.13722728 -0.1986623 -0.13824448 0.07624489 0.039207067 0.05535244 -0.028704949 0.03870295 0.08404092 0.12050314 -0.12654105 -0.06106066 0.00051714183 0.14610852 -0.013407458 0.0921543 0.12820499 0.09387411 0.014335944 -0.0012751727 -0.137267 -0.013249931 0.1417534 -0.05897946 0.039677653 0.009380394 -0.051803313 -0.10185342 0.097272135 0.11610542 0.029190175 0.16528207 -0.17169428 0.042755935 -0.0037774458 0.13534304 -0.045907196 0.043510977 -0.14831932 0.099905916 0.050013714 0.12512857 0.109952204 0.09952716 0.25792372 0.00586515 0.064553425 -0.13231568 -0.061331183 -0.07868606 -0.2301924 0.18545869 0.025538422 0.1522778 -0.038679596 -0.027530458 -0.030614587 -0.07596722 0.08970298 0.08500269 -0.0110676335 0.03229322 -0.0079846075 0.021741545 -0.17060499 0.037184406 0.022584086 -0.07847842 0.10801104 -0.17744353 0.0485585 0.06722416 0.072062284 0.080434225 -0.11448751 -0.036484227 0.08689251 0.06735911 0.17542006 0.038709622 0.08032943 -0.12224266 0.01977521 -0.043353226 -0.162765
माता 0.10952022 0.047354072 0.013693484 -0.05614418 0.050727 0.00876887 -0.09507436 0.1623164 -0.1917454 -0.050110433 -0.122299746 0.109766364 0.046677038 -0.08178424 -0.006771001 0.16779177 -0.20414715 0.077124506 -0.028016994 -0.11895406 0.014380804 0.07021318 0.1072529 0.020120835 0.035743617 0.11472022 -0.11354536 0.15448718 -0.02020946 0.091596745 -0.029694946 -0.08025496 0.08904273 0.042107854 -0.093678154 -0.028412657 -0.047065943 0.01689566 -0.069268815 0.13706943 -0.14707603 -0.03106647 0.0032619908 0.0769889 -0.10719775 -0.0018818643 -0.04249541 -0.13315178 0.11006304 -0.11182398 0.008461573 0.12816729 0.04854427 -0.019873114 -0.008038699 0.17144546 0.0017832462 0.19866589 -0.10746327 0.0352351 -0.19461623 -0.09076995 -0.08988311 -0.010908074 -0.08872632 0.041526783 -0.12124674 0.19069058 -0.09057981 -0.06926601 0.080517516 -0.03087999 -0.1932001 0.19010498 0.015518401 0.10351927 -0.034428705 0.09186071 -0.1513489 -0.0019793974 0.018204687 -0.034425296 0.0087632295 0.10461412 0.16130982 0.07794091 -0.07678247 0.21037963 -0.05675001 0.08346292 0.034061518 -0.22588904 -0.11369245 -0.08242314 0.13094094 -0.018922253 0.06738191 0.007760922 0.055547144 0.09566223
घट्ट 0.009996515 0.07635449 -0.020643806 -0.0935583 0.084277675 -0.08616535 -0.032001466 0.12162268 0.07510998 0.06081194 -0.0978345 0.11711517 0.19252406 -0.015045936 0.025047172 0.054656878 -0.111380994 -0.055533774 0.108665064 -0.08490246 -0.060844805 -0.018630695 -0.010679472 -0.08709512 0.040244836 0.054727472 0.020443987 0.16824757 0.084051505 0.012618942 -0.1460288 -0.09619734 0.08016316 0.26459998 0.069366045 -0.09010777 -0.20389996 -0.07554203 -0.18049353 -0.012171999 -0.07476189 0.072548 -0.04759564 0.1426369 -0.11389905 -0.13066949 -0.06918573 -0.014009795 0.047703683 -0.11931397 -0.051868945 0.03779725 0.15366583 -0.03412477 -0.10290541 0.11303062 0.002395015 0.18662 -0.05795455 -0.010774347 -0.09088535 0.10034685 0.010600397 0.18741743 -0.105025694 0.18937594 -0.0078316 0.11571942 0.04506557 0.013169845 -0.0017695149 -0.05619555 0.025549185 0.014478009 -0.13079773 0.09892229 -0.04223716 0.1685927 -0.20751591 -0.042263597 0.03132236 -0.12520622 0.14720699 0.090238236 0.12922846 0.049075432 0.034078978 0.107081376 -0.06806995 0.12842087 0.010518135 -0.140272 -0.10590016 -0.0239918 0.022064583 -0.01642928 0.09508933 -0.15146929 0.18071713 -0.016194383
इसदे 0.07723248 0.037041485 0.107962556 -0.20096545 -0.057462666 -0.039119612 -0.13470647 0.062864095 0.13632356 0.00033767492 -0.06857073 -0.0011264969 0.12459695 0.011802311 0.17729726 0.01783268 -0.054704662 -0.036168452 0.03595731 -0.0599526 0.052741963 -0.20856163 -0.0624848 -0.036574375 -0.058396626 -0.08171963 -0.14151797 0.040235594 0.020819971 0.18613431 0.15686616 0.0959024 0.105449 0.15640615 -0.009905262 -0.05331948 -0.23166363 0.056927364 -0.0072933193 0.13901715 0.01352953 -0.09517151 -0.10759542 0.043499958 0.059587624 -0.08378518 -0.08402286 0.02038843 0.024344252 0.12261835 0.14728408 -0.017845696 0.05694746 -0.006107632 -0.041853644 0.17074855 0.09603399 0.111130804 0.090390176 0.11191055 -0.026309144 0.07156681 -0.09196962 0.087739065 -0.13214076 0.039444603 0.16586687 0.009725958 0.11937913 0.087190345 0.17686734 0.030086257 -0.16418876 -0.042664375 0.19429581 0.08338902 0.06586477 0.15712038 -0.118951365 -0.1332479 0.049346026 -0.15943861 0.030296572 0.11456208 0.017562479 -0.02166821 0.057921294 -0.011155154 -0.062407658 0.08832908 -0.10678189 0.045279045 -0.10338608 0.02585433 0.09944344 -0.105291225 -0.044889025 0.0043970128 0.1959412 0.104341656
भ्यागा 0.11775314 0.03640292 0.021897335 -0.14523213 -0.019276246 -0.06405817 -0.12262284 0.10067091 -0.031049954 0.05482595 0.11418324 0.08098539 -0.0022894372 0.095027044 0.008189688 0.050829522 -0.043102723 -0.06827171 0.04395923 -0.10154483 -0.12573454 -0.05170112 0.06975258 0.04166281 0.0064808116 -0.0020207593 0.018195037 0.04672811 0.16366379 0.15447776 -0.06491753 0.06614552 0.067538194 -0.0579949 0.03881663 -0.09045075 -0.0075844517 0.1881517 0.025251754 0.05373017 0.019501986 -0.13064086 0.09668738 0.11672768 -0.1704025 -0.0799185 -0.079718225 0.14236282 0.13782229 0.037872963 0.1515798 0.004886337 -0.054393504 0.08312503 0.1540174 0.10416104 -0.1482053 0.00882321 0.08233117 -0.0018437679 -0.025506338 -0.097102575 -0.06922475 -0.0023026862 -0.12125413 -0.146973 0.21166274 -0.056439858 0.04137282 -0.02714148 0.14079396 0.3148583 -0.13647862 0.11196195 0.10374175 -0.06954537 0.074133836 0.20864813 -0.17784213 -0.034540735 0.15947114 -0.13234325 0.0612404 0.10816852 -0.079936124 -0.12437934 0.08550842 0.055541974 -0.046374004 0.111451484 -0.012556472 0.16761541 -0.078035355 -0.0035615873 0.094860695 0.021419331 -0.1001498 0.05174097 0.05215155 0.0573278
कांगड़े 0.015558829 0.116706744 -0.00402794 -0.061983213 0.043321863 0.07085696 -0.067113 0.14741093 0.054380696 -0.05449487 -0.13773137 0.15103559 0.13476673 -0.06000447 0.1236753 -0.13407162 -0.20502469 -0.11852967 0.17211345 -0.12881945 -0.13951756 -0.012031418 -0.036122266 0.056675892 0.017337546 0.04029606 0.04853411 0.17780343 0.062078834 0.10291432 -0.124669485 -0.039585948 0.122390695 0.17071687 -0.034382243 -0.023522772 -0.14492205 0.016798027 -0.18459986 0.052378196 -0.09792028 0.02762396 -0.049703907 0.050468776 -0.11722451 -0.13344532 -0.028297404 -0.06197694 0.051357213 -0.12004586 0.017372185 -0.017557384 0.04524163 -0.014243412 -0.07338746 0.056370296 0.12558922 0.1370917 -0.029973645 -0.028445624 0.013516215 -0.020936273 -0.041968696 0.063478656 -0.1423001 0.20387343 -0.028525678 0.13266361 -0.079145424 -0.0109748 0.11726677 0.15427631 -0.0042523337 0.057254687 -0.10702783 0.11131112 -0.12166064 0.24241784 -0.16494444 0.009076896 -0.07982994 -0.056278065 0.05519034 0.04198938 0.07170733 -0.05303921 0.014103479 0.08655451 -0.017196607 0.07989686 -0.067385726 -0.24505529 -0.12101978 0.037398547 0.034500677 0.03672116 0.12418006 -0.04108946 0.17718568 0.07300433
वाळे -0.12216033 0.13259919 0.008258809 0.113825575 0.070992015 0.021388471 -0.057589523 0.050625224 0.02400758 -0.03159525 -0.026682965 -0.2179576 0.11354241 0.037439663 0.13510115 0.15417549 -0.21716146 -0.17948303 0.061452772 -0.0313158 0.02672868 -0.062066916 0.24204575 0.08004696 -0.10409822 0.06641584 -0.1051456 0.08461806 0.20283751 0.12310515 0.04730982 -0.041701183 0.10243425 0.19316055 -0.1045061 -0.04510135 -0.09064169 -0.05685719 0.16314624 0.061648276 0.08312969 0.016369736 -0.054482233 0.00073155086 -0.03326146 0.03383791 0.07315223 0.0014917748 -0.015592605 -0.06676014 0.0544683 -0.12315009 0.06778444 -0.047640495 0.093003444 0.033943858 0.027959686 0.14203349 0.026408102 0.08566178 -0.08394277 0.064790465 -0.028101156 -0.022431727 -0.11921282 -0.18696411 0.18931119 0.005966211 0.09980135 0.036346667 0.10324509 -0.25074485 -0.1218423 0.06526327 0.10512737 0.14807805 -0.002644863 -0.030273575 0.13550907 -0.18774223 -0.04253449 0.06450116 0.08084726 -0.10042716 -0.054759227 0.024155086 0.13885517 0.009175646 0.01811981 -0.1448469 0.026765728 -0.08635528 -0.0340447 0.041824512 0.12648807 -0.044373013 -0.021632483 -0.011803307 0.00057305186 0.12318224
देयां 0.07691073 0.11303757 0.09351049 -0.17156161 0.0020429888 0.06357654 -0.12046443 0.13459925 0.0021120887 0.044938017 -0.20761932 0.19215886 0.07182711 -0.008908266 0.07422733 0.025664438 -0.09116521 -0.015682189 0.11500612 -0.085642025 -0.06740673 -0.04689318 -0.034111336 -0.015218684 -0.08040049 -0.05425682 -0.018493418 0.10660733 -0.027003825 0.101459436 -0.12123421 -0.01488638 0.18559645 0.23350637 0.08688009 -0.12831835 -0.1950002 -0.07636791 -0.13251483 0.05622645 -0.07886144 0.099844925 -0.003789793 0.14456502 -0.10869922 -0.110128604 -0.05033584 0.063918196 -0.059903935 -0.110706896 0.065161034 0.014507383 0.12118968 -0.1382258 -0.02431165 0.097496875 0.016300607 0.10915232 -0.08627902 -0.08106524 -0.0816585 0.04406196 -0.003944763 0.0148160625 -0.06838619 0.13020767 -0.020089557 0.09001455 0.011292546 -0.024930043 0.05277241 0.096484 -0.062471367 -0.013288919 0.032039404 0.0034799967 -0.20329493 0.10475202 -0.11513721 -0.09408377 -0.037817482 -0.16141681 0.121824875 0.10532504 0.13364244 -0.029396784 0.04106657 0.19746624 -0.12620194 0.046914462 -0.043103755 -0.15205432 -0.17751554 0.12534852 -0.010522438 -0.016181123 0.113847256 -0.108313724 0.17798133 0.042600725
हुन्दी 0.024390832 0.046796285 -0.16095848 -0.05061896 0.10814703 0.06914316 0.0016878805 -0.039045084 0.0968216 0.015822103 -0.021848144 -0.047959715 0.28762257 0.06292196 0.047043946 0.08331508 -0.06668461 0.027409788 0.012053431 -0.15035148 0.0724276 -0.08730756 -0.019050471 0.027512942 0.14039762 -0.004910979 -0.08037154 0.19886261 -0.048477594 -0.076192014 0.016678672 -0.067016624 0.124686114 0.054239042 0.009381938 -0.023011424 -0.21083724 -0.13196592 0.031173905 0.09154676 -0.054654658 -0.084260926 -0.0031782303 0.107829265 -0.008284555 -0.0018471336 -0.08972719 0.03143036 -0.048297137 -0.020859808 -0.026721677 -0.114710696 0.1210123 -0.06398163 -0.04770245 0.05895047 -0.12654866 0.12997241 0.09651364 0.22485016 0.037439756 -0.008093663 -0.03485674 0.16951863 -0.16366033 0.11878446 0.2265752 0.10711549 0.07193925 0.14069225 0.22871166 -0.058343843 -0.0297233 -0.10615923 0.06664477 0.14206868 0.04132883 -0.0027890475 -0.16707104 -0.13276307 0.015612815 -0.10454501 0.08674065 -0.122173354 -0.001581882 0.10438185 0.045578696 -0.022760393 0.09774105 0.16511355 -0.05646288 0.019521276 -0.101355344 0.06945656 0.050929133 0.12331693 0.013113603 0.10116795 0.18409097 0.047855094
चाहिदा 0.035213374 0.022099117 0.032842346 0.03936818 0.06461927 0.0024221223 -0.031404458 0.06185925 0.13208729 -0.047719374 -0.094666444 0.042588312 0.043261684 -0.07436293 -0.04476291 0.16848934 -0.1892949 -0.12172614 0.1202961 -0.088816226 0.10214145 0.005581788 0.1592024 0.070121646 0.1439262 0.00058060966 0.14273268 0.15584606 0.11810245 -0.0041118935 -0.07227032 -0.031422526 0.19173712 -0.030061234 0.020976497 -0.13078861 0.11810906 0.17894162 0.031108096 0.086093836 0.05758381 0.13592696 -0.105285466 0.14190806 0.08252036 -0.05299588 0.09961667 -0.028595673 0.27629673 -0.07610865 0.07063938 0.1337346 0.076651014 -0.10490347 0.11951047 0.07340691 0.049938057 0.069828585 -0.006086875 0.11480182 -0.096912995 -0.09532411 -0.10753765 0.01727622 -0.03144581 -0.17958048 0.15876621 0.16342941 0.06132685 -0.16667017 -0.0401005 0.0406458 0.042960946 0.030342763 0.162806 -0.03253767 0.04871142 0.071038656 -0.13711049 -0.042812895 0.024258986 -0.09048977 -0.06836436 0.16780677 0.027712012 -0.08367168 -0.071220696 0.061903514 0.13043447 0.08436998 0.01095333 -0.10582534 0.07139117 0.1491511 0.007930745 0.08979217 -0.09802278 0.071567744 0.034922913 -0.14197639
