1810 100
인 0.041420273 -0.063197814 0.04066152 0.03811226 -0.09966913 0.017901016 0.052432917 0.049460627 -0.05433175 -0.16836572 0.05181137 -0.029608712 -0.09054736 -0.15732475 -0.07065136 -0.14870602 -0.016640663 0.08463928 0.00453036 -0.2451584 -0.1927799 0.04507856 -0.033727713 -0.0586342 -0.028393911 0.076788105 -0.08482459 -0.1848905 -0.10940667 0.044776373 -0.03385723 0.0120891 -0.01986153 -0.18418899 -0.041379977 0.033888865 0.18558064 0.1409963 0.16555306 0.13867652 0.16260767 0.035684675 -0.028103394 -0.1036684 -0.08777728 0.09225281 -0.1395392 0.02607338 -0.11163934 -0.018882185 0.13399175 -0.058872283 -0.027599353 -0.23548496 0.18275584 -0.10045936 -0.18292046 -0.13502704 0.042784967 0.058959797 0.0146467425 -0.08759413 0.023500904 -0.014746699 0.06364913 0.04874696 -0.16344795 0.07264279 0.011627633 0.2663926 -0.080801986 -0.025574405 -0.08193013 -0.047222555 0.06336255 -0.050870653 -0.02335097 0.118535 0.02756235 0.010220868 0.0022712264 -0.074642375 -0.0801052 -0.16065328 -0.063407585 -0.1181978 0.099371195 -0.015580525 0.07903807 0.021926612 -0.068076245 -0.037442412 -0.09405005 -0.005841262 0.024557281 0.045561273 -0.067150325 0.060828805 -0.19756119 0.08713321
년 -0.09918454 0.17422548 0.14692034 -0.13305192 -0.02887639 -0.20558976 0.014313161 0.066738255 0.011052461 -0.06322438 0.06419754 0.06768226 0.13318548 0.011885377 -0.18919216 -0.0019319467 0.05724505 0.078811795 -0.013195949 -0.038531896 -0.12364641 -0.04301276 0.014072664 0.12551725 0.024855778 0.10283216 -0.028664697 -0.032922447 -0.039523095 -0.04386846 0.16734247 0.06457384 0.05476488 -0.12096488 0.1483514 0.14242128 -0.13373658 0.08198094 0.10971039 -0.07597812 0.061100088 -0.30865428 -0.05716265 0.056733392 -0.0345659 0.26867628 -0.033103194 -0.23902188 -0.14868295 -0.10579058 -0.15460299 0.052019022 -0.12100477 0.13434477 0.061879776 0.0629029 0.021219155 -0.0057630897 0.13237819 0.027509809 -0.02068174 -0.1354191 -0.12772933 -0.033148475 0.017594919 -0.04955057 -0.055071753 -0.029010335 0.071332484 0.05654797 -0.099765554 -0.07564705 -0.038144328 -0.011385547 0.05938465 -0.056449074 0.022168323 -0.07486625 0.13905403 -0.14092948 0.014998483 0.14529464 -0.039990786 0.10169341 -0.06040841 -0.022078995 -0.009101883 0.02356434 -0.03603456 0.17402598 -0.079142004 -0.025702467 -0.12970217 -0.05687763 -0.027944766 -0.031933013 0.1327518 -0.07169693 0.07901502 -0.082987785
그 0.026646797 -0.06611501 0.038815394 -0.053282797 0.022862786 -0.014670601 -0.0649488 -0.03652723 0.06673876 -0.07590735 -0.034978595 0.09671462 -0.033708703 -0.06663555 -0.011387015 -0.07775811 0.13910824 -0.13731791 0.16864875 -0.11258581 -0.10083683 -0.07277046 -0.09128049 0.2698011 0.124314964 -0.0028388037 0.005434316 0.02451096 0.042396557 0.039985936 0.12330086 -0.2310814 -0.03606148 0.051130738 -0.10880934 -0.036872275 -0.084269725 0.17855074 -0.045623433 0.06506414 -0.12445285 0.09342699 0.023649255 -0.0791942 0.07540237 0.042787198 -0.058349 0.088448465 -0.006965871 0.09527251 -0.2001437 -0.03207 0.04160194 -0.02259863 -0.07355385 0.13334908 0.08933533 -0.006294121 0.106070206 -0.061695505 -0.012337808 0.05122795 -0.06235187 0.14309265 0.114344485 -0.15666191 0.11390602 -0.14642332 0.12652907 -0.036971368 -0.029594122 -0.15421529 0.16534826 0.022680106 -0.12402326 -0.036945008 0.1180957 0.07768239 0.09677122 0.05405601 -0.17518301 0.1023859 0.05411178 0.028631177 -0.07827571 0.028697658 0.06602097 -0.0023102516 0.031088604 -0.14687641 -0.08046718 0.2531489 -0.09868742 -0.10481769 0.23992956 0.026192434 0.08513858 0.12484122 -0.075836 -0.042843055
수 0.102268875 -0.13794586 -0.12413516 0.05007958 -0.006236851 -0.08471245 -0.0058890027 0.09894749 0.1162911 0.19491029 0.06621016 0.100101374 -0.057954147 -0.076518975 0.09596982 0.07185719 0.14154871 0.03960984 -0.20385008 -0.08385472 -0.21805462 -0.20341556 0.15255588 0.04825819 -0.062014308 0.019404082 0.026562767 0.14627016 0.04753389 0.08927727 -0.013630091 -0.027715443 -0.04266981 0.120827384 -0.06618219 0.07577663 -0.06406839 -0.11176353 -0.16356927 0.12747018 -0.08273908 -0.02170897 0.120024025 0.026002217 0.19946384 -0.17856829 0.029819012 -0.072179556 0.09197756 -0.1380054 0.14018936 0.06945979 0.024409164 -0.031697303 -0.08192213 -0.04496928 0.013869681 -0.0803748 0.0071112667 -0.019397886 -0.07210618 -0.07430585 0.074778855 -0.10332985 0.044216767 -0.14365758 -0.13691784 -0.117757745 -0.20998345 0.07237835 0.025456125 -0.118894584 0.014475506 0.245217 0.021794869 0.027795995 -0.040227685 -0.014475145 -0.19712327 -0.12236006 -0.048149064 -0.02214359 -0.0021387967 0.058295522 0.0128158815 0.008435577 0.060926754 0.090556145 0.0017184215 -0.05904849 -0.000618291 -0.13410036 -0.063648075 -0.041119814 0.039914124 0.1489847 -0.051009253 -0.050849043 -0.009064689 -0.17298493
는 -0.0929795 -0.0161412 -0.12449511 -0.14344655 -0.04708874 0.060660858 -0.08355278 0.03587643 0.056292538 0.1318385 0.10957732 -0.19081388 -0.09274161 0.15674466 -0.112011984 0.023007413 -0.17899638 -0.12835506 0.0430912 -0.2267648 -0.014122891 0.10059765 0.014453586 0.25403634 0.07626491 -0.15393323 0.12058396 -0.12478733 0.019618124 0.042035125 0.02844779 -0.10797692 0.0391566 -0.0545158 -0.035007197 -0.06508363 -0.09852618 0.045717902 0.010005285 0.07052523 0.06336536 -0.05429342 0.0331771 -0.046783306 0.08468536 -0.11353861 0.108086094 -0.03427799 0.09066977 -0.13148099 -0.06784969 0.04619839 -0.096626595 0.10460509 0.015873812 -0.10403672 -0.002690899 0.08912219 -0.118791774 0.23081909 -0.099154435 -0.019537762 -0.020092098 0.038466297 -0.18399397 0.0041542216 -0.069983095 -0.023106547 0.05008032 0.009026182 0.1878696 0.09866867 -0.033334643 -0.10878909 0.024093445 0.04810368 0.10023711 0.17432337 0.14241865 0.05839335 0.066956915 -0.044293094 0.0047445884 0.015173136 0.00856692 0.012005083 0.11984979 0.2688758 -0.0020042167 -0.007990876 0.011716538 0.004268213 0.20417331 0.08131778 0.0047974973 0.07111235 0.09713823 -0.07847749 0.08839051 -0.1265546
이다 0.06905825 -0.11187531 0.029980564 0.009823192 -0.06449283 -0.019171068 0.015907312 -0.12313668 -0.030028736 0.1485959 -0.16145203 -0.09874335 0.022679746 0.048568003 -0.08331218 -0.10391018 -0.011896948 0.06403123 0.029755795 0.18620968 -0.20235373 -0.0690392 -0.089437485 -0.09245989 -0.055298604 -0.116866685 0.07607124 -0.19184351 0.025345072 -0.10763547 -0.010097998 0.050874308 -0.12739907 0.031243108 -0.07443585 -0.07996832 0.15765207 0.06339154 -0.07148819 0.07196716 -0.050066285 -0.109093755 -0.0141558675 -0.20302743 -0.073743336 -0.15082736 -0.044745672 -0.11068986 0.04274067 -0.11459483 0.1939691 -0.04742806 -0.13742946 -0.021901917 0.12809242 -0.10723246 -0.024517002 0.035914592 0.24566069 -0.045693204 -0.023055235 -0.13090834 0.0864012 -0.010799837 -0.036335677 -0.044702925 -0.15935497 -0.17847835 -0.22445697 -0.00058260927 -0.041734032 0.12300371 0.030217998 -0.12297129 0.088325605 0.02569141 0.015615659 -0.016625358 -0.047017094 -0.031664602 -0.02075024 0.08060175 0.17104942 0.008085336 -0.08068737 -0.05776445 0.0021683301 0.07719976 0.1539299 0.093868166 -0.1169205 0.07762949 0.10096802 -0.08928511 0.1584299 0.07400517 -0.064301915 -0.11834124 0.049554136 -0.13478933
있다 -0.0013888375 0.04791766 0.042200446 0.1307534 -0.14683846 -0.043683745 0.16395143 -0.047600243 -0.08795884 -0.109782234 -0.10336708 -0.1688159 0.09060317 0.054171816 -0.002265836 -0.004724934 0.2715969 -0.12120817 0.02111564 0.046293527 -0.033842113 0.08593643 0.23482299 0.088461325 -0.07726868 -0.07627044 -0.13168529 -0.07997035 0.11864076 0.017561238 0.033943526 -0.052159056 -0.051300067 0.0046300585 -0.17320155 -0.13277541 -0.16497116 -0.041074164 0.0036768098 0.019678364 -0.060191993 -0.06109898 0.028762424 0.060954966 0.023177283 -0.11916389 -0.09222151 -0.17325427 -0.017625488 0.01687298 -0.07336276 0.04253233 -0.06632144 0.030539911 0.11349732 0.0337013 -0.08832414 -0.33498037 0.012582276 -0.003408904 -0.09816768 -0.031120382 0.061847873 0.116060175 -0.022603767 0.12262652 -0.035019916 -0.10359576 0.039903067 -0.034129832 0.1598837 0.06010234 0.061450206 0.088281475 -0.06054793 0.10630628 0.07193697 -0.033838093 0.07991642 -0.2096165 0.06905735 -0.03709034 -0.07577915 -0.03482436 0.085695915 0.14057139 0.08289922 -0.08530706 0.12287605 0.05209322 0.09104343 0.070238054 -0.031645566 -0.22720762 0.07375708 -0.0077266507 -0.03237319 -0.038447358 -0.04559395 -0.17041725
것 0.19379151 0.060602836 0.22919069 0.0011857235 -0.14929625 0.14323463 0.1421924 -0.1148776 0.13492686 0.042473286 -0.18433198 -0.11410914 0.018015636 -0.0405886 0.19414912 0.13295725 0.0060833716 0.056519724 -0.12629491 -0.085646436 -0.20403792 0.05328657 0.06542697 0.13426965 0.04646914 -0.027156942 -0.03194567 0.10459519 -0.15724917 0.0662296 -0.059816554 -0.060365405 0.1027705 0.045596823 -0.06833944 -0.04533161 -0.1665011 0.02058653 -0.0031887009 0.054524522 0.017064901 0.09778074 0.044481073 0.13755955 0.21034136 -0.13295592 -0.066406645 -0.089932084 -0.09520041 0.034288324 0.067546524 0.053850308 -0.115272805 -0.10964006 -0.078606635 0.044722356 -0.058077533 0.098245636 0.0017156866 0.10433727 -0.03711741 -0.0730161 0.06892238 0.048652243 0.07616409 -0.015844341 -0.034181304 0.027172377 -0.07458658 -0.1918308 0.044506285 -0.013766339 0.17308643 -0.012577769 -0.0424995 -0.013062106 0.10998768 0.14094383 0.012863175 -0.10651936 0.0033824781 -0.083606586 0.051502496 0.036938954 0.04906606 -0.0007958436 0.10100551 0.16785115 -0.03802995 -0.028306467 -0.017024262 -0.21258228 -0.024486512 -0.00083105924 -0.1516057 0.010748195 0.16815929 -0.15830885 0.086304314 -0.06710497
있는 -0.0497284 0.14595756 -0.016521197 0.09187296 -0.09949563 0.038171437 0.2128587 -0.25380462 -0.085456565 0.02583477 -0.046739224 -0.15041763 0.045831088 -0.19612102 -0.01555668 -0.21532106 0.059956923 -0.037061557 0.045736443 -0.023232248 -0.04117419 0.18067311 0.1281669 0.05587674 -0.20410849 0.06020171 -0.003484593 -0.06670523 0.05706185 -0.020208312 -0.07994156 0.023415824 -0.15524521 0.05151158 -0.055242397 -0.09713996 -0.04132058 -0.10381443 -0.13158445 0.035484288 -0.20950854 -0.0395154 -0.018014539 0.010758435 -0.08788003 -0.15031987 0.0043911454 -0.0021525018 0.019826123 -0.23597868 -0.18184721 0.1226868 -0.13389555 0.08748638 -0.018480772 -0.017435085 -0.048930448 -0.31600332 -0.09067465 0.115752265 -0.056849822 0.058890387 0.041473214 0.02824627 -0.01733093 -0.08765213 -0.05097289 0.040174752 0.055535164 0.10520301 -0.022890935 0.013233112 -0.057972282 -0.039290473 -0.13967626 0.082342334 -0.03598396 0.0190123 0.053377867 -0.010209443 0.07435873 0.019912297 0.005905139 0.005863447 -0.103301145 0.00022372277 0.12724122 -0.02542089 -0.010559044 -0.1550848 0.064993516 0.15037206 0.030216658 -0.15198784 0.0065206117 0.061957493 0.011695417 0.1213064 0.066437855 -0.008528823
이 0.025314214 0.06764283 -0.13083102 0.22254601 0.19370507 -0.02749317 0.013393894 -1.09907605e-05 -0.088325575 -0.14348611 -0.0120451255 0.1262224 -0.09035009 -0.07545516 0.015292364 -0.02197052 -0.12772587 0.11743344 -0.17127033 -0.07579116 -0.1220871 0.057806395 -0.05749718 -0.034738112 0.02883143 -0.231023 0.026129974 0.065707535 -0.017048081 -0.13211991 0.069896355 -0.026387189 0.030241385 0.09098705 0.040296353 0.20936792 -0.03464671 -0.07277713 -0.046707444 -0.006071413 -0.08025504 0.1386494 0.008754164 -0.13529512 -0.11761593 -0.080153055 -0.16799513 0.020962143 -0.045722336 -0.059305526 -0.10281239 0.087242775 -0.05565782 0.0036511065 -0.12759948 -0.053196985 0.18003225 0.044573404 0.0047225743 0.13720049 -0.016572198 -0.07861666 0.19643694 -0.052311637 0.18953481 -0.07399849 0.13579859 -0.004320824 -0.045698456 -0.0025698417 -0.0129032545 -0.22199455 0.09849725 -0.08631706 0.09192631 -0.061500877 0.019449104 -0.1797014 0.07605487 0.024301251 -0.017606176 -0.01712404 -0.14143878 0.22345594 -0.012351791 0.047763772 0.035807077 -0.15707278 -0.035818048 0.06570539 -0.13093017 0.10325849 -0.123962894 -0.023885187 -0.09025299 -0.011640785 0.05232222 0.059210368 -0.057984646 0.103972636
및 0.14079435 0.16740209 0.16454415 -0.06733136 -0.04724257 -0.062827766 0.16044904 0.07251801 -0.13248086 -0.0014523036 0.11358136 0.05589197 -0.07000839 0.042693004 0.031056779 0.030901698 0.07311925 -0.17763162 -0.04938559 -0.16817784 -0.04197919 -0.13450801 -0.037954178 0.05204872 0.1494873 -0.057782393 -0.17437536 -0.110527396 0.016036192 0.07351441 -0.011858603 0.102138385 -0.036559165 -0.1450258 0.20930257 0.15093589 0.15690108 0.18141457 0.000181648 0.090628706 -0.17905511 0.028926479 0.009084684 -0.05042258 -0.019133259 0.06295054 0.05890329 -0.11946757 -0.04139765 0.009381355 0.054577768 -0.10648595 -0.038236074 0.067483455 -0.044107 0.07814664 0.03415871 0.08226526 0.06290799 -0.18459813 -0.109477155 0.13693431 -0.0430325 -0.025099862 -0.059319958 0.08942544 -0.08916761 0.053570073 0.028036568 -0.09161929 0.048345204 0.2136876 0.0745554 0.034503862 -0.03605555 0.10049791 0.098489545 -0.108097166 0.03557472 -0.07202012 0.183327 0.07183377 -0.10684667 0.12683412 0.06261974 -0.08709392 -0.040454153 0.016351284 0.13240169 -0.10555421 -0.18377183 -0.09841366 -0.10513899 0.02286197 -0.013499196 0.08291317 0.19327962 -0.007084084 0.017265312 -0.09823756
그는 -0.04169031 0.12318086 -0.01354906 0.04093328 0.08309386 -0.11867187 0.063908756 0.01877126 0.14074868 0.12665144 0.06282223 0.0028886218 -0.04248501 -0.034047876 -0.025647972 -0.1236763 -0.10387604 0.031809058 -0.11625811 -0.13935268 -0.12131143 -0.05538098 0.09802413 0.14407104 -0.0021996896 0.0411216 0.065665945 0.0050184396 -0.011151685 0.062575795 0.058876377 -0.16183159 0.045662243 0.08781325 0.07547327 0.037178256 -0.047161456 0.20418578 0.03874968 -0.059315115 -0.25018108 0.0072334916 0.14027189 0.03527226 -0.0942759 -0.038069442 0.12706174 -0.0060554952 0.0022120718 -0.2468695 0.18593675 0.049637802 -0.122108206 0.07744411 -0.06418378 -0.11050029 0.031192865 0.028626287 0.051600285 0.06201298 0.021682037 0.13260196 0.1675927 -0.14965928 0.06307714 -0.044358373 0.090257235 -0.03673606 -0.18002558 -0.08435817 0.077218615 -0.037512332 0.010898141 -0.04549899 0.17711166 0.14239024 -0.039372947 0.20295678 -0.16382012 -0.03374878 0.1714646 -0.018432109 -0.1717578 0.009870982 -0.007270284 -0.051049747 0.043246977 0.03974447 0.026069881 -0.050551027 -0.15716846 -0.09515524 -0.011068254 0.16297016 0.041824017 -0.19796257 -0.08326691 -0.041704837 0.0829923 0.0632799
한 -0.2027389 -0.11757088 0.07156448 -0.25962308 -0.028888578 -0.023054805 0.1762581 0.041778676 0.014663916 -0.0666819 -0.041398127 -0.07727379 -0.16533324 -0.043651856 -0.09434221 0.1224992 -0.051403813 -0.07781223 -0.024622861 0.09191062 -0.049585078 -0.07711514 -0.08070348 -0.065084234 -0.14916094 0.0020969606 0.025854643 0.11304196 -0.06851618 0.008252359 0.0045122704 -0.036164988 0.11160788 -0.10220376 0.13216639 -0.19346748 -0.109428294 0.14186116 0.118997574 0.11963887 0.054034386 -0.114404194 -0.0068437103 0.13544492 -0.06495617 -0.094268 0.07581368 -0.06366055 -0.10134388 0.12994905 -0.1227236 1.6871976e-05 0.104136705 -0.15111384 -0.12140375 -0.01605249 0.1321171 0.0595665 -0.03651105 -0.012788625 -0.018699251 0.1160993 0.029367598 0.08659836 0.032819442 0.14334826 -0.02818531 -0.08583514 -0.055352706 0.08111337 -0.018287295 0.057737045 0.025827711 -0.1064766 0.06349017 0.15618984 -0.23773147 -0.08895306 -0.05639002 -0.24960034 0.04199888 0.05572218 0.033187103 0.08699434 -0.013716024 -0.119560175 0.022040525 0.15268144 -0.072595686 -0.026601918 0.033824638 0.031256832 0.18944427 -0.09153767 -0.013072633 0.09258036 0.06147198 0.13211538 0.11425351 -0.047562383
대한 -0.11765265 -0.10378769 -0.017237233 0.14108643 -0.019206433 -0.0013131339 0.19260018 0.018571794 -0.055855557 0.031524133 0.04037478 0.0026153976 0.30176488 -0.10097621 0.01928837 0.09980687 -0.098149754 -0.15101606 -0.009723973 -0.04063206 0.095494725 0.13342333 0.09555258 -0.10004963 0.21300519 0.15290175 -0.09212896 0.009773474 0.10484504 0.0081016235 -0.019332303 -0.0143243745 -0.011180109 -0.0007054602 -0.15567416 -0.09656067 0.028949281 0.14853507 -0.13110879 0.104142904 -0.15967521 0.05362201 0.09268496 0.13946487 0.032850757 -0.040169414 -0.09552074 -0.12999265 0.06527207 -0.021736233 0.0073146936 -0.03295269 0.089047104 -0.09062254 -0.2010532 -0.17689992 0.048277285 0.03604161 0.083458394 0.04320789 0.1526471 -0.074402034 -0.039974354 0.007287673 -0.0034676406 -0.07166132 -0.09623339 0.09431383 -0.042130813 -0.108977355 -0.04862855 0.10721169 0.051153887 -0.13440995 0.025271192 0.17739563 -0.11683358 0.02094139 0.011747568 -0.052725278 -0.09288775 0.08152049 0.035802916 0.17844455 0.14781173 -0.012039961 0.09661877 -0.046896923 -0.029549114 -0.18763326 -0.10032477 0.06716694 -0.010541859 -0.19415614 -0.00016578194 -0.03332326 0.03571843 -0.17406784 -0.019591661 0.017813904
중 0.041276664 0.022385465 0.061490923 -0.020414297 -0.03130946 -0.039173692 0.078215934 0.12875116 0.16676556 -0.057714183 0.14029446 -0.18439437 0.041736204 -0.031569913 0.19292356 0.015315327 0.060260348 -0.010848451 -0.101669416 0.014041766 0.06563085 -0.05818448 -0.020424593 -0.0055830027 -0.086037755 -0.034068365 -0.0787392 0.14961997 0.05207472 -0.051964205 -0.027290536 -0.011394213 -0.090651326 0.0595201 -0.26529366 -0.038887475 0.09683811 0.08612635 0.052302606 -0.12421177 0.20854418 -0.098445766 0.2996629 -0.014155007 0.052126575 0.06393272 -0.06359775 -0.02145276 -0.15059243 -0.06354702 0.04729806 -0.016634986 -0.036600105 -0.09457437 0.2819336 0.05536591 -0.030120658 0.015962249 -0.07701213 0.013131984 0.05226571 -0.021595484 -0.039255004 0.21116276 -0.07342175 0.10153216 -0.14177117 0.030524034 0.14034472 0.010789396 -0.04991629 -0.0024295112 -0.0707335 0.043506425 -0.053972572 -0.047823887 -0.053573947 -0.03798798 -0.12968735 -0.043058436 -0.14535205 0.12883356 -0.038017094 -0.025249954 0.09888273 0.103850186 0.17191778 -0.0954581 -0.1065397 0.13736503 0.07355817 -0.13535689 -0.037377633 0.001411873 -0.03765458 -0.15836161 0.07266056 -0.032251433 -0.06499979 0.20048206
일 0.04253612 0.2514205 -0.15241756 0.01778936 0.011698541 -0.09173028 -0.11515799 0.011868049 0.020103676 -0.0016440521 -0.07636812 -0.041916754 0.056470025 -0.13137174 0.019266522 -0.20093553 0.07006021 -0.10336768 -0.03306541 0.025722511 -0.24757333 0.068139054 0.18461141 0.016911456 0.030176753 0.028216762 -0.032551937 0.10560942 0.15802038 -0.09654466 -0.047978662 -0.03237176 0.08549234 0.011142062 0.09170066 0.23324977 0.11355202 0.036927037 -0.07658079 -0.02789096 -0.12174777 -0.27181786 0.17733249 0.0013183489 -0.016494302 0.098944105 0.028023573 -0.099528804 -0.043393727 0.007764248 0.0555993 0.15281752 -0.014980895 0.10351345 0.1779305 -0.056197423 0.109614365 0.080484495 0.058803063 0.074173644 -0.15353762 -0.10159287 0.0771747 0.018847343 0.11046262 0.052345887 -0.044309534 -0.089119546 0.022847975 0.17236525 0.07583559 -0.024724599 0.01911386 0.018855091 0.060800865 -0.069226824 0.025378391 0.12378071 -0.014225083 -0.07259157 -0.043275688 -0.05339549 0.065945946 -0.13444783 0.075105175 -0.1118206 0.062555365 -0.010533662 -0.05187862 0.02710976 -0.088770516 0.03457133 0.06121403 0.015605741 -0.052130595 -0.09593119 0.15343647 0.27363762 0.01240687 0.093919896
의 0.21556288 -0.00932044 0.02113467 -0.124008104 -0.18103981 0.1435786 0.0025872872 -0.021158164 -0.113054104 0.13206151 -0.13958125 -0.011366305 -0.10564104 -0.08241036 0.14643942 0.09107741 -0.050288543 -0.0020394516 -0.013700617 0.03904206 -0.03006102 0.0019654445 0.06092869 0.07696372 0.03265614 -0.1146567 -0.08553943 0.032858066 -0.07117876 -0.03623517 0.17913778 -0.04467438 0.1184042 0.055544186 -0.066799834 -0.07785979 -0.039643917 0.14348269 -0.015183713 -0.16060677 -0.16095425 0.03761465 -0.07048416 -0.205648 -0.019749377 0.11463466 0.007863562 -0.22151846 0.05288678 0.15156353 -0.13678412 -0.18506698 0.04056652 0.0011478974 0.036186483 0.038760126 -0.080412745 -0.048571426 0.04802763 -0.032426093 0.06609449 0.15323214 -0.016689511 -0.009388017 0.05013266 -0.136247 0.06482018 -0.07630474 0.09645255 -0.015723525 0.053934954 -0.07058856 0.17991276 -0.0630196 -0.12195207 -0.2188183 0.152162 -0.12875909 -0.050413765 -0.054736327 0.05072904 0.04005528 -0.18675391 -0.008269514 -0.08444467 0.14989641 -0.029703338 -0.06236614 0.060636416 0.01785472 -0.049269214 0.12139389 0.036930755 -0.19047327 0.19142829 0.032135326 -0.044069342 -0.036003646 0.074379474 0.009678539
월 0.056677293 0.115412526 0.23148489 -0.041505262 -0.15903956 -0.08887205 -0.0841652 0.030584667 0.05734212 -0.03418144 0.0617361 0.14564398 0.08278047 -0.02452022 -0.082652524 -0.13088503 -0.19042142 0.05260214 0.18765076 -0.12087308 -0.041007597 -0.07878423 0.06447068 -0.1332155 -0.15399496 0.09069388 -0.09646319 0.02000226 0.14434125 -0.09924021 -0.041929275 0.014488649 0.08459989 0.0031253237 -0.12393088 0.042446762 -0.1587215 0.0041126683 -0.037472222 -0.0142580625 0.05228006 -0.07730262 0.19114925 0.055460226 0.05933874 0.002798477 -0.06002839 -0.24505587 0.05790471 0.046524636 -0.026377821 0.008537917 0.015536077 0.013335576 0.08195295 0.07948328 -0.04608252 0.100887105 -0.004288325 0.0037161093 -0.025129318 -0.03971083 -0.004683441 0.07895429 0.090477705 -0.064944595 0.02283888 0.13548559 0.1269197 -0.014400039 -0.0420302 -0.0886304 -0.09333219 0.065818 0.10252908 -0.1060709 0.007032449 0.10933925 -0.06506678 0.029917546 -0.09856402 0.029748997 0.14421417 -0.091838755 0.046413865 -0.07252158 0.27833262 0.060933437 0.13306732 0.14309873 0.14410755 0.03418784 0.10464686 -0.18923004 0.113671 0.14163803 0.20983252 -0.06260844 -0.0174331 -0.014956063
후 -0.12597877 -0.08686376 0.03477375 -0.02621269 -0.12025731 0.08732085 -0.050302334 0.0182092 0.052351337 -0.07866615 -0.08179683 -0.043660585 -0.042629663 -0.029731179 -0.07496461 0.06286973 0.02899641 0.08641796 0.0045762137 0.1263265 -0.117985345 -0.05971791 -0.04732456 -0.05380041 -0.22920021 -0.07110519 0.017307859 -0.08781743 -0.10440418 0.053311512 0.08887973 -0.14252199 0.05648523 -0.046069674 -0.09884039 -0.07547947 0.08977695 0.034783375 -0.035582166 -0.019324478 0.15148908 -0.20475464 0.14921975 0.10423576 0.07924506 0.05135452 -0.119853236 -0.098313324 0.00034092925 -0.099810265 0.124625064 -0.15073512 -0.15802981 0.1553915 0.045953687 -0.083996095 0.046950098 0.0834817 0.09315621 0.011440409 0.04100212 0.09886358 0.17354448 -0.15119863 -0.05187906 -0.044926446 0.12302628 0.11875157 0.14354213 -0.05668633 0.004954239 -0.13790444 -0.07223005 0.12155826 -0.04564291 -0.06728622 0.109312005 0.1406973 -0.22226928 0.004822691 0.10782349 -0.092263706 0.03451236 0.012543636 -0.015239399 0.21715422 0.14613329 -0.024158426 -0.079831064 0.17908008 -0.03636197 -0.08225625 0.18314174 -0.047783215 0.089211404 0.14085548 -0.04509174 -0.099874064 0.09254196 -0.088280775
이었다 0.09374379 -0.17740723 -0.03732647 0.07716821 0.098818764 -0.04268129 -0.012580177 -0.03643529 -0.030293884 0.07555845 -0.009791269 -0.009704829 0.13808 -0.012717497 -0.063675426 -0.009034947 0.050206773 0.054521 -0.07241341 -0.06957718 -0.121887736 0.10781793 -0.10170773 -0.0037903124 -0.11598211 -0.19395447 0.053925727 -0.18089679 0.1632897 -0.009917039 -0.07004918 -0.024218094 -0.11319664 0.063085854 -0.082139276 0.14247984 -0.041559424 0.008943018 -0.10405123 -0.14834332 -0.10589569 -0.09150944 0.1036528 -0.13794574 -0.016322255 -0.03369852 0.010582599 -0.26608992 -0.02215895 -0.012065764 -0.09098796 -0.016159063 -0.018847039 -0.070474245 0.118868254 -0.035818603 -0.12575813 -0.06041 0.20569745 -0.038982432 -0.036009733 -0.1930875 0.031760167 0.049024474 -0.12493645 0.09599106 -0.0135318665 -0.12237748 -0.07378471 0.14703213 0.003052875 0.07858358 0.19176865 0.0014720788 -0.016715158 -0.104589775 0.033547696 -0.1385966 -0.13898613 -0.16131262 -0.05008568 0.22437808 -0.089285865 0.0731692 0.0055013974 0.0120311715 -0.07372755 -0.1278263 0.10544631 -0.12336195 -0.16642347 0.0087915985 -0.039061308 0.07192056 -0.08715046 0.02551713 -0.13508761 0.09184008 0.032629315 -0.17484759
고 0.00528311 0.030069204 -0.18578516 0.13997829 -0.056822933 -0.060766224 0.05806077 0.0015639769 0.07559905 0.019838186 -0.07557434 -0.027332185 -0.075175434 0.037112508 0.14010356 -0.03178265 -0.05050828 -0.08138426 -0.15419278 0.06546088 -0.030184055 0.16426574 -0.017484734 0.13232684 0.004269446 0.035039872 0.064061 -0.093512654 -0.028193329 -0.12429649 -0.030312475 -0.18192463 0.025117403 0.02144373 -0.059164297 -0.10009536 -0.059224214 0.0023787918 0.10384029 -0.021474686 0.111641124 -0.049527787 0.04006855 0.1472493 0.21306834 -0.31908187 -0.09036938 -0.005184791 0.009734546 0.14412025 0.032213885 -0.09691902 -0.018421087 -0.10864887 -0.09318139 0.0973133 0.03269441 0.11226298 -0.113396615 -0.012790733 -0.07995009 0.059656944 0.07378279 0.11419946 -0.13381647 0.19336073 -0.18404014 -0.056537997 -0.030205594 -0.08110313 0.007972157 -0.1950537 -0.015125986 0.061049215 -0.07475446 -0.08586555 -0.05054548 -0.061692007 -0.103545114 -0.06570098 -0.1929436 0.020701395 0.05971682 0.005415355 0.090701535 -0.08963029 0.051704425 -0.09138707 -0.08308604 -0.13381141 -0.042385835 -0.0037889907 0.012351023 0.019325288 0.06752941 -0.22833674 0.19662678 -0.049034104 -0.064810544 0.18303739
말했다 -0.047789823 0.13686256 0.04972349 0.11131732 -0.076076135 0.034275085 0.0716611 -0.115118876 0.011767015 0.10243827 -0.25686172 -0.06324349 0.037828837 -0.10809171 0.093571484 -0.20741843 0.030435883 -0.07300926 0.0020896518 0.05071549 -0.118807726 0.020311827 0.112354234 -0.024283865 0.13349587 -0.04471418 0.117745206 0.0014860253 0.026197974 0.03364132 0.008306887 -0.09959048 0.15225485 0.0014834271 0.11220647 0.11835716 -0.0804788 -0.033092592 0.15761466 0.10020802 0.033706717 -0.0011515054 0.079006635 0.04429748 0.010260438 -0.043885075 -0.18154313 -0.118637644 -0.08495434 -0.06868422 0.16174883 0.14680207 -0.1779102 0.07411781 0.15793666 0.0017593001 -0.012679377 0.2679026 -0.03347216 0.04052292 -0.28923798 -0.11466778 0.1122432 0.13490143 -0.06420382 0.03451912 -0.035591077 -0.034780197 -0.2034644 -0.004385531 0.06910519 -0.05671397 0.10033321 0.04628649 -0.06948049 -0.10854646 -0.08651039 0.0456996 -0.047819123 -0.081899464 0.12573725 0.01893881 0.121703014 0.051841635 -0.058093823 -0.09160327 0.12122928 -0.08083047 -0.035631873 -0.03264817 -0.1729258 -0.08914861 -0.057962656 -0.0013112325 0.038981013 -0.027596058 -0.029634755 0.0986816 -0.08846743 -0.031583596
더 -0.05927525 -0.060476437 0.019222101 -0.011628608 -0.03520368 0.08116229 0.16025664 -0.16178103 -0.046049643 -0.069027044 -0.23144038 0.073301226 0.022793617 0.029489737 -0.089890964 -0.031845137 -0.043887526 -0.04624931 0.019803815 -0.077817485 -0.0763451 -0.006406987 -0.04062483 0.15803558 0.07035696 0.13615528 -0.081308044 0.08014991 0.009768092 -0.16396867 -0.13435893 0.046214208 -0.13228568 0.09623198 -0.02088924 0.067209035 -0.032091435 0.22750328 0.09309054 0.20190816 -0.05926518 0.11656524 0.15475042 0.029905153 -0.08103794 -0.050505683 0.26537678 -0.042362064 0.029724784 0.091906965 -0.0027830522 -0.061774187 -0.103477634 0.18206263 -0.06038974 0.09374313 0.10320138 -0.15350546 -0.15612166 -0.10536156 -0.0367396 -0.047642972 0.015461431 0.0013988568 0.032470297 -0.03647791 0.017557288 -0.11601785 0.060764585 0.023634808 0.008262506 -0.16678749 0.1670165 -0.026686383 -0.1945565 0.120182805 -0.05444719 0.046152648 0.00655204 -0.12542641 -0.08222121 0.17889431 0.20298442 0.0077962033 0.03731027 0.0026837054 0.07722726 0.13419953 0.068880364 -0.022049902 -0.014560897 0.06730554 0.16586243 0.0046438826 0.14939506 -0.0020233304 -0.082906306 -0.049238373 0.0592519 0.036465324
두 -0.17075531 -0.1133182 0.1513666 -0.09536654 -0.05164229 -0.12668556 -0.022511365 0.07526775 -0.010851474 -0.04991947 0.017512467 -0.09221395 -0.01367209 -0.007226434 0.11343259 -0.03415063 0.15026644 -0.11079676 -0.090772755 -0.019662434 0.04003446 -0.051085323 8.172739e-06 -0.18294358 -0.057237174 -0.18286563 -0.108980276 0.11781944 -0.18709481 -0.017777601 0.022222402 0.043122407 -0.088980384 -0.18110846 0.28541473 0.0641864 0.02318338 0.071514696 0.1095594 -0.10086189 -0.019347323 0.037658606 0.05724826 -0.09765479 -0.023078213 -0.003206905 -0.04037998 -0.070007786 -0.08602037 -0.11758044 0.1142288 0.17805769 0.023449972 -0.0033562237 0.094683126 -0.09365689 -0.014606286 0.14469343 -0.12690112 0.08361879 -0.057657648 0.14664623 0.06167379 -0.06667758 0.055705417 0.16880748 -0.022645235 -0.078404464 0.07682276 0.11943654 -0.008754965 0.10847884 -0.09493885 -0.14180203 0.054401524 -0.0794976 -0.123562604 0.040779773 -0.023387589 -0.24243909 0.08542501 -0.0116103785 0.03968256 0.045253094 -0.1240733 0.010069196 -0.0072715585 0.06276579 -0.15921487 -0.06525812 -0.08047691 -0.19151707 -0.0956243 0.01438827 -0.16445585 0.15859684 0.046683043 0.055194885 0.02282547 -0.03417291
1 0.18206829 0.13394322 -0.036679577 0.08608237 -0.098496914 -0.11045904 0.09705865 -0.0049963375 -0.02497568 -0.07838451 -0.2210237 -0.05378729 -0.013824745 -0.13544568 -0.04353887 -0.03766026 -0.08872806 0.057328373 -0.017530425 0.03386554 0.070460856 0.09933476 -0.11792319 -0.06094581 -0.2314891 0.040249135 -0.03816999 0.08898497 -0.009731958 -0.12069649 0.09418611 0.012184394 0.14068478 0.034471113 0.20889972 0.07050695 0.05535982 -0.109375045 -0.06216173 -0.07898243 0.002004911 -0.09348415 0.079513974 -0.01039987 -0.1642481 0.057384763 0.17877275 -0.067917414 -0.08636104 -0.022558454 0.14362992 -0.11413797 -0.15868963 0.10121338 -0.12746167 -0.0065535987 -0.0640475 0.10501868 0.036352456 0.15230164 0.007423402 0.15812497 -0.03683917 -0.010679991 0.12876874 -0.05970358 -0.09777865 -0.017699894 0.027020164 -0.048140325 -0.059286855 0.046668645 0.028072221 -0.031679474 0.14132182 -0.13914184 -0.06566941 0.09985409 -0.0049493676 -0.12545767 0.11397497 0.07274073 0.06393669 -0.05066561 -0.005379987 0.06430979 0.067553334 -0.011522769 -0.05917065 0.009816647 -0.047522306 0.08739927 -0.023413941 -0.08899977 0.0028815465 0.06857386 0.37914434 -0.08695402 0.17395969 -0.082950726
되었다 0.10110364 -0.20709993 -0.07669034 0.039415468 0.109708905 0.05427952 0.043635223 0.03965398 0.040477905 -0.020554056 -0.037822228 -0.05694708 0.05812759 -0.0057364916 -0.015178543 -0.17979011 0.06504707 0.03909568 -0.16281244 -0.1193656 0.0063240756 -0.027255794 -0.19306074 0.056783903 -0.08450266 -0.014593983 -0.09490246 0.024117516 -0.032230474 0.018311076 -0.02405369 -0.039050072 0.0990825 0.05988264 -0.07988539 0.16778028 -0.0892693 0.05041964 -0.068250254 -0.19192083 -0.14279656 0.023782963 0.13429518 0.017480332 -0.0776192 0.13765028 -0.07021128 -0.15097633 -0.09653507 0.24869208 -0.13569926 0.016119113 -0.15737493 0.04901144 0.1417665 -0.12092057 -0.011533499 -0.19787747 -0.02926128 -0.04747901 -0.20431656 -0.04663014 0.007806583 -0.17416607 0.13695888 0.018640738 0.013867436 0.015560388 -0.112590976 0.0094060935 0.11455296 0.12712587 0.1017869 0.0543895 0.020438157 -0.07449637 0.023529964 -0.19997804 0.013105381 0.041436337 -0.08429966 0.23412894 -0.058828138 -0.010611637 0.017212749 -0.013905224 0.15084116 -0.13241 0.048310798 0.052850246 0.07977045 0.019980835 -0.17551318 -0.09702238 -0.008152482 -0.043895956 -0.06717416 -0.060028583 -0.036005102 -0.12888604
또한 -0.19162478 -0.05572929 -0.017246813 -0.10749211 -0.08780158 -0.01781792 0.20729478 0.36020485 -0.020437088 -0.023007272 0.030105006 -0.071388386 0.14137672 0.16751331 0.08803383 -0.06506328 0.12036631 0.17290051 -0.025048986 -0.06574644 0.046260867 -0.09835122 -0.01598694 -0.0665165 0.07892265 -0.119810164 -0.020902755 -0.0882733 -0.19460826 -0.03797544 0.07131124 0.058052596 -0.05665445 -0.0561951 0.017824035 -0.11869519 -0.013439838 0.0836577 0.197712 -0.12667103 0.18016168 0.074018456 0.13362215 -0.06074187 0.045948863 0.026270673 -0.27131948 -0.026623715 0.15120839 0.11569199 -0.07416749 -0.110036336 -0.10135015 -0.14914782 -0.08696661 0.056813907 -0.09013826 -0.094007656 -0.056214288 -0.13635294 0.10956686 0.061255317 -0.050625294 0.070411816 0.013605402 0.006178189 0.05296542 0.030451497 -0.045347996 0.0037397633 -0.0033989686 0.08765889 0.093979836 -0.045094024 -0.05920073 -0.019067055 0.12061858 -0.12528504 0.04340155 0.034379657 -0.07643359 -0.007604465 0.0126873255 0.15870409 -0.024751637 0.070150495 -0.0731502 0.19909066 0.0058980635 0.025927085 -0.108103834 0.0056569716 -0.07655085 0.0057602194 -0.072263315 -0.0026074166 -0.038701966 0.013848391 0.076540396 0.06858387
같은 0.1252516 0.051805615 0.14086197 -0.1224811 -0.10265174 -0.17105874 -0.11333267 -0.1373309 0.014074966 0.04214742 0.032793414 -0.06471082 -0.07787038 0.013807634 0.043915063 -0.13705468 0.05532167 -0.16033903 0.121752106 0.0381703 0.012967324 0.024943568 -0.07298462 0.011734178 0.02701811 -0.07480815 0.04620424 -0.0011143467 -0.09925887 -0.036316097 -0.019132813 -0.07189215 0.046318244 -0.05372695 0.04407153 -0.03813367 0.14176784 0.021801924 0.026006365 -0.033607032 0.01733732 -0.14677335 0.009489655 -0.052280568 -0.012055377 0.20813054 -0.06494434 0.085023485 -0.042416822 0.2360822 -0.106972754 -0.10314642 0.024156302 -0.07026074 -0.048206158 -0.10856102 0.20555589 0.09498089 -0.03437056 -0.0629415 0.0460504 -0.039171286 -0.07372954 -0.017353926 -0.19929875 0.20778929 -0.047963023 0.037490938 0.09613654 -0.046510696 -0.023573944 -0.008892328 -0.009048054 -0.116463415 -0.19132864 -0.0891595 0.034325097 0.010368741 0.07757196 -0.08558633 -0.22155239 0.23364723 0.16493015 -0.015129723 0.0060602487 -0.2433557 -0.03513748 0.046562776 0.019293128 0.04464706 -0.11076646 -0.084453024 0.114011735 -0.0026117852 0.102996185 0.19145133 0.14679362 0.0499362 -0.012887365 0.13297127
그러나 0.1782748 0.14874622 -0.1259505 -0.08250652 0.052211463 0.032471318 -0.25376925 -0.03885812 -0.10990841 0.022869429 0.0026292806 0.047157597 0.10070853 0.06383971 0.011670213 -0.22633998 0.09483895 -0.20235382 0.05504649 -0.07968726 0.0029404482 -0.021398716 0.050745245 0.065969884 0.07695861 0.037241466 0.04200223 0.09384929 -0.1128274 0.18416649 -0.091968045 -0.14421369 0.12062094 -0.1380475 0.017441554 -0.049367655 -0.031302292 0.069424696 0.010208523 0.15086377 -0.0046249246 -0.06094033 0.01918714 0.051725775 0.17972612 -0.17716004 -0.21933672 0.032064624 0.03790407 0.015682384 0.05769122 0.09962918 -0.1917944 0.025132302 0.054302786 -0.110451266 0.10371201 -0.19769923 0.015769534 0.14202714 0.0090236245 0.08686808 -0.07588236 -0.043556206 -0.13480482 0.10135363 0.023065532 -0.031677466 -0.15394892 0.03320849 0.23444779 -0.026679734 -0.045667898 0.049999043 -0.037761234 -0.035710733 0.0017532434 0.014371953 -0.129635 0.024557104 -0.078910165 0.043473307 -0.10927511 0.02893134 -0.11155443 -0.13884236 -0.035758104 -0.07374267 0.056946408 -0.0015697755 -0.16117194 0.045181006 0.045166884 0.12230945 -0.067575544 -0.024575343 0.01193015 0.017353171 0.1593953 0.034248553
가 -0.11487449 -0.0042660935 -0.04753345 0.030062413 0.13021745 -0.15947083 0.023570748 -0.05323355 -0.07410997 0.019834436 0.019204011 -0.08394336 0.092494436 0.075068325 0.14829187 0.093775064 0.016544407 -0.16576804 -0.007304192 -0.12246956 0.024464482 -0.08244451 -0.18783307 0.016709713 -0.33829162 0.006683569 -0.019115794 0.0369978 0.020634213 -0.06483446 -0.12579878 0.12514849 0.0031581118 0.11008145 0.2804696 -0.009773034 -0.10893963 -0.017843122 0.014359271 0.06125731 0.0518763 -0.13375162 0.06750388 0.00300494 -0.031036371 0.062098518 -0.089790575 0.07282125 -0.0057126177 0.030607576 0.06597748 0.050502717 -0.16750972 -0.036526944 -0.037056796 -0.16194439 0.26456332 0.13614596 0.024711858 0.023771156 -0.028192801 0.033696882 0.025551546 -0.035932206 0.0005668989 -0.13805512 -0.07467864 -0.03204009 -0.17896284 0.056470405 -0.08198455 -0.034507602 0.040522307 -0.14293182 -0.019498635 -0.12922426 -0.04084641 0.08744864 -0.10783391 0.011497455 -0.089412205 0.03967412 0.03156849 -0.17167388 -0.09775611 -0.040666927 0.008399085 0.060804255 0.004956047 -0.04377432 -0.12998721 -0.006052054 0.039626088 0.14996508 0.104794845 0.16393873 0.1861766 -0.15213135 0.054251086 -0.084201746
대해 -0.039508678 0.197169 -0.0669358 0.041613847 -0.07751567 -0.16714801 0.14409143 -0.11876962 0.011642437 -0.13977686 -0.009346141 -0.04812954 -0.0755487 0.01858629 0.033728328 -0.1315138 0.005100264 -0.095834695 -0.026084261 -0.25347146 -0.012487812 -0.012942676 -0.03958519 -0.07245629 -0.07102846 0.13974042 -0.03390198 -0.070573024 0.11256807 -0.02528373 -0.1165079 -0.18892609 0.09000644 -0.0053090192 0.10069918 0.062537916 -0.01888279 -0.028193684 0.14937922 0.073594205 -0.06695048 -0.18571727 0.122100934 -0.03870515 0.14957218 0.06670231 -0.15021986 0.024385396 -0.040855214 0.22464685 0.040116757 0.04474942 0.052221607 0.14108834 -0.098415576 -0.10146422 -0.0037630924 -0.0041421517 -0.053479433 0.028449688 -0.0648737 -0.007813033 0.06448298 0.035342503 -0.07685465 0.15980396 -0.06524792 -0.0041319295 0.08633716 -0.055719715 -0.048128203 -0.028745688 0.035961546 -0.14217038 -0.00790091 -0.04549037 -0.046987835 0.11902957 0.18809596 0.011248138 0.011541226 0.003830156 0.13862573 -0.1308786 0.090369605 0.22877364 0.08414048 -0.016001651 -0.00788286 0.07549104 0.07222858 0.15988103 0.22574697 0.04527764 0.10738866 -0.059175745 -0.11593798 -0.11997869 0.18297943 0.008555589
에 -0.065602496 -0.19594769 0.16016653 0.16237877 -0.07270595 0.008120073 -0.20917228 -0.0067455773 0.10705302 -0.105090044 -0.15950479 0.08163651 0.06742687 0.10825433 0.15937251 -0.11245474 0.14382493 0.08562636 0.0011487486 -0.054033242 -0.07731948 0.090840854 0.024173636 -0.122278266 -0.04221139 -0.069340736 0.11334708 0.2082787 0.010544437 -0.0046855602 -0.032184906 -0.06277385 0.022369144 0.001443529 0.038481567 0.10701661 0.13751984 0.041061513 -0.013089833 -0.037281886 -0.068890214 -0.04264629 0.060976155 -0.02133239 0.18350561 -0.012658968 0.045706693 0.030006189 0.058703274 -0.09372483 -0.037638005 -0.17999175 -0.035123967 0.13891457 -0.065906726 0.021469045 0.07568351 0.14197296 -0.064705685 0.10902324 -0.0119541185 0.12010261 -0.05469742 -0.0154391555 0.15690368 -0.09133884 -0.059439793 -0.18176718 0.069440775 0.2312974 -0.25071695 -0.039876986 -0.14529453 -0.07238223 -0.041676324 -0.11393433 0.098720245 -0.037645027 -0.119033314 -0.030037845 -0.10500625 0.15750392 -0.0762357 -0.019260293 0.011675793 -0.047547724 0.05037183 -0.06599719 -0.027186532 0.04077485 -0.13105766 0.03540777 0.06978634 -0.11790323 0.009831347 -0.018083954 0.20810647 0.024035065 0.0022667695 -0.09723926
때문에 0.024812257 -0.09022394 -0.022255061 0.085967734 0.061460566 0.22583571 0.20302644 0.036858637 0.017276881 0.0043797325 -0.04013133 0.022420265 -0.21802464 -0.07111372 0.09390804 -0.07651278 -0.17891164 -0.07438122 0.109963596 -0.09011855 0.039666623 -0.10144579 0.08615615 -0.06077211 0.15981814 0.0420039 -0.13811378 0.04206261 -0.058137108 -0.054574 0.036767274 -0.025172178 0.044794668 0.07764012 0.07161581 0.0068808417 -0.10035568 -0.08944413 0.06889888 -0.2378721 -0.13072814 -0.038556825 0.16432689 -0.07563013 0.1977406 -0.033161443 -0.06576397 0.03513665 0.022964828 -0.13449012 0.067222334 -0.0411667 0.16521215 0.047226164 0.049027935 -0.1729901 0.15491542 -0.14888358 -0.0012878259 -0.11121506 -0.03009197 -0.1273053 0.14962178 0.012904839 0.085968904 0.069803774 0.14315078 0.014974557 -0.14228016 0.018534152 0.09694886 0.048883375 -0.115101255 -0.081151135 0.037066415 -0.042334057 -0.03443475 -0.032907277 0.03642707 0.21324484 0.04797103 0.025043497 0.16435592 -0.11350176 -0.03817886 0.12951586 0.04141935 -0.07346373 0.0059335735 0.15114324 -0.1465581 -0.032961246 -0.045173097 -0.0986196 0.05901192 -0.048894696 0.054232452 0.005380006 0.18085456 -0.012720565
한다 0.12610874 0.11350647 -0.020374814 -0.033608492 -0.05835108 0.050369497 0.10869506 0.034462962 -0.06897023 0.079885885 -0.16887389 0.20634004 -0.027189258 0.029339748 0.02036303 -0.02028952 -0.04380188 0.047354877 -0.022204738 0.033809192 -0.07032008 -0.019893114 0.050673112 0.12711811 0.027298069 -0.081684016 0.0008391214 0.06202786 0.028966505 0.061293826 0.019380456 0.065030254 -0.013632921 -0.19421633 0.09542531 -0.06755541 -0.09458476 0.0032424624 0.25456995 0.10126749 -0.057271283 0.121002965 0.035050005 0.0024815113 0.054655652 -0.036150523 0.0028210834 0.17213215 -0.18124518 -0.22426999 0.05449646 0.09162917 -0.15243499 -0.021399844 -0.050927043 -0.013803793 -0.08648826 0.121478036 -0.1666232 0.040472217 -0.12827128 0.020074915 -0.06885467 0.11083966 0.007761994 0.07515173 -0.09154523 -0.035942845 -0.11881901 0.09358704 -0.15555567 0.049379796 0.051323008 0.026295459 0.14147794 0.005018284 -0.0037441556 -0.13249832 -0.09409692 -0.1160125 -0.005361062 0.032063298 -0.04391934 0.09375304 -0.22199689 0.060629584 0.12153561 0.043352187 -0.11330584 -0.084855266 -0.15241893 -0.17929637 0.025964888 0.059827186 0.086785704 -0.11665818 0.09464463 0.16937006 -0.25195897 0.09525904
도 0.027307648 -0.096415386 -0.03915038 -0.16618112 -0.13442826 -0.092961125 -0.11466409 0.17652282 0.037840042 -0.11414389 -0.12813996 -0.07888674 0.1320609 0.14989157 -0.029897144 -0.021431413 0.14397858 -0.068970084 0.091269225 0.018624132 0.052224744 0.16277128 -0.03742873 0.081264235 -0.13699272 -0.01656738 0.11406529 -0.09562367 0.13748668 0.13077085 0.10970634 0.0057197176 0.091103494 -0.22332059 -0.038246818 0.1031189 0.1554743 -0.014089183 0.0028518357 0.049970385 0.05344792 -0.11103476 0.014992607 -0.02354817 0.035049114 -0.024111612 0.08496986 -0.051331583 -0.04265708 0.054290704 0.10311962 -0.081850804 -0.11743377 0.019147577 0.09923762 -0.12367946 0.012405087 0.07927794 0.05949509 0.07225074 0.04660092 0.015838822 0.11886735 -0.0016536666 -0.21092553 0.14600158 0.02871129 -0.037671313 -0.11763218 -0.15124334 0.22189605 0.017219 0.053555757 -0.053674392 -0.08850544 0.009705688 -0.2029269 -0.0004020494 -0.1278446 -0.04125795 0.080540724 -0.04562438 -0.07907678 0.07557383 -0.11104787 0.014271645 -0.087386124 0.033373784 -0.16965643 -0.08562076 -0.03210307 0.197255 0.07932517 -0.07160555 0.07483655 0.047673013 0.1871041 -0.058187626 0.0937567 -0.14590552
인해 0.021893058 0.028555296 -0.011868156 -0.04602917 -0.1769235 -0.17401704 -0.078581445 -0.13722359 0.00899707 -0.043993715 0.10737983 0.16634293 0.037213534 0.007214652 -0.0058435467 -0.10916019 -0.073187836 -0.19588375 0.088506706 -0.049694594 0.093042195 -0.01095327 0.12010231 0.01504666 0.0529276 0.0009803391 0.24475574 -0.03944206 -0.07362191 0.16997209 -0.092913784 -0.12994568 0.12755226 -0.18787867 -0.095657624 -0.059354845 0.012079531 -0.0027701384 -0.21955143 -0.10835879 -0.09686681 -0.06110237 -0.10212166 -0.042729054 0.11185594 -0.03936823 0.0192064 0.039017327 0.06821895 0.00864807 -0.005551411 0.15476964 -0.14206575 0.05699222 0.07352076 -0.08827509 0.11154038 -0.11336413 -0.013517008 -0.027479762 -0.23890111 -0.028806536 -0.10805288 -0.014753677 -0.008900389 0.1859828 0.09185323 -0.09408252 0.011119022 0.16188659 0.17872646 0.03437026 -0.0065991385 -0.0556898 -0.06659718 -0.05557808 0.038344774 0.0024961643 -0.19027482 -0.055495813 -0.09584677 -0.08838627 0.1280566 0.1599604 -0.08110352 0.15289406 0.12644365 -0.08831196 0.1336724 0.045699377 0.018170532 0.10663046 0.040098038 0.049825177 0.021465309 0.04898503 -0.011444754 -0.033134144 0.020902615 -0.10405674
다른 -0.062247477 0.011389067 -0.04409462 -0.04258308 -0.08913795 0.113150254 0.29536062 -0.04766504 -0.08901959 0.06508272 -0.1158469 -0.26363143 -0.014753556 -0.21394315 0.004930991 0.018040882 -0.030860288 -0.077225976 0.105188966 0.088100046 -0.06627556 -0.16094859 0.089249566 0.08833138 0.00957363 -0.22532526 0.1419008 -0.12857082 0.20632537 -0.00018388972 0.057313077 -0.10122365 0.033751655 -0.042210277 0.043467123 0.115784034 0.022743694 -0.11196625 -0.1500771 -0.048549823 0.028281115 0.006214935 -0.04623144 0.17364033 -0.028933547 -0.10387065 -0.063970566 -0.23459437 -0.043343954 0.01603963 -0.056174207 -0.12321693 -0.038376197 -0.20392334 -0.02091395 -0.10230828 -0.10532042 -0.16733055 0.10363082 0.02291569 0.063727945 0.052855514 -0.029253671 -0.14179182 0.06841886 -0.027449355 -0.003847992 -0.08707742 0.028196666 0.156491 0.023084642 0.12329758 -0.02750143 0.014599568 0.002274334 -0.046326704 0.011474945 -0.11320306 0.09446518 -0.066982046 0.16820529 -0.05401648 0.11268174 0.065757394 0.07227602 -0.03643037 0.036242418 0.044243008 -0.016263125 0.077961475 -0.073741965 0.02137633 -0.14752077 -0.07112611 -0.079077065 0.02085229 -0.062623665 0.06758065 -0.03427325 -0.12445458
10 0.06259817 -0.014980826 0.11654367 0.020803029 -0.13820349 0.0035669545 -0.08902917 -0.03410824 -0.092007324 -0.015346567 -0.11972562 2.345233e-05 -0.047815558 -0.19330244 0.03187216 0.22277705 -0.10153995 0.026598655 -0.035622418 -0.07764231 -0.22905123 0.14632124 -0.053949438 0.022049556 -0.29533765 0.11778109 0.039350294 0.1960156 -0.08079793 0.04715137 0.05901999 -0.0039000285 0.19246863 -0.09063141 -0.07154149 -0.023150375 -0.10089411 0.0047233216 -0.120216645 0.056553535 0.04995161 -0.08711474 -0.027772503 -0.14330247 0.020579059 -0.06643079 0.15161863 -0.09629298 -0.16361374 0.07085961 -0.015863754 -0.16071801 -0.11800176 0.082136266 -0.029334385 0.013190204 0.111712515 0.061684802 0.19971703 -0.012305716 0.12945563 0.12052334 0.06988943 0.040829428 -0.03025258 -0.05999726 -0.08069083 0.09385456 0.061885037 0.09547089 -0.02370663 -0.06563834 0.09218752 -0.013946046 -0.04763251 -0.062001005 0.050287828 0.06564775 0.019170731 -0.04598097 0.16658337 0.058143992 0.108580306 0.026427034 -0.1210516 -0.09148261 0.19225606 -0.066135794 0.030069139 0.042067625 -0.14828584 0.026399992 0.04345711 -0.12237395 0.08511042 0.031993397 0.119403124 -0.009018013 0.11283216 0.15198536
자신의 -0.081397004 -0.0316637 0.14092492 0.054460406 0.076501414 -0.049600434 0.0243376 0.033011045 -0.087617226 -0.13845901 -0.07900347 -0.03094577 -0.05351568 0.016297502 0.08297286 0.009239055 0.07877137 0.18031313 0.065734595 0.091582485 -0.033239096 -0.12689316 0.23034841 0.06924935 -0.062233 0.0036398298 -0.036862314 0.06965973 -0.03204679 -0.09483376 -0.026332185 0.015832398 0.104922384 0.047723386 0.15429361 -0.10202156 0.047829594 0.14792928 0.24993226 -0.070277326 -0.05091297 0.08315148 0.03955352 -0.029129874 -0.014012384 0.1497968 0.058128115 -0.07472723 0.084792465 0.07341289 -0.068541326 -0.10287921 -0.0987483 0.034869142 0.04441761 -0.11256681 -0.05787251 0.08128721 -0.15103392 -0.07879158 -0.046950776 -0.1401832 -0.005211071 -0.16843158 0.14833942 -0.13066399 0.07982434 -0.020212464 -0.048621856 0.12694205 -0.09757817 -0.0038176733 0.14884011 -0.111857384 0.02749569 -0.23432149 0.043044373 -0.011335256 -0.055811215 -0.2760315 -0.068198316 0.11035104 0.08650963 0.012102329 -0.20174305 -0.019116564 0.13158959 -0.13294968 0.04419562 -0.13670726 -0.10201356 -0.087490305 -0.07092715 -0.011718455 0.11703621 0.12293451 0.07713391 -0.09918164 -0.041072033 0.07998352
이후 -0.17089188 0.07930305 -0.11673139 0.04679321 0.029407077 0.04495313 -0.081142336 -0.053029258 -0.026297033 -0.11493253 0.17378606 -0.07672713 0.20676698 -0.14386493 0.0042310744 -0.16890544 -0.15298305 -0.041084938 0.08880514 0.050571635 -0.22404024 0.09095801 -0.11102233 0.00831295 -0.01916078 0.117408484 -0.19026145 -0.04125356 0.027019467 -0.16009076 -0.19770277 -0.08422136 0.17538628 0.04756174 0.076085374 0.10949631 0.04747732 0.08479182 -0.056231264 -0.15358248 0.04396545 -0.046626993 0.08553745 0.121307485 0.045244526 0.028265841 0.068955235 -0.06803927 -0.096048206 -0.085273646 -0.08491453 0.07542948 0.10843159 0.076783486 0.009496836 0.021535158 -0.09582802 0.046395116 -0.12915163 -0.18305843 -0.02891923 0.01133776 -0.014477472 -0.08277141 0.0914851 0.114657335 -0.035279445 0.07416712 0.05768947 0.049801 0.05828709 -0.07820908 0.041900154 0.20470996 -0.09286446 -0.014289937 -0.03548689 0.17012963 -0.148103 -0.106556885 0.14996845 0.032045614 -0.09678552 0.015057446 -0.0035067245 0.031427942 0.07013656 -0.059708726 0.068233185 -0.010785781 -0.118764214 -0.04492995 0.021665554 0.2209731 0.019766109 0.053632777 0.17980212 -0.003447596 0.108847626 -0.03320556
가장 -0.08363735 0.104881 -0.024172047 -0.07181718 -0.099419154 -0.15152346 0.052282028 0.08114461 -0.10389284 0.17385428 -0.08306236 -0.02824018 -0.08141173 -0.12990741 0.008023979 0.075190865 -0.18270189 -0.24543262 -0.022380728 0.10151001 -0.029245606 0.12958504 0.06856851 -0.015134054 0.060667057 -0.061598748 0.0571829 0.14786617 -0.008689385 -0.073418446 -0.13328274 0.08781555 0.031265978 -0.10423644 -0.049581066 -0.020545539 -0.0754482 0.12560004 -0.16370806 -0.011354158 -0.14048465 0.04993534 -0.04270356 -0.0047452827 -0.010933728 -0.12984797 -0.0037714893 -0.1537123 0.07993411 0.1494458 0.1974125 0.11331538 0.206167 -0.109111495 0.14681277 0.07261259 -0.075882904 -0.09437334 -0.0009262328 -0.03413318 -0.13627212 0.14905702 0.10775696 -0.013433769 0.18319175 0.020244539 0.07614909 -0.07855896 0.06022486 0.13496526 0.07855762 0.036422525 0.18108825 -0.015091555 -0.159874 0.045052 -0.050237034 -0.027223766 0.0045266645 -0.13010566 -0.04175033 0.066147394 0.12436823 0.061379984 -0.16970229 0.025255967 -0.09208245 -0.08854921 0.17946424 -0.068845026 0.061047256 0.058295075 -0.014363725 -0.11105516 -0.033836816 0.08675754 -0.066736646 -0.03386913 -0.0038717566 -0.097464055
것으로 -0.07904588 -0.025367621 -0.120543785 -0.20859987 -0.010254679 0.065570846 -0.049787194 0.03747677 -0.013288577 -0.026853729 0.0069097714 -0.0246304 -0.026866741 0.022166405 0.08548359 -0.07858995 0.1119322 -0.005985653 -0.060948234 -0.13743065 -0.016046023 0.036807265 0.10958909 0.075338855 0.11048814 -0.10276494 -0.014561065 0.008000737 0.15880665 0.061253343 0.10972039 0.124554835 0.13554741 0.1618447 -0.14494003 0.18755746 0.0105210515 0.15017647 -0.027241422 -0.025079923 0.09199751 -0.14433128 0.07175525 -0.023498606 0.022190988 -0.0870204 0.013906101 -0.16489637 0.060173098 0.069280446 -0.009033989 -0.092214786 -0.07220686 0.22708324 0.03978584 -0.088179536 0.14144184 0.097965404 0.07595689 0.19179536 0.10844912 0.082566865 -0.007549066 0.029695733 0.031703956 -0.14991823 -0.041296378 -0.05975958 0.029668098 0.06629206 0.26043892 0.1295252 0.11974821 0.21554436 0.051624775 -0.23912446 0.08220941 -0.06702399 0.093336515 0.021167804 0.11052436 -0.056493573 0.014402721 -0.062110864 0.108641006 -0.037205327 -0.09004796 0.10280441 -0.12292862 0.080924384 0.07211239 -0.047301106 0.10671651 -0.023859564 0.09345485 0.02202308 -0.013315819 -0.19819714 0.0411833 0.06310592
이라 0.06408715 -0.0998729 -0.005803536 -0.13235813 -0.05132756 -0.20456699 0.026767077 -0.09482015 0.09714524 0.10458183 -0.051374692 0.18775481 -0.12061552 -0.18276137 -0.11768118 -0.019170318 0.03772798 0.03717284 -0.07670431 0.041779637 0.10125258 0.060392674 0.2235062 -0.17217685 -0.030089905 -0.15702718 -8.388143e-05 -0.10023874 0.052613877 -0.056206338 -0.06655285 -0.073128544 -0.023918808 -0.041649844 0.067306444 0.014154219 0.011932633 -0.04727095 0.016070805 -0.035425205 -0.15316956 -0.006359232 0.0539898 -0.0002988504 -0.08257765 -0.19333151 -0.022081738 -0.044701047 -0.05975448 -0.07370378 -0.09005261 -0.06152873 0.08517958 0.061051168 -0.0009143774 0.03877466 -0.03777913 -0.008869372 -0.03335791 0.039203253 -0.04673321 -0.121103674 0.07220345 0.121911205 0.032243103 0.2612638 -0.058750167 -0.122961275 -0.07493056 0.124483734 -0.03179572 -0.02964841 0.122818954 -0.098417155 0.064481445 -0.098453835 -0.073089205 -0.08369461 -0.119481444 -0.35313293 0.06634682 0.1567524 0.17259774 -0.12513183 -0.016575105 -0.008639645 0.03600317 -0.1293168 -0.016702734 -0.17873804 -0.020572163 0.052979585 0.021655554 -0.02253223 0.024872636 -0.012426324 -0.11260577 -0.043805454 0.16608529 -0.08370925
큰 -0.060223915 -0.029698 -0.001010543 -0.10434089 -0.051156763 -0.073040366 0.04933484 -0.09052037 0.14994402 -0.09896034 0.12374455 -0.035263676 0.03611892 -0.11511632 0.109503195 -0.08428032 0.055359337 -0.0715309 -0.024384623 -0.028918458 -0.12403941 0.111810595 -0.019915162 0.05479244 0.03528425 -0.043176707 0.07797984 0.15412952 -0.0018300005 -0.14832407 -0.15673536 0.067222 0.18271995 0.013162852 -0.12020091 -0.06181726 0.07734276 -0.10805888 0.085837595 -0.049258016 -0.19178237 0.04438949 -0.072361946 0.04896025 0.14338857 -0.14199467 -0.27564305 -0.024982322 -0.09569858 0.13973923 -0.08513355 0.11968669 -0.117632896 0.071320064 0.13170816 0.00028783394 -0.010791393 -0.07344932 0.031489186 -0.025051571 -0.18336894 0.049498145 0.073327914 -0.07397976 0.09728515 0.056118924 -0.11884916 0.12477027 -0.07637318 0.081933625 0.08730635 -0.028370831 -0.12430485 0.026613101 -0.16285467 -0.147616 0.14195772 0.06702649 -0.054381847 -0.009426247 -0.05195926 0.0009041285 -0.005899336 -0.07363517 -0.03548413 -0.08210701 0.13872623 0.04216601 -0.029331287 -0.03770282 -0.0076189833 -0.05611685 -0.23799983 0.16464984 -0.0034163885 -0.08129801 0.017279243 -0.094531775 -0.18792216 0.20492557
새로운 -0.19602409 0.14558195 0.034159634 0.012031715 0.0365261 -0.00920601 0.021185396 -0.07678201 0.08722889 0.06560787 -0.14664441 0.07110737 0.07510579 0.09095109 -0.12670082 -0.069884144 0.043682165 -0.09124723 -0.15966241 -0.108255245 0.054067634 -0.1557572 0.20454928 -0.104352124 0.10475422 0.13162933 -0.09393756 -0.13138859 0.023688849 0.019848658 -0.1848173 0.21485493 0.07861538 -0.071161784 0.017398851 -0.02237791 0.03845622 -0.07172159 -0.06726947 -0.14214596 -0.046378598 0.13304514 0.120974414 0.02466684 0.023727385 -0.13515304 -0.033330712 -0.11396757 0.09654154 0.10186061 -0.019844089 -0.002591882 -0.20695706 0.014066161 -0.12572856 0.049181446 0.09862509 -0.013838988 0.15300931 0.019484114 -0.034737095 -0.00422025 0.010439853 -0.026130257 -0.120076604 -0.067828 -0.0052167065 0.046117187 -0.0582386 0.033453748 -0.01318542 0.0793043 0.13889381 0.010565785 0.0039288276 -0.1432314 0.10431023 -0.08189629 -0.017734883 -0.021125264 -0.10847373 -0.030758595 0.06665469 0.0015873634 -0.18463486 -0.15225302 0.018559553 0.13327858 0.17312092 -0.16780119 -0.092056885 -0.12144573 -0.1974304 -0.13195787 0.06771383 0.06921112 0.028013116 -0.104000315 0.15513244 0.026564606
그의 0.009635021 0.16942795 0.073155366 0.010945978 0.035616163 -0.066941544 0.042791434 0.18294743 0.03097987 0.10883056 -0.1781381 -0.012860927 -0.034358136 0.105722554 -0.035668958 -0.15689994 -0.11929449 0.1324451 -0.09232619 0.025133433 -0.099443264 0.00063205254 0.019778997 -0.03639621 -0.03886446 0.19577119 -0.16857511 0.10120557 -0.09148446 -0.09733312 -0.023311239 -0.028522683 0.15339015 0.13264386 0.10646189 -0.031546853 0.024058718 -0.022266336 0.062793456 -0.111279786 -0.14245212 0.056103528 -0.09616525 0.14859883 0.11587343 0.12194052 0.05571332 -0.101193726 -0.11464937 -0.07607869 0.0221756 -0.21725367 -0.15059744 0.06716261 -0.2653708 -0.05400909 -0.054053243 -0.09608518 -0.05801921 0.065033965 0.044794817 0.15971735 0.19629836 0.063180365 0.052921906 0.10053234 0.093334004 0.048639294 0.025895817 0.10362102 -0.20817128 -0.08576502 0.05728984 -0.07840633 -0.10991214 0.0040378477 -0.096240975 0.036387652 0.09019375 -0.044742756 0.12481587 0.011040994 -0.08270487 0.057441827 0.15229668 -0.06928992 -0.121221095 0.062148616 0.07515638 0.021326808 0.0350948 0.077468194 -0.026560169 -0.00384562 0.044722755 -0.036347426 -0.013347712 -0.02819928 0.18770498 -0.11393661
세 -0.14892828 0.047168124 -0.07346394 0.12909918 -0.06763193 -0.18407434 -0.13551888 0.05600777 -0.06682773 -0.1804497 -0.040098075 -0.17711462 -0.017870646 0.06777057 0.1366163 0.0027391706 0.152634 -0.10491573 0.22811815 -0.14579085 0.13491292 -0.14173876 0.0387581 -0.09831864 -0.1210286 0.052994743 -0.21845445 0.09141504 -0.009698208 0.030585604 0.0029158823 0.05472984 0.009336741 0.021640899 0.20166326 0.1381398 0.07547143 -0.02493612 0.045810204 -0.0034032436 0.14620702 0.014489606 0.12660348 -0.07901524 -0.055856958 0.024823926 -0.07905367 -0.053679958 -0.0059460094 0.083369955 0.12356571 -0.07051953 0.008171632 0.07238581 0.17460684 -0.1544598 0.06390796 0.052037943 -0.07826664 0.09357331 0.047415763 -0.020088151 0.07209937 0.029516457 0.035198715 0.10381843 0.028367512 -0.21972223 0.119116135 -0.040849287 0.068571515 -0.114075884 0.0828538 -0.13702984 0.05520678 -0.06254238 0.093930684 0.011576365 0.047906164 -0.15113409 0.053144313 0.05701109 0.054150153 -0.060104694 -0.09036446 0.025565358 0.03236378 0.060422592 -0.0745827 -0.04582466 -0.11710522 0.15333933 0.12035283 0.07639245 -0.02849114 0.16023801 0.16696462 0.043759257 -0.0015878782 -0.11673124
였다 -0.09744159 -0.004317376 -0.18747051 -0.081338085 -0.046393067 0.14090814 0.05753712 -0.1657825 -0.17959614 0.116508104 -0.18470731 -0.16076359 0.048524883 0.0141266165 0.12617385 0.009532281 0.034900907 -0.041454364 0.1450244 0.21607101 -0.004236321 -0.21169539 0.08972805 -0.018504988 -0.04273487 -0.20098169 -0.11461028 0.053114686 0.03128549 0.07751654 -0.17699794 -0.11723767 -0.00077571394 -0.01747073 0.09890559 0.044991095 0.043628402 -0.041841548 -0.06083768 -0.048349854 -0.041335084 0.09528998 -0.1440481 0.04570198 0.018966576 0.043793205 -0.09776562 0.021617992 -0.0855897 -0.08158187 0.09642143 -0.06682213 0.0764862 -0.09373422 -0.038119595 0.050955124 0.10419805 -0.029705916 0.11080077 0.09173914 0.07662614 -0.12446889 -0.051151358 0.16225219 0.049689356 0.12086984 -0.0036790743 0.05345064 0.006220709 0.07000983 -0.14989133 0.122335695 0.021903673 -0.08661008 0.060783956 -0.036085576 -0.020634087 -0.13016 -0.18917966 -0.19789389 -0.062356576 0.09258047 -0.07424353 -0.1346883 -0.062206376 0.005947243 -0.046684038 -0.10098788 0.018114056 0.023763735 -0.14220832 -0.07254085 -0.0975301 -0.13820702 0.16979074 0.09640823 0.08231237 0.08541196 0.11476651 0.01320096
있었다 0.18154502 -0.0626465 -0.1402438 0.050434098 0.0024525675 -0.1023556 0.16156754 -0.0317268 -0.17540771 -0.078174345 0.07733422 -0.009112044 -0.046054047 0.09154531 -0.05556539 -0.1862092 0.1894369 -0.004063334 -0.061417665 -0.015504674 0.014388203 0.18269859 0.115747586 -0.06786784 -0.092352696 0.08477648 -0.23780954 0.02107812 0.061020672 -0.13045439 -0.028438527 0.05152591 -0.017171733 0.18278049 -0.23506624 -0.025313694 -0.021141473 -0.03842478 0.021898367 -0.16681385 -0.05967774 -0.0015576265 0.23263781 -0.074572034 -0.10018592 0.019830244 -0.001094238 0.018319884 -0.021039255 0.17185748 -0.12312831 0.1508528 -0.11356789 -0.011442505 -0.024488345 -0.07558222 -0.05734975 -0.24169455 0.053211212 0.041466665 -0.014024898 -0.15677069 -0.028601693 0.058309037 -0.024495663 0.068699524 -0.009765062 -0.026619243 -0.12542103 0.15414278 -0.0067868633 0.04388242 0.004087772 0.03230882 -0.06213037 -0.07537596 0.13294381 -0.15661769 -0.02341032 -0.12115728 0.09337915 0.14059699 -0.13676687 -0.084522955 0.060138993 0.008257666 0.047185034 -0.13023622 0.048520405 0.046890642 -0.024479615 0.070010595 -0.05997474 -0.05317592 -0.008605094 0.10610811 0.07067446 0.051301714 0.13780957 0.009918848
때 -0.11052982 -0.23218228 -0.06191184 0.11325494 -0.007211297 -0.1145482 -0.04637916 -0.11298366 0.122144565 0.03198119 -0.0879618 0.0013930795 0.12538134 0.042403083 0.025504261 0.10273692 -0.060399882 0.028332377 0.032726884 -0.049093712 0.08601442 0.017553516 0.18074612 -0.17635256 -0.030056091 -0.17281638 -0.047601897 -0.034239054 0.075218335 -0.107862204 -0.041961018 0.005377651 0.09891758 0.113904916 0.029048886 0.063136674 -0.083566904 -0.078472406 -0.100957416 0.22116432 0.14356558 0.18598786 -0.123188555 -0.08446096 0.051455438 0.012437279 -0.051794976 -0.02247638 -0.10796749 0.035351597 0.029017918 0.16113114 0.03917987 -0.048354045 -0.015314693 -0.11613763 -0.10619453 -0.12763861 -0.07520707 -0.087818466 0.056632854 -0.039202485 -0.055929866 0.123462446 -0.01804807 0.13891153 -0.08515725 0.09215457 -0.06249831 0.102269694 -0.07187544 -0.08226409 -0.026116678 0.07885655 0.13763452 -0.25840983 -0.036047738 0.036017817 -0.038584664 0.04629562 0.11136458 0.13916491 -0.033107348 -0.010733801 0.096008465 -0.057177544 0.19046336 0.077074066 -0.053453267 0.10783586 -0.027921254 -0.15674867 -0.02446907 -0.0040972154 0.008483761 0.3025447 0.055495292 0.07176094 0.10050946 -0.027199727
것은 0.092639364 0.07323959 -0.10973764 0.085777 -0.15903097 0.005868651 0.15726686 -0.017684463 0.079699546 -0.09907713 0.007339468 0.11309101 -0.1877193 -0.05169222 -0.08053207 -0.17037605 0.06480183 0.09676391 -0.059508663 0.12144233 0.01997555 0.054211803 -0.051478826 0.16265422 0.09591953 -0.0055363975 0.024958752 -0.118043475 0.13684417 -0.11383085 0.03093648 0.15260294 0.08348941 -0.022755163 -0.14457712 -0.017566998 0.17090218 -0.09007486 0.011499942 0.05552913 0.14199492 0.07010396 0.015712425 0.06023611 0.11945262 -0.13622981 -0.18267623 0.101323776 -0.043198045 0.0682139 -0.04180591 -0.1442972 -0.10795435 0.045642372 -0.07593702 0.0075498032 -0.041923687 0.16753441 -0.10410507 0.039367624 0.14332116 -0.10385876 0.09588461 0.009217104 -0.040397372 -0.12688799 -0.14465591 -0.0846853 -0.058657967 0.12957747 0.04915791 -0.07778387 0.19371736 0.0012650848 -0.039088354 -0.03126951 -0.08714275 0.061282318 -0.10549854 -0.025354253 -0.04943644 -0.13673127 -0.08203208 -0.024870278 -0.15606865 -0.06149826 0.08091842 -0.03536997 0.07476003 0.16567276 0.022868812 -0.14994419 0.048541535 0.037141148 -0.00013122645 -0.01595325 0.20410474 0.01763577 0.24405302 0.006194482
위해 0.18802498 -0.03469594 0.04687281 -0.019699791 0.13252786 0.23140281 -0.101323545 -0.012161499 -0.08862862 0.06168936 -0.08655342 0.1558361 0.059178706 0.17844082 -0.0058918344 0.065932244 -0.050153296 0.05298556 -0.1604055 -0.10926582 0.02078468 -0.24926527 0.15281624 0.026448086 -0.12870635 -0.036911078 -0.14055616 0.08177545 0.1125253 -0.01487837 -0.11498178 -0.04674879 0.11780686 0.025106648 -0.19507568 -0.07429764 -0.083028115 0.012863154 0.0014408067 -0.027524134 -0.07118051 -0.020220805 0.0045169806 0.028844832 0.018405318 -0.13660069 -0.032212812 -0.09335335 -0.15717241 0.0121033 -0.05812562 0.05435355 -0.064156584 0.04788058 -0.034709085 -0.004597187 0.13911428 -0.2051791 -0.1832027 0.012033328 0.056561574 0.17637196 -0.016405424 0.012337712 -0.007468095 -0.01376123 0.11126262 0.020225035 0.17759277 0.040426943 0.11937739 -0.20726143 -0.1406643 -0.021405753 0.0032963308 0.06911494 0.09816042 -0.0806921 0.0008180492 -0.069856636 -0.088464506 0.09966234 -0.19913971 -0.068345554 -0.109395504 0.018269107 0.047894564 -0.040196516 -0.05062798 0.08215401 -0.123089656 0.05309072 0.057837054 -0.0900572 0.13499597 0.0004117221 0.038467076 0.06392739 -0.16569345 0.08037934
통해 0.1455494 -0.014917799 0.04341127 0.19242121 -0.0122594945 -0.17922027 0.14698718 0.1341968 -0.17135714 0.09737744 -0.15637442 0.03901871 0.040629573 0.21548237 0.13457024 -0.13605447 -0.13474463 -0.014367485 0.082713746 0.028066896 0.09144816 0.26954767 0.015253588 -0.17585428 -0.1354924 0.08183217 0.0018581938 0.0072032497 -0.011514123 0.051679518 -0.09519671 0.030926788 0.016165974 0.004557048 0.1215022 0.011041639 0.15574819 -0.04491704 -0.03777104 -0.0070674997 -0.01754961 -0.038397923 -0.06263939 0.14422186 0.03108969 0.03255134 -0.038193304 -0.14688247 0.0012731742 -0.089343876 0.21647209 0.0785119 -0.21673615 -0.037120637 0.028187064 -0.05725432 0.07495615 -0.11279978 -0.12526363 -0.014298117 0.09182976 -0.08413118 -0.021071661 -0.05383409 -0.050615996 0.2075404 -0.07576068 0.039023466 -0.18939094 0.15409333 0.02963516 -0.08066853 -0.05492778 0.05869361 0.018249087 0.008537719 0.03244546 -0.03870416 -0.022950241 -0.011029745 0.08816861 -0.05338498 -0.0363707 -0.06159386 0.060564663 -0.017231453 -0.024652554 -0.1106214 -0.14745261 0.0032009692 -0.14375246 -0.103492804 -0.0032085553 -0.107845895 0.1380877 0.0314257 0.13097456 -0.11415998 -0.015724234 -0.058248714
많은 0.102892935 0.11230715 0.12694378 -0.070223935 0.05184204 -0.06066033 0.11251732 -0.1052451 -0.0581212 -0.0038414074 0.1170777 -0.008003752 -0.16636764 0.032148667 0.015842788 0.15462822 0.09351723 -0.07781234 -0.03745666 0.05404533 0.008117076 0.14392833 0.059120927 0.092901 0.017715232 0.04713244 -0.059244927 -0.087202586 -0.19648144 -0.072674535 -0.16646223 0.12538543 -0.06933631 -0.10123671 0.023714237 -0.21801701 0.065280244 0.14958943 0.13243024 0.115012944 0.025287967 -0.008158946 -0.0934946 0.16562064 -0.026603295 -0.013500668 -0.0834744 -0.07056886 -0.15824187 -0.19301873 -0.028072717 -0.0009254121 -0.06451374 0.15536611 -0.052396197 -0.12078026 0.0051584323 -0.054448888 0.032238193 -0.09375071 -0.09620042 0.20780626 0.12173677 -0.045404237 0.09920842 0.042826176 0.045126628 -0.10073458 -0.15416192 -0.07520692 -0.15265825 -0.00064551336 -0.009407253 -0.079677455 -0.035191774 -0.054289408 0.15615179 0.032538444 -0.13789888 -0.16246872 0.07262723 0.112310596 -0.019036109 0.13264593 -0.098377265 0.07478188 0.110994905 0.03962763 -0.023130128 -0.15451394 -0.11455315 -0.11360883 -0.11643947 0.117641844 -0.042459514 -0.08231142 -0.102725446 -0.10769304 -0.032063685 0.093928866
라고 -0.068901986 -0.03545553 -0.19545132 0.15682855 -0.08877497 -0.043193087 0.120939486 -0.10342063 0.087723345 0.0031843956 -0.20815806 0.089144126 0.079113625 -0.11354046 0.08696519 -0.06811767 -0.07412151 0.014418815 -0.018166674 0.0829158 -0.06984035 0.08754616 0.01706002 -0.016037324 -0.19725603 -0.059154496 0.19139947 -0.08496258 0.09559687 -0.099098265 0.048686873 -0.079027236 0.1287493 0.03723268 0.100736246 -0.02709904 -0.083146326 -0.031274874 0.02788941 -0.08548049 0.015776444 0.0539435 -0.124457754 0.10159618 0.033593956 -0.05501553 -0.057316583 0.028095648 0.08376895 -0.004826284 0.014975418 -0.065077044 0.043085657 -0.013745528 -0.19813411 0.080884986 0.06062841 -0.10908605 -0.20922032 0.05251419 -0.14055175 -0.08203428 0.05180447 -0.029664006 -0.015262262 0.08916569 0.045378312 0.16874191 0.0013174601 -0.16977286 -0.005760554 -0.02152857 -0.11044156 -0.057962403 -0.053635273 -0.14556219 -0.02493828 -0.07502472 -0.06006072 -0.03102157 -0.1874995 0.13471216 0.016335782 -0.098282054 -0.03247695 0.013976564 0.21919672 -0.0052450444 -0.111117095 0.20689364 0.11658682 -0.070052356 0.19006991 0.0733906 0.184618 0.14947769 -0.03453474 -0.04525481 -0.025960634 0.16093397
동안 -0.10838013 -0.081790455 0.01966471 -0.112209946 -0.11672898 -0.026961321 -0.08213385 0.016799998 -0.003786852 -0.08595641 -0.060256448 -0.033105295 0.09448061 0.007457697 0.031509094 -0.23581523 -0.08579028 0.003910111 0.17154433 -0.06086795 0.030118175 -0.013248082 0.016020728 -0.073262595 -0.07326432 0.09157553 -0.15622386 -0.21668269 -0.034145605 -0.07129948 -0.064198725 0.10663344 0.021497974 0.0630121 -0.13188645 -0.004156 -0.087028384 0.04307699 -0.07200719 -0.04770308 0.0280273 -0.035346236 0.1587226 0.19584592 0.072090395 -0.13853912 -0.06579932 -0.038077973 -0.102441154 -0.06422801 0.057054937 -0.018093077 0.029280089 -0.10498922 0.018450262 -0.11440088 -0.03563235 -0.046974383 -0.11678628 -0.068056 0.2637345 0.061210316 0.23597439 0.021634944 0.0861135 0.14031202 -0.039604798 0.046180442 0.12565698 0.16837038 -0.2244312 -0.17876847 -0.04056423 0.08524725 -0.08307199 -0.05283232 -0.04477631 0.11844729 -0.027381396 0.16259012 -0.04416044 -0.10360926 -0.10673794 0.046833545 -0.06147713 0.019405993 -0.08625386 0.06704687 0.0049200165 -0.06077491 0.10359249 0.03949368 0.13438609 -0.028694432 0.1661143 -0.21703081 0.026616024 0.057611823 -0.09283912 0.0503408
전 0.2719841 0.05531827 -0.004218146 -0.024658717 -0.07948491 -0.1990611 0.04321142 0.17034048 -0.047270376 -0.13535453 -0.007458028 0.06464765 0.095795006 -0.06716764 0.17315342 0.047426134 -0.03791421 -0.05742786 0.088113 -0.039604884 0.117477454 0.051184036 -0.042457525 0.0071482453 -0.12506697 0.011204632 -0.07368049 0.037930306 -0.017217124 -0.061509356 -0.060292136 -0.0060037104 0.05186098 -0.06631039 -0.003155142 0.025950696 0.18005061 0.012380491 -0.24509208 -0.09128779 -0.07975338 -0.023791863 0.014169189 -0.06520192 0.022491323 0.07557434 0.029017486 -0.123117656 -0.012839147 0.06354272 0.00014782012 -0.056583885 -0.1485724 0.07064749 0.08552404 -0.024468232 0.13086978 0.11584513 -0.031860296 0.091782704 0.25049305 0.0044263434 0.1046519 -0.02795294 0.041851085 -0.11127296 -0.019237105 -0.039325766 0.0861321 -0.13693057 -0.047863368 -0.0029765153 0.119465284 -0.10118058 -0.09755852 -0.036688764 0.14385997 0.047745723 -0.07852632 0.08516484 -0.03756251 -0.014451857 -0.013736243 0.055820104 -0.0899403 0.10502639 -0.011641534 0.06026648 -0.113231696 0.058780048 0.1396731 0.056891628 -0.074831836 -0.2263128 0.13818155 0.028352533 0.35851973 -0.15341449 -0.014798756 -0.027181838
3 0.0008465106 0.13836125 0.12682173 -0.09336894 0.0048115407 -0.055542752 -0.052406512 0.03642173 -0.059933636 0.081246585 -0.14621216 -0.08295106 -0.15068117 -0.044708148 -0.044483207 0.06769022 -0.18850857 0.100280814 0.04941428 0.02334528 -0.12530932 -0.117905 -0.032553565 -0.005476974 -0.23872106 -0.09950642 0.09456343 0.27284822 0.081394136 -0.1480561 -0.059380654 0.11301394 0.18605003 -0.055552155 0.10993665 -0.16646807 -0.018983467 -0.09340356 0.07462242 -0.057188336 -0.080036625 -0.14966376 -0.046872787 0.14194773 0.023614993 -0.09066669 -0.022743499 -0.14006189 0.060369555 0.07608854 0.018147971 -0.032274697 -0.049989462 -0.035514083 -0.14375088 -0.018209454 0.06715685 0.05949698 0.069877796 -0.12142635 0.023219764 0.17926282 0.08150218 -0.10875713 0.12302827 -0.1191492 -0.0044113235 0.021710362 0.005657227 0.08490257 -0.06537731 -0.0548249 0.017429762 -0.010495698 0.08326665 -0.054251928 0.08317665 0.12428932 -0.1294594 -0.08779752 0.050155275 -0.015160244 0.14081998 0.07219139 -0.16154397 -0.09282791 0.19329348 0.058462393 -0.08236525 0.1488995 -0.1625799 0.06627519 0.053183112 -0.084602155 0.005566059 0.060668193 0.12985651 -0.044133265 0.11160486 -0.07348926
와 0.058237348 0.14719033 0.023367025 0.10340552 -0.03856816 -0.07446246 0.20254797 0.06953523 -0.03901958 -0.13508074 0.16919482 -0.10884103 0.032012213 0.0152820675 0.092887506 0.25567776 -0.13291602 0.00848137 -0.1202549 -0.09966579 -0.12869751 -0.043117587 -0.13754182 0.17622279 -0.048122305 -0.03907573 -0.04579541 0.105262406 0.014585388 -0.0068403375 -0.08894429 0.02090394 0.10064863 0.012701628 0.017312465 -0.010095001 -0.04164127 0.18471943 0.028788337 0.0090844715 0.069696784 0.03298331 0.042862475 -0.14047834 -0.12127829 0.046999525 -0.09342454 0.04172129 -0.1616213 0.070863284 0.00854789 0.15552452 -0.13686773 -0.15223622 0.07816936 -0.06501439 -0.080252245 -0.08735679 -0.06570482 -0.050228957 0.05107015 0.18005441 0.16435014 0.107973136 0.11161556 0.09330765 0.009481554 0.19471583 0.067621335 -0.1882982 0.07982292 -0.10510629 -0.16785653 -0.115604304 -0.12603252 0.09095697 0.025596827 0.045677908 -0.105407104 -0.021479782 -0.031096691 0.038423277 0.03626799 0.10763936 0.08199387 0.027805617 -0.06883828 0.07629551 0.05463454 0.139714 -0.070512354 0.005876551 0.21239008 0.09556765 0.090886936 0.015449553 0.023957789 -0.03277892 0.018829813 0.110681586
그녀는 -0.12059251 -0.0701083 0.144716 -0.0718303 -0.0048780893 0.024518233 0.02724679 -0.066989355 -0.057501916 0.17749242 -0.138438 -0.069857314 0.024725186 -0.045170683 0.09379167 0.07671806 0.027500981 -0.09826744 -0.051995046 -0.095986575 -0.071390174 -0.11443374 -0.037182283 0.095874816 0.13814883 0.1449667 0.21497665 -0.009699618 0.05686424 -0.06126176 0.15562098 -0.10112993 0.17549315 -0.07805318 -0.118378654 0.06766923 0.07731546 0.016770141 0.021496166 0.04683204 -0.016631773 0.021626683 0.20142496 0.051966444 -0.059935927 0.17656857 0.010643295 -0.04353959 0.009515852 0.07076065 0.012116971 -0.08802433 -0.2610211 0.023985326 -0.01988983 -0.22373092 -0.011111647 -0.121810794 -0.010854563 0.0941377 -0.008790641 0.040711418 0.03621746 -0.038705066 -0.14019318 0.0037546183 -0.06134095 0.013232708 -0.042204365 0.07555315 -0.17392336 0.11766489 -0.12305276 -0.17172098 -0.09214826 0.0878131 -0.19683424 -0.0032426966 -0.06543744 -0.1475186 0.04713747 0.054667708 0.10028543 0.044008028 0.01691569 0.042798784 0.13359326 -0.05072151 0.079429016 0.06704837 -0.057011396 0.026447535 0.06686041 0.1307483 -0.12507826 -0.28962743 -0.018090392 -0.017493194 0.029671786 -0.09851703
이러한 0.06257292 -0.050960604 -0.0746323 0.03251035 -0.026495425 0.030502735 -0.043866165 0.09726005 -0.06571368 0.065490656 -0.04914612 0.04860247 -0.044660173 0.069743074 0.11699413 -0.1280283 0.08742677 -0.09824569 -0.123292774 0.018452711 -0.09525712 0.0024712814 0.106032446 -0.02872281 0.06825828 0.09467787 -0.21316214 0.05926547 0.09314033 -0.046901327 -0.072557725 0.07972389 -0.003386405 0.10415623 0.050116442 0.07487979 0.065336786 0.051404193 0.023006005 -0.19509274 -0.07018208 -0.12335222 -0.20117068 0.0016795561 0.057373405 0.09372585 0.057302795 0.04013347 -0.013189673 -0.009785991 -0.046058454 -0.30467153 0.022194538 -0.0813702 0.04868152 -0.072522886 -0.059943914 -0.17584231 0.03297675 0.035406597 -0.039004214 -0.043047857 0.08568219 0.30118552 -0.062235583 0.15875813 0.040813345 -0.07725435 0.04677308 0.096721776 0.07960452 0.099302575 0.029267471 -0.0024529626 -0.11080669 0.0032974016 0.11254515 -0.09076826 0.101318106 -0.335769 -0.09602729 -0.057408184 -0.061440803 0.080624305 0.047731575 -0.061061457 0.006322138 0.18924224 -0.041276123 0.012028331 -0.0378389 -0.057800677 -0.037452392 0.20594598 0.14523296 -0.112499915 0.026731439 0.13068993 -0.061564025 0.047150996
것을 0.12770104 -0.026652329 -0.096113555 -0.115455784 0.24201193 0.040814433 -0.054072965 -0.052358948 0.063116774 -0.006497272 -0.032727245 0.03608235 -0.07712783 -0.01237933 0.12556297 -0.13579515 0.013337024 0.10921842 -0.1341053 -0.10479514 0.12647454 -0.021726716 0.12875167 0.041790277 0.118981056 -0.035929568 -0.22005092 0.065792955 0.18555473 -0.17201988 -0.020232648 0.005608098 -0.086299576 0.05969141 0.040115405 0.044822946 0.056597132 -0.0036523396 0.056636017 0.023522256 0.080489434 -0.16640219 0.053967807 0.17036846 -0.011561823 -0.1693154 0.03755712 0.14977239 -0.15557322 0.013341165 0.09193159 0.04286098 0.0607134 0.030734295 -0.02376788 -0.06412145 0.23571327 0.08133951 0.16009733 -0.05447863 0.02354279 0.21047474 0.047505267 0.0044903513 0.056907367 -0.018002903 0.15144983 -0.054465998 -0.08302796 -0.0053162724 0.046980094 -0.04760477 0.052552678 0.06489629 0.044430815 -0.1599992 0.075065136 -0.14407298 -0.17375244 -0.07378063 0.048163593 0.12505075 0.08841065 0.029203176 -0.07245988 -0.06763713 0.035061304 -0.124987766 -0.10389437 -0.036456767 -0.23942398 -5.0148297e-05 0.012826106 0.06684163 -0.08713379 0.010042922 -0.11965017 0.04340957 0.017831294 0.1673721
그리고 -0.070410356 0.1029508 -0.06895029 -0.10681034 0.021511802 -0.011649033 -0.14983585 0.16518103 -0.0057131457 -0.025471639 -0.1581536 0.028161349 0.06992307 -0.04515345 0.034904815 -0.16067113 -0.09552207 -0.052207593 0.103973754 -0.17138919 -0.0017058076 -0.121289775 0.016049959 -0.026526548 0.009173214 -0.03952462 -0.2258997 0.24587406 -0.19524309 -0.10904988 -0.03208982 0.038113642 0.13034305 0.06539255 0.09779941 -0.033435304 0.09218329 0.06373265 -0.009297056 0.20110554 0.08272421 0.08815509 -0.017560618 -0.10487535 0.038034596 0.086656325 -0.1975116 -0.040362153 0.017456157 0.07851002 -0.11195549 -0.09732767 -0.030476991 0.02358617 -0.03614543 0.009954966 0.0682528 0.042157836 0.020529315 -0.12050007 -0.008900917 0.08205492 0.00415932 0.05312622 0.07534481 -0.06437777 -0.08674525 0.03130792 -0.05128282 -0.024792682 -0.063811295 -0.13432369 0.0025122762 -0.041619644 -0.19907308 0.016374141 -0.04665182 0.08614672 -0.08925748 0.1166853 -0.008021141 -0.063934214 -0.0706225 0.104902975 -0.13941765 -0.13739829 0.060528286 0.14468648 -0.120976165 -0.009058597 -0.02750199 0.033685222 -0.113046825 0.011863162 -0.17148995 -0.030603208 0.25514877 -0.23851381 0.13009594 -0.05351208
나는 -0.11721054 -0.029101582 -0.056934323 -0.07753624 -0.05341107 -0.08198307 0.048702106 -0.05766695 -0.024944697 -0.20728362 0.008621382 -0.063755184 -0.066708855 -0.026323102 -0.025075508 0.08345531 0.10423603 -0.049596906 -0.09928451 0.033173498 -0.18113704 -0.0028224762 0.25989428 0.11683025 0.06130723 -0.04583052 0.09564349 0.021076653 0.1975045 -0.036323257 -0.15129751 -0.09335209 0.08801149 0.1501806 -0.080442406 -0.13895592 -0.07333997 0.13296448 0.1592039 0.19520357 0.07498409 -0.06838978 0.03388582 0.04730625 -0.07323125 -0.0819316 0.00909279 0.085410334 -0.30250713 -0.079773836 -0.07056641 0.18831553 -0.12811573 0.06296405 0.020875705 -0.050832026 0.05754128 0.18909131 0.122759394 -0.026253961 -0.12030501 0.047781173 -0.016850865 -0.07763534 -0.00075300864 0.014046666 0.08634902 -0.073285766 -0.031946924 -0.07114017 0.11893755 0.1347014 -0.0047107995 0.12873784 0.02211164 -0.007063778 -0.06431015 0.01940324 -0.20243363 -0.16095045 0.06504694 -0.054042958 -0.044687632 0.07847707 0.086672865 0.014670607 0.04574578 0.13467352 0.0790997 -0.0005923519 -0.03541523 -0.16612814 -0.08525158 0.012130088 -0.09913944 0.12609397 0.06727703 -0.0499529 0.0029526986 0.03057093
당시 0.012515366 0.03217776 -0.04237532 -0.044744324 -0.06726327 -0.18104485 -0.07476091 0.009763481 -0.035406332 0.0759399 0.05172783 -0.13799377 0.23303917 0.01553358 0.11008458 -0.07708326 -0.12587078 -0.052184008 -0.038037766 0.01858306 -0.12075889 -0.07376305 0.1185851 0.03915805 0.009028789 -0.020164905 0.059562135 -0.069107175 0.022092272 -0.0018802065 -0.12431749 -0.074574284 -0.038422387 -0.093858205 0.11803914 0.15507227 0.058847103 -0.07577462 -0.05791139 -0.06339539 -0.13638994 0.11701268 -0.03242066 -0.009839836 -0.07816609 0.01662315 0.0005604262 -0.002675271 -0.2246652 -0.070815176 -0.14600937 0.12357489 0.045663908 0.10560116 0.022836767 -0.046917565 0.0046800887 -0.1348051 0.0052986466 0.11737723 0.20195934 0.10987764 0.017643997 -0.04140593 0.06940347 0.16927128 -0.13203177 0.08902407 0.14532769 -0.058204036 -0.064139634 0.03914495 -0.17174271 0.067226596 0.120434724 -0.02988867 0.118332565 -0.010265266 0.018072003 -0.22626172 0.13727391 0.13187844 -0.13642763 0.034514867 -0.11042252 0.054027352 0.055629116 -0.02234535 0.07880713 0.06726436 -0.0104102185 -0.16033916 -0.1696998 0.06083763 0.11976779 0.19046156 0.15710129 -0.031568658 0.052772403 -0.19460829
만 -0.1711921 -0.092357635 -0.042386573 -0.06117287 0.07452176 -0.16430965 0.051533483 -0.2244445 0.14179558 -0.002523903 -0.07416453 -0.082141854 0.11011281 0.06831053 0.054720495 0.050724164 0.023720792 -0.04951284 0.110413305 0.19994394 0.03674579 -0.0061630257 0.013514571 0.07368488 -0.060391266 -0.040859252 0.14984247 0.060270086 -0.095973805 -0.001160414 -0.17467636 -0.15692146 -0.06819393 0.13395302 0.059254173 0.053738203 -0.005675572 -0.0015113476 -0.056382447 -0.047552455 0.14591148 -0.097743675 0.13129857 -0.009582548 0.0435063 -0.037946694 0.04273853 -0.029078836 -0.12588827 -0.0050145863 0.13721025 0.23435552 -0.07916354 -0.2092839 0.14888111 -0.08074263 0.09101236 0.090378895 -0.035566747 0.112215936 -0.038620923 0.0704047 -0.09344172 0.19012538 0.07866087 -0.0032717495 0.03329972 -0.10535087 -0.07983148 0.04115924 -0.017118841 -0.1592024 0.069232054 -0.019534403 0.13906017 -0.027267357 0.0031052185 -0.0061832466 -0.08809124 0.06789853 -0.22937089 0.046232574 0.08042478 -0.01542479 0.011048924 -0.021794619 0.021309001 0.24512759 -0.117810495 -0.05019138 -0.18606845 0.111971 0.1421198 -0.060802583 0.017735466 0.047189567 0.09998605 -0.0015505634 -0.08115368 0.027832132
위한 -0.11183773 -0.07372887 -0.05033893 0.07219865 -0.066502675 0.01873906 0.031057788 0.1098249 -0.08342389 -0.15612479 -0.024584457 -0.0007253718 0.07973579 -0.121622264 0.08433958 0.14679116 -0.070083454 -0.03757965 -0.077269465 -0.13657574 -0.15860951 0.110800534 -0.053626318 -0.019793924 -0.11438646 0.13706298 0.09214552 0.024869198 0.055092167 0.007879482 -0.011021962 0.033086307 0.07620254 0.0154014835 0.078054205 -0.048271608 0.0039356914 0.1674697 0.1145461 -0.08770861 0.20004207 0.10998152 0.1601934 0.02327623 0.10806634 -0.038027637 -0.13729204 0.068260394 -0.13915321 -0.06808269 -0.14733166 0.048520688 0.0008874163 0.064092055 -0.045894466 -0.03387723 0.027367238 0.15654387 0.070965715 -0.18254043 -0.04308021 0.08605212 0.075022176 -0.08528076 0.11769181 -0.18067174 0.13316363 0.011474665 0.025743559 0.08942502 -0.08271184 -0.025212461 -0.119127214 0.0967494 -0.040662985 -0.22121476 -0.047699727 0.06003534 -0.32240796 -0.06311983 -0.120148376 -0.11982565 -0.10079062 -0.03684565 0.09836216 0.1377257 0.003238362 -0.072029985 0.012597144 -0.078219414 -0.045477234 -0.021455012 -0.012181722 0.007852596 -0.114819475 0.029464679 0.054924827 -0.20681272 0.16349642 -0.01205032
여러 -0.2704504 0.23606625 -0.12759247 -0.03960159 -0.008451538 -0.090459384 -0.002178396 0.057640377 0.0104784435 0.17314196 -0.077094465 -0.040380858 -0.060081244 0.19859192 0.043409616 0.111424595 0.001037728 -0.14157842 -0.06395218 -0.12709436 -0.07966258 -0.02632665 -0.018988186 -0.093561545 -0.11884303 -0.06938216 -0.12627298 -0.04385414 0.24670836 0.032331094 -0.05681928 -0.03244305 -0.02656805 0.1252546 0.16983916 0.030983798 0.033003755 0.0394112 0.0130906645 -0.087514065 0.003994614 -0.017331872 0.046092447 -0.07387684 -0.11868551 0.19164123 0.12520713 -0.21383232 -0.048219174 -0.0075697247 -0.08983385 0.042385675 0.009359846 0.1496258 -0.007932252 0.10842022 0.023697184 0.13787292 -0.035609517 0.017900327 -0.099645756 0.06311432 0.16718856 -0.06893058 0.053368427 0.07379704 0.06340639 -0.16921367 0.049590636 -0.022632115 -0.18953072 -0.023890622 -0.039655358 0.041577857 0.0064974483 0.1454869 0.09948061 0.12511791 0.07613517 -0.03948079 0.04363261 -0.07973068 -0.023994964 -0.18516023 -0.04850305 -0.019299848 0.015516671 0.091224045 0.12105603 0.095687464 -0.16234998 0.06695703 -0.041317835 -0.19935924 -0.0008571441 0.040450927 0.012691239 -0.060257684 0.03432769 -0.03466101
것이 0.09943813 0.008579623 0.032790806 0.069889344 -0.0050178613 0.10628021 0.025193466 -0.05227053 -0.018713959 0.08337193 -0.03744876 -0.08111215 0.008986999 -0.02692912 0.28749603 0.014747594 -0.08445458 -0.01221236 -0.18251914 -0.11132477 -0.09322416 -0.0019240995 -0.1339396 -0.0013066861 -0.119978674 -0.021304257 0.042825628 0.083029 -1.7157365e-05 0.18696462 -0.013482203 0.046523597 0.048026998 0.103128344 0.16397417 0.09296416 -0.003326026 0.07123078 -0.003336013 0.10620336 0.10389746 -0.24079587 -0.082664624 0.14614071 0.15460825 -0.082821414 -0.21250317 -0.10555262 0.07089822 0.021074919 0.14217821 -0.15072614 0.05446346 -0.0960343 -0.22120368 -0.16186383 0.034869388 0.0011021534 -0.073564894 -0.04266598 0.15419877 0.12298109 0.062120948 0.04956412 -0.023149988 -0.015273343 -0.04420819 -0.06533527 -0.069898486 0.070739284 -0.14948624 0.13842031 0.01686581 -0.16468531 -0.12286336 -0.012782206 -0.1609772 -0.052906085 -0.08935473 0.113222346 -0.056677364 -0.12835163 -0.072715774 0.023617271 0.023237944 0.0083314935 0.082174025 0.017725827 0.015676692 0.025466664 0.2292931 -0.09484882 0.1143124 -0.038860597 0.0800191 0.062690176 -0.06316773 -0.041277483 0.08885534 0.08317575
미국 0.28879482 0.041079678 -0.07557236 -0.09859956 0.0045367433 0.009161065 -0.06354008 -0.03193142 0.09275601 0.025942685 0.030483011 0.18064709 -0.02362212 -0.055695757 -0.09922607 -0.1021622 -0.138203 -0.043473456 -0.13107227 -0.061802432 -0.17009282 0.04560044 -0.019538857 0.012528663 0.08470942 -0.10763362 -0.23047474 -0.006506553 0.00711424 0.04856516 -0.036914025 0.07085529 -0.19067216 -0.045728333 -0.07193853 0.1019323 0.09528009 0.022528797 0.03543103 -0.02230792 -0.08355341 -0.057505365 0.14954138 0.07416178 -0.09217339 0.03644626 0.10903925 0.073508985 -0.042723566 -0.15491739 0.12155791 0.09537779 -0.14312524 -0.06710851 -0.010577492 -0.159562 0.058046266 -0.15052274 0.09662091 0.10777668 -0.043728016 0.16871062 -0.07194486 0.12795548 0.14115289 -0.10428261 0.066644296 -0.10680844 -0.028149193 0.1531826 0.156128 0.032008898 0.018990092 -0.012233697 0.013973445 -0.12199114 0.013336812 0.10070676 0.010321742 -0.051317014 -0.051538836 -0.01499914 0.043614294 0.1760398 0.012069473 0.113254555 -0.13598579 0.0021886465 0.10783393 -0.035145607 -0.056530077 -0.16207619 -0.150649 0.054275647 -0.13368781 0.16248456 0.15185829 -0.05377096 0.06494231 0.094300196
라는 -0.19141375 -0.118027285 -0.024608023 0.01956124 0.035355683 0.022693085 -0.028004384 0.024237586 0.13268988 -0.06341224 -0.07916439 -0.02515929 0.10229464 -0.0012058085 0.04667746 0.09747147 -0.0829009 0.12021824 0.07376921 0.15689854 -0.08034597 0.044600513 0.17607744 0.0035262897 0.19255073 -0.00047623986 -0.16720763 0.025727099 0.14895569 0.067742534 -0.19081886 0.086050555 -0.073302396 0.23629098 0.06834872 -0.026393535 0.06830075 0.054652378 -0.08084909 0.0662862 -0.033078287 0.14528304 0.092727594 0.06678461 -0.013060011 -0.080760576 -0.07828304 0.04647305 -0.22760671 -0.09190747 -0.010497061 -0.11732533 -0.07690123 -0.17093478 0.071902 -0.23289928 -0.21028335 0.05406871 -0.03047379 0.023002623 0.11897883 -0.10326188 0.20191346 -0.033102725 -0.111108564 0.040996462 -0.01740189 -0.097006194 0.015705608 0.05846608 -0.031145213 0.059169997 -0.0068964274 -0.03662726 0.0062300344 -0.16736639 0.07336498 0.019008998 0.01205904 -0.039163534 0.0052146288 0.27203262 0.03871002 0.102503166 0.044908445 -0.14259839 0.004658644 0.112561986 0.08336573 -0.11605535 -0.025759658 0.05769643 -0.045224547 0.10058492 0.05600444 0.10642748 0.029475864 -0.04677346 0.064868845 -0.0053547337
를 -0.106052436 -0.007567992 -0.099451095 0.024866639 -0.08531935 -0.035228096 0.13067563 0.20131685 -0.14109717 0.13459958 -0.124687925 -0.11511681 0.009856995 0.11020528 0.24725637 -0.005427441 0.02929747 0.012765015 0.04855267 0.017402008 -0.07888889 -0.05674238 -0.035319496 0.10757223 0.020482667 0.034926347 0.101690486 0.12317765 -0.038324602 -0.014239148 -0.15236808 -0.14364637 0.13839899 -0.14625324 0.12304797 0.05649957 0.004739508 -0.068491936 -0.043354347 0.048216075 -0.049138308 0.12615219 -0.14807382 -0.019799827 -0.006654125 0.009446444 0.12140021 -0.09435102 -0.117554456 -0.05448083 -0.040891353 -0.04017797 -0.08376428 0.021197392 0.21273717 -0.15559615 0.16367473 0.18472864 -0.013598558 0.13319558 0.055061646 0.13047662 0.0051473873 0.09861669 0.0444947 0.11079949 -0.16091642 -0.10651138 0.021791074 -0.0033229534 0.060967352 -0.15729873 -0.04830859 -0.03664837 0.024960618 -0.0010696286 -0.07369044 -0.014661011 -0.07911616 -0.12004536 0.008019486 -0.08568705 0.1960624 -0.08136277 0.20919473 -0.0023020776 0.09964952 0.15009448 -0.040128633 -0.027443051 0.008595817 0.0395064 0.07878088 -0.054763086 0.08716911 -0.022632279 0.24405321 -0.100279614 0.015958337 -0.06635891
세계 0.13689047 0.32638705 0.011967144 -0.09642995 -0.0034330736 -0.18107568 0.048833102 0.045306947 0.0012814134 -0.12668766 -0.12996693 0.12185307 0.10005342 -0.044287447 0.02764329 -0.2152924 -0.00119606 -0.06490924 0.024970135 -0.07551992 0.113217056 0.04163224 0.00014481293 -0.17257394 0.08697732 0.033554822 -0.028998498 -0.17141601 -0.099466965 -0.1430298 -0.047340874 -0.06176517 -0.0014674363 -0.16840717 0.092572406 0.23191623 0.030803733 0.06299924 -0.06472182 -0.003381514 0.058859605 -0.021758841 0.1334346 -0.10443282 0.045618325 0.0020133327 0.017520126 0.013540578 0.033944063 0.006171905 -0.03315058 0.15716586 -0.15603617 0.18540548 0.13566415 0.03397109 0.061039828 0.037969243 0.20302354 -0.015172844 -0.02905999 0.07233767 0.21459173 -0.019560743 0.08750461 0.009956277 0.056706 0.16545792 0.087588795 -0.10494265 -0.07856543 0.0017516025 0.14240298 0.08025005 -0.0076435576 -0.03478063 -0.08615305 -0.08645811 -0.16388229 -0.0654963 -0.04733416 -0.026756195 0.18200122 0.092247374 0.10438483 0.07609131 -0.060939085 -0.1368072 -0.033175245 0.102348916 0.019127632 -0.076914914 -0.0063988115 -0.0076656286 0.09182774 -0.024910985 0.04413496 -0.037853956 -0.007126294 0.011497112
2 -0.0013780852 0.065095045 0.16399309 -0.16894495 -0.0639713 -0.15349564 0.0069385557 0.03111479 -0.051930927 -0.056012593 -0.14786725 0.2558637 0.10830774 -0.12440938 -0.09028715 -0.06145995 -0.105710566 0.040390335 -0.008435227 -0.15653294 -0.0038893102 0.075493276 -0.0497125 -0.049667504 -0.07804263 0.054044772 -0.077425756 -0.0889694 -0.07317612 -0.008662526 -0.021375734 -0.06065282 0.05201552 0.026131893 -0.015563382 0.24590904 0.118407786 0.080963805 -0.10889811 0.07013127 -0.035777334 -0.037485503 0.07774963 -0.035665262 -0.072452314 0.07103312 0.11252907 0.066440985 -0.069011725 -0.087567404 -0.06458212 0.063529216 -0.22096263 0.0879778 -0.111143336 0.08345219 0.110336944 0.056466978 0.094455145 0.03750149 0.11178966 0.098929994 0.06987668 -0.17285669 0.18485765 -0.12417064 0.0677748 0.08931354 0.09166075 0.0747311 -0.12897506 -0.1336856 0.051862586 0.12914799 0.110569514 -0.056330908 0.046622187 0.18089366 -0.16803683 0.041002527 0.08859394 -0.15646137 -0.1428279 0.084344156 -0.052901722 0.17109995 -0.011179254 -0.080981486 -0.07905532 -0.023046764 0.04622928 0.116375804 -0.08815935 0.025564447 0.16801405 -0.038484972 0.10378952 0.009802186 0.011928637 0.01747194
된 -0.094830796 -0.14443415 -0.13313444 0.040637586 0.04672006 -0.24753211 0.08956264 -0.082179 0.025538724 -0.14316252 -0.11089173 0.06230905 0.05291363 0.016143076 0.03623715 -0.19057141 0.0028260262 -0.1740785 -0.086037755 -0.033484902 0.14170699 0.14757702 -0.0129987635 0.07294681 -0.0075602275 -0.16147539 0.006633525 -9.0510766e-05 0.12172847 -0.023740124 0.059310958 0.037970435 0.16000597 0.045712855 -0.11807911 0.14361629 0.059640672 0.01627444 -0.039648134 0.18328561 -0.17654353 0.04630335 0.085494354 -0.062059958 -0.09007063 0.1078295 -0.065604635 -0.055259775 0.06767947 0.12408699 -0.037273664 0.004379307 0.09322737 0.10712566 -0.007164311 -0.19669083 -0.00507505 -0.16613634 -0.013245125 -0.1887626 -0.010435112 0.0964853 -0.022450887 -0.10652868 -0.0067256424 0.10421385 -0.039968684 -0.057062972 0.05576507 0.22601037 0.05907342 -0.03920537 -0.12670197 0.07917256 -0.10837175 0.0639575 -0.16294117 -0.012501155 -0.041795854 0.119693525 0.09357188 0.054739665 -0.009807254 0.04863038 -0.05467714 0.11161484 0.14295372 -0.0058966232 -0.1635121 -0.06997014 -0.027513687 -0.12166122 -0.0291541 0.016509105 0.018586682 0.060392033 -0.009464456 0.16039434 -0.18957298 0.06247035
에서 0.02199012 0.009790224 0.020992847 -0.02453905 -0.034799557 0.00395897 -0.0246558 0.038093798 0.00015515921 -0.15664597 0.043170046 -0.01757409 0.07892469 -0.022473611 0.07955957 0.181035 -0.075989805 -0.055994697 -0.052687958 0.0051369187 0.1971536 0.047225546 0.011301575 -0.022475634 0.043502435 0.012433434 -0.032886233 0.20378721 -0.018766914 -0.17106205 0.012119405 -0.042200655 0.21790698 0.023551572 0.03311897 0.27848107 -0.07721864 -0.20594345 0.010270613 0.021260267 0.11208801 -0.095062256 -0.10137727 -0.047342412 -0.035224684 -0.15956119 0.08780014 -0.021697901 -0.1206197 0.08714386 0.15996288 0.093556374 -0.13134937 0.03072488 0.059469234 -0.043894257 -0.12261755 -0.03178783 0.0220636 0.14355786 0.028742535 0.26324627 -0.0073559736 -0.08192264 -0.019076576 0.049766492 0.021176498 -0.015886554 0.10021252 0.009212202 -0.22453211 0.1351572 0.05563441 -0.05198072 -0.08057119 -0.17244893 -0.025165075 -0.008791064 -0.16945133 0.021197949 0.10427608 -0.07570943 0.15898187 -0.029699303 -0.042841215 -0.06708397 -0.23108625 -0.057206046 0.015311426 -0.0020283575 -0.17201193 0.085569605 0.08166493 0.10540721 0.045937713 0.1271802 0.07715556 0.07491878 -0.09094984 -0.032083694
했다 0.0703337 0.17179115 0.11427177 -0.1085344 -0.06344754 0.23786928 0.04211686 0.009395899 -0.052010838 0.08755776 -0.17023717 -0.04792151 0.03200553 -0.033396173 -0.048252553 -0.08645315 -0.10131 -0.086194985 0.012849204 -0.123618074 -0.21689954 -0.13474172 0.05133414 0.01462122 0.14058848 -0.002895698 -0.045741208 0.055479098 0.08405331 0.0033938058 0.08326724 -0.16558997 0.15293914 0.012738996 0.039066758 0.06314167 -0.17990789 0.12832853 0.1281259 -0.0016798486 -0.18324777 -0.0057222783 0.08213489 -0.016388685 0.040866353 -0.015298964 -0.08984079 -0.2282775 -0.19871525 -0.049079318 -0.14281428 0.04985427 -0.05963611 -0.07394136 0.038774054 -0.038893264 -0.18527184 0.053077146 0.042159844 0.004966302 -0.13704142 -0.12947406 0.14752987 0.077513546 -0.104141526 0.06241089 0.20529725 -0.022934215 -0.039889432 -0.025358122 -0.03839284 -0.03848365 0.046827458 0.031883046 -0.12575564 -0.08343515 -0.08123964 -0.010552296 -0.0133462045 -0.10482624 0.173963 -0.012932547 0.011090918 0.20009153 -0.114180006 -0.044272672 -0.058629006 -0.13125409 -0.07726968 -0.069068335 -0.16715114 -0.013604904 -0.08203508 0.019720843 -0.019546194 -0.04173366 -0.08461884 0.09018425 0.04387954 0.05405049
지역 -0.11792534 0.116606705 -0.046575677 0.017818673 -0.13545504 0.08083273 0.016370758 -0.060372263 0.09963704 0.013573329 -0.06463651 -0.023006544 -0.23725736 -0.1493416 0.115031995 0.02095632 0.20707229 0.035855073 0.011717406 0.029788608 0.031215405 -0.0087524615 0.037408523 -0.06669986 0.13173257 -0.004367296 -0.17204139 0.116000585 -0.10064366 -0.16302529 0.060205884 0.0678769 0.2323189 -0.04201201 -0.27008113 0.08575248 -0.07474033 -0.18873174 -0.031800445 0.0040407614 -0.050103165 0.033170704 0.0003423155 -0.0035939128 0.016555917 -0.04337244 -0.08753598 0.039622 -0.06446027 0.13932616 -0.02333873 -0.059878994 -0.10140758 0.013897849 -0.016073389 0.060701653 -0.12493405 0.10342687 -0.03502833 0.012040799 -0.018453281 0.10266784 0.057527527 0.28224298 0.20389205 0.16383058 0.08688284 0.021966213 -0.10029552 0.065932244 -0.13284402 0.123487085 -0.05400667 -0.036324162 -0.13446428 0.021731602 0.011034857 -0.13750719 -0.058900855 -0.106350146 0.07187071 -0.058698457 -0.13176017 0.05732266 -0.11512633 -0.0037080976 -0.03672334 0.0093245385 0.09988307 -0.113111675 -0.100101635 0.014942007 -0.073070094 -0.08341711 -0.06376527 -0.095098145 0.12170391 -0.011881373 -0.016190015 0.1476768
모든 0.09928464 0.10774775 0.12346059 -0.073073834 0.05425984 0.10412303 0.003782048 -0.043400854 -0.047350544 0.0847353 0.15568434 0.11126801 -0.13224925 -0.10959803 -0.16907401 0.040727798 0.055179093 0.024160823 0.12039781 -0.20513956 -0.056750305 -0.044386335 0.056377158 0.049426846 0.15211654 0.014689104 -0.072127774 0.102050535 -0.02447247 -0.04291343 0.2043799 0.11304035 0.029661471 -0.103125 -0.16244921 0.021747625 0.09380171 0.0137542 0.15114535 0.110493675 -0.014613632 0.08304127 0.13228211 -0.06560956 -0.008035099 0.043473322 0.12116956 0.12412678 0.12996219 0.058504432 0.036471073 0.016013695 -0.029032888 -0.03816787 -0.23606925 0.031118596 -0.11128894 -0.0435329 -0.0055618742 -0.14425208 -0.09529435 -0.015673734 0.07452883 -0.15938225 -0.021648519 -0.022521608 0.07959644 -0.06828937 -0.112466626 0.10719507 -0.1389366 0.12135353 0.037514396 0.05778232 -0.041791808 -0.05123547 -0.01711395 -0.08297065 -0.087310456 -0.12687853 -0.032028437 0.0006264961 -0.08171487 0.023540137 -0.12803778 0.031322245 0.19732669 -0.048694972 0.04864088 0.16585864 -0.21288309 0.123879924 -0.008589323 0.17132647 -0.08694739 0.16327888 0.039297894 -0.031952616 0.04099196 -0.18517525
4 0.13057016 0.08955769 0.00852332 -0.13408756 -0.22466002 -0.104816325 -0.06474097 0.09154215 0.17554499 -0.0398159 -0.09993359 0.0049685747 -0.08345114 -0.17549998 -0.029368494 -0.009196244 -0.16240066 0.06869252 0.06512507 -0.14107952 -0.18286687 0.08116369 0.0524549 -0.0063859075 -0.09361439 -0.03197313 0.11770345 0.045379404 0.008744877 -0.00499553 0.13384797 0.04253624 0.05999083 -0.072235055 -0.06744729 0.06132351 -0.14433874 0.028309468 0.10013292 -0.08167608 0.045789745 -0.2742166 0.032177065 0.040884197 -0.10890335 0.12499735 0.19105323 -0.075356126 -0.050422564 -0.020058047 0.049650397 -0.17636114 0.08634076 -0.060007237 -0.19569883 0.023366472 0.05129892 0.035776183 0.12550779 0.02304274 0.093184486 0.2027321 -0.13814342 0.08300618 0.072441325 -0.19555254 -0.055085912 0.014167656 0.06432101 0.058018964 -0.15057679 0.00047748873 0.007104057 0.009613506 0.039724275 -0.062246315 -0.061480705 0.06335408 -0.009114381 -0.0050414116 -0.07742823 -0.040635813 0.07924995 0.14726934 -0.08778335 0.009659476 0.1596704 -0.034080178 -0.057576936 0.014923954 0.009192392 0.028126338 -0.08527346 -0.11018254 0.09499023 0.03887117 0.24515843 -0.03188563 0.11198599 -0.046549898
따르면 -0.12050772 0.051749513 -0.1617818 -0.09748476 0.07180431 0.11011261 0.120846644 0.06911894 0.008448749 0.025881492 -0.028229725 0.2070082 -0.052244913 0.011464749 -0.13198641 -0.02663046 -0.17061594 0.10088085 -0.032150622 0.08826324 -0.11638728 -0.005580763 0.036280885 -0.041918922 0.08167389 -0.13757488 -0.12830219 -0.18661672 0.13618384 0.06278503 0.037899885 -0.21421893 -0.18429667 -0.08689358 -0.0032940742 -0.0880788 0.06340325 0.06990496 -0.01965291 0.010256279 0.10896981 -0.051708955 0.13865896 0.07842765 0.030005408 -0.20227617 -0.0368297 0.0005936744 -0.17897886 -0.2425134 0.14499958 0.0068999147 0.023992918 0.037398137 -0.045938265 0.041306376 -0.01609352 -0.010598082 -0.09849938 0.06349797 -0.013793401 0.1119908 -0.18007879 0.08842197 0.03991897 0.063138075 -0.025480868 0.12585145 0.0062484583 0.17101853 0.105452485 0.091644 0.094191805 0.13579686 0.09101923 -0.12021876 0.06647216 0.06539112 -0.09529105 -0.09956547 0.039132103 0.17432624 0.112601236 -0.01810592 -0.085864 0.08918854 -0.07627302 -0.16105568 0.05965326 -0.069052845 -0.16000426 -0.053632334 0.0023324536 -0.07621245 0.04154936 -0.090381674 0.024066016 -0.060469966 0.02069298 0.09615039
은 0.13310546 0.16221139 -0.030714657 -0.11597369 -0.10145648 -0.07404199 -0.018817717 -0.050465718 -0.21438001 0.26275802 -0.04248695 0.0231217 -0.13269375 -0.019001268 0.0034368245 -0.024264272 -0.13025019 -0.09753546 0.15852599 -0.32089493 -0.23071802 -0.21534568 0.017294403 -0.034255687 -0.01928966 -0.0059313094 -0.021879954 -0.08299658 0.030501401 -0.108340755 -0.109395966 -0.09535654 0.16930534 0.075139605 0.09850196 -0.060242306 -0.13331732 -0.017532181 -0.09443487 0.011631578 -0.088120505 -0.17721647 0.045508776 0.09282927 -0.12090649 -0.011480017 0.022867149 -0.096057236 -0.035368368 -0.045998506 0.05122755 0.009687379 -0.11730711 -0.0657132 -0.07569088 0.045745756 0.07769217 0.15870282 -0.01445769 -0.0035707778 -0.05601643 -0.07814969 -0.0099279005 0.14770402 -0.17524716 0.009919585 -0.031323746 -0.11445178 0.055217408 0.01224436 -0.19965497 0.10393898 -0.09903993 0.11159693 -0.013594898 0.10406683 0.13236083 0.0022309406 -0.13758433 -0.06445146 0.016364353 -0.023333104 -0.018135302 -0.023244422 -0.009677754 0.028821465 -0.033767905 -0.07416273 0.036476783 -0.09336826 -0.022453256 0.13645753 0.06822201 -0.08137564 0.12587911 0.0075950525 -0.07515602 -0.025958098 0.030629061 -0.024571182
영국 0.076018915 0.080388464 0.12229725 -0.0456048 -0.07450784 -0.11195843 0.012914838 0.19153357 0.1619278 -0.16692844 0.06507976 -0.17947555 0.19031034 0.079567835 -0.008967123 0.06998256 -0.12474468 0.12101877 0.04635696 -0.024981618 0.06287971 -0.10952332 0.08418555 0.06951149 0.061427936 0.067424715 -0.025411103 0.10159649 0.05568739 0.07269766 -0.03172292 0.045632355 0.21181321 -0.10285317 0.024009848 0.051000606 0.10877946 0.076265715 0.08849393 -0.04502641 0.007317413 -0.044998612 -0.057364397 -0.048166122 -0.049622294 -0.10771424 0.089220956 -0.13843635 -0.047274254 -0.04019724 -0.003254048 0.099064976 -0.026368052 -0.08675232 -0.001053047 0.03808265 -0.15349117 -0.11786209 0.059549887 -0.019995421 0.13822973 0.015336289 0.024123851 0.015584677 -0.19475634 -0.013020408 0.0146962525 0.08010715 -0.11943206 -0.09547012 0.09178566 0.03306863 0.010139405 -0.14122657 0.057320192 0.024294147 -0.009370573 0.14263453 -0.14238697 -0.016327921 -0.05345437 -0.17918323 0.1129747 0.12250133 -0.23807864 -0.22904849 0.07323581 -0.027852586 0.08378268 -0.08781873 -0.15645798 0.11632296 -0.08194846 0.10456694 -0.04196114 0.14505896 0.1211819 -0.1415632 0.121897295 -0.053595286
