2453 100
менен_kir 0.012433997 0.19879168 -0.02398298 0.083688244 -0.02189071 -0.081422105 -0.15043496 0.009556799 -0.083461516 -0.16911685 -0.0421069 -0.21735454 -0.10862954 -0.054002993 0.12475401 -0.004546183 0.022575269 -0.113535106 0.103767954 0.02655517 0.119985566 -0.052908797 0.0005024651 0.1583667 0.102776535 -0.12933542 -0.08415356 0.054322783 -0.07653267 -0.02625447 0.0658948 -0.11495678 -0.08312828 -0.020660996 -0.07407424 -0.067207254 0.047834042 -0.24992582 0.15107147 -0.050822135 -0.17685427 -0.04805846 -0.03235656 0.095488414 -0.08914492 -0.05269703 0.025669454 -0.041180305 0.035678755 0.07873301 0.06081555 -0.15935472 -0.041483883 -0.006509961 0.041153137 -0.027986351 0.106367916 0.0070060133 -0.063298635 0.035301987 0.03382371 -0.10507011 0.045752734 -0.20533687 0.117080644 -0.23602143 -0.040682502 -0.08369422 -0.11876226 0.01011622 0.17968759 -0.039448027 0.017904747 -0.17310849 0.1192015 -0.06290759 0.038177744 0.028748265 0.043137636 0.07106714 -0.18238312 -0.07346327 0.08623855 0.100851685 0.026233412 -0.044547465 -0.059952866 -0.018539328 0.07816882 0.068021215 0.092169605 0.011889498 -0.05053228 0.20836622 0.057575867 -0.04230829 0.17866427 -0.11715719 0.13393347 -0.14346771
және_kaz -0.08269516 -0.023941265 -0.12209885 -0.14005668 0.0710157 0.09443794 0.06730095 -0.013674452 0.16823335 0.13643825 0.16219361 0.060594898 0.048839185 -0.1770059 -0.06961864 0.04926478 -0.0352186 -0.03882842 -0.07009306 0.17102589 -0.13060802 -0.033392034 -0.13062532 -0.09092149 -0.04081414 0.005613714 0.107726775 -0.17507137 0.12514694 -0.056713697 -0.032724954 0.021469576 -0.012710989 -0.039409276 0.24429801 -0.17828912 -0.053546775 0.40480414 0.0043389015 -0.09969484 -0.029457673 -0.084824614 0.031035518 0.07454494 0.010963539 -0.04988976 0.021622788 0.12567154 -0.12650709 -0.06553368 0.11105792 -0.0020380614 -0.03368204 0.122605175 -0.09506792 0.043621127 0.12614125 0.006271997 0.05480344 -0.012789907 0.14838791 -0.0037907637 0.0719974 0.0309279 -0.14880383 -0.027826274 -0.052256994 0.06976881 0.037527554 0.18465988 -0.065547906 -0.058609523 -0.036817852 0.07635871 0.08545728 0.015516684 0.017279001 -0.117189914 0.11336096 -0.024193067 0.10275859 0.18290976 0.008885144 -0.11657581 -0.045528937 -0.027658114 0.11047892 -0.0043315175 -0.07872353 0.17651917 -0.073249266 -0.05004009 0.020599863 -0.10626212 0.055829525 0.05565984 0.03495759 0.07402415 0.040166263 0.07867138
мен_kaz 0.047844674 0.09940571 -0.1270518 -0.099457435 0.01757954 0.21313173 0.057212576 -0.07572885 0.0034580145 -0.06075673 0.15015699 -0.0076587205 -0.10083441 -0.14394382 0.045751683 -0.08217076 0.033248235 -0.15260707 0.085321896 0.20155545 -0.04054563 0.061616514 -0.03283949 -0.004032309 0.11849806 0.052333128 0.14695658 -0.24363989 0.23727563 -0.0573452 0.029533707 -0.05965082 -0.049789034 0.17142504 0.060476016 -0.13839625 0.0036461435 0.18919386 0.015812624 -0.024303222 -0.034475397 -0.1667926 -0.079189524 0.04315901 -0.04230113 -0.16036396 0.23821741 0.08285186 -0.12774964 -0.021464774 0.1140919 -0.02360027 0.025434567 0.013890609 -0.1491035 -0.08477507 -0.007314194 -0.014357452 -0.10249527 0.049509168 0.24794297 -0.09916913 -0.015643762 -0.13200378 -0.14174925 -0.049332436 0.008193645 0.14030463 0.041149158 0.08178494 0.12549236 -0.055536732 -0.06329627 0.022945182 0.0869399 0.105250806 -0.07659444 -0.015565843 0.113784164 0.13511571 -0.033827383 0.11745718 -0.010694823 0.017699158 -0.0097758835 0.031099651 -0.03554151 -0.075492926 -0.041244097 -0.029545613 0.011302315 0.041298427 -0.026683329 -0.11921914 0.10791636 0.0423232 0.078271724 -0.0594255 0.037242316 0.14437763
бұл_kaz 0.2159333 0.09187653 -0.11086366 -0.027293319 -0.03680266 0.36466944 0.15436302 -0.044304833 -0.09504393 -0.003238282 0.013563136 -0.01901236 -0.11898512 0.041083965 0.041735455 -0.018621227 0.060595892 -0.00048986246 -0.10099045 0.12671746 0.03626163 0.13837484 -0.084317245 -0.0023856245 -0.05015415 0.18681885 0.19492629 -0.17301778 0.14695372 -0.08772786 0.031255774 -0.00019319066 -0.05552566 0.028620977 0.07619939 0.053752374 -0.018990148 0.19990797 0.049207546 0.13282606 0.055460077 -0.16191085 -0.08867156 0.00852393 -0.024164211 -0.06523655 0.02935018 0.02325988 -0.06069561 -0.16510597 0.14041406 0.13896774 -0.11430947 -0.0049057556 -0.0090738535 -0.08433033 -0.05194067 -0.0013273339 0.07795273 0.13425496 0.08011385 -0.09998088 -0.10282657 0.12617251 -0.085098386 0.017309574 0.12705411 0.17784384 -0.03803261 -0.11299884 0.071823396 -0.032261234 0.012314603 -0.027138816 0.08737734 0.03134741 -0.029021828 -0.08906689 -0.053399075 0.041366253 -0.04520381 0.089892656 -0.043591775 -0.12270366 -0.11188124 -0.026623607 0.038572706 -0.13201228 -0.17774978 -0.037227616 -0.09588684 0.14202935 0.0148212435 -0.19021638 0.013724545 0.045952767 0.05956011 0.027256066 -0.04637228 0.097052716
бір_kaz 0.14653489 -0.019945351 -0.13122483 -0.22302887 0.08943829 0.06493235 0.17596564 -0.17279817 0.03248129 0.0060469443 0.1501099 0.030120064 -0.0626887 -0.03388748 -0.079113424 -0.21539886 0.07126994 -0.09984441 0.059628054 0.09993352 -0.0522471 0.12055621 0.02037243 -0.078515485 -0.034857683 0.10600143 -0.035773896 0.015348135 0.045718826 -0.07483048 -0.15815485 0.1560969 0.09875377 0.024962937 0.1246554 -0.1411755 -0.15760958 0.16021693 -0.033119 -0.066704035 0.20727758 -0.13400397 -0.017270304 0.015765117 0.11055927 -0.06329657 0.049578898 -0.036259398 0.014355371 0.056151632 0.03189842 -0.03166369 0.022307359 -0.057610195 -0.2845973 -0.03525726 -0.06054707 -0.12439959 0.07250032 -0.00014866263 0.093708105 0.07224155 -0.14032781 0.10539526 -0.07923365 0.12654153 0.079976246 0.10054623 0.08409799 0.032843363 -0.04972149 0.019837415 0.08044018 0.15531804 -0.06734875 0.11559631 0.008142976 -0.08207676 0.06883071 0.054122258 -0.110450275 0.027102465 -0.07513821 0.026409382 -0.10018821 -0.092527755 -0.041991632 -0.109333985 -0.014193884 0.05968636 -0.07424165 0.120841816 -0.070627265 -0.12821698 0.045035355 0.14277762 -0.12436017 0.15480645 -0.11714643 0.056102093
да_kaz 0.06068885 0.13087219 -0.0136559 -0.029283889 -0.038577136 0.16307463 0.12796815 -0.09029866 -0.03784498 0.19729021 0.06743932 -0.10155289 -0.04095419 -0.027542535 0.023909144 -0.03938015 -0.040824343 -0.11794776 0.021741409 -0.050408904 -0.06431594 0.21037401 -0.17614293 -0.04936429 0.02887165 0.059111595 0.097123146 -0.041832108 0.086482115 0.030279519 -0.10438592 -0.03961426 -0.003184533 0.16558233 0.18034904 -0.07883698 0.12722373 0.298899 -0.07415694 -0.034830734 0.07718975 -0.16090275 -0.012741344 -0.07888074 0.08133627 -0.14154351 0.23291871 0.037994023 0.016850688 0.0070601823 -0.053613447 -0.029322477 0.0039141043 -0.0007922433 -0.061504193 -0.13587028 0.012735361 -0.10558401 -0.029680882 -0.018267652 0.09826884 -0.036924414 -0.001184288 0.04004134 -0.19273043 0.11890518 -0.050284036 0.15460855 0.03407309 0.056401867 0.13700029 0.030238554 -0.091923125 0.03106941 0.18377101 0.10371217 -0.10219562 -0.13489868 0.0034309558 0.026184672 -0.0049577137 0.035075013 -0.046243522 -0.075236954 -0.019712629 -0.057736207 0.0646851 0.04321915 -0.28901666 0.030190427 -0.13982305 -0.022191938 -0.013239953 -0.13518761 0.13193302 0.14194888 0.0628572 -0.052067257 0.02752358 0.08193269
жана_kir 0.14718263 0.07492156 -0.0041072853 0.0015247143 0.041594803 0.006439822 -0.21023336 0.003036246 -0.22128539 0.017981 -0.11228662 -0.07053445 -0.07073846 -0.086261205 0.31756043 -0.027022738 -0.12145656 0.110796824 -0.010002736 0.049964435 0.15773499 -0.0589794 0.12823369 0.05964518 0.0950813 -0.14158164 -0.06374081 0.025894463 -0.18677838 -0.042157575 0.10545867 -0.06076912 0.15733339 -0.12022201 0.12554899 -0.006040709 -0.058894817 -0.18765333 0.062301476 0.0030312878 -0.031125575 0.07656966 0.1748248 -0.0623844 -0.1002212 0.11381211 -0.038842414 -0.013827281 0.15774876 0.16297184 -0.06567509 -0.19649485 0.03535497 -0.034095794 -0.097012065 0.14858714 -0.041299537 -0.1366593 0.057318654 -0.08891876 -0.0016160165 0.029807841 0.07724475 -0.10600232 0.06443186 -0.07961204 -0.075715795 -0.071050905 -0.07793918 -0.071589045 -0.011567783 -0.036693227 -0.08933329 -0.10654945 0.117752165 0.0071500256 -0.03490591 -0.001966881 0.046381105 0.02054512 -0.094277255 -0.13335323 0.12752888 0.071374476 -0.007069825 -0.039809737 -0.04607716 0.10325369 0.054485634 0.18214059 -0.09775687 -0.014629953 0.068825744 0.023631366 0.07996724 -0.0094395345 0.07397734 -0.021722341 0.16294053 -0.1319742
һәм_tat -0.102742486 -0.08824372 0.1096572 -0.102568746 0.08262353 0.043388087 0.111769296 -0.10114207 0.030534936 0.028915796 0.022057591 0.0057315365 -0.088201925 -0.14298604 0.07642933 -0.041354895 0.008083803 -0.015571588 -0.08382046 -0.0469718 -0.15071231 -0.08631812 -0.04397605 0.09503518 -0.019432152 0.07721239 0.05313967 -0.14503498 0.1435232 0.09608817 -0.18642494 -0.105856046 -0.114941224 0.11008775 -0.09622335 0.123106785 -0.07360313 -0.061813403 -0.04384706 -0.065088235 0.24600081 0.06698304 0.08823307 0.20876022 0.04114902 0.087356 0.01966738 0.14346176 0.09614689 -0.08936701 0.0012889208 0.30182722 0.1557238 0.012523572 0.037718713 -0.012613524 0.02976039 -0.014570249 0.053808577 0.05610328 -0.06723034 0.1534106 -0.061168212 0.08688327 0.059087686 0.0149039775 0.009962044 0.13830718 -0.05416623 0.13835561 0.13854848 0.10602381 -0.016514584 -0.056777213 -0.050123937 0.0005902937 -0.1862989 -0.07231948 -0.07376701 0.14834581 -0.16158155 -0.22522138 -0.037923794 0.0009546725 0.00033162496 0.034620836 0.14484662 -0.05603216 -0.06796888 -0.007745546 -0.14487357 0.14954998 0.032780267 -0.10404435 0.053333856 -0.1230277 0.09757056 -0.015846923 -0.01411396 0.004626644
деп_kaz -0.002011189 0.11147788 -0.17726968 -0.19690032 0.041494835 0.25405386 0.09563107 -0.100157075 0.08765095 0.031826816 0.059242252 -0.029335797 -0.03006693 0.0037921437 -0.08374355 -0.008035898 -0.11971086 0.07871077 -0.019741917 -0.01843913 -0.058512904 0.21088494 0.03139217 0.026756043 0.007441221 0.19657943 0.07335362 -0.13393174 -0.0810585 -0.034494646 -0.062218834 0.009388981 -0.049545914 0.15144923 -0.021169268 0.11759284 0.15351461 0.34843633 -0.100326434 0.08669618 0.13880956 -0.14107199 0.07438223 0.040493526 -0.041033555 0.07638967 0.24353251 0.03923888 0.0795989 -0.099532634 -0.09751384 -0.0776243 0.019814659 -0.017246006 -0.031607207 -0.17426209 -0.18074924 -0.09007526 -0.005736105 -0.04479398 0.079586826 -0.03388361 -0.09360041 0.08618742 -0.07866242 0.02370975 -0.015671195 -0.0073761903 0.06250694 0.053400505 -0.039841905 0.10472264 0.063576914 0.027935417 0.07761993 0.022245474 0.07339781 -0.13817148 -0.050398827 0.0036083774 -0.05616968 0.1468392 -0.13154186 -0.03394111 0.10148048 0.09371831 0.008578019 -0.10603603 -0.06324311 0.06974254 -0.0575836 0.024482807 -0.00095179223 -0.1600373 0.031604245 0.0427054 0.10409868 -0.065237075 -0.023575353 0.15443175
ол_kaz 0.07871359 0.017536752 -0.19337109 -0.127437 -0.061899953 0.2662755 0.0028708111 0.038119595 -0.09926676 -0.027919723 -0.013097155 -0.15132223 -0.13365576 -0.004260509 0.012392119 -0.03810198 -0.03306522 -0.074460186 -0.04815127 0.057593245 -0.023905879 0.09435408 -0.080487415 -0.14777382 0.02571677 0.10540422 0.23184635 -0.09896585 0.09612262 -0.10421307 0.033559445 0.06634803 0.038599517 0.034492563 0.09884611 0.11150276 -0.0060556005 0.14635846 0.0868738 0.0881759 0.14219053 -0.031209838 -0.013963917 -0.02109053 -0.020474857 0.035364468 0.04414149 -0.012440838 -0.090139806 -0.15812619 0.08880792 0.05014542 -0.07209729 0.005799938 -0.12684341 -0.036130756 -0.033215072 -0.031206185 0.18316323 0.008542445 0.03036115 -0.09159956 -0.10809756 0.16972454 -0.12458666 0.05233873 0.16863947 0.20815364 -0.01536412 -0.11551217 0.10274053 -0.08003473 0.017632013 -0.033012256 0.07943601 -0.030331776 0.030497497 -0.14093156 0.11753259 0.07917587 -0.08461575 0.11789941 -0.14221431 -0.15070191 -0.043165363 -0.015008887 -0.00072014093 -0.0789503 -0.21486932 0.036685865 -0.05821848 0.22263828 -0.01540849 -0.22407071 0.04021263 0.03750994 0.050526332 -0.0063127684 -0.07923973 0.123839945
кыргызстанда_kir -0.10536562 0.07004092 0.10597197 -0.018420657 -0.05027774 -0.17824274 -0.049356725 0.06691101 -0.009559889 0.050196562 -0.109450586 -0.17362717 0.18008439 0.09544575 -0.013736822 0.06394281 -0.18812597 -0.107574 0.08450398 -0.15247098 0.16651517 -0.12052376 -0.043848276 0.048387688 -0.020623624 0.0038344306 0.011461167 0.08961833 -0.19180763 0.09251307 0.013675841 -0.05173332 0.16418892 -0.14858055 -0.08621035 0.20372473 -0.0561204 -0.18167275 0.100532934 0.030836573 0.025966352 0.031399526 -0.04422686 -0.0555433 -0.018103987 -0.1237418 0.12708096 -0.081565075 0.0023047382 0.04548549 -0.16805032 -0.078616515 -0.21793364 -0.11218519 -0.082091354 0.08703599 0.03833016 -0.099521555 0.011178198 -0.14742902 -0.002889511 -0.08497242 0.13046853 0.06171486 -0.04825196 -0.1422773 -0.09559711 -0.19754797 -0.08000039 0.00860576 0.04294404 -0.13878953 0.0405847 -0.16734979 -0.06827734 0.034851957 0.05515031 -0.019028679 0.08501521 0.16927746 0.06343038 -0.008724035 0.0672466 0.11077069 -0.0031361072 0.0016142022 0.13835394 0.17023925 -0.07426876 0.01246664 0.03098765 -0.09321248 0.017185772 0.09727148 -0.10623768 -0.047139406 0.0627205 0.080534294 0.045131754 -0.06528234
осы_kaz 0.07966393 0.11445912 -0.007753237 -0.111702956 0.12533325 0.012105913 -0.022240149 -0.21095313 0.03635692 0.111810915 0.0960432 0.068241656 -0.06497927 0.008725185 -0.16347252 -0.111056864 0.041675054 2.6032727e-05 -0.035246093 -0.03772152 -0.051285982 -0.026003819 0.00170414 0.014103971 0.021902008 0.14167133 0.16882776 -0.30063257 0.13837582 -0.22020094 -0.04902657 0.1045071 -0.020567352 0.15032667 0.021600893 -0.020838438 0.24330342 0.1220895 -0.17856425 -0.012294924 0.10473656 -0.0062102224 -0.03208149 0.0027301868 0.07888743 -0.015058592 0.16193485 0.033734087 0.05060403 -0.040247973 0.021887358 0.069790564 -0.062140577 -0.07568452 0.011745333 -0.07749593 -0.027092729 0.06439085 -0.07120942 0.055679213 0.18430038 0.09454828 -0.08894053 0.055140097 -0.08661169 0.04659186 0.14973938 0.21797048 0.04302409 0.2074711 -0.1316784 -0.05875131 0.034815624 -0.0044376263 0.056718547 0.09582371 -0.06445845 -0.07577206 0.024751157 -0.017334558 -0.06662112 0.10193234 -0.13378586 -0.10700631 0.013331989 0.061851833 0.080702595 -0.09350063 -0.16580585 0.04085206 -0.07907419 0.060418926 -0.0025932023 -0.11759671 0.060820427 0.08033435 0.12014113 0.14420234 -0.053358678 0.073587865
млрд_kir 0.08284922 -0.037805 0.14129524 0.118270166 -0.025848756 0.013544233 -0.08898998 -0.0418783 -0.048620112 -0.102007724 -0.089926064 -0.0077876193 0.04216563 0.03027329 0.03565018 0.034178883 -0.06765646 0.025728883 -0.0062139533 0.053903785 0.08379933 -0.16451919 0.03712293 -0.018249271 0.04117209 0.018550413 -0.04526291 0.19194359 -0.15061292 0.077821285 0.11947539 0.019238567 0.1260158 -0.1562109 -0.014198455 -0.029916875 -0.16796815 -0.07104139 0.092300594 -0.20593393 -0.057530075 0.01726385 -0.023117397 -0.1153521 0.12159612 -0.0533428 0.12891802 -0.17170289 -0.053255465 0.25079387 0.07684205 0.032151155 -0.106719084 -0.21416607 -0.058926173 0.023027295 0.011240278 -0.07381817 -0.027696569 -0.008936799 -0.04338743 -0.15525024 0.2746965 -0.024993185 0.16490558 -0.09049483 0.028611228 -0.094896734 -0.17544663 -0.118551314 -0.04329734 -0.2392891 0.16502015 0.05970353 0.005998545 -0.20274025 -0.06866898 0.050692733 -0.006366855 0.134169 -0.054657582 0.062618755 0.07847714 0.089369394 0.026981775 -0.03022848 0.010528875 0.00042661792 -0.0723258 -0.010755911 -0.029372847 -0.16899337 0.021155497 -0.006925319 0.04124792 -0.022117877 -0.11567393 -0.026763583 0.07043648 -0.13398786
біз_kaz 0.1210613 0.09971669 -0.051953975 -0.18101367 -0.015640024 0.07693997 0.07083017 -0.023859626 -0.04758379 0.022351619 0.055792097 0.12187125 -0.093437165 0.046621833 -0.001149357 -0.027732888 0.061841913 -0.23657143 -0.004075596 0.25623146 0.14767675 0.12492034 -0.047101133 -0.106743224 -0.11519222 0.06489065 0.23686886 -0.050509028 0.11683238 -0.081657894 -0.07777003 0.00041977994 0.11068846 0.06391389 0.15571587 -0.11975065 0.017687993 0.15215094 -0.084178224 -0.013623734 0.08784248 -0.13737096 -0.01203586 -0.06520891 0.14831674 -0.085974954 0.18314657 0.09602371 -0.015447596 -0.12231534 0.06438295 -0.0016570009 -0.0075400844 -0.12345975 -0.0012896843 0.041869525 -0.045901705 9.3579714e-05 -0.17229907 0.011532603 0.17079695 0.0517113 -0.020989707 0.06302444 -0.10261734 0.018501833 0.028506376 0.1106549 0.15457515 -0.13779584 0.03113942 -0.12738109 0.06930402 0.12415817 0.18246035 0.12974082 -0.050779626 -0.062331673 0.06503527 -0.06549282 -0.12921154 0.05709736 0.013128201 0.085351534 -0.046269815 -0.2001271 0.060905002 -0.021867454 -0.11223752 0.034431446 -0.0764809 0.015341824 -0.019740779 -0.1414324 0.04665278 -0.08246827 -0.11548578 0.028883364 -0.12989655 0.00056512177
болды_kaz -0.11135854 0.13185295 -0.067081 -0.1536916 0.009089336 0.07666006 0.021867262 -0.05979112 -0.01881308 0.07322348 0.18187344 0.14388728 -0.18773574 -0.08184443 -0.14883137 0.01787754 -0.104955144 -0.037575707 -0.06264386 0.18308808 0.0114005925 0.058778092 0.024179257 -0.11609183 -0.06345605 0.0023908021 0.17529458 -0.098691836 0.112174995 -0.10227602 -0.2584144 0.0070796213 0.034239694 0.16304667 -0.024269765 -0.09216119 0.1629198 0.21400636 -0.07971759 0.07375651 0.08301645 -0.002163744 -0.10536313 -0.060062416 0.11128522 -0.10139538 0.028223023 -0.13953288 0.08529286 -0.09115351 -0.031156024 0.1029201 -0.060574286 -0.049369305 -0.07347652 0.14604351 -0.12238525 -0.1137984 -0.012423611 0.06594772 0.21884121 -0.022505684 -0.08178121 0.0019994269 -0.11080126 0.034746025 -0.110796206 0.0902826 0.028144082 0.09693122 0.22811136 -0.08825818 -0.13729337 0.15227021 0.11189929 -0.012626771 0.020068439 -0.05417252 0.14509901 -0.1320394 0.0065878737 -0.093117796 -0.06413447 -0.017284798 -0.07042421 -0.03584695 0.046722658 0.0033633981 -0.07322122 0.016827812 0.0024171816 0.053795423 -0.07048004 0.041051183 -0.015527555 -0.019503418 -0.1488115 0.10481076 0.04774261 0.0019554934
иран_kaz -0.06264334 0.1459541 -0.121576235 -0.10309449 -0.029956305 0.076537564 0.015148755 0.10894211 0.041345585 0.15348257 0.102694854 0.06592674 -0.06852443 -0.12313285 -0.033338457 0.09989885 -0.07686359 0.02411747 -0.04806923 0.09013303 0.036041293 0.17464022 -0.074170314 -0.13775648 0.01752678 -0.042726308 0.112793885 -0.10948374 0.13593806 -0.15528588 -0.09192602 0.04368966 0.121238515 0.1117217 0.08401154 -0.051588584 -0.098588414 0.2829351 0.059768446 0.0005738363 0.026643833 -0.081373796 -0.04077713 0.02195065 0.0052100914 -0.10460901 -0.039109405 0.11677463 0.103274055 -0.16131273 0.0007036871 -0.0012284844 0.049523607 -0.05470148 -0.1404579 0.05691111 -0.05690395 -0.13820307 0.15502298 -0.010444516 0.24670175 0.106335774 0.097576685 0.008764537 -0.06803436 -0.23972106 0.06308345 -0.008391689 -0.2261782 0.036210876 -0.0960073 0.060686283 0.066476814 0.059591807 -0.102718785 0.011298498 -0.10557692 -0.11065168 -0.08527646 -0.11233112 -0.08065307 0.013751119 0.049928248 0.012299471 0.03605408 -0.17675464 -0.009606709 -0.20042154 -0.042205453 0.027057962 -0.01854462 0.022787444 0.07104935 -0.07946757 0.038015015 0.16430219 0.042548604 0.15921265 0.021903308 -0.028309938
бишкекте_kir -0.18566507 0.09555561 0.15261771 -0.04345928 -0.08262863 -0.11042405 -0.13713184 -0.024024209 -0.022925789 0.07441244 0.0058610314 -0.15284507 0.06590333 0.03958833 -0.15625222 0.059699103 0.0030146562 -0.02435697 0.00469678 -0.029189626 0.04551954 0.047438584 -0.15202922 0.05111984 0.0057494533 0.0035293282 -0.03353063 0.18460259 -0.1363182 0.0068908227 -0.09216341 0.042158928 0.018102363 -0.15857722 -0.037403766 -0.04923935 -0.03143422 0.07929728 -0.035468046 -0.089892656 0.09022995 -0.043152597 -0.09112759 -0.0026028047 0.011017585 0.075075455 -0.23664477 0.06794522 -0.0003325234 0.16297242 -0.14831132 -0.20724992 -0.026848108 0.15672216 0.069549076 -0.15121451 -0.0069676903 -0.21797399 0.06514471 -0.11828258 -0.1730616 -0.06591309 -0.029159639 0.029695233 0.05674972 -0.053337775 0.04381715 -0.0712401 -0.069820456 0.15173829 -0.023605175 -0.081257105 0.17229226 0.063335046 -0.008512583 -0.1590727 0.1204731 0.088092 0.029118013 0.067650676 -0.058573227 -0.09839944 0.111803375 -0.119003475 0.06651731 -0.08713561 0.07608912 0.036252435 0.23327757 0.16273691 0.07499223 -0.058214962 -0.1962249 0.034682017 -0.022914864 0.010195671 0.073835835 0.019483296 0.062732495 -0.15187848
да_kir -0.026926896 0.22724473 0.13406305 0.16648315 -0.041758165 -0.17051624 -0.05817507 -0.011948018 -0.0963758 0.034518573 -0.105047345 -0.09087346 0.05795922 -0.060586628 0.10852761 0.047188133 -0.022439495 -0.033529066 0.022494946 -0.19932778 0.16952455 0.09358809 -0.07312888 0.12007644 0.087287635 -0.095848784 -0.06853876 0.2596135 -0.20840944 0.101647615 0.11898819 -0.13906878 0.047833305 -0.1197785 0.07320672 0.14239113 -0.02383326 -0.14188242 0.0840322 -0.08784342 -0.014096056 -0.00046558617 0.14457762 -0.045999832 -0.010799345 -0.102122895 -0.007805936 -0.03246928 0.034494303 0.16196188 -0.07848484 -0.09935718 -0.03189179 0.050605197 -0.036189754 -0.028451944 0.07638404 0.0451909 0.097512 0.0022840872 -0.07768579 -0.06350211 0.12848048 -0.1283466 0.0049018865 -0.002264481 -0.19184858 -0.123404756 -0.12908113 0.0029510474 0.04995351 0.067919806 -0.0073948354 -0.08378493 -0.008620897 -0.014346668 0.08121653 0.079669684 -0.039723706 -0.033047795 0.0475967 -0.121336885 0.12052771 0.11648568 0.08851343 0.02890412 0.016693454 0.19916376 -0.11170879 -0.043320294 0.026805641 -0.1373863 -0.1132709 0.17343567 -0.041041426 0.062922426 0.07588014 -0.08794374 0.13796222 -0.108363435
бар_kaz 0.20358473 -0.012536019 -0.13205174 -0.06469013 -0.018129224 0.0342306 0.167589 -0.045861915 0.06026184 0.0730528 0.10928302 -0.04151215 0.04126449 -0.04118645 -0.15312305 -0.08291705 -0.04025224 -0.025772488 0.16862777 0.100834295 0.07119156 0.02456428 -0.039629735 0.06012158 -0.07014544 0.058863316 -0.056607325 -0.19671315 -0.052574694 -0.23825374 -0.20259374 0.039056 0.029465875 0.02268268 0.010281353 -0.20458812 -0.10956093 0.2410713 0.042974353 -0.1430112 -0.013621312 -0.09977888 -0.029649073 -0.008717978 0.18541712 -0.069218904 0.10463682 -0.030939152 -0.016434526 -0.025339484 0.010866887 -0.1408358 -0.002337369 -0.12962116 -0.12046008 0.092378445 0.033910926 -0.022170974 0.011442648 0.041965287 0.12664266 0.0983176 -0.10438955 -0.04025032 -0.11498861 0.06108266 0.0983685 0.060527384 0.060046952 0.0012399426 -0.14139983 -0.04673684 0.012512691 0.07177143 0.11603987 0.13006906 -0.05790485 -0.18148455 -0.11995767 0.08862555 -0.021185258 0.23303148 -0.10851093 0.077414766 0.015427919 0.028817557 -0.07240201 -0.093383014 0.06875789 0.09262478 -0.101255536 0.104584806 -0.06600428 -0.10662836 0.023628967 0.14014122 -0.02893566 0.110138275 -0.13294184 0.07262707
болып_kaz -0.018124267 0.12342733 -0.035913587 -0.05973643 0.0107753 0.22857717 0.22038941 -0.06808803 0.08316025 0.06893462 0.16969052 0.098129205 -0.034502942 -0.050307147 -0.08442883 0.035893135 -0.023334697 0.057241544 -0.11127199 0.12878363 -0.04388616 0.13960858 0.11885216 0.0049116374 0.030332832 0.072531015 0.116691716 -0.09869633 0.03692378 -0.09147285 -0.17039523 0.09680468 -0.08221742 0.086081594 -0.04040274 0.104086034 0.08242474 0.25691447 0.012098869 0.027139938 -0.0039844066 -0.17225912 0.08708281 -0.03007104 0.052991122 -0.066753164 0.10491252 0.09599128 0.084418625 -0.08106077 -0.024438685 0.02975492 -0.07677598 0.00085050135 -0.20206085 0.08884906 -0.10156974 0.044661563 -0.03957953 0.22922301 0.14906634 -0.044360317 -0.15972808 -0.16002071 0.036850188 0.11368931 -0.10231414 0.11243996 -0.14092204 0.07463747 0.053506862 0.10093393 0.009939438 0.04159258 -0.051466834 -0.012027675 -0.041563734 -0.0072733173 -0.037874456 -0.0045756116 0.052783195 0.03634161 -0.13539147 -0.18585236 0.17886454 0.07360893 -0.08659965 0.0005587516 -0.22984484 0.0051811333 -0.05369033 -0.02739975 -0.08647385 0.04508517 -0.017239714 0.05985651 0.015405767 0.1301469 0.011146649 0.12426221
боюнча_kir -0.006155941 0.006645217 0.037757173 -0.06555129 0.017052772 -0.107240245 -0.09589107 0.17708921 -0.20877172 0.11213744 0.0073185894 0.04850276 0.07521521 -0.18980333 0.13968763 -0.056777522 -0.14337048 0.053341284 -0.010914171 0.0008738339 0.08820217 -0.07841102 -0.031594746 0.06675799 0.12699993 -0.22013226 0.07914332 0.1520887 -0.102477595 -0.008216161 -0.06563714 -0.11686438 -0.04930228 -0.16613612 -0.19655456 0.1924804 -0.01774307 0.036562093 0.10090924 0.09549063 0.111433156 0.048924692 -0.027397798 -0.014618455 0.04075601 0.12059639 -0.14337885 -0.022753764 0.08208468 -0.05171733 -0.1414752 -0.13264763 3.6100824e-05 -0.050734553 -0.07007692 0.2105877 -0.061789848 -0.07126153 -0.022427976 0.034495007 -0.032584097 0.022616029 0.11282355 -0.09782796 -0.030105107 0.12053399 -0.026643788 -0.15600637 -0.09138453 -0.031293437 0.03432488 -0.033793513 -0.07903163 0.051062774 0.05853135 0.12687407 0.06334208 0.12934172 0.19284873 0.07445952 -0.008638022 -0.19941755 -0.064930074 0.069654636 0.10541596 -0.021986337 -0.010277156 0.1464874 0.2030788 0.10081694 -0.09047992 -0.022627627 -0.023023041 0.14171681 -0.08008773 -0.060231406 -0.018909745 0.002236302 0.14179091 0.05587609
ж._kaz 0.02974756 0.013182665 -0.08159614 -0.06738876 0.0014025175 0.10913929 0.06379337 -0.054314822 0.14006853 0.07371796 0.11951045 0.021020813 -0.123187214 -0.27443787 -0.06862816 -0.08735395 -0.036214966 -0.1476944 0.01564206 0.080843136 0.0005822376 0.1418967 -0.10106385 -0.047693655 -0.10209302 0.074142024 0.16219278 -0.031874567 0.12820543 0.0020375694 -0.13491492 -0.022733336 -0.036850836 0.032572016 0.11595297 -0.025525115 0.03452802 0.15684421 -0.025866244 -0.06792552 0.023544379 -0.13459428 -0.12047005 0.0016163015 -0.09965973 -0.004984269 0.15162434 0.01988086 -0.065622866 -0.11792472 -0.0187647 -0.015080275 0.20874804 -0.1182186 0.04765839 -0.14035746 0.03396925 -0.05982334 0.048293777 -0.031509623 0.23825912 0.085176624 -0.055202287 0.10390395 -0.12911952 -0.0775485 0.031262446 -0.12795648 -0.034657057 0.007647075 0.054326084 0.025738703 0.009225293 -0.02414229 0.015663067 0.09968505 -0.07402379 -0.26948366 -0.08406354 0.0072594197 -0.07621616 0.21121092 -0.054940008 0.12426515 -0.01976546 -0.26411882 0.10118032 -0.23487642 -0.007263239 -0.037076592 -0.043448962 -0.05841924 0.114076294 0.00523292 1.77558e-05 -0.022111962 -0.032391798 0.09706812 -0.10352493 0.007143976
де_kaz -0.064680256 -0.02304036 -0.15592647 -0.18088478 -0.0056965887 0.1431268 -0.053283893 0.031664137 -0.060976207 0.08362159 0.16208975 -0.12727992 0.041266367 -0.06865886 0.032600332 0.09123208 -0.076397896 -0.025727727 0.009137542 0.0072708987 -0.17706344 0.09515268 -0.042119365 0.048718806 -0.063947685 0.071532056 0.060927387 -0.13367037 0.09901004 -0.033969928 -0.15326215 0.046780583 -0.12235758 0.13338855 0.074848406 -0.070112936 -0.050385978 0.33675092 -0.047826212 -0.014508694 0.10501914 -0.25853482 -0.022710536 0.079961374 -0.040038187 -0.050143745 0.1271623 0.083564006 0.06957533 -0.18248446 0.00053766347 0.044416185 -0.019700395 0.19093001 -0.010714828 -0.11384924 0.10577889 -0.12835346 0.04256179 0.051808625 -0.060445253 -0.047868747 0.014713751 -0.002248256 -0.122563444 0.00053610024 0.010528249 0.017062318 -0.03631452 0.07404887 0.008232543 -0.013783965 -0.030982008 0.07753438 0.1919849 -0.06079465 -0.011618448 -0.29751214 0.04898443 -0.032573834 -0.081920624 0.23363893 0.06994154 -0.1267358 -0.04909947 -0.040665712 0.13481075 -0.13217564 -0.02106965 0.0131982155 -0.024114812 0.124128066 -0.05605912 -0.10014709 0.04325586 -0.0011643907 -0.036630027 -0.03098752 -0.06247669 0.047255762
ош_kir -0.06949778 -0.11023366 0.014651496 0.14351335 -0.00566618 -0.052602235 -0.07848609 0.14044082 -0.109167285 -0.27601367 -0.04313958 0.010788948 0.06707764 0.08662307 0.069897726 0.05298204 0.02564397 -0.012119546 -0.002848595 -0.10603156 0.039531164 -0.083509795 -0.03236047 0.13628484 0.044868033 -0.06286101 -0.11281641 0.048573036 -0.32424763 0.15585734 0.06092656 0.12568226 0.005753536 -0.21849616 -0.15406126 0.020974314 0.06407515 -0.15768352 0.098450325 -0.12977807 0.040853154 -0.025817178 -0.054005492 -0.09901028 0.008933405 0.067586064 -0.10437442 -0.009477234 0.066439636 0.0593831 0.07217386 0.002593277 -0.014974307 -0.07139268 -0.08470632 0.14385071 0.03627505 -0.028994512 0.0058037085 0.028238308 -0.18780445 0.11049641 0.08903542 -0.020713435 0.13694097 0.032977767 -0.12973003 -0.13374849 -0.16725607 -0.039577786 0.012974659 -0.10211379 0.08360368 0.05144586 0.046234358 -0.06639608 0.08209795 0.13855669 -0.10261472 0.03560505 -0.05048451 -0.13712803 -0.023868399 0.1911129 0.038665038 0.10613073 -0.04016038 0.064706855 0.17266434 0.1305285 0.037219465 0.015130384 -0.08052358 0.10743848 -0.13643162 -0.076568656 -0.13408661 -0.052155513 0.07088554 -0.08905229
үшін_kaz -0.10961276 0.03925577 0.12028917 -0.09312384 0.0103703905 0.13654675 0.022889398 -0.110770576 -0.024919288 0.0946118 0.1368614 0.11693703 -0.06056236 -0.07504434 0.045436937 -0.0110616535 -0.03450388 -0.012534523 -0.0009972762 0.07372207 -0.09383457 0.2096464 -0.23464574 -0.013854086 -0.053795457 0.103440106 0.038536333 -0.20353957 0.19274274 -0.08045346 -0.10183713 -0.0067695607 0.07335592 0.24587701 0.015650231 -0.011091444 0.063114025 0.2686365 -0.026845189 -0.0096099265 0.10501413 -0.03450882 0.013085627 -0.08148717 0.041087314 -0.08080893 0.26836655 0.19170058 8.281007e-05 -0.17050777 -0.106637634 0.081880964 0.10444308 -0.20638609 -0.039583296 -0.04021302 -0.031836297 -0.07985945 -0.07445482 0.08080511 0.07722069 -0.031444486 0.029451722 0.04217657 -0.046406947 0.007923693 0.06423076 0.11372576 -0.053012785 -0.07996453 -0.24458899 -0.0456729 -0.058130443 0.09845451 0.08252804 -0.007883916 -0.073202975 -0.02763973 0.078946985 -0.020117559 -0.047962893 0.066378705 0.10283727 -0.07921856 0.015080058 0.13797735 0.022324463 0.005536806 -0.024453241 -0.054188404 -0.0126866605 -0.042412415 0.0825529 -0.1781935 -0.036259074 -0.12978932 0.025515782 -0.034336716 -0.06683758 -0.07684363
жоқ_kaz 0.085767806 0.052378595 -0.23308165 -0.3054283 -0.041228116 0.19462226 0.07250505 -0.025008192 -0.045428064 0.06637763 -0.050053716 0.084398195 -0.0003869115 0.08188689 -0.025779534 -0.119660944 -0.19701178 -0.071918525 -0.15070492 0.05029601 -0.0123446 0.14931668 -0.07649559 -0.10908281 -0.083384804 0.11464914 0.105635494 -0.047969416 -0.040705446 -0.11842037 -0.2299268 0.040851504 0.09707821 -0.04542444 0.13605124 0.058500424 0.069264576 0.10077285 -0.057459 -0.066574864 -0.077862844 -0.12516417 0.13544516 -0.021833906 -0.00047765582 0.071513094 0.10880813 -0.040480986 -0.054997884 -0.14913428 -0.023805004 -0.0026232074 0.009666414 -0.10164565 -0.03530755 -0.039531086 0.001255893 0.018759402 0.062177446 -0.048073903 0.046822228 0.089825064 -0.18411632 0.15478812 -0.08029519 0.124366924 -0.0033139961 0.11141752 0.054797683 -0.017979486 0.016737726 0.034227427 -0.06945998 0.009486898 0.17790478 0.017405935 -0.11290655 -0.18394172 -0.068676785 0.014691317 0.013388426 0.07864763 -0.15990432 -0.04354183 -0.08914488 0.14505084 0.034063112 -0.067567445 -0.024890907 0.0967719 -0.2403731 0.124295816 0.04701532 -0.037551247 0.04460789 -0.030865122 -0.034314867 0.095118724 -0.14172933 0.027162729
қазақстан_kaz -0.10353775 0.18247704 -0.07154807 -0.062006306 -0.062810324 0.16084586 -0.011888385 0.028322589 -0.040834308 0.058633514 0.046737183 0.09249718 -0.049208708 0.07411274 0.06774203 0.16017216 -0.037719302 -0.010135212 0.058820236 0.13057932 0.1924722 -0.015654432 -0.033089384 0.06504669 0.13370977 0.008673633 0.16880628 -0.23740235 0.09650137 -0.021973155 -0.18094636 0.07407535 0.06126648 0.26859036 0.060732465 0.0663394 -0.07298911 0.122572854 0.06660283 0.09687016 0.04738076 -0.24078332 0.014476037 -0.024062587 -0.047005977 -0.15179077 -0.00567257 0.1696198 0.06820606 -0.069127254 0.053435877 0.16387555 -0.11978753 -0.017723575 -0.08178885 0.024252377 0.006705854 -0.11125407 -0.11110527 0.156573 0.13841005 0.024513658 0.14622894 -0.037286147 -0.057164174 -0.043996062 0.02939739 0.08462413 -0.1421949 -0.011796138 -0.10524739 -0.024330456 0.043877233 -0.024276383 -0.12308745 0.19478972 -0.10333449 -0.08192 -0.13270155 0.023468485 -0.02841437 0.122389235 0.11707329 0.025519792 -0.025086604 -0.023824047 0.08444293 -0.06263976 -0.095885456 -0.07276518 0.058724817 -0.07999894 0.05942282 -0.19700578 -0.06737247 0.011971785 0.00095719745 0.02407194 0.07586432 0.06440722
не_kaz 0.016263472 0.024601556 -0.14212798 -0.17581375 0.11929544 0.18463136 0.05156874 0.013362382 0.02943525 0.06809058 0.2486678 -0.059699092 0.07381912 0.011297014 -0.037283055 0.035493735 0.011729105 0.013706794 -0.07411887 0.0813703 -0.087312855 -0.07066433 -0.05437733 0.00035417185 -0.11019758 0.078739546 0.123673424 -0.19001047 0.053505402 -0.056667708 -0.14880045 0.09793036 -0.043606244 -0.029208936 0.06298673 -0.1346313 0.0071559707 0.3096778 -0.040595006 -0.041325677 0.0633378 -0.08706966 0.03488417 0.17728746 0.069761984 0.025261357 0.1283509 0.0710623 0.000980017 -0.0044122995 0.04448408 0.028018668 -0.105331875 0.10950953 0.046483 -0.0063972897 0.04184049 -0.08716219 0.064357564 -0.022648662 0.014835406 -0.00956996 0.05599383 0.118037395 -0.10298012 0.0017590715 -0.002379441 0.08462125 0.017896406 0.125564 -0.027610296 -0.05899174 0.027366852 0.11652993 0.2232438 -0.007027408 0.027263843 -0.18139434 0.0708251 -0.02931841 -0.1385578 0.25551444 -0.009331061 -0.16830713 0.010740895 -0.038468253 0.13499652 -0.008935466 -0.12107969 0.21784578 -0.12920079 0.03835492 0.016361963 -0.1865847 0.10880457 -0.055844102 0.047190927 -0.0047610695 0.031641304 0.13812466
кыргызстан_kir -0.114486925 0.055194188 0.018258752 -0.088079594 -0.09985164 -0.21390109 -0.18795079 0.24990253 -0.013392334 -0.03267269 -0.027774788 -0.10552218 0.09745088 0.0723149 -0.009443579 0.1574043 -0.15637518 -0.08555749 0.11377372 0.0040852004 0.17760737 -0.14605513 0.0092791505 0.020209927 -0.036881045 -0.017591279 0.02446293 -0.037860025 -0.17142949 -0.063219875 -0.11939223 -0.031952683 0.100090824 0.0058732154 -0.14592926 0.18255651 -0.13815087 -0.17575309 0.17349719 0.09664175 0.015379269 -0.008055866 -0.029725771 0.057466798 -0.071596116 -0.06069986 -0.15393911 0.098760866 0.070325956 -0.030573117 -0.058882453 0.010134525 -0.19260035 -0.11567316 0.0020706335 0.097259745 0.03989784 -0.09835745 0.08563235 -0.041316077 -0.034549087 0.031046076 0.24112296 0.038058225 0.028693527 -0.20722462 -0.008161679 -0.13590345 -0.120750755 -0.029586172 -0.04010745 -0.16908896 0.11538115 -0.19046363 -0.17641512 0.056970697 0.031909294 -0.02951903 0.040788453 0.019433316 -0.08185106 0.025105426 0.073412135 0.10252931 -0.0027288445 -0.077317104 0.09100684 0.022347875 0.047839295 0.06017186 0.01865281 0.02705944 0.08355777 0.004994717 -0.03560487 -0.09358358 -0.03124233 0.016419634 0.046038687 -0.07436476
жок_kir -0.090045854 0.11032898 0.028606206 0.10850153 0.123607 -0.124857835 -0.25885496 0.0038953992 0.16855311 -0.10476037 -0.058961533 -0.021609204 0.040755704 -0.0040592514 0.041188758 0.048461355 -0.028048653 -0.015579291 -0.012159841 -0.13777174 0.032211836 -0.07964756 -0.048749354 0.11618816 0.018706992 -0.08970484 -0.0485227 0.13535663 -0.1533283 -0.0042049857 0.04453694 -0.1256063 0.06390629 -0.29996285 0.070357725 0.026664454 0.124382265 -0.09199067 -0.030627064 -0.059870128 -0.054255772 0.013817876 0.12512252 -0.059197783 0.07776016 0.1111888 0.024222387 -0.075355075 -0.0070882575 -0.03810909 -0.04092316 0.07660815 0.11389391 0.029811515 -0.0038166093 0.26667842 -0.0026192497 0.039218783 -0.0017646467 -0.17529598 -0.06846647 0.18082823 -0.14859895 -0.07835535 0.14936635 -0.1931707 -0.022181734 -0.008960362 -0.15554649 -0.008159654 -0.02324722 0.14700595 -0.022187836 0.020541972 0.021736287 -0.03193686 0.06366548 0.019431015 -0.04925295 0.009697821 0.024624215 0.022787165 0.06713222 0.055642787 0.022011044 -0.068356685 -0.17771305 0.23810427 0.016200753 -0.0061292145 -0.10777266 0.0417768 -0.010219792 0.17268626 -0.07510017 -0.22094168 -0.017130734 0.039611388 0.000800537 -0.14597495
үлкен_kaz 0.124746054 0.08063196 -0.08753857 -0.024123425 -0.029326992 0.21875043 0.07027491 -0.06500508 -0.05485004 -0.15942025 0.121166006 -0.01682111 -0.10253227 -0.15038665 0.098503664 -0.06090108 -0.010771732 -0.10551837 0.08722514 0.15763375 -0.011548699 0.015856447 -0.0888707 -0.07433512 0.03055661 0.11221073 0.08035669 -0.2505274 0.14624073 0.060928047 0.0675499 -0.032969154 -0.023356365 0.0667902 0.023703746 -0.16045664 0.009050321 0.20977207 -0.030261377 -0.14582601 -0.12438733 -0.22851187 -0.029789714 -0.021945529 -0.027746677 -0.06806775 0.250555 0.12574404 -0.06322373 -0.005048278 0.004045264 -0.0607056 -5.702086e-05 0.083548985 -0.15857889 -0.061354566 -0.021756988 -0.023744084 -0.116753675 -0.014105656 0.20243095 -0.08113713 -0.038905773 -0.017810531 -0.09453224 -0.07107835 -0.06770533 -0.013670139 -0.037974425 -0.06259162 0.12673493 -0.11850422 -0.08119946 0.08636191 0.09837194 -0.025600094 -0.08869503 -0.0385922 0.15899718 0.15556265 -0.0683494 0.077171534 0.02783826 0.043131605 -0.15769151 0.07709737 -0.12992835 0.01356161 -0.01185029 -0.06411748 -0.029749518 0.008318998 -0.116332114 -0.12396311 0.18194458 0.086715266 0.041274257 -0.06941975 0.06715295 0.08957846
кейін_kaz -0.19001637 -0.07672569 0.03056084 -0.14806116 0.0068234648 0.036019217 0.03329741 -0.15471108 0.033484083 0.0073864264 0.06305476 0.1168511 -0.04195043 -0.1993026 0.025524445 -0.22388922 -0.08260961 -0.011074848 -0.004892445 0.14477263 -0.2073037 0.10492795 -0.1601478 -0.12020532 0.049595583 0.123768225 -0.026919302 -0.22503549 0.17808579 -0.09833245 -0.0006639201 -0.06398298 0.01460371 0.0119902855 0.06421715 0.054579187 0.055788163 0.11122153 0.020724291 -0.11098896 0.02414466 0.11673061 0.023833936 -0.12111989 0.04565735 -0.067622796 0.15242732 0.16683097 -0.024132753 -0.111014746 -0.095516354 0.047893375 0.17111468 -0.24479358 -0.17682584 -0.052963324 -0.10125416 -0.06483736 -0.04388851 -0.0016956455 0.11832605 -0.020301118 0.04571062 0.021264808 -0.05552491 0.04383216 0.12539792 -0.06691754 -0.107557304 -0.09326481 -0.17467692 -0.106253274 -0.094033375 -0.07260679 -0.112419516 -0.07548109 -0.08773879 -0.06356693 0.04172726 0.0036284416 0.013471931 -0.04785187 -0.016235773 -0.01644278 -0.07105728 0.22631793 -0.055880744 -0.11160251 -0.06582112 -0.07073671 0.011579467 0.0037867418 0.04177779 -0.023014553 -0.11287813 0.09378324 0.012415027 -0.0124091655 -0.096663296 -0.07901611
алып_kir -0.027520735 0.17376399 0.05111819 0.08497329 -0.06290654 0.0010111773 -0.1417375 -0.10676762 0.12561668 -0.21709952 0.0634599 -0.06199681 0.01519078 -0.019406628 -0.041106652 0.084949076 0.007921708 0.14366715 -0.013397045 -0.05047839 -0.0015191525 -0.12367228 0.1702326 -0.03648293 -0.019425308 0.020201854 -0.07208473 0.049704943 -0.19121172 0.024190905 -0.00215852 -0.060354173 -0.1390299 -0.1975857 -0.021088324 0.17637461 0.04964023 0.022013944 -0.046386007 0.01020384 -0.050394997 0.03336127 0.07516979 0.11702512 -0.004270969 -0.027342198 0.01736969 -0.107538655 0.06874853 0.121338196 -0.10770425 -0.02332961 -0.05404902 -0.021449756 -0.0860277 0.0056635314 -0.12009575 0.10710731 0.0043646954 0.03521195 -0.09144158 0.06803127 -0.061220907 -0.09616965 0.2653342 -0.05223151 -0.121361785 -0.16266565 -0.2412326 0.00743655 -0.0053982446 0.014479847 -0.027230358 -0.07612084 -0.233757 -0.005942276 -0.058149893 0.017152702 -0.07371538 0.03376076 -0.11007515 0.12234495 -0.14333297 -0.07468988 0.25089967 0.03869433 -0.17459804 -0.020726282 -0.027402416 0.008582257 -0.107967794 -0.11342708 -0.11963444 0.19990487 0.118540496 0.07656083 0.045025747 -0.032148153 0.024236534 -0.05347802
мемлекет_kaz -0.052957073 0.076482445 -0.15003261 -0.120242916 -0.019349601 -0.055682648 0.07190465 -0.22653466 -0.04091653 -0.10197349 0.15945719 0.06522306 -0.16434559 -0.1164607 -0.09310916 -0.061175432 -0.060867283 -0.12714249 0.12837358 0.09082921 0.06778246 0.025169093 -0.19840863 0.01138311 0.017435202 0.10872745 0.14696401 -0.11111982 -0.010642449 -0.05232893 -0.018952314 -0.058609936 -0.037921004 0.12242545 0.127244 -0.060611267 0.1067771 0.21419823 0.015645398 0.010893519 -0.008556469 -0.059663065 -0.02714732 -0.075190805 -0.061795942 -0.00966158 -0.058251455 0.030943323 -0.03678846 0.0152375735 0.12946226 -0.013529631 -0.056031927 -0.16947123 0.0604549 -0.10720014 -0.005834953 -0.062150978 0.0026681304 0.12016436 0.061942585 -0.0006096812 0.15128268 0.15420163 -0.15754157 -0.0695637 -0.029534733 -0.15635908 0.109849416 0.07093455 0.025266852 -0.16542406 -0.07225345 -0.18544038 0.029456025 0.1666231 0.07154593 -0.16916516 -0.100359164 -0.14879946 0.17812599 0.08580225 0.013862085 0.034582753 -0.09899042 -0.073531255 0.17850912 -0.1254232 -0.14828686 0.0012166776 0.0117406985 -0.11398611 0.045165718 -0.12854667 -0.112809636 0.062482648 0.01597096 -0.049447834 -0.008531412 0.019821404
сом_kir 0.093241714 0.021024885 0.21233568 -0.18480976 0.058902685 -0.15319349 -0.008500869 0.008006917 -0.06824054 0.0514729 0.013943959 0.051514488 0.2551391 0.0055918903 -0.12350403 -0.035103455 -0.18334013 0.13704453 0.07726971 -0.13043883 0.028357314 -0.005348113 0.031831846 0.04184607 -0.09913915 -0.04570614 0.026879523 0.2111515 -0.09592474 0.0036346063 -0.026270192 -0.065698944 -0.010940205 -0.24202763 -0.020511312 0.10388327 -0.23811613 -0.0149304215 0.17526019 -0.07622296 0.1424176 0.039715886 0.14392439 -0.012464215 0.052389916 -0.032075033 0.19147922 -0.109131046 -0.028301943 0.15176837 -0.16524313 0.104019545 -0.05413723 -0.09106745 0.08722491 0.11735204 -0.00783806 0.044798154 0.20741472 -0.16191691 -0.06820096 -0.022110049 0.1352111 0.11567057 0.030320816 -0.08661818 0.105454765 -0.08946482 -0.07493187 -0.01788495 -0.19631049 -0.0291818 0.022165563 0.0055499263 -0.04186935 -0.004525366 0.037159115 0.03671895 0.01604881 0.019165954 0.038694955 -0.0009798398 0.11693899 0.0028097958 0.09944128 -0.017048517 0.16009155 -0.020088369 0.022888925 0.12166004 0.001924131 -0.0060177795 0.04256851 0.070908375 -0.02775623 -0.1584559 -0.017466215 -0.018040499 0.047047764 0.020260962
еді_kaz 0.027221633 -0.07190423 -0.035163227 -0.07359816 -0.030278837 0.17016214 0.083005615 -0.07573787 -0.1540283 0.081062585 -0.01668012 0.04487234 0.06684295 0.09880507 -0.10810926 -0.031086512 -0.023255438 0.0035697971 0.0587701 0.071923606 -0.06670973 0.12762785 0.08947602 -0.0030734679 -0.046752825 -0.014610081 0.18318386 -0.22445083 0.017720105 0.1153778 -0.09353322 -0.00021062006 0.050518673 -0.027816853 0.17243548 -0.27041537 0.003075522 0.14478977 -0.11410607 0.1226552 -0.06699931 -0.15073077 0.1767256 0.114610344 0.020511894 0.009849087 0.20478962 0.015710093 0.13475816 -0.15389921 0.040885653 -0.02358989 -0.25882208 0.07068141 0.0015561299 0.06707994 -0.07628859 -0.15071514 -0.012973168 -0.11739843 -0.10329364 0.04046539 -0.038676508 -0.055693794 0.019440187 -0.042075537 0.020627625 0.02993617 -0.034300618 0.12710111 0.08798659 0.046895977 0.08200783 0.101548545 0.09385326 -0.12061083 -0.010742984 -0.07495435 0.019959284 -0.013632205 -0.11953647 -0.12820047 -0.0524419 -0.07724348 0.03600954 0.045263715 0.09309284 -0.014662849 -0.04964372 -0.016640669 -0.18817256 0.020917613 -0.02975772 -0.21748565 0.12744044 -0.000643853 -0.049460027 0.20034061 0.045651574 0.11210761
жаңа_kaz 0.06395632 0.103059694 0.004744824 -0.12389975 0.002927429 0.18570125 0.08302586 -0.23277828 0.020420374 0.07936611 -0.057766825 -0.0806206 -0.114576004 -0.055990342 0.07871749 -0.13923655 -0.041066743 0.12896898 -0.0672737 0.16653004 0.03494569 0.039145138 0.0485194 -0.08618294 0.07534205 0.09674788 0.04146391 -0.07295477 0.03360988 -0.08482236 0.022843396 0.08016174 -0.087127976 0.013726636 0.1453654 -0.036081176 0.10668094 0.24117813 -0.028532134 0.084190555 0.22359489 0.04047819 -0.062324297 -0.20624904 0.12848695 0.068712495 0.055975597 0.0521192 -0.017345779 -0.0930335 -0.10917953 -0.15710892 0.09180271 -0.10475499 -0.09122579 0.055004712 -0.10449286 -0.1551649 0.0010334371 -0.032246076 0.2085504 0.07717853 -0.059892632 -0.016862046 -0.09953988 0.05598532 0.095886245 0.15185614 0.10990729 -0.030141369 0.07718294 0.033894237 -0.11054795 -0.03855802 0.11281856 0.19027436 -0.055211514 -0.040358026 0.12372929 0.0073716375 0.09593097 0.08338729 -0.13115515 -0.061989922 -0.07854567 -0.16649228 0.0071650706 -0.0053353664 -0.0896087 0.12437313 -0.04652573 0.002541521 0.04647157 -0.13665923 0.031794526 0.022284575 0.21526663 0.025415324 0.017207323 0.049813107
эле_kir -0.0679938 0.10397756 0.018477019 0.013396246 -0.11275767 -0.1997648 -0.30437037 -0.042503048 -0.08099157 0.06342047 -0.031182421 -0.057751548 0.1072981 -0.098388605 0.006278024 0.1143614 0.08133714 0.017186156 0.037553173 -0.0878357 0.057851475 -0.0067550316 0.037389837 0.19727448 -0.036417384 -0.027572887 -0.016404206 0.08131303 -0.12760095 -0.03788182 0.029650517 0.0035354947 -0.04916274 -0.135545 0.07802674 -0.03145149 -0.11703718 -0.11776055 -0.09328664 -0.10223513 0.11525739 -0.009027241 0.110942416 0.072991155 -0.033473607 0.01760675 -0.12741397 0.063626796 0.049640797 0.06343294 0.019532636 -0.07781626 -0.13859223 0.1486558 0.12955727 -0.17075387 0.24253248 -0.036309145 0.26588002 0.008725625 -0.12282772 -0.10040955 -0.020839551 -0.07848635 0.081296094 -0.09117923 -0.048523564 -0.07027069 -0.09400956 0.062416002 -0.071259096 0.040979408 -0.013189621 -0.0068300795 0.03418461 -0.070805214 0.1178626 -0.037890755 0.0427559 0.008264567 0.059307903 0.21888879 0.13402747 -0.06929737 0.114426725 -0.08978471 0.21869676 -0.08501613 0.052015148 0.011152995 0.09997208 -0.014844137 -0.12825774 0.122886345 0.10278533 -0.116685405 0.11795912 0.01064261 -0.035669014 -0.10244692
керек_kaz -0.08452697 -0.04777336 -0.055062648 -0.2391283 0.01219502 0.04449389 -0.05879665 0.019893132 -0.010370988 -0.08444613 0.061970416 0.12502609 -0.20508711 -0.029937858 -0.108129464 -0.14647856 -0.011649986 -0.088798665 -0.06834021 0.025355874 -0.06653614 0.1530385 -0.1251703 0.05446731 -0.009239157 0.21696925 0.08104828 -0.05344006 0.13073692 -0.12611264 -0.12971252 -0.08201557 -0.012953409 0.018444607 0.12545438 0.021997662 0.11224957 0.23503478 -0.1323917 -0.032170024 -0.020667542 0.09424054 0.019390617 -0.049571127 0.003564004 -0.056466505 0.14594135 0.06623213 -0.1775119 -0.08689707 -0.007570515 -0.081891626 0.099842295 0.10840646 -0.116068445 0.051564287 -0.24033809 -0.09119263 0.044986043 -0.17283006 0.21328858 0.063343145 0.021390187 -0.030350124 -0.06592303 -0.0018020221 -0.027904492 0.12724279 0.0014129549 0.019593956 -0.08743322 0.13929011 0.036890425 0.012604018 0.11896196 0.040657707 0.03044497 -0.12697943 0.12069765 0.02294676 -0.12256886 0.16994295 -0.043965515 0.13656306 0.025796372 -0.06324124 -0.0683268 -0.04186367 -0.08958242 -0.04148728 -0.124134585 0.008635427 0.07472114 -0.169172 0.009034553 -0.06068168 -0.0104327705 0.055107858 -0.10073318 0.14708607
миң_kir -0.05880748 0.022988917 0.12613629 0.030613549 -0.07777151 -0.030711943 -0.070128664 0.02088811 -0.05383215 -0.06692984 -0.039159905 -0.09946016 -0.0049359966 0.118012354 0.024750546 0.11441193 -0.1179557 0.0553333 -0.0017103616 -0.024074642 0.095654 -0.121592626 0.04178115 -0.106597364 0.0015849731 0.047740847 -0.050407898 0.07962444 -0.18719132 0.041251186 -0.09872188 0.03757806 0.13456605 0.0076363427 -0.006743584 0.23761423 -0.13836856 -0.08787079 0.006383582 -0.21519633 -0.089339465 0.09085384 0.13228686 -0.041278303 0.0403437 0.04968838 0.029247846 -0.041625753 0.08111589 0.1763697 -0.027506026 -0.028869925 -0.004678533 -0.08598041 -0.04059109 0.03802566 0.031630475 0.057014477 0.11419301 0.05736914 0.036073 -0.095597215 0.16180278 0.015149201 0.146149 -0.13600692 -0.10304319 -0.21749699 -0.21202274 -0.18208137 -0.017321963 -0.26384166 0.11159851 -0.13778615 -0.034859475 -0.28853405 -0.084194236 -0.058456328 0.00083283125 0.017775686 -0.20793612 -0.069035456 0.0055715805 0.075193785 -0.050785 -0.031803902 -0.055666618 0.09840457 -0.08116252 -0.058816414 -0.013111519 -0.1270132 -0.08075439 0.096591294 0.10444775 -0.060724948 -0.006830936 -0.08294391 -0.052827686 0.019019747
өттү_kir 0.0356506 -0.07181458 -0.060912468 0.021239134 0.02619983 -0.06403356 -0.10455507 -0.08221075 -0.08669446 0.016804889 -0.14175391 0.007697429 0.016829796 -0.044409838 0.08144598 0.08859252 -0.009363935 0.05872385 0.06262782 0.039099485 0.0478145 0.0118740965 -0.051469367 0.17738417 -0.01807366 -0.11014814 -0.021823833 0.17314471 -0.15006791 0.015925419 0.05099241 -0.027140126 -0.06506097 -0.13170269 0.0515434 0.22046882 -0.12846236 -0.047802243 0.13964127 -0.035793386 0.0021921424 0.013516267 0.07552968 0.07446518 0.093279086 -0.010848459 0.025494382 -0.08156495 -0.049359377 0.07015496 0.09437219 0.026716765 0.026283422 -0.030369807 0.15204723 -0.12991458 -0.017131606 -0.08881193 0.008000198 0.047234867 -0.18032369 -0.07898945 0.20578718 -0.015628038 0.048222102 0.1257267 0.01627552 -0.14643784 -0.07721193 -0.0664474 0.00677395 -0.11849483 0.035671268 -0.010245572 -0.018667653 -0.13387266 0.13083299 0.06432433 -0.26975203 -0.07237023 -0.008726247 -0.13985826 0.24918683 0.13833974 0.14985959 -0.02712581 0.12451145 0.062023804 0.08745467 0.057586737 0.10404965 -0.074776985 0.050951596 0.057567663 -0.11914791 -0.09719817 -0.25183696 -0.21834464 0.13942054 0.05669483
ел_kaz 0.12341337 -0.0023994122 -0.10721958 -0.13820948 -0.074200734 0.32536602 0.104633845 -0.031346392 -0.068966344 -0.07028803 -0.04057554 -0.06485646 -0.13570815 0.0704594 0.046369996 -0.10625265 -0.06616505 -0.053504076 -0.13599434 0.19384651 -0.025370305 0.13758822 -0.08412353 -0.14148065 0.008964499 0.115351625 0.26407474 -0.063173324 0.10208786 -0.15350394 0.054900046 -0.122919805 -0.02647171 -0.0049952734 0.126246 0.024055157 0.0012711006 0.15301365 0.017185722 0.111814804 -0.045858454 -0.14481594 -0.050786838 -0.025623027 -0.05039699 -0.04088203 -0.030550638 -0.076452665 -0.03174013 -0.14358819 0.10871986 0.09974568 -0.10793555 -0.07507518 -0.073878646 -0.06720779 -0.08138698 0.0038847167 0.039887723 0.044954088 0.09836236 -0.13376568 -0.16556253 0.023871573 -0.05411896 0.017794836 0.14121754 0.08264531 -0.051165804 -0.10327381 0.1022455 -0.09308301 0.04564079 0.022391152 0.10154953 -0.09105918 -0.027538769 -0.13794655 0.016566386 0.09100855 -0.00923176 0.05256919 -0.14108525 -0.13443752 -0.116502166 0.035208702 0.021155462 -0.15676795 -0.062832825 -0.094013706 -0.1074441 0.20692877 -0.012901391 -0.12830311 0.010507373 0.055718556 0.011699441 0.086984195 -0.11762854 0.030565826
жаңы_kir -0.1155101 0.017545179 0.12999722 -0.028311182 0.08823134 -0.09431289 -0.22638577 -0.091798835 -0.100774266 -0.05985511 -0.08065849 0.03988987 -0.00062283245 -0.0030180216 -0.0074495673 0.11836995 -0.016939297 0.124398336 -0.08890947 -0.07950989 0.20990771 -0.08192353 0.08899659 0.1329383 0.033407483 0.033257272 -0.17515314 0.112483606 -0.2699731 -0.034358904 0.0734434 -0.015253372 0.04550311 -0.27646902 -0.057616748 0.08725441 -0.016933365 -0.21388453 -0.07970909 0.028336398 0.1225512 0.25196606 0.058791533 -0.042982206 0.1408388 0.09772335 -0.05603144 -0.07767531 0.0768833 0.15559655 0.035515256 -0.08369911 0.030056566 -0.09907991 0.014566319 0.06284314 -0.018942825 0.034461055 0.018047003 0.12607537 0.017115278 0.020401988 0.026199847 -0.06877041 0.18108325 -0.029809542 -0.0770389 -0.035523176 0.008978936 -0.005157772 -0.044604283 -0.16424668 -0.03444981 -0.026813934 0.032355424 -0.12519072 0.05390402 0.1745579 -0.012387514 -0.0359364 -0.027757749 -0.079582356 0.058504436 0.059354715 0.016851144 -0.007200945 -0.015483609 0.105087966 0.08596076 0.20092249 0.038459975 0.046716228 -0.19347708 0.1688575 -0.02101856 -0.03545563 0.013742675 -0.01134661 0.0884939 -0.07963393
мен_kir 0.058925245 0.18235159 -0.034711942 0.13992774 -0.06351673 -0.11166987 -0.23100886 0.02838827 -0.033130668 -0.2391443 -0.08918863 -0.104790114 -0.051395528 -0.14619164 0.1270122 -0.021449188 0.08800739 -0.105410114 0.14254175 0.03144626 0.105741516 -0.025709549 0.05252437 0.15215461 0.085473016 -0.03840985 -0.026692979 0.00594266 -0.06990428 -0.01655248 0.15523747 -0.115177184 -0.08474837 -0.012786664 -0.0037671586 0.03436602 -0.059283033 -0.29020393 0.13627627 -0.12015179 -0.09658841 -0.04977555 -0.0013754361 0.07990796 -0.13127148 -0.06744591 0.038014747 0.032191437 -0.06637416 0.070298865 0.10733967 -0.06705728 -0.016114753 0.038855728 0.005172341 -0.05974798 0.15756057 0.11822337 0.029575266 0.02335083 0.0610288 -0.10222383 0.092676535 -0.17337555 0.1075577 -0.19580343 -0.0635391 -0.063074574 -0.097773805 -0.014576771 0.13121031 -0.03723748 0.026559902 -0.16306715 0.005065676 0.015773587 0.060622245 0.09176954 0.068613425 0.085714586 -0.07902513 0.016482122 0.04539434 0.1298904 0.03608661 -0.05117347 -0.08312001 -0.009880321 0.11508635 -0.024458665 0.093449116 0.04353386 -0.04516088 0.21202062 0.05221963 -0.106741264 0.17420115 -0.16913274 0.057246123 -0.07932731
белән_tat -0.050981358 -0.026128273 0.07138886 -0.06521382 -0.036563482 -0.0504323 0.203855 -0.15058146 0.0025716436 -0.045244597 -0.05930113 0.010798393 0.08406822 -0.11776758 0.06780219 -0.078835376 -0.123122536 -0.0999184 -0.02941011 0.024999822 0.0037089174 -0.13054468 -0.050673332 -0.024490956 -0.08533477 0.18470317 -0.088454865 -0.15548444 0.093083866 0.14772533 0.03504712 -0.025746142 -0.04143688 0.095013864 -0.06828067 0.053854734 -0.009823409 -0.08993811 0.08182624 -0.12110174 0.15517482 -0.10543551 -0.09640135 0.062268347 -0.062559776 -0.0120998155 -0.08999169 0.27588493 0.073227674 -0.060516242 -0.14201012 -0.03359865 -0.11707619 -0.09957273 -0.11991666 -0.07124897 0.107523024 0.021141464 0.13857082 -0.03274522 -0.10432213 0.22525021 0.13844638 0.053799763 -0.008480155 0.014417292 -0.054221857 0.1148429 -0.067651495 0.05403217 0.054706354 -0.09238997 0.03746184 -0.114272244 -0.01828279 0.17005934 -0.1209295 -0.06700256 0.13855888 0.03710715 -0.021957789 -0.01159416 -0.043887753 0.22305465 -0.110823005 0.11282594 -0.14103095 0.046113696 -0.18261614 0.031236116 -0.23183419 0.107723914 -0.029237773 0.01639572 0.14835584 0.012016364 0.021232631 0.10760122 -0.007324588 0.046230827
жақсы_kaz 0.06805642 0.14126733 -0.015503198 -0.06803442 0.15960942 0.089060456 0.04940498 -0.1332326 0.009174478 0.13961998 0.02143294 0.046219 -0.035475925 0.055165667 -0.06859725 0.005772942 -0.03112136 0.06602112 -0.03949751 0.04065637 0.026450181 -0.04773502 0.03256509 -0.008196574 -0.07517258 0.10753113 0.12845623 -0.30741307 0.1303007 -0.21767226 -0.034961235 0.094375774 0.080066316 0.048378192 0.038078453 0.019887546 0.17191687 0.08860735 -0.08874049 -0.020728562 0.114322506 0.022448936 -0.06835758 0.056574766 0.054269716 -0.061911445 0.096323706 0.05813202 0.11074352 -0.01891599 -0.07059217 0.024599593 -0.032952517 -0.12808204 0.055802643 -0.06222084 -0.04419061 -0.07647361 -0.051064588 -0.012285184 0.15175918 0.15472169 -0.02908557 0.06532333 -0.09479232 -0.03631484 0.081318356 0.201958 -0.00783023 0.106495805 -0.12822329 -0.14735627 -0.02666072 -0.027284227 0.097310804 0.25752646 -0.16007376 -0.05249698 -0.02372113 0.014361744 -0.18803173 0.091413155 -0.07071474 -0.003993431 0.017524172 0.016025659 -0.0023884648 -0.03582076 -0.13026227 0.14742604 -0.14355364 0.0018871046 0.14593709 -0.1267317 0.15069255 0.14361428 0.1815137 0.15314503 0.071256526 -0.046234783
үчүн_kir -0.118391216 0.020947287 0.08315497 0.14676331 -0.12332545 -0.1044018 -0.13678625 -0.008585662 0.09368454 -0.090720885 -0.08338266 -0.07088198 0.14422837 -0.060953245 0.084970444 0.06814918 0.06752828 0.09282252 0.08542476 -0.02417534 0.08945529 -0.013254371 -0.19461036 -0.039451003 -0.07749912 -0.0014763636 -0.10179085 0.013930977 -0.099100254 0.0022361733 0.07788159 -0.07526771 0.018217577 -0.07962677 -0.101471975 0.08157653 -0.054487158 -0.11957645 0.0067907707 -0.14538136 -0.11034907 0.11764595 -0.0015782533 0.11844178 0.005210315 -0.029480886 -0.038760643 0.011698699 0.07538377 0.015427555 -0.055787608 -0.13025126 0.10073184 -0.040072456 0.12034139 -0.0055698943 0.020169018 0.036805287 0.0044200183 -0.025887849 -0.17090197 0.09604558 0.035679452 -0.053455137 0.1561812 -0.105483346 -0.029450133 -0.18122469 -0.2222184 -0.14072089 0.12471909 -0.05711252 0.063209936 -0.026352372 0.045354493 -0.17940618 0.04584022 0.15467995 0.0074743493 0.039357983 -0.17000796 -0.1094443 0.02686812 0.17779882 0.012568761 -0.030581454 -0.026683671 0.21513845 0.19848774 0.087808765 -0.08543026 -0.07946462 -0.07723913 0.2701805 0.09986382 -0.02366715 0.047479615 -0.14293662 0.045098044 -0.13444576
бойынша_kaz 0.092931524 0.07209358 0.2004439 -0.11250953 -0.0066501787 0.083338276 -0.16389069 -0.08158443 0.0554214 0.18078446 0.0703119 -0.025981521 0.00068588124 -0.1871076 0.018376868 0.07310934 -0.12855119 0.005832802 0.028779382 0.1331188 -0.06611143 0.10145942 -0.08497926 -0.03521706 -0.017216865 -0.0948293 -0.02914325 -0.099236146 0.12423023 0.0074569704 -0.07462629 -0.037805557 -0.04963087 0.16842526 0.17537999 -0.09503503 0.0743754 0.32248926 0.046151593 0.19551955 0.027806092 -0.20323746 -0.050903134 -0.08655862 0.008573464 -0.004149715 0.04510014 0.015968576 0.07701007 -0.11049739 -0.025656225 0.08381772 -0.044152007 -0.13612401 -0.03613168 0.010518325 0.097440004 -0.09914816 -0.031259097 0.13015038 0.0027813672 0.08626626 -0.13555937 -0.0027321414 0.04235789 0.03874445 0.009799971 0.27440974 0.004285383 0.026975026 0.015765714 -0.08583976 -0.12985666 0.054250825 0.066034116 -0.031231971 -0.06266842 0.046355322 0.21284606 0.011964931 0.124469824 0.0031689208 -0.07963941 -0.14220098 -0.05364858 -0.16306831 0.08252297 0.038238745 0.018082688 0.14481975 -0.08523506 0.06296562 -0.07578625 -0.13892156 0.04512585 -0.006373509 -0.055849046 -0.0060217096 0.056327492 0.1212474
жатыр_kaz 0.15008183 0.021473618 -0.34515926 -0.17648561 0.026738992 0.115755536 0.08260598 -0.07065637 0.033150584 0.010387694 0.09653025 -0.04415384 -0.26488298 -0.01799926 -0.0074322214 -0.08287121 0.083157554 -0.09130022 0.015165772 0.14639206 0.015927505 0.07669745 0.0551688 -0.034423973 -0.10301179 0.056914512 0.05890844 -0.20547627 -0.10843168 -0.08154924 -0.15413219 -0.05076838 0.09822041 -0.06211397 0.076801375 -0.1535819 -0.07221786 0.14322278 -0.05807786 0.010402182 0.12888205 0.02473641 -0.053960036 0.05606925 0.15316713 -0.0072020455 0.0003071944 -0.18757352 -0.04908506 -0.035698093 0.09571664 -0.05439424 0.08397284 -0.118679196 -0.14211841 -0.005097272 0.0014181441 -0.09010572 -0.06510245 0.08835432 0.14003944 0.025310086 -0.08925571 0.11264246 -0.04665381 0.015580277 0.060467772 -0.036200844 0.07497416 0.023568263 -0.06013457 -0.09198425 -0.118609436 0.09188145 0.025290253 0.055264305 0.011036 -0.15990774 -0.061963588 0.05050116 -0.20724921 0.019375943 -0.11459635 -0.04634588 -0.134499 -0.10778584 -0.15752052 -0.09349695 0.014130589 0.0779704 -0.07817243 0.073595226 -0.0412119 -0.10094148 0.13347243 0.093815945 -0.06837724 0.09522475 0.0017743919 -0.10532861
біздің_kaz 0.067640826 -0.049272202 -0.0105960015 -0.21214612 -0.022791173 0.08902134 0.0203094 -0.013767378 0.13305642 0.08981062 -0.06593716 0.08341145 -0.17319453 0.06279979 -0.040081788 -0.13180585 -0.092895105 -0.105673425 -0.061715703 0.16257359 0.07595312 0.039084736 0.15108643 0.0055273813 -0.024218086 0.03920071 0.20206569 -0.07619141 0.012879449 -0.18449625 -0.17961332 -0.021526504 0.06882949 0.18434411 0.07114592 0.08299186 0.06171419 0.035040516 -0.05614238 -0.17981055 0.010239172 -0.061055668 0.013461513 -0.14774494 -0.03607538 0.050147515 0.022206942 0.08207726 0.04331091 -0.052536927 0.090226434 -0.101538986 0.020225013 -0.12437224 -0.07788402 0.012923186 0.08655941 -0.050070025 -0.022049244 -0.040739026 0.19431582 -0.104834005 0.03514311 -0.068873994 -0.07683503 0.1111074 0.12947275 0.14757888 0.016285883 -0.04567601 -0.059960395 -0.07234744 0.031966295 -0.1088696 0.08126525 -0.051232684 0.01624778 -0.1651403 0.098077595 0.02626073 -0.1292279 -0.07033167 -0.18131801 -0.062337693 -0.16335513 -0.099292316 0.017515576 0.0019356896 0.019623516 -0.1291372 -0.094747506 0.027944488 -0.015274775 -0.29025576 0.13159133 -0.13155814 -0.0005318744 0.015143324 -0.16525824 0.12713882
шаарында_kir -0.12047401 0.16086702 0.02497755 0.10450386 -0.042566933 -0.14105007 -0.1293023 -0.056965575 -0.10393445 -0.009606818 -0.05302627 -0.047782805 0.0041948315 0.09289652 0.024348015 0.05068813 0.020937784 -0.10793335 -0.019893989 -0.18312767 -0.00052446855 0.037529822 -0.14359826 0.017389484 0.008174142 0.045560636 -0.094198674 0.1396942 -0.21498355 0.08793581 0.03675076 -0.13790672 0.22004381 -0.22531404 -0.030562418 0.11414742 0.04253678 -0.00835822 -0.07444077 -0.11959983 0.03393916 0.10679475 -0.022705292 -0.047332086 0.024225786 -0.14579491 0.10115298 -0.14263678 0.025850099 0.0697668 -0.05893895 -0.14804222 0.053889647 -0.00044540843 -0.17565483 0.011401241 -0.029344048 -0.03600198 -0.021952847 -0.09614378 0.014913826 -0.0728754 0.027782427 0.1259823 -0.09581763 -0.030140826 -0.16938865 -0.14561978 -0.036734153 0.053848185 0.110494755 -0.07060715 -0.029496323 -0.09260583 -0.03508629 0.011122945 0.059793565 0.05939421 -0.057055898 0.0571638 0.051004764 -0.15703163 0.0657923 0.15391727 -0.04359772 0.09942613 0.030581433 0.16187745 -0.10650523 0.076805316 0.044163525 -0.07020423 -0.12435165 0.29452476 -0.027269023 0.11116852 0.08705783 0.07619311 -0.024423415 -0.22457686
бірақ_kaz 0.037778623 0.07036582 -0.1988104 -0.32547694 0.05334167 0.28187117 0.20815685 -0.10299 -0.075994514 0.00053185923 0.038616795 0.039965764 0.10758197 -0.078976065 0.009323199 -0.11178546 -0.19490027 -0.03834159 -0.10387416 0.013827369 0.09318522 -5.891184e-05 -0.0342118 -0.10393715 0.052368045 0.10975429 0.09645731 -0.02193206 0.048080523 -0.11726651 -0.054812815 0.12647407 -0.0014672856 -0.116497084 0.07436443 0.02188596 0.031665508 0.07810086 0.037111357 -0.13831046 -0.07788465 -0.111649446 0.10678233 0.02194641 -0.053720016 0.072723486 0.21768188 -0.03891992 -0.070264526 -0.05659923 -0.04719765 -0.013679703 -0.026632557 -0.046622086 -0.09222484 -0.010234423 -0.10676327 -0.0004532819 0.040942598 -0.06578458 0.12053718 0.11841555 -0.11848764 0.12067694 -0.12014847 0.06695113 -0.01665273 0.12730289 -0.013765213 0.032598134 0.07367573 -0.020137599 -0.00046363968 -0.025382577 0.19576596 0.07500493 -0.09432579 -0.16746819 -0.06334056 0.05889376 -0.017330037 0.016959138 -0.048862915 -0.05470389 -0.08551253 0.04745457 0.1005219 -0.049293887 0.049804647 0.16754353 -0.21373154 0.118522815 0.041215677 0.05843675 -0.036790464 0.0021888032 0.10536861 0.105442315 0.057654917 0.16965424
орыс_kaz -0.19211362 -0.019028502 -0.060902167 -0.22122447 -0.075004816 0.12567616 0.12923226 0.08468188 0.08940184 0.0012306183 0.1563828 0.04398214 0.0014075555 -0.03912239 -0.009571158 0.06348105 0.008457104 0.049481083 -0.0055891224 0.16716018 -0.14994833 -0.03540094 -0.024138719 -0.0055204164 0.19922072 0.085559845 -0.05804756 -0.13930312 -0.0015967629 0.033461977 -0.13163966 0.0064568575 -0.18439138 -0.09942322 0.050626356 0.088062525 -0.029678425 0.26072866 -0.15798885 -0.045041535 0.13738988 -0.020108936 -0.07848055 -0.13735235 0.043739732 -0.21237445 -0.073941335 -0.07323907 -0.19416508 -0.23045585 0.16817795 0.017246822 0.07513282 0.030095195 -0.10359382 -0.059641987 -0.11720712 0.005659937 0.061628837 0.039496858 0.022078749 -0.00962734 0.108888775 -0.09726563 0.03587491 -0.08859001 0.030528244 -0.06989253 -0.038888123 0.024690364 0.10353825 -0.04717276 -0.020279925 -0.02882359 0.08296416 0.10523246 -0.061696857 -0.09142614 -0.00048422432 -0.05854047 0.034469306 -0.034490827 0.06260112 0.092898935 -0.016683849 -0.085634954 -0.0011538474 -0.16948083 -0.09186126 0.09093153 -0.11370277 -0.038912676 -0.14681755 -0.012718433 0.12119805 0.16968836 -0.06091856 -0.008478696 0.008769228 0.17855914
бастады_kaz -0.20571584 0.019783696 0.07919052 -0.04608401 0.0072824224 0.021020867 -0.013434922 -0.09126093 0.10236401 0.070067495 -0.04526602 -0.06502767 -0.09092182 -0.018152947 0.029337192 0.093161784 0.002521037 -0.04697892 -0.08800276 0.11205295 0.114446834 -0.11580569 -0.0036462885 -0.21775933 0.09503798 -0.13662563 0.23818833 -0.102377854 0.05806905 0.079001576 0.082202494 0.008756435 -0.015917687 0.20633893 0.037836928 -0.1297925 0.10516295 0.16257003 -0.06619126 0.05745106 0.08543638 -0.098942116 -0.1447089 -0.040797282 0.11819708 -0.05788157 -0.038349733 -0.010575595 0.05622058 -0.15815237 -0.0654092 0.17623731 0.0107759535 -0.051526945 -0.078127846 0.14668846 0.095969535 -0.0012366369 -0.17314659 -0.04050401 0.09253164 0.06087168 0.15207805 -0.046695985 -0.15304993 -0.042621624 0.1103957 0.11559786 -0.10421872 0.053034432 0.06719446 -0.17599748 -0.11066938 0.11033479 0.18335803 0.17419037 -0.12795843 -0.10277246 0.10354988 -0.069310114 0.06250507 -0.024066225 0.0039932583 0.098797046 -0.03701014 -0.13852754 0.07275106 -0.015375179 -0.008107963 -0.03721377 -0.09056514 -0.046291877 0.032187913 0.045075525 0.051348902 -0.08688704 -0.15050487 0.09296232 0.16501644 -0.019003568
болған_kaz -0.0070394403 0.014976527 -0.08728074 -0.16112877 -0.08338567 0.17116591 0.0064816433 0.13835536 -0.096097395 0.15389547 0.113937154 0.16299805 -0.02821439 -0.09794633 -0.059790563 0.127814 -0.09879471 -0.014801683 0.018152233 0.059048977 0.034620035 0.20399466 -0.10349071 -0.084808834 -0.058497213 -0.049527094 0.08425401 -0.089229114 0.11598419 -0.11678579 -0.23322028 0.106466256 0.16148978 0.11085728 0.07574626 0.030792262 -0.033520713 0.33690447 -0.0127796475 0.05595033 0.029440742 -0.14628096 -0.008644978 -0.08031592 -0.03410398 -0.0074747717 -0.101668485 0.11592048 0.07812383 -0.08988366 0.008079605 0.07387291 -0.07529417 0.08708338 0.012444666 0.04706906 -0.052767437 -0.16878979 0.20489286 0.16086172 0.12113777 0.0633653 -0.017104406 0.01964463 -0.10948582 0.059231482 -0.09385261 0.17893256 -0.101147704 -0.004245032 0.053940497 -0.08837655 0.0054701595 0.13969004 0.069691904 0.046050325 -0.06288541 0.09512881 -0.036282558 -0.03810753 0.03530537 -0.048784617 -0.03339726 -0.0117099425 -0.038728468 -0.097774945 0.11803891 -0.07961595 -0.027688256 0.111613676 -0.031187505 0.09560052 -0.043034848 -0.037183557 -0.041654456 0.15047453 -0.06426021 0.0935427 0.07862898 0.15259463
ысык-көлдө_kir -0.04106619 0.024328297 -0.08230549 0.029311823 0.00493666 -0.07301213 -0.00083418033 0.14263174 0.02607945 -0.13179976 0.06131254 0.11145004 -0.00058573845 -0.05900366 0.023065362 -0.012488789 0.0071221422 -0.10816962 0.09040866 -0.12320487 0.16008955 0.09421255 -0.02217463 0.056305435 0.014605969 -0.11613596 -0.017069142 -0.046868276 -0.23177113 0.12140048 0.085946 -0.063049495 0.04341568 -0.29554033 -0.088008255 0.042468607 0.055535343 -0.20809594 0.028910128 -0.03788056 -0.006684847 -0.010751426 0.044738278 0.13284628 0.15105483 0.1617515 -0.03267695 -0.1892523 0.18541114 0.110958785 0.18168664 -0.0905554 -0.18389587 -0.08859653 0.12727505 0.082657516 -0.046398185 0.0005406295 0.06630291 -0.087570764 -0.022082249 0.13212474 0.058539066 -0.046502374 0.1817899 -0.051293556 0.009132909 -0.24111462 -0.032297008 0.025950475 0.016229369 0.16692914 0.033194754 0.042679504 -0.032394737 -0.048633676 0.04488362 0.12313644 0.036986247 -0.029933365 -0.061305415 -0.05257735 -0.12426951 0.12535977 0.06178283 -0.058213033 0.11236072 0.0019948257 0.19156484 -0.04732858 0.09127714 -0.06942858 -0.05865451 -0.09079088 -0.08086954 -0.034849614 0.06256454 -0.11885735 0.05314188 -0.11754788
жол_kir -0.0061223055 0.052636247 0.0199656 0.07460024 -0.03677694 -0.048105065 -0.33042356 0.11890867 -0.11536122 -0.12111986 -0.087776795 -0.104367435 -0.03762363 0.034326885 -0.030863034 0.016171712 -0.09988977 0.044425424 0.020994293 -0.13007978 0.11765618 -0.013816867 -0.027089784 0.04869328 0.08978655 -0.062049486 -0.016689843 0.1922234 -0.24306445 -0.024635725 0.061564084 0.046699937 0.060353696 -0.18354665 -0.14003204 0.21926285 -0.03264303 -0.14608192 0.10874049 0.035797123 0.071231596 0.123776525 0.05078663 -0.087381214 -0.027900899 0.14708394 -0.08036324 -0.14531381 -0.060111944 -0.06963676 0.027512856 -0.07235212 -0.03256185 0.007483041 0.014822901 0.13858607 0.0077667125 0.03978322 0.19502579 0.014014678 -0.085726224 -0.015375799 -0.13799304 0.029114328 0.078811936 -0.007605536 0.06936652 -0.046449233 -0.089976646 -0.16984491 0.10879654 0.023382008 0.093794405 -0.07377774 -0.026990244 -0.12059396 0.18552667 0.1021919 0.07799924 0.15827776 -0.010660303 0.06401505 -0.0802573 0.009976259 0.047774505 0.07605605 0.08809811 0.03536433 -0.008413447 0.026290243 0.12356143 0.1691885 -0.18803991 0.019832851 -0.059195697 -0.19997108 -0.042984832 -0.020251716 -0.061311726 -0.057576664
тиіс_kaz -0.085244544 0.04577679 -0.035986267 -0.2133941 -0.06492114 0.14861675 0.087914035 0.04560453 0.019738127 0.073618665 0.16152741 0.10111114 -0.1286807 0.025330033 -0.15392885 -0.05038612 -0.09646754 0.048035584 -0.122366644 0.09762621 -0.111842826 0.10845816 -0.12486778 -0.060067836 -0.053937547 0.0026551585 0.11071261 -0.13109335 0.11950775 -0.106431186 -0.18655743 -0.05469131 -0.10005612 0.025283543 0.10912301 0.056343213 0.10879646 0.2660146 -0.20131871 0.078550205 0.20458306 -0.07364783 0.028388519 -0.08674713 -0.008434281 -0.1440841 0.00974109 0.02256453 -0.06481025 -0.197937 0.079578936 0.105330996 0.036546063 -0.010917524 -0.0026373572 0.024890186 -0.109549195 0.07986703 0.12172936 -0.0128286285 0.08928327 0.021156413 0.049200058 -0.045335796 0.033320922 -0.011460243 0.08227313 0.06458295 -0.03840065 0.0068722977 0.00070200296 0.1616275 -0.019454874 0.025193322 0.12676407 0.061553672 -0.1126641 -0.1426247 0.069398105 -0.106275015 0.08017647 0.0045126667 -0.018082717 0.0025001979 0.054164477 -0.057091 0.10645807 -0.18758786 -0.16310029 0.026626168 -0.1814576 0.018438285 0.010371415 -0.17688973 0.100798234 -0.10426788 -0.023434967 0.004018402 -0.12806618 0.07903899
қазақ_kaz -0.122441456 0.049044557 -0.07935538 -0.27122453 -0.0153709045 0.29659083 0.14310178 -0.13929299 -0.13410471 0.052719586 0.1033395 -0.016938763 0.14677933 -0.000543454 0.03444378 -0.033630263 -0.19643648 -0.005039645 -0.044273917 0.042147547 0.15150274 -0.11538932 -0.115764104 -0.057212893 0.039674327 0.09748896 0.07955084 -0.23102535 0.06707864 0.005808937 -0.2518396 0.0279325 -0.008876032 0.10864369 0.121461436 -0.022339307 -0.035383154 0.09546928 0.0072770165 -0.063820675 -0.007602204 -0.12317945 0.14043964 0.0026742981 -0.028565306 -0.04147041 0.16754286 0.06666347 0.0012201124 0.005338521 -0.08834285 0.110404134 -0.05710581 -0.060411856 -0.122076266 -0.025598334 -0.031773943 -0.028392294 -0.066017024 0.088016964 0.08289905 0.08247437 0.0077335336 0.062334765 -0.028351095 0.04855504 0.026791448 0.08056542 -0.13834527 0.009728824 -0.050650965 -0.073122926 -0.078155875 -0.06650249 0.079270005 0.045376528 -0.1657285 -0.20922963 -0.070015684 0.08563863 -0.016468829 -0.007495241 -0.015332274 -0.10840389 -0.1511388 0.09452949 0.09324351 -0.015064933 0.010671671 0.06398372 -0.14091091 0.013685202 0.018807154 -0.07692563 -0.050574526 -0.03290115 0.14818712 0.04038443 0.04206694 0.21490473
оның_kaz -0.10693638 -0.021633282 -0.13808471 -0.24541155 0.048233822 0.0005736302 0.13083768 -0.15583077 -0.05262817 0.097485535 0.0637124 -0.086165264 -0.123256534 0.09543322 -0.10538057 -0.028306488 -0.08351902 0.007217311 -0.015250775 0.11140955 0.022485293 -0.06747272 -0.00804855 -0.056657813 0.12799683 -0.021981258 0.21037795 -0.07715353 0.114488274 0.023098446 -0.13935064 0.20756797 0.17224638 0.055792004 0.09993204 0.06299497 -0.115981564 0.18707909 8.15474e-05 -0.13665241 0.05548221 -0.050697368 -0.07011493 -0.022722924 0.071432695 -0.060332738 0.10338354 -0.04597117 -0.082010195 0.13466677 0.13548106 -0.047641065 0.040190678 0.028755222 -0.109921075 -0.020204734 -0.0039180997 -0.10451344 0.012212595 -0.022016192 0.015297785 -0.029607328 0.011551157 -0.05101215 -0.11915047 -0.028034067 0.06590224 0.14522539 0.014275385 -0.01606265 0.049642257 -0.18190478 0.016473534 -0.069748566 0.15538721 -0.11197291 -0.12626785 -0.07976622 0.04198986 -0.009750418 -0.07026814 -0.031205887 -0.2046079 0.026832202 -0.16847499 -0.096948385 -0.03242147 0.13863209 -0.11853322 0.009543805 -0.05391292 -0.061101463 -0.047845203 -0.22107595 0.1763281 0.04202696 0.03723042 -0.07579596 -0.095650926 0.2037491
бала_kir 0.035303418 0.10483452 0.026515154 0.19047521 -0.1061958 -0.021359676 -0.2683034 0.054080192 -0.14559217 0.0001486202 -0.21963966 0.12614177 0.1278481 0.044154055 0.035874482 0.009010702 0.0064622182 0.19935018 0.073247 -0.15867577 0.13231866 0.0054718344 0.089084886 0.10698921 0.09304987 -0.089909196 -0.059136808 0.001962466 -0.19874579 -0.08472305 0.16823801 0.07555262 -0.0658635 -0.19303699 -0.022778945 0.1176797 0.043300357 -0.040612295 -0.09048457 -0.10842031 0.0021316626 0.063664466 0.14225847 -0.09053804 0.07081799 0.054800205 -0.023927521 0.13715188 0.13063622 0.09957724 -0.076401554 -0.12304138 -0.018733231 0.070015185 -0.039979182 0.10195876 -0.056539074 -0.017610908 -0.017177949 -0.029059421 -0.064714305 0.03246526 0.24819107 -0.18099762 0.028394174 0.11649475 0.020092882 -0.07085643 -0.15805665 -0.054494567 0.059896506 0.007918831 0.05380531 -0.07938378 0.015353893 0.1613604 0.073569894 0.033135574 -0.035478663 -0.011042162 0.049871176 -0.09459983 0.09641814 0.13776974 0.17314076 -0.002809692 -0.032382187 -0.02823626 0.121831715 -0.059784085 0.045703314 -0.13068482 -0.05397327 0.054553527 -0.12957266 0.03308811 0.078800425 -0.08318809 0.03691397 -0.0012145165
салык_kir 0.015266462 0.10292711 0.050288126 -0.03903331 0.012771555 -0.14237769 -0.10301076 0.016942484 0.048357256 -0.09955176 -0.022284534 -0.08309767 0.07119878 0.034003362 -0.013203986 -0.051621854 -0.03386112 -0.03883365 0.021753348 -0.047814984 0.0446407 -0.14989628 -0.19733293 -0.116874844 -0.08767159 -0.1347526 -0.035014793 0.2283997 -0.1090238 -0.017986799 0.100329116 -0.10188046 0.08378733 -0.31724617 0.11918676 0.04810308 -0.010280829 0.08692667 0.07608349 -0.13998418 -0.16345435 -0.048467193 0.026528528 -0.053715173 0.12419596 -0.042975597 0.01720807 -0.10190928 -0.18708391 0.06956163 0.048401136 0.08621616 0.074777216 0.008164849 0.016906405 0.10322508 0.0050234846 0.18245828 0.067307174 -0.015420124 -0.1146993 0.13053805 0.11562929 0.028872848 0.10989856 -0.11311124 0.052294593 -0.056766648 -0.2547086 -0.039071318 -0.10614116 -0.058776584 0.008228522 -0.016843056 0.06491167 -0.017006215 0.05769295 -0.07152961 0.04367493 -0.026440278 -0.06209058 0.03742094 0.11592786 0.17965649 0.12094946 -0.16950326 -0.08969477 0.14134784 0.18481468 -0.0030787503 -0.067564115 -0.16640987 0.034820937 0.11291119 0.028841132 -0.05319417 -0.023600759 -0.14513862 0.08104342 -0.04141687
кетті_kaz 0.07850616 -0.063159145 -0.08906127 -0.10054008 0.049366403 0.041903768 0.2394289 -0.054159094 -0.01258473 0.03667973 0.12403931 -0.12084899 -0.20988798 0.044478815 -0.1487523 -0.085689776 0.003972244 -0.1068526 0.18059154 0.0819272 -0.06218148 0.24835424 -0.046333853 -0.037188962 -0.10030076 -0.0013414182 0.18521121 -0.08256554 0.16320527 -0.05913957 -0.03903098 0.011187997 -0.019028544 0.2638541 0.19021092 -0.197215 0.011512308 0.17108485 -0.040617507 0.049084824 0.020306407 -0.118388765 0.16751917 0.13716076 -0.02647636 0.008747721 -0.008656749 -0.03553147 0.051101074 -0.011460072 -0.024248736 0.05431209 -0.025983233 0.04778392 -0.12262281 -0.089407265 0.05715202 -0.12525088 0.018268948 -0.09253243 0.03637818 0.130587 0.064423636 0.026229767 -0.103017576 -0.0074323136 0.033551645 0.09206528 -0.07417074 0.11469208 0.04125986 0.0049214163 0.07970327 0.119436614 0.072299 0.09912687 0.09036184 -0.048099622 -0.06910884 0.02141563 -0.09226804 0.041589234 -0.08778164 -0.06320601 0.04726289 -0.12428164 0.068079546 -0.11769263 -0.056404147 -0.07273561 -0.18835725 0.12837145 0.15739259 -0.16306305 0.06505455 0.016116954 0.06375232 0.027442822 -0.032011747 0.0044375896
бирок_kir -0.09156266 0.21472783 0.10757751 0.12153667 0.0073740534 -0.16896255 -0.20866512 -0.0906223 0.09854182 -0.082173005 -0.060466778 -0.08855012 0.062999345 -0.046216242 0.065522194 0.0282675 0.07478033 -0.02074736 -0.021491565 -0.030154722 0.11912669 -0.09895007 -0.14786579 0.116619945 0.08424295 -0.09005517 0.06039744 0.12781334 -0.074368976 0.007512441 0.1358917 -0.03933173 0.009646063 -0.2790675 0.076855406 -0.0697466 0.09699827 -0.0067721666 -0.080213904 -0.05774846 -0.07066093 -0.03534173 0.025480594 -0.105029374 0.001025402 0.011571559 -0.07173384 -0.009730268 0.008976098 -0.018037044 -0.08691309 -0.029149547 -0.017796457 0.018651385 0.0017694557 0.18100671 0.03997011 -0.0070447186 0.011071364 -0.17363079 -0.03859517 0.0799822 -0.12973489 -0.18110947 0.12353763 -0.2616569 -0.078016736 -0.10217709 -0.21165209 -0.0072529553 -0.03136561 0.073260285 -0.0012811645 0.031777836 0.120021485 -0.032416653 0.06502299 0.050030712 0.06443442 0.022032075 0.102448046 0.10039049 0.08994314 0.048263535 0.0150980735 -0.15059689 -0.09150118 0.22008672 0.050281797 -0.032145403 -0.08806856 -0.108858034 -0.063924104 0.20453298 -0.039387174 -0.15578446 0.07791044 0.08320996 -0.0069283037 -0.1054897
екі_kaz 0.04075132 0.048213765 -0.028891515 -0.023748567 0.04185502 0.07461116 0.27633104 -0.22901252 -0.0557688 0.16108727 0.03434466 -0.026342858 -0.037853014 0.16814718 -0.10541917 -0.008447021 -0.015512254 0.021642396 0.014413206 0.09031059 -0.0057442854 0.17217666 0.049200002 0.015176648 0.014429458 -0.116559334 0.23481804 -0.039043818 0.10759464 0.04154691 0.03916659 0.15085462 -0.13233225 -0.0014877476 0.13404328 -0.23952483 0.031407863 0.1714081 -0.031244114 0.1055237 -0.028533226 -0.11935076 0.07572282 -0.0053658215 -0.021189315 -0.032424055 0.11257616 -0.08294899 0.07294423 -0.20127052 0.06366233 0.019561617 -0.1482748 -0.05815376 -0.121124156 0.07577739 0.02095069 -0.118300065 0.01164833 -0.17159104 -0.08643209 0.09936186 -0.013013232 -0.061788034 0.025132589 -0.057876505 0.10237023 0.08821985 -0.14382431 0.05558522 0.081611596 0.05452928 0.098597154 0.053046644 0.10674637 -0.03164232 -0.072162986 -0.13522238 -0.13924083 -0.03940428 0.0391879 -0.03372896 -0.050699316 -0.050507933 0.022118893 -0.08933948 0.12583084 -0.06434121 -0.11780065 0.03680545 -0.07284961 0.0109022055 0.044937503 -0.17287771 0.15593219 -0.025685651 0.07462137 0.2233475 0.04147234 0.051471595
ал_kir 0.0740142 0.05946599 0.054008216 0.18138982 -0.09752672 -0.07440704 -0.20012248 0.05288316 -0.12526095 -0.18636425 -0.16469723 -0.08247413 0.041475948 0.02992521 0.024801938 0.004850415 0.009113645 0.078573376 -0.036371343 -0.12351607 0.13384442 -0.01923311 0.028639162 0.079596825 0.083302595 -0.0012909714 0.094207294 0.17929141 -0.26368865 -0.075120196 0.15460138 -0.01033268 -0.061449904 -0.19642502 -0.01746414 0.18757214 -0.11411674 -0.1449083 0.053174566 -0.009418699 0.027586754 0.058793075 0.028370984 0.0010863241 -0.1456387 0.087185934 -0.16946176 -0.071336076 -0.027434958 -0.025146343 0.06860885 -0.03897674 -0.12563169 0.011037747 -0.024800755 0.06942125 0.052108336 0.1931807 0.21569651 -0.076380394 -0.0318434 -0.023316674 -0.10472462 -0.08310599 0.15261912 -0.042422768 0.017268706 -0.05851737 -0.106257565 -0.14935412 0.04054776 0.09745557 0.11807096 -0.045869973 -0.018256476 0.007079813 0.120348886 0.0467718 0.021984888 0.09644588 0.07443265 0.106860176 -0.14428374 0.031963572 0.1187831 0.024170617 0.06681988 -0.065996945 0.06413318 -0.061309308 0.029947577 0.12966874 -0.110914305 0.10959174 -0.047857076 -0.21697971 0.03747193 0.0718808 -0.077928014 -0.01965769
кім_kaz 0.0023291712 0.02797569 0.10576601 -0.17700621 -0.02319702 0.06092003 0.12021698 -0.06792372 0.14704275 -0.023516262 0.20072593 0.06500432 0.08272632 -0.012982847 -0.2188275 -0.03684903 0.07833194 0.07279495 0.108791485 0.1460017 -0.035741724 0.06752136 -0.06070467 0.013527828 -0.23244141 0.15626764 -0.02273447 -0.25959516 0.27154973 -0.010653779 -0.14176744 0.039204877 -0.15221791 0.014009067 -0.021058917 0.025250265 -0.018365439 0.20122142 -0.0016229606 0.03570729 0.13129526 0.0036945909 0.0206219 0.033279784 0.010498729 -0.1361977 0.049446236 -0.035779066 -0.12983213 -0.1409435 -0.1867982 0.12760736 -0.035682354 0.03380025 -0.05764059 0.019420322 -0.016000861 -0.18473627 0.22622265 -0.079390734 -0.0833254 0.03587786 0.06463221 0.058593877 -0.07520637 -0.05915585 0.01085355 0.06757214 -0.15063787 -0.038508683 -0.022030536 -0.03495047 0.061014444 0.08223041 -0.054196 0.03878849 0.01729859 0.049394663 0.07485474 -0.024739115 -0.07396868 0.09319026 -0.027351359 0.092849515 0.03288466 -0.019372955 0.07481268 -0.075119555 -0.14313035 -0.02951391 0.008476875 -0.053293232 -0.00037317022 -0.22549869 0.020613441 -0.0012168849 0.017184025 0.018381929 -0.10450758 0.1339178
емес_kaz -0.03144203 0.022762964 -0.0980496 -0.21979107 0.052224148 0.12084105 0.15001297 0.068572134 -0.08205641 0.110986345 0.1512327 0.03244338 -0.1735633 0.014850492 -0.09938938 0.008880803 -0.16661945 -0.041622322 -0.0357226 0.13168372 -0.08129452 0.09884243 -0.128978 -0.035380617 -0.0020741136 -0.089222856 0.053190313 -0.09129241 0.14456925 -0.12215107 -0.18557832 0.06970683 -0.091760784 0.018070294 0.09588861 -0.050459787 0.0591974 0.3152003 -0.11727644 0.009687735 0.19223206 -0.13374116 -0.07175335 -0.068816476 0.11811803 -0.11880257 0.07143926 -0.0172438 -0.0411547 -0.10123482 0.10742892 0.04019205 0.078633174 0.0033030822 -0.056568015 0.05377368 -0.10911099 -0.064161584 0.020845255 -0.014071353 0.13486688 0.06314792 0.08804197 -0.041121934 -0.028668132 0.05624927 0.06471376 0.12451038 0.004848417 0.0015177926 0.041035358 -0.026407935 -0.02248451 0.057837017 0.2546317 0.14464201 -0.17784847 -0.14059022 0.010983488 -0.0063033304 0.030935675 0.024168843 -0.019528829 0.10468909 -0.021894623 -0.1455237 0.051043905 -0.14786327 -0.053191878 0.14948381 -0.11012361 0.03159258 0.043459788 -0.09602553 0.09820428 -0.010192701 -0.058887005 -0.081413016 -0.021970931 0.13820674
барлық_kaz 0.035357 0.019062042 -0.09833466 -0.2269991 -0.030068208 0.122195765 -0.034986753 -0.06808783 -0.04726858 0.037413683 0.052846264 -0.009569702 0.14114279 -0.019765118 0.108348705 -0.13206413 -0.16144566 -0.053398866 -0.12682097 0.15433785 0.012939953 -0.020299533 -0.073106036 -0.1677618 -0.0016200655 -0.073427886 0.10315108 -0.109378986 -0.053043563 -0.20693134 -0.061151747 -0.07376408 0.008399184 -0.017071122 0.17894809 -0.13243018 0.03287407 0.19905435 -0.05251592 -0.0769558 -0.19154401 -0.20522387 0.15090188 0.061115365 0.0388136 -0.001611809 0.08051814 0.19193682 0.017710678 0.020426001 0.13606784 -0.046673607 0.00854395 -0.17812677 -0.12816541 0.005843245 0.025350368 0.1901911 -0.09783113 0.070755325 0.08456202 0.12737784 -0.025392232 -0.10604177 -0.052221894 0.07631167 0.12387882 0.092751116 -0.006087538 -0.02919038 -0.007681779 0.054290712 -0.051912572 -0.07982659 0.1069813 -0.046523742 -0.1919064 -0.17069733 -0.015412043 -0.041353248 0.07808065 0.1342536 -0.10594887 -0.012992674 0.015325364 0.09439734 0.008694555 -0.09342331 0.1083641 0.06174251 -0.19518895 0.084954925 -0.01897449 -0.11564577 0.040985037 0.017424569 -0.044628173 0.02703571 -0.066317275 0.061873376
деді_kaz -0.022905357 -0.067546494 -0.03124138 -0.026440736 -0.009024653 0.23618226 0.14635059 -0.05831045 -0.17534725 0.13791054 -0.11528627 0.040327866 0.04967571 0.06578318 -0.043718345 0.028580453 -0.023559334 0.018788993 -0.00472222 0.051509153 -0.07206513 0.20873237 0.04698965 0.0025061027 0.048881065 0.039375693 0.17566937 -0.21453902 0.06281912 0.09171798 0.011587582 0.05166818 0.028778605 -0.0059723854 0.18859944 -0.17439047 0.0141849425 0.1977817 -0.050333276 0.12668566 -0.012766988 -0.13367146 0.14131638 0.03459526 -0.019418323 0.027604286 0.20916489 0.08087929 0.14183892 -0.29065084 0.005605408 -0.04248425 -0.18393777 0.07642772 -0.008539402 0.010203176 -0.06982712 -0.18056531 -0.037932254 -0.12962866 -0.04320449 0.03238377 0.041781023 -0.030689951 -0.049617324 -0.051107075 0.025162674 0.031402413 -0.04568131 0.089345425 -0.0009184307 0.016916828 0.09023488 0.05118132 0.12951821 -0.03239184 -0.02279237 -0.11287133 -0.04591199 -0.038774624 -0.11090502 -0.1245376 0.06821157 -0.1083279 0.012567557 0.043337617 0.060397293 -0.02316193 -0.09288609 0.025604412 -0.19250964 0.026257379 0.0004282842 -0.16470775 0.044640973 0.060269438 0.02071857 0.21018559 0.13201065 0.10035021
алып_kaz 0.017462375 0.16278854 -0.069508865 -0.09850217 0.011000137 0.20125669 0.15763675 -0.15288867 0.20449796 -0.100837044 0.21017411 -0.04138815 -0.027740955 -0.024005372 -0.068454154 -0.00043509336 0.009361576 0.06765849 -0.05175377 0.06360586 -0.097632684 -0.004039214 0.08993834 -0.108980775 0.018972417 0.13455667 0.07768782 -0.09435254 0.019435115 -0.011722125 -0.10038017 -0.014230061 -0.14052847 0.019852947 0.024231838 0.097691715 0.04818197 0.28982738 -0.005967343 0.051965907 0.009791887 -0.10497909 -0.024886977 0.0947092 0.038820338 -0.13301814 0.1637485 -0.025365075 0.0024727955 0.0066508767 -0.071681544 0.01483149 0.0053481027 -0.11507861 -0.17521162 -0.05242615 -0.15554027 0.040003385 -0.08233322 0.07915762 0.07121889 0.04357286 -0.09175331 -0.027114578 0.074293815 -0.016038923 -0.04693999 -0.032968715 -0.13169856 0.064704 0.017192326 0.055621672 -0.050163317 -0.025798166 -0.15455556 0.07521762 -0.13012709 -0.122554116 -0.07691951 0.005171413 -0.037367076 0.19995621 -0.18968007 -0.16308314 0.19188903 0.007141279 -0.1527835 -0.065061994 -0.18185782 -0.027952246 -0.15901805 -0.111066535 0.0044078487 0.013351127 0.11381625 0.14319384 0.016701816 0.02684102 -0.043545697 0.07733083
бар_kir 0.17397413 0.005084985 -0.053207256 0.15296446 -0.1012295 -0.22143528 -0.05966753 -0.05587983 -0.030409064 -0.050484795 -0.11115807 -0.087019786 0.119113706 -0.040993873 -0.08174575 -0.006486147 -0.012995257 0.01247845 0.23294513 -0.010882031 0.18459995 -0.048784267 0.047172297 0.18354179 -0.02914083 -0.038999368 -0.16494168 0.014132041 -0.27188772 -0.15949117 -0.021132616 0.041181754 0.017807 -0.1463583 -0.00910886 -0.109914064 -0.1624286 -0.05684834 0.11774716 -0.16311562 -0.02384645 -0.050296016 0.06289788 -0.031195447 0.06839559 0.024182446 -0.10199948 -0.018040365 0.09584429 0.082686536 0.024499267 -0.15380447 -0.04778368 -0.056242608 -0.09038543 0.13221061 0.14053081 0.07261936 0.15894423 0.00048038055 -0.041192073 0.11915587 -0.090151496 -0.10750361 0.026678119 0.00069874106 0.011186515 -0.068868436 -0.031894214 -0.072775275 -0.18093567 -0.0038245744 0.08096836 -0.025546208 -0.0110376645 0.093835875 0.007870475 -0.05707329 -0.14765842 0.07831322 0.026332011 0.19345509 -0.024608856 0.23005727 0.056527186 0.053393487 -0.08091414 -0.008549345 0.1616678 0.042300787 0.02960079 0.105345845 -0.12819758 0.043207277 -0.06950307 0.046029486 0.03462635 0.080440134 -0.12359186 -0.058892008
бир_kir 0.080789566 0.0965769 0.071757 0.111703314 -0.04053715 -0.19910887 -0.07800105 -0.16732104 -0.00017565321 -0.15754631 -0.03605463 -0.12970561 0.047507122 0.017765181 -0.050929792 0.012016655 -0.065527715 0.01283538 0.24953367 0.07183762 0.14943029 -0.032686494 0.01859285 0.07743908 0.037021376 -0.050562333 -0.15066302 0.14089711 -0.19230898 -0.010887543 0.021678234 0.061201982 -0.024285978 -0.11843101 0.08296697 -0.055874843 -0.16848385 -0.1409383 0.07568336 -0.085994445 0.037492726 -0.07886475 0.028880984 -0.098363176 0.07153142 -0.0052324943 -0.17610084 -0.17393713 0.10556449 0.16799438 -0.0014748982 0.00823812 -0.036311552 -0.09289841 -0.05188144 0.06700273 0.112228625 0.07080975 0.112838246 0.057222605 -0.1256 0.12781172 -0.11664961 -0.091957316 0.19549899 -0.054594185 0.015425776 -0.113126114 -0.09927559 -0.09129491 -0.14747272 -0.08191571 0.15646014 0.05568735 -0.12551366 -0.017096823 -0.032520495 0.03418272 -0.061912727 0.12041268 0.0054290076 0.15493375 0.01591233 0.1633039 -0.042731017 0.030203909 0.013901742 0.017883254 0.12162497 -0.0014517735 0.12724589 0.107724756 -0.208871 0.06632349 -0.07489851 -0.044825103 -0.02428089 -7.258057e-05 -0.07212345 -0.12359089
басшысы_kaz 0.055541173 0.16922444 -0.00629114 -0.049714614 0.12683013 -0.068046935 -0.10530432 -0.12105346 0.032072265 0.13454233 -0.104396366 0.1270791 -0.0785441 -0.035405517 -0.07386327 0.0038031887 -0.00921122 -0.0892299 -0.13150208 0.022369474 -0.004256411 0.07537233 -0.030419327 -0.009706322 0.0609277 0.089701235 0.17361218 -0.15427412 0.07281004 -0.22728316 0.19332106 0.06851133 0.007811247 0.013665436 0.00073298666 -0.08030306 0.19199625 0.14313631 -0.14290516 -0.040007453 0.030127555 0.0049921423 -0.1529071 -0.022497881 0.067448124 -0.05179854 0.008688967 0.15027948 0.22602262 -0.07668638 0.13333812 0.024289988 0.0024886152 -0.18339285 -0.0752614 -0.06745349 0.006374613 -0.043852955 -0.13885106 0.0026716874 0.22757089 0.084526286 0.101152375 -0.022005782 -0.12045471 -0.02871407 0.097513646 0.10092664 0.03245391 0.19955364 -0.04478885 -0.1238117 0.06649342 -0.05109331 0.074514635 0.16163047 -0.07881759 -0.19857314 0.08186856 -0.089627065 -0.0033110324 0.061472338 0.0497105 0.06604526 -0.059458364 0.014077498 -0.044215877 -0.15400556 -0.09760661 0.05744786 -0.086713 0.07391482 -0.013744223 -0.010442018 0.0019874892 0.16042922 0.010054772 0.1313813 -0.04835484 -0.090423465
бала_kaz 0.092401505 0.0457804 -0.06344372 0.07111254 -0.08745863 0.21152905 -0.16843566 -0.0012473679 -0.071398206 0.046243835 -0.15108286 0.1506831 0.058133535 0.02093501 -0.04248654 -0.021961268 0.0030518179 0.18249394 0.092899956 -0.06465887 0.01630521 0.08338283 0.06460598 -0.030571159 0.09311341 0.03522844 0.019676125 -0.20591876 -0.021887839 -0.099318214 0.0832368 0.18761112 -0.10457814 -0.05251957 0.01344128 0.037939485 0.1537619 0.23013267 -0.14317572 -0.06922657 0.048917472 -0.019478034 0.06623665 -0.10106131 0.16100544 0.10615593 0.12236347 0.16667597 0.1415206 -0.03885602 -0.08233579 -0.08406385 0.018744731 0.0302365 -0.081920825 0.07869426 -0.12715109 -0.14237484 -0.0639098 -0.023741845 0.04031505 0.07871534 0.21197191 -0.071013555 -0.105183356 0.18752062 0.11690515 0.07468982 -0.0871387 -0.025221761 0.13140097 -0.059626214 0.019462567 -0.022574281 0.10435663 0.2558373 0.009950889 -0.079884656 0.007131052 -0.017511228 0.003319579 -0.008341503 0.0379566 0.07359845 0.12835167 -0.064896934 -0.048532702 -0.111858346 0.04358312 -0.008701744 -0.019424956 -0.09638674 0.006260072 -0.1231203 -0.10247048 0.11551457 0.065890335 -0.07885962 0.010514898 0.17781685
жылы_kaz 0.024222929 0.087876804 0.12925807 -0.23064132 0.043855563 0.18169843 -0.01779421 -0.05775337 0.035616003 0.15023346 -0.0048911036 0.122551806 0.15498468 0.0589013 -0.09869971 0.07885151 -0.14224824 0.16532306 -0.061827306 -0.043168407 0.08488855 -0.033117753 0.006879435 -0.14020593 0.06678774 0.1420237 0.1690049 -0.1321175 0.12262087 -0.079075254 -0.07876614 -0.017333096 0.08779508 0.05698983 0.077339254 0.017327456 0.005725425 0.2931875 -0.16342416 -0.018204223 0.021447318 0.022111043 -0.0011286392 -0.09448826 0.1060605 -0.07092637 0.11764256 -0.07160406 0.048573505 -0.1244873 -0.058652956 0.07825214 -0.010307982 -0.061798245 -0.028765785 0.01435348 0.027824324 -0.007071931 -0.058408186 0.147842 0.07842245 0.21472403 -0.01895771 -0.084047824 -0.09599332 -0.040066075 0.17061605 0.2325384 0.045310184 0.122661814 0.13562457 -0.10343534 0.06624377 0.12077206 0.10062591 0.018328704 0.009360936 -0.10621664 0.17543766 -0.033965617 0.06929724 -0.048265655 -0.020653978 -0.036386326 -0.051351976 -0.002443204 0.17267336 -0.11471599 -0.031514194 0.04203931 -0.08537563 0.0150257135 -0.06110204 -0.09840894 0.031986672 0.03987788 -0.034764174 0.14297175 0.024664477 0.10780885
улуттук_kir 0.12266074 0.17160006 0.118437566 0.0014821294 0.08795883 -0.035365865 -0.27171245 0.048297435 0.08855966 -0.15388641 -0.065104224 0.023678731 -0.004199897 -0.0018234566 0.00054589525 0.06446387 0.12230482 0.060833156 -0.09455352 0.065585315 0.13478988 -0.026691435 -0.013193629 0.16932796 -0.0042177406 -0.03879404 -0.053012837 0.16204037 -0.1806608 -0.048945066 0.032006953 -0.16124082 0.04150867 -0.2941943 2.3679913e-05 -0.07710822 0.013384401 -0.06294249 0.14662617 0.024816662 -0.18887207 -0.07699893 0.05212816 0.08892197 -0.020695698 0.023306103 0.05030956 -0.18202803 0.02409085 0.001054228 0.019643322 0.05329956 -0.087280266 -0.111707464 0.015918767 0.19071889 0.02817275 -0.051515948 0.06694648 -0.21640094 -0.0062219715 0.030918652 -0.04408897 -0.031096805 0.10843156 -0.2123026 -0.04605557 -0.052332275 -0.09097681 -0.017419089 -0.15382303 0.06924038 0.02890469 0.025752574 0.08140602 -0.0474196 0.09872706 0.032187168 -0.028517662 -0.06871564 -0.10864324 0.18960074 0.086839266 0.15948592 0.14691043 -0.07778907 -0.12532449 0.046847913 0.13523436 0.12607078 -0.07011205 -0.026715504 -0.0039697858 0.014760337 -0.022128867 -0.13681787 -0.034106568 0.021650154 0.019989397 -0.045331616
елде_kaz -0.033006437 0.1112909 -0.12402476 -0.14629818 -0.04429994 0.14083867 -0.04499537 0.00011633283 0.0007193525 0.11547301 0.1645625 -0.106357194 -0.058035687 -0.17164324 0.065414906 0.008868761 0.009374733 -0.01009833 -0.10586987 0.13078588 -0.21657173 0.041178577 -0.1179196 0.04350753 -0.05318836 -0.009199157 0.13158719 -0.12157532 0.15679829 -0.01944423 -0.13014652 0.009991119 -0.07321898 0.06313226 0.17504647 -0.08957776 0.035639737 0.3279779 0.005173247 -0.037207827 0.04568698 -0.30170745 -0.021442318 -0.04426983 -0.03828802 -0.06579253 0.053559355 0.09872404 -0.047013223 -0.1605092 -0.035418496 0.11197688 -0.005569187 0.186904 0.057958458 -0.07818941 0.0710097 -0.03964158 0.08323805 0.046211816 0.020122597 -0.09939229 -0.06792666 0.033850495 -0.08865906 -0.029559892 -0.087101206 0.022125756 -0.085479215 0.11276351 -0.046318684 0.066880085 -0.113457404 0.102101654 0.1962166 -0.036958054 -0.050045792 -0.15046887 -0.012158595 -0.07474222 -0.03059263 0.19052947 0.028361311 -0.17667161 -0.0053241844 -0.109243736 0.12432465 -0.112309285 -0.11724639 0.040315703 -0.057443317 0.038227856 -0.012045263 -0.0153295165 0.06219036 0.03385755 0.040939584 0.033334997 -0.04307328 0.0026801163
эки_kir -0.08864703 0.028464293 0.036281634 0.06630522 -0.07002932 -0.1617297 -0.19344288 -0.019558275 -0.08852508 0.035996903 -0.14293516 0.07963155 0.046553407 -0.05703772 -0.013376419 -0.035869762 -0.16871913 0.017667463 -0.013974944 0.18692656 0.08761122 -0.03155618 0.045277987 -0.07502406 0.13655366 -0.16192949 0.08566712 0.22870769 0.05882891 -0.089075096 0.1366849 0.04482461 0.018411273 -0.098869875 0.057715118 0.16312331 -0.09808638 -0.11132091 -0.060522098 -0.035577513 -0.11228023 0.086194344 0.1742282 0.03600191 0.058966078 -0.050196704 -0.10454109 -0.054074254 -0.021033954 0.04807646 -0.097069606 -0.09063185 -0.062255256 -0.082288116 0.09285869 -0.027772002 -0.09906509 0.0016125252 0.05328708 -0.14936566 -0.081918105 -0.0836912 0.20978978 -0.16385083 0.109735206 -0.035144843 -0.027429653 -0.13953257 -0.1404769 -0.106788605 0.01875095 -0.27101064 0.048545517 -0.04189161 -0.10796377 -0.13107224 0.04212033 0.12083353 0.066023186 0.06674572 0.021080324 0.0106107835 -0.0049270014 -0.022309678 0.027780425 0.052012112 0.04850114 0.09094629 0.03436717 -0.037913255 -0.10681544 0.04783855 -0.03315064 0.23267448 0.15939789 -0.011885852 -0.077166475 0.037021823 0.2039231 -0.028825209
жылдың_kaz -0.15264471 0.063920066 -0.11479227 -0.21918894 0.040522337 4.689958e-05 0.14926186 -0.1863496 0.109762214 0.036117796 0.11896008 -0.13934152 -0.05146268 0.09367868 0.030727873 -0.060616262 -0.108051255 0.14737296 -0.07193765 0.22359273 -0.018263334 -0.115205355 0.0048564314 -0.09049947 0.1301188 0.018904347 0.1775927 0.046165694 0.19026358 0.079639435 -0.12211506 0.128699 0.12648739 0.028446607 0.17681475 0.08869858 -0.16084045 0.21044065 0.010579404 -0.11232069 -0.013212762 -0.035798118 -0.02703083 -0.03298273 0.057992686 -0.122696556 0.09962172 -0.040861145 -0.16428566 0.109201536 -0.054968808 -0.0063905567 0.06400144 -0.027792763 -0.102765255 0.046191305 0.027319448 -0.07388993 0.024069505 -0.1000744 -0.01823782 -0.029539164 -0.034223724 -0.081489295 -0.054950353 -0.14567566 0.06611159 0.13296595 -0.06585616 -0.0453719 0.06828145 -0.088234834 0.005840949 0.011500271 0.07852686 -0.19826323 -0.070976295 0.015442535 0.08753837 0.002432909 0.06356881 0.112812914 -0.2102573 -0.02159296 -0.117415614 -0.04514129 0.050548926 0.1105402 -0.20590854 0.014204148 -0.012509642 -0.051028546 -0.008062228 -0.09990124 0.13370554 -0.014827014 0.06948257 -0.0029280838 -0.05312996 0.005877856
келеді_kaz -0.046593446 -0.14845969 -0.039185055 -0.042263165 -0.06912288 0.08442056 0.08490746 -0.09387689 -0.10036369 0.073412545 -0.06691588 0.09924519 -0.03399831 0.01620318 -0.08219163 -0.079987586 -0.036675096 -0.05495641 0.076218724 0.005004642 -0.18945345 0.15356886 0.12552443 -0.050745957 0.0570305 -0.029267203 0.13644446 -0.28095397 0.014661889 0.14343153 -0.057961036 -0.006414749 -0.07836961 0.068586774 0.22929616 -0.10561498 0.052675664 0.16760738 -0.07406263 0.118064985 -0.02560867 -0.14654043 0.18193117 0.06956688 -0.03248155 0.05037788 0.17116626 0.032309264 0.11153077 -0.29223716 0.03962661 -0.013380541 -0.17568313 0.11640638 -0.10439211 0.06627247 -0.0047268425 -0.04121874 -0.0006208514 -0.08323808 -0.050810102 0.1308915 0.07204334 -0.060261335 -0.03447793 -0.012004086 0.021269202 -0.00020456218 -0.0717603 0.1930379 -0.040158957 0.0789802 0.015154011 -0.012584997 -0.05270207 -0.025989978 -0.035354525 -0.08891216 0.00912024 -0.02031628 -0.09260629 -0.19090103 -0.078264415 -0.06513294 0.020472905 0.10239036 0.07293325 -0.027646722 -0.0067423815 -0.115631945 -0.14864269 0.0013241352 -0.015581401 -0.139574 0.03971012 0.0048776474 -0.00039560767 0.20416605 0.15262996 0.10600328
болады_kaz -0.08770934 0.01734032 0.072167285 -0.24614187 -0.013051841 0.16509096 0.03443658 -0.019959178 -0.037154302 0.048902273 0.1103951 0.017475143 -0.12311193 -0.03553674 -0.122743905 0.056751184 -0.1729239 -0.08960283 -0.07578707 0.16362682 0.06202436 -0.019043494 0.012574144 -0.19560494 -0.08179194 -0.02654731 0.10825484 -0.1790422 0.079549864 -0.035355043 -0.13451804 -0.07368942 0.028003415 0.16931209 0.03754678 -0.117016844 0.07888134 0.15709852 -0.13009898 0.10042696 0.10156385 -0.029719796 -0.06255773 5.588646e-05 0.0667198 -0.13556555 -0.009701275 -0.03530162 0.09792182 -0.064340144 -0.05361881 0.13223462 -0.14746194 -0.05940859 -0.06752689 0.10212609 -0.14720477 -0.06944342 -0.039345846 0.036142897 0.093762964 -0.030185435 -0.033964112 -0.014499753 0.049785912 0.006043014 0.004228695 0.19082671 -0.036588218 0.09902338 0.12708363 -0.19706266 -0.12449166 0.1002603 0.13352834 0.020924881 -0.14428692 -0.038241673 0.30835629 0.031904034 -0.028986119 -0.11591506 -0.0532037 -0.06030222 -0.033360593 -0.0027678008 -0.016112689 0.013764213 0.035602193 0.09394503 -0.13487601 0.06205891 -0.048798542 -0.02082034 0.16502954 -0.05787337 -0.10525652 0.076286726 0.12309887 0.08479362
аны_kir -0.09228084 0.16483614 0.12894128 -0.049546808 0.016412526 -0.18312702 -0.20965979 0.011056936 -0.011436854 -0.10164913 0.010980388 0.07530475 0.06801454 -0.06326808 0.0912313 0.060137216 0.013336417 0.04758987 -0.07662727 -0.01914765 0.18278474 -0.16215597 0.003862089 0.21617313 0.13512132 -0.016306136 -0.0131925 0.16159433 -0.09709545 -0.077596486 0.098493665 0.032629564 -0.030970283 -0.21461883 -0.036243353 0.15659872 -0.0048166537 -0.22046335 -0.06673408 -0.038062938 0.13241133 0.12521419 0.008824517 -0.090943426 -0.020201568 -0.039872844 -0.13028312 0.041403476 -0.0940025 0.11922965 0.04829375 0.026119735 -0.046990894 -0.057143215 0.027417058 -0.008675468 0.10175513 0.16724965 0.07763202 0.09137375 -0.1024966 0.03705082 -0.00600718 -0.20717426 0.18614511 -0.098450765 -0.066416055 0.11700364 -0.13164896 -0.021598088 -0.113762595 -0.007955869 0.08890823 0.069960654 -0.022893108 -0.07428063 0.079340145 0.27147925 0.1301549 -0.01591149 -0.035988092 0.09807033 0.005015287 0.06334022 0.16426584 0.034314983 0.019838115 0.0376873 -0.0030913088 -0.010687191 0.050724916 0.012731719 -0.04853063 0.056751683 -0.00553514 -0.14386801 -0.010865332 -0.032867506 0.11876621 -0.12713005
