1219 100
eh 0.080250114 0.09993152 0.067024 0.11362604 -0.001252863 0.25475296 -0.11389423 0.08909445 0.019440014 -0.07594003 -0.09285101 0.055583898 0.07293156 0.07753527 -0.06457624 -0.0007531718 -0.19093287 0.04884663 -0.109607175 0.12697178 -0.14975055 0.01804738 -0.19024062 0.13633624 -0.034782916 -0.103364326 -0.23979202 0.08729809 0.15614407 0.18487705 -0.07356814 -0.013071312 0.07171478 0.1339218 0.027424973 0.020726142 -0.025135022 -0.044260353 -0.06732294 -0.013811287 0.0061233942 -0.0086574685 0.00033590273 -0.016411114 -0.06835227 -0.13195953 -0.005677884 0.16431414 -0.049439363 0.30069393 0.048044372 -0.10974401 0.08648048 -0.16525182 -0.11864279 0.10699666 0.056860756 0.07889509 0.055135198 -0.0047144634 -0.14872718 -0.019152911 -0.022207383 -0.11776572 -0.020719092 -0.124545425 0.08019578 0.05683732 0.107936665 0.17250071 0.029363498 0.10252505 -0.1176663 0.09372318 -0.07599337 -0.027602784 0.06392887 -0.025934324 0.09041001 -0.06954039 0.06964897 0.10970235 -0.13161945 -0.11143058 0.041210815 0.008871258 -0.05204034 -0.06963638 -0.1927386 0.07271393 -0.009200313 -0.09241644 -0.014727478 0.055854667 0.072270975 -0.056466065 -0.13368805 -0.018804697 0.028965512 -0.014797758
er -0.20635729 -0.07670034 -0.056929618 0.007978226 0.04292894 -0.17124163 0.2054808 -0.0068117552 0.034622215 0.024937853 0.10652571 0.06503262 -0.056556683 -0.09659112 0.060393807 -0.06036514 0.15676466 -0.051579557 -0.05349147 -0.17921124 -0.082645126 -0.18214276 0.10104479 0.09719278 -0.0403822 0.013947342 0.014695565 0.039464943 -0.11193182 0.037229728 -0.06157597 -0.02602036 0.09087082 0.0015584934 0.0057257675 -0.13577418 0.00732476 0.03594532 -0.07366788 -0.08899326 0.010574156 -0.10080911 0.045461208 -0.10443571 0.032165695 0.12266262 0.05144029 -0.004088106 0.095792346 0.12484384 -0.12209073 0.06958568 -0.0060366243 0.020753939 -0.046862878 -0.012637823 0.12811203 0.17403316 -0.037167914 0.15194207 -0.11442351 -0.050269995 -0.06479837 0.13700278 -0.03142739 0.12143602 0.13218443 0.07271673 -0.12900296 -0.07450746 0.1505571 -0.029704826 -0.048285928 -0.07951673 0.06656689 0.16930929 0.1609611 -0.27526957 -0.105037235 0.31680778 -0.0569141 -0.019037087 0.058113597 -0.015173114 0.063216016 -0.052329022 0.09048663 -0.03289068 -0.07389958 0.045899224 -0.046307605 -0.00273126 -0.14805064 -0.050012242 0.2132704 -0.045953535 -0.056976337 0.024135225 -0.06833048 -0.026437027
yn 0.061720498 -0.037520483 0.035749458 0.13237502 0.07783062 0.19273037 0.16153881 -0.13869625 -0.16819446 0.016294902 -0.13231823 0.10077957 0.06537665 0.02360466 -0.0033422792 -0.09178224 -0.01152218 0.012012937 -0.081365414 0.038968734 -0.16905776 -0.089626856 0.06997807 -0.07342164 0.012616457 -0.023144694 -0.11838813 -0.1151532 -0.15550552 0.10150114 0.0018090894 0.016178364 0.10679504 -0.01687563 -0.101299986 0.1653978 -0.15409969 -0.15128317 0.0001231588 0.110122144 -0.07843093 -0.02618812 0.014137125 0.10389611 -0.16249882 0.073565714 0.062647365 -0.01985651 0.038084272 -0.04836219 -0.05606163 -0.103498586 -0.17210306 0.017509129 -0.023085568 -0.09889488 0.16110617 0.08643213 -0.056170914 -0.15923442 0.10860405 0.10719262 -0.04587468 0.12271984 -0.15197492 -0.0391269 -0.03221241 0.04088971 -0.01278099 0.076367386 -0.017166728 0.14288913 0.09877308 -0.08549209 -0.09158278 -0.22917919 0.17308998 -0.012214086 0.06045991 -0.13816336 0.096600406 0.041851606 -0.205685 0.085612975 -0.07796611 0.099863544 0.025924418 0.05797568 -0.12192106 0.086236104 0.11540303 0.010099218 -0.07930219 -0.13161997 0.08240081 -0.050135035 0.056536205 -0.00765713 0.19479285 -0.045870263
t -0.09827988 0.01748925 -0.011657239 0.090747274 -0.006486927 -0.11103447 -0.24888666 -0.008336906 -0.048285626 -0.104339026 0.17641632 -0.023746116 -0.11020622 0.07887944 -0.046798803 -0.22341734 0.1464227 0.030965239 -0.056987315 -0.13185969 -0.2557831 0.25774315 -0.057439584 -0.016192297 0.10650157 0.14599355 -0.0043879813 -0.030357895 -0.023957107 0.035000406 -0.06508234 0.09439267 0.034676563 -0.0672853 0.0146210985 0.06078344 0.061775587 -0.0009903401 -0.11625766 0.030018903 0.12976547 0.114230454 0.0061510955 0.20600845 0.06287242 0.09733638 -0.14134017 0.08240363 -0.109688364 -0.048158273 0.039120827 0.009791618 -0.08415464 -0.16903761 -0.08431329 -0.036729794 0.05607382 0.013336347 0.093240745 0.048600666 0.09861111 0.06999526 -0.043106884 0.039323386 -0.22545442 -0.012851862 0.082967944 0.090431824 -0.08350076 -0.010879151 -0.0062483107 -0.09121556 0.0021743684 0.19184552 0.29221863 -0.0074432706 -0.10605103 -0.005937713 -0.06716605 -0.015260774 0.10403519 0.056606643 0.038792703 0.06611182 -0.027128028 0.0023070648 -0.010555074 0.06265483 0.09181266 -0.06596993 0.09406711 -0.16267398 0.02976677 0.08254289 0.010547877 0.067547165 0.09974285 -0.12921727 0.013717249 -0.014456166
ta 0.08332304 -0.06891904 0.1390706 -0.1967189 -0.14359258 -0.061366502 0.036805604 0.15164956 0.08807447 0.13709387 0.044328157 -0.036137823 -0.11551926 0.01922571 0.048819214 -0.1325187 -0.03365957 0.036886454 0.050334837 -0.031931467 -0.066797934 -0.079233296 -0.06967603 0.027766353 0.04891257 -0.12002808 -0.014908247 -0.055580873 -0.0124286935 -0.10279349 0.0139267 0.06407729 0.18568003 0.08458579 0.06809001 -0.01947569 -0.13519871 0.011241282 -0.07893936 -0.02403913 0.12105032 -0.1561487 0.17845806 0.06494767 -0.014869075 0.19018564 0.018231846 0.062391285 -0.004312827 0.027055075 -0.086388454 -0.23682256 0.114846386 -0.091891676 -0.10919686 -0.01788146 -0.00062252925 -0.0068766926 0.13295339 -0.10524754 0.059792664 0.09238372 -0.1605675 0.019039528 -0.045631308 -0.058209427 0.013854725 -0.089230664 0.22706082 0.058462307 0.02539612 -0.17331302 -0.08326696 -0.07749745 0.19070102 -0.073553 -0.21363679 0.118620716 -0.0181678 -0.029049113 0.10493061 -0.056748323 -0.0074325595 0.034142505 0.03706342 -0.0068161194 0.08047875 0.06659893 0.0002009964 -0.082961194 0.13820095 -0.111870386 0.060623147 0.010456858 0.17109582 0.16342318 0.043277197 -0.089023106 -0.19355024 0.13966203
ny -0.10154913 -0.14745294 -0.15039743 -0.03468563 -0.081772536 0.13268685 0.06571596 -0.0037627812 -0.021433763 -0.013756603 -0.088139534 0.027035719 -0.13761999 0.06786855 -0.12406144 -0.008205025 -0.12609072 -0.106993616 0.17874633 0.20643689 0.08703628 -0.07391542 -0.050795317 0.0032675734 0.20077388 -0.07733858 -0.14278568 0.0053846533 -0.066122 -0.07168788 -0.07369173 -0.1675306 -0.0010568472 -0.05745389 0.08039121 0.26281247 -0.060862154 -0.09578215 -0.21597517 0.042897202 0.0703159 -0.05028067 0.041394606 -0.066204205 -0.123745255 0.029705474 0.05169252 0.0840949 -0.022769473 0.10361994 0.025139881 0.04833347 0.051645633 0.053533573 -0.028958578 -0.15098098 -0.014573696 0.10066674 -0.015501503 -0.07683367 0.16070533 0.18746963 -0.20045906 -0.08610624 0.11100741 0.021080352 0.14779739 0.17301793 0.07542231 0.022565199 0.019073172 -0.102473155 0.0006134379 -0.0010363803 -0.09755407 -0.098702624 0.06622146 -0.11311439 -0.1090729 0.12079634 0.020888342 -0.14585719 -0.013154298 -0.09124463 -0.109676 0.10329645 -0.0320396 -0.11719018 0.006574063 -0.07337866 0.07602091 0.04376335 -0.008340868 -0.12771718 0.004333151 -0.09074962 0.038279742 -0.09865223 0.016772341 -0.17460486
ec 0.16814198 0.1406298 -0.08971962 0.0036889315 -0.06673796 0.030448798 -0.004156067 0.046733744 0.03954917 0.04314451 0.099610925 0.12100586 0.017892404 -0.01829802 -0.06381352 0.054514855 0.07849114 0.24666466 -0.016738143 -0.020008938 -0.0870476 0.021712689 -0.06485457 -0.06133747 -0.058283623 0.07849209 0.039093826 -0.08544125 -0.20046183 0.08583705 0.01899961 0.03293509 0.11021929 0.0051645073 0.26511028 -0.06283532 -0.0992508 0.031256396 -0.12180625 -0.0027839507 -0.08845404 -0.089525394 -0.19947918 -0.021278549 -0.057049382 0.031837583 0.09817586 0.009399224 0.12090437 0.038519483 -0.07829665 -0.03239157 -0.046468873 0.12384357 -0.05795287 -0.028435353 0.17372751 0.04640355 -0.0069330516 -0.04173354 -0.03872899 0.056609668 -0.04959343 0.04512092 -0.018758785 0.088419974 -0.07675621 0.20981115 0.17255461 -0.046436407 -0.101968616 -0.00081202126 -0.13699445 0.024745263 -0.039153982 -0.1113038 0.04239211 0.20095687 -0.056923788 0.25964507 0.04180193 -0.15078048 0.14265825 0.075064026 -0.28098992 -0.0937008 0.13858433 0.012907123 -0.06771909 0.1078982 -0.06514733 -0.075873435 0.046374053 0.0040328614 -0.08104653 0.04482742 0.014504488 0.10627263 -0.16242346 -0.010857773
t'eh -0.0053738793 0.06150341 0.02849938 0.03971058 -0.0137793925 -0.0738153 0.1577456 0.06705895 -0.04638575 -0.14190078 -0.02342702 -0.15835662 -0.03743069 -0.17083152 -0.050633896 -0.04665185 -0.033049412 0.089766905 -0.0051761186 -0.047045093 0.027882254 0.0073250057 0.31990072 0.10174143 -0.024050506 -0.12189264 -0.03712394 -0.19279982 -0.01890188 0.06822027 0.00015520197 0.02044679 0.046047457 -0.027338078 -0.13553932 0.022452088 0.23578519 -0.058750924 0.17267968 -0.032176115 0.056209765 -0.03273888 0.107638635 0.15478788 -0.11095894 0.05537051 -0.017560462 -0.1858482 0.038232096 0.098690614 -0.039313745 -0.24102528 0.03717682 -0.0959715 -0.031924464 -0.035368435 0.046717193 -0.32526958 -0.12852773 -0.013810675 -0.035671648 -0.13462918 0.02151914 0.012494975 0.09565091 0.027742034 0.014782422 0.075799756 0.25368604 0.10004354 -0.11223102 -0.021496797 -0.047739085 -0.0844769 0.12130224 -0.14087634 0.036652725 0.047497164 0.07580141 -0.14363743 -0.041907497 0.098732375 -0.0051292577 -0.07168074 0.060821936 -0.015464804 0.053984214 -0.14671606 -0.04586082 0.021937646 -0.07393726 -0.11078876 -0.0005595823 -0.04159097 0.03218895 -0.104969785 0.004846496 -0.025435446 0.052522566 -0.036258087
y -0.04978798 -0.21537314 0.08943645 0.032274786 -0.0068503427 0.05313757 -0.08027253 0.059135497 -0.057578404 0.06600116 -0.013553393 0.00089610583 0.20169814 0.14689323 -0.02520202 0.007824122 0.029346032 -0.034144998 0.02568728 0.006868708 0.15838099 -0.18383536 0.08371307 -0.060198463 0.13695219 0.16619866 0.04098503 -0.010844599 0.10487889 -0.15258735 -0.046473194 -0.099010326 0.037337333 0.20734555 -0.04949288 0.047560867 -0.10263498 -0.083364904 0.028002609 0.12039609 -0.061153654 -0.07448198 -0.15426868 0.0004899905 0.020998111 -0.018365733 -0.022889063 0.098477304 -0.121185265 0.10239813 -0.041988082 -0.1503302 0.20621818 -0.08661808 0.07554657 -0.111807145 0.053805605 0.22533654 -0.02985119 -0.025829019 -0.064790435 0.05089309 -0.12088024 -0.041164476 0.037902407 -0.0298343 0.016041366 -0.029704504 0.10463386 0.15685488 -0.19357757 -0.042112697 0.15672174 -0.11057568 0.11642214 -0.03679126 -0.07737023 -0.13286148 -0.12735939 0.07747793 -0.0139003955 -0.0023679049 -0.19332825 -0.17478521 0.05386445 0.13084719 0.086018056 -0.14613679 0.17044751 0.082879186 0.03405008 -0.09521126 -0.15538743 0.014262 0.0095044505 -0.020688182 -0.011080499 0.0068173455 0.06878278 -0.033568807
da -0.088805445 -0.26232606 0.02451598 -0.100428574 0.062066227 -0.1094156 -0.02686146 -0.16746569 -0.021880744 -0.1597764 0.11047692 0.03281734 -0.2859079 0.004750626 -0.15973474 0.0052335667 0.16502364 -0.019908128 0.052732524 -0.060882974 -0.14343823 -0.014560168 -0.05097303 -0.12113716 0.102786325 0.048879545 -0.15318243 -0.0880894 0.0030458267 -0.06626203 -0.019323008 0.007929455 0.05749522 -0.09251106 -0.23442261 -0.16761068 0.018105676 0.14862293 0.03239309 -0.07309545 -0.013091142 -0.1697457 0.12125518 -0.08352647 -0.013713081 0.025492178 0.06975065 -0.06285792 0.06304646 0.101443425 -0.06135086 -0.06653149 0.1040164 0.038616274 0.030502047 0.06556577 -0.020008815 0.03509848 -0.028643077 0.005549707 -0.28352675 0.06963058 0.06670337 -0.01677996 -0.09388224 0.018464802 0.13491468 0.12526901 0.016674751 0.013090757 -0.007016581 0.08706702 -0.081399396 -0.0055413563 0.054674506 0.20677896 0.13938546 0.12560642 0.02828763 0.034921568 0.042132635 -0.11284812 -0.09534151 -0.03338569 -0.05923912 -0.18575317 -0.08471042 -0.13877325 0.108997196 -0.0042983633 -0.009287736 0.0093471045 -0.009398845 -0.09158704 -0.038857453 -0.0009738934 -0.036938768 -0.10185109 -0.11242279 0.08597986
dy -0.073269084 0.04669449 0.11143584 0.029740218 -0.15509371 -0.21206187 -0.17671417 -0.31306124 -0.08875369 0.06285969 -0.020479152 -0.08354717 0.05881865 -0.075810015 -0.005051047 0.04394294 0.038881086 -0.0011503015 0.02067453 -0.054308012 -0.02612014 -0.019078156 0.07674967 0.024610734 0.04971513 0.0226501 -0.07492355 -0.027737044 -0.19683416 -0.23414247 0.08700298 0.04177591 -0.036913127 0.24387574 0.101387456 -0.016990222 -0.05520513 -0.07225454 -0.09734193 -0.037632324 0.04817059 -0.016943142 -0.005860219 -0.085500576 -0.0861303 -0.008935333 -0.024053797 -0.10035731 0.08110814 0.15200494 -0.008119354 -0.002027263 0.012538456 0.0019835383 -0.0526656 -0.13229045 0.04931444 0.17124602 0.13894287 -0.031632394 -0.023001684 -0.03936118 -0.105293415 0.060753066 0.121988975 0.06761735 -0.10042358 0.023811648 -0.04947692 0.03775425 -0.08358551 -0.22469698 0.1546496 0.16878161 -0.1225735 0.11722888 0.024769204 -0.09773555 -0.075154096 0.014222283 -0.044476073 -0.017080428 0.09631503 -0.11905414 0.04019367 -0.19797593 0.015549795 0.08412621 -0.031404573 -0.045393504 -0.20500922 -0.11688879 -0.18214473 0.041743606 0.041857988 -0.03635498 -0.059190907 -0.03728619 0.12803677 0.086792596
as 0.021248575 -0.11810844 -0.028789695 -0.0887766 -0.17505065 -0.13890138 -0.08747692 -0.20500673 -0.04087041 0.056847192 0.04734333 -0.030544657 0.05805483 -0.06208022 -0.040506903 -0.11716275 -0.043788917 0.14607699 -0.07748081 0.016610652 -0.057746876 -0.1384972 -0.06432888 -0.09679955 -0.11548843 -0.13575949 -0.010995315 0.02506672 0.190408 -0.002327001 -0.065576404 0.061457176 0.07128368 -0.055716477 -0.14272699 -0.010449166 0.014497312 -0.13633129 0.07474188 0.16874497 0.10785473 -0.022602633 0.08038069 -0.03807453 -0.22543898 -0.07716687 0.1446661 -0.1914614 -0.23292257 0.06996421 0.11114965 0.03593493 0.028146213 0.24778007 -0.11803143 -0.14603889 -0.023025706 0.21566962 0.1616665 -0.108464904 0.030941894 0.028894052 -0.029234337 0.09265138 0.009812819 -0.1230708 -0.043085735 -0.0385817 0.04175594 -0.065202355 -0.09217181 -0.07329156 0.0031904944 -0.00915618 -0.086029045 0.115798354 0.158621 -0.06270575 -0.010872242 0.042193912 -0.016214449 0.08712057 0.044503696 0.03271604 0.018261304 0.13610885 0.015153006 -0.036999136 0.06453051 -0.045528684 0.021954674 0.082783334 0.1501001 0.05350557 -0.17220736 -0.058013283 -0.05271523 -0.1330853 0.08381421 0.025001768
ayns 0.0044589075 0.19958438 -0.014409951 -0.19243452 0.11665978 -0.033848304 -0.11343886 -0.025877567 0.084188044 0.16512515 0.093589954 -0.042505484 0.08437191 -0.09003256 -0.055233285 -0.07539023 0.098887905 0.04661283 0.076404564 -0.044445537 -0.02182119 -0.068554275 -0.061157208 0.14731432 0.13666956 -0.0055464203 -0.044237386 0.042491697 0.0383593 0.23828605 0.07585705 -0.15283015 0.18827194 -0.20489003 -0.0411706 -0.06913489 -0.04709021 -0.15046287 0.020180788 0.030804627 -0.09286867 0.052277975 -0.052974164 -0.086228535 0.019615594 -0.14199084 0.020300055 0.0077010724 0.021564009 0.22420852 -0.17963883 0.0045146924 0.015359657 0.06633964 -0.027114963 0.16679272 0.02946555 0.1056522 -0.036356214 -0.1030295 0.014810068 -0.08669375 0.114397 0.03209799 -0.035524685 -0.03276879 -0.013431613 -0.09316193 -0.061984606 0.05931974 -0.047514804 -0.07132853 -0.13645037 -0.036621932 0.041748628 0.0011793432 0.15941618 -0.072669186 -0.18675399 0.1242896 -0.08817376 -0.047826696 0.12947556 0.07426232 -0.06274788 -0.1268221 0.018830217 -0.09738847 0.05299148 -0.20657885 0.1958646 -0.053054813 0.2197039 -0.033753388 -0.032036018 -0.0029845072 -0.13458407 0.02627753 0.03005698 0.055800766
echey -0.09800546 -0.04818642 -0.02945548 0.15948732 0.2035531 0.079128705 0.03626614 -0.05468156 0.04533165 0.00015994952 -0.08892412 -0.10510345 -0.059262253 -0.008154866 0.14121184 -0.19978376 0.0697113 -0.0027717843 -0.10439461 0.005376289 0.022650687 0.10536455 0.1153938 0.07218768 -0.023932626 -0.09328801 -0.011288543 -0.123650566 -0.115284294 0.034074046 -0.05311391 0.026232991 0.15065613 -0.13045195 0.0032468478 -0.011231402 -0.07201835 0.032295004 -0.11870649 -0.117639974 -0.077604756 0.027407827 -0.15275519 -0.028141398 0.016583432 0.12562613 0.007772532 -0.047486473 -0.08571265 0.010511438 -0.07279268 -0.061658807 0.08656676 -0.05418308 0.0716472 0.20337689 -0.1187903 -0.07031893 0.11684152 -0.19128153 0.11529021 0.10060327 0.058291882 0.06345077 0.083151944 0.09540363 -0.0292292 -0.115580864 -0.21382663 0.15774468 0.18889135 0.073326275 -0.042744003 -0.028376827 -0.050763357 0.060368124 0.20242321 0.13952222 0.020149326 -0.14593524 -0.15999429 -0.04441139 -0.08406117 0.13145764 0.009183959 0.094057575 0.117864594 -0.10971251 -0.11183296 -0.051023655 -0.038309947 -0.04826225 0.09657983 0.21989809 -0.049746625 -0.035242327 -0.072102696 -0.018935496 0.14305085 -0.11765475
e -0.078927346 -0.0065177646 0.07396408 -0.05545876 0.1688224 0.15990323 -0.043018155 0.07230426 -0.08064737 -0.17363946 -0.04306766 -0.186075 0.16304189 0.060390614 -0.016105995 -0.025441265 0.099193975 -0.13594344 0.1530282 -0.12014267 0.10604105 0.02254074 0.013614794 -0.028358903 -0.014336862 0.16227807 -0.0044541145 -0.1995908 0.058168367 -0.14083411 0.043385893 -0.097875245 0.0070830095 0.03898921 0.018791689 0.05284424 0.13807392 -0.030546913 -0.0038546345 0.13131046 0.0011859332 0.004424743 -0.104029775 -0.1408848 -0.053387854 0.009553503 -0.13767146 0.08028482 -0.088215284 0.12437267 -0.048708588 0.14416914 0.21511157 -0.047534015 0.085134156 -0.17188966 0.11648936 0.03158016 0.17687242 -0.0737434 0.11829394 -0.0774594 -0.005009944 -0.14844741 0.017603768 0.08309397 -0.007997525 0.10298863 -0.12246727 0.1662916 -0.04355612 -0.11706415 -0.061852746 -0.063516185 -0.015821014 0.028001336 0.08248857 0.09367202 0.018302841 -0.013058295 0.18417366 -0.014814747 -0.08395255 -0.23121332 -0.1171187 0.08524821 0.064114995 0.02277871 -0.0026110795 0.22797658 0.08952567 -0.082085006 -0.10819533 0.026887238 0.0013127261 -0.034950588 -0.005205405 -0.084000565 -0.030053983 -0.06279493
jeh -0.092516124 0.040164784 0.09825374 -0.09462846 0.14721921 -0.062369723 0.033948466 0.09901014 0.0014460069 0.08744536 0.068565235 0.032738164 -0.2622335 -0.09375843 -0.14202583 -0.13824514 0.038483113 0.030077685 -0.092292756 -0.091510154 0.058095925 -0.0096570905 -0.1240723 0.0636912 0.1512643 -0.028695747 0.042895168 0.10270093 0.01827702 0.0018151572 -0.040871907 -0.020554222 0.04464475 -0.090406746 -0.12062289 -0.076733425 -0.048975263 0.15193813 0.037028234 0.013106589 -0.0051330053 -0.0924422 -0.12426911 0.06301528 -0.20686401 -0.00617317 -0.12111366 -0.005683289 0.079058886 -0.09810937 -0.13069844 -0.10919229 -0.007288396 0.060490984 -0.103878506 0.12803935 0.023005046 0.035444144 -0.018743621 0.0666358 -0.10012636 -0.19546567 -0.0060425303 0.09454448 0.13605784 0.024366863 0.038970295 -0.00026326353 -0.0983078 0.009677479 0.1841342 -0.004772597 -0.013983759 0.17195664 -0.023596682 0.032389756 0.11240739 -0.1291635 0.077152826 0.058134273 -0.15394782 -0.034931656 0.16717902 -0.059051868 -0.37965247 -0.1290159 -0.08079594 0.056544412 0.04912797 -0.031690706 -0.08948144 0.027247975 0.0028143153 -0.08690497 0.07694331 0.03613403 -0.06032291 -0.020510511 0.21309249 -0.058251183
mee -0.17749433 -0.14922564 -0.07855322 0.1343353 0.15193196 -0.055786327 -0.12554774 0.06495259 0.051801685 0.017480472 -0.087268405 0.02159791 -0.16269577 -0.028175008 0.07476015 -0.048177566 -0.14103091 0.079182394 -0.026045326 0.09187188 -0.006829056 0.054011032 -0.025254993 0.01329143 0.062314235 0.10920519 0.0073545137 -0.2052336 0.035256606 0.049102 0.133794 -0.11581266 -0.18684644 0.053993642 0.05273546 -0.049869012 -0.1157759 -0.00031296475 0.054898296 -0.21207732 -0.06668472 0.046462204 -0.20138253 -0.035983533 -0.07232341 -0.26383445 0.036453098 0.03551433 -0.043280173 0.12247441 0.005265212 -0.092556484 -0.09641543 0.08127828 0.17780937 -0.05777515 0.17337464 -0.027308859 0.08925919 0.157128 0.08312628 0.08904271 -0.07622776 0.009849642 0.09110586 -0.011315527 -0.037075672 0.006265945 0.017356416 0.03919915 -0.07536425 0.18079041 -0.016103005 -0.00027496926 -0.063702464 0.14902136 0.017793624 -0.028360665 0.08338719 -0.03325144 -0.062155362 0.1227229 -0.055996194 -0.08764779 0.13293874 0.059477128 -0.17541496 0.034359988 -0.15762764 0.036947023 -0.04132508 -0.08601471 0.1147849 0.09587586 -0.22836043 -0.084891625 -0.13386224 0.0048754294 0.051969584 0.018405117
ren 0.05749814 0.08420562 -0.0011758019 0.21394905 0.051647995 -0.074132726 -0.038270466 0.07447914 -0.004506856 -0.21446781 0.06829969 -0.07180521 -0.019881466 -0.005865352 0.12300132 -0.10139423 -0.04340074 0.11085253 0.014461748 -0.045220904 -0.16911183 -0.00050124654 0.10303932 -0.06836152 0.14797814 0.032666694 0.022643322 -0.099243805 -0.13156405 0.14585683 -0.052333027 0.011472251 0.067201935 -0.06382421 0.043999895 -0.01981202 -0.004696952 0.015089057 0.08999407 0.30881754 0.11896089 -0.0020656148 0.15847974 -0.060200848 -0.030720703 0.05678754 -0.20293647 -0.083162196 0.08762446 -0.06470545 -0.08748425 -0.08541635 0.096021995 0.042500447 0.07065303 -0.015600388 -0.071616344 0.13752756 -0.08145782 0.061558235 0.19502515 -0.022450438 -0.048068345 -0.12507184 -0.027286515 0.03691101 0.06872456 -0.12977517 0.03994241 -0.10933853 0.10024866 -0.02713348 0.023788596 -0.16848494 0.12362382 -0.19626285 -0.103695534 0.0956622 0.12197904 0.15114729 -0.050277494 0.044717394 0.15388286 -0.11120755 -0.011477299 0.043891065 -0.051507242 0.0001954504 0.057668254 -0.07120876 -0.14835528 -0.055089097 0.010510178 -0.15541448 -0.04772592 0.047520418 0.097504094 -0.017608514 -0.22913706 0.09902705
n 0.06260265 -0.18891715 -0.061871953 -0.012409889 0.11286597 -0.04814814 0.010266025 0.031101173 -0.20832576 -0.020212287 -0.15046278 -0.07794089 0.08819015 0.1085038 0.11630745 0.09400305 0.005277546 0.107304975 0.08512788 -0.02578642 0.019053215 -0.04206995 -0.027836096 -0.20927662 0.018395612 0.023097897 -0.25136992 0.079677224 -0.020507103 -0.04252889 -0.09979916 -0.03638997 -0.11897542 0.058729135 -0.05704007 0.023692342 -0.05406554 0.22820795 0.02792029 -0.05434502 0.06208213 -0.023607483 -0.1326894 0.060001668 0.018169953 0.03675892 0.086692944 0.014016356 0.10475031 -0.030085241 -0.04924457 -0.12487595 -0.04772488 -0.025591185 -0.15663646 0.12387028 -0.00533379 0.20320576 -0.0722999 0.10703379 -0.016308906 -0.109256655 0.19394627 -0.024772596 0.23641525 -0.05511629 -0.0016168953 0.11639567 0.058863424 0.04801061 0.056570888 -0.124673024 0.12997967 0.066517666 0.0698391 -0.12931606 -0.04636172 0.060935024 -0.12381431 0.15084144 0.007121452 0.02701497 -0.11334023 -0.0089023765 -0.07138024 0.19415915 0.0059892694 -0.063002616 0.015070446 -0.19679533 0.015938113 -0.068257116 0.1113704 0.13394941 0.052090645 -0.16412221 -0.14615354 -0.025611553 0.038254507 0.088014215
cha -0.08084375 0.09121502 0.15328082 -0.084836096 -0.06579551 0.023780301 -0.05665211 0.08491797 0.09310645 0.11793279 -0.013774367 -0.0054813805 -0.111084335 0.017275767 -0.04026862 0.058811523 -0.09130787 -0.039866433 -0.22191238 -0.02545827 -0.26129523 0.083704464 0.049493454 0.15260555 -0.002557714 0.030323792 -0.029698826 -0.1613195 -0.094019316 -0.0637926 0.10411689 -0.08773303 0.09817902 0.06633209 -0.038605474 -0.027275637 -0.044781763 -0.04226947 0.032459203 -0.08716616 -0.10433576 -0.06196612 0.058864374 -0.2282988 0.095776714 0.058830775 0.04805299 0.041330785 0.033859007 0.043357406 -0.098271355 -0.19708906 -0.26918977 -0.10153045 -0.15299761 -0.091714256 0.069047675 0.06678793 0.09016647 0.17006584 -0.0012573366 0.12331258 -0.07511842 -0.027602937 0.113671154 -0.030075697 0.10983688 0.08141263 -0.10204756 -0.13557526 -0.028589794 -0.028196389 0.027253613 -0.0021157372 -0.19276978 0.11803191 0.04583371 0.07998836 0.20684585 0.085601404 -0.16461064 -0.052363563 0.07145087 -0.016970566 -0.09678676 -0.13704613 0.08815817 -0.071676105 0.0951302 0.10815111 0.1639414 -0.13186677 0.02294111 0.020516878 -0.036022745 0.01218964 -0.04937789 0.052234806 0.018178014 0.07901702
hug 0.14266881 0.06633853 0.18635814 0.04758801 0.021908604 0.018783784 -0.042281672 -0.11740552 -0.022546437 -0.21132657 0.07946321 -0.23074147 -0.043369617 0.20230326 0.027328284 -0.08322931 0.1363853 -0.014107765 -0.049597606 -0.050101154 -0.11102708 0.06478237 -0.024699118 -0.0100142965 -0.011779285 0.07371285 0.11150518 -0.26677474 -0.051154174 -0.012823712 -0.12692074 -0.09811016 0.11463584 0.015236682 0.02359322 0.03700129 -0.106814936 0.03702771 0.15728897 0.089203216 0.0040889755 -0.1319355 0.04025087 -0.022738395 0.027418643 -0.042698074 -0.1119699 0.00011529976 0.14611903 -0.18432552 -0.08018786 -0.15125689 -0.071945116 0.043935813 -0.015030543 0.0018714846 -0.08123871 0.052549284 0.06971134 -0.041979186 0.028187497 0.080022715 0.16763568 0.11917124 -0.07183124 -0.032488275 -0.022579396 0.09046555 0.20105132 -0.18211046 0.13722445 -0.18618254 -0.08753297 -0.059889458 0.12402941 -0.03581059 -0.021783415 0.045767803 0.1282387 -0.1058567 0.10713023 0.06758651 0.05630495 -0.05055337 0.04273079 0.051974464 -0.0801383 -0.04934821 0.036019333 -0.09824467 -0.017076477 0.062237825 0.09300339 -0.020638727 -0.0026737887 -0.03621263 0.14600077 -0.029845295 -0.24556726 0.1083656
lesh -0.16536355 -0.14672689 0.07310174 0.0047971685 0.10634034 -0.12980066 0.12010415 -0.22127616 0.11691942 -0.1104836 0.005118771 -0.053007413 -0.039043073 0.07475151 -0.13052335 -0.09388425 0.18760239 -0.09546885 -0.011215649 0.109434344 -0.086384185 0.048112273 0.008553573 0.037164155 0.09832616 -0.21767929 -0.023401925 0.060894307 0.08390141 0.101456545 0.067186765 0.0496473 0.031277183 0.089524984 -0.13448815 -0.12801476 0.033836555 -0.08568622 0.11540028 -0.13416408 0.03702103 -0.26995504 -0.06836052 -0.100485146 -0.019137574 0.04160986 -0.09916938 -0.06836309 -0.045454253 0.020832894 0.08511815 0.07348634 -0.08061018 0.110632345 -0.015431732 -0.11256648 -0.1620675 0.060231995 -0.06480066 0.038964983 -0.1494595 -0.13098703 0.09740929 0.13485318 -0.039477576 0.11786866 0.16259924 -0.03150538 0.14124443 -0.22618063 -0.029667119 0.090290785 0.03051517 0.0843247 0.103891924 -0.006367745 -0.0105178 0.0009557648 -0.18059154 -0.027698759 0.002892217 0.05245564 0.08897766 -0.006119548 -0.11865738 -0.15465645 0.09643326 -0.03347981 -0.011672613 0.033403605 0.082500346 -0.094774745 0.1759979 -0.050655447 -0.041716672 -0.04633755 -0.0535407 -0.02047726 -0.090770654 0.01706917
ad 0.15798925 -0.0020755047 -0.16980663 -0.039361626 0.019357454 0.056897983 -0.087634094 0.17503744 0.06380645 0.08902264 -0.0087278485 -0.013081549 0.056882083 0.0027279956 0.028382102 -0.011504996 -0.079442345 -0.121377505 -0.06292438 0.050438374 0.025277082 -0.16923462 0.17020446 0.09581364 0.16073376 -0.07620521 0.080490656 0.07667787 0.0043792175 -0.12373462 0.10496023 0.019107737 -0.12679778 -0.101140805 0.058511276 0.10271833 0.06734423 -0.17395107 0.014808994 -0.038770653 0.11190884 0.09849317 -0.0066809407 0.076197974 -0.073814005 -0.068566754 0.1926728 0.063176475 0.0115430355 0.30304778 -0.17473575 0.08072516 -0.03849865 0.07017116 0.1680972 -0.036696088 -0.02511867 -0.034767527 -0.07718384 -0.0645514 -0.088130735 -0.043599155 -0.01116437 -0.015256774 0.0941323 -0.08837876 -0.005033932 0.009907322 0.017197262 0.035889413 -0.069954745 0.032160997 0.08882882 0.06617886 -0.05268651 0.1015873 -0.04455812 -0.06823829 0.103637934 -0.14462192 -0.19503452 -0.024447074 -0.11664861 -0.13457854 0.07380695 0.2364012 -0.15056708 0.20137617 0.030689918 0.02514057 -0.039486114 -0.1432573 0.0039785374 -0.007827261 -0.133506 0.092628725 -0.062432855 0.10012927 0.16743408 -0.049759313
ee -0.08284759 0.06417862 0.07034218 0.10233694 0.044867244 0.058437172 -0.05274723 0.15606819 -0.13241349 0.058964916 -0.12683612 -0.06976089 0.07749266 0.113364086 -0.074880496 -0.06906741 0.259502 -0.084425025 -0.19767815 0.03646702 0.13220541 0.11111494 0.1730886 0.1449702 0.02517287 0.11339243 -0.018941008 -0.05043426 -0.06463835 0.11108921 -0.056240562 -0.012997288 -0.15305808 -0.018576054 0.041337058 -0.09069452 -0.20347413 0.030655937 -0.19223735 -0.121296324 -0.03865119 0.28498015 -0.00019328302 0.011216361 -0.123984694 -0.21956459 0.15256652 -0.025366733 -0.1615848 0.021438727 0.05608185 -0.014667634 -0.059256833 -0.033116248 -0.14077854 0.04445243 0.098233834 -0.038881406 -0.1447899 -0.06725056 -0.028872158 -0.0013195081 0.06982622 0.06900216 0.096699215 -0.020644654 0.24638695 -0.03166637 0.07989033 -0.037615534 0.033845015 0.122841015 0.022197971 -0.18340619 -0.1148566 0.018682962 0.030264895 -0.0055291397 0.06361557 -0.0132619925 -0.042920426 0.050440997 -0.052363656 -0.028867308 0.02645267 0.004434479 0.0959655 0.02301905 -0.10688786 0.10020914 0.08096789 -0.029427037 -0.081780344 -0.02425095 -0.038265154 0.06909583 0.07276272 -0.0070391395 0.03582784 0.14351219
oo -0.26921394 -0.11914905 0.0154276155 0.16509259 -0.06136507 -0.012171943 -0.017388195 0.18243362 -0.002127462 -0.07953067 -0.2156449 0.088582925 0.061447658 -0.034298852 -0.018432423 0.030000111 -0.14974795 0.10258867 -0.23114349 -0.17517607 0.070544645 -0.06887632 -0.017947676 0.063095205 0.033368662 -0.022059824 0.046141706 -0.0149980225 0.011232196 -0.045664627 0.20639552 -0.09831244 0.003920038 -0.023528615 0.08521477 0.08821242 0.1922862 0.049332432 -0.09294705 0.058102664 -0.03362357 0.033606663 -0.025341755 -0.05153779 -0.13243158 0.12189418 0.018563794 0.17999513 0.123839185 0.043655735 -0.019218126 0.054857988 0.015501355 0.20237352 -0.04818004 0.23342486 -0.021751663 -0.04175212 0.035394702 0.036702253 0.20905551 0.003397856 -0.095889 0.016673366 0.010709921 0.059506457 0.06630589 0.048546445 0.008025074 0.020537138 -0.055512153 -0.08053014 0.013303241 -0.12579024 0.11210973 0.11241672 -0.03596526 -0.01223591 -0.024355248 -0.20925657 0.026143009 0.023523673 -0.069044046 -0.028934576 0.036571644 -0.09967594 -0.090950064 0.08693488 -0.18010409 0.07213638 -0.0918839 -0.042608093 -0.071683496 0.06948671 -0.072404645 -0.049591456 0.2277142 0.004586196 0.08964225 0.1033034
rish -0.05381597 -0.13212815 -0.058503833 0.00027725252 -0.0054328674 -0.024790214 -0.145778 0.02626782 0.22687036 0.10815199 0.032409452 0.2537862 -0.08274499 -0.017166046 -0.028054005 -0.052139483 0.11516757 0.0034406593 -0.1423407 -0.104984835 -0.13949199 -0.14640062 0.155798 0.0011145413 0.014023716 0.24228157 -0.015982332 0.07704349 0.090333916 -0.011683042 0.04203346 0.0003153935 -0.068679765 0.015065519 -0.07979767 -0.06755826 0.14562206 0.08441608 0.07019848 0.01836504 0.058154363 0.009893831 0.103832215 -0.014367882 -0.096503906 -0.0975699 -0.002187848 -0.170503 0.067018405 -0.12598236 0.10566569 0.20554087 -0.08671476 0.081273794 -0.07872639 0.07247927 0.054424856 0.09637678 0.064094596 0.023257643 0.009304433 0.08135785 0.01639551 0.23216085 0.1783535 0.042845666 0.27649552 0.016722672 -0.13076095 -0.116021425 -0.0142196715 0.06648088 -0.07968675 0.049734224 -0.17423107 0.049781162 0.057830777 -0.04752414 -0.09985232 0.06091394 -0.041133314 -0.02251878 -0.0026277408 0.024342945 -0.01702242 0.05437345 0.08996278 -0.051648397 0.035447396 -0.045341562 0.19798024 0.11903876 -0.08126762 -0.2127411 -0.046442457 -0.02401886 0.04004179 0.00323351 -0.04772694 0.045237023
hene 0.09810377 0.13209485 0.074341044 0.13447289 0.11172458 0.16866939 0.029647956 0.02787236 -0.13610058 -0.040206447 -0.028877404 -0.27563974 -0.13097706 0.015821878 0.025827274 -0.009303963 0.004110384 -0.08799857 -0.16880116 0.05772339 -0.13115482 -0.052214317 0.04134934 -0.059273034 0.2720123 0.048936542 -0.06241367 -0.038643517 -0.010962734 -0.05504119 -0.094366916 0.056608517 -0.11516141 -0.08869497 -0.045584407 0.0021457057 0.10671918 -0.037081882 -0.009771241 0.21449818 -0.018067326 -0.12643653 0.027929103 0.010335855 -0.00965943 -0.032630697 0.07415338 0.06485926 -0.048522346 -0.04002892 -0.019973848 0.028685214 -0.298237 0.010516219 -0.12566277 -0.1572227 -0.020814465 -0.09291237 0.022270555 0.058205955 -0.027799778 0.039013073 0.12577422 -0.08858304 -0.12946749 -0.107144594 -0.121327266 -0.19820279 -0.006695155 -0.012591477 -0.0751799 0.17850582 -0.072554596 -0.047789436 0.076619275 -0.08428388 -0.04067295 0.11012887 -0.029650409 0.038127244 -0.018500958 -0.029051302 -0.121244505 -0.02077685 -0.09374144 -0.05224348 0.10015318 0.09932637 0.00012616758 -0.13792987 -0.021014286 -0.0052905995 -0.23668851 0.055044733 0.13380653 -0.0104671605 -0.10224636 -0.10636216 0.13108563 0.07876654
va 7.691007e-06 0.12847842 0.056847073 -0.23814823 -0.026074346 0.021618279 -0.051887758 -0.115288086 0.05260333 0.083117396 0.03619849 0.0021714012 -0.028084537 0.19879301 -0.11992959 -0.09195681 0.049920004 -0.0049350252 -0.011943688 0.0048425375 -0.23392549 -0.043160386 -0.029705046 -0.04963707 0.030619528 -0.057878487 -0.031184165 0.06988152 -0.064496405 -0.11508512 0.045390096 0.082953304 -0.008546683 0.074065246 -0.03195146 -0.13848689 -0.17488398 -0.05366973 0.15952218 -0.1236336 -0.041058857 0.017778002 0.07155963 -0.011751188 -0.0159264 -0.0032403215 -0.092995465 0.07802582 -0.0901552 0.016310234 -0.029487478 -0.2500899 -0.09669961 -0.027636467 -0.1500894 0.065775104 0.075152315 -0.025907075 -0.12752055 -0.15592767 0.14556757 -0.046312504 -0.1215825 0.028344486 -0.0019971498 -0.02765767 -0.13941334 -0.027689258 -0.043309398 0.111172006 -0.016145516 -0.027847128 -0.11653616 -0.21362007 0.23165047 -0.053285852 -0.29011595 0.013359284 -0.028520506 -0.15558465 0.11662415 -0.0816408 0.15573388 -0.07654843 0.13296083 0.041518677 -0.056742594 0.038729787 -0.024137141 -0.020643136 -0.0139946295 -0.076704465 -0.07252311 0.098240025 0.07993692 0.10866822 0.031837154 -0.015978675 -0.19675651 -0.019095218
vel 0.11730774 0.0114988135 -0.14221193 -0.17017898 0.20018049 -0.16520178 0.13819547 0.13448973 -0.008381795 0.18747643 -0.031836003 -0.036268998 -0.11585077 0.010863353 -0.013905987 -0.052356604 -0.07136854 0.12679558 0.03470883 -0.011166333 -0.1429552 0.018179182 -0.062396504 -0.16233857 -0.016989732 0.034515176 0.06679186 0.24237537 0.15118785 0.006893924 -0.16061087 0.11956825 -0.0052966974 -0.041694406 -0.078835025 -0.06872855 0.02918996 0.033179868 -0.0321807 0.03699409 0.16940671 -0.09684504 0.012900124 -0.023445366 0.21554099 -0.10561127 0.14373691 -0.109104455 0.056794565 0.09211805 0.06255346 -0.08351928 0.00944535 -0.008525466 0.03841701 -0.012504142 -0.11243109 -0.10630134 0.11314824 0.04714384 0.19620842 -0.056902125 -0.13060626 -0.15147202 0.0043365476 -0.08164328 0.105463415 0.112925164 0.0060605807 0.048810963 0.12100009 0.21263029 -0.009622923 0.037348095 0.22485968 -0.07566188 -0.0986117 -0.07938838 -0.06504273 -0.09123263 0.1496108 0.020090578 0.067486435 0.04186599 0.09891925 -0.09506853 0.033777416 -0.06400961 0.08775118 0.08536206 0.08878682 -0.09024585 -0.11471276 -0.0056307 -0.042377613 0.047348198 -0.0063195424 -0.061948698 0.00051816605 -0.039530307
shen 0.055923652 -0.049710505 -0.12316853 0.06785145 0.033533808 0.0051267454 0.04079664 0.0025076852 -0.13432421 0.068541154 -0.04413 -0.028171834 -0.15641354 -0.023619318 0.053183958 -0.03907483 0.026315827 0.064938135 0.00038844964 -0.0069705253 -0.15401223 0.06365462 0.03233316 0.07046301 -0.005878216 0.105061024 -0.079932325 -0.17655306 0.13579081 0.057279903 0.095157504 -0.023221452 0.035594665 -0.013732542 0.031931587 0.3045082 0.14233321 0.21304317 -0.065076835 -0.14266685 0.0104478225 -0.14080274 -0.12846363 -0.11163699 -0.20203462 -0.00061157177 -0.04108523 0.16698243 0.015720855 0.011446422 0.042935424 0.10490561 -0.15756696 -0.10961275 -0.1324932 -0.10400103 -0.06629314 0.18713173 0.0028826743 -0.18560207 -0.040774927 -0.09167625 0.049644176 -0.13933459 -0.022073016 -0.016491631 0.0032718643 -0.04549223 -0.20460711 -0.14541905 0.12337414 0.12394098 -0.12135567 0.0042898036 -0.10078498 0.12946664 0.12768605 -0.023282813 -0.06861618 0.0027770032 0.0059524514 0.042112704 -0.108412415 -0.035472624 0.17538431 0.008174305 0.129528 0.10743777 0.05509469 0.083908156 -0.013059541 -0.08024299 -0.16262119 0.1488366 -0.088186026 0.025657753 0.015362943 0.012083043 0.021201173 0.033184424
cur 0.08255968 0.076482736 -0.06876637 0.010924748 -0.018159075 -0.120429225 0.035476528 0.10960828 -0.08916611 -0.07334135 0.17152753 -0.087387815 -0.05162138 0.072202146 -0.12987307 -0.03271263 0.08830089 -0.049001884 -0.023295444 -0.030938108 -0.04351562 -0.078722395 -0.15679011 0.07306363 -0.07148983 0.113238275 0.04596421 -0.13202263 0.030951258 -0.05456336 0.18401702 -0.047055095 0.0388288 0.022355635 0.075762145 0.22335511 -0.1390786 0.013460295 0.005441559 0.013488928 0.10645261 -0.029043887 -0.041017003 0.024082229 0.0973698 -0.08653596 0.046105716 -0.069109656 -0.015601493 0.15061392 -0.00837014 0.11527015 -0.19006588 0.024822649 0.12640467 -0.02436544 0.1081107 0.013438168 0.06314229 -0.05216117 -0.14097047 0.02271541 0.17509556 -0.13888122 -0.0838084 0.008053207 0.0028605761 0.16493553 0.19950505 -0.01975845 0.09714432 0.03081449 0.007992056 -0.12337958 -0.17597832 0.032602936 -0.12973826 -0.046727873 0.035253022 -0.17686841 -0.2203514 0.024664659 0.031184534 0.18345131 0.11570998 -0.063531265 0.047958825 0.08717664 -0.008257754 0.062108353 -0.12815052 0.12049487 0.27783516 0.16110836 -0.036667872 -0.035903938 0.019676836 -0.08854416 -0.024088128 0.1117156
sy 0.026174257 0.0655497 0.13511252 0.043350413 0.16370091 -0.064377986 -0.0012738114 0.042799346 0.20651278 -0.059509557 0.13191746 0.14162558 0.112282075 0.13936903 0.051250875 -0.030144308 -0.05102168 -0.048219524 0.15039323 -0.07143733 0.18039267 0.1279507 0.003658634 -0.10351179 -0.013621927 -0.021437675 -0.050822724 -0.017936662 0.09809562 0.076023124 0.039572954 -0.11313279 0.013693001 -0.07882572 0.21741667 0.12727275 -0.104526155 -0.05462696 0.041703504 -0.09590665 -0.05332643 -0.06379007 -0.13560699 0.020027058 0.08770316 0.11276441 -0.18491445 0.0483972 -0.0045864233 -0.23673241 0.08674273 -0.06360441 0.06094296 -0.15438233 -0.00076692 0.11942396 -0.19291574 0.03349984 -0.07134681 0.10936921 0.122442335 0.039065346 0.025796179 -0.011694311 -0.013260031 0.066830344 0.08332267 -0.03693841 0.14138131 0.11862766 -0.12063896 0.029681224 -0.122966506 0.037194557 -0.15497497 0.05578349 0.13350186 0.16060002 -0.0688284 -0.04329499 0.017713169 -0.18395217 0.046166472 -0.19366924 -0.019122738 0.064369805 0.050064404 0.017577825 -0.10696168 0.03240518 -0.012728696 0.0005424513 0.037069254 -0.07609992 0.08622858 0.086585976 -0.014038063 0.24966507 0.040960867 -0.03724182
haink -0.07444749 0.013524264 0.014349456 0.06435325 -0.011847515 -0.07508601 0.09197508 -0.057278026 0.038554814 -0.079102665 0.1234342 -0.032854207 -0.0033962864 0.09994509 -0.1415515 0.035802044 0.13030563 -0.079452574 -0.03933151 0.15504158 -0.005433997 -0.07943401 0.07260006 0.10849622 -0.03986568 0.060108278 0.052485026 -0.089499116 -0.08926045 -0.059821915 0.097098134 -0.1444426 0.17087866 0.011477335 0.038033705 -0.026296146 -0.13907655 0.05715902 -0.049792368 0.04834914 0.008818626 0.12533537 -0.042406008 0.0061768484 0.11037408 -0.07789198 0.028711915 -0.011307047 -0.005965574 -0.012098967 0.037625145 -0.0444939 -0.15016247 -0.100515276 0.057860263 -0.01298991 0.013077368 0.09941289 0.09883546 -0.18244493 -0.028327474 0.067773364 0.106737725 -0.12505761 -0.12507688 -0.08116107 0.12434298 0.17204845 0.09208492 0.009781009 0.07700819 -0.22427209 -0.1932737 -0.04012629 0.18833175 -0.07995529 -0.14314793 0.15378071 0.036069658 0.0263797 -0.09613431 -0.02704357 0.051792145 -0.0057905084 0.09915155 0.06365403 0.023915479 -0.011217417 -0.13517967 0.011520172 -0.17481872 0.15294735 0.13060138 -0.14231414 -0.26337636 -0.014156826 -0.036649775 0.17288066 -0.029671162 0.26131344
my 0.08755782 0.03274512 0.08533384 0.00014803867 -0.26533642 0.037814282 0.057618752 0.050505426 0.18677974 0.033392858 -0.106256284 -0.06895829 0.025822207 0.119648874 -0.02139877 0.096411 0.06188503 -0.05303939 0.055245124 -0.1900538 0.16049746 -0.04397685 0.02203779 -0.0040466283 -0.048323747 -0.10736752 -0.11720642 0.010121582 -0.00869589 0.011343094 -0.13225053 -0.10355309 -0.14300954 0.018689632 0.05242876 -0.14923568 -0.01342305 0.005312694 0.16408291 -0.046448883 0.042360436 -0.11876143 -0.022278631 -0.11655719 0.10184731 0.041300334 -0.041287083 0.04249196 0.0048441486 -0.05384526 -0.03304987 0.28127202 -0.019193968 0.1614774 0.10064324 -0.052358538 0.021011805 -0.13308258 0.10889452 0.21240306 -0.106188096 0.04863719 -0.13517134 0.113373764 0.053390667 0.017499497 0.1768934 -0.07398396 0.005399199 -0.0023309158 -0.037683927 0.06776063 0.07597421 -0.111292176 -0.012013209 -0.011829056 0.04305273 -0.19507614 -0.036074627 0.065987684 0.09585317 -0.04954454 -0.19291571 0.06146706 -0.17054991 0.26260927 -0.0018670346 0.058561984 0.074489854 0.062350202 0.064498454 -0.048522945 -0.07780104 -0.06439178 -0.09893279 0.002478025 -0.008542274 -0.096361995 0.1541767 -0.0563781
ta'n 0.027513588 -0.18935487 -0.14837813 -0.060125425 -0.18413177 0.031185053 0.0044364175 -0.009846914 -0.003673389 0.22610636 -0.06025863 -0.15646814 -0.081200615 0.021562384 -0.036680825 -0.078496546 0.054334797 0.044854634 0.0005644696 -0.09754725 0.08118533 -0.027932761 -0.08763567 0.07818082 -0.09632476 0.07177665 0.025386984 -0.23407753 0.08383061 0.1316404 -0.068577215 -0.026534384 -0.014913651 -0.118466884 -0.1417058 -0.019394968 -0.08376055 -0.0414265 -0.115989186 -0.035799973 -0.022261415 0.059357192 0.11199809 0.0046164766 -0.07303228 0.03340177 0.112423055 0.06622855 -0.026459832 -0.107428655 -0.07460774 0.02296023 0.043608848 -0.117186375 0.20386744 0.09608465 0.2756969 -0.049899213 0.09969632 -0.15783508 -0.06254738 0.0044119433 -0.25022218 0.08016813 -0.061973874 0.052168753 0.08441216 -0.27664077 0.008432241 0.14290032 0.050816018 -0.07099987 -0.100051776 -0.017762389 0.106715456 0.013678777 -0.044733725 0.056337625 -0.14573781 0.059602987 -0.01249207 0.011482307 0.10360221 -0.09767269 -0.018358834 0.022752805 -0.092592046 -0.056768417 -0.16717534 0.18540564 -0.016109766 -0.12415338 -0.05116408 0.056023236 -0.006396628 -0.04733055 0.08547086 -0.017411618 -0.05588924 -0.06458683
v -0.012113823 -0.08103214 0.20370944 0.081976384 -0.13302673 0.046224337 -0.044912975 0.028134795 0.0475515 -0.0033795033 0.078592345 -0.123356745 0.025868764 0.10083635 0.056261636 -0.14586452 -0.20291744 0.054655217 -0.024540126 0.0498752 0.055381425 0.037100207 0.092497274 -0.29049334 0.0151938815 -0.022680957 -0.076640576 0.00091672345 -0.06154874 -0.05890744 0.10944254 0.07898401 0.09442705 -0.15494564 -0.0409657 -0.116649866 0.047551777 -0.043075275 -0.039901022 -0.02944889 -0.11000696 -0.06490092 0.037697963 -0.044840254 -0.04959789 -0.12924229 -0.07155394 0.05308622 0.17650822 -0.124729455 0.24156223 -0.003296674 -0.03802318 -0.09549776 -0.12652014 -0.025821457 0.0024890373 0.058579445 0.08544258 0.008398717 -0.052491494 -0.08178348 -0.124111645 -0.08865274 -0.16131246 0.09606383 0.032195948 0.039905876 0.0045474763 -0.1051155 -0.0024806138 -0.03580907 -0.024140636 -0.07152982 0.12910888 0.040700838 -0.07528099 -0.008699375 -0.20174254 -0.02512394 -0.26216397 0.18399453 -0.13105828 0.049755026 -0.10487852 0.07352539 0.013639755 0.056189533 0.19818331 -0.05623548 0.08940872 0.20140177 -0.059183903 0.016429922 0.025754787 0.029792486 -0.05600691 0.17379297 -0.09656101 -0.08355213
nel 0.015561597 0.016438732 -0.0320141 -0.10599344 0.10263738 -0.1592278 0.058999464 0.2367509 0.15472104 -0.1273901 0.09132621 -0.013201929 0.03710827 -0.05367558 0.080938004 0.016702985 -0.086893395 0.27871716 -0.10769351 0.044712793 -0.051624436 0.056752745 -0.09654242 -0.06612442 0.0823418 0.045790233 -0.04165144 0.047979116 -0.03481615 -0.018055998 0.033156812 0.05812401 0.085129455 0.016887344 -0.030942686 -0.049067643 -0.07035771 -0.06300933 -0.029943552 0.14109014 0.009906028 -0.06502516 -0.027500518 0.08354246 0.14004736 -0.11992027 -0.06933092 0.076801464 0.040960904 -0.07848319 0.03864855 0.09038318 0.064464 -0.10596796 -0.07354522 0.055681475 -0.13506725 -0.1741316 -0.026624119 -0.09369549 0.028112171 -0.04285006 -0.23071378 -0.025886768 0.0451317 0.0915297 0.046611317 -0.065312386 -0.0045695114 0.008208135 0.13651605 0.19743527 -0.2276507 0.17769279 0.19712345 -0.18036361 0.05101111 0.02986216 -0.047784664 -0.09306546 0.04791377 -0.18865168 -0.011523669 0.17149566 0.20605831 -0.010738645 -0.086708724 0.045351826 0.037742205 -0.024355477 -0.02067369 -0.05463811 -0.21444376 -0.03732638 0.015479287 -0.06346559 0.06822997 -0.024297321 -0.052532546 0.1135681
ooilley -0.07196627 -0.025306402 0.024216527 -0.0038489301 0.15084451 -0.04502582 0.07746701 -0.07377256 -0.11274377 -0.07012397 -0.0006538662 -0.03706672 -0.13665025 0.11318142 0.13009317 -0.028535139 -0.036882997 0.0758114 -0.24973276 -0.008576908 -0.021839757 -0.037970975 -0.017070826 0.09887812 -0.091857225 0.024206307 -0.006462895 0.051754296 -0.10280028 0.005503683 -0.0127474405 -0.11238384 0.14115831 -0.0010448492 -0.13793015 0.008741118 -0.009426422 -0.15079717 -0.082322575 -0.037884504 0.047390237 -0.00440603 -0.2118074 0.25645337 -0.08595344 0.106974 -0.0069558444 0.10397704 0.047741715 0.016927937 -0.06849297 -0.03625182 -0.2802953 0.020124258 0.083924964 0.0094746305 0.094336174 -0.059927028 -0.0009828028 0.12438102 -0.06721164 -0.05702164 0.073814645 -0.09389483 0.027795922 -0.18313031 0.09588589 -0.110633165 -0.07442691 -0.2045809 -0.022481075 0.034474514 -0.023020646 -0.0010695698 -0.12959301 0.012364632 0.0719689 0.08474089 -0.1175279 -0.08232442 -0.044548515 0.14224268 -0.10596512 -0.11412133 -0.118667044 -0.17501236 0.0635938 -0.11246302 -0.15203904 0.07948674 -0.1853737 0.027977351 -0.02432263 0.049507853 -0.053299516 0.12959944 0.06739459 -0.21532622 -0.032440543 0.11305837
shoh 0.013501154 -0.1144865 -0.011202725 0.04928337 0.14449553 0.0068037943 -0.03507702 -0.028200502 -0.0068720495 0.06502791 -0.1518985 0.01284281 -0.010581293 -0.064212784 -0.21730527 -0.09248094 -0.028301956 0.18290618 0.09680696 0.054250184 -0.055401158 0.16870877 0.070921585 -0.013980715 -0.15496919 -0.12040797 -0.061425626 -0.0019497022 0.046462283 0.08166649 0.15309384 0.025750732 -0.028952762 0.08850257 0.15882082 0.05821211 0.14831898 0.037975695 0.04245285 0.00812129 0.118415505 0.05112697 0.026630392 0.07278226 -0.11206152 -0.05209595 -0.025348272 -0.057974584 0.23653063 -0.14157267 -0.009845416 -0.064571105 -0.033886366 0.04987824 0.04743297 0.18738002 0.012876991 0.11691424 0.15452065 -0.03990139 0.062229548 0.023140933 0.043333393 -0.012516475 -0.11815143 0.076322034 0.23289819 0.13052619 -0.024264498 -0.15049429 -0.035201814 -0.013394212 -0.10262585 -0.05303121 -0.1439159 0.13699417 0.07967986 0.012539405 0.10646427 0.24702774 0.07804382 -0.012794943 0.08857421 -0.17001536 0.01612142 -0.034356873 0.05970781 0.0056510298 -0.03368256 0.028344367 -0.038160298 0.062959865 -0.06564699 -0.062368292 0.13128898 0.06538763 0.04425935 -0.3159458 0.037105735 0.08915767
ass -0.020537375 0.17622311 -0.00047819357 -0.09257352 -0.02804509 -0.1656145 0.106017336 -0.086802214 -0.1540342 -0.09106453 0.10331837 -0.15864696 0.24724662 0.08190943 0.012755547 -0.16833574 -0.033156138 0.16386618 -0.07306957 0.058147646 0.11760688 -0.16582738 -0.14595671 -0.04515369 -0.031961706 0.016163228 0.0713447 0.01048822 -0.015284236 -0.05299858 -0.1067664 0.073431484 -0.035011224 -0.07204904 -0.175102 0.05233901 -0.023174148 0.106407136 -0.020480685 -0.05066366 0.017659241 -0.1543063 0.1449384 -0.01479788 0.006391057 0.08140199 -0.1989455 0.08395544 -0.033431053 -0.021341661 0.025966424 0.07097775 0.13768187 0.13388601 0.06110607 -0.09935806 -0.04578921 0.066869795 -0.021826958 -0.07059603 -0.14391918 0.08817707 -0.03069612 0.061763417 -0.052638542 -0.15373497 0.021774007 -0.11681918 0.021239206 -0.018209815 0.08455364 0.04537296 -0.07404887 0.07639483 -0.07923679 0.18414737 0.14149264 0.08263712 -0.12253054 -0.023207666 -0.07480539 0.026572628 0.15633045 0.10677073 -0.111719966 -0.042733748 0.10065097 -0.09851444 -0.025737513 -0.16951616 -0.13191822 -0.014697722 0.18145381 -0.036647487 -0.1356219 -0.009460924 -0.20037855 -0.042617593 0.0029626917 -0.047894426
mie -0.115707956 -0.0976378 -0.02274131 -0.043205142 0.07519607 0.015558021 0.12220634 0.13925375 0.02764503 -0.17900877 -0.05997457 0.035875306 -0.183647 0.097054996 0.13711543 0.12670285 -0.09780772 0.057647754 0.104570754 0.022910707 -0.111737184 0.04544235 0.01179399 0.1343055 -0.037640426 0.1990791 0.20287769 -0.15587315 0.14880933 0.23325162 -0.08655325 -0.029162224 -0.10224904 -0.09136894 -0.029164154 -0.09216562 0.11351105 -0.0277373 0.107389696 3.9530118e-05 0.039372873 0.06080369 -0.13759796 -0.11505846 0.09668371 0.067405485 0.033971906 0.07242886 0.09804719 -0.05280658 0.16467872 0.19531454 -0.03983046 0.13579914 0.081655666 0.18489055 0.0052250978 -0.0154235475 0.059514616 -0.067157835 -0.11286871 0.051945664 -0.16332997 -0.10188694 0.083079405 0.06069131 -0.14413331 0.11457675 0.08354372 -0.09625739 0.048405692 0.03666716 0.0118559 0.015357363 0.022774773 -0.06735726 0.0037996143 0.0018180527 -0.0154687045 -0.06442676 -0.07359693 0.10368138 -0.108848736 -0.021927783 -0.17914782 0.09491748 -0.057856556 -0.023956668 -0.07447284 -0.055438127 0.1447122 -0.11339369 -0.027339235 -0.09146132 -0.013446423 -0.0708792 -0.23321693 0.019535618 -0.024024801 -0.0057636006
stiagh 0.08583355 0.16647245 -0.041938506 0.051169865 0.119439095 0.18136382 0.05623731 -0.2573678 -0.050621185 -0.041418396 -0.22347446 -0.13043945 -0.07395062 0.12399635 0.055935983 -0.11698775 0.016868193 0.14839342 -0.010580953 0.0027579952 -0.063884646 0.01180158 0.06634964 -0.18434188 0.02427153 0.045030534 -0.043872748 -0.04662459 0.088241234 0.014157865 0.09770676 0.023964072 0.07724918 -0.0607106 0.096810624 -0.14582938 0.09937885 -0.07885209 0.02041291 -0.12046711 -0.040360373 -0.017456844 -0.006220652 -0.0785859 -0.07148745 0.09615703 -0.10717044 -0.10392888 -0.05224278 0.0067716306 0.08401976 0.014721656 -0.12277835 -0.15123391 0.028774766 -0.095182195 0.030127894 -0.07777173 -0.12083542 0.11671011 0.2672204 -0.033127625 0.14861058 0.21190706 -0.032435622 0.06366954 -0.051865276 0.0508749 -0.143831 -0.02702729 -0.12620755 0.20809507 -0.18829973 0.035264183 0.041944332 0.140011 0.08726191 0.0110051185 -0.15366256 0.062804766 -0.039304588 0.12294569 0.029268201 -0.024896858 0.04326737 0.0086681135 -0.005229167 -0.109315544 0.019710677 -0.040725484 0.078235924 -0.1966435 -0.0020527309 0.05564192 -0.038616735 0.060470592 0.031934228 -0.09756598 0.039936874 0.113602996
magh -0.016686192 0.037437018 0.011108434 0.046946656 -0.0038848792 0.17680739 0.16615623 -0.013430518 -0.013139207 -0.08077579 -0.06982378 -0.13185775 -0.09018031 0.030621873 0.045689054 -0.07403679 -0.12370134 -0.05746509 -0.075532064 0.0034504982 -0.1368155 0.18800649 -0.09416116 -0.045750715 0.014238769 -0.056056138 0.104636736 0.11720321 0.010296374 0.08043498 0.051085662 0.06169035 -0.2057551 0.03279805 -0.18967365 -0.20503196 0.13873659 0.036220793 0.006314103 -0.018164845 -0.03136198 0.057756778 0.21641022 -0.03371555 -0.0042527267 0.10795278 -0.21311258 0.058907785 0.07243881 -0.0948888 -0.010582459 0.12324145 -0.060175676 0.010139743 0.03129503 0.06713222 0.092419386 0.07535376 -0.16628131 -0.006203904 0.10667308 0.02126075 0.04666787 0.012514366 -0.073916495 0.007900965 -0.12451725 -0.0053601065 -0.052264914 -0.001562845 -0.23340434 0.05584264 0.14709938 -0.021426044 0.1399667 0.17411552 0.062691994 0.083415344 0.09522477 0.0499972 0.039426874 -0.07438963 -0.014102742 0.08737119 -0.1782018 0.058491077 0.15342297 -0.061343618 -0.20209414 0.01172125 -0.042370826 -0.02182706 0.11046948 -0.20580009 0.00561756 -0.0075892825 0.068665065 -0.23093162 0.004682323 0.04137546
dty 0.02519207 -0.20791842 -0.07592991 0.027311502 -0.11912436 0.07823624 -0.025232239 -0.10200665 -0.046824925 0.14356501 0.06887985 0.015859187 0.04773574 0.05304223 -0.052780308 0.10466584 0.023868183 -0.21427922 -0.010042301 -0.20065238 0.17105831 0.07106218 0.089909896 0.006008016 -0.23668137 0.0945712 -0.020387793 0.03177383 0.1023358 0.09456784 0.051152214 -0.0068400423 -0.08485305 0.023029836 -0.089397974 0.069949135 -0.14629808 0.052517224 0.016365765 -0.047853746 -0.0035776626 -0.11822799 0.05791889 -0.15305963 -0.04612129 0.18688028 -0.040353045 -0.01800037 0.051330008 0.045509487 0.028507873 -0.10026733 0.07318191 0.063012876 -0.049875572 -0.008526063 0.19543132 -0.06331087 0.01759704 0.016970256 0.050679684 -0.0859586 0.16429888 0.05288886 -0.12611263 0.08011619 0.12099354 0.13854095 -0.11872796 0.04397334 -0.13639535 -0.003976173 -0.08512667 -0.090373516 -0.114436135 -0.000491801 -0.07699162 0.07709114 0.08820488 -0.16162087 0.25877768 0.0927214 -0.11512307 -0.17121497 -0.11182046 0.1188764 -0.027776869 0.017642565 0.13802218 0.08481144 -0.09953553 0.04034096 -0.06692499 -0.030244455 -0.04622344 0.011688718 -0.019817123 -0.21550106 -0.07652731 -0.08778095
son 0.028534653 0.030901643 -0.09620609 0.03659656 -0.06584853 -0.22647066 0.016183628 -0.046333138 0.17828794 0.020544853 0.15149672 0.17597651 -0.021199265 -0.052270494 -0.18121436 -0.032834165 0.099423006 -0.054148927 0.05118033 0.17221 0.036534622 -0.04988296 -0.039214026 0.031377934 0.1293113 0.106989175 0.090183794 0.20955035 -0.0183061 0.056895856 0.025518367 -0.012411618 -0.0021882704 0.13240284 -0.15116109 -0.11194755 0.0707688 -0.030172428 -0.036655318 -0.07860607 0.06453848 -0.06664411 0.14986266 -0.08046834 0.02538901 -0.15948112 0.038130216 -0.064433895 -0.16436787 -0.043256175 -0.11141331 0.12039924 0.054052077 0.06774778 -0.075264536 0.0445758 0.08520242 0.17028013 0.07772147 0.08509882 -0.064927146 -0.12026622 -0.09318532 -0.041064907 -0.09082645 0.098052 -0.033699304 -0.11361071 0.10275886 -0.23314017 0.025574002 -0.21677063 0.018390084 -0.06759602 0.011825624 -0.09441817 0.062748924 -0.07045129 -0.028881686 0.07202281 -0.06301145 -0.062465508 -0.18920326 -0.08121862 0.025059508 0.028584965 -0.15613946 0.032137726 0.04511698 0.013694243 -0.1565969 0.028178895 -0.095803365 0.10617714 0.094307505 -0.20119604 -0.17200416 -0.013807353 -0.019202111 0.08506244
v'eh -0.00990259 0.06996673 -0.08850016 -0.11805754 0.12924348 0.015266025 0.0025330533 0.0037188493 -0.11319183 -0.09303789 0.06693066 0.04515433 -0.16209866 -0.0050614867 0.012241323 0.030540125 0.03961394 0.045046777 0.036705583 0.078387216 -0.03675669 0.029272772 0.00859618 0.31676397 0.09182224 -0.13957001 0.16649373 -0.08046314 -0.14575945 -0.13054463 0.123114526 -0.0883889 0.025492314 0.17121658 -0.025148332 -0.15733175 -0.029266013 -0.07608748 0.114370145 0.002869905 0.09574987 0.15747865 -0.12168374 0.011010642 -0.14743446 -0.08998988 -0.021620207 -0.056298688 -0.07304966 -0.02988366 -0.017371926 -0.042713266 -0.11412333 -0.16623455 0.08846658 -0.019286573 -0.025551517 -0.05532233 -0.12249584 -0.062926866 0.086764686 -0.11977991 0.007833012 -0.12286066 0.17117196 -0.20047517 0.037470963 -0.042966455 -0.020994095 0.120370634 0.11871116 -0.05111797 -0.1003918 0.018870758 -0.0035960402 -0.01604451 0.05165656 -0.062051833 -0.012788641 -0.016282588 0.12190775 -0.103307515 0.046304956 0.09640949 0.09326133 0.18527669 0.20850025 -0.06146438 -0.10798704 -0.078759365 -0.006997385 -0.09644447 -0.16572598 -0.17895387 -0.0993894 -0.08156187 0.053800236 0.066690065 -0.13661009 0.10461051
hooar 0.14892448 0.18420443 0.04885469 0.08699157 0.1283127 -0.14188991 0.075850554 -0.028399434 -0.049478192 0.0071852705 0.13465197 0.06515636 0.019496541 0.0846817 0.055488944 0.08156575 0.09213189 -0.028784687 0.03113694 0.1906448 -0.13124882 -0.027767096 0.08372315 -0.050773446 0.07571079 0.109165855 -0.025019286 0.06603263 -0.00038351052 0.1598947 -0.006957655 -0.10729157 0.35847634 -0.119430505 0.07443669 0.016435744 0.124430664 0.017556163 0.008265675 0.01606608 0.108868405 -0.051998407 -0.051016014 0.058324214 -0.045224138 0.036947273 -0.06806323 -0.18578605 -0.008851802 -0.105463505 0.028633052 -0.14618364 -0.050060637 -0.07577033 0.09681857 0.048357043 -0.085359685 -0.07245184 0.05507999 -0.032627515 0.13561536 0.020621475 0.053168286 -0.05281441 -0.1670077 -0.013858613 0.06329687 -0.15967056 -0.033620737 -0.05603651 0.14512219 -0.12744881 0.042358905 -0.02361124 0.017349143 0.121517956 0.09177916 0.24484675 0.08807477 0.21178205 0.00959066 -0.0035089047 0.06781542 0.11837507 -0.1646232 0.07331487 -0.06249314 0.06956904 -0.026789185 -0.034145966 -0.1438915 0.0066402406 -0.057424836 0.015576957 -0.05972467 -0.039882615 0.110160254 -0.004472513 -0.06591453 0.21697779
dagh -0.09816903 -0.10040606 -0.14585051 -0.042241797 -0.11641025 0.26859114 0.009493111 -0.03880422 -0.108070664 0.05144507 -0.05389583 0.058284655 0.049341273 0.018920764 0.023923548 -0.0866043 0.08173162 0.11204439 0.054365303 0.20589043 -0.09690294 0.029552037 -0.012668944 0.032282412 0.24707466 0.113079324 0.021877227 -0.08645704 0.04113753 0.0068709822 -0.060629934 0.08995146 -0.065708995 -0.05668889 -0.09593718 -0.049685705 -0.002595529 0.002930497 -0.045729943 -0.11977762 0.07238684 0.095104344 -0.014662663 0.013603618 -0.06417788 -0.009392602 -0.072661005 0.056478985 0.098962516 0.14475076 0.046556417 -0.022448499 -0.067395024 -0.0818502 -0.13627914 -0.018453443 -0.102624655 -0.03537166 0.05365688 0.20172445 -0.015560639 -0.010915584 0.03742271 0.094780214 0.12450682 -0.031103408 0.036779977 -0.2507 -0.043494284 -0.13550834 -0.12937821 0.07080702 -0.15690452 -0.09193878 -0.089591764 0.14628455 0.1253061 -0.07588343 -0.17640588 0.062803864 0.052069653 0.022161555 -0.039207898 0.09765767 -0.31934395 0.05117832 -0.057716936 -0.084749006 -0.068975806 -0.020307278 -0.026468277 0.008952174 0.030841306 -0.12829483 0.112434536 -0.18476665 -0.05496352 -0.17196764 -0.016034871 0.018184924
erbee -0.11841369 0.052875813 0.097785756 0.07005931 0.012093122 0.003867105 0.00861365 -0.13828422 -0.18919274 0.053786714 -0.1658865 0.08352596 -0.02149567 -0.15101351 -0.041821472 0.07936472 -0.038344495 0.02698748 -0.18496886 0.015028111 0.018680133 0.02539577 0.11603602 -0.12564191 -0.07338079 0.07588687 0.07957281 -0.0031697568 0.007481061 0.09563602 -0.053703405 -0.0031720016 -0.050959017 0.042004038 -0.09395996 0.10720239 -0.17852452 0.03214459 0.017769806 -0.12123957 0.25006709 -0.15825467 -0.13993895 -0.07351576 0.021925636 -0.042518195 0.014437255 -0.12264369 0.08775707 0.16992931 -0.05680933 0.04438691 -0.2218657 -0.1154314 -0.0142961955 -0.16781579 0.05641213 -0.034487944 0.10921774 -0.14595638 -0.012538428 0.008160415 0.15158388 0.03784151 -0.10979355 0.008642533 0.03281641 -0.052453652 0.1018728 -0.10754599 -0.093206756 0.0023784963 -0.14742884 0.20041174 0.03156974 0.10783358 -0.16714439 -0.064965 -0.09878651 0.05346938 0.067607485 -0.15191476 0.023110323 0.117762804 -0.08221842 0.06837823 0.047832068 0.02705289 -0.04912172 -0.08429858 -0.009514735 0.03608978 -0.25887188 -0.016789913 -0.021096373 -0.14580815 -0.056898315 0.04089847 0.14961283 0.03393668
shin 0.04225179 -0.14129154 -0.04264003 -0.10520011 0.15666814 -0.026032297 -0.24047214 -0.09976788 -0.024167726 0.1785561 -0.093115345 -0.01957132 -0.10062876 -0.06909395 -0.030914199 -0.04261478 -0.12500688 -0.14088804 -0.06338905 -0.023722738 -0.060958393 0.004892895 0.033039987 0.067991324 0.09579263 0.05632522 0.05223501 -0.11359788 0.05824377 0.06827832 -0.080272205 0.14811844 0.022282446 -0.11151225 -0.03886164 -0.05922072 -0.03261536 0.03562399 -0.018160671 -0.17420837 0.003758329 0.07660975 -0.10188888 0.0011270728 -0.07831844 -0.06183623 0.22263578 0.0029946729 -0.12893675 0.03518723 -0.034216106 0.10176818 0.084827274 -0.08167279 -0.05092169 0.074640214 0.0037556454 -0.2014024 -0.15149087 0.042296454 -0.02548212 -0.066252224 -0.07043514 -0.0028702572 0.096073225 0.027496718 0.03990141 -0.080286264 0.027650164 -0.047848307 -0.05346412 -0.12983304 0.08029279 -0.13759872 -0.07577735 0.11764261 -0.06574366 -0.08310821 0.020733226 -0.16761932 0.084582515 -0.06886754 -0.12448305 -0.12936954 0.059296645 0.18785311 0.11211371 -0.10351894 -0.1383623 -0.015652083 0.05226853 -0.19477013 -0.19334425 0.031002186 -0.011533396 -0.058961708 -0.117666036 -0.17353421 0.12688386 0.22790219
da'n 0.0194986 -0.1804262 -0.21149038 -0.029026426 -0.032902725 -0.020462232 -0.1634046 0.110876225 0.0946116 0.041663036 0.07694971 0.09497502 -0.010914289 0.13651712 -0.10547723 0.17131591 -0.048679933 0.03149523 0.08376311 -0.07621755 0.08714378 0.09280202 -0.23070438 0.00010174085 -0.008934553 -0.022353314 -0.0027222505 -0.1763087 0.03474664 0.07562099 -0.0051351776 0.09398823 -0.029486453 -0.047621366 0.058887184 0.083589695 0.19644278 0.044028185 0.030935034 -0.108936355 0.004297317 -0.02320327 0.15663567 -0.10077007 -0.10419836 0.028085787 -0.037134465 -0.04995565 0.016507434 0.046178088 -0.15896939 -0.037919823 0.30330792 0.016141854 0.06400294 0.014714681 -0.21248023 -0.09834705 -0.019185614 0.09807297 -0.20032014 -0.029399648 -0.114251226 -0.026430814 -0.14208668 -0.07410734 0.044922147 -0.19005013 -0.0020816396 0.16955778 0.008582797 0.11995729 0.0050635817 0.047241118 0.18971989 0.102709666 0.12414512 0.13104014 -0.052296475 0.04065789 -0.09827809 -0.10681331 -0.08989527 -0.023982152 -0.051029608 -0.18316303 0.049502663 0.018526008 0.07054569 0.015982697 0.036440562 -0.08427139 0.031144658 0.08404973 0.020371953 0.06233242 0.07767349 0.0028031343 -0.06784538 0.0447363
hie 0.015243118 0.06149804 -0.14986777 0.12598902 0.060471322 -0.01680674 0.02150681 -0.1267578 -0.10524992 -0.09724741 0.1409869 -0.08327129 -0.060328387 0.024946945 -0.0027387377 0.028719816 0.06760992 -0.15853958 -0.03828229 0.08134743 0.1506301 -0.06117625 0.111344606 0.09133235 0.07245846 0.05874253 0.16655014 0.03815488 0.13550465 0.044228513 0.024372466 -0.11434944 0.14529942 0.050198294 0.007314822 -0.0641581 -0.18396908 0.11362104 -0.030051256 0.0073532336 0.023413457 0.1509193 0.05318585 0.09097889 -0.0028406556 0.05614452 -0.2622329 -0.0014763629 0.13985197 0.002274181 0.026870968 0.046241272 -0.08893781 -0.027654555 0.04449037 0.053712294 0.06780702 0.1834333 -0.057623714 -0.07226914 0.10927248 0.10917459 0.15555955 -0.003973134 -0.111567795 0.047752947 0.09232838 -0.00809723 0.09142297 -0.06551407 -0.024165615 -0.00915204 0.027901007 -0.07936158 0.033964604 -0.1719063 -0.18454587 0.15866816 0.132548 -0.16359343 0.0066798963 0.04724477 0.10414615 0.034983948 0.106587276 0.073270515 -0.22451718 -0.06629177 -0.0151180355 0.11362628 -0.0064931726 0.044383626 0.10170475 -0.21267577 -0.079802364 0.07883274 0.1992624 0.11008564 -0.07674178 0.10156924
jannoo -0.044573992 -0.17845075 -0.031826343 0.027287642 0.046252064 0.017384723 -0.02064015 0.03914645 -0.015511617 -0.03270731 0.11989935 0.04896334 0.005531126 0.01855254 -0.14953412 -0.09983325 -0.0033980939 0.08299189 -0.08770276 0.031783134 -0.07861771 -0.122082435 -0.1437026 0.307079 0.06775312 0.17673974 0.032263458 -0.041077722 0.20381215 0.035193145 -0.052235074 0.16863906 -0.06280487 0.067805864 -0.007946034 0.10827637 -0.0009646748 0.08881424 0.0101403305 -0.06355074 -0.00569576 0.050206088 0.012155391 0.06297786 0.13023028 0.11936812 -0.13189782 0.10471455 0.23938099 0.030173996 -0.06253397 0.020890238 -0.22421956 0.08383867 0.098059006 0.033758145 -0.14160244 -0.11639419 -0.16112556 0.051795367 -0.17577334 -0.08854855 -0.10156419 -0.111583024 0.017174417 0.006018238 0.03716226 -0.07076273 0.044125285 -0.17048249 0.058188643 -0.025110396 -0.16023491 -0.11441694 -0.18659051 -0.011636854 -0.024182463 0.0007262694 0.121298775 -0.046755623 -0.20238201 -0.1395775 0.11616899 0.060481023 0.025206575 -0.028650708 0.014574289 0.045016684 0.037227668 -0.0507147 -0.101036616 -0.02176907 0.06948859 0.12620519 -0.07296083 -0.09344101 0.06781273 -0.12057462 0.09527699 -0.014938298
row -0.02470691 -0.027089411 -0.03625772 -0.02068236 0.079779 -0.0014317067 0.16647348 0.10153656 -0.01837625 -0.048967116 0.05795559 -0.0002809555 0.1512033 0.06094772 0.09894857 -0.04645871 -0.04551653 0.21272674 -0.03306578 -0.0061140885 -0.17428952 0.14853933 -0.113037065 -0.072530165 0.105278246 -0.050238643 0.13136731 0.06122891 0.19884217 -0.066845156 -0.10659525 -0.060781684 0.13253868 -0.00133359 -0.062525615 0.108526684 0.033243544 0.06821144 0.13513336 0.07160092 0.017729618 -0.009526485 -0.10352202 0.0030463696 0.006464731 -0.08631826 0.087254636 -0.02029112 0.13584068 -0.028211571 0.13537277 -0.034413707 0.010755252 -0.023702184 0.09105526 0.061330136 -0.020932496 -0.06581731 -0.04856987 -0.16053557 0.041957397 0.005098737 -0.17318515 -0.027869903 0.057322714 -0.09949964 0.006680534 0.19974308 -0.15862808 -0.0931387 0.09842708 0.0662477 0.04643589 0.1032125 0.16235197 0.005399077 0.052585516 -0.047440685 -0.019925915 0.037282303 0.123295024 0.060628153 0.15874109 0.1543482 0.15672453 0.046749048 -0.008845965 0.06686818 0.11390895 0.1683052 0.1347085 0.06526838 -0.14095555 -0.020441808 -0.070354104 0.07230592 0.16948712 -0.19344518 -0.2136806 0.19255699
ve -0.0167563 0.07952131 -0.089402534 0.08781217 0.17593406 0.0034741522 0.0038874026 0.12993784 -0.052699525 0.061527222 -0.19687945 0.11684514 -0.14872006 0.020790337 0.038135774 0.10365913 -0.046118215 0.035334732 -0.054238506 0.037784368 -0.10735751 0.018485725 0.06087373 -0.030845115 -0.105448335 0.05358366 0.19897522 0.08788916 0.070159286 0.065191306 -0.13568272 -0.040209178 -0.07214443 0.069882885 -0.18586303 -0.083580896 0.100736044 -0.06054746 0.17807116 -0.096918434 0.0671778 0.12006148 0.10372392 0.084226824 -0.06434248 -0.16333264 0.06623915 -0.045671493 0.19322564 0.077931404 0.18446067 -0.13473465 -0.08815055 0.026169335 0.018097209 -0.068539724 -0.046507295 0.05850321 -0.071566984 -0.10232566 0.06931106 0.14580232 -0.034093153 -0.08776789 -0.0983766 -0.14329661 0.026333503 0.052326974 -0.08054033 -0.07746769 -0.07491149 0.12812516 0.03143828 0.019236838 0.14355136 0.07874492 0.02593837 -0.07408808 -0.03024571 0.05521455 -0.010608934 0.06827015 -0.09881839 0.14574265 0.115286246 -0.08705718 0.16846883 -0.025108607 -0.016817363 0.11519936 0.06621003 0.009434723 0.18977387 0.24060924 -0.11894329 0.056326646 0.005226782 -0.20357347 -0.08633357 0.07250094
orrym 0.03651609 0.07569759 0.11230048 -0.10214684 0.014200293 -0.050202616 0.21906798 -0.05708151 0.15724537 0.0070768967 0.15243118 -0.06401639 0.049989615 -0.10428438 -0.100833364 -0.0070716674 -0.01997084 -0.06314367 -0.19152765 0.0140145365 0.045823436 -0.16002996 -0.06508918 -0.009028431 -0.058397584 -0.047480762 -0.041669175 0.040146247 -0.06087278 -0.04115549 -0.01139809 -0.12896076 -0.053735524 -0.027467627 0.085213974 -0.120029345 -0.09497497 0.10686839 0.0439236 -0.08661306 -0.0830938 0.052922823 0.0059459996 0.18169717 -0.015774336 -0.019877674 0.002177861 0.028467936 0.002238421 -0.028586442 0.09323884 0.06604496 -0.04215008 -0.21437 -0.12467804 -0.20975806 -0.0648165 0.0060202717 0.06543052 -0.031585604 -0.16336496 0.019500796 0.26642886 0.062301636 0.13687693 0.037678905 0.08969003 0.06427109 -0.19861531 -0.14874008 0.018475808 0.092728384 -0.0065169395 -0.23638986 0.041362833 0.070861794 0.12952901 -0.08266498 0.030490825 -0.027988024 0.035307407 -0.16207819 -0.12724344 -0.023450177 -0.10481679 -0.077844866 -0.110175036 -0.0481312 0.18386127 -0.0050114472 0.059221357 -0.17519471 -0.13378415 -0.13294701 -0.033670433 -0.06266086 0.068716176 -0.055804282 -0.10853011 0.094324864
dooyrt -0.021465447 0.04963724 -0.02255087 0.08097499 0.09434412 -0.102821335 0.047474016 -0.058471814 -0.14447463 -0.13647953 -0.19192983 0.20541568 -0.058931816 -0.0798876 -0.096161775 -0.035376146 -0.0077133942 -0.06776883 -0.09489441 0.1414354 0.03222905 -0.22158228 0.1191345 -0.13698335 -0.03357507 0.11149921 -0.03095086 -0.04633321 -0.0076826545 0.05014764 -0.082128696 -0.019935649 -0.026498485 0.028533006 -0.008085095 -0.082456596 -0.091180205 -0.04335113 0.17988454 0.090979114 -0.00833464 0.06991534 0.06125235 -0.042895485 0.026695149 -0.037701834 -0.05537225 -0.02129181 -0.004883676 0.0621362 -0.076371536 -0.028560122 -0.20557281 0.015427961 -0.10495683 -0.010523389 -0.035078846 -0.030460592 -0.087941974 0.11196585 -0.08122587 0.0103042675 0.074954316 -0.015337607 0.1523167 -0.15897082 0.17871268 0.15967102 -0.14206016 0.01573064 -0.058948927 -0.073380075 0.1202711 0.04065976 0.0155456085 -0.09096115 -0.21937053 0.11783698 -0.016384028 0.031811055 -0.08972451 -0.093462236 0.097535715 -0.04684524 0.013896604 -0.050072297 -0.022538401 0.0818162 0.10924088 -0.026016768 -0.0071948217 -0.070128925 0.07691025 -0.16750935 -0.18732211 0.020266606 0.20398936 -0.30225822 -0.1325678 0.0957736
laue 0.18910085 0.10513795 -0.20729461 0.03277264 0.06082489 0.12428586 0.13990505 0.041835018 -0.08295246 -0.07831203 -0.0036844455 -0.010454206 -0.10169729 -0.10658312 -0.05207114 -0.028877813 -0.14614515 0.10092603 -0.013569524 0.015382709 0.08679028 -0.067290254 -0.10368356 -0.020877337 0.04727817 0.016062709 0.049665425 -0.051812623 0.0039887168 0.07019563 -0.078915305 -0.13195907 0.05959454 -0.060760107 0.06763468 -0.011123198 0.112915106 -0.24242261 -0.10313556 -0.07401653 -0.004327609 0.07991441 0.1563207 0.2001072 -0.10057077 -0.09614093 -0.07068215 0.20040087 0.046311557 0.030131504 0.118594304 0.01820392 -0.15341279 -0.01662888 -0.0062592477 0.083299756 -0.07211781 0.15082654 -0.05030138 0.05801511 0.028605929 -0.059709787 0.09208841 0.15763797 0.06305459 0.1343619 -0.049014878 -0.09362023 -0.012401668 0.0073232367 0.07903623 0.23506108 0.13661566 0.08339852 0.09522567 0.22433762 0.10242891 0.031668622 -0.0038707391 -0.108362794 0.08380901 -0.117336474 0.13576141 0.07049392 -0.05928634 -0.096045256 -0.123752266 0.022479678 -0.055602785 -0.105326705 0.018909426 0.020977946 -0.06498451 -0.06058511 -0.05913464 0.017810887 -0.09561875 -0.070608735 0.117268495 0.23147726
agh 0.03226454 -0.14380482 -0.050233033 0.054840073 0.11048283 0.098109856 0.09654433 0.012300954 0.110703506 0.06013977 -0.033771146 -0.0977065 -0.065499835 -0.08706136 -0.06747227 0.015461105 -0.138102 0.11473419 -0.037851878 -0.036622934 0.15915889 0.12473407 0.052468915 0.034496795 0.122199506 -0.03856846 0.090585865 0.08563591 0.107605785 -0.005341232 0.06007293 -0.04292013 -0.12672529 -0.05368412 -0.119737834 0.06382699 -0.0061505344 0.019777382 -0.13280122 0.30644786 -0.021226522 0.03190916 -0.019990856 -0.043752193 0.19241205 0.05653059 0.0019282143 0.1066771 0.1737469 -0.016158346 0.09524012 0.0564003 -0.36251068 -0.20634122 -0.07936258 -0.08743821 0.027593764 -0.06625795 -0.0052567376 0.034471318 -0.071625374 0.07277286 0.07332551 0.0044707856 0.012944915 0.11392855 0.06762778 0.015656989 -0.07188046 -0.14860581 -0.034521382 0.047366478 0.037354052 0.15702738 -0.081076086 0.14933966 0.049013454 0.02673574 0.030785741 0.072032325 0.011520837 -0.02402312 -0.21995527 0.1674956 -0.13856506 0.0805644 -0.10274007 0.007420415 -0.21943377 0.03370462 0.003162874 0.016832735 -0.00027523492 -0.052842166 -0.17163453 -0.016291156 -0.020048862 0.026016312 0.047224946 -0.011782399
myr 0.013187893 0.043953978 0.015725052 0.044893034 0.010645801 -0.09473387 -0.0018128637 -0.06596186 0.2603985 -0.002688544 -0.09207439 0.10932451 0.038964435 -0.032035656 -0.018189438 0.18466932 -0.03461366 -0.13978434 -0.021885555 -0.16566737 0.14795251 0.11305622 0.049292114 0.018236432 0.031093797 -0.075717434 -0.0727924 -0.15183596 -0.08437583 0.08325001 -0.1558915 -0.078051604 -0.03222337 0.08510212 -0.056823187 -0.20832388 -0.17706354 -0.011988804 0.011788623 0.07265535 -0.041809242 0.19126442 -0.07516276 -0.009121591 -0.021129346 0.0072836857 0.057590116 -0.0012853262 0.04444049 0.07003089 -0.19173074 0.0347944 -0.13567984 0.045649473 -0.010959288 -0.051290594 0.016752934 0.01687124 -0.022004003 0.18488583 -0.19329077 0.096296236 -0.14669335 -0.13060841 -0.005070904 0.04008647 0.17431499 -0.0147557175 0.030310739 -0.087755464 0.007469366 -0.09849501 -0.02500449 0.16047832 -0.09796441 -0.20396009 0.109583214 -0.06328683 -0.23016402 -0.015542732 0.017909663 -0.044706777 0.026184898 0.12069296 0.012810994 -0.03648648 -0.103888154 0.17477304 0.172671 -0.052870605 -0.13819183 0.02663583 0.04871506 -0.21037641 -0.054876212 0.013006052 -0.0075034634 -0.053672798 0.010618984 -0.0054899408
thie -0.077776454 0.04187285 -0.22171542 -0.012497 -0.019741377 0.10781318 0.019808533 -0.08357551 -0.19757293 -0.028091071 0.032527074 -0.039743625 -0.046026878 0.20737644 0.027381945 0.14049584 -0.060191337 0.03884955 -0.038347892 -0.030269869 0.07523528 -0.07583016 -0.032957412 -0.01525046 0.14487216 -0.010027615 0.1940718 -0.123432025 0.02958335 0.14548934 0.07931047 0.16923547 0.102669686 0.034536585 -0.10935789 -0.13851067 -0.05416297 0.014638697 -0.1242854 -0.08613051 -0.029143171 0.042092808 0.09767819 0.09952975 0.0685585 0.019177683 -0.06873413 -0.025208114 -0.051440943 0.019684207 -0.1549396 0.16208445 -0.048715997 0.08862034 -0.1718967 0.013669248 -0.037033796 -0.064259045 -0.040358678 0.046751637 -0.16933692 -0.06840679 0.2179601 0.09016023 0.023334915 0.046101317 -0.042729292 -0.06583997 -0.0735051 -0.058948778 -0.109929 0.12032903 -0.07728895 0.044174556 -0.19595864 -0.048801426 -0.02878182 0.08018584 -0.017413706 -0.10832915 -0.04097644 -0.058542527 0.06759491 -0.08843948 0.036170784 0.06800233 -0.18051055 -0.008562989 0.027752766 -0.27913445 -0.02666014 -0.08855624 -0.077578306 -0.11197994 -0.08260866 0.15677445 -0.1453453 0.18531305 -0.07838523 0.06380713
mooar 0.01724852 0.021749692 -0.09162958 0.04392132 -0.12632313 0.0035864045 0.0854332 0.16392411 0.003076484 -0.013122779 -0.014475008 -0.02945068 -0.119423255 0.246227 0.04627817 0.12723939 0.08082492 -0.019654276 0.051721137 0.21032539 -0.1073825 0.047693737 0.0016273197 -0.04640549 0.011617089 0.11631683 0.023505006 -0.13021052 0.16885982 0.02346712 0.14145727 -0.025322482 0.15282904 -0.10189631 -0.06128084 0.014562659 0.014308387 0.08332616 -0.05611149 0.058994655 0.1987101 0.15633653 -0.07881869 0.014230515 -0.046847105 0.07871801 0.0193218 -0.021474665 -0.048127234 0.0023040315 0.09368241 0.003814561 -0.12374439 -0.037858643 -0.030795347 0.07584324 -0.045696683 -0.07532165 0.0387624 -0.030270597 -0.07272448 -0.119603015 0.16910547 0.016991891 0.042652603 -0.071791425 0.0017975048 -0.025039816 -0.03822181 0.04230261 0.09460959 0.18704556 0.17269458 -0.088532634 0.0054399017 -0.116811514 -0.0053172703 -0.114333704 -0.102058 0.058035586 -0.10718482 0.10715166 0.09260693 0.08875455 -0.2273741 -0.043790724 -0.14404891 0.021390392 -0.10971787 0.13834038 0.17361324 -0.013047283 -0.18106055 -0.09974116 -0.15797341 -0.26380345 0.0050763167 -0.14096858 0.02426428 0.053120434
eshyn 0.033800773 0.09341019 -0.13695535 0.087683216 0.07836029 -0.0587234 0.099284105 0.036760446 -0.016217591 -0.005611023 -0.1577245 -0.066608384 -0.06933508 0.10650452 0.025422638 -0.008486867 -0.06423882 -0.06913953 -0.12628108 0.17629585 0.048146795 0.09430776 -0.035546586 0.10915573 -0.09881761 -0.035082694 -0.02377539 -0.20516938 0.031697445 0.059810344 -0.23711897 -0.08634105 0.029683586 0.11133324 0.056021906 -0.048532758 0.21926057 -0.09125664 0.028707687 -0.025751717 -0.007527017 0.04857172 -0.13004306 0.100686505 -0.03964145 -0.047458354 -0.10217523 -0.18673785 -0.08872249 -0.029712463 -0.22133793 0.0037905711 -0.115398735 -0.094400994 -0.013472 0.08900101 0.02202267 0.077293426 -0.05154539 0.037583202 0.10898522 0.10687819 0.15490207 0.020272242 -0.064773135 -0.13652828 -0.0031088467 -0.03847441 -0.0029028123 -0.015339736 -0.09330987 -0.07939391 -0.08015426 -0.13188587 -0.20602635 -0.14462109 -0.05003243 -0.27928877 0.04728806 -0.12333773 0.010532504 -0.09475898 -0.040252104 0.045325592 -0.0883427 0.07149949 -0.16060627 -0.03291439 -0.20840274 -0.028422935 0.08134449 0.010254967 -0.0056766574 -0.10493103 -0.14892964 -0.086242534 -0.08252508 0.07389094 0.09829812 0.041914538
gys -0.20397018 0.0033091255 0.009412237 -0.0009804423 -0.08218283 -0.110356435 0.039895695 -0.16250855 0.0042035743 0.08470064 0.17950507 -0.094607405 0.034789797 0.06074445 0.057942376 0.10685887 0.0018652632 0.02526421 0.20769745 -0.13075328 -0.031794615 -0.010395568 0.018264944 0.097551115 -0.17697522 0.04637025 -0.007812918 0.34660736 -0.28633216 -0.020192 -0.03420116 -0.044385903 -0.038388003 0.026052773 -0.0383109 -0.15241462 0.07155764 0.052539863 0.15982419 0.19630194 0.120512895 -0.024501028 0.029244684 -0.092404775 0.09504155 0.052358802 0.034285557 -0.111775085 -0.009115626 -0.038114645 -0.064258926 -0.035983443 -0.04931097 0.13325153 -0.030164776 -0.14735718 0.13564637 0.028040323 0.039629478 0.07849407 -0.017682765 -0.11148425 -0.07408037 0.023754383 0.110766135 -0.09980413 0.07001476 -0.030826783 0.06125286 -0.010512373 0.12734178 -0.083418734 -0.04378521 0.06641312 0.011946677 0.15593019 0.0677223 0.1122371 -0.026568038 -0.036173735 -0.05681623 0.035871137 -0.006670038 0.063048236 -0.002865692 -0.0037512216 0.098127685 -0.15482178 -0.15098542 -0.21287245 -0.1286355 -0.020539716 0.07925486 -0.08750727 -0.15496479 0.049909838 -0.054668207 0.09431482 -0.054666717 0.01915247
argid 0.1880705 0.04141193 -0.15777248 0.0982252 0.11160415 0.20797321 -0.022093488 0.062156238 -0.020277089 -0.14090577 -0.0010683457 0.12679224 -0.1601173 0.00385339 -0.02191068 0.0022088203 -0.119920924 0.07893783 -0.19108391 -0.03931372 0.1486738 0.20971224 -0.0037153855 -0.087938875 0.0634598 -0.0922875 0.09068099 -0.022918055 -0.058145493 0.012033051 0.049181074 0.019944338 -0.040683515 0.018874485 -4.215899e-06 -0.010368241 0.12053763 0.0019644464 -0.0009627139 0.0682071 -0.07227896 0.22881533 -0.012754537 -0.108110055 0.14339407 -0.071914226 -0.038975153 0.02569368 -0.003111691 -0.04519553 -0.04971122 -0.007038133 -0.047536805 -0.056108903 -0.0043957247 0.12958932 0.09845226 -0.16535136 -0.021304917 0.08973675 0.098657206 -0.07947042 -0.0825322 0.13889012 -0.007422423 -0.1337526 0.04461165 -0.02323126 -0.101376064 -0.08189177 -0.035833776 0.05979605 0.06743658 -0.080487065 -0.13272108 -0.07935444 0.01785105 0.11949629 -0.20429745 -0.002020207 -0.052777287 -0.16655493 0.18724641 -0.053370867 -0.013352287 -0.13861714 0.18862884 -0.020886812 0.030684004 -0.015771508 -0.059014667 -0.16036913 -0.15090527 -0.2062499 0.11620274 -0.07270891 -0.10797936 -0.14367552 0.034292627 -0.08457379
shiu 0.06572906 -0.10923453 0.15174322 -0.012082946 0.032863125 0.08529692 -0.005584721 -0.10863227 -0.050287995 0.1199758 -0.3478549 -0.046719525 0.017070321 -0.085932024 0.019250207 -0.026006721 -0.08845673 0.101752676 -0.13383226 0.13408326 -0.12935276 0.060092296 0.02603419 0.08959225 -0.04096264 -0.012491983 0.07129479 -0.12702116 0.09202447 -0.11070004 -0.008301443 0.07106477 0.098198384 -0.039113596 0.011465285 0.04180883 -0.024961608 -0.034775734 0.09337783 -0.108239815 -0.029469946 0.03924979 0.120891176 -0.12359045 -0.17756462 -0.12074308 -0.032718804 0.09696495 0.1772637 -0.057101164 -0.0744269 0.10214155 -0.091069356 -0.025808245 0.0991676 0.13463525 0.0263693 0.03446527 -0.11408106 -0.012128829 -0.015578559 0.05053384 0.06062449 0.04692338 -0.11524684 -0.019057507 0.17071371 -0.013260196 -0.0016530923 -0.12579654 0.0875812 -0.17077859 -0.00078091054 -0.034498565 0.086109065 -0.15195149 0.104054555 -0.10422578 0.029562082 -0.15394375 -0.010916048 0.08107909 -0.023529422 0.13552012 0.22665612 0.020851193 -0.122484 -0.032807548 -0.11797124 0.12223529 -0.1878314 -0.11262158 -0.18734588 0.006644615 0.063370116 0.11962294 0.0373633 -0.1305683 -0.089104034 -0.017205147
elley -0.025083795 0.15733837 -0.045866825 0.1577563 0.21645032 0.21687323 0.14933111 0.11400359 -0.15553884 0.13868377 0.016624155 -0.023021156 -0.10121811 0.14629148 -0.12477933 0.06253693 -0.09418773 0.20980215 0.0024165236 0.119623184 0.06953985 0.043916613 0.03796296 0.005574283 0.13999324 -0.04269926 0.0274235 -0.09608897 0.008538731 -0.0093593355 0.05357541 0.040828764 -0.012692228 -0.035567366 -0.042590696 -0.01802808 -0.02463402 -0.09387041 -0.085289136 -0.056672513 -0.11228126 -0.005515228 0.0535014 -0.018822182 0.013284936 0.030774334 -0.12289551 0.17236935 0.10951257 0.02067419 0.067273125 -0.043338884 -0.08640374 -0.12674396 0.06763216 0.04907726 0.18163913 -0.09207304 -0.006449057 -0.0797506 -0.021539353 0.0020695168 0.051702276 -0.0033804472 0.007278989 -0.06429169 0.13779908 -0.11568467 -0.1177588 0.063845396 -0.022556085 0.09926101 -0.028747808 -0.0308685 -0.10047898 -0.051667202 0.08564488 -0.15170708 0.16424137 0.055398483 -0.13241188 -0.112981856 0.0890961 0.018170267 -0.11245998 0.062180765 0.009638075 -0.11731366 0.19727491 0.001661912 0.10129054 -0.050003406 -0.13020979 -0.10700677 -0.32192722 0.0867289 0.054265976 -0.0045548044 0.013765799 0.15092927
nyn 0.015750127 0.023795212 -0.10179118 -0.06835039 -0.044173066 0.16193162 0.05090747 -0.042912718 -0.012156833 -0.0020916387 -0.046736255 -0.006415119 -0.057538204 0.05928523 0.07779002 -0.001673253 -0.2018113 -0.0959245 0.012614069 0.1366824 -0.052828446 0.100456595 -0.01689913 -0.0047707707 0.019124541 0.09058949 0.043131553 -0.03926312 0.12012975 0.12565288 -0.1722816 -0.10240574 0.092777394 0.064026095 -0.1099262 0.092926495 0.14838494 0.001089517 0.012429114 -0.021218125 0.04858889 0.078295775 -0.11686087 -0.05180181 -0.089641266 0.027564935 0.013846715 0.017428646 -0.0501727 0.086092345 0.04862886 0.21541868 0.08072311 0.14808363 0.014665035 0.07528692 0.009153776 0.0967317 -0.044026602 -0.2248113 0.24625535 0.056842256 0.012739363 0.13239244 -0.0789374 0.046036817 0.010263439 0.06708609 0.057921335 -0.13930728 -0.1323609 -0.21213636 0.07173559 -0.101167604 0.091054894 -0.056001153 0.03505151 -0.06712697 0.099591695 -0.1300627 -0.14815103 -0.039276376 -0.12358489 -0.22805622 0.053771555 0.19413105 0.14696217 -0.058374945 0.024661183 0.19261281 0.026443018 -0.034998644 -0.010955431 0.16951396 -0.12792008 -0.029214187 0.1938682 0.06712266 0.05629588 -0.018624732
goll -0.03437374 0.07062808 -0.06722163 0.055429377 0.121511765 0.11832646 -0.062787764 -0.008915728 -0.19181572 -0.0244617 0.11342366 -0.19206494 -0.0029138331 -0.1215169 -0.08819023 0.072288536 0.05449467 -0.08899877 -0.08130518 0.13152924 0.08441864 -0.018257497 -0.08409457 0.31071922 0.14501853 0.061351463 0.064258225 0.05362936 0.06954427 0.119843945 -0.07740699 -0.10792845 -0.04622133 0.032853313 0.027887896 0.1320781 -0.021152338 -0.058145136 -0.10989749 -0.09012466 -0.025164085 -0.066006035 -0.06765097 -0.101967014 -0.116881646 0.035543043 -0.07050914 -0.14935358 0.007266804 -0.19788155 0.1604784 0.077552736 -0.09536405 -0.056804165 -0.0010703392 0.17744005 0.07449987 0.07674558 -0.06517727 -0.1717707 0.026162617 -0.09470922 0.03780819 -0.19150704 -0.03219005 0.10740482 0.12259773 0.17517008 0.05015421 -0.07768045 -0.17209545 -0.10805826 0.06398103 -0.13548958 -0.12683676 -0.051809255 0.003346825 -0.07080599 0.10167774 0.048435327 -0.011448201 0.15002742 -0.14859633 0.0056250133 -0.09091799 0.09557058 -0.057919264 0.11830113 -0.06293602 -0.03713822 0.12612909 0.07930471 0.054814428 0.06612352 0.045271344 0.034440376 0.036507796 -0.075316645 0.0052626207 0.12997232
dou 0.026477318 -0.17376715 0.1179974 -0.07684692 -0.008985645 -0.073353834 -0.0095128 -0.0828096 0.043517493 -0.023542026 0.123131424 -0.026458563 -0.11234246 0.02907311 0.1364373 0.07000483 -0.07493684 -0.057981603 -0.018020188 -0.056819662 0.0073183067 -0.13082327 -0.13815278 -0.02972868 -0.1593269 -0.06057962 -0.110069804 -0.027262855 -0.044719335 0.12164366 -0.018665053 -0.02576881 -0.12906794 -0.0667906 0.1679919 -0.15656638 0.108380616 0.07263889 -0.00923888 -0.08615669 0.07259005 0.0656489 0.1935022 0.17364272 4.1203053e-05 0.039067946 -0.024637284 -0.08751241 0.10191629 0.007038305 0.015920201 0.0647261 0.13503906 -0.09064728 -0.008568371 0.035304107 -0.07029515 -0.019926911 0.029006897 0.11050601 -0.21404837 0.005314226 -0.042739667 0.0041377232 -0.031794805 -0.021018285 0.13352351 -0.06300119 0.03504258 -0.20335664 0.04092646 0.2552366 -0.008721029 -0.15368998 -0.0739707 -0.012625384 -0.07383641 0.19298108 0.036733083 0.06155968 0.004577441 -0.1469517 -0.039624732 0.1603768 -0.039056487 -0.04124414 0.05076375 -0.099101104 -0.015731102 -0.0025001743 0.14117122 -0.095119946 -0.1137391 -0.09098542 -0.07656657 0.09104064 0.31624278 -0.1935187 0.02916509 0.029147295
fo -0.07343148 -0.06245127 -0.1391688 -0.19084607 -0.14275888 0.04502299 0.09880382 0.017963525 0.12278956 -0.1016218 0.079641275 0.065973826 0.10089426 -0.12902123 0.093464196 -0.10502458 0.041631147 -0.054626334 0.08297007 -0.06865324 -0.07145893 0.107473455 -0.06426275 0.0022527738 -0.16372326 -0.23387177 -0.038434625 -0.014386934 0.07635878 -0.11937842 -0.2131069 0.07222018 -0.026900884 -0.10090576 -0.13998123 -0.14393057 -0.084596254 -0.0053888247 -0.03862451 -0.087735265 0.08956369 -0.12457378 0.24636744 0.093104035 -0.08188141 0.08163676 -0.1133067 0.04619859 0.04303054 -0.064475305 -0.0665795 0.098363355 -0.08381708 0.18261035 0.2146846 0.071746 0.15888272 0.061342474 -0.011753564 -0.04828422 -0.14467613 -0.018698761 -0.1076114 0.038206104 -0.058658678 0.13598429 -0.097231016 0.13643073 -0.13014103 -0.03366185 0.15430419 0.044017743 0.090436466 -0.15524311 -0.022314698 0.08534572 0.03304256 0.07041468 -0.0751742 0.005993118 -0.027011827 -0.08369512 0.05440468 -0.053510495 0.07472858 -0.16901101 -0.08587553 0.07989449 -0.10819039 0.06312461 -0.12947318 0.08426502 0.009530097 0.025868392 0.080387294 -0.059907034 -0.0032435285 0.050924744 0.040718842 -0.025741553
jeh'n -0.0022062692 0.103388175 0.105697855 -0.032810744 -0.04980214 -0.02224806 -0.007602092 0.12749374 0.088859126 0.15827648 0.009238742 0.068046115 -0.016853802 -0.13096726 0.07346401 0.01524155 0.061579604 -0.13239053 -0.07607076 -0.13954973 0.0994814 0.022934305 -0.021309981 -0.1451442 0.09297205 -0.08800713 0.03588062 0.059325393 0.20892577 0.14920938 -0.11969525 0.085207514 -0.038362946 -0.08933174 0.2114352 -0.043723274 -0.040080953 0.008868329 -0.038343545 -0.08401351 -0.09953405 -0.04687776 -0.13183373 0.09018859 0.012366028 -0.045347903 -0.093057126 -0.08066304 0.032145172 0.09403228 -0.00095239695 -0.0008086391 0.12490124 0.009090706 0.105359286 0.04081834 0.013220893 -0.1378579 -0.07917279 0.047098584 -0.10108746 -0.02640929 0.093587436 -0.07782507 -0.14932801 0.0501397 -0.15132894 -0.047457505 -0.075227305 0.10286408 0.09807182 -0.19821048 -0.20645052 0.1397955 0.045561537 0.15031178 -0.14224377 0.12552345 -0.031444713 0.16151583 -0.25519964 -0.10192985 0.04812506 -0.1966464 -0.09048637 -0.040631898 0.046118144 0.037050247 -0.14323232 0.10045878 -0.050210197 -0.07961057 -0.074949235 -0.117589116 0.009038052 0.10501129 0.03418894 -0.07414762 0.05748108 -0.14824882
voish -0.027332786 0.12699094 0.2149467 -0.021882791 0.1403906 0.050062913 0.13477276 -0.110906854 0.0979982 0.00089430186 0.11303423 0.051290452 -0.012175628 0.11483427 0.0030387922 -0.10587928 -0.002817326 -0.054061566 0.017226238 0.068742864 -0.15166461 -0.11045389 0.026974466 0.04919206 0.19045739 0.07431386 -0.15437116 -0.13816361 0.032233257 0.07202691 -0.028574105 0.075576246 -0.11939326 -0.12612924 -0.142376 -0.060754858 0.07817251 0.15951487 0.18762422 -0.11952403 0.20613179 0.12514143 -0.0048609786 0.028027559 -0.021323662 0.31961185 0.11167406 0.0776635 -0.089771524 -0.1357785 0.106922254 0.06724385 -0.0030800016 -0.016827678 0.11145111 0.119314544 0.044002336 0.022737255 -0.016900921 0.13644725 0.057086885 0.04122239 -0.06280051 0.12315121 0.14074038 0.10513647 0.06977501 0.056717284 0.02835737 -0.15448691 0.06017551 0.11601962 0.068767644 -0.010289851 -0.028963873 0.0885727 0.081742756 -0.090767264 -0.124607846 -0.017166875 -0.05145217 -0.013289049 0.07501798 0.06053619 -0.17820096 -0.14759661 0.06275943 0.012196945 0.06517191 -0.109802015 -0.085081816 -0.058758896 -0.016546156 -0.09964006 0.0493098 0.10799087 -0.06307458 -0.07617952 0.032982215 0.059136465
she 0.05601258 -0.283367 -0.0862121 0.029746095 -0.025063515 -0.14101207 0.056271497 -0.12995495 -0.091619335 -0.015067861 -0.08231671 -0.06029273 -0.0603435 -0.15780488 0.015167399 0.057760734 0.0703718 -0.05049878 0.09178552 -0.026294684 -0.14365046 0.17764136 -0.012585281 0.12568736 0.055865895 0.05645557 0.041452568 -0.043458097 0.13618006 -0.05053651 -0.015764399 -0.1542808 0.17747039 -0.047448114 -0.09001113 0.14365508 -0.084880404 -0.015092713 0.10134455 -0.051889814 -0.0058689695 -0.13493334 -0.0803807 0.043368492 -0.16859314 -0.044722177 -0.10245083 -0.092133515 -0.055397425 -0.09547616 0.06475593 -0.25860593 -0.08149322 -0.009008772 -0.13687669 0.05188238 -0.03752684 -0.074651554 -0.026615694 -0.03863503 -0.01886864 -0.12754849 0.062074374 -0.11550854 -0.12750283 -0.01739927 0.013654752 0.14323846 -0.10216179 0.091651976 -0.08570457 -0.116317 -0.22708601 0.05272548 -0.08377771 0.15767209 0.040427577 0.011584254 0.02712967 0.17440201 0.078581855 0.06916921 0.022059418 -0.0014717586 0.0875984 -0.16591078 0.08040175 0.013853343 -0.09469369 -0.14296737 -0.10671686 0.0006081994 -0.055444557 0.018393297 0.05658969 0.21034813 -0.021630792 0.037986137 -0.13914664 0.032719355
roish -0.037281107 -0.04921649 -0.015313731 -0.016345827 0.12933701 0.14458364 -0.12484845 -0.19681445 0.010455854 0.021229591 0.07431529 -0.041306593 0.008212143 0.13041751 -0.05461253 -0.0118278805 -0.08690341 0.027164515 -0.15625551 0.113528974 -0.20661709 -0.12006124 0.0465184 -0.032205492 0.06638623 0.021703318 -0.14934748 -0.12178456 0.032082014 0.06275447 -0.090592355 -0.08739073 -0.038271897 -0.06717354 -0.15726721 -0.17947417 -0.032711826 -0.023513641 0.17546707 -0.12078953 -0.07205882 -0.09633308 0.091998614 0.0074599558 0.1302358 0.18118252 0.083424486 0.010172906 0.12748513 -0.22530983 0.041273374 0.04201756 -0.08707626 0.06773267 0.10743113 0.007862525 0.049002685 -0.06842081 -0.022480173 -0.053118147 -0.042062297 -0.03927412 -0.007228332 0.0058518937 0.17804787 0.056170817 0.16922475 0.036621414 0.0014651184 -0.075157814 0.055928566 0.098870546 0.12439048 0.0723775 0.05895575 0.17798886 0.104941316 -0.0716961 -0.06392807 0.14217183 -0.122502774 -0.093179144 0.09347114 0.102853365 0.0023304478 -0.1062469 0.005446882 0.068121694 0.039440375 -0.06974217 -0.11260445 -0.15382123 0.17405987 -0.25349584 0.007619532 0.1698093 0.018225422 -0.0065651373 0.062605046 5.9401562e-05
nee -0.062102657 -0.019229013 -0.20657259 -0.09873253 -0.042251814 -0.0285053 0.026055273 0.06227911 -0.124304265 -0.1514322 0.031301808 -0.11343706 -0.10064936 -0.03549222 0.09194143 0.04983098 0.040620018 0.23823111 0.20074914 -0.047408607 -0.18120712 0.05789109 0.1255593 -0.16403966 -0.0519211 0.13696444 0.09250339 -0.027387526 0.17984721 -0.05552252 0.07356918 0.08273016 -0.06929219 -0.13062313 -0.018223554 -0.056307454 -0.14180453 0.20368592 0.00806472 0.15035182 0.086383484 0.005769988 0.12587494 -0.04660488 0.11875 0.007951814 -0.07827617 -0.1695976 -0.10274785 -0.0053038946 0.08200214 -0.07994839 0.105096236 0.10103074 -0.026162324 0.067695156 -0.08664688 0.008983415 -0.036785517 -0.039597757 0.045812756 -0.19793786 0.071253724 0.13506189 -0.07152063 0.039191086 0.070511185 0.043752957 0.060554687 -0.17866202 -0.035397045 -0.05942704 -0.08984664 0.012208302 -0.0060539157 -0.047223523 -0.14287823 -0.078830294 0.033097155 -0.031941008 -0.07578704 -0.059234865 0.20459755 -0.07352161 0.12369764 -0.04741732 0.028669316 0.06694492 -0.05527751 0.047325123 -0.003012153 -0.12088205 0.052510966 -0.07892259 -0.12705174 0.046922196 0.0528823 -0.13441755 -0.08662953 0.21383224
lhig 0.19125883 0.009171366 -0.064272515 -0.043883175 -0.040321507 -0.17593202 -0.1479226 -0.044878293 -0.110295616 -0.26377434 0.12675217 0.049630474 -0.06129395 0.058492232 -0.044992812 0.056744132 -0.026862238 -0.05049412 -0.06392876 0.18812877 0.08139482 0.13055846 0.078593485 0.0151581215 -0.06965013 0.061732467 0.12112946 -0.11170413 -0.012623088 0.099846125 0.031627472 -0.049968466 0.10508101 -0.01502213 -0.049122375 -0.07458348 -0.07355678 0.19781815 -0.05036059 0.16056868 -0.028098637 -0.12263903 -0.09220866 -0.037273444 0.0665351 -0.20963854 -0.05503671 -0.010150306 0.07319884 0.09741982 -0.035028175 0.047018632 -0.07042934 0.093768395 -0.010973527 0.008652674 -0.044404555 0.020009086 -0.033720937 -0.010573726 -0.03064233 0.022744596 0.042069692 0.017391566 -0.018319733 -0.020249885 0.15375304 0.17546435 0.12710463 -0.013053711 0.18456362 0.014609147 -0.037998226 -0.061531898 0.12121852 -0.047987267 -0.047323845 0.06871132 0.06620179 -0.022066997 -0.117826976 0.023607332 -0.013561991 -0.13653147 0.13857035 0.097886056 -0.08676063 0.22542216 -0.0047693755 -0.05302683 -0.23685344 0.1411868 -0.045368996 0.12565893 -0.1194291 -0.10095111 0.06876245 0.15244788 -0.03570216 0.21561539
jean -0.08166469 -0.08499406 -0.055129204 -0.0021491214 0.108592175 -0.11677978 0.073806226 0.15274422 -0.05512213 0.02658596 0.106701925 0.034931794 -0.10346156 0.0068375203 -0.025499541 -0.090710506 -0.18824816 0.24029149 -0.14358076 0.03553537 -0.049068417 0.10553823 0.05947214 0.042242687 -0.0447835 0.11513295 0.06205151 -0.04147729 0.068110034 -0.018131096 -0.018061224 0.15701808 0.05787709 -0.08139947 -0.006258291 -0.07603422 -0.13263062 0.052703403 0.10874159 -0.022587981 -0.13531227 0.14616151 -0.0055315117 -0.0284828 0.044318102 -0.09599012 0.0037839971 -0.08447087 -0.014892321 0.07614921 -0.025967756 0.049021285 -0.1306564 0.17169982 0.09379657 0.05197539 0.010234181 -0.042756848 0.0073317685 -0.05266488 0.11464787 -0.09057809 0.16648304 0.112922765 -0.05976074 -0.1181304 0.12317941 -0.080080874 -0.054737255 -0.15445814 -0.03598406 0.08552965 -0.099237196 0.09494216 0.08464374 -0.16174856 -0.06986886 -0.052952014 0.13777325 0.009080053 0.013606495 -0.050128397 -0.062238943 0.015307703 0.11006228 0.13671339 0.124580316 0.069388054 0.20688163 -0.18058304 -0.12453801 -0.021957025 0.02420093 -0.015612098 0.01866448 0.1604263 -0.12679794 -0.06308441 -0.29804438 0.16864008
cheet -0.020711828 -0.08728917 -0.20303172 0.00632741 0.14804065 0.05396386 0.16690935 -0.12691587 -0.09714246 -0.018158216 0.060983617 -0.011439323 -0.038377278 0.04162611 -0.14879982 -0.010624452 0.106818356 -0.047918268 -0.15868118 -0.015584993 0.021536898 0.00095786346 -0.08514676 0.07419458 0.028295368 -0.038670395 0.07286363 -0.05713139 0.07138051 0.0118509075 -0.03516507 -0.11597393 -0.083858006 -0.004247656 0.10397734 0.12776099 0.023307592 0.110988826 -0.21914026 -0.054439895 -0.15992953 0.22893627 0.037873905 0.08361456 0.010541152 0.041440766 0.038893506 -0.06590651 0.019706259 -0.03714161 -0.12917005 0.16673271 -0.078513466 -0.0649598 -0.0135148 0.17908278 0.16823693 -0.1132462 0.099192746 -0.044919334 -0.04965923 0.17711622 0.012194198 -0.02002276 0.067868106 -0.049399182 -0.10339691 0.02259677 0.04320363 -0.059795525 0.027731929 -0.059299182 -0.136266 -0.06702783 -0.114526145 -0.18641694 -0.15501769 0.16346635 -0.05092105 -0.078786954 -0.016327268 0.059337962 -0.06943037 -0.012133323 0.0065749176 0.2311502 -0.09629498 -0.040150154 0.0054708985 -0.13916233 -0.060936198 0.073101066 0.007760875 -0.017819436 -0.020391963 -0.16482244 -0.18728611 0.12526616 0.09361646 0.20921619
huitt 0.14175229 0.14401966 -0.023953654 0.064398065 0.35612425 0.017931882 0.013408813 -0.023914104 0.037206497 -0.23373176 0.09565196 0.06510576 -0.032613985 0.08391298 -0.1083481 0.07354773 -0.037543364 0.057672113 -0.1423114 0.025153946 0.049002226 0.08915882 0.011664532 -0.022968872 -0.05546257 0.0044728084 0.2568522 -0.18845437 -0.041843105 0.0872956 -0.08146112 -0.008746697 0.19001094 -0.02307065 0.21139638 0.046547815 -0.09610335 -0.05178904 0.01986253 0.033498615 0.01243515 0.09199254 0.1262925 -0.04206659 0.10629264 -0.16686966 -0.14572565 0.03323606 0.07238379 -0.16289575 0.141568 0.08625327 0.014798847 -0.10077218 -0.15888982 0.004208565 -0.0330565 -0.08444862 -0.08107909 -0.1283701 0.10779221 -0.045695532 0.027520338 0.0024978323 0.043040626 0.10450007 -0.019081922 0.045946307 0.059380926 0.12305013 0.08007907 -0.029741671 0.044422053 0.037949722 0.092145495 0.06445176 -0.09914833 0.038156487 0.18523978 -0.078911394 0.019876188 0.006743321 0.002156567 0.010355058 -0.051795397 0.03781342 0.118221745 -0.11499232 -0.09088211 0.0019946385 -0.1450966 -0.114080645 0.09416407 0.014879363 0.08540154 -0.014602813 0.0056048683 0.12260781 -0.029688356 0.18265896
ayn 0.13453436 -0.0055491645 -0.11772644 -0.016795233 -0.02932911 -0.0031784477 0.09063658 -0.07571929 -0.060079176 -0.08124699 -0.07003604 0.14034835 -0.10808615 0.028238405 0.07120717 -0.013986343 0.03757366 -0.059848007 0.073556945 -0.08524537 -0.043083604 0.09243887 0.29796493 -0.010701493 -0.03643152 -0.0065908395 0.0014349645 0.016674362 0.15487199 0.10304705 -0.0068577672 -0.13000989 -0.056860268 -0.12913854 0.0758802 0.06835901 0.118550934 -0.17295618 0.07360084 0.035012286 -0.05046314 0.012285592 0.1695588 -0.095000066 0.022711668 -0.03427051 -0.081786536 0.0119650625 0.02018222 -0.25211558 0.1073274 0.16859053 -0.10886917 -0.1528284 0.06269749 0.100290686 -0.019194806 -0.031927813 -0.06805007 -0.004375783 0.10317954 0.15643339 0.18363464 0.20542422 -0.01942955 0.12001841 0.06571403 0.055427913 -0.17157121 -0.014376766 -0.1255793 -0.007869055 0.0005719955 -0.09442342 -0.05742285 -0.069059245 0.015408998 -0.051528655 0.05157694 0.050397344 0.0829743 -0.08656132 -0.102614164 0.028328884 -0.20317025 0.22003669 0.0725242 -0.056482907 -0.0517954 -0.0051418636 -0.0028802066 -0.15735504 -0.057735346 -0.047477394 0.0031612262 -0.110665336 0.1460861 0.21257094 -0.0087771965 0.0392289
mish 0.0812741 0.0070454814 0.0010891134 -0.11259861 0.03203445 -0.0076858345 0.020793758 -0.043030046 0.07484756 0.0670324 0.007740287 -0.016703984 -0.21694675 0.05618661 0.009658712 0.025037512 -0.0569639 0.059858993 0.0056492076 0.14557108 0.015817987 -0.089906365 0.05475083 0.14029866 -0.025090024 0.20754221 0.044117615 -0.24810138 0.032801762 -0.14848453 -0.025905853 0.058783278 -0.061724737 0.11469729 -0.06644872 -0.027705189 -0.07561954 -0.12591344 0.09919371 0.037846968 -0.07835033 0.06805283 0.14485624 -0.12863526 0.09524707 0.0326853 0.06968221 0.14470534 0.16353473 -0.08917067 -0.02541797 0.18744875 -0.2053629 0.135006 0.013090958 0.12177095 0.16295081 0.1241986 0.05175008 0.1601245 -0.016439145 -0.09057141 0.040432073 -0.015684519 0.14430842 0.022814324 0.13328542 -0.086546645 0.014823491 0.03471989 -0.013655213 0.34114102 0.03442463 -0.124474674 -0.08971041 -0.063975155 0.012866545 -0.043744646 -0.026444228 -0.053684887 -0.105420694 -0.029975822 -0.08088823 -0.063762985 0.24725117 -0.12633748 -0.008476245 0.061549276 0.060833443 -0.08924922 0.09236157 -0.11823692 -0.06132006 -0.0037537033 -0.02164797 -0.077505134 -0.05403837 0.015767282 0.045527004 0.06579118
ghooinney -0.08114589 0.10882528 0.10294808 0.02071226 0.040591266 0.066963166 0.09988605 -0.015441833 0.09611913 -0.032924857 0.08308976 -0.042502984 -0.15000014 0.049637664 -0.11011064 0.1268775 -0.0057216114 0.07616529 -0.18683459 0.1527074 -0.12137998 0.10820892 0.17163324 0.15893146 0.022414561 -0.043699607 0.100092895 -0.12779987 0.0018639553 0.087436385 -0.062394116 -0.0005673537 0.13842334 -0.030687468 -0.01889291 0.025859306 0.090303704 0.04964777 0.10188695 -0.15035129 0.034681164 0.19280952 0.06356759 0.1397689 -0.029826874 -0.044104032 -0.087354764 -0.1450108 -0.14846948 0.08132647 0.018692065 0.11531972 0.08674651 0.060267426 -0.04453419 0.1027167 0.06870226 0.034973916 -0.011684384 0.03172796 0.05110716 -0.2239014 -0.16450855 0.011528304 -0.04979013 0.07010951 0.016962236 -0.025047569 -0.17188096 -0.2355149 0.13366777 0.10578698 0.036087945 -0.04307743 0.055548407 -0.14595881 0.02767723 0.10708015 -0.01161717 0.10053019 -0.13888517 0.065123945 -0.049840033 -0.01915618 0.101155 0.06247936 -0.07714668 -0.03997593 -0.0782675 0.11365917 -0.16245787 0.1306401 0.025574965 0.13126054 0.051600453 -0.038994554 0.048495796 -0.11966514 0.24611948 -0.054452784
