1891 100
а -0.2945582 0.20009816 -0.07245872 -0.016033616 0.118819825 0.12201773 0.13286543 0.093892254 0.11871223 0.08591477 -0.13741334 0.0103380615 0.12852955 0.037449263 -0.009867711 -0.035452545 -0.0050804326 -0.02858073 0.056502946 -0.014290711 0.01759723 -0.0066644624 0.014151086 -0.015577511 0.099897265 0.033165835 -0.05905283 -0.060329456 0.059817456 -0.057754397 -0.0420712 0.012159347 0.16819422 0.061625108 0.07001563 -0.09593374 -0.048066672 -0.12514226 0.10432417 0.025311183 -0.0023553637 -0.08244932 -0.076771796 0.053925566 0.049644046 -0.06493521 0.17228922 -0.025198815 0.059153106 0.048265975 -0.12711634 -0.04105006 0.16799398 0.21905383 0.008852668 -0.13757338 -0.0012734436 -0.027306344 0.03394429 0.0996899 -0.092818215 0.024888633 -0.18864836 -0.07282485 -0.13252869 0.07443721 -0.011495182 0.10211201 0.039748434 -0.049107023 0.0124319075 0.057562377 -0.07986285 -0.032539982 0.049309876 0.03386131 0.022177836 -0.15868631 -0.04771098 -0.06293536 0.23697673 -0.057170525 -0.1628012 0.008098123 -0.15628074 -0.097380325 -0.07587796 -0.034560286 -0.05956377 -0.10703779 0.12753275 0.059339877 0.0073857037 0.08207078 0.11185927 -0.044618905 0.15241633 -0.020461798 0.34730563 -0.0009839385
и -0.07949183 -0.092870116 0.0020102528 -0.05369798 0.22924377 0.08293077 0.07317153 0.064059965 -0.021850957 -0.2603267 -0.13446607 0.16951837 0.055818375 -0.059810385 0.102679424 -0.020714201 -0.0504614 0.05022659 0.010434247 -0.044482797 0.21077491 -0.07007009 -0.026738968 -0.10859026 0.09754732 0.03732603 -0.030615615 -0.017566351 -0.10898112 0.15750949 0.09798696 -0.08913267 0.13171592 0.0153977685 -0.0027666327 0.003921927 0.10359821 -0.06801788 -0.0047720484 0.02499481 0.17315607 0.04617867 -0.09658413 0.00882728 0.0071322448 0.042974245 0.07312853 0.11795553 0.0019282291 -0.22436923 -0.10672924 0.0152199045 0.03569153 -0.004125331 0.02035973 -0.10717458 -0.10232678 0.0030129948 0.0114781195 0.16638118 -0.07604629 -0.029112535 0.03277844 -0.07107638 -0.031612445 0.1839897 -0.0032969378 0.04478168 0.15203753 -0.012502764 -0.06090858 0.05960336 0.022845387 0.048802108 0.030645391 0.12200386 0.093554474 -0.06860001 -0.01983927 -0.06613341 -0.018728519 0.03276656 -0.18915181 0.043887075 0.09265438 0.057173703 -0.13464963 -0.064712316 0.09318361 -0.01875852 0.2219556 -0.062161822 -0.04827661 0.068673864 0.19475338 -0.15929781 -0.000771564 -0.022150056 0.25687388 0.2145006
на 0.17622162 -0.054962456 -0.14373706 -0.19663723 -0.03222443 0.10927239 0.19120714 0.08829452 -0.018632442 0.14914234 0.09690711 -0.034087513 -0.06697264 -0.09074952 -0.13526517 0.04395854 0.013642241 0.067602016 -0.066376604 -0.06782099 -0.058456767 0.011001916 -0.10081647 -0.06690254 -0.11573734 0.00020025217 0.16334228 0.14836411 0.052437432 -0.008714713 0.11456386 0.023154186 0.107622996 0.059305705 0.07122743 0.05054893 -0.03967062 0.055642527 0.05265531 0.16335028 0.025782606 -0.0476552 -0.024364166 -0.010220349 0.09733227 0.07532158 0.135332 -0.12157514 0.032321475 0.017899662 -0.2477235 0.16040881 0.007607213 0.14921317 -0.1579352 -0.03857136 -0.072754465 0.027120894 0.08353695 0.08597309 -0.21440181 -0.0865461 -0.041584298 -0.027057026 -0.06357999 0.028607268 -0.12137139 -0.15846293 -0.12715842 0.011796397 -0.18017113 0.1567119 -0.05985521 -0.004097487 0.03925526 0.04638609 0.12955916 0.1540951 -0.054780383 0.04417939 -0.128155 -0.065302715 0.007282007 0.021373458 -0.14096572 0.057524566 -0.19670863 -0.043217596 -0.01525016 -0.11601486 0.17831433 -0.05094913 -0.057898328 0.13125178 0.08729143 -0.033500172 -0.009994096 -0.021957165 -0.0056891614 -0.12893529
ѿ -0.11920871 0.20956326 -0.08256683 -0.11159621 0.20035149 -0.13683672 0.10743469 0.108517244 -0.11520118 0.034942094 0.1435521 0.04056545 -0.054944556 -0.071160756 0.10782538 0.20024323 0.05139308 0.07817214 -0.22613071 0.075617194 0.0071704355 -0.13754106 0.15636976 -0.025637964 -0.033419784 0.041352972 0.17178954 0.054751195 0.1872459 0.101462364 0.18496878 -0.0037670769 -0.010882292 0.14588192 -0.04969628 -0.11655349 0.14113286 -0.027040064 -0.18041703 0.08277564 -0.023652045 0.04929212 -0.04649454 -0.02575996 -0.00064357906 0.10520263 0.0018761151 0.004225559 0.12448926 0.012450898 0.083667025 0.054515995 -0.025261398 -0.08549431 -0.08236357 0.10198341 -0.054432012 0.08757241 -0.07414753 0.21319968 -0.13205867 0.10634563 -0.041745443 0.117162205 0.031629387 0.05839226 -0.08671862 0.078119665 -0.0146600995 -0.089608595 0.057577357 -0.06612187 0.063818134 -0.031981774 -0.039592117 -0.08190434 -0.01893402 0.008926011 -0.18540035 0.05401493 -0.075619325 0.10856912 0.039565776 0.011404514 0.10678602 -0.1686498 -0.035298243 -0.06757674 0.004486457 0.073027976 -0.08731699 0.10790244 -0.13009872 -0.0535461 0.072539784 -0.07920112 0.15626329 -0.12453972 -0.049935926 -0.0007592385
ѹ -0.20486888 -0.007104693 -0.046284527 -0.13157791 0.2197016 -0.047218043 0.09642958 0.044810444 -0.090201065 0.07903655 0.10895704 0.21572617 -0.07684899 -0.050749324 -0.07508072 0.11852571 0.09824095 0.24609125 -0.05810212 -0.016959524 -0.0497484 0.053279776 -0.04631559 0.06667653 -0.19910213 0.093948856 -0.11527711 0.019113164 -0.0005228288 0.20710175 0.07855187 0.09447611 -0.0004289275 -0.15099636 -0.04478992 -0.008995991 0.09621428 0.08929264 0.012677776 0.12681848 -0.16099386 -0.014134996 0.024114763 0.09241818 0.11981308 -0.0130583 -0.0990683 0.07658454 -0.021214887 0.0042802817 -0.037914213 0.055030435 -0.0463247 0.027984377 -0.15543024 -0.16138539 -0.060991466 -0.10060427 0.23877731 0.08731646 -0.19996534 -0.0062898523 -0.024417257 -0.04437568 0.13270657 -0.0646543 0.013516395 -0.081595525 0.061430123 -0.00038921082 0.008242783 0.07131869 -0.085524514 0.05736169 0.17493819 0.09661173 0.09577907 0.010505842 -0.04676814 0.14546487 -0.03813498 0.049118843 0.07659337 0.044878162 -0.054952573 -0.033755917 -0.020261055 0.0651752 -0.15541224 -0.07566864 0.11290218 -0.010829366 -0.01671426 0.111521356 -0.11321999 -0.17583087 0.11204511 0.016267736 0.08036988 0.08457081
не -0.096863165 -0.09584066 -0.013042748 -0.090613656 0.039430093 -0.042163342 0.11132274 0.16441393 -0.048762783 -0.039069396 -0.15244727 0.034015894 -0.083903745 0.002865075 -0.05150961 -0.1039013 -0.1215796 0.092410065 -0.064528525 0.04185915 -0.14639115 0.091390215 0.022331707 -0.06392533 0.07118057 -0.042516895 -0.09982323 -0.17418526 0.0039530625 -0.15365076 -0.012660463 -0.007250181 0.028352443 -0.1499119 0.12475754 0.1504822 -0.06636763 -0.012716307 0.113700524 0.020734271 -0.07821235 -0.13354611 -0.10604674 -0.040723283 0.13285293 0.030344142 0.119493894 -0.03723499 -0.2763452 0.00856462 -0.047815252 0.07502086 0.1060507 0.18816526 -0.06615407 -0.08695365 0.036349755 0.12386367 -0.0054812264 -0.092530645 -0.12926932 -0.015272357 0.14537796 0.041306045 -0.0016666513 -0.14068067 -0.14020306 -0.038336106 -0.051842205 -0.24444877 0.080772646 0.12551054 0.074800715 -0.02453381 0.16745155 0.14059402 0.084281236 0.07816816 0.0661294 0.07479853 0.09576064 0.06126531 -0.034373302 0.056501 0.052293383 -0.05267268 -0.103999294 0.10702712 -0.003367563 0.09056309 -0.06502187 -0.044162855 0.1291021 -0.17414683 -0.05141158 -0.0036405094 -0.12917276 -0.18155304 0.14575525 -0.074498214
ти -0.05028442 0.02321886 -0.039241653 0.05063166 0.099034384 0.10031003 0.048457433 0.11379414 -0.12653995 -0.031135445 -0.015204826 -0.028691527 -0.0269425 0.030892728 -0.20931952 0.02204142 -0.031409927 -0.09720011 0.06500884 -0.035685606 -0.04254888 -0.020285094 0.021244498 -0.051488504 0.06397185 0.067031235 -0.043039344 -0.051782154 -0.017339805 -0.22021686 0.1668912 0.0051071276 0.081631355 0.051258676 -0.12022972 0.308608 -0.022941543 -0.006742821 0.010349333 -0.052600604 -0.1040148 -0.022733489 0.034279447 -0.061709452 0.06423282 0.03841405 0.021082198 -0.14101885 0.0066874144 -0.15156822 -0.12550564 -0.220199 -0.13015065 -0.10651736 0.0650602 -0.040506896 0.0523463 -0.08403939 0.00018785529 0.15247466 -0.0370606 -0.0069084577 -0.06846339 -0.04775566 -0.07345757 0.04450631 0.01593421 -0.08386956 -0.098832585 -0.16674836 0.04960556 -0.0863942 0.067254655 0.0510759 -0.16595794 0.10241814 -0.14558025 0.09913622 0.08674697 -0.0696658 0.19262744 -0.12744051 0.022524053 0.1576999 -0.19159514 -0.057344887 -0.013140309 -0.092376955 0.036815643 0.25561646 0.22076626 0.032842122 0.06602242 0.016360715 0.098560475 0.02175347 -0.046266045 0.029577412 0.1849497 0.09140286
къ 0.054393865 -0.0744115 -0.09252022 0.08777957 0.13387035 -0.18526632 -0.050064147 0.042165898 -0.17905283 0.0046196384 0.046088878 -0.070250675 0.08813997 -0.07641276 0.13552937 0.03477838 0.13064632 -0.063938245 -0.07075582 -0.20071146 -0.16642481 0.022544453 0.010533604 -0.09821595 -0.07138118 -0.054389887 -0.107790366 -0.063869305 -0.10455594 -0.10120987 -0.11324751 0.029572789 0.058442235 0.020243803 -0.1583902 0.07335878 0.15883489 -0.07913023 -0.077774175 -0.05139461 -0.053662118 -0.0060329065 -0.10514338 -0.079803504 0.0504895 0.10782243 0.17368533 0.074792795 -0.11055979 0.10982111 -0.042494155 0.018178968 0.13153723 0.005652314 -0.14244795 -0.11187898 0.026965192 -0.12825872 -0.053094435 0.10051332 0.00085999817 -0.07827267 -0.032058965 0.09428679 -0.12855583 0.15095322 0.06008696 -0.012941506 -0.1508364 -0.09539951 0.14385103 -0.034738727 0.11977314 -0.040923018 0.2217282 0.17012584 -0.04932629 -0.031833977 0.04451254 -0.071192294 -0.08952631 0.033824038 -0.045196258 0.0103399735 0.024917154 -0.041877303 -0.09909229 0.05334171 -0.008063857 -0.028244685 0.043091476 0.15103519 -0.13467404 -0.09728625 -0.057899676 0.12463311 0.0497751 -0.23419732 0.098788425 -0.22129418
ко 0.030284522 -0.035160955 0.040940147 -0.029359138 -0.11579515 -0.2573281 0.033106074 0.20806558 0.0046605603 -0.0075655803 0.16370067 0.059876785 -0.19909972 -0.095834225 0.21399379 -0.012455053 0.009455359 0.056683287 0.016201133 -0.19939716 0.11551102 0.05962917 -0.00262718 -0.2492166 0.015978616 -0.083758 -0.11884972 -0.11126874 0.108432546 -0.07324204 -0.009590935 -0.063495785 0.24425621 0.057964414 -0.069587626 -0.09241003 0.20418738 -0.037857465 -0.018001504 -0.041623045 -0.10128872 0.004260392 -0.07940077 0.060010593 0.1016173 0.13655742 0.10368689 0.116523825 -0.050578468 0.09250943 -0.07996142 0.061324917 -0.08898938 -0.09224332 -0.09321555 0.06085822 -0.013221205 -0.035615943 0.01452416 -0.0648021 -0.0446986 0.06683575 -0.039562177 0.12779248 -0.08210287 0.07313571 0.19787557 -0.008071045 -0.022346303 -3.439576e-05 -0.053004406 0.06823118 0.040036786 -0.032441672 0.0065457397 0.06998126 0.021685526 -0.030334111 0.020010514 -0.06201253 -0.10181147 0.10258997 0.009164183 -0.1797766 -0.12348854 -0.033881523 -0.24282742 -0.06921151 -0.01678277 -0.06987578 0.0750105 -0.102380134 -0.031940624 -0.17582865 -0.0604415 0.05221613 0.054168187 -0.034471486 -0.11487124 -0.10228759
у -0.24917601 0.07247757 -0.016638637 0.033695415 0.1661401 -0.053251196 0.119527325 0.11583781 -0.17421852 -0.13022055 0.01222173 0.18101484 -0.034253594 -0.026604148 -0.31033963 0.21589343 0.03937858 0.05494658 -0.105512284 -0.017413428 -0.010725865 -0.063846834 -0.0010956337 0.039846025 -0.16549842 0.042899437 -0.10948271 0.033257313 -0.045063883 0.051075414 0.12159387 0.10188721 0.032749902 0.13198212 0.026150737 0.09076413 0.19887708 -0.013160837 0.010050731 0.15793136 0.058148745 -0.008319475 -0.10111762 0.06309795 -0.05804197 0.07779864 0.101405196 -0.04742182 -0.025061317 0.022205783 -0.0016373175 0.072669685 -0.09017251 -0.028506922 0.0870455 0.06516176 -0.06171849 -0.028017642 -0.07768821 0.051066678 -0.16557853 -0.02178269 0.055832814 0.07099872 -0.15420106 -0.011143761 -0.030390898 -0.009306446 -0.1043277 -0.06910884 -0.09046572 -0.107255794 0.025111796 -0.034404326 0.07542313 0.04535758 0.12105452 0.07862966 -0.019597718 0.12078623 0.073317714 -0.2072166 0.13128267 -0.059237376 -0.1314309 -0.15478909 -0.082068846 0.012559417 0.10528067 0.05480285 0.0031489886 -0.019484255 -0.13883406 0.085589685 -0.16419412 -0.17857388 0.09316137 0.07197267 -0.017861687 0.0948221
в 0.09398591 0.10473616 0.060461592 -0.123753026 -0.09386726 0.10366686 -0.016430732 0.14860004 -0.1353737 -0.11886569 0.09767848 -0.17548041 -0.020755269 0.0028288674 -0.14962475 -0.03456355 0.058499593 0.08434164 0.03615312 -0.05336206 -0.07278406 -0.017656272 0.11187483 -0.033111725 0.06559644 0.06650107 0.04191512 -0.02290117 -0.11688685 0.026007278 0.02659506 0.072030246 0.03415169 0.027596291 -0.04960657 -0.023993561 0.024700088 0.024668215 0.04813869 0.16728306 0.05148836 0.1300477 0.043028962 0.07071593 -0.13882463 -0.12035702 -0.2046071 0.102935195 -0.18816522 0.022349786 -0.055247866 -0.045116257 -0.18417737 -0.034227546 0.11855261 -0.081598476 -0.034920175 -0.13764411 0.07589536 -0.105126046 -0.15311822 0.009409969 -0.10790831 0.07457642 -0.03593019 0.26525748 0.03587887 0.1596008 -0.052211143 0.042100962 0.07537195 -0.19623896 0.03731836 -0.024699276 0.051451385 -0.12210724 0.2546583 0.094551705 -0.043738496 0.06003978 -0.054373585 0.20595773 -0.025576077 0.05351791 -0.1000465 0.01536684 -0.07740861 -0.013209338 -0.11829395 -0.1357919 0.09684211 -0.19768046 0.05735639 0.04416684 0.046375103 0.05884082 -0.08351465 -0.04716201 0.12204759 -0.08128517
к -0.09359668 0.096072264 -0.05523981 0.12165172 0.16516335 0.0005733222 -0.13329248 0.20822667 -0.049230125 0.0073154056 0.13628952 0.035402358 -0.054334823 0.014101327 -0.030555844 -0.13562731 0.12854065 0.05675162 -0.21541873 -0.29769757 -0.07675218 0.077939615 0.07258982 -0.01087002 -0.08306125 0.08874595 0.08820712 0.11737632 0.0070647257 -0.021123903 -0.03963132 -0.08621365 0.018016875 -0.03858503 -0.02068216 0.09165402 -0.016457517 0.1541083 -0.15988758 0.018878317 -0.040125534 -0.10939359 -0.2234301 0.24261156 -0.024855908 -0.034824193 0.06620416 0.13422513 0.030503472 -0.0033445696 0.020730453 -0.08294011 0.15599748 -0.1091603 -0.012680988 0.017531581 0.08650888 -0.042803 0.094068624 0.0793037 0.07642871 -0.0035471667 -0.0022773792 0.10147447 0.03129333 0.14337 0.06073586 0.0479935 -0.17469762 0.12630902 -0.113123976 -0.0048489776 -0.033190347 0.034638006 -0.0794638 0.124376245 0.13693863 -0.12281272 0.08640802 0.07113922 -0.22870933 0.062881164 -0.11559207 0.046384383 0.12888324 -0.05278339 -0.06862355 0.056604587 0.0010843297 -0.07467265 -0.05740531 0.03673308 -0.029760733 0.13911028 0.03201035 -0.1255414 0.024888406 -0.04396253 0.101839684 0.061160818
да 0.053703945 -0.010923506 0.081717655 -0.031202013 0.09602221 -0.07036716 0.014730405 0.051045306 -0.053062223 -0.104038775 -0.07579643 0.17649668 -0.0120752 -0.05405943 -0.06671054 -0.03195456 -0.11087581 0.10046551 -0.06657985 0.023871373 -0.14197256 -0.052110195 -0.0008626936 0.14841415 0.012856965 0.038370203 0.1671198 0.027919643 0.17470327 0.0015022928 -0.12944795 0.13735339 0.031446908 0.005687846 0.029522479 -0.116790906 -0.0037362014 -0.25917456 0.26772076 -0.052229714 -0.042189468 -0.049246814 -0.033839237 0.092790335 -0.09875095 -0.20074026 0.17475827 -0.045993563 6.7449786e-05 0.0124430135 0.0074849054 0.18031295 0.066616334 -0.09618988 -0.21539724 0.13309716 -0.11937234 -0.01588654 0.04557551 0.16022111 -0.11342617 0.013661672 0.06843601 0.047191452 -0.09811134 0.13589399 -0.04358963 -0.03365346 -0.17229208 0.07675173 0.009835601 0.025055416 0.04294702 0.012495748 -0.058583908 0.023285827 0.013268799 -0.19554244 0.013343005 -0.0449636 0.08770557 0.016576305 -0.026392257 0.16748863 -0.2581967 0.108550526 0.032632917 -0.015216452 0.07673515 0.18781821 0.075365685 -0.012462532 -0.08414837 -0.102158114 -0.06972004 0.021201227 0.06963177 0.10030098 -0.037977964 0.03632099
ꙋ -0.18776028 -0.10217166 -0.14474426 -0.17543216 -0.09586453 -0.0022005676 0.03605465 -0.06356969 -0.07502871 -0.046606638 -0.0032608246 0.21661961 -0.042055395 -0.14942122 -0.029866247 0.1444225 0.016817357 0.06534165 -0.055670124 -0.00608373 0.045603372 -0.012023119 0.11645599 -0.05778816 -0.064708546 -0.058897857 -0.15552539 -0.07643381 0.123674355 -0.027444998 0.11152735 0.22659178 -0.05957489 0.1114453 0.0074324547 0.15828232 0.017076263 0.09632716 0.082435064 -0.01410332 -0.04133094 -0.021019911 0.07328011 0.22671536 -0.04113778 -0.12590304 -0.007017649 0.0013491809 0.065450594 0.024381373 -0.13268183 -0.0044079893 0.17790242 0.0737218 -0.11409278 0.04420471 -0.105455786 0.13061205 0.11574102 0.11335566 -0.013541999 -0.053626068 -0.0891869 -0.16900459 -0.119122304 0.060563136 -0.016932644 0.040855724 -0.016190093 -0.11387369 0.032453965 -0.15331008 -0.037631676 -0.018093066 0.08870446 0.13032515 -0.13236932 0.024680557 -0.09741619 0.14845626 -0.08816947 -0.16417259 0.17957208 0.08390845 0.059462696 0.024960266 -0.016208168 0.12326739 0.0814538 0.08093276 0.10749565 0.14297819 -0.14165302 0.040921792 -0.052875612 -0.13556308 0.09147449 0.05497926 -0.06993331 0.09246658
то -0.19685833 0.044840574 0.027402485 -0.08482008 -0.024554478 0.03416299 -0.19312154 -0.032738883 -0.07456823 -0.16701427 -0.056964513 -0.11178104 -0.044992812 -0.07661421 0.117101006 -0.00389982 -0.060674455 0.0642617 0.17292307 0.014868001 0.033476695 0.142286 -0.15810375 0.041735046 -0.048027866 0.0015212096 0.11813698 -0.2589174 0.05241138 0.023428455 -0.098337926 -0.122334704 -0.046602767 -0.13826042 0.14504668 0.009601467 -0.046115838 -0.033476774 0.007045306 -0.11694819 -0.13103114 -0.086218886 0.027621282 -0.06830709 -0.14435066 0.13161276 0.03668811 0.15043649 0.014951671 0.006236669 -0.05958275 0.2191138 0.060676534 -0.1565767 -0.04776848 -0.069549136 -0.09567427 0.0059164986 -0.028665137 -0.07671915 0.021979546 -0.030869775 -0.15845346 -0.24819584 0.06876462 -0.020904223 0.05042701 0.04801065 0.012208265 -0.111159936 0.014544386 0.011730509 0.024710955 0.04085799 -0.07682407 0.15028626 -0.06970661 -0.1233223 0.07677945 -0.16292647 0.0256756 0.030900285 0.049856134 0.05862194 0.13595477 0.21472445 -0.10168952 0.12065209 0.016386881 0.098813176 0.15723433 0.04011878 0.034090266 0.14363131 0.037325017 -0.02426978 -0.01170237 0.10240384 -0.013499394 -0.16189064
же -0.13086179 -0.07263189 0.18909444 -0.14411503 0.042956963 0.035961967 0.122039154 0.075627446 0.06154285 -0.0012603055 0.040645607 -0.14369245 -0.027337348 0.07591155 -0.15658407 -0.052787263 -0.20294404 0.01168333 0.22304584 0.11675266 0.01033933 0.10295347 -0.19471632 0.10168258 -0.0967342 -0.057406604 -0.06729424 -0.037032943 -0.079660214 0.044674948 0.1177856 0.06277216 -0.054262727 -0.04422729 0.013448366 -0.03174327 -0.07956812 -0.023397185 0.10562572 0.11466387 -0.014927137 0.028118383 -0.17869996 -0.072007485 -0.098734714 0.17788586 -0.037887778 -0.053642806 -0.019415623 0.0780605 -0.08613771 -0.17147645 -0.01360884 -0.07862907 -0.028818361 -0.024973888 0.12778232 -0.09319567 0.09685108 0.047163315 -0.052950457 0.05989403 -0.0127772875 -0.068173535 -0.11514367 -0.048558574 -0.028845733 0.024320489 -0.04138932 -0.104374535 -0.1003759 -0.004836506 0.15518898 0.05631624 0.28406996 0.061110653 -0.07075254 0.028161187 0.15866622 -0.04919682 -0.035592087 -0.10717982 -0.0979446 -0.0632213 -0.29207772 0.005571106 -0.03790944 0.01043326 -0.005147068 -0.021430833 0.057973105 0.077617906 -0.29708064 0.047234926 -0.055046298 -0.05148007 0.009808824 -0.019416902 -0.06243792 -0.023105808
ӏ 0.0032749702 -0.01188624 0.08498183 -0.01928824 0.025033198 -0.0011507409 0.10840218 -0.02021591 0.121335246 -0.14061771 -0.0057982644 -0.007259426 -0.06474928 -0.038679615 0.007801456 0.011868646 -0.12243246 -0.12547247 -0.17113875 -0.0053985096 0.05979926 0.0102357585 0.038275983 0.14031067 -0.16624446 0.061607435 -0.0915084 0.065492876 0.105777755 -0.07880471 -0.060520317 0.01295431 0.09758767 0.0031601375 -0.14510386 -0.07644753 -0.020348005 -0.11731933 -0.115341134 0.1698972 -0.090346135 0.0020290439 -0.18717904 -0.07982804 -0.06914874 -0.1640465 -0.05263445 0.095945284 0.032009743 -0.06529252 -0.061182205 0.032636702 0.08027634 0.021389885 -0.06728824 0.009447681 -0.013469132 0.072650835 0.22084714 -0.008325828 0.016022116 0.057570133 0.1327531 -0.064728945 0.062777095 0.10768617 0.16366526 -0.05299664 0.009761778 0.026607426 -0.06070123 0.031521976 -0.123402804 0.04024779 -0.2547301 -0.11997985 -0.018016767 -0.18620777 0.099411406 0.043755196 -0.03754973 -0.11420714 -0.006638667 0.1526638 -0.13690324 -0.25418782 -0.008246321 0.15278782 0.156731 -0.04656358 0.1293604 -0.019572053 -0.030687617 0.09881155 0.119125076 -0.25019848 -0.13476916 -0.0829277 0.04679468 0.06911171
въ 0.04603734 -0.08124855 0.00066449033 0.13012664 -0.013559259 -0.21992986 0.11218018 0.09747579 -0.020898882 0.039749686 -0.049268298 -0.16213933 0.059468247 -0.026170488 -0.03524519 0.031388246 0.19270073 -0.043818563 -0.036677 -0.06390368 0.14321123 -0.16307306 -0.0052180416 0.23799744 0.12454929 0.13284652 0.08357628 -0.13836268 0.0041721975 0.025542896 -0.10556856 -0.08216926 0.2593663 -0.20203103 -0.02953299 0.09346992 -0.029404756 0.10487831 -0.045892455 0.058697753 -0.07843681 0.039884236 -0.0560809 0.0040989053 -0.024503367 0.022528239 0.0073257065 -0.09890596 -0.019253584 0.16061708 0.0913607 0.031607967 0.018197315 -0.02124445 -0.06765815 0.09483851 0.14629744 -0.06608443 0.014467868 0.11596335 0.094881125 -0.12312975 -0.011463367 -0.10456792 0.067886166 0.046383765 -0.050983008 0.03228136 0.017255438 -0.06913298 -0.32946378 0.00413406 0.020749737 0.03741206 0.08961534 0.022617763 0.06294196 0.0019352061 0.133637 0.17129189 -0.03734773 -0.009170518 -0.034483865 2.294568e-05 -0.0014957746 0.027984615 0.036491882 0.033934645 -0.043441795 -0.022517398 0.047872394 0.002095325 -0.009289804 0.040592644 0.02935305 0.14161119 0.24886633 -0.08157414 0.22232698 0.14850415
за -0.07105693 -0.02221262 -0.18666013 0.08711358 0.02630039 0.06503675 0.07766745 0.15854223 -0.10296612 0.19529366 -0.2071867 0.0325285 -0.15471396 -0.1668066 0.030007064 -0.04912477 -0.111745104 0.037823435 0.09509607 0.13689269 0.030931586 0.09711003 0.071209 0.03408222 0.049751583 -0.004101135 -0.0012978561 -0.0060323193 -0.13957849 -0.025492124 0.07778009 -0.019775959 -0.032979462 0.048781283 0.061106633 0.15370399 0.11271766 -0.0039801174 0.12980023 0.041083954 0.014044413 -0.08839171 -0.08042608 0.07997744 -0.058562934 -0.087217405 -0.0016412637 -0.017867563 -0.025697581 0.12683386 -0.011064111 0.028441338 0.06415091 -0.023757366 -0.08966375 0.07697823 -0.17127368 0.013821425 -0.17327969 0.08951782 -0.19313745 0.13653213 0.093235336 -0.08664198 0.2170811 0.0904204 0.04785076 -0.15874504 -0.061527617 0.17853649 -0.12349079 0.12959437 -0.006696278 -0.06783616 0.13386731 0.021210268 0.050814044 0.09627419 0.025496159 -0.075277604 0.0454704 -0.05307438 0.1931566 0.2288337 -0.04993353 -0.09700146 -0.09554588 0.06336764 0.006874151 0.09951261 0.0531316 -0.10020465 -0.08823299 0.056579884 0.123196915 0.087510385 -0.054482132 0.0081336275 0.042390745 0.19394006
во -0.013000512 0.06281711 -0.005838243 -0.02367737 -0.16304748 -0.2051858 0.16762699 0.21974103 -0.05864194 0.11381096 0.057882693 0.14890766 -0.10805138 -0.1029224 -0.10077441 -0.06810939 -0.22033727 -0.008349163 0.1011914 -0.17700806 0.15023634 0.054266453 -0.23799302 -0.044901747 0.060965803 0.062198494 -0.009999691 -0.034897234 0.04629884 0.057496235 -0.13551806 -0.035241086 0.06322193 -0.10201228 0.032067202 0.097016826 -0.07490457 0.10386382 0.030129423 0.067801945 -0.22155924 0.04105513 -0.10484308 -0.18903176 0.05021891 0.02255787 -0.03848454 -0.06892629 -0.059237693 -0.0010400232 0.0893728 -0.0010488138 -0.05503655 0.024666257 -0.031730045 -0.03214844 -0.016946485 0.03711199 -0.124303006 0.030121917 -0.08281901 -0.09109557 -0.12597884 0.10300889 0.06687924 0.08020478 0.14471877 -0.09533032 -0.08362701 -0.109435186 0.1623024 -0.027468275 0.03804989 -0.019330595 -0.02054218 -0.062350098 -0.10044233 0.0383358 0.16248721 -0.07729115 -0.06363643 0.13835603 0.14839698 0.035170525 0.0775055 -0.014670913 -0.022488605 0.06184264 -0.0716804 -0.008959518 0.1935175 0.117539674 0.1095118 0.08553587 0.06053759 -0.09995058 0.15830867 -0.11477293 0.08973664 0.05259102
по -0.060520794 0.12066776 0.09747085 0.12336266 -0.19074595 -0.09159617 -0.12679288 0.099223934 -0.12438646 0.073860556 0.23185341 0.10536179 -0.055234186 -0.14797017 -0.12493402 0.02073033 -0.034957137 0.004293472 -0.002677139 -0.17173679 -0.022941256 -0.06802618 -0.016577609 0.003693918 0.10406441 -0.047281902 -0.064612545 -0.19918723 0.17371814 0.14047134 -0.10691118 -0.018597037 0.18446283 -0.11643842 0.058495756 0.17780034 0.24682838 -0.10037753 -0.089786105 0.005081302 0.12590422 -0.005153966 -0.056506936 0.15595311 -0.013821418 -0.057847593 -0.021661632 0.01868322 -0.02966234 -0.060802773 -0.11257928 0.1525063 -0.018240487 0.17180696 -0.011565252 -0.15003265 0.050217833 -0.06477588 -0.13612022 0.07532345 -0.04867222 0.117150605 -0.02913954 0.04029639 0.1094601 0.050309345 -0.034526613 -0.15574843 0.014069814 0.020180998 -0.08927277 -0.10653799 0.12890652 -0.16772904 0.14568083 -0.04388651 0.06321698 0.06899634 -0.0806716 0.02381998 -0.058264222 -0.048811514 -0.02452769 0.10964217 -0.028329149 -0.026350817 -0.051305052 -0.23199938 0.029835062 0.14702906 0.0040205475 -0.039552473 -0.024363292 0.006820149 0.05388032 0.04009274 0.04376637 0.036403593 0.0019225861 -0.020232243
в҃ -0.06688765 0.025167532 0.027838161 0.12375962 -0.22028856 -0.05853704 -0.10768711 -0.21949317 0.074844114 0.17016217 0.18861534 -0.034889054 -0.049019326 -0.029765965 -0.07185159 0.12439657 -0.027655851 0.036589812 -0.051100474 0.18455055 -0.07934836 0.032443523 -0.044907432 -0.018169614 0.07803537 -0.088448495 0.013416932 0.07166664 0.0323856 0.07725819 0.00018445658 0.02769211 0.056262672 -0.105303474 -0.06918642 0.04520761 -0.11416952 0.11920066 -0.013210818 0.010222775 0.0011060621 -0.05503364 0.08161787 -0.039613493 0.009854786 -0.08774048 -0.03225855 0.02395557 -0.037234087 -0.01635528 0.08987046 -0.08635075 -0.13223512 0.0566047 0.19299644 -0.053378314 0.010079183 -0.0475544 -0.15343587 0.23079607 0.16087407 0.051946364 -0.27086967 0.06969799 0.12109997 -0.02330461 -0.050076924 -0.06330179 0.05529912 0.0922717 0.11945519 0.0040477156 -0.015054716 -0.042825844 0.04809165 -0.13479663 0.09871359 -0.010485756 0.1053661 -0.030349223 -0.16985293 0.18676625 -0.045820445 0.016161112 0.08819526 -0.10079289 -0.09343901 -0.14814934 -0.020753132 0.0032837894 0.06319329 -0.106820606 0.037465204 0.01829388 0.024047922 -0.09572094 -0.08753932 0.051354337 0.21799883 0.26687843
с 0.097246915 -0.08966726 -0.022108415 0.094233595 0.27708462 -0.16845116 0.054392807 0.017251156 0.026983283 0.120757826 0.027846197 0.028006341 -0.103991725 0.0068769203 0.01388769 0.13276474 0.008644502 -0.16285129 0.013476113 -0.026521316 0.19232641 0.07045957 0.09417257 -0.029345792 0.03347355 -0.054525964 -0.075283855 -0.025117002 -0.029431365 -0.13321377 -0.00027937902 -0.1444192 -0.031081576 0.1563729 0.024025856 -0.15244506 0.19328943 -0.26555026 -0.007143071 0.04974304 0.15541524 -0.1435268 -0.0137026915 -0.0017576775 0.015172507 -0.07226735 0.1882562 0.030040199 0.09680509 -0.011146493 -0.03370834 -0.07117037 0.074369706 0.15375242 0.123787254 0.0676548 -0.16158228 -0.009803427 -0.017660141 0.0549098 0.06626449 -0.017280834 0.001474427 0.025502611 0.030217119 -0.09459886 0.016207783 0.017113827 0.06389362 0.12567785 -0.11645549 0.093568265 0.15091477 -0.019510016 -0.037854534 -0.21671017 -0.056143884 -0.022133958 0.03682003 -0.00044999033 7.9605066e-05 0.2669081 0.044876106 -0.03749103 0.07129073 0.06670147 -0.045866795 -0.032875482 0.09903785 0.032665595 0.06633392 -0.025531186 -0.11196091 0.03374996 -0.17975818 -0.054479335 -0.0125566 -0.11967573 -0.13498677 0.1732268
ми -0.034611207 -0.09240145 -0.04338375 0.09178965 -0.109482564 0.06889538 0.010919671 -0.042800624 -0.0013260454 0.009761774 -0.058785513 -0.10357951 -0.05343599 0.027127925 0.14991006 0.07910669 0.15137984 0.010319819 0.008552273 -0.032046832 0.08049262 0.043435507 -0.017858578 -0.04085855 0.18761462 0.015439883 0.21010274 -0.005478869 0.16673498 0.12702307 -0.0061736433 0.13222507 -0.023414712 -0.07623226 -0.008170043 0.09021812 -0.23431718 -0.1205057 -0.10705482 -0.1333793 -0.04676706 -0.10107755 -0.1473388 -0.12884864 -0.13283707 -0.01848609 -0.120183125 -0.036296435 -0.03649421 0.13768747 0.01443305 0.12944002 0.023650797 0.06985758 -0.06780299 0.16781192 -0.09994838 -0.077997394 0.093591675 -0.024948489 -0.03953449 -0.0739659 -0.11482456 -0.0531301 0.029256215 0.012708942 -0.0192768 0.10500728 -0.11311978 -0.14228018 0.19314541 -0.16849427 -0.17856519 -0.018637098 0.018260228 0.0028510252 0.03608626 0.08048099 0.044055134 0.047318295 0.08747553 -0.08416365 -0.07173096 -0.038823962 -0.07275238 -0.093633614 0.06792329 0.040158387 -0.066085875 0.2062156 0.23541582 -0.08899794 -0.05149234 -0.21840775 -0.0015498705 -0.094130285 0.07185712 0.12327113 -0.018809836 -0.17306013
сѧ -0.08504903 0.049111076 0.054219097 0.06513481 0.039558083 -0.08093703 -0.12179835 0.12283454 0.0866452 -0.19393641 -0.01921887 0.046050444 0.062505536 0.0138050085 0.00043452697 -0.08195283 0.16031681 -0.25140017 -0.025739709 -0.016196948 -0.13179015 -0.17269474 -0.17480607 -0.050996665 0.21030046 0.051714662 -0.18358548 -0.13049825 -0.18252976 -0.15231402 0.056770686 -0.16540764 0.13552463 -0.022549426 0.054406103 0.12863274 0.095903486 -0.10099203 0.07105368 -0.089564584 0.01353363 -0.06042941 -0.0803437 -0.12163693 0.072561406 0.03402244 0.009913125 0.055854954 0.057195023 0.017408168 -0.049435377 0.017758258 -0.0038965726 0.034538243 -0.041967683 -0.11004006 0.044565726 -0.12535809 -0.028206462 0.055946317 0.08076332 -0.039937105 0.06919789 -0.07222959 -0.078550406 0.032191243 -0.04942002 -0.072147615 -0.038674 0.2225842 0.031103559 0.06721545 0.024793446 -0.055979516 0.048809618 -0.0017358693 -0.1946462 0.14745173 0.030100161 -0.05473849 0.17570408 0.21516109 0.027000265 -0.1000811 -0.107601 0.020746786 -0.11950504 0.09061078 -0.023199977 0.21082889 -0.008697263 -0.019505998 0.104367144 -0.10660683 0.046697173 -0.015394003 0.0657675 -0.06086151 -0.1333019 0.07543087
ѧ -0.001131195 -0.08488279 0.0066994913 0.22608005 0.06258783 0.07758068 -0.04572596 -0.06062667 -0.053699844 -0.015287352 -0.10098382 -0.17120335 -0.15871729 -0.08617097 0.0008622624 0.12513158 0.101299204 -0.070593916 -0.19711216 -0.041782666 -0.20094517 0.039663278 -0.020655937 -0.08285863 0.17327501 0.019441776 -0.07860556 0.093135945 -0.075311124 0.2104896 0.10983994 -0.08327303 -0.05312381 -0.27283314 -0.06770714 0.07484476 0.088393696 0.048999246 0.18231292 0.040127788 -0.060723614 0.02206408 -0.046313398 0.10020406 0.020883173 0.06608594 0.120574005 -0.12993824 0.07374762 0.03502682 -0.08014033 -0.14023535 0.10501291 0.05292879 -0.028708272 0.13684951 0.09843776 0.02698592 -0.07136135 -0.035547797 0.02391484 0.19667606 0.03228214 -0.05053732 0.10259184 -0.031676922 -0.04422669 0.11088361 0.02480774 -0.1460695 0.033589896 -0.04029361 0.005491216 -0.09863899 -0.22290567 0.04857362 -0.053855043 0.07984938 0.16823082 -0.0045799837 -0.02811097 -0.011492307 -0.018985884 -0.03555144 0.08502108 -0.07187025 -0.096259005 0.0139149465 -0.10569981 0.00648354 -0.07741521 0.09081067 0.122571476 0.017854277 -0.13677707 -0.06295581 -0.15975934 0.0036134985 -0.12523639 0.16088088
тꙑ 0.081079364 0.088402085 0.039226416 0.036679816 0.015178973 0.022597939 0.0379268 0.03465125 -0.1384623 0.1262959 0.04622246 -0.04642002 0.0093208 -0.13050203 0.01664992 -0.0041505736 0.023952287 0.03483918 -0.13184358 -0.037195537 -0.06426236 0.02537183 0.06424797 0.061695997 0.0109953545 0.050554592 0.12830654 -0.017435906 0.027865097 -0.21522428 0.07639372 -0.10944259 0.12003234 -0.070656165 0.069133215 0.110051155 -0.019518422 -0.054058276 0.16554101 -0.24344003 0.12656383 -0.1354698 -0.029558655 0.014200437 -0.07555427 -0.00035434263 0.12921932 -0.013587324 -0.07634893 -0.008695727 -0.09340519 -0.04019444 0.027333174 0.01932187 0.0044436716 0.060693163 -0.08848464 0.13767326 -0.055724327 -0.13449919 -0.08432343 0.1558187 0.113976516 -0.20374522 0.13545386 0.10717379 -0.007283522 -0.010511072 -0.03459982 0.012680471 0.060093198 0.12335986 -0.33378845 -0.12547363 -0.063755944 0.0150804315 -0.15192153 0.16735116 -0.007802162 0.02038507 0.018246053 0.27304256 0.09154321 0.067575045 0.10004728 -0.019689217 -0.08341058 0.07162814 -0.086763285 -0.024133254 0.024167875 0.031456944 -0.047900107 -0.14300369 -0.106072165 -0.09515148 0.007910496 -0.24652809 -0.05895162 -0.071449846
е -0.055015337 0.11117611 0.020561546 -0.09390853 0.14154336 -0.0076565533 0.019539889 -0.08724104 0.12319168 0.047915198 -0.011416932 -0.18561478 0.0363647 -0.095634215 -0.12798199 0.06462988 0.041890673 0.0010974125 0.01745779 0.09858641 -0.19990811 -0.035810735 0.012562676 0.105467305 0.04031274 -0.047784433 -0.0532233 0.077820174 0.13025875 0.1529083 0.069391266 0.024163667 0.051736582 -0.08300531 -0.13550772 -8.528224e-05 0.20344277 0.009100873 -0.0690228 -0.059588335 0.034998834 -0.13118547 0.052821975 0.10748104 -0.16728774 0.1434166 0.0075252727 -0.117879696 0.08387783 0.062078077 -0.17291683 -0.1388721 0.06621231 0.024102295 -0.026279874 -0.070024684 0.18176307 -0.002094285 0.02296242 0.067471355 -0.07267247 0.1191827 0.064765036 0.019141633 0.12704982 -0.02286036 -0.25083685 0.032358352 0.01270631 0.09013258 0.11879318 0.18050429 -0.106071 -0.1559345 -0.16979115 -0.13560931 -0.027168704 0.058396902 -0.011527953 0.097636126 -0.065404944 0.20530708 0.13670401 0.114852734 0.083878 -0.024991727 -0.08244354 0.14363424 0.08400045 0.12626883 0.08705258 -0.03412422 0.028898895 0.025001297 0.08845653 0.20043467 -0.08694531 -0.01992678 -0.012157496 0.025359422
г҃ 0.049224373 -0.12306461 -0.031041222 0.13842517 -0.162273 -0.03425546 -0.052763 -0.20339143 -0.035195176 -0.05918995 0.010723478 -0.09319383 0.07990211 0.038068697 -0.026334004 -0.09430061 0.10900348 -0.13935682 -0.12820202 0.016440624 -0.017072175 0.1485789 -0.1725332 -0.09277592 -0.018632278 -0.15800233 -0.0056104204 0.08932196 -0.08295639 0.017305361 -0.075496405 0.00081899686 0.09880252 -0.07616027 -0.1551435 -0.013813994 -0.062953815 0.08191507 0.041077748 -0.13083935 0.15677296 0.018767398 0.057241417 0.10411815 -0.08923707 -0.10231841 0.07205418 0.014364817 -0.02773973 0.00048762345 -0.09070379 -0.063513 -0.07814817 -0.046266142 0.084503695 0.1222329 -0.13174327 0.046113 0.02243666 0.21948045 0.21739662 -0.122829795 -0.25428602 0.02736696 0.04289257 0.09988113 -0.2139085 -0.17577311 0.007651226 -0.00020623526 -0.069701366 -0.044494007 0.045195065 -0.15560453 0.076563165 -0.16686358 0.080236904 0.12770547 0.08226707 -0.020900186 -0.17138056 -0.06889427 -0.09951619 0.020180855 -0.02038544 0.010392441 0.030314695 0.07915367 0.11079663 0.040337 0.007701766 0.011894563 -0.035972 -0.08538346 -0.012368176 -0.1580059 -0.050656486 0.17516805 0.045578383 0.11282033
еси -0.13192749 -0.032594256 -0.14971274 -0.026523693 0.03563281 -0.07096224 -0.15504742 0.08733866 0.06663071 -0.023764763 -0.25313947 -0.07235283 -0.011478602 0.031102533 0.06611226 -0.06658966 0.009913361 -0.15317215 0.03136182 0.023557164 -0.022490717 -0.1840726 -0.18516503 0.027073933 -0.040497497 -0.09917919 -0.09316974 0.11136779 -0.18401662 -0.034336053 -0.027970709 0.03336419 -0.08669094 -0.03615866 0.02940583 -0.060992807 -0.18123372 -0.09253809 0.011373731 -0.022039669 -0.06077667 0.003639227 0.13239011 0.05307075 0.05801889 -0.101199456 0.06573566 0.0019172938 -0.10173788 -0.08054414 -0.118980415 -0.063228056 -0.1890873 0.068125635 -0.12074776 -0.076303 0.20621042 0.05027237 -0.11243555 0.11962881 -0.0159665 0.2309249 0.04407755 -0.038407873 -0.034641527 0.011183099 -0.065613635 0.110578544 -0.08543249 0.05185799 -0.095553346 -0.15378657 -0.08279133 -0.071714096 0.08880913 0.12704445 -0.093327776 0.21838574 -0.136559 -0.0057069925 0.14067243 0.077762514 0.025282579 0.029270547 0.10353539 0.14735636 0.03218011 -0.19788758 -0.056279138 0.04324552 -0.0026016296 -0.14046976 0.02953815 0.0077656326 0.12657595 0.031034818 0.097239375 0.008909271 0.14863722 0.063200004
съ 0.090298004 0.0045006103 0.003275593 -0.0022785717 -0.072321214 -0.08773686 0.043856706 -0.06233831 0.1285473 0.048355903 -0.17353432 0.07708667 0.04519097 0.09246752 -0.084998965 -0.08750295 -0.23420861 0.14977823 -0.07919436 -0.08624974 0.107456975 -0.0090521695 -0.024438068 -0.012195658 0.16566648 0.028071048 0.11285305 -0.08013654 0.05972031 -0.009040934 0.07575235 -0.15059811 0.16374762 0.040735036 -0.06373987 -0.045036644 0.17364255 0.10967097 -0.03465639 0.0901184 -0.047871538 -0.01926766 0.06921563 0.00046254028 0.059471246 -0.0624183 0.14962754 0.038847968 0.097007796 0.16747075 0.07522349 -0.018448321 0.029830787 0.041967835 0.0007479536 0.04511978 -0.047988348 -0.09962699 0.07002351 0.24305905 -0.18307422 -0.1096042 -0.031601306 -0.08251953 0.122110836 0.13828674 -0.041018985 -0.17950857 -0.0073489714 -0.029733604 -0.07880975 0.038653657 0.010736118 0.029077819 0.28045192 0.028570827 -0.055741757 0.023549533 0.079037584 0.04417931 0.29435074 0.055869147 -0.14907184 8.7896966e-05 -0.1905864 0.008507388 0.071895234 0.08632176 0.030012151 -0.034135938 -0.08067521 -0.081663184 0.11136144 -0.008769504 0.027003543 0.020342039 -0.11547225 -0.18208441 -0.00956004 -0.044585202
се 0.00780975 -0.056761093 0.021922268 0.05418078 -0.18984428 -0.075642146 0.0039921366 0.010322422 0.077465735 -0.09801653 0.16828947 -0.1029369 0.06131899 0.12811962 -0.03552373 -0.046942048 -0.11359223 0.016132273 -0.06271229 0.07382139 0.17544326 0.20230708 -0.15571998 -0.07339834 0.02653638 -0.124921754 -0.01924767 0.08366621 -0.06395023 -0.08440181 -0.027516134 -0.08112133 0.023903068 0.038203724 0.03176851 0.063178316 -0.038337924 0.13733338 -0.09224862 -0.15741777 -0.27127832 -0.06358995 -0.11004041 -0.055461448 -0.1711086 -0.0842015 -0.04518611 0.122349314 -0.107476436 0.06211999 0.06522845 0.06898147 -0.023986928 0.043175142 0.03824906 0.11782905 0.0041079796 -0.016184604 0.22934212 -0.028238894 -0.16111714 -0.10233903 -0.1353634 -0.23597895 0.02495473 -0.002060077 -0.0987193 -0.14591932 -0.07413308 0.08811561 0.068685934 0.20890585 -0.19298998 -0.07220006 -0.05808896 0.042968623 -0.07286805 0.06300547 0.16104347 0.04964405 0.17787947 0.04849173 0.12920733 0.10733982 0.08455435 0.107716136 0.083314605 -0.080425285 0.019872926 0.01546166 -0.0103402 -0.024420587 -0.032324623 -0.054017026 -0.008582537 -0.093002625 -0.0057249996 -0.024137145 0.06033602 -0.05157972
ни 0.10079398 0.03096563 0.042273417 -0.028249681 -0.06512887 0.08871263 -0.19812615 -0.017986793 0.07286177 -0.022338107 0.047626883 -0.13447706 0.036844116 -0.030379834 0.06631231 0.090397246 -0.06747561 -0.03905916 0.0029212541 0.020527178 -0.0040955152 -0.17109181 0.07954178 0.024596697 0.039922666 -0.09469901 -0.041575264 -0.27599666 0.030668851 -0.14955766 -0.018835139 -0.00082233024 -0.06014989 0.089869246 -0.01936985 -0.014358208 -0.013560572 -0.23116608 -0.15559907 0.07720081 0.09608378 0.06695552 0.132347 0.013670734 0.19399235 0.108307645 0.088936046 0.10474305 -0.27994707 0.1691677 -0.03478867 0.116555706 0.15736164 -0.10521067 0.064958625 -0.28788105 -0.0077451617 -0.15826857 0.048777197 0.07371302 -0.025299348 0.16931812 -0.000683488 -0.13277979 0.032804035 -0.11035954 0.045063782 0.011980696 -0.07551111 -0.006125521 0.016411444 -0.08303422 -0.0759089 0.018371647 0.0039484557 0.055355545 0.11860656 0.006418623 0.07410783 -8.6138454e-05 0.015986897 0.08583571 -0.068336464 -0.07560943 -0.08704981 0.0061259368 -0.103233464 -0.10225327 0.010792543 0.03937057 0.13593742 -0.021455007 -0.022121506 -0.16303882 -0.2160405 0.032949485 -0.046514075 -0.08846336 0.035395306 -0.088927545
о 0.14777757 0.082149364 0.14795364 0.075636484 0.003931482 -0.0060954825 -0.047441754 0.10705022 0.048946287 -0.10573725 0.010902603 -0.05687607 -0.11893036 -0.044701718 -0.11280154 0.03645714 -0.075570635 -0.10950295 -0.122484125 0.01180559 -0.08064512 -0.07008161 0.024667762 -0.10581096 -0.028858675 -0.15455496 0.005200298 -0.24617751 0.040168785 0.031472176 0.049654275 0.14464022 -0.046267137 0.1449341 0.028139388 0.01760935 0.03355694 0.046537235 0.0350281 0.10139432 0.07390651 -0.015749147 -0.23806478 0.029979136 0.058621656 -0.09609151 -0.07011216 -0.021694282 -0.20740527 0.030321412 0.030535236 0.04309933 -0.039191205 -0.03663022 0.075234875 0.10923716 0.13941446 -0.06626322 0.1322446 -0.002084757 0.020960739 0.19186732 -0.041348048 -0.07533959 0.13969742 0.20644672 0.07233892 0.013295014 0.03214489 -0.20082486 -0.018501157 0.011095041 -0.17656808 -0.010039074 0.028701536 -0.030421078 -0.05071903 0.0988069 0.05123283 -0.008068731 -0.22183979 -0.22309366 0.13462307 -0.067708865 -0.09430439 -0.15008022 -0.18242992 -0.022258207 0.18108587 0.005136818 0.04026214 0.13073108 0.14219461 0.05299458 0.014778115 -0.10565763 0.019752264 0.03131044 0.098848164 -0.023945387
ржи 0.029221473 0.093633145 -0.111634485 -0.26010436 0.110149905 -0.035633955 -0.13192198 0.062281013 0.20768267 -0.040690295 -0.14146858 -0.06708582 -0.033380345 -0.07265405 0.013972991 0.17053385 -0.07800254 0.061866026 0.063898124 0.1309853 0.11989003 0.15480047 -0.07974685 0.06741754 -0.16438146 -0.12253503 0.068987675 -0.07313767 -0.029588385 -0.040559433 -0.28016436 0.05441017 0.048113838 -0.03302558 0.015689068 -0.1302707 -0.019965459 0.13640986 -0.048170898 -0.02545172 0.07636936 -0.031144712 -0.18443748 0.11883334 -0.08120706 -0.048956648 0.015805066 0.06915385 -0.03956461 0.023145026 0.04378117 0.030848434 0.12833983 -0.09862232 -0.013645741 0.070814855 0.16995251 -0.15062153 -0.007662246 0.08305982 -0.19670892 -0.04599462 0.006808571 0.031668875 0.02908449 -0.18228525 0.010209266 0.0931012 -0.0823782 0.024192043 -0.0588649 -0.055987652 -0.010814565 0.020068474 0.06362549 -0.049875624 0.014567064 0.08064611 0.12939543 -0.07722671 0.06849842 0.033442207 0.16875258 -0.13792998 -0.106539 0.09250507 0.048401527 0.071908675 -0.019578412 0.13249935 0.0034761433 -0.008433771 0.13421151 0.0045684804 -0.04659575 0.12127887 -0.045248333 0.114367776 0.2444204 -0.06280449
поло 0.0020286606 0.044609603 0.041718516 0.030193733 -0.030973494 -0.056735184 -0.13713098 -0.15425634 0.04422858 0.067228146 -0.01419328 0.025938595 -0.11926612 -0.008431606 -0.09112936 0.065638565 -0.098251686 0.0024861358 -0.11485918 0.16657858 0.0982581 -0.04455726 -0.07693721 -0.20310618 0.11652068 -0.10983065 0.021516291 -0.059640463 0.028403884 0.2411525 0.105400145 0.14666906 -0.007358223 -0.0014413155 0.0990527 0.004048414 0.07062797 -0.06845171 0.11003501 0.15124017 0.00869691 0.01664627 0.14792073 0.088945836 -0.09043162 -0.080771424 0.064108945 0.07507296 -0.06326806 -0.12515964 0.08609645 0.01938089 0.03287603 0.1434895 0.15843979 -0.02608186 0.021489628 0.056126896 0.02701579 -0.07399273 0.00424652 -0.077197224 -0.19390433 0.1075641 0.15554176 0.10261409 0.05745406 0.034684684 0.14788346 -0.23773678 -0.16717045 -0.057019897 -0.02268038 -0.14388731 -0.05840013 0.085867606 -0.04781942 -0.0690658 0.06096102 -0.009623907 -0.17045489 0.019904329 0.029229252 -0.12886134 -0.22987795 -0.02864924 -0.07667539 -0.050275844 0.059935853 -0.15001519 0.017006742 -0.032838494 0.077774964 0.04178128 0.2594837 -0.095711805 -0.077728085 0.06693688 -0.10826345 0.0013613488
со 0.15981786 0.06127219 0.0025013455 -0.066114046 0.03916575 0.0011873383 0.027887654 0.09795837 0.0052841143 0.17923069 0.004806548 0.028539006 -0.20674948 -0.25393435 -0.067813754 -0.16166729 -0.15695563 0.1593643 0.0843104 -0.056954708 0.07937715 -0.07307312 -0.08812996 0.16057038 -0.03363904 -0.17291562 -0.042711247 -0.048330206 -0.14745446 -0.07966809 -0.06667333 -0.07649006 0.11483302 -0.07179117 -0.08470405 0.13116702 -0.05794402 0.16434154 -0.07888108 0.12789237 -0.005721863 0.05619541 0.019731801 0.19522755 -0.0821224 -0.1457959 -0.24943027 -0.056671124 -0.043514017 -4.784766e-05 -0.19904943 -0.09233372 0.047787197 -0.06885646 0.05155588 0.09449735 0.22882785 -0.05089462 0.058401402 0.10387438 0.14603347 0.0037514819 0.051214177 0.045978345 0.02292419 -0.03988837 0.023999989 0.06970101 -0.029251952 -0.07097244 0.07728259 -0.05903042 0.0041515334 -0.10919652 0.023058381 0.16045678 -0.04250923 -0.020999933 -0.07006311 0.009938364 -0.04160018 -0.14226621 0.048733205 -0.11427204 0.03392678 -0.045946907 0.03970586 0.03282607 -0.031813793 -0.16411528 -0.055443708 0.11929492 0.0417422 0.05952107 -0.058456264 -0.003380421 0.20065884 0.0061731306 0.060272902 0.0071409456
ли -0.050389692 0.08153909 0.07761615 -0.0136672435 -0.02482972 -0.115605965 0.08143084 0.07067398 -0.06882275 -0.07231086 -0.06395208 -0.1433861 -0.0878587 -0.08722467 0.17258963 0.00889965 0.07892182 -0.071318075 0.02473882 0.12497832 0.017476255 -0.19326733 0.022216361 -0.15312397 0.19835903 0.048410773 0.09346384 -0.009410945 0.057548564 0.05333303 -0.03550687 -0.037033506 0.047694284 0.08304532 0.15661961 -0.20288949 -0.17475133 -0.061449595 0.040281378 0.044464808 -0.18254295 -0.07759766 0.03982183 0.015245293 0.14309242 -0.0028742629 0.07560542 -0.06778695 0.0787826 -0.031997524 -0.09065546 -0.09376685 0.17530505 0.025838366 -0.025078105 -0.07529904 0.028073907 -0.16948235 0.110078886 -0.076879635 -0.0074738334 0.12127489 -0.043533135 -0.13188156 0.05202966 -0.21648882 0.07573106 0.040268444 0.012974632 -0.23518889 -0.07168199 -0.21156745 -0.09403856 -0.17469743 -0.008657245 0.0036012006 -0.17952074 0.033293646 0.01706389 -0.068412825 0.06892422 0.08680521 0.020577595 -0.22817464 -0.13524716 0.10779002 0.10717135 -0.03539455 -0.024387011 0.119822145 0.07429202 0.031667713 -0.068171315 -0.0024666223 -0.15849994 -0.020482916 -0.055707723 0.009117617 -0.008021679 -0.007714952
ѫ 0.033735514 -0.012392114 -0.20866145 -0.071753204 0.10059835 -0.13947451 -0.12845945 -0.09684129 -0.093614 -0.08418997 0.008802124 -0.04073946 0.16793792 -0.06467259 -0.15048447 0.113327175 -0.01335497 -0.05134441 0.107087135 0.09263162 0.040132593 -0.18962157 0.14401597 0.068395495 -0.0028846061 -0.08341637 -0.051531736 0.04353066 0.09968086 -0.07376412 -0.05809995 0.0970178 0.1949613 0.055442363 -0.03540674 -0.04446909 0.052111704 -0.07655532 -0.018593762 0.12295299 -0.0015169967 -0.023622405 -0.06288747 0.13017438 -0.07387125 -0.010381372 -0.12751101 -0.013728993 -0.0810877 0.020562919 0.017756239 0.05187237 0.01863248 0.22538322 -0.07636083 0.027363261 -0.19470769 -0.16878442 0.08937243 0.003193171 -0.06636791 -0.13886279 -0.034880932 -0.07622631 -0.097572915 -0.034355875 -0.18903577 0.10466464 -0.077404566 0.06639807 0.092668414 -0.028202487 0.1747579 0.051639196 -0.13083333 0.01864267 0.11920198 0.033558138 -0.15446715 0.29272652 0.14321004 -0.10657492 0.020236094 -0.04847867 -0.02260295 0.015529478 -0.13754562 0.050776925 -0.029583821 0.112112716 0.055622444 0.15048483 0.0050810585 0.13385513 -0.03518715 0.08767851 -0.05313493 0.03071932 -0.04966959 0.13043663
г 0.08202723 0.09103835 -0.03996031 0.010473706 -0.03707504 0.051859606 -0.34568697 -0.054384742 0.02218232 -0.032197963 0.12520383 0.051628504 -0.27597776 0.027335424 0.052003954 0.13106813 -0.0677971 -0.06348397 -0.014904235 0.07247991 -0.042325467 -0.047472652 0.2007447 -0.055872787 -0.18935828 -0.06526285 -0.05661943 -0.07358623 0.030635001 0.03467951 -0.07832994 -0.02125184 0.019829698 0.115235664 0.0261167 -0.14221698 0.06972842 -0.07230946 0.009990077 0.029396804 0.0562336 -0.12961036 -0.114731446 -0.091378525 -0.042935368 -0.007149097 -0.1253309 0.18507195 -0.063572936 0.0018116881 0.026305148 -0.06610239 0.18120041 0.18058088 0.010814701 0.03620951 -0.01870628 0.012643912 0.04642587 -0.054383352 0.11547008 -0.016996622 -0.09115 0.07175159 0.02751691 0.09099314 -0.20177643 -0.04465906 0.037033383 -0.004772806 -0.097566694 0.02961832 0.026110552 -0.104674965 -0.15800199 -0.030423587 0.11788499 0.01961532 0.051502608 0.094651796 -0.2749877 -0.041991685 -0.09335265 -0.015252594 0.12964042 -0.18985964 0.020794617 -0.17007335 -0.062492654 0.023580147 0.07235936 -0.13961048 0.00014223378 0.06354317 -0.02699973 -0.039214812 -0.14668348 -0.082276 -0.051822655 0.10703117
полъ 0.037835352 0.15061131 -0.0126224775 -0.028639441 -0.057536643 0.12260492 -0.20340021 -0.02876688 0.08559598 0.121503085 0.08960185 -0.031481307 0.020857835 -0.15293851 -0.08541349 0.039728876 0.07510205 -0.13170959 -0.07779567 0.25073624 -0.14560612 -0.02649471 0.1424488 -0.055620957 0.0038150835 -0.18206246 0.11958271 0.0044665 0.06371524 0.22828938 0.0449674 0.12415231 -0.1829471 -0.003035229 -0.009424318 -0.061464835 -0.052234422 -0.06390794 0.045159552 -0.04194874 -0.005598656 -0.0012211358 -0.012638003 -0.0066773943 0.07527129 -0.036878854 -0.094949596 0.077685125 -0.06392029 0.028493147 0.021126296 0.11964175 0.0140990345 0.056504678 -0.10600605 -0.042211983 -0.050045177 0.09357247 0.013451215 -0.021788968 -0.024783848 -0.20166683 -0.13547926 -0.15053344 -0.041207764 0.036298674 -0.09457647 0.059097856 -0.087002166 0.013210461 -0.13317694 -0.029024253 0.052586768 -0.021065608 -0.03885358 0.060109146 -0.041421216 -0.075994365 0.175128 -0.003634309 -0.24071762 0.12843147 0.033007305 -0.1602237 -0.0007669123 -0.06888376 0.08242799 -0.17355476 0.10957126 -0.085108645 0.15813485 -0.19339263 -0.025291534 0.09032447 0.08881921 0.084063046 -0.06890697 0.02982776 0.12870404 0.18153627
е҃ -0.014042872 -0.049132608 0.049765844 -0.0042919945 0.07573847 -0.12073483 0.0042888215 -0.15600227 0.13946281 -0.009814846 -0.050163046 0.029955704 0.010177752 0.031183492 0.14374498 0.057641815 0.15941593 -0.13570714 0.024067167 0.08591222 -0.10252954 0.058123406 -0.1399473 -0.0042812414 0.2922326 -0.118154004 -0.08829925 0.075187854 -0.039181866 -0.08393526 0.13459279 -0.052693356 0.08196063 -0.12515368 -0.12545367 0.101623714 -0.047920324 0.030787308 0.062293738 0.032560874 0.020695876 0.1745865 -0.0010784748 -0.12070617 -0.036676243 -0.049819745 0.0105684465 0.20132062 0.08684906 -0.0006610382 0.09398483 0.16363117 0.015133466 -0.07513055 0.08724928 -0.075288996 0.0725527 0.040291987 0.021476047 0.14486253 -0.045439914 -0.07184761 -0.13849428 0.19253226 -0.0048755426 -0.08136218 -0.027881978 -0.1115485 0.07667343 0.14671417 -0.060009554 -0.19043072 0.006028649 -0.06918736 0.028044714 -0.024680803 0.06465667 0.112798505 0.032496437 -0.02022792 -0.18382537 0.1435826 -0.09305676 0.235678 -0.056918137 -0.0071802647 -0.011609568 -0.028547898 0.042449217 0.08640387 0.03517576 0.10550089 0.16048647 -0.07893665 -0.040089738 -0.24393998 -0.08490148 -0.07737279 0.10604706 0.013818516
з -0.0013008843 -0.044294 -0.21362169 -0.26978177 0.20653239 0.18823224 0.03199114 -0.02890949 0.09603941 0.109055065 0.09530162 0.079571456 -0.105832964 -0.008631353 -0.2329555 0.045811128 0.06304492 -0.018628635 0.029201243 -0.07223842 0.016440317 0.055207845 -0.039401796 -0.10058804 -0.0027628718 -0.034453876 0.21115825 -0.115111135 -0.025443032 0.11273079 0.11230821 -0.05926487 0.05986133 -0.011883644 -0.020971708 -0.04256471 0.04674489 0.013478436 -0.051573474 0.04148215 0.012016778 0.053072635 -0.20618491 0.0036037948 -0.07082281 0.08413938 -0.14649111 0.12909271 -0.06905442 0.095869645 -0.012309377 0.12690511 0.06109294 -0.021017717 -0.11225151 0.010978966 0.02230438 -0.10853322 0.09832067 0.14148821 -0.08299811 -0.034586906 -0.024623055 0.06651527 0.046917073 0.24534589 -0.06506596 -0.029781906 -0.100692764 0.07545965 -0.11658143 -0.10779332 -0.04238561 -0.101219475 0.10817141 -0.107496455 0.06727845 0.11204895 -0.049682274 0.16322134 -0.09506902 0.07108638 -0.026484622 0.042965394 -0.032459643 -0.07263846 0.005963656 0.011010938 0.024709905 -0.08759261 -0.0029580565 0.064496756 -0.015224532 -0.13640796 0.062362365 0.07493226 0.2776832 -0.119889654 0.07952274 -0.13860603
д 0.23158574 -0.14538433 -0.12516645 -0.07421021 -0.03558769 -0.13242659 0.060837254 0.002984913 -0.06646264 -0.20021854 0.26736912 -0.022130245 -0.23917903 0.040693596 -0.02528669 -0.013053028 -0.06903563 0.024972977 -0.056575507 -0.013198221 0.0687672 -0.07955394 -0.06365455 -0.108722635 -0.19744681 -0.060593892 -0.16617131 -0.09651889 -0.011900985 -0.15748456 -0.002097125 0.09418553 0.018086873 0.019163275 0.23581533 -0.05335566 -0.04597315 -0.08999916 -0.11953143 0.040493414 0.02630226 -0.015753077 -0.118287586 0.08722994 -0.03555756 -0.04745494 -0.07913217 0.065006725 0.038815036 0.017468702 0.118754804 0.27057248 0.13077933 0.05346721 -0.05252452 -0.15039334 0.0075427713 -0.11823442 -0.049388703 0.0060798703 -0.008785094 -0.10592608 0.0013166092 0.11094177 -0.13249764 0.010946846 0.18255585 -0.032263704 0.023664461 -0.09626869 0.040523283 -0.121600464 -0.018139115 -0.033568412 -0.03692175 0.091301925 0.10804638 -0.18270989 -0.007445125 0.078045435 -0.15259741 0.06376105 -0.04106679 -0.012949994 0.06897592 0.03507983 -0.045349155 -0.011921911 0.099955656 -0.017134149 0.043292012 0.019547058 -0.054216795 -0.20482244 0.049681164 -0.06185888 0.07263054 -0.041332513 0.04292616 -0.096277125
отъ 0.045174066 -0.0031958313 0.15187241 -0.04642441 0.12811226 0.06555174 0.029040791 0.06998811 0.06289919 -0.006287296 -0.027557872 -0.22153838 0.1385347 -0.12661 0.19071938 0.020025687 -0.03317628 -0.070148386 -0.019622512 0.20724465 -0.17412667 -0.019341988 0.026215997 0.005404096 0.1028366 -0.004270811 0.1063575 0.021290222 0.024281053 -0.02644285 0.10507325 0.14270437 -0.2231292 -0.028070232 -0.25982726 -0.16971849 0.14328356 -0.13354366 -0.09402981 0.119447716 0.059196386 0.13997278 -0.07951065 0.055445973 -0.0019151466 0.0053711804 0.06566727 0.115394056 0.02884089 0.1017734 0.14915161 -0.06397229 -0.102009825 -0.06938182 -0.11342737 0.17487894 -0.0052925902 -0.063053146 0.048559114 0.019739227 -0.067566946 -0.0122415675 -0.10570792 -0.08914648 -0.07594092 0.03735696 -0.111447886 0.04345545 0.017287903 0.0301657 0.06992592 -0.14554207 -0.06378246 0.087159984 -0.07567911 0.074707486 0.05697527 0.2125316 0.10793687 -0.09725649 -0.05330545 -0.111375466 -0.033986807 -0.06871763 -0.050747056 -0.10948623 -0.03582147 0.14685631 -0.038942773 0.049785957 0.0031820666 0.094915256 -0.046956502 0.09240328 0.16898118 -0.077145286 -0.07145081 -0.18819228 -0.026821319 -0.005855081
поклонъ 0.00034635415 0.056494694 -0.055119053 0.08968531 0.07431406 -0.08715924 0.07712282 0.15154655 -0.009795459 -0.1540722 0.18431245 -0.037834745 0.0030834188 0.050467435 0.0014797867 0.1324795 -0.07349227 0.08547271 -0.1286769 -0.099539466 0.033573784 -0.018510776 -0.057654046 0.04584746 0.09307914 -0.114762776 -0.008864616 -0.030873034 0.05290017 0.04457364 0.12512511 0.0080887405 0.047206335 -0.0023021158 -0.07442871 -0.0059627183 0.012145093 0.22487366 0.008285806 -0.10495563 0.06936512 -0.09771743 -0.048729446 0.09573203 -0.022714669 -0.0076832958 0.057389025 0.15514442 -0.12064559 0.006294683 -0.17007378 -0.134285 -0.0906474 -0.026737705 -0.1379998 0.05889195 -0.15459006 0.12085854 0.09273274 0.09165554 0.016624847 0.09391989 0.083373964 0.06313807 -0.046824306 0.06857261 -0.0044236756 -0.010207731 0.040125564 0.06988198 0.04942579 0.004548047 -0.0524421 -0.005126609 0.0055703972 0.037218258 0.16854578 -0.080884054 0.10575725 0.29918444 -0.14453764 0.07543895 -0.15352653 -0.11160126 0.028981375 0.06362484 0.041763745 -0.1880613 0.13132383 -0.14425394 -0.11452868 0.19556491 -0.056345973 -0.10173375 0.09082638 0.21683332 -0.008804776 0.12359404 0.21863769 -0.033732306
мене -0.038914695 0.12133656 0.0016771859 -0.06829166 -0.08145056 -0.012979375 -0.12227197 0.06893066 0.04078906 -0.03428701 -0.17994672 0.088542014 -0.07194245 -0.004462765 0.040616997 -0.09289527 0.023816459 -0.041307487 -0.14887096 0.07556257 0.04728641 0.16985317 -0.048549913 -0.07467267 0.17455107 -0.07299959 0.0076645496 -0.08507333 -0.12940358 -0.17103122 -0.11052069 -0.033461563 -0.062278558 0.10114486 0.22016622 0.09034664 0.07435879 -0.026140263 0.07747456 -0.12886345 -0.05222918 -0.04306773 -0.031387947 -0.0037187375 -0.049576662 -0.027171096 0.17201695 0.07414293 -0.21930787 -0.092184104 -0.09835381 -0.23499565 0.08692987 -0.0027940006 0.08722347 -0.021923268 -0.04330353 -0.019692037 -0.052929707 0.0921948 0.06979444 -0.008140022 -0.19989893 -0.015205494 0.20224378 -0.087572135 0.06572628 -0.011569923 -0.008248747 -0.095467344 0.04019587 -0.1735769 0.12576628 -0.09461272 0.12200331 -0.16042133 -0.10342465 -0.03532478 0.13136606 -0.106152914 -0.052321702 -0.032318756 0.03519199 -0.08930642 -0.07877484 0.19897567 -0.048121735 0.25422016 0.052170694 -0.09887091 0.07271944 0.058922257 0.07502116 0.11354896 0.09641882 -0.048384216 -0.031598207 -0.029221216 -0.023647718 -0.061858073
тобѣ -0.09821297 0.0031483446 0.06130887 -0.0022529154 -0.028205628 -0.17677556 0.114556156 0.08847256 -0.106218696 -0.04735418 0.12117173 -0.13651182 0.09575039 0.0668268 -0.02074049 0.005721006 -0.24550983 -0.030232823 0.008698799 0.06510494 0.002371096 -0.029872373 0.022193447 0.13484557 0.058661386 -0.14008145 0.14303945 0.12014655 0.08122642 -0.0965075 -0.025492825 -0.077905305 -0.037559055 0.053938806 0.16535683 0.05166882 -0.071049064 -0.008806895 -0.0019125309 -0.10109935 0.10180542 0.09541143 0.05804792 -0.14162417 -0.053697374 0.063027106 -0.07950291 0.12431594 0.05505225 -0.013445222 0.067974254 0.13879296 -0.19281232 0.037034616 -0.076501474 0.12250435 -0.15508333 0.020688135 0.15601982 -0.021808377 0.02307137 -0.093709394 -0.11972128 -0.1372428 0.098084696 0.06933828 0.08948533 0.094022006 -0.34103242 -0.2059527 0.038078673 -0.03454663 0.071780354 0.10620304 0.0053017526 -0.1760615 -0.13469195 -0.063862436 -0.028322913 0.20187655 0.024629971 -0.005019754 0.07150337 -0.14529096 0.018880285 0.08225467 -0.047766816 -0.011149561 -0.06138012 0.049922567 0.11912668 0.06828455 -0.0035265 0.010341031 0.029938208 -0.07720835 0.07074114 -0.1292948 0.05380525 -0.10258732
уо -0.103618845 -0.09718384 0.011836708 -0.17184722 0.124896914 -0.20304668 -0.0750767 -0.037391983 -0.038178768 -0.009202808 -0.0410167 0.06338198 -0.09168566 -0.06473665 0.16136758 0.065814845 0.042228583 0.11364417 0.2560441 0.01449712 -0.056590956 -0.06406589 -0.08939035 -0.018971998 -0.057241116 0.034851808 -0.02384237 0.043421358 0.06842358 -0.008577043 0.17961371 -0.08180718 0.1167378 0.20551676 0.06902421 0.01675243 -0.073310375 -0.084887944 -0.09722766 0.15242541 0.16148546 -0.030702297 -0.117477454 -0.08399166 -0.09215835 -0.06604482 -0.0707427 0.0355405 -0.010545797 0.020567661 -0.08469586 -0.008790294 -0.1081253 -0.074910484 -0.05797876 -0.049832407 -0.02995656 0.019829066 -0.18823068 0.053962853 -0.07348987 0.011745625 0.013680988 0.1887445 0.044824123 0.016405111 0.104208894 0.12300851 -0.003110743 0.060748596 -0.1732078 -0.1651343 -0.121074796 -0.03261448 0.0632382 -0.15941992 -0.06368308 0.102623135 -0.09616327 -0.0067339083 0.0070470152 -0.062110603 0.028047303 0.0395644 -0.14491834 -0.20613542 -0.013960635 0.00426398 0.07866124 0.24280618 -0.020925017 -0.008339106 0.09107431 0.102633275 -0.24346502 -0.030201482 0.060675174 0.10158168 0.13159794 -0.00018616761
до 0.048868522 -0.11256135 0.07556433 0.12546054 0.14843288 -0.124579996 0.04814523 0.23238285 -0.17470981 0.03853785 0.062030416 0.053974878 -0.10049242 -0.073676236 0.14788763 -0.12737925 -0.03581492 0.09177142 -0.1529065 -0.1478725 0.012950069 0.015713876 -0.04329818 0.058148533 0.07738897 0.045757446 -0.09676781 0.018710885 0.023339707 -0.024925957 0.04599397 0.060371637 0.09123014 -0.022379017 0.10151843 -0.08884571 0.030489407 0.090462744 -0.09925282 -0.010722689 -0.1016587 -0.06261701 -0.26396087 0.09282078 -0.004556789 0.044728305 -0.042133875 -0.016171126 -0.0504605 -0.016400686 0.13826866 -0.033679165 -0.10037713 0.089082 0.17634025 -0.17759308 -0.015427445 -0.15014261 -0.056184303 0.036066983 -0.27860898 0.12912175 -0.15855563 -0.13525982 -0.06943312 0.0698036 0.03129314 0.0025141237 0.08793793 0.04474688 0.04731214 -0.015891323 -0.06613661 -0.2134651 0.09987829 0.09556901 -0.025960328 0.044861432 0.089487955 -0.028360443 -0.035640072 0.07226678 -0.102346234 0.0021959632 0.016462922 -0.05455662 -0.12373092 -0.16560696 -0.05596089 0.07630213 -0.01730285 0.07815945 0.1307256 -0.18089828 0.008819759 0.15717876 -0.043430235 -0.027919637 -0.03588182 0.14202206
поклоно 0.026341995 -0.0038294215 -0.024904752 -0.05493304 0.023072373 -0.11865242 0.014822406 0.10702344 0.07062124 -0.19728911 0.17529786 0.10468836 -0.051584866 0.110726915 0.024186326 0.15160176 -0.08261243 0.1755743 -0.075780205 -0.12707612 -0.057951592 0.009011811 -0.05621301 0.07756928 0.14350519 -0.05539237 -0.14421007 -0.114277154 0.17801711 0.023426741 0.1660604 0.01741006 0.06805532 0.05282667 -0.17644694 0.0039757774 0.031143626 0.19679491 -0.023251284 -0.13832678 0.17850117 -0.025547648 -0.15110509 0.18974102 -0.06253843 -0.014963069 0.009399142 0.103013135 -0.062089413 0.026607143 -0.20650448 0.0037384906 -0.040214922 0.004800328 -0.008013429 0.090602934 -0.029579876 0.12849537 0.08002796 0.048457194 -0.12321422 0.15280843 -0.012383674 -0.05434816 -0.016575921 0.06671075 0.04093104 -0.025887346 0.0015484027 0.060120974 0.022366669 -0.12585422 0.03303808 -0.009179973 -0.03815714 -0.021523578 0.07459031 -0.11892668 0.047401108 0.06801826 -0.24136905 0.039346114 -0.029936079 -0.14063841 -0.009195853 -0.008763247 0.12878227 -0.14790668 0.124304555 -0.10158988 -0.051195655 0.18254058 0.05306521 -0.112832434 0.055965487 0.13432184 0.04452117 0.1474693 0.16765672 -0.019032313
цто -0.0066404217 0.045449838 -0.06880196 0.04894217 -0.10904151 -0.04284233 -0.083305664 0.022652604 -0.06795579 0.045981273 -0.1377888 -0.057427622 -0.18923017 -0.062097356 0.102251604 0.07381965 -0.075077966 0.19094706 -0.054029267 0.0027472724 0.08263408 0.13414054 0.036083743 0.086955205 -0.21351516 -0.08445974 0.018445686 -0.02417446 -0.1068817 -0.031913802 -0.26611382 -0.1686874 -0.2465131 -0.07016902 0.10065195 0.02046442 0.072250515 0.0055911257 -0.041231953 0.06384666 -0.009461057 -0.05244619 0.09976822 0.15302093 -0.035853505 0.066070504 0.024814421 -0.09100904 -0.06386526 -0.21028478 -0.08724626 -0.16004236 -0.020315513 0.022395784 0.012239127 0.099805154 -0.1144851 0.0022902319 -0.11455782 0.0070578805 -0.02583699 -0.009594058 0.016250266 -0.18898693 0.13947788 -0.10150707 -0.16641515 -0.054250654 0.0719672 -0.20351002 -0.0054185907 -0.017197892 0.04439097 -0.02884673 -0.05597025 -0.08650886 0.118456006 -0.0945172 0.038219977 -0.2004475 0.10929325 0.07864005 0.008956087 -0.07387199 -0.023454165 -0.16407035 0.041337192 0.113786824 -0.0032543961 -0.16280961 -0.092689134 0.09975576 0.050334368 0.010131414 0.09672057 -0.03553641 0.13807 0.07280774 0.051466215 0.10423986
нь -3.9918075e-05 -0.11208472 0.14420916 -0.03638665 -0.051648937 0.003962205 0.07927301 -0.025600549 -0.126185 -0.08247508 -0.06687806 -0.17608696 0.0983237 0.035419993 0.038599372 -0.013019473 0.106715634 0.12682205 0.04911693 0.09532926 -0.07007302 0.06475569 -0.05052948 -0.08284736 -0.018929532 0.07023362 -0.0903205 -0.15463279 0.10549251 0.020473821 0.12597664 -0.06451808 0.012717236 -0.13589275 -0.061591666 0.10087254 -0.022783922 0.10322692 -0.04434159 0.0037036547 -0.1694816 0.14611994 -0.01603623 -0.077579625 -0.1474917 0.09486013 0.00035412153 0.02336081 0.07913804 -0.034118768 -0.06875489 -0.20847969 -0.1144612 0.109357215 0.04780751 0.067656815 -0.03562388 0.04935675 0.16941877 -0.03445409 -0.18761283 0.08190564 0.06829171 0.05666685 0.09199197 -0.122297816 0.066614926 0.21074155 -0.07380268 -0.122402176 -0.09665117 -0.25354922 -0.14953999 0.12485371 0.043162365 -0.093271345 0.004255555 -0.118387915 0.025988597 -0.1392248 -0.019870933 -0.22089864 -0.1073703 -0.18711953 -0.13203171 -0.11009278 -0.057806283 0.07928168 -0.028232425 -0.0117435455 -0.054451812 0.07266167 0.041875903 -0.067562655 0.03316817 -0.112155795 0.08656647 0.09790723 -0.051590428 -0.14625886
покланѧние -0.16204508 0.13356552 -0.08229154 0.010958588 -0.13700762 -0.14738633 -0.11357868 -0.13063075 -0.033372447 -0.08853928 0.083184026 -0.113649234 -0.07380912 0.010969058 0.24124454 0.1038254 -0.16369748 0.035036292 0.058876816 0.0039166184 -0.0036413542 -0.0109507525 0.037040904 0.0009703599 0.24038157 -0.077993624 -0.14918688 -0.02418107 0.15901701 -0.123586394 0.116521105 -0.004164353 0.1596371 -0.0378594 -0.1086339 0.02067937 0.13402344 0.0987059 0.08886239 -0.02540075 -0.039013162 -0.025626304 0.043541204 0.14918248 -0.11529262 0.066089414 0.085888356 0.071514964 -0.10344934 0.013053326 -0.12229994 0.053041816 -0.15466812 0.07180098 -0.12300386 0.037944667 -0.15482062 0.042743057 0.116980955 0.057906546 -0.074128 0.14543186 -0.08537752 0.065963484 -0.010508362 0.09107588 -0.13935949 -0.024997298 0.056175392 0.046126153 0.12397417 0.008492481 0.027861241 0.07913801 -0.094807856 0.019302787 0.07973854 0.023201331 -0.02335466 -0.028957693 -0.106323145 0.026033096 -0.12597524 -0.030907987 -0.041678622 0.093928926 0.07881845 -0.11661685 0.02810359 -0.04879144 0.10024475 0.18114659 -0.0401385 -0.10518366 0.17469177 0.1903249 -0.015738325 -0.15075889 0.17232482 -0.053850386
гн҃е -0.12853666 0.17302054 -0.027415913 0.099679604 -0.057689756 0.031055868 -0.07808697 0.09176385 -0.03216365 0.07933033 -0.07917158 -0.14887753 -0.09514697 0.18304543 0.03334822 0.06865578 -0.18058856 -0.04219915 -0.013163531 -0.07199857 -0.043552674 0.010040194 -0.067194246 -0.06269359 -0.1388237 -0.058898736 0.05665586 0.019081974 -0.08939664 -0.015962232 -0.15210727 -0.003545691 0.020415666 0.19531065 0.05478081 0.07840302 -0.10692763 -0.07940039 -0.0731294 0.18695325 0.100545 -0.080550164 -0.0059276484 -0.1990951 0.078199886 0.03004243 0.098473616 0.055344637 -0.03244869 -0.12400745 -0.039340135 -0.26179653 0.2706403 -0.0056089675 0.12476395 -0.11331349 -0.002718441 0.08517745 0.022174042 0.09613317 0.15983859 -0.024035202 -0.0669618 -0.08734705 0.022236997 -0.07610385 -0.24206446 -0.06836339 0.015105311 -0.037669733 -0.056949183 -0.0015633341 -0.055489562 -0.09497589 -0.040377554 -0.025435897 0.038570482 0.021609154 -0.06332647 0.15808041 -0.073624514 -0.11301446 0.06731599 -0.00960386 0.03801913 -0.05378811 -0.121883 -0.01921928 0.12550865 0.20522703 0.13117263 0.12969972 0.035728 -0.05811264 -0.04045384 0.16144532 0.0069325524 -0.13886711 -0.024927776 -0.019906057
ѧзъ 0.013418081 -0.041277006 0.04043149 0.12902303 0.097123675 0.002720137 0.09475668 0.05546777 -0.13663426 -0.14148414 -0.09542003 -0.03569773 0.075837456 -0.049765933 0.21496786 0.106025174 0.019721268 -0.13540041 -0.035413478 0.06203925 -0.13094097 -0.10525083 0.04086363 -0.08931626 0.00012469113 -0.102897555 0.006109109 -0.13512611 -0.2724702 0.021778498 0.03637846 -0.07000746 0.041313723 -0.19464022 0.1309965 0.22028577 -0.022808336 0.019974416 0.041596565 0.08173328 0.0018534295 0.06284442 -0.035108525 0.15642695 0.032416206 -0.005566466 0.12789623 0.19324473 -0.009538192 0.10354271 0.09458445 0.021710308 0.070069835 -0.12810996 -0.087521814 0.005226824 0.10109501 -0.074356884 -0.06540161 0.1721808 0.09782496 -0.0449798 0.06616075 -0.100278944 -0.20804875 -0.017747791 0.058830038 -0.045176923 -0.07346698 0.014451318 -0.055847257 -0.11151264 -0.0074049635 -0.18016735 -0.052237723 -0.02565872 -0.0384799 0.10045413 0.0025583548 -0.029160935 -0.14590614 -0.1783274 -0.01575018 -0.17242168 0.21528178 0.055028584 -0.10019823 0.0346217 -0.19811569 0.05892838 -0.021765724 0.0074430187 -0.102709964 -0.03683631 -0.10790763 -0.01415428 0.030396115 -0.05216888 -0.123171486 -0.00038062158
кѹно 0.05637701 -0.2045376 -0.044581678 0.043129213 0.0316767 0.045160633 -0.18763342 -0.1459552 -0.03843262 0.14922969 -0.120595016 0.33368987 -0.06100095 -0.1078666 0.0020169108 0.048752636 -0.053486638 0.04843236 -0.08735417 -0.06045889 -0.03756236 -0.06234365 -0.040271044 -0.045421254 -0.050754964 -0.02736073 -0.06223552 -0.11089604 -0.045607693 -0.056399222 0.083343446 0.017169155 0.052194793 -0.04172685 -0.06484694 -0.04993416 0.16335185 0.102361955 -0.005996865 0.07601124 -0.099367656 -0.0726235 -0.06506335 0.14839089 -0.17394195 -0.1162941 -0.0450584 0.12853849 -0.12155732 0.10061876 0.04003829 0.13437606 0.028600883 0.011229467 0.038330473 0.033076618 -0.163683 0.02492015 -0.13669884 0.25133854 0.11863256 0.14936857 -0.06691427 -0.04699894 -0.078803785 -0.10903476 0.044458117 -0.09866623 0.041210104 -0.20644717 -0.08836318 -0.08499217 -0.007894022 0.05478591 0.03182399 -0.055847175 -0.13668115 -0.16841352 -0.012101348 0.09700906 -0.08126868 0.116499424 0.026038013 -0.0062963823 -0.18250538 0.072952695 -0.07282032 -0.08400688 -0.025814708 0.0894016 0.020819282 0.09189972 0.05750777 -0.113349825 0.1155144 0.034081623 -0.04349647 0.072239004 -0.013258046 -0.16771248
про 0.113768056 0.007956206 -0.0950845 0.018537568 -0.07025319 -0.046436604 0.042379137 0.028206734 -0.028219521 0.00053555344 0.04933845 0.011628443 -0.11201534 0.25172868 -0.16868606 0.047288876 -0.10167601 0.09014416 0.070486315 -0.17489737 0.14426367 -0.0812195 -0.029857052 -0.021909708 0.21518978 -0.03143071 -0.084000364 0.18525752 0.035637222 0.023178345 0.12118812 0.0037789808 0.07518868 -0.08552441 0.06548517 0.12524036 0.12708174 -0.13717173 0.13646184 0.046586603 0.049275927 -0.046774015 -0.008181464 0.12230904 -0.06945882 -0.034990393 0.05166426 -0.007016416 0.15783837 -0.087917596 -0.1035412 -0.22004794 0.039925437 0.031469807 -0.02036523 -0.19332804 0.00094771007 -0.107914 -0.04681039 -0.11465113 -0.124694884 0.14180566 -0.065477684 -0.04163076 0.10283575 -0.045854956 0.013626662 0.057606347 -0.11149375 0.07397583 0.05338956 0.07358636 -0.041054666 -0.11967544 -0.09579009 -0.11752007 -0.04399794 -0.10871676 0.17014259 -0.005246319 0.09832182 0.02701531 0.14886855 0.12899145 0.055050198 -0.013885282 0.020079356 -0.11523585 -0.120905995 -0.042392053 0.07383273 -0.15162082 0.025224885 -0.017759753 0.07635013 0.06474898 -0.18515377 -0.26465726 0.014489809 -0.038730443
три 0.14340194 -0.013542505 -0.001039517 0.15359303 -0.08301844 -0.19146955 -0.023378896 0.0010422828 -0.041541312 0.074405834 0.055072155 -0.012650738 -0.046285868 0.024423206 -0.1242226 0.043140832 0.0020318283 -0.027488178 -0.049691264 0.0070065814 -0.14643167 0.046262912 0.036295798 -0.057604477 -0.06189558 -0.09147633 -0.03672893 -0.0005693019 0.042089153 0.14786349 -0.057967003 0.017188326 -0.021189258 -0.24597545 -0.038829125 -0.08189302 -0.039100386 0.10147386 -0.091832966 -0.06837989 -0.02726116 0.061877057 0.09688433 0.13059093 -0.06948253 0.0142485285 -0.017454807 -0.10577538 0.018866748 0.022269845 -0.053183936 -0.007839237 0.054990787 0.11866076 -0.12077626 -0.051809 -0.07536605 -0.013038996 -0.062124003 -0.13517271 -0.04941984 0.1529056 -0.16445515 -0.20842662 0.10774409 0.014118119 0.059034042 0.20680055 0.10492905 -0.21033762 -0.030830054 -0.18031873 -0.09581401 0.027339013 0.041204803 0.05829814 -0.09983897 -0.039350785 0.0005834873 -0.0917065 -0.0372736 0.2467159 -0.16721806 0.14090434 0.02461712 0.034466274 -0.0946902 -0.12809734 0.14858532 0.12001651 0.07742407 0.098728634 -0.06679436 -0.010655806 -0.024705062 -0.23281918 -0.0749786 0.14501458 -0.09762185 0.1947477
д҃ 0.043086275 -0.0026911267 -0.04478348 -0.004494655 -0.08665557 -0.101461075 -0.07205943 -0.07452448 0.05352743 -0.03059238 -0.15467149 0.11829122 -0.14554572 0.12081704 0.021392908 -0.0080200555 -0.103254415 0.113987595 0.173108 -0.054562233 0.03731779 0.048866812 -0.15359022 -0.071081534 0.057868276 -0.07785912 0.090307854 0.20249993 -0.070423886 -0.05481312 0.04060636 0.18048014 -0.011520477 -0.07263861 -0.054910306 -0.051375266 -0.005607019 0.0107759945 0.12192195 -0.045873158 0.0939346 -0.119724415 0.13346595 0.22512227 -0.08763978 -0.10065623 0.0724591 -0.037479687 -0.061335422 0.015118137 -0.05708034 0.020923564 0.017725565 -0.04475194 -0.057049986 -0.18809246 -0.18581524 0.14367759 -0.02704692 0.12694263 -0.054598965 -0.056751978 -0.11442882 -0.10708416 -0.1151666 0.0029590211 0.026621822 -0.04059323 0.123939 0.013350851 -0.013359319 0.11624573 -0.03393255 -0.0633043 0.121397644 0.082204126 0.11108562 -0.073612824 0.088706605 -0.0021144182 -0.08931588 0.18116696 -0.05525054 0.14505711 -0.1558085 0.06227147 0.15444526 0.038201205 0.1678964 -0.099316195 0.27194133 0.0025729542 -0.05573197 0.13599157 -0.07330932 0.004560358 -0.20195211 -0.022735799 0.011731703 0.08997656
ѥси -0.029755505 0.13930865 -0.06572314 0.03750057 -0.112266384 0.06836603 0.0055330843 0.18141763 -0.13992724 -0.20259182 0.12683858 -0.054270566 -0.033595428 -0.011825688 0.051620465 0.21115156 -0.1223768 -0.20945364 -0.06365085 -0.095432706 0.02819415 -0.14759539 0.16047804 0.058674864 -0.058904395 -0.16388725 0.051402118 0.124266624 -0.25234923 0.053196598 0.12976427 -0.103980355 0.033190142 -0.057590216 0.13329977 -0.080968715 -0.2271312 0.0038175043 -0.027683808 -0.12798749 -0.0031368786 -0.049846288 0.07153741 0.123275496 -0.018693008 -0.046456203 0.006583024 0.15534522 -0.03997144 -0.21921237 -0.0826721 -0.07323364 0.0077955993 -0.051766492 0.06605047 -0.021275558 -0.011631249 0.0070135803 -0.016305199 0.022206515 -0.09106498 0.1499451 -0.027457017 -0.0038380409 -0.01969038 0.10994645 0.051167093 -0.00028920063 0.097807 0.092325695 0.03662457 -0.026664285 -0.1480641 -0.25838622 -0.007039979 0.054497987 -0.1310547 -0.01321953 -0.05571503 -0.03899957 0.19285505 0.10886671 0.051197644 0.050311655 0.026350679 0.12012878 0.044681307 -0.11791345 -0.017216561 0.0627852 0.017789645 -0.11342801 0.06718421 -0.012269348 0.047336992 0.032750476 -0.045332942 0.0887709 -0.076113224 -0.07130922
мнѣ 0.101262234 0.17757182 -0.036399014 -0.09308302 0.05284971 -0.07356318 0.1552476 -0.031119263 -0.13113658 0.089842424 -0.0033051618 -0.12453362 0.052227225 0.036508564 0.04088222 0.030522 -0.085155085 0.035025187 -0.13280916 0.0037908442 0.15949485 0.0181763 -0.02037171 0.16404548 -0.06998508 0.023719694 -0.113354646 -0.011853999 0.070220895 0.07576218 0.0035393443 0.006409714 0.0016318961 -0.001605174 0.045555588 0.13615824 -0.18030436 0.06471922 -0.05458857 -0.0373908 0.049198993 0.043726124 -0.1498248 -0.029075649 0.015615456 0.009615004 0.22277358 0.17523591 0.08910704 0.123294845 0.085050404 -0.039846104 -0.024891112 0.05078742 0.007683237 -0.009784057 -0.04510447 0.029852416 0.001950336 0.12832627 -0.17162736 0.15523845 0.13514689 -0.17068401 0.0868233 -0.14247873 0.13905543 0.10542102 -0.07383132 -0.01395836 -0.003531095 -0.042915806 0.15725136 -0.0149495555 0.02294612 -0.106427126 -0.03057984 -0.13394548 0.2808983 0.1590001 0.10612033 -0.16571112 -0.11383015 -0.09251613 0.123171635 0.10019881 0.08112227 0.04498081 -0.1111544 0.026488231 -0.021868354 0.066673405 -0.07621646 -0.13669135 -0.04379593 0.049732704 -0.16209528 0.124131046 0.12963432 0.09152275
что -0.08073088 0.15239382 -0.17239217 0.016668037 0.03185807 -0.04002475 -0.038993005 0.2010614 -0.16988906 -0.15828599 -0.10376532 0.077514924 -0.16929929 0.044233732 -0.05306129 0.0046815625 0.018529398 -0.0043730945 -0.05397245 -0.10960946 0.0896341 0.05001861 0.14874543 -0.02660443 -0.3555799 0.06000464 0.10032449 -0.0150601715 0.04362431 0.100171514 -0.048802648 -0.0313243 0.09431822 0.06693629 0.095075466 -0.025099061 -0.011871537 -0.013684431 0.015434207 -0.13792892 -0.078801036 -0.11314756 0.10010532 0.02948195 -0.029826494 0.08902235 0.2687619 0.039705694 0.0014865778 -0.14866713 -0.11400678 -0.00061223283 0.09213561 0.004569812 -0.11268871 -0.1316645 -0.08992964 -0.0063440003 -0.11433946 0.04979997 -0.035393763 -0.00056092517 0.13936709 -0.16370441 0.04494896 -0.07669821 0.09621554 -0.05763367 -0.15299863 -0.09548529 0.012678633 0.0684561 0.15830965 -0.04619769 -0.06376708 -0.115202494 0.110800214 -0.105789565 0.13842316 -0.18166542 0.11488832 0.07521009 -0.022365443 0.010949317 -0.03407987 -0.10235472 0.019627362 0.049394153 -0.05270593 -0.08700546 -0.03202798 0.03657685 0.009471439 -0.011817834 0.041567437 0.07449808 0.120582625 0.054479565 -0.19380648 -0.0069563915
оже -0.10924062 -0.081242904 0.049557064 -0.12758929 0.056460794 -0.08541539 -0.07751875 0.07232771 -0.05832455 -0.019169912 -0.011355832 -0.08132421 -0.012754461 -0.12815279 0.10935974 -0.162053 -0.11161326 0.021998202 0.001769814 0.00834332 0.063217804 -0.18760486 -0.031134265 0.10286646 -0.035805136 -0.027068311 0.025170956 -0.08964953 -0.025420278 -0.019899115 0.030276408 0.042845845 0.05467217 -0.03732082 -0.015251976 0.013608178 0.04635005 -0.059239697 0.2783379 -0.018661512 -0.06871152 -0.03572548 -0.2591102 -0.026098078 -0.0906951 0.0026326724 -0.024755891 -0.075502604 0.07391268 0.09265357 -0.15961371 -0.17505027 -0.24460824 -0.0129411565 -0.15860394 -0.061528303 -0.06888365 0.009421093 0.05283974 0.003979643 0.31704026 -0.12420275 0.10635349 -0.16825446 -0.065669775 0.028856732 0.1365106 -0.029500963 0.08206424 -0.010789856 -0.03138052 0.02077762 0.15576293 0.12040714 0.07152129 -0.116018064 -0.05281888 -0.1219746 0.034708302 -0.0041043865 0.053123847 -0.007492203 0.0151359225 -0.12965365 -0.1116709 -0.09811286 0.023578655 0.08976897 -0.017006127 -0.13852316 -0.04251177 -0.033522144 -0.22364692 0.06919645 -0.21001577 0.019897532 0.11063536 -0.026428707 0.05638701 0.02988281
мѧ 0.29843748 -0.09175856 0.15970163 -0.10675331 0.016663343 -0.06933991 -0.044140153 0.020064106 -0.12338527 0.039829765 -0.087105945 -0.25201613 -0.028083881 0.08741012 0.053363826 -0.208012 0.010640368 0.15010265 0.020860082 0.049036086 -0.25171348 0.02614618 -0.07669946 -0.10298706 -0.043508224 -0.13223867 0.05204647 0.08878153 -0.01824238 -0.061726503 0.06877335 0.051017147 -0.15397237 -0.09393432 0.03432963 -0.07487738 0.07978946 -0.09389148 0.07597528 0.006002508 -0.033810694 -0.039699346 0.12680367 0.08489679 0.1076693 0.13108306 0.029929627 0.019047461 0.20281482 0.061134562 -0.006290413 -0.022953097 -0.10063898 -0.09961891 -0.0245089 0.00057440245 -0.12125504 0.0029714731 -0.15296793 -0.017310401 0.03819993 -0.035660245 0.013015251 -0.26513103 0.08671918 0.017979281 0.010789327 0.028685682 -0.06412307 -0.15815069 -0.09234247 -0.033025254 -0.043768417 -0.11863494 0.031770464 0.05599014 0.04598201 -0.071545005 0.07518476 -0.06402264 0.14820054 0.018401489 -0.019687584 -0.073402084 0.012435562 0.11589262 -0.14831564 0.18733776 0.027885392 -0.06593403 -0.020753717 -0.04343892 0.04194302 -0.06390558 0.13748127 -0.04158481 0.11360565 -0.18863454 0.024086915 -0.08850192
есмь 0.20481886 0.075348385 -0.079120226 -0.1311555 -0.002379098 -0.13738628 -0.013112479 -0.011413913 0.09340424 -0.059987172 -0.18130863 -0.21765149 0.0397814 -0.016779438 -0.0586638 -0.0798558 -0.12550493 -0.057217468 -0.03654414 0.018720789 0.17587145 -0.15159073 0.03594955 0.012873146 0.12936492 -0.032675456 -0.07923592 -0.04629784 -0.16389035 -0.10106759 -0.0576997 0.07754129 -0.01797211 0.10103106 -0.0056623328 -0.023209194 -0.12746552 -0.0062167454 0.07103152 -0.077634186 -0.08007185 0.042740487 0.08669349 0.049576133 -0.027697325 -0.021596842 0.17894411 0.095820464 -0.06843341 0.12674887 0.018356234 0.01901672 -0.22673017 -0.0056990255 -0.07886628 -0.08559352 0.058004715 -0.05051797 0.017428242 0.027395254 0.031440817 -0.04925296 0.016390244 0.20230155 -0.12823321 -0.08261584 -0.10507202 0.002492534 -0.17572455 0.030175718 0.025001239 0.011448382 0.04252852 -0.09070926 -0.03695302 0.09469408 -0.024037084 0.18562256 -0.055558987 -0.1394468 -0.024249483 0.07147511 -0.20024271 -0.16423689 0.2463284 0.13130972 -0.114911675 0.1276747 -0.07245053 -0.14812468 0.055546295 -0.010476513 0.10544254 -0.18698533 0.08511324 0.01565665 -0.00809219 0.025204478 0.046211667 0.0886236
бꙑ -0.026095724 -0.023659348 -0.024507476 -0.0048746467 -0.14500272 -0.05860872 0.0031870801 0.1484149 -0.14164813 -0.02864786 0.2413477 -0.025085442 -0.023959713 -0.011460463 0.049436007 -0.10454653 -0.060649034 0.093220435 0.066719875 -0.062573195 -0.015602994 -0.112227485 -0.03977 0.049348857 -0.04518762 -0.14280374 -0.06818246 -0.04824768 -0.037462242 -0.04298165 -0.091305695 0.027932102 -0.06523427 0.04344262 0.14622374 0.0880448 -0.08660197 -0.1619247 -0.13094881 -0.034062125 0.111311905 -0.10643585 -0.22898398 0.022493742 0.03676613 0.0924525 -0.13632855 0.06486601 0.021172257 -0.0770997 -0.117716864 -0.11936838 0.008189199 0.059623253 0.02018995 0.017387534 -0.17041484 -0.04835875 -0.095281474 0.06829437 -0.0476676 0.016880773 -0.16176204 -0.0821217 0.11827994 0.18289486 0.15399623 -0.19009264 -0.089493066 -0.115124814 -0.10734741 0.1043037 -0.03998488 -0.11196047 0.014736711 0.112225845 0.069981046 -0.022672668 0.16905867 -0.00080922316 0.02643095 -0.091569394 0.10393328 -0.055785857 -0.27082035 -0.029886872 -0.03580452 0.07943371 -0.13066925 -0.04235537 -0.052527264 -0.19476955 -0.021355623 -0.022990199 -0.00017905567 0.11806809 -0.027187578 0.1032226 0.18945381 -0.15444672
п -0.03702251 -0.040873606 0.07352574 0.06892611 -0.07982896 0.116808005 0.02230453 -0.0075952364 0.08929478 -0.067979775 -0.07642126 -0.0853845 -0.08070488 0.13691512 -0.008908021 0.1264414 -0.022670535 0.0035643885 0.11648907 -0.056460485 0.07137642 0.1473091 -0.0871364 0.09852574 -0.049453083 -0.016763512 0.035690974 0.04458467 0.09642896 0.07374952 0.06349565 -0.012165598 -0.1840243 -0.043038677 0.084004834 -0.04361015 0.020783363 0.029596897 -0.065760024 -0.11580799 0.28911737 -0.17822234 -0.09892778 -0.030413205 -0.013838361 -0.061554562 0.051520787 0.16531204 -0.1111423 -0.06962434 -0.052048903 0.1456881 -0.03528742 0.09393625 -0.18494846 -0.006746467 -0.01989077 -0.18154511 -0.061253134 -0.009815791 -0.2591562 0.114841536 -0.021586597 -0.0725526 0.06448147 0.12210643 0.19548987 0.017019307 0.12344793 0.016073007 -0.10706789 0.10455709 -0.0916445 -0.063765965 0.08234453 0.0071079265 0.03910967 0.13866125 0.06921573 -0.027423548 -0.16265477 0.2182785 -0.1346732 0.03469918 0.007796242 -0.029458053 -0.052724708 0.065052085 0.042009845 -0.22914825 0.008728734 0.049519088 0.20002434 -0.032832317 -0.004508103 0.0893012 0.053886358 -0.0911152 0.0383169 0.13930336
м 0.01508811 0.046731126 -0.089190595 -0.0119112795 0.1446943 -0.014471182 -0.068140686 -0.07039646 0.015588416 0.029659104 0.00020402312 0.027118996 -0.08617579 0.02780158 -0.24927826 -0.0032478303 -0.062497254 -0.061656285 -0.098315366 -0.027451592 0.13006681 0.023214635 0.19264947 -0.016194966 0.028191093 -0.10939114 0.074858986 0.06322933 -0.013062715 0.0065190447 0.0052630813 -0.08326877 0.038183205 0.20592771 -0.029340165 -0.04715353 0.11070424 0.14524388 -0.16993316 -0.08687616 -0.078136 -0.062309712 -0.20443036 -0.11586932 -0.15570036 -0.0051245685 -0.06405676 0.03511059 0.03883662 -0.0042839884 -0.008976754 -0.033412594 0.15532108 0.13226205 -0.04639722 0.0987398 0.094171464 -0.027346358 0.079788096 -0.1491286 -0.15299827 0.02018143 -0.029334746 0.015326396 0.26479933 0.019965028 -0.11144536 0.053283826 -0.10935317 0.017018478 0.031268604 0.06788911 -0.033197932 -0.053081926 -0.04463433 -0.17777415 -0.009032906 0.25749028 0.057622623 -0.04429798 -0.036108475 -0.00927007 -0.13380738 0.02232707 0.10929554 -0.06756192 -0.07823256 -0.25075373 0.19074082 0.054268625 -0.091657 0.20863943 0.09519864 0.026943581 0.13353471 0.07572947 -0.011309202 0.01546903 0.03298682 -0.09470955
тѧ 0.06456047 0.017469753 -0.038958944 0.16029184 -0.03622424 -0.12875256 -0.029068967 -0.035728373 0.012468984 -0.014881027 0.19480038 -0.17798613 0.14924121 0.080107465 -0.0045463014 -0.01811485 -0.1036379 0.06309812 0.12921794 -0.03928514 -0.25284046 0.057990983 -0.003403515 0.07463959 -0.0096803615 -0.037049294 -0.050870564 -0.08076302 -0.018448586 -0.0210646 0.034753866 -0.04703974 -0.15860796 -0.12616663 0.102078274 -0.07011625 0.1201372 0.07188899 -0.04864982 -0.16872297 -0.25489587 -0.15882608 0.04320601 -0.05999909 0.08120363 0.19683631 -0.1355751 0.13335565 0.10010349 0.10870731 0.042710252 -0.1250451 0.019540766 -0.176115 -0.1255062 -0.022286924 0.027567238 0.054641563 -0.06456507 0.0068651163 -0.015654316 -0.05323575 -0.066583194 -0.17775187 0.03919645 -0.00916416 -0.039362084 -0.024825504 -0.11199317 -0.026411401 0.13866451 -0.072335616 0.09470442 -0.0370546 0.041562457 0.10107147 -0.010266911 0.104535885 0.17128035 -0.074852146 0.112767056 0.12961283 -0.10907893 0.036268093 0.16113687 0.015560723 0.06206554 -0.11195195 0.14823067 0.058525342 0.02553602 0.16865978 0.10434853 -0.09775997 0.06955882 -0.061357856 0.08330783 -0.076664925 0.13791479 -0.012936802
н 0.11497307 -0.072838925 -0.08260788 -0.10653954 0.16623789 -0.086344495 0.015282963 -0.10650665 -0.0324742 -1.7383707e-05 -0.037983146 0.09711383 -0.17662196 0.0031890809 -0.16153322 -0.0974525 0.14389786 -0.16558404 -0.0066490737 -0.07588074 -0.020710876 0.01676342 0.041120764 -0.13325994 0.012049599 -0.13330993 0.07491113 0.03415032 0.017794993 -0.004546411 -0.009647949 0.0154875275 0.0907889 -0.0029585287 0.051085472 -0.115233414 0.0018285394 -0.1527467 0.04160546 0.010947785 0.039295256 -0.035325084 -0.09436016 0.08499422 0.0036443782 -0.022367813 -0.0704357 0.07403972 -0.017284544 -0.06501699 0.04666794 0.091189206 0.01948878 0.0047949306 0.01254699 -0.0034032627 0.058337238 -0.09971593 -0.023425186 0.08248773 -0.029505037 0.11799745 -0.11313553 -0.0014364474 -0.12704588 0.048261095 0.0703738 0.14455834 0.073481716 -0.07370104 0.01584708 -0.050309442 0.12406252 -0.12709498 -0.05634611 -0.24218422 -0.24957326 -0.14963551 -0.03314277 0.12571594 -0.019258186 0.19392778 -0.053515743 -0.15523101 -0.2242737 0.1076264 -0.11997037 0.30600196 0.056667518 0.00029485024 -0.115835406 0.029904336 -0.1384206 -0.115206376 0.042988423 -0.063395254 -0.029133014 -0.17035004 -0.11925865 -0.08785666
жита 0.040848296 0.005345832 -0.06522282 0.074121654 -0.090269685 0.2081136 -0.038604166 -0.016578209 -0.09773312 -0.021781622 0.047641493 -0.11609724 -0.018264811 0.0484434 -0.09395701 0.066940114 -0.15365016 -0.11814123 0.0076877563 -0.016656667 -0.07657334 0.16595037 -0.0063211126 -0.10120884 -0.13780296 -0.13260823 -0.018514646 -0.08136659 -0.07460575 0.03692126 -0.0971071 0.15889764 0.024292244 -0.059412986 -0.04155301 -0.004285197 -0.0060800505 0.08593125 0.16815257 -0.03819548 0.014552808 0.05959889 0.099637546 0.35928085 -0.1489191 -0.044484805 -0.11674984 -0.016112238 -0.03648027 0.026933238 0.03270815 -0.15728852 0.06833155 0.1053002 -0.2878903 -0.023787312 -0.11276885 -0.02152145 -0.026019009 -0.03931191 -0.05236689 -0.069494374 -0.11997355 0.12838374 0.043517962 -0.09258081 0.12891869 0.076824784 -0.2255055 -0.0152104795 -0.07979963 -0.15048344 0.010458509 -0.09558106 -0.14051577 -0.084487535 0.11612215 0.032508142 0.11595921 -0.0019451892 -0.015800532 -0.017773021 0.11301607 -0.045014206 -0.09402768 0.09693975 0.1857224 0.035459664 0.09662644 0.032175433 0.03157104 0.11205895 0.09614792 -0.113828436 0.037812136 0.088473335 0.020888437 0.0719537 -0.082484245 -0.08782423
тако 0.0028429818 0.01985633 0.16310433 0.084876634 0.11782234 0.027943324 0.0010903159 0.062616155 -0.084812984 -0.13508485 -0.19999209 -0.021028783 -0.24301878 -0.09980946 0.038588118 0.07121217 -0.059538808 0.15822287 0.062432777 0.055675708 -0.038032833 -0.06898274 0.015323116 -0.12679553 -0.038395997 0.10700782 0.15495527 -0.052012388 -0.026329482 0.060408235 0.15064448 0.07638047 0.14491618 0.095566355 0.18870322 0.09757352 0.15112263 -0.06343596 -0.011478567 -0.029938271 -0.15989552 -0.19445468 -0.13605464 0.0747122 -0.049606543 0.049558777 0.050328597 -0.11543243 0.11721009 -0.0026789347 0.03591437 -0.029695846 -0.10576746 0.04745797 -0.0041964245 0.0825183 0.010938722 0.0486214 0.13146937 0.055175066 -0.07982117 0.055638056 -0.12542278 -0.058186628 -0.048824273 0.060394607 0.036264915 -0.24850225 -0.07305014 0.022571 0.039981365 -0.031279866 -0.025447916 -0.04223502 -0.13818657 0.22005959 -0.19405128 -0.10125822 0.072503686 -0.1289469 0.07328877 -0.19269598 -0.043329123 0.005961811 -0.044801548 0.040957574 0.030716252 -0.13586669 0.07948766 0.063461825 -0.06367121 -0.08820191 -0.12807234 -0.097111136 -0.014389397 -0.16657704 -0.017239448 -0.0071613663 0.11844288 0.03230882
како 0.03382595 0.09080174 0.08801326 0.049327422 -0.11863225 -0.1333069 0.061414655 0.11624298 -0.06501014 0.051702507 -0.04442993 -0.08567788 -0.13921417 5.587251e-05 0.07530261 -0.09543681 -0.03115282 0.17017348 -0.043599907 0.027451072 -0.065045364 0.075671636 -0.034525033 0.1455046 -0.1209454 -0.0140014235 -0.07804982 -0.013706506 -0.038102765 0.12881497 0.067734994 -0.008682603 0.10987967 0.08068749 0.1088643 0.02730326 0.07060633 -0.094270445 0.020047648 0.06466385 -0.062313247 -0.1454756 0.07779869 -0.07747575 -0.0041300217 0.02496953 0.013638596 -0.03242742 0.06825694 0.12522563 -0.14586875 0.026451275 -0.10180257 -0.03255219 0.07336191 0.011815239 0.073317006 0.011742527 0.23722076 0.010430174 0.022039445 0.13952981 -0.104316495 -0.25532913 0.06662224 -0.050631974 0.059290837 -0.030309139 -0.114864185 0.09187605 -0.04806698 -0.08342026 0.17168492 0.10307173 0.06409081 0.08644351 0.010682424 -0.17941944 -0.02560683 -0.21573251 -0.12014978 -0.13390408 0.11251108 -0.13484022 -0.28531936 -0.018022833 -0.02539863 -0.028191818 -0.0554089 -0.065775275 0.08000064 -0.20227656 -0.0039115 -0.1636459 0.10237302 -0.13064502 0.09590748 0.07641118 0.01228686 -0.14921331
али -0.073096946 -0.087883905 0.060065754 -0.053475354 -0.112431884 -0.005906426 0.009756719 0.03706151 -0.04062708 0.06075625 0.022629455 0.036242783 0.0046219695 -0.048178494 -0.052385464 -0.11136085 -0.061900757 0.0148772625 0.049644206 0.14342588 0.045297243 -0.107182704 -0.11155924 0.039830286 0.16083272 0.018617364 0.08977999 -0.27056405 -0.050098676 0.011205984 0.14617948 -0.12571785 -0.06499121 -0.056535047 0.034315042 -0.031114167 -0.09880982 -0.008977892 -0.110077694 0.07040411 -0.21489464 -0.17027225 0.028948741 -0.024715174 -0.08783655 0.07497527 -0.23668717 -0.18563734 0.17198905 0.103713065 -0.022236189 0.04069157 0.17528339 -0.17247485 -0.0752622 -0.15038112 -0.08123313 -0.053701185 0.1429456 -0.012753606 0.10512241 -0.06442206 0.029369785 -0.1947357 0.017563645 -0.10158694 0.10015431 -0.092751734 -0.015307297 -0.14360027 -0.10491288 -0.059706066 0.052398395 -0.0029377358 0.117621444 0.16018035 -0.12272614 0.041875143 0.095451586 -0.07607018 0.0010497123 0.09414697 0.06610559 -0.16820414 -0.16166157 -0.030051153 0.03675594 -0.00894654 0.04881847 -0.010034194 0.1674892 -0.09338054 -0.10647177 -0.06671969 -0.16740468 -0.022805335 0.045046844 0.054366786 -0.060259692 0.08150331
даи -0.06713504 -0.016220663 -0.0076090344 0.09046059 0.04130545 -0.21299748 -0.09686285 0.11215066 -0.1154692 0.158969 0.0738922 -0.021385273 -0.17801002 -0.0146653745 -0.22127041 -0.0135811325 -0.025484955 0.00630222 0.046865363 -0.079580836 -0.09665073 -0.053383034 -0.10126901 -0.07170042 0.024900498 -0.0011988892 0.06129717 0.060951617 0.032800674 -0.08078221 -0.094801955 0.22284472 -0.00684393 0.029460615 -0.016749565 -0.10615062 -0.08270668 -0.20235325 0.16119257 0.0054437728 0.028693654 -0.03511647 -0.1204213 -0.08097206 0.13899219 -0.039520912 0.07204378 -0.036651123 -0.028569784 -0.048229326 0.090727106 0.050433025 0.0395122 -0.13657857 0.04311935 -0.035979353 0.135681 -0.018435027 -0.022704884 0.09062597 -0.10551497 0.14524569 -0.008329945 -0.028757416 -0.045141947 0.14228538 -0.04513094 -0.021698458 -0.10376775 0.08879937 0.20630857 -0.041953765 -0.014733556 0.07245563 -0.018856183 0.0059036445 -0.016934644 0.0065892567 0.10733719 0.049527254 -0.01271109 -0.083084874 0.07539381 0.007488087 -0.05200752 -0.15329105 -0.0074638017 0.14592601 0.030230775 0.14673477 -0.043152433 0.03681351 -0.19714284 -0.07127297 -0.14476234 -0.28734544 -0.24887872 -0.03774461 0.10410152 0.17588235
соли 0.092373766 0.16864347 0.23512024 -0.16583371 0.044117764 -0.03566218 -0.055449307 0.06864345 0.008009364 0.0459468 0.14073366 -0.12992862 -0.0842535 0.06272214 0.043118365 0.05446816 -0.03857303 0.07622252 0.059393488 0.11166619 -0.008230442 0.031439282 -0.04157138 -0.004146727 -0.05820408 -0.15644807 -0.115204565 0.039186455 -0.05819743 -0.025707174 0.00823693 -0.20539789 -0.0647412 -0.0020078938 -0.09707986 -0.16679418 0.04823358 -0.010314362 -0.06810087 0.0789326 -0.09928879 -0.05116126 -0.138375 -0.078073144 -0.07045503 -0.004766795 -0.21836005 -0.003109024 0.108628675 -0.1328809 -0.09183645 0.042984486 0.11847188 -0.04686291 -0.10861286 0.18156353 0.015212648 -0.14878103 -0.01842116 -0.007470665 0.018876657 -0.20650905 0.025829028 -0.09637353 0.0016371292 -0.07045006 0.027201662 -0.08745904 -0.007265098 0.028413748 -0.07059672 -0.20815633 0.04777048 -0.15658695 0.08832762 0.10493861 -0.07789792 0.12274746 0.05503122 0.1276014 0.009134261 -0.061576124 0.05650941 -0.07812067 -0.027876554 -0.010843544 0.1498516 -0.16194442 0.09952057 0.041118782 0.070220634 0.11986235 0.16811086 0.053016648 -0.053821135 -0.13497187 0.0064669955 0.11477732 0.21598363 0.15354599
грамота -0.003034069 0.06601267 0.027281843 0.09838984 0.016872343 -0.078491464 -0.11614311 -0.18630132 -0.08579406 -0.09880102 -0.17244801 -0.20829915 0.06852698 0.118961446 0.14750493 0.06634221 -0.001971753 -0.21962915 -0.025839994 -0.048177566 0.000231008 0.08843432 -0.15011734 0.07819537 0.009521379 -0.08898956 -0.07749285 0.08449833 0.017705204 0.03928665 0.008961311 0.021327738 -0.07832635 -0.0013802552 0.03506263 0.090585604 0.031118648 0.10080364 -0.023281427 -0.052967608 0.14715509 -0.13879782 -0.02719668 0.1099573 0.0531385 0.16344275 0.016475182 -0.18338501 -0.016741505 -0.132947 -0.0051476257 -0.056019977 -0.058251753 4.943854e-05 -0.1374011 0.17760298 -0.071768045 0.056918483 0.1513502 0.006493067 -0.026504556 0.19946447 0.13368385 -0.061263468 0.14478278 -0.014121276 -0.051776323 0.07079114 0.11149652 -0.014025657 0.16755287 -0.04746795 0.120081104 -0.037559234 -0.17673802 0.06464583 0.13448294 -0.03593312 -0.004557749 -0.047294177 -0.010108564 0.10109949 -0.12815242 -0.06548292 -0.13878657 0.014367959 -0.017569587 0.030359548 0.13832161 -0.057035457 0.093153045 -0.18261099 0.13466367 -0.03676949 -0.11258895 0.09225936 0.041331302 -0.24140522 0.08194563 0.015186332
та 0.209722 -0.06594623 0.040092763 -0.04066794 0.11064769 -0.15515296 -0.07931258 -0.08765634 -0.13293469 0.0786392 -0.13624996 -0.033730805 0.0007281153 0.07535062 0.029644176 -0.021374095 0.15393312 0.072656184 0.014571746 -0.051193476 -0.045589868 0.05443355 -0.158945 -0.08307587 -0.06592939 0.008696071 0.21102762 0.0033704985 0.0021934654 0.19319859 0.164463 0.12471685 0.045343827 0.041198295 0.020616738 0.027411073 0.03894829 0.010003539 0.12264163 -0.08433792 -0.17550786 -0.098551124 -0.11330107 0.25426996 -0.018651133 -0.032676015 0.05312392 -0.087083325 0.041054223 -0.001175087 0.14010902 0.026873654 -0.065046884 -0.068188235 -0.29728305 -0.059984755 0.04103326 0.042163186 -0.007952842 -0.081689306 -0.25218526 -0.14183988 -0.044872597 -0.068778194 -0.03174267 -0.13406236 -0.0769696 0.028578933 0.041818622 -0.065793365 0.12334936 -0.04300018 -0.061651036 -0.021181952 0.013648843 0.10046021 -0.032363523 -0.027186325 -0.033594273 -0.11002153 0.031212693 -0.080820106 -0.03493701 -0.13705866 0.01304804 0.10005954 -0.086426586 0.116600014 0.021949317 0.0215341 -0.11770925 0.051713973 0.07082671 -0.102748364 -0.056949895 0.09831183 -0.0066182846 0.051274437 0.18208472 -0.22044542
возми -0.08100341 -0.048023175 0.05480969 -0.007144033 -0.2150023 -0.10135798 0.04309442 -0.063958265 -0.0805344 -0.01451105 -0.018724475 -0.10103651 0.030421522 -0.16064318 0.04841544 0.1282279 0.08392674 -0.107107975 0.040366773 0.031581074 0.15398085 0.07786777 -0.16813073 -0.26506716 -0.049897388 -0.013997283 0.07329641 0.18083407 0.091732964 -0.026985342 -0.028621564 0.09819639 -0.1385734 0.07380376 0.08267309 0.14929879 -0.0016558275 0.09127525 0.022565583 -0.068593696 -0.14554027 -0.21304536 0.0012857082 -0.009358978 0.022843657 0.06623687 0.12094992 -0.027183406 -0.24041717 -0.115401395 -0.086440004 -0.021646278 0.0839763 -0.044692148 0.13720466 0.13620256 -0.0032376354 -0.09081635 -0.16409397 0.12291901 0.01977922 0.047877032 -0.12948227 0.06918284 -0.0042372686 0.015420663 0.097719006 0.03163259 -0.040235728 -0.14136194 0.019925904 -0.08135023 -0.049132593 -0.02942654 -0.014196095 -0.24783991 -0.052399702 0.008321275 0.14130865 -0.02970566 0.054357473 0.11101029 0.21214253 0.04503559 -0.17959881 0.021579713 -0.07788946 -0.036646783 0.18352835 -0.12919074 0.053779025 0.04035961 -0.057761025 -0.028921908 0.056947656 -0.03979489 0.06501654 0.008376883 0.012008182 0.0020880383
ж 0.08881743 -0.10800317 0.0816581 -0.07763293 0.15849036 0.204186 -0.06630893 0.0010461435 -0.030306345 -0.026573554 -0.06653891 0.11607192 -0.0836679 0.08719705 -0.13507587 0.10757814 -0.08035883 0.0038063503 -0.051702 -0.11093789 0.08430681 -0.18077964 0.10184823 -0.27054211 -0.020541629 -0.1984378 0.064992376 -0.11448969 -0.016881207 -0.09427187 0.14560814 0.10277474 -0.07283531 0.22362426 0.027538693 -0.1067783 0.13811368 -0.073835656 -0.037256233 0.044881906 -0.102223285 0.040888015 -0.13846472 0.112487644 -0.07446392 -0.05845815 0.024415527 0.0564186 -0.041669242 0.06701539 0.011462823 -0.0096945 0.030670647 -0.047142573 0.0038990458 0.06290482 -0.057386365 0.03492952 0.12600552 0.14480504 0.04680928 0.077242374 -0.027747482 -0.052116834 -0.018829841 -0.100830466 0.026342398 -0.13767458 0.021266771 -0.11268596 -0.0038146134 -0.08430107 -0.13515034 -0.04304011 -0.12725367 -0.1170587 0.025659312 0.064175956 -0.015905883 0.09666081 -0.19047914 -0.0021576013 -0.12410934 -0.0740503 -0.01424939 0.1256075 0.07215193 -0.08736607 0.0011579739 0.080576435 0.0932635 0.2900159 -0.1392625 -0.01488845 0.013110071 -0.021789154 0.14631866 -0.15024532 0.03714635 -0.07274023
ѡ -0.025300335 0.21330614 0.041212674 0.069700554 -0.092611246 -0.062456608 -0.06454464 -0.0039433106 0.114301234 0.105304554 -0.024104478 0.10891841 -0.10947505 -0.15279159 0.0667147 0.29109663 -0.055635963 -0.07229085 -0.04963078 0.15424399 0.009673295 0.1410895 0.15231428 -0.02222507 -0.09945582 -0.023278171 -0.025983607 0.332339 -0.011046573 0.11961788 0.012631905 -0.133555 0.07063295 0.0810583 -0.16868389 0.07501296 -0.11781461 -0.024817336 0.06905194 0.11514836 0.098239586 -0.03520089 0.05528963 -0.049372517 0.074174024 -0.09645435 0.17176075 0.03237922 0.031390574 -0.020735767 0.12186008 -0.038151685 -0.02336399 -0.08557504 0.03630223 0.07497505 -0.11406712 0.20259464 0.0145703545 0.13394518 0.060040426 0.06546056 0.00738958 0.055903655 0.09337807 0.074888356 -0.15115426 -0.09244508 0.04756056 0.16701643 0.02987005 -0.23322497 -0.012248253 0.051422056 -0.0149249695 -0.051588334 0.03484762 0.1046333 -0.06607013 0.059615225 0.06398507 0.024537435 0.016266972 -0.07282765 -0.04131472 -0.08414683 -0.06811328 -0.14838278 -0.011679674 0.037088796 0.09025171 0.019873852 0.12880251 0.09597155 -0.11638908 0.13652709 0.041978724 -0.02680085 0.07637407 0.0507579
кѹнъ 0.023762714 -0.041849893 -0.07801238 -0.00058853504 0.11873692 -0.11876748 -0.18335956 -0.14938846 0.0003206618 0.26531416 -0.0016896216 0.21435848 -0.033297192 -0.21495941 -0.055368923 -0.0005128681 0.05610346 -0.05551006 0.082447715 0.07551949 -0.0011860341 -0.13899349 -0.06779436 -0.20398587 0.058062512 -0.102382444 0.10802258 -0.16904195 -0.047159836 0.017951045 -0.084815204 0.1295772 0.02812233 0.05937778 -0.06689286 -0.067149326 -0.04149709 0.09165075 0.018231563 0.0023739096 -0.20323327 -0.15577398 -0.16352181 -0.060486235 -0.064160734 0.016824713 -0.017171511 0.19482574 0.0260716 0.13761932 0.1332142 0.07403289 0.049168617 -0.036124706 0.09609271 0.025455063 -0.098061614 -0.0080722915 -0.09973826 0.18456703 0.08747049 0.13733083 -0.049994644 -0.037580673 -0.083218284 0.0065048737 0.037649497 0.071191266 -0.049370423 -0.08192597 -0.0002513008 -0.06390802 -0.008596569 0.12500158 0.09977071 0.14748697 -0.017205551 -0.069256105 -0.008353685 0.09169479 -0.08941923 0.062245876 -0.015710553 -0.047193088 -0.08057155 0.16110383 -0.15466635 -0.038151044 0.13743895 0.057523977 0.012562542 0.11332333 -0.12051836 0.00796951 -0.051541544 0.12283778 -0.12950873 -0.033281304 0.020656828 -0.16501409
