216 100
न -0.050362166 -0.10045884 -0.10193609 -0.08262418 -0.055363864 -0.06725781 -0.14485957 0.04724527 0.09038258 -0.1700307 0.063225016 -0.07292108 -0.10376405 0.09228018 0.011700482 -0.10070016 -0.07533208 0.054298606 -0.053171236 -0.017220845 -0.011229848 0.13180625 0.037035834 -0.07453672 0.124302864 0.13648908 0.2111378 0.009416369 0.065425254 -0.09217552 0.039447676 -0.047435503 0.08807526 0.023249192 0.0066000493 -0.09340361 -0.08777934 0.13991268 -0.028133582 0.08287119 -0.0037845112 0.0066402177 -0.0027496293 0.13849366 -0.16697636 -0.022056054 -0.026482645 0.2225781 0.20372845 0.20712085 -0.033363845 0.048787758 -0.025906216 0.09862521 -0.15138343 -0.033685856 -0.10092649 0.08835594 0.13885042 0.06204132 -0.0044348277 -0.019582385 0.06434513 0.02487366 0.108895965 0.018042503 0.16408725 -0.00457771 -0.06291666 0.12673868 0.040888894 0.017630596 -0.08697129 -0.07217065 0.17622949 -0.084598005 -0.118115395 0.08526361 -0.11494793 -0.10293694 -0.14001189 0.051401142 0.072785616 -0.07085405 0.00079383573 0.024406686 0.28397268 -0.07224333 -0.08101983 -0.034750406 -0.16875379 0.059986155 -0.14733998 -0.1476526 0.055978525 -0.026899748 0.16576482 -0.024785647 0.11112978 -0.09782635
च -0.1908729 -0.012506331 -0.049387496 -0.03162303 -0.12092184 -0.048738796 0.06837042 0.012263128 0.06501866 0.040338144 -0.16851583 -0.1419197 -0.04873186 -0.032933738 -0.059319235 -0.23923661 -0.09566177 -0.08181395 -0.035375077 0.018819785 0.05700388 0.2545327 -0.08389153 -0.06319368 0.069559515 0.10436307 0.11631102 -0.06740961 -0.02270147 -0.095258966 0.12141951 -0.003345588 0.07330745 0.044202045 0.05154811 -0.13885164 -0.039943404 0.11739332 0.0877295 0.16189332 0.1120165 -0.08747868 0.14686327 0.25468642 0.17770225 -0.1585271 -0.0206122 0.19396286 0.028344208 0.08756198 -0.07594825 0.07977335 -0.07069411 0.14710218 -0.1708364 -0.009547935 -0.012153502 0.025628952 0.1125657 0.05953309 -0.06695344 0.07155476 -0.050131407 -0.06336847 0.04960646 0.062469747 0.15655364 0.10140554 -0.017558046 0.034379233 0.070789695 0.06335689 0.08501525 0.11632811 0.09979505 0.097977266 -0.12120427 0.006509148 -0.032067843 -0.08583807 -0.02896047 0.060920544 -0.08630075 -0.06594242 0.034484435 0.014540407 0.17602237 0.106340334 -0.10129418 0.02734146 -0.036872685 0.041745994 -0.17553583 0.022324216 -0.040358726 0.11505635 -0.0076234615 0.021197436 -0.058936797 -0.18933868
तत् -0.13232037 0.06488863 0.048778664 0.032884955 -0.059391946 -0.30682188 0.047040988 -0.039207205 -0.20425045 0.036044605 -0.0035155509 -0.032929122 0.075438835 0.21577455 0.13683224 -0.034794588 0.0063403468 -0.060807906 0.088757455 0.18588732 0.074586734 -0.16397458 -0.10150331 0.018386852 -0.053563897 0.16877346 0.07080122 -0.011960565 -0.17418037 0.082853116 0.067443825 -0.030388921 0.06835508 0.05726731 0.06343265 0.0074427184 0.025338944 0.21222112 0.14893402 -0.092961244 0.028519988 -0.13677299 -0.015721358 0.13238119 0.121751174 0.047602527 -0.023169573 0.11947432 0.09506227 0.13068627 0.037108622 -0.16709788 -0.07092023 -0.0013249128 -0.010150784 0.13000867 0.063209966 0.076244235 0.09076612 0.0851117 -0.027201017 0.01650204 -0.12716398 0.008090577 0.19437256 -0.078792565 0.016474288 0.13899872 0.056270476 0.051033083 0.027786879 0.13334133 -0.020027554 -0.014082392 0.17491947 -0.013829626 -0.15751392 0.13237523 -0.11718693 0.08737755 0.107521646 -0.05106531 0.13749807 -0.04079735 -0.113777325 0.0586629 -0.1255269 0.06877259 -0.031739846 0.0041305386 -0.111170374 -0.007392124 0.045116965 -0.05687853 0.13910617 0.116468355 0.065764 0.015019765 0.012624073 -0.0016677637
अपि -0.2291555 -0.10820642 0.008600229 -0.0295927 -0.1551987 0.00146159 0.009735579 0.08890862 0.024963565 -0.025830222 -0.104395725 -0.16112867 -0.04289482 0.075266376 0.0673838 -0.14218697 -0.096002206 0.003938689 -0.03594604 0.0316942 0.028979719 0.13671124 -0.041665927 0.002375664 0.03836972 0.13560914 0.17035525 0.09135201 -0.116010725 -0.12743168 0.13282932 0.041193187 0.06956152 -0.01582281 0.043372247 -0.25124195 -0.10896414 0.09623892 0.12124332 0.10130666 -0.026608855 -0.07815709 0.12981075 0.23507643 0.056642495 -0.15537608 -0.07448068 0.2014595 0.13461977 0.12440646 -0.12047907 0.031114453 -0.077351995 0.1049023 -0.18290336 -0.08409159 -0.019259669 0.08259842 0.037010357 -0.04493389 -0.023798997 0.08889913 -0.020796522 -0.07918494 0.0004913317 0.023164019 0.1731344 0.00062852923 -0.057294194 0.10204595 0.034738105 0.078665696 -0.0039026022 0.06980606 0.13787943 -0.056453492 -0.12444739 0.013780336 -0.051427383 -0.072829224 -0.06727974 0.08336397 0.044731524 -0.16046411 0.048687764 -0.06874771 0.17024544 0.081264965 -0.19783008 -0.045416467 -0.0748089 0.022210004 -0.11152524 -0.083051324 -0.016986929 0.09268505 -0.011750491 -0.116769485 0.01147526 -0.13665387
अहम् 0.080427326 0.05113622 -0.059643384 -0.08413968 0.016904388 -0.14071095 -0.16409537 -0.080499835 0.14630663 -0.052015428 0.021096611 -0.15216273 -0.007519971 0.19938348 0.036859564 -0.070080005 0.061751425 0.074508086 -0.0026409875 0.0051175114 -0.0012383779 -0.08630985 0.10791744 -0.042064045 -0.091036215 0.0658668 0.22086626 0.0725239 0.044158082 0.10599471 -0.10513884 -0.054550048 -0.018967766 -0.057317268 0.09601335 0.11533194 -0.09839714 0.05052009 -0.1085285 0.089485906 -0.024534823 -0.06375615 -0.070263796 -0.040451273 -0.16143733 0.024115203 0.00013691843 0.071478054 0.13379051 0.029719597 0.07208042 -0.0347554 0.07196549 0.08028215 -0.1034923 -0.00701266 -0.036608055 -0.021082943 0.12574512 -0.04226821 0.13134967 -0.12698811 0.025457114 -0.049069356 0.20251247 0.049766842 0.1507253 0.053506427 -0.13338295 0.052680112 0.010131503 0.03040059 -0.014833174 -0.20062366 0.10319526 -0.036034513 -0.051109247 0.14772367 -0.090458795 -0.088594474 -0.14131215 -0.12872398 0.014456031 -0.19118534 -0.014183919 0.014567005 -0.06213058 -0.14511533 -0.08941481 -0.041047607 -0.16252385 -0.012985272 -0.06866579 -0.2728107 0.10130301 -0.08831952 0.28262007 -0.05597274 0.07237365 0.019871501
अथ -0.0123546515 -0.028842425 0.07552505 -0.082258105 0.011943915 -0.21805611 -0.03301478 -0.12153676 -0.049893685 -0.031543575 0.0021807924 -0.16754255 0.09236325 0.03578688 0.036779866 -0.053144466 0.08732755 -0.045834716 -0.050690085 0.08582877 0.028888175 -0.17588474 0.12028692 0.0469884 -0.12945454 0.06536489 0.17808951 -0.04051523 -0.14608575 0.14773072 -1.4704531e-05 0.024096943 -0.0361663 -0.14552063 0.21894953 0.054622754 0.023550427 -0.031195479 0.030878078 -0.038631745 0.043079432 -0.1501227 -0.080990314 -0.047709208 0.0970362 0.077499084 -0.038296446 0.09997103 -0.09596377 -0.11897645 0.14200835 -0.107645035 0.043573618 0.13783292 -0.050575297 0.15811379 0.08941754 -0.22379586 0.15083176 -0.04681578 0.06205763 -0.054921106 -0.04127233 -0.114676036 0.13301 0.08519276 0.09582699 0.19637074 -0.11185315 -0.01465632 0.10262393 0.069935404 0.1762377 -0.041491166 0.07153911 0.14229746 -0.0027830736 0.049333658 -0.14445855 -0.078312315 0.00597368 -0.16374601 0.020061016 -0.08228534 -0.13736244 -0.028638624 -0.19905217 0.118904136 -0.021227704 0.067992695 0.009366531 0.020446872 -0.11310612 -0.050089087 0.09562766 0.055548873 0.16362917 -0.06396737 0.07075776 0.022465106
ततः -0.011856803 -0.065377645 -0.026174689 -0.060865596 -0.0719851 -0.14335643 -0.013807811 -0.18135196 0.106853865 -0.17559502 0.11230914 -0.16245656 0.037980746 0.13913594 0.14773571 -0.14391072 0.094209254 0.072612114 -0.02019961 -0.07429944 -0.0059425673 -0.09290651 0.16465254 -0.009042262 -0.096935086 -0.07107266 0.10673613 0.05472319 -0.14945391 0.14870963 0.12966171 0.023414847 -0.05676246 0.025808413 0.20680346 0.1959092 -0.03758601 -0.04671765 0.05593406 0.03782824 -0.048552673 -0.02596782 0.123773225 -0.022186998 0.058737 0.08585755 0.033943243 0.106551014 -0.033531047 -0.0418076 -0.0060972017 0.04436066 0.03641402 0.025989901 -0.09214945 0.085500866 0.0108506875 -0.0659721 0.21680854 -0.072153054 0.045025356 -0.0035726137 0.014686962 0.059133057 0.107739985 0.11656663 -0.0069516674 0.15346606 -0.15719622 -0.031180607 0.035539098 0.041609805 0.1235386 -0.07185087 0.011451239 0.13837017 0.026416698 -0.013042489 -0.022992585 0.014239099 -0.16032498 -0.21249346 -0.09843602 -0.17296948 0.027517362 -0.02136612 0.009136149 -0.08618587 0.12024959 -0.037201162 0.062647514 -0.05838963 -0.25491637 -0.09654982 0.07632783 0.07794834 0.22497039 -0.019396821 -0.02456818 -0.1476137
तस्य 0.00045457887 -0.026002211 -0.024238113 -0.09641207 -0.061638553 -0.015644606 0.057182886 -0.0039229826 0.12361702 -0.07642471 0.03059793 -0.014816743 -0.027852573 -0.010331285 0.15892434 -0.21261108 -0.008922504 -0.08419269 0.051485192 0.02988011 0.08220861 0.122195296 0.04444997 0.035301793 0.08042197 0.14013511 0.1416174 -0.07371173 -0.07270371 0.11511983 0.16872993 -0.10412592 -0.027336685 0.011158818 0.10355329 0.09220529 0.04596204 -0.05011934 0.07957404 0.049530953 -0.07908503 0.14719355 0.049401347 0.09972247 0.18098739 0.05292618 -0.13136728 -0.012629493 0.077695265 0.23835535 -0.03252998 -0.06047542 0.02896153 -0.1026248 -0.098710254 0.009864556 0.033275273 0.088510334 0.12525381 -0.056303035 0.14357607 0.062263202 0.08450466 0.16497853 0.018521216 0.07643869 0.068159826 0.11162561 0.0034439329 -0.034813188 0.10086297 -0.04261489 0.08758307 0.04421632 0.13199452 -0.12039798 0.020177945 -0.03895175 -0.053718723 -0.08327226 -0.0674592 -0.1605733 -0.15191521 -0.12311575 0.08585611 -0.03208408 0.30623615 0.044528116 0.07099865 0.045629304 0.019606438 0.07998778 -0.1870172 0.13943703 0.018856594 0.17962177 0.22066863 -0.13093327 -0.045158107 -0.09930397
इति -0.08106618 -0.03401031 -0.07805819 -0.026806468 -0.1227497 -0.032086626 0.05699036 -0.16807197 0.030696407 -0.052609056 -0.08227705 -0.08343862 0.06386873 -0.12327853 -0.009017349 -0.16412573 -0.17858207 -0.054160684 0.07555766 -0.031388987 0.009678949 0.2854935 -0.063463844 -0.023161352 0.13860019 0.17840305 0.08329362 0.021969728 -0.13881475 -0.004548865 0.2062679 0.08448232 -0.040014442 -0.047764 0.15402044 -0.0652101 -0.11738329 -0.019214874 0.12265588 -0.041792754 -0.047936648 -0.03519263 0.05050299 0.16456786 0.21776761 -0.015867477 -0.017838964 0.13397302 -0.06248513 0.21643588 -0.08875306 -0.049288474 -0.07534776 0.15365407 -0.028187675 0.10078543 0.05828614 0.032321014 0.1605278 -0.013519874 -0.02433797 -0.008624696 -0.10640312 0.101551116 0.009030445 0.027479267 0.018422231 0.04740297 -0.011153393 0.033772714 0.083169885 0.014288707 0.11543656 0.062074363 0.03313836 0.04287902 -0.052106887 -0.073950246 0.05138896 -0.035376556 0.029238533 -0.022159245 -0.049962346 -0.15247722 0.1059558 -0.12161097 0.23387721 0.14526327 0.083910495 0.06431445 0.016596535 0.13116753 -0.17294903 0.09700683 0.018117227 0.121062264 0.07923586 0.023513414 -0.118176065 -0.1626305
अस्ति -0.013273796 -0.121761516 0.059861578 -0.16435064 0.07019263 0.049130313 -0.0035594215 -0.09211855 0.13489446 0.020676816 -0.05656179 0.011828138 -0.16533956 -0.072145164 0.028788492 -0.17385288 -0.1391706 -0.11432882 0.12303136 -0.101277165 -0.032619867 0.13911769 0.060504317 -0.09445908 -0.11115522 0.0882702 0.088578954 0.05657945 0.13676621 -0.03631133 0.09886433 -0.018728903 0.0850166 -0.06707009 0.112698965 0.11425301 -0.012744461 -0.099315405 -0.046173666 0.1163562 0.20757054 -0.07718267 0.11371574 -0.05413927 0.13964169 -0.17220013 -0.049513586 0.17627671 -0.01568272 0.10066536 0.113892935 -0.18904945 -0.076337785 0.13360272 -0.10866734 0.12688555 0.066410474 -0.0713302 0.01118215 0.042088024 0.10125517 0.05008744 -0.044038396 0.16339283 -0.09986829 0.06243644 0.18765253 0.13818324 -0.06742559 -0.0019810905 0.03925015 -0.023489911 0.090046525 -0.016534641 0.087451324 -0.07393043 -0.12309446 -0.04406396 -0.07200726 -0.15625998 0.005796715 -0.06594123 -0.121037826 -0.027913965 0.049669154 0.034437552 0.037843928 0.07837887 -0.06632463 0.011108142 -0.0282324 0.10740242 -0.25489622 0.015428027 -0.04230776 0.10360527 0.18345962 -0.075865574 -0.014322304 -0.13541666
एवम् 0.1330766 -0.07734051 -0.009138846 -0.070802785 -0.10119635 -0.14423811 -0.050989877 -0.086928844 0.16495295 -0.049696445 -0.011692452 -0.25563368 -0.12729533 0.065839514 0.17832755 -0.22263806 0.030932495 -0.017255507 -0.04320997 0.025921078 -0.03884488 -0.0072614006 0.14298496 0.076046824 -0.104896456 -0.007902469 0.17069905 0.0750957 -0.1153373 0.023424001 0.11977778 -0.11099935 -0.050966665 -0.09626499 0.2219756 0.040367737 -0.1008915 0.0015950219 0.09318377 0.09851185 -0.075440966 0.017877279 0.11461783 0.06127607 0.043734867 -0.022659196 -0.035717778 0.15899238 0.043366503 -0.006560814 -0.039837435 -0.015197108 0.01676596 -0.13721196 -0.1886915 0.09186137 -0.042657673 -0.059192218 0.08891283 -0.1205897 0.13703461 -0.08066832 0.044617895 -0.027838822 0.03991783 0.040981326 0.028208029 0.14186156 -0.036759898 -0.044755545 -0.023878224 0.027105257 0.13993086 0.021315517 0.1046127 -0.02203178 0.01987779 -0.029574683 -0.1064608 -0.08440967 -0.18657453 -0.15464169 -0.11358495 -0.17131695 0.015106464 -0.198409 0.06404346 0.07347621 -0.1045527 -0.0044314843 0.055662613 -0.08205159 -0.106612004 -0.14354546 0.065256536 0.05728081 0.17421085 -0.16628753 -0.022573998 0.011813727
नाम -0.0398704 0.017064463 -0.01396383 -0.10029669 0.04704879 0.023430772 0.0097945575 -0.14489928 -0.038288105 -0.08352924 -0.07189414 -0.067527615 0.07553458 0.00079009717 0.019335227 0.04400979 0.034649793 -0.044072196 0.06578919 -0.09199233 0.042788073 -0.08959503 0.035807468 -0.09810028 -0.101769276 0.07375451 0.07895373 -0.028679693 -0.010220892 0.15802631 -0.06002406 0.1955548 -0.03949476 -0.08418668 0.08931226 0.12305151 0.0402447 -0.12564087 -0.06695274 -0.048493017 0.17579201 -0.2104197 -0.12160834 -0.052718673 0.13020508 0.07789906 -0.06897631 0.102911234 -0.08700855 -0.027987385 0.18702786 -0.17081098 -0.038055677 0.32060295 0.0035716223 0.10951477 0.10402099 -0.11007724 0.12869473 0.037485655 0.08129327 -0.009581265 -0.11268998 -0.0047645643 0.045423187 0.12439183 0.15822004 0.124243245 -0.15243335 -0.00065622653 0.121813744 0.10032288 0.12884603 -0.030186882 0.058397155 0.14739397 -0.1167913 0.06091506 -0.07476695 -0.06176162 0.086766325 -0.13107099 0.08141401 -0.029001549 -0.03306509 0.13121328 -0.15506883 0.06760741 -0.00863457 -0.012600008 -0.10639268 0.19120088 -0.16695675 -0.005336261 0.051578376 0.036910582 0.15076244 0.011021523 0.107903406 -0.07724007
यथा 0.04219298 -0.109081864 0.06431872 0.018936148 -0.025064271 -0.039807253 -0.06042105 -0.13108248 0.0899164 -0.08755807 -0.05594862 -0.07794031 -0.022616081 -0.036637284 -0.041933104 -0.10193705 -0.19291249 0.026319234 0.12842283 -0.04597025 -0.09669947 0.18787107 0.045421407 -0.039491195 0.09941835 0.19403851 0.17265835 0.0967485 -0.1047733 -0.019445153 0.090849906 0.056639723 -0.057001397 -0.1838618 0.12891048 -0.07219287 -0.20053665 0.0897477 -0.006510761 0.12237827 -0.07430796 -0.042840112 0.0663193 -0.0084110955 0.12718706 -0.21351467 0.09533895 0.19540334 -0.026865494 0.14811759 -0.10431444 -0.17137358 -0.14832324 0.12179189 -0.080806516 0.13126406 -0.0048674713 -0.06108317 0.1312933 -0.033059776 0.02319855 -0.12289173 -0.09517058 -0.008645968 0.09673083 0.0678001 0.082901224 0.06973696 0.09755021 0.12054136 -0.034754958 0.06525779 0.0686376 0.04814661 0.16005385 -0.08070176 -0.07540269 -0.060652446 0.04623822 -0.10737167 -0.1142199 0.009578247 -0.18173994 -0.19920503 0.022702884 -0.07999843 0.06949697 0.118937865 -0.105859354 -0.01706495 0.05810126 -0.018335849 -0.07669106 -0.16474831 0.04715833 0.021855261 0.10337884 0.02991533 -0.020171423 0.007646014
अब्रवीत् -0.15858127 -0.05780309 0.08427786 -0.026696984 -0.005174215 -0.22554192 -0.01825305 0.0752725 -0.17725073 -0.12458362 0.057237346 -0.031597465 0.12270542 0.17675503 0.122235015 -0.014443737 0.08599394 -0.08206293 -0.027979918 0.12630624 0.09637268 -0.23860423 0.024076458 0.050115976 0.0027977286 0.13172324 0.08396373 -0.1021119 -0.12431092 0.14987254 0.05620968 0.01488003 0.102568395 0.039308846 0.05682005 -0.0019668685 0.08348947 0.11533876 0.13880624 -0.16758987 0.009406267 -0.13986024 -0.0664516 0.09488957 0.117618285 0.09867267 -0.15527314 0.07629392 0.08138925 -0.014583022 0.08382645 -0.20125824 0.03344399 -0.007665688 -0.04018688 0.12606141 0.036174823 -0.0047987094 0.13100341 0.012663999 -0.019383248 0.07470421 0.025207598 -0.0021482068 0.11607392 -0.0014817143 0.11900012 0.21571481 -0.005358189 0.06984234 0.1246855 0.083177865 0.076359905 0.034633912 0.1048475 0.06561236 -0.028379798 0.09714636 -0.18552932 0.05172456 0.013567371 -0.09846879 0.11580031 0.036416203 -0.12424282 0.123514846 -0.025739668 0.11603158 -0.014052203 0.0048560114 -0.03370582 0.02750111 -0.049126614 -0.02605482 0.19280127 0.13384818 0.13516219 -0.07301819 0.153204 -0.044990677
किम् 0.12524115 -0.013138527 0.027994916 -0.037650276 -0.028229216 -0.12894358 -0.077261426 0.043854818 0.17660186 -0.022707349 -0.0065091206 -0.16416407 -0.18983088 0.1189393 0.11989602 -0.14692037 0.036213066 0.0046441546 0.025547326 0.07535857 0.0027882447 0.0261582 0.11061496 0.0101604 -0.117724486 0.060960222 0.21548532 0.021549826 0.020021563 -0.07707079 -0.035923053 -0.19089884 0.0240264 -0.088569514 0.13870467 0.063753426 -0.06579708 0.1338114 -0.02619733 0.18219858 0.018376937 -0.044535384 0.059821863 0.014563863 -0.056380562 -0.10126028 0.017967543 0.14888597 0.16912103 0.080042295 0.056863796 0.0124876425 -0.06203646 -0.073312365 -0.187652 0.009736919 -0.0055321916 -0.018271523 0.09252551 0.00912894 0.13919544 -0.12675306 0.008011408 -0.10770523 0.19632638 0.046350524 0.082420506 0.07275567 0.015577596 -0.020584412 -0.062404912 0.060521897 -0.022910438 -0.057721306 0.20906861 -0.14578348 -0.121498 0.12361329 -0.17535125 -0.106646314 -0.15923937 -0.05700486 -0.05590235 -0.16931812 -0.054576185 -0.024873322 -0.04750066 -0.024625102 -0.18111855 0.02694529 -0.11687939 -0.04928015 -0.008684217 -0.18716958 0.06444091 0.01614857 0.19790228 -0.10437064 0.007897084 0.07426237
तत्र -0.1758011 0.08576982 0.005499411 0.0018249742 -0.117089994 0.015398355 0.1472748 0.012845567 -0.09983715 0.003776844 -0.21855791 -0.0953882 0.07454525 0.064393856 0.07171538 -0.07141373 0.041903846 -0.070952766 0.027025599 -0.019852072 0.1695133 0.007314205 -0.12844707 -0.04611593 -0.08755787 0.11064938 0.018095808 -0.03101851 -0.07297076 0.035655115 0.035812356 0.13517825 0.037697922 0.054117773 0.0989022 -0.049351007 0.03885663 -0.0019108665 0.070966214 0.0845095 0.12427736 -0.25354615 0.099198535 0.15334937 0.23126164 -0.12372476 -0.124062754 0.19444178 0.027948596 0.08393285 0.008871752 -0.07119124 -0.13009441 0.23042358 -0.027252771 -0.017770296 0.12307415 0.04535846 0.09588894 0.02739818 0.022802753 0.027584039 -0.13441566 -0.10723102 0.036689367 0.08083091 0.09536573 0.08759052 -0.05616054 0.028546795 0.048105635 0.1788644 0.124343425 0.055823293 0.17354624 0.090414055 -0.22475713 0.08659634 -0.023864605 -0.028472058 0.1068674 0.0044768304 0.013086201 -0.09298586 0.007201222 0.15833965 -0.08657698 0.13116059 -0.12250594 -0.06733348 -0.11357708 0.102076076 -0.057847936 0.029870044 -0.010945109 0.13563505 0.020626854 -0.0013189897 -0.005856851 -0.11704905
अर्थम् 0.13729554 0.056061577 -0.00862853 0.02976009 0.004611273 -0.05328054 0.055671867 -0.13302298 0.018157732 0.094800435 -0.16124524 -0.08743187 -0.021623852 0.0627441 0.08415202 -0.020377459 -0.10081791 -0.01969014 0.1514155 0.10598884 -0.02644812 0.11456026 -0.24676375 0.011938072 0.04120817 0.20302592 0.17273605 -0.020898774 -0.21427935 -0.0137278875 -0.038669813 0.0034114814 -0.07350108 -0.08277109 0.048207182 -0.04285811 -0.017543068 0.1038712 0.047658812 0.021400841 0.16080654 -0.016792968 -0.07987304 0.09942831 0.1461364 0.08363783 0.012124406 0.07766542 0.105952725 0.2762019 -0.0223987 -0.07717239 -0.20885333 0.042192757 -0.086249635 0.014232999 0.021995235 0.13205597 0.071083315 0.047205042 0.09103017 -0.055450384 -0.16869928 -0.07994545 0.24512821 0.02109859 -0.026835935 -0.036991894 0.13032858 0.076191045 0.115009114 0.11386558 0.09543886 0.15645798 0.24314414 -0.100537375 -0.045540713 0.04555957 -0.009846461 -0.0746944 0.14334205 -0.020918077 0.07423626 -0.12183669 -0.005406209 0.0301178 -0.0040203 0.11352391 -0.07893439 0.001546548 -0.09797949 0.13198689 0.04065841 0.07462113 0.03438646 0.024432087 0.02510689 -0.057835586 0.07922104 0.024911597
आह -0.09356978 -0.09611577 0.12966757 0.022546973 0.063128725 -0.16191484 0.013785975 0.07141473 -0.12864676 -0.06691739 0.06845163 -0.085177824 0.10077851 0.12753609 0.13713226 -0.08861144 0.051355407 -0.106641985 0.020690346 0.12955108 0.12326123 -0.18427302 0.039251838 0.06805697 0.004819895 0.14529988 0.124049336 -0.084474884 -0.20853983 0.16199869 0.023535684 -0.009018829 0.03957407 0.0334192 0.080897965 0.08068498 0.11375722 0.022242956 0.10033044 -0.10956274 -0.033573598 -0.11999425 -0.060642943 0.016242992 0.21142125 0.047651317 -0.1361592 0.0097917905 0.051674217 0.031901818 0.10153585 -0.23285848 0.030877765 -0.03318133 -0.065022096 0.14276321 0.0731471 -0.055674773 0.08542302 -0.037695173 0.028261418 0.06697997 0.04511567 0.010086924 0.12885663 0.034886688 0.11216327 0.23406899 0.04343905 0.034322776 0.21487795 0.07752183 0.14979132 0.08135364 0.12176203 -0.011634858 -0.009963548 0.045821093 -0.064008266 0.018395118 0.021741236 -0.07898874 0.006585284 -0.018346928 -0.09861161 0.11244368 -0.0076168766 0.14412561 0.071895756 0.011817723 0.062152255 0.03442943 -0.05136974 0.07584767 0.1752296 0.17754054 0.18971099 -0.1449083 0.08465121 -0.01661988
स -0.1453519 -0.17782786 0.011927948 -0.08959349 -0.07130099 -0.03858683 0.043232914 -0.011596136 0.013884812 -0.1365258 0.04295922 -0.10602686 0.03759196 0.03220973 0.10881193 -0.09171613 -0.10301785 -0.07557873 -0.0015938869 0.021643315 0.03918023 0.0898319 -0.06506817 -0.0062614502 0.09972606 0.2539452 0.15693979 -0.012738618 -0.06658936 0.008766836 0.15186143 0.0594794 0.0097804535 -0.032444607 0.09640285 -0.08477688 -0.006553625 0.04541719 0.1119403 -0.030036416 -0.060677685 -0.05932778 0.023838082 0.16298132 0.064391255 8.8296685e-05 -0.12719502 0.16698971 0.116203785 0.16181679 -0.024541438 -0.20934537 -0.0244867 0.1683978 -0.09650913 0.13513546 0.025917511 0.031537525 0.07097076 0.010959709 -0.030121237 0.09209107 0.05581542 0.05609072 -0.0032999327 0.09168332 0.13882722 0.10794772 -0.08998692 0.12784891 0.15491755 0.008876384 0.13005723 -0.015066952 0.19372977 -0.07509974 -0.086018465 -0.059535652 -0.07392181 -0.065618396 0.020865945 -0.018715465 0.06887418 -0.08055879 0.030914875 0.03756825 0.26086614 0.084983446 -0.007609477 -0.046657838 -0.012144753 0.11211468 -0.19158484 0.0702992 0.05475058 0.19290374 0.21240631 -0.1366655 0.069272906 -0.10995178
मम 0.11292376 0.053046826 -0.080990344 -0.009694843 -0.14720732 -0.22367632 -0.052921344 -0.169365 -0.002342096 -0.043826573 -0.005391104 0.0062438 0.044102706 0.046626177 -0.09906782 -0.11489985 -0.1250026 -0.024805166 0.0809414 0.079482384 -0.06505548 0.114195965 -0.14576562 -0.07668131 -0.05894056 0.17155336 0.11561018 -0.048241187 -0.030397996 0.0755023 -0.000962096 -0.06044439 0.036279332 -0.057166584 0.12765323 0.047277488 -0.2130964 0.25437883 0.05953372 0.076656334 0.038266934 -0.053083517 -0.008595499 0.08632138 0.038014546 -0.072250694 0.07253253 0.26231217 0.067137 0.16259179 -0.058261383 -0.07384261 -0.15925807 0.094520114 -0.08882135 0.12328297 0.024942782 0.023920514 0.20720567 0.094120294 -0.0198826 -0.10410487 -0.15286583 0.08271353 0.24792886 0.06367366 0.006070388 0.111250155 0.03388644 0.085846774 -0.015308096 0.11916602 -0.007988821 -0.034603056 0.17647149 -0.031198056 -0.16842635 0.109425835 -0.07868225 0.019325247 -0.04818153 -0.017752988 -0.046424735 -0.07294145 -0.02542507 -0.059927214 0.006429975 0.025821941 -0.06337605 0.039248876 -0.116934694 -0.054317966 -0.02271953 -0.09491026 0.16687515 -0.0072254473 0.046614 0.15821229 0.012996547 0.05540322
देव 0.068115726 0.07160855 -0.17226933 0.062481787 -0.14605078 -0.18468893 -0.07385995 -0.12560935 0.0035115292 -0.020822788 -0.012892547 -0.14556386 -0.015403885 0.095237434 0.024861058 -0.22763133 -0.014697818 -0.0019927784 -0.0029424177 0.06660536 0.085697666 0.09480547 -0.04719179 -0.045691475 -0.024525676 0.0060323374 0.1842051 -0.0030225436 -0.12135364 0.0017889702 0.051191073 -0.07656207 0.059052296 0.04978197 0.17978464 0.05870321 -0.14403234 0.108814746 0.065711685 0.09326447 -0.02613936 -0.06775133 -0.05445351 0.16525856 0.03277008 -0.055810705 -0.05137856 0.2939288 0.03980386 0.15631175 0.01237391 0.11483148 -0.1198583 0.00062896387 -0.065503255 -0.0037782975 0.06420163 -0.010100486 0.19239819 0.033287227 0.06083483 -0.06405402 -0.05635408 0.016175646 0.22590345 0.027995449 0.01347092 0.116243914 -0.022259418 -0.06306355 0.0037824512 0.19217521 -0.041009285 -0.06917135 0.1609258 0.020940138 -0.19005261 0.06760278 -0.12360157 0.008739017 -0.14190146 -0.08731615 -0.042943824 -0.16947804 0.01127021 -0.137493 0.053955548 0.0525761 -0.055849437 0.040604714 -0.121560216 -0.033173475 0.017888162 -0.11701854 0.18653065 -0.014906861 0.046304777 0.06744105 -0.1465697 0.094596215
अत्र -0.18298912 0.07413486 -0.10572849 -0.052008487 -0.08514876 0.073099695 0.06266712 -0.010105392 -0.07669607 -0.06571807 -0.13775733 -0.043066096 0.08317433 -0.062039558 -0.004228554 -0.16254893 -0.010223135 -0.099155866 0.008497806 -0.08018977 0.1625184 0.11881067 -0.084594406 -0.1053663 -0.050071117 0.10392166 0.04530466 -0.06328539 0.022009885 0.11587087 0.066853575 0.15622327 0.058447383 0.094629146 0.13912506 0.020239195 0.009378711 -0.12412446 0.04718616 0.05397271 0.03929847 -0.20800656 0.05934796 0.14266942 0.18775862 -0.09942223 -0.18335785 0.19193278 -0.0049643684 0.14326327 0.042071305 -0.06371475 -0.08645255 0.22407004 -0.025423728 -0.06621573 0.10197591 0.0020901656 0.12500839 0.028405476 0.0629814 0.059755016 -0.046018854 0.08118093 -0.027022252 0.112456456 0.14143485 0.14601836 -0.11718185 -0.012064893 0.12776682 0.1542876 0.112377875 -0.042242065 0.0994432 0.053043637 -0.24813391 0.036444925 -0.029929435 -0.09639416 0.030248627 0.0029851026 -0.09262983 -0.09944435 0.06327037 0.064777546 0.09071013 0.11905657 -0.0053622243 -0.027970677 -0.113214605 0.14147821 -0.12705973 0.07473149 0.014436997 0.07582025 0.12971127 0.02573918 -0.083428495 -0.104807585
भवति -0.08065483 -0.13562727 -0.028208153 -0.0043534227 -0.05577676 0.07148664 -0.071409166 -0.07883155 0.032766838 -0.24926558 0.039403044 -0.0793038 -0.03891612 -0.06896062 0.028427618 -0.08669241 -0.1330872 0.05781478 0.066989735 -0.12831609 -0.036455832 0.23300245 0.084044546 -0.060923826 0.17116868 0.13997057 0.13954787 0.08711159 -0.03672756 -0.054543328 0.17405823 0.13532978 -0.035991788 -0.08122665 0.14834075 -0.07073579 -0.13335758 -0.05176401 0.022393672 0.006916615 -0.11597878 -0.09838203 0.059235707 0.058204662 0.026067168 -0.078594305 0.00934371 0.20012696 0.03970076 0.22458343 -0.023553615 -0.11553544 -0.11438574 0.2220729 -0.052204773 0.06699548 -0.0046802694 -0.0014929665 0.14308918 -0.037353173 0.009599653 -0.036464036 -0.005483301 0.0819685 -0.040669676 0.07657299 0.10376887 0.013457232 -0.05164043 0.09949627 0.02708884 0.042483505 0.046866115 -0.029291457 0.08534918 -0.06752982 -0.14474185 -0.07786862 0.027902948 -0.10646641 -0.0867959 0.054633383 -0.016048403 -0.20382906 0.07084495 -0.05374811 0.28582916 0.06310818 0.016737545 -0.035423085 -0.022194073 0.116620935 -0.16353086 -0.065357834 0.055614743 0.020895489 0.17656322 -0.029473959 -0.05303481 -0.1214519
तथा -0.014409093 -0.09447297 0.048814546 0.005231791 -0.06634666 0.0014745088 -0.046418954 -0.098304816 0.09776769 -0.069788404 -0.04508782 -0.052431606 -0.046905585 -0.02480763 -0.010968101 -0.1793233 -0.16147678 0.001780366 0.14686212 -0.074334 -0.077099636 0.23297107 0.03152491 -0.07368035 0.040497847 0.16643326 0.122270755 0.08720861 -0.042953122 -0.01995085 0.106041 0.0379536 -0.017706346 -0.10932218 0.09052124 -0.047384378 -0.17341794 0.09547432 0.004402178 0.17885815 -0.075239696 -0.021709003 0.12966208 0.026821697 0.14753188 -0.25936192 0.08441368 0.20491399 0.00818608 0.17374198 -0.11664687 -0.1459645 -0.15669292 0.099847645 -0.10417524 0.0693499 0.00011067475 -0.016279966 0.09723927 -0.015411173 0.02655231 -0.066227905 -0.07985204 0.06736359 0.049249467 0.07040836 0.116947375 0.09881715 0.076622315 0.10180258 -0.042588573 0.07268011 0.044908613 0.049641684 0.14531949 -0.12040606 -0.12818986 -0.041440215 0.04899732 -0.093813896 -0.13331708 0.012385214 -0.25032526 -0.18226993 0.08514421 -0.05326717 0.1263323 0.083468914 -0.10422255 -0.030789861 0.038878947 -0.042607885 -0.102069005 -0.14635001 0.03498985 0.044167455 0.09294503 0.005595112 -0.05041622 -0.0497305
सः -0.12241508 -0.07602469 0.11767932 -0.028194595 -0.037371233 -0.21525452 0.029567866 -0.07788148 -0.10587523 -0.20551372 0.10246834 -0.08820852 0.20632066 0.17887993 0.08983408 -0.015292313 0.038622797 0.0038297323 -0.062030282 0.089382544 -0.016701939 -0.19486494 -0.017794885 0.06601515 0.071160726 0.13008101 0.16447715 -0.085093945 -0.24590962 0.2166924 0.1050118 0.07506466 0.021355266 0.02389959 0.09488861 -0.049319826 0.045672484 -0.012287667 0.11099331 -0.058663033 -0.081819266 -0.063418 -0.021195719 0.03753175 0.20875742 0.11684356 -0.045478158 0.04582818 0.03215439 -0.01638309 -0.01824741 -0.1349085 0.04925663 0.08156755 -0.07573938 0.13634045 0.05059447 0.06398277 0.20594895 -0.0828172 0.045953743 0.11246238 0.030745031 -0.049133573 0.09530546 0.07861785 0.08523356 0.14682399 -0.07413106 0.054755673 0.15270272 0.0840418 0.17077516 0.067693286 0.09792683 0.047840092 0.035101634 0.05023678 -0.016809478 0.01895563 0.1246326 -0.08640638 -0.014153215 0.008610182 -0.086836755 0.094900064 0.017425904 0.067278534 0.024367249 0.0460146 0.0012374027 0.050407186 -0.19346447 0.02512762 0.09808721 0.051329415 0.17092244 -0.06756977 0.11187315 -0.08640519
अयम् 0.05618053 -0.026380103 0.07143149 -0.0768666 0.06714629 -0.23082106 -0.11989887 -0.029271707 0.08345254 0.03368575 0.0064918096 -0.04671521 -0.16121519 0.002398558 0.008871469 -0.11004782 -0.084736936 -0.11041147 0.009375155 0.14225161 -0.03281879 -0.0017799189 0.04584216 -0.08448581 -0.06334102 0.032967784 0.16867195 -0.11904778 0.11172331 -0.10473199 -0.0056101363 -0.17683794 0.107480966 -0.06849323 0.113780014 0.04050761 -0.02570573 0.22168617 -0.07170821 0.040225305 0.22636493 -0.023174055 0.035211433 -0.024900937 0.0051282546 -0.027734729 -0.043605182 0.24892865 0.06775752 0.015093345 0.14293459 -0.042256314 -0.08704643 0.003396686 -0.17734489 0.17663714 -0.0545025 -0.0976143 0.039051127 0.1752452 0.026885267 -0.014329603 -0.0074590826 -0.0056314683 0.19237186 0.02660684 0.15715489 0.12670453 0.061420716 -0.017833771 -0.020757368 0.07659591 0.0028385753 -0.036145817 0.17080781 0.042212453 -0.105589494 0.0764416 -0.19700684 -0.119333684 -0.007392895 -0.046456456 0.020413147 0.06570023 -0.1580174 0.04036013 -0.09783959 0.1074262 -0.14236791 0.105936386 -0.10237694 -0.017103618 -0.08789665 -0.059532333 0.06904592 0.06363292 0.13570662 0.046558112 0.17437425 0.05680404
इदम् -0.016216492 0.040910847 0.09242565 0.024574129 0.01506122 -0.10006279 0.03725482 0.057540797 0.08553439 0.006027 -0.07220665 -0.19623284 -0.1469042 0.09397462 0.111897856 -0.13453358 0.078324296 -0.09035051 -0.0067662736 0.14060986 0.016376508 -0.033784073 0.077096455 0.047152326 -0.19022149 -0.05621939 0.10495319 -0.13219802 0.010383001 -0.057237502 0.05031352 -0.087330006 0.022517867 -0.03536051 0.11967818 0.04904027 0.07810472 0.089729756 0.0031477737 0.18072689 0.19373292 -0.04953905 0.1468176 0.052225757 0.14903262 -0.08075353 -0.06812857 0.15810858 0.062676445 -0.0543141 0.06988684 -0.0107488725 -0.09516381 -0.015858231 -0.20944749 0.059163872 0.01965692 -0.038314875 0.050122567 0.028630983 0.13689706 0.017915037 -0.036684252 -0.14832655 0.12838295 0.057867493 0.14941788 0.16635036 -0.0069952286 -0.045835402 0.0279684 0.118367486 0.1304468 0.121789806 0.22382921 0.006244502 -0.11242569 0.022190647 -0.209515 -0.09455637 -0.024958832 -0.10262184 -0.11089544 -0.060716823 -0.12237859 0.10598071 -0.10781215 0.10735921 -0.21512039 0.031908713 -0.05833836 -0.09571749 -0.052357133 -0.023778966 0.047979522 0.15269421 0.09361055 -0.13930507 0.041315645 0.053083543
कथम् -0.07395312 0.06359963 -0.017601833 0.026616346 -0.11574787 -0.18324469 0.018175783 -0.063631095 -0.075380795 -0.025253307 -0.02526723 -0.16975172 -0.010820261 0.043540835 0.064017445 -0.14236313 0.08443491 -0.032180373 0.014936738 0.06447919 0.08295683 -0.0015333445 0.019464971 0.0024152678 -0.19556622 -0.008262451 0.09527201 0.017202003 -0.09300763 -0.03647375 0.07534636 0.0039226823 0.049199298 -0.027654007 0.22904992 0.066529095 -0.10233449 0.06782185 0.11651328 0.042500407 0.04151315 -0.28543094 0.04322514 0.059298966 0.110867076 -0.11306243 -0.009287051 0.25601402 -0.015200585 0.014683349 0.123754784 0.007746556 -0.22548139 0.07224569 -0.114043646 0.04053257 0.16184254 -0.0826375 0.15163217 0.02926434 -0.001385249 -0.06745727 -0.15196523 -0.088224865 0.1848747 0.03246943 0.007370236 0.15997417 -0.05895243 -0.023361433 0.0036158117 0.20545006 0.07058149 -0.028271316 0.0915492 0.05721637 -0.20645949 0.07878909 -0.12323214 -0.0017998324 0.018228253 0.0076973145 0.007035869 -0.14006382 -0.07259684 -0.018016724 -0.2000064 0.09635795 -0.10159896 0.036851767 -0.09745255 -0.061814886 0.028087566 -0.09688009 0.124779254 0.06789577 0.049869157 0.034974974 -0.13401009 0.059969086
एव -0.029328596 0.020679973 -0.06805583 -0.06897757 0.023506714 -0.08917436 0.033906642 -0.026215728 0.13013354 0.015432168 -0.064550094 -0.08229244 -0.10333339 0.03658413 0.06718261 -0.159009 0.0056963842 -0.1110738 -0.026231058 0.097368024 0.06915702 0.09293165 0.032073118 0.008104489 -0.035748806 -0.10660148 0.10608504 -0.23253605 0.035486672 -0.01915469 0.12977314 -0.113920316 0.046642464 0.045077506 0.005082191 0.052786123 0.09494858 0.105362125 0.020764874 0.09209169 0.22953759 0.12148349 0.1405599 0.14508769 0.1599982 0.059639663 -0.13901886 0.13200907 0.006645181 -0.007915444 0.029123675 0.095816754 -0.00052060565 -0.116195604 -0.201791 -0.020874841 -0.108714975 -0.018008623 0.07598177 0.11139966 0.106601 0.08686373 0.059062805 0.0865668 0.07117056 0.06442359 0.128795 0.12845519 -0.018712236 -0.079045966 0.024166126 0.06324896 0.10175572 0.1351587 0.12163874 0.13585843 -0.030285224 0.008763492 -0.2520006 -0.074367575 -0.030095896 -0.19143713 -0.08310981 0.0563668 -0.09027648 0.020875491 0.107235864 0.14982107 -0.10012832 0.07923817 0.015636604 -0.014391116 -0.22769758 0.13126716 0.031054782 0.1973257 0.021416187 -0.0026144516 0.1281954 -0.0957752
ततो 0.11300199 -0.0392491 -0.0016256737 0.0007690751 -0.033386342 -0.04712004 -0.080425605 -0.16158819 0.15355976 -0.0018798938 -0.104813084 -0.0735401 -0.07759294 0.07191966 0.03584199 -0.21014854 -0.086192995 0.025716126 0.13798253 -0.072115265 -0.065640576 0.17743218 0.009840076 -0.043393448 -0.0026551497 0.13581453 0.0915953 0.08422103 -0.035839602 0.00642338 0.02136005 -0.056915987 -0.03906311 -0.07613743 0.07320168 -0.00523406 -0.13372819 0.14954291 -0.021287475 0.23602687 -0.017806087 0.054546375 0.114990525 0.041424226 0.09690313 -0.20740306 0.11333128 0.18665344 0.082841165 0.16743466 -0.134102 -0.08357354 -0.10987074 0.01859887 -0.12875971 0.030968565 -0.06381959 0.023535188 0.12485985 -0.017923623 0.096290596 -0.11682053 -0.1011269 0.011085999 0.12582274 0.019606438 0.061656777 0.09801035 0.072419494 0.0860801 -0.08301772 0.04508986 0.06304011 0.09601591 0.16386588 -0.117582925 -0.05278395 0.029785136 0.04690325 -0.06336512 -0.20198624 -0.06553475 -0.28396738 -0.16415265 0.08857402 -0.006682879 0.11387893 0.017883934 -0.10702969 -0.039944977 0.021049386 -0.060955204 -0.086554706 -0.19464263 0.068697825 0.01411247 0.10156381 -0.038420912 -0.02211347 -0.06654942
अर्थाः 0.011493201 -0.040003378 -0.006831575 -0.074745804 -0.03503412 0.028838381 0.02265086 -0.037082024 0.13068826 -0.065031216 -0.059401546 -0.04469348 -0.057339333 -0.034354713 0.120947935 -0.14664651 -0.10315679 -0.043263216 0.10504754 0.044190783 -0.020341232 0.23622012 -0.09600838 0.0020376665 0.16618462 0.20753102 0.13995835 -0.073725924 -0.081003174 0.012519805 0.11482129 -0.05759527 -0.050713055 -0.028092492 0.059877265 -0.05294359 0.015560689 0.04404712 0.081811324 0.00094776717 0.009646674 0.11662181 0.034899548 0.15768072 0.17040348 0.07846633 -0.061643366 0.035928845 0.13799173 0.29986063 -0.0872851 -0.059180558 -0.06321227 -0.012398532 -0.1485079 0.00148952 -0.03785716 0.18787055 0.10139466 -0.0017989542 0.09453007 0.049068578 0.008111675 0.07635476 0.076294154 0.040755756 0.07360436 -0.00765153 0.08065575 0.05491575 0.11014821 -0.022501249 0.097062275 0.14569877 0.15094388 -0.11161966 0.02178254 -0.02609759 0.007542238 -0.09464178 0.03272064 -0.037462343 -0.05073918 -0.0982379 0.08169648 0.022220027 0.33222875 0.076124005 0.04135013 0.054448288 -0.0423546 0.14591484 -0.16110787 0.14484704 0.01572255 0.12494491 0.14690372 -0.12782611 0.075457186 -0.1370231
भवान् 0.0023009344 -0.03642217 -0.10634868 -0.024166677 -0.13652168 -0.28137228 -0.061860796 -0.26028988 0.03443535 0.023486035 0.08997428 -0.18448694 0.10856646 0.16890906 0.053182933 -0.21833885 0.07768183 0.030653808 0.031893294 0.0038285954 -0.0086021125 0.0071725813 0.019528348 -0.08884516 -0.13668352 0.056200117 0.035897322 0.0803883 -0.12427506 0.13246794 0.0016561587 -0.007140654 0.024140732 0.037542373 0.17046477 0.10142356 -0.095208205 0.09195701 0.13211603 0.02352884 -0.102495536 -0.16114646 -0.04038865 0.092783615 0.012110115 0.036116436 0.0725904 0.21417652 -0.021315675 -0.02258126 0.013648067 0.0008593657 0.0044604917 0.049419954 0.015944647 0.08342492 0.05195604 -0.08914406 0.17659566 0.0042674057 -0.007902691 -0.10473602 -0.049061123 0.07500998 0.12767848 0.06561971 -0.016847912 0.15949601 -0.12662263 -0.0047453255 0.052979693 0.09109058 0.018042918 -0.19820607 0.05391679 0.101823606 -0.10451183 0.069045514 -0.10860805 0.10403881 -0.14923489 -0.1619473 -0.0734283 -0.1561656 0.014557358 -0.09587896 -0.011374466 -0.0480354 0.04242733 0.018655626 -0.019708382 -0.077338815 -0.095775045 -0.14921843 0.19935936 -0.02177539 0.11428464 0.012825159 -0.08021245 -0.03321862
वरम् -0.16427647 -0.04452551 -0.01402659 -0.10379624 -0.011068148 -0.10408972 -0.06857762 0.03819412 0.15971819 -0.022722505 -0.08381175 -0.16514775 -0.100205764 0.09972678 0.020068964 -0.12997301 -0.030470729 0.0042297086 -0.037076578 0.04836886 0.0023151317 0.08333235 0.07560324 -0.04166949 -0.052648257 -0.0024730153 0.16938813 -0.04772238 0.062430535 -0.12334433 0.04693619 -0.06304795 0.06830544 0.0041664112 0.028598398 -0.06782714 -0.04505413 0.18774028 -0.019502928 0.16178256 0.18485951 -0.050490748 0.16165324 0.1334504 -0.014357261 -0.08533162 -0.040473133 0.23164725 0.10855274 -0.011297475 0.0008984354 0.13419557 -0.04454341 0.06911092 -0.26898965 -0.06429919 -0.099091016 0.017608171 0.10511298 0.07664668 0.021427505 0.04907404 -0.008068138 -0.08455087 0.14008889 0.051322833 0.23684116 0.05244321 -0.078226656 0.056612615 0.004682733 0.07324982 0.0011458201 0.0034310652 0.13038136 0.09100439 -0.09440637 0.08772735 -0.17813243 -0.09100417 -0.11127956 -0.019191278 -0.005993497 -0.07297216 -0.068526335 0.07071422 0.04149947 0.016412262 -0.21477333 -0.00082067394 -0.11085475 -0.04328254 -0.2376356 -0.10279374 0.006653404 0.12394302 0.072142504 -0.00750005 0.15972675 -0.13605732
राजा -0.12107154 -0.027809868 0.08252873 0.005676328 -0.08141035 -0.18019456 0.07174773 -0.0002758112 -0.12032381 -0.0979352 0.05764565 -0.12677932 0.1900408 0.105219476 0.11654798 -0.10022564 0.1148362 -0.054637372 -0.09501466 0.10795778 0.07501086 -0.201328 0.055350553 0.10355521 -0.02360423 0.10318349 0.11503997 -0.06830717 -0.25107202 0.24440563 0.09491262 0.030643122 0.0067562335 0.014434846 0.16675694 0.019354202 0.08237854 -0.05533485 0.16226962 -0.044417523 -0.122909844 -0.08231475 -0.048228066 0.09412166 0.2080971 0.089535005 -0.101185195 0.025475347 -0.03195911 -0.062063634 -0.0012584516 -0.11725803 0.050457805 0.008386195 -0.039859 0.0913473 0.113316655 -0.08060112 0.17048614 -0.12946276 0.024437217 0.098923765 0.034209657 -0.059442475 0.023922065 0.07648405 0.079097554 0.22774236 -0.0936741 0.0073582293 0.1904228 0.056559894 0.16819875 0.0456915 0.05883539 0.06740358 0.013560277 -0.014865132 -0.07816035 0.002371086 0.014200567 -0.15047139 -0.035643373 -0.08009438 -0.062567055 0.005515788 0.009345038 0.10702041 0.03411174 0.030317377 0.03240886 0.011321748 -0.10340788 0.07416925 0.11618823 0.13517883 0.12341993 -0.13002121 -0.0059351525 0.011505398
उक्तं -0.1496749 0.036092173 -0.066471286 -0.07589234 -0.15715013 -0.067541085 0.092080295 0.020307796 0.11446227 -0.037112124 -0.10906483 -0.10960202 -0.029643614 -0.029916 0.06383893 -0.21424112 -0.02357595 -0.09573603 -0.04484132 0.036077823 0.09564793 0.15209763 -0.026805498 -0.04297438 -0.03647851 0.03020439 0.040352516 -0.13922648 0.0033130206 -0.044571124 0.1604293 -0.044163197 0.0900376 0.11138451 0.13935383 -0.007512627 -0.00036094105 0.10115487 0.114051506 0.11649288 0.1664607 -0.058824617 0.20650819 0.21091834 0.19148888 -0.06731148 -0.10684819 0.25749227 0.011069296 0.032088123 -0.026880829 0.1461563 -0.04999267 0.0551138 -0.14849417 0.001023207 0.057218123 0.041798115 0.15830208 0.09055288 -0.02565655 0.076779164 -0.033785675 0.02630164 0.006505786 0.076485075 0.11393337 0.10951929 -0.03656178 -0.04386406 0.054116853 0.088080905 0.10743408 0.019837521 0.13241439 0.16142623 -0.1458826 0.025179766 -0.10363782 -0.059929684 -0.024579963 -0.04089031 -0.083771475 -0.05375754 0.013222666 0.029828098 0.116026804 0.11701872 -0.046880085 0.06953994 -0.048964597 0.039253023 -0.23223104 0.11575975 -0.03270708 0.20573777 0.030048234 0.030940905 0.0039626327 -0.15788415
मया 0.056640204 -0.028622156 -0.032673813 -0.14861031 -0.09153489 -0.07469817 -0.094493344 0.025405077 0.21115151 -0.105209894 0.003470257 -0.13457596 -0.11365471 0.10524684 0.099819995 -0.16907524 0.037962746 0.05044862 -0.037051216 0.009975001 -0.006138778 0.03611787 0.22673708 0.029574588 -0.019193392 0.0400338 0.18541801 0.086796954 0.006355325 0.03796517 0.06985793 -0.13661346 -0.06539605 -0.08665442 0.15317117 0.08572554 -0.0837135 -0.034181893 -0.024059853 0.14966874 -0.0629359 0.041601896 0.07512773 0.080172315 -0.07998439 -0.018488076 -0.027172897 0.08288385 0.12661974 0.06531257 -0.056556817 0.08931854 0.05077036 -0.055160187 -0.16205877 -0.044118807 -0.022631638 0.04719293 0.18167925 -0.11440946 0.16519988 -0.06351644 0.059155326 -0.009376649 0.06727522 0.05024411 0.11393756 0.02293328 -0.08352236 -0.024276426 -0.053604636 -0.09500028 0.0028069515 -0.059229497 0.117774725 -0.055936 0.025109136 0.039958492 -0.11504438 -0.059990883 -0.2615291 -0.13215707 -0.100554414 -0.21633951 0.045008063 -0.107796654 0.1699491 -0.058371127 -0.100544155 4.473048e-06 -0.087508336 -0.011875437 -0.19432889 -0.14839509 0.048545588 0.07052965 0.24233975 -0.12589228 -0.0011358112 -0.046266455
गत्वा 0.029542487 -0.09570637 0.15862416 -0.08273067 0.04323484 -0.20105286 -0.122988544 0.0065188287 -0.035794325 -0.07693 0.090571165 -0.05253355 0.03852966 0.06008597 0.08414554 -0.08173154 0.08033903 -0.007694723 -0.042477246 0.13827844 -0.050856408 -0.19107217 0.08569869 0.11976285 0.0152107 0.103335194 0.22683917 -0.119441435 -0.18586282 0.18182111 -0.046863127 -0.1300822 -0.015024978 -0.12503915 0.135872 0.034696102 0.026094561 0.035397064 0.025717052 0.04393306 0.025723107 0.008578797 -0.09070297 -0.051742487 0.07708042 0.08919469 -0.018918652 -0.022498647 0.026071388 -0.06748088 0.088315964 -0.12256769 0.016437247 -0.0957372 -0.17799056 0.11698077 0.03657571 -0.0841989 0.17416562 -0.118492045 0.13134721 -0.019533865 0.048796773 -0.1533044 0.15256779 0.05963965 0.11478705 0.20441742 0.0337522 0.03021036 0.0899401 0.026138205 0.1762923 0.14358106 0.10035177 -0.021225177 0.15078361 0.031929776 -0.08319617 -0.08551919 -0.077421874 -0.08638185 -0.101545 -0.035712793 -0.15276557 -0.011930696 -0.017232724 0.10572101 -0.06608409 0.08352834 0.023898562 -0.011134956 -0.083838396 -0.001723257 0.13250425 0.008088578 0.17605196 -0.14164266 0.12732045 0.09745834
एतत् -0.18379664 0.07538442 0.025641423 0.043019213 -0.006803406 -0.22005777 0.032445047 0.023752611 -0.21466634 0.017705912 0.0059373677 -0.04972681 0.08795773 0.1716302 0.091485284 -0.045697305 0.039198734 -0.10168902 0.04755589 0.16218069 0.116828784 -0.16162828 -0.06421489 -0.019115372 -0.13344705 0.13176653 0.036993828 -0.06980325 -0.11212914 0.11424931 -0.0026772153 0.013148742 0.10947541 0.10386316 0.0803038 0.06893185 0.06423871 0.13317713 0.08292725 -0.046792082 0.04908348 -0.19190547 -0.02778363 0.09118443 0.14613344 0.009268515 -0.10494902 0.14659242 0.07381784 0.067488305 0.11744192 -0.17031641 -0.06523553 0.042369936 -0.023088364 0.07348074 0.10203113 0.039901607 0.08053693 0.1044557 -0.0036532243 0.04069486 -0.11617409 0.014938217 0.17685252 -0.024031665 0.10017513 0.16721873 -0.010209548 0.015571594 0.10755562 0.17843378 0.001183503 -0.04208638 0.15061247 -0.010228317 -0.21733804 0.1377432 -0.13423476 0.052319087 0.11217622 -0.031011643 0.08456123 -0.0019400478 -0.13031098 0.12607917 -0.1656942 0.08810758 -0.039516043 0.005055411 -0.14922237 0.00054663606 0.060837995 -0.008810297 0.12983312 0.10691393 0.09694563 -0.0068977843 0.0022709349 0.058486883
असौ 0.0161295 -0.06568771 -0.004454246 -0.043763574 -0.09317456 -0.25692284 0.008260137 -0.20098327 -0.04669784 -0.029223686 0.12847379 -0.09335221 0.05843751 0.004822582 0.052658442 -0.20297596 0.007265622 -0.084961765 0.06933865 0.04506301 -0.029694228 -0.06427235 0.07356547 -0.048009217 -0.11138706 0.045884907 0.007848144 -0.026290212 -0.11111533 0.14459923 0.11230359 -0.011438741 0.02655948 0.0011352465 0.2226713 0.17682771 -0.035107803 0.0141183 0.16576444 -0.06376078 -0.0062590963 -0.12797305 -0.024297565 0.010374358 0.19256112 0.050426055 -0.003786303 0.16087474 -0.12549913 -0.050795417 0.1237692 -0.14251934 -0.013185283 -0.008379076 0.01069022 0.26680133 0.14924714 -0.12141748 0.15136807 0.006623563 0.001751547 -0.01876686 -0.050049365 0.16484442 0.016476972 0.039138436 -0.011350085 0.2662353 -0.03153445 -0.091330945 0.08479333 0.045389093 0.12189868 -0.060924932 0.029919688 0.099850304 -0.05499055 -0.012621643 -0.12048526 0.05685736 -0.030633988 -0.16570505 -0.09536031 -0.011157389 -0.041668534 -0.09934231 -0.03071631 0.11278534 0.08647699 0.08915266 0.06240157 -0.009809327 -0.1276778 0.0032733525 0.1853432 0.065733396 0.12362948 0.012088606 -0.08369099 0.020155115
तस्मात् -0.07298676 0.10292538 -0.0072745336 -0.03931308 -0.054503415 -0.25622827 -0.03605259 -0.0051099225 -0.15947971 -0.024693139 0.054461055 -0.01060113 0.059152123 0.19304894 0.097610235 -0.07041831 -0.01880058 -0.07978967 0.098085 0.17936638 0.08171662 -0.10825917 -0.07292994 -0.03667041 -0.01809779 0.19961365 0.10819841 -0.041872837 -0.07316493 0.12798773 0.020119552 -0.05195721 0.07942612 0.037114907 0.106733456 0.06684779 -0.039690543 0.121116586 0.08227125 -0.081097715 0.00054355187 -0.13513246 -0.09979214 0.09451158 0.023192478 0.085126355 -0.096679196 0.091482356 0.14265364 0.19834946 0.11361534 -0.16834787 -0.05834023 -0.031128442 -0.003994801 0.08972694 0.08812783 0.11031331 0.114907034 0.08176394 0.04253758 -0.04593424 -0.07016964 0.08818291 0.2167821 -0.04146363 0.04707769 0.101142526 0.0265032 0.01988039 0.036410186 0.10074305 -0.061820067 -0.14047602 0.19116598 -0.10414501 -0.18449715 0.16264042 -0.14529595 0.019703433 0.050596602 -0.043846596 0.1280119 -0.07011223 -0.09752991 0.013362497 -0.059567038 0.05524771 -0.08195678 0.014611355 -0.20180798 0.06028413 0.07374336 -0.076940686 0.15140046 0.025326278 0.17708929 0.007039491 0.0038391831 0.06413958
तम् 0.11037506 -0.033159655 0.12508798 -0.023549182 0.03728013 -0.18187852 -0.115129486 0.011786537 0.13620307 -0.029182501 0.0017320763 -0.19548205 -0.11774835 0.067659356 0.08717046 -0.06863063 0.06329497 0.015211726 -0.035087075 0.13480772 -0.031135594 -0.12941402 0.21869525 0.06316862 -0.10649239 0.028542211 0.23947696 0.034702066 -0.043035116 -0.057989206 -0.049378667 -0.1475056 -0.021349588 -0.19006985 0.1736513 0.011194337 -0.05871834 0.10308989 -0.06867539 0.07829218 0.007528983 -0.028905278 0.008318374 -0.103204235 -0.050862193 -0.028282838 -0.007303068 0.10138832 0.075074956 -0.03227067 0.092147835 -0.020121288 -0.008477274 0.00031078886 -0.18258688 0.10749926 -0.0127711985 -0.13538763 0.068517454 -0.039609153 0.12114805 -0.09557436 -0.005544326 -0.21788321 0.1974663 0.05140516 0.10778581 0.07994503 -0.010009662 -0.0027371242 -0.024527133 0.03641644 0.023098737 -0.029341996 0.14709176 -0.043450244 0.014784123 0.072453514 -0.14841007 -0.13164262 -0.110556886 -0.112472974 0.016405912 -0.13351765 -0.12184616 -0.0028869794 -0.17364085 0.0056624534 -0.1565929 0.06623846 -0.052559465 -0.07470351 -0.015528986 -0.18944155 0.06275973 0.025843767 0.19523935 -0.105071 0.09877227 0.10453347
पिङ्गलकः 0.06733461 -0.049659207 0.12804715 -0.044670254 0.058163907 -0.20185097 -0.019316988 -0.1792027 -0.06309414 -0.02743568 0.03463804 -0.0389176 0.06101717 0.056381207 0.066218436 -0.00075220776 -0.03328428 -0.07303075 0.123090744 0.10652778 -0.024876853 -0.10675506 -0.03117485 -0.03246592 0.020670831 0.08007942 0.18304528 -0.1258158 -0.15619817 0.118164994 -0.038835905 0.019237863 -0.011932791 -0.085849844 0.07629278 0.04202262 0.060080256 0.06956249 0.0381873 -0.11495679 0.19505931 -0.08428512 -0.14013533 -0.06636892 0.2041727 0.169929 -0.008539403 0.081509896 -0.061043933 0.030287541 0.17158669 -0.20684487 -0.0971019 0.097835325 -0.025896063 0.2276885 0.034880806 -0.06890395 0.095235266 0.07838658 0.056436516 0.0066286605 -0.07309329 -0.008104543 0.15954912 0.11330351 0.080527246 0.16827977 0.07016836 -0.00989996 0.12821732 0.1138533 0.15068674 0.07360979 0.12193928 0.076115966 0.009307544 0.038485516 -0.10530238 -0.04252831 0.12936947 -0.12483759 0.027794037 0.06206459 -0.113707595 0.07333494 -0.13940603 0.17371589 -0.022515792 0.0811954 0.0070029027 0.11288614 -0.109927855 0.024865411 0.13688669 0.020756818 0.09586763 0.027147414 0.18714911 0.024810715
यत् -0.07059568 0.13083331 -0.04267023 -0.07764666 -0.120099604 -0.21368456 0.033758868 0.06570327 -0.08000044 -0.017800374 -0.0138007095 0.015910901 0.010175079 0.17301682 0.09159782 -0.043798555 -0.030895429 -0.1006665 0.06939059 0.15953816 0.12773348 -0.03233505 -0.120719485 -0.0535563 0.0067076404 0.19026639 0.09777884 -0.10513899 -0.009823209 0.058259327 0.009594369 -0.10946567 0.084006235 0.06347116 0.06547529 0.007152921 -0.036147434 0.23017468 0.08534261 -0.034192123 0.06775657 -0.057554167 -0.0058333203 0.17466493 0.002986251 0.066512235 -0.1177183 0.137265 0.22435176 0.2093943 0.026053803 -0.0669232 -0.061312724 -0.021975363 -0.055758458 0.024784274 0.02471434 0.18024513 0.10356123 0.136921 -0.0036820867 0.006888455 -0.030918786 0.069980405 0.19721851 0.0025597995 0.03943825 0.03212252 0.04817553 0.0089663835 -0.01124756 0.08591274 -0.06735621 -0.09201967 0.23277986 -0.054405507 -0.20135786 0.20167454 -0.16453041 0.048186462 0.043016277 0.0054427 0.15375637 -0.030467553 -0.08406572 0.03495309 0.0064703375 0.04595464 -0.11870096 -0.0039300933 -0.21862757 0.04672687 0.043291938 -0.020632595 0.107954115 0.091224924 0.096119344 0.059589252 0.10335865 0.00043714285
दमनकः -0.04531411 -0.021460006 0.17964318 0.02997264 0.0029741097 -0.16031319 0.028222432 -0.08296656 -0.09430046 -0.18786043 0.057699446 -0.13361678 0.068992876 0.08833912 0.12273186 0.0016483484 0.054766722 -0.066576 0.06236348 0.087700844 -0.012374916 -0.16313034 0.07816779 0.031034673 -0.015949918 0.0035512748 0.117619306 -0.12702565 -0.15474528 0.095278196 0.088420525 0.08296498 -0.00022082301 -0.061825097 0.14937712 -0.0065242234 0.026491027 -0.02218908 0.071542345 -0.084250584 0.071846105 -0.15563674 -0.018124733 -0.06794489 0.2770294 0.08023837 -0.03160604 0.11058598 -0.048840117 -0.038052097 0.1279922 -0.16514866 -0.1137271 0.119834706 -0.06488621 0.22677542 0.104970664 -0.022312224 0.14632228 0.0040739956 0.06986691 0.0256359 -0.06480715 -0.08694974 0.111539066 0.1183636 0.08547613 0.16760851 -0.01799468 -0.03393818 0.07612653 0.15583153 0.19074407 0.1061616 0.10303942 0.08908452 -0.066335194 0.023206787 -0.07008883 -0.01607907 0.16659446 -0.07923908 -0.006470162 0.015140361 -0.12810807 0.12098077 -0.17463681 0.17583387 -0.062303297 0.08271872 -0.014854011 0.043252703 -0.08369627 0.0011693091 0.12191877 0.067029886 0.11905273 -0.028902655 0.073799066 0.0013908223
सर्व 0.05822956 -0.0010114292 0.08504378 -0.043027543 0.07513851 -0.1890112 -0.07677177 -0.013698237 -0.056334455 -0.030863537 0.021518415 -0.009037921 -0.04418164 0.070608355 0.060129836 0.005250429 0.003954848 -0.032300293 0.073889896 0.16573603 0.0043689115 -0.09387454 0.005842345 0.026113795 0.04511292 0.068051316 0.2368641 -0.20636769 -0.11366743 0.048245084 -0.07600416 -0.11118133 -0.012930001 -0.078819685 0.037053257 0.014817333 0.08047495 0.20639165 0.015135504 -0.026672222 0.258782 -0.03578381 -0.12758544 0.002320538 0.076615155 0.1639 0.015162458 0.05893257 0.066795334 0.06702983 0.1589542 -0.06655435 -0.11932162 -0.010155114 -0.1285333 0.09903777 -0.010324213 -0.013582679 0.13727444 0.09600632 0.05880228 -0.016495006 -0.06056076 -0.09945753 0.2535994 0.08235456 0.10564547 0.13240601 0.12106163 0.017150743 0.08028868 0.10686756 0.079784326 0.14918016 0.17886889 0.033833414 0.016502077 0.12178774 -0.20215964 -0.06475609 0.035084773 -0.07438798 0.035335157 0.058118343 -0.19054107 0.09925862 -0.06815253 0.13943885 -0.10908076 0.07799338 -0.05729462 0.05487564 -0.054667063 -0.0014419934 0.14514552 0.04133589 0.044681594 0.007954887 0.21831733 0.051899705
लोके -0.1248978 -0.15470093 0.054591637 -0.13504812 -0.009470208 0.019799383 0.027753454 0.061713006 0.16242254 -0.1235707 0.081260316 0.0031377538 -0.07413214 -0.06043914 0.13383241 -0.17997031 -0.022141105 -0.07191216 0.04256154 0.002571378 0.04788324 0.13820489 0.03778609 -0.0114413295 0.053176988 0.15219925 0.12543847 -0.06989689 0.06068811 -0.01877292 0.17435344 -0.09408033 0.043059237 0.01934791 0.08669671 0.044937305 0.10326439 -0.016527422 0.05546678 0.05267823 -0.008076856 0.09679048 0.1165038 0.07333491 0.1367889 -0.021532347 -0.12905939 0.080350354 0.09085928 0.14841597 0.024565488 -0.083132066 0.0040234025 0.0062150327 -0.1419913 0.070050515 0.038957275 0.06579362 0.048300307 0.0051486315 0.050748568 0.10140835 0.12085855 0.112952694 -0.057792194 0.07434711 0.16065201 0.10762278 -0.035416 0.013794357 0.12559631 -0.045019235 0.10274405 0.024567103 0.15594912 -0.09228498 -0.0047939424 -0.06483009 -0.02835245 -0.10883643 -0.019509846 -0.049881257 -0.09805814 -0.032872446 0.02936592 0.077839226 0.3174851 0.032263633 0.0740363 0.059583265 -0.00031620584 0.09976241 -0.2565533 0.13159123 -0.035863355 0.20739463 0.22989622 -0.15292774 0.020892784 -0.15419656
यस्या -0.076409996 -0.08432681 -0.02863753 -0.1330602 -0.03858667 -0.02379153 -0.019025607 -0.020213028 0.1666259 -0.12467378 0.015779499 -0.07379027 -0.045304596 -0.014555167 0.11752543 -0.18345293 -0.072726354 -0.038780764 0.030784475 0.020494023 0.011042153 0.19019727 0.04952595 -0.021099571 0.1482269 0.15362607 0.14940476 -0.06841637 -0.0047101746 0.030892473 0.15971859 -0.06668319 0.00092928536 -0.0043764072 0.094647184 -0.013215896 0.007974528 0.020796869 0.06510713 -0.018188678 -0.030653838 0.09629032 0.0644979 0.15563752 0.10689679 0.08957588 -0.11147851 0.07322925 0.110357136 0.19739078 -0.050956246 -0.018630167 0.04568702 0.005636599 -0.1573662 0.0044942945 -0.058900755 0.114519835 0.13502246 -0.0057869004 0.07633448 0.07736726 0.0935143 0.11652804 0.03024602 0.05936222 0.15344094 0.037928805 -0.03134602 0.025183698 0.098432064 -0.055746835 0.05930553 0.023934515 0.09253 -0.026175732 0.029007414 -0.024820993 -0.065123804 -0.078761354 -0.06305065 -0.09686709 -0.05408941 -0.09857699 0.06954278 0.001172794 0.35996136 0.032256976 0.0554918 0.064591415 -0.03980157 0.11943239 -0.2786623 0.09002324 0.029442511 0.16630358 0.22549738 -0.114053056 0.08692047 -0.19172071
यदि 0.0033429612 0.017129686 -0.20279877 -0.042032257 -0.06288621 -0.12842998 -0.103600666 -0.2326341 0.058344062 -0.077376775 0.023170987 -0.17605387 0.1388703 0.16268662 0.029141873 -0.06780652 0.010484924 0.120066695 -0.0009292798 -0.0831881 0.036535624 0.013616488 0.022364434 -0.11085671 -0.007608845 0.06717004 0.13441314 0.11503603 -0.09351575 0.14825362 -0.048887573 0.10980101 -0.018487027 0.048138186 0.09522855 0.06469823 -0.1272376 0.017211488 0.018209495 -0.04084289 -0.09707428 -0.113468595 -0.085959926 0.07643403 -0.118040524 0.13298875 0.031525142 0.16749811 0.038482167 0.08374044 -0.0073301285 0.03585984 0.043041445 0.15179041 0.0334613 -0.04630331 -0.050515763 -0.023555918 0.20741439 0.00032207303 0.019027159 -0.087734744 -0.008513349 0.056775685 0.12642007 0.069658056 0.032148305 0.018650092 -0.18284737 0.057834927 0.075274706 0.09154763 -0.019344311 -0.23118806 0.03952366 0.09443867 -0.09302681 0.10964892 -0.06121046 0.037665512 -0.15441167 -0.13491094 0.051068448 -0.20983541 0.046090003 -0.044591963 0.08663511 -0.13228792 0.088561356 -0.074903175 -0.10089025 0.057234757 -0.15151969 -0.17554666 0.14471424 -0.07512865 0.1847086 0.053021714 0.031389195 -0.10168883
तावत् -0.03349564 0.0016758251 -0.050534014 -0.06679699 0.030929368 -0.2153881 -0.061270982 -0.08389177 -0.04004141 -0.0034567167 0.05027587 0.029388007 -0.031481426 0.025542364 0.05461504 -0.09091611 -0.14040908 -0.13629352 0.07106503 0.14021009 0.041067593 0.059352744 -0.07454439 -0.11416493 0.07863939 0.14441508 0.07292384 -0.20227878 0.05029974 0.016845537 0.043648247 -0.11284963 0.12090362 0.074682936 0.061036926 0.016678413 0.014251391 0.26110238 0.022223834 -0.113852724 0.13175991 0.051146418 -0.019372981 0.100081615 0.056499507 0.14072198 -0.122186325 0.21813238 0.11370597 0.16345169 0.11302535 -0.09763771 -0.013766699 -0.026091054 -0.07260311 0.12318044 -0.08548184 0.0649373 0.06625428 0.22989422 -0.015334659 0.056397196 0.0071401037 0.18878695 0.16097735 -0.0102748815 0.10409479 0.09035299 0.089699864 0.008461313 0.06654818 0.07972239 -0.022022236 -0.062420517 0.15773053 0.012818327 -0.105488546 0.07497616 -0.18319507 -0.011482975 0.052324988 -0.042363912 0.057883516 0.10295522 -0.11752343 0.040846 0.09406425 0.10771374 0.027072338 0.08925733 -0.086006485 0.06163749 -0.0924061 0.068993405 0.1275835 0.1087254 0.13262396 0.08168054 0.2034964 -0.008898912
तेन -0.0030326531 0.013095798 -0.0080839945 -0.03574548 0.07294092 -0.08872767 -0.16655819 -0.07126728 0.024316082 -0.17797807 0.049517374 -0.14390072 0.13393243 0.13012142 -0.0175115 0.04619857 0.0277066 0.10573758 -0.03922803 0.02093189 0.017367939 -0.07791299 0.12471211 0.010468549 0.09411565 0.134423 0.21479703 -0.05074804 -0.04352344 0.1385369 -0.09576652 0.07497242 -0.08512334 -0.10757172 0.10474785 0.0013145839 -0.082190186 0.043728977 -0.12100455 0.010703151 -0.035864297 -0.09737978 -0.16246586 -0.055615533 -0.10413559 0.085539654 -0.033406224 0.064552374 0.075101376 0.0114694135 0.096677594 -0.11954971 0.061931543 0.1959458 -0.055282906 0.035085376 -0.014548712 -0.03879475 0.20589733 -0.059347875 0.08021557 -0.118342355 0.014641737 -0.155404 0.20599581 0.06963562 0.17216651 0.024835564 -0.10052651 0.12687773 0.09017495 0.054431666 0.100391164 -0.095078535 0.12399116 0.04695779 0.025858045 0.11282023 -0.0747982 -0.06592617 -0.086829305 -0.09414907 0.02498772 -0.1475233 -0.09706449 0.0882403 0.0025875398 -0.025662895 -0.061916452 -0.024875335 -0.108019054 0.052038196 -0.06902386 -0.181603 0.16423158 -0.06237486 0.25470355 -0.04232365 0.19915971 0.040752918
श्रुत्वा -0.0109942695 -0.043432236 0.10537777 -0.047919758 -0.02850258 -0.2666376 -0.025748221 -0.07415276 -0.13109429 -0.10503482 0.1036391 -0.03289203 0.16462636 0.100774854 0.052334525 -0.03792554 0.074617535 -0.0015485113 -0.04939191 0.1440667 -0.027853353 -0.19547047 -0.016981661 0.11008316 0.045486357 0.14652154 0.1743184 -0.13926421 -0.27139652 0.24771135 0.010125147 -0.024028832 -0.018777108 -0.08606922 0.14290535 0.024708247 0.023922605 0.059441335 0.119284205 -0.031356882 -0.00082926167 -0.039128315 -0.13963969 0.014655822 0.13440354 0.14464688 0.010751639 0.00022404571 -0.021032458 -0.05182316 0.05768859 -0.12539658 0.01434386 -0.014395303 -0.06521651 0.12772046 0.07510054 -0.050043527 0.24158028 -0.091574065 0.044803888 0.0013159598 -0.005071258 -0.10655769 0.17984931 0.05290658 0.03717909 0.19592656 0.0125438 0.044240043 0.1405611 0.0497723 0.17218712 0.10799518 0.092452005 0.0653528 0.12402775 0.046714768 -0.08477817 -0.004398573 0.017765628 -0.10606631 -0.031839617 -0.026115956 -0.14795162 -0.020996166 -0.02689778 0.115007505 -0.0028707597 0.07036037 0.026761424 0.016773392 -0.077050366 0.022517696 0.16053644 0.029180938 0.10595702 -0.055562507 0.109492145 0.05424541
तया 0.09025965 -0.09548385 -0.007754838 -0.045967452 -0.046724997 -0.19029324 -0.1576567 -0.008307237 0.18552443 -0.049481373 0.021480834 -0.18101938 -0.07952191 0.12157999 0.07123467 -0.15214007 -0.007962029 0.047148872 -0.05206391 0.066360265 -0.0052736327 -0.016030839 0.21317704 0.034110054 0.024417037 0.054891422 0.284703 0.097713396 -0.040478002 -0.051875707 -0.0027718772 -0.1630025 -0.021153709 -0.09039359 0.095378205 -0.011444872 -0.10100681 0.097296424 -0.04674631 0.11889587 -0.09197515 0.019572116 5.8714108e-05 0.062417556 -0.141036 -0.03796329 -0.0008889888 0.12394925 0.10212792 0.048591822 -0.06414427 0.09414778 0.06004511 -0.039198563 -0.17491 0.002326921 -0.08856769 -0.065022476 0.1512784 -0.06665456 0.09230501 -0.087330006 0.06479074 -0.1157366 0.15104987 0.039267913 0.12525089 0.06352852 -0.061480317 0.033081904 -0.033418696 -0.025840785 -0.052675363 -0.08062953 0.13237122 -0.021903891 0.02682339 0.05119211 -0.12458642 -0.0590337 -0.26483688 -0.1004119 -0.048810136 -0.17556426 -0.010685415 -0.071868315 0.09082768 -0.07065004 -0.111896686 0.028685719 -0.04184922 -0.07138758 -0.16059858 -0.21127251 0.08753487 0.052651033 0.18734281 -0.08131596 0.0495623 0.030867307
चेति -0.05216012 -0.008251557 -0.060532793 -0.014932758 -0.1100465 -0.08076885 0.08941361 -0.1813236 0.033580977 0.051153917 -0.15334955 -0.116601564 0.047529344 -0.10946994 -0.0075595677 -0.1480828 -0.1997902 -0.06191521 0.06986074 0.021854632 0.0255433 0.26920733 -0.07554934 4.2842155e-05 0.15147741 0.19971673 0.10131054 0.04904702 -0.17467855 -0.047217276 0.19411922 0.063208774 -0.06440175 -0.07510663 0.17674683 -0.13514923 -0.1213382 -0.0031278506 0.11534917 -0.066397734 0.014368347 -0.047499783 0.042525396 0.17707515 0.19969371 0.006034992 -0.018652575 0.110503204 -0.061231356 0.1994948 -0.09971934 -0.029596953 -0.060878895 0.15165776 -0.028132934 0.09897704 0.049819052 0.027376555 0.12694134 -0.0019954222 -0.037939828 -0.029603286 -0.13862625 0.016333163 0.04035906 -0.005817832 0.0016358318 -0.0013416675 0.028251216 0.025537552 0.07778146 0.00034638707 0.12121518 0.07532728 0.058036998 0.07989955 -0.0013003796 -0.054996785 0.02878414 -0.020952335 0.065621145 -0.017724337 0.0050115096 -0.16556087 0.075510085 -0.15206274 0.15393645 0.17274971 0.034451794 0.08560393 0.030637471 0.13578814 -0.14937343 0.08114537 -0.011653895 0.1171837 0.05441414 0.013057681 -0.08687882 -0.16396038
ते 0.09867274 0.053525813 -0.067767166 0.044471458 -0.10997933 -0.2113241 -0.003875849 -0.21520056 0.053056717 0.08030532 -0.10825424 -0.17674147 0.16040829 0.014558563 -0.048359703 -0.053427767 -0.1752292 0.0015134353 -0.036731526 0.12529834 0.00214638 0.1049876 -0.06608847 0.060269043 0.119399704 0.25269336 0.19478858 0.07412688 -0.2618239 0.061753016 0.040051747 0.018579679 -0.10468671 -0.16519299 0.19600108 -0.121996425 -0.19592562 0.10442647 0.048879724 -0.019423839 -0.12173242 0.01727356 -0.10156952 0.09977579 0.043274235 0.054572113 -0.0034775212 0.09336907 -0.014236689 0.13472503 -0.134807 -0.010202086 0.036250725 0.12677622 0.016168388 0.08661417 -0.0010943515 -0.041745633 0.1732135 -0.057490196 -0.0017275229 -0.115646794 -0.12640308 -0.08370533 0.16384158 -0.010298309 -0.052145693 -0.01578043 0.01442325 0.06030008 0.06545439 0.012580923 0.057032175 -0.039102666 0.11635614 0.057669837 0.048227474 0.018933412 0.009939194 -0.011109456 -0.043195464 -0.120708585 0.051085513 -0.21404271 0.009686444 -0.20767473 0.030664226 0.09468719 0.03139234 0.08640683 0.021216482 0.029735336 -0.0019623647 -0.0492013 0.060191423 0.019859148 0.061874818 0.042789217 0.0064339195 0.05746685
करिष्यामि 0.18374495 0.020138208 -0.12871514 0.050525412 -0.049024124 -0.13991101 -0.13160242 -0.13157758 0.15334234 -0.022538723 -0.03369436 -0.18699248 -0.060792852 0.06578792 0.070808284 -0.09175729 -0.044258233 0.08541497 0.019547865 0.07620718 0.0022414883 0.095615454 0.13747934 0.05824334 0.016525159 0.08453921 0.23123573 0.10509151 -0.154358 -0.023979183 -0.021008953 -0.16074519 -0.06863616 -0.10068319 0.15451221 0.006097491 -0.1528388 0.11276675 -0.042682163 0.09747887 -0.08903349 0.08336733 -0.069040485 0.039169252 -0.07460634 0.02740923 0.06565535 0.12997727 0.12661342 0.19776358 -0.049938098 0.07656589 -0.037379526 -0.017040908 -0.10770528 -0.036161687 -0.066370785 0.01643343 0.20889957 -0.019052992 0.12137677 -0.1923655 -0.10089505 -0.06889635 0.21568777 0.022164473 0.020604817 -0.027717108 -0.018557897 0.015136175 -0.0019508491 0.043782048 -0.022058588 -0.01740047 0.14401388 -0.090657406 -0.012925466 0.10939485 -0.09061835 -0.029056279 -0.19301763 -0.11156308 -0.043511488 -0.22385305 0.0033327588 -0.100570224 0.07863427 -0.06633373 -0.005307869 0.050866958 -0.07008274 -0.03069029 -0.036345027 -0.17156099 0.09786098 -0.027113333 0.1728766 -0.049868952 -0.02283122 0.06516143
कौलिकः 0.013328063 -0.057662435 0.15372595 -0.013488841 -0.013490842 -0.19246793 0.045546144 -0.106455006 0.0042233793 -0.14939635 0.09388812 -0.15157877 0.009525628 0.10851582 0.17122497 -0.05472802 0.04979454 -0.075695455 0.033890225 0.11090354 -0.054202814 -0.1304275 0.11645095 0.051296912 -0.021525903 -0.04952665 0.07454196 -0.17474273 -0.12624504 0.12198146 0.13175029 0.0072976667 -0.04012098 -0.046684947 0.13277085 0.042168546 0.10391819 0.020264557 0.11238994 -0.051852617 0.086471446 0.02764309 0.035316817 -0.011089147 0.23314853 0.15501627 -0.02921227 0.08826265 -0.04806434 -0.08423159 0.057946075 -0.13872576 -0.01585459 -0.0054599256 -0.054346077 0.24623594 0.020222155 -0.0367543 0.110486194 -0.014902383 0.08970917 0.059456475 0.037819736 -0.0011117127 0.04348482 0.096122 0.060633373 0.21637851 0.011853526 -0.06397215 0.0800918 0.06759456 0.22588071 0.14146939 0.14025107 0.09410835 0.03772146 -0.05592615 -0.1492956 0.017874671 0.025195144 -0.1825329 -0.104544945 0.014011282 -0.12136104 0.03828976 -0.014877326 0.15827055 -0.024327673 0.057260137 0.10580698 -0.035891563 -0.15532395 0.020953886 0.15732315 0.14641 0.11557261 -0.092701465 0.10044461 0.0025457884
यत्र -0.18123844 0.12010927 -0.044927374 -0.044860158 -0.1389426 0.056384522 0.1511429 0.099316865 -0.014882208 -0.009844961 -0.2046291 -0.06343249 0.01823567 0.019329494 0.058834378 -0.09538802 0.024404094 -0.10437221 0.013791358 -0.011417915 0.19503564 0.09799174 -0.13005954 -0.059792228 -0.0716864 0.093724206 0.030094845 -0.10461411 0.03796517 -0.0064050662 0.048420887 0.06604648 0.06547 0.083387375 0.07721189 -0.04308843 0.031814843 0.039906505 0.05120777 0.12297294 0.13918138 -0.16922714 0.14368854 0.18459478 0.17312695 -0.12480904 -0.1732402 0.18528838 0.09180016 0.11864857 -0.009218146 0.015112288 -0.11466483 0.17949164 -0.07569981 -0.09243934 0.09673196 0.10905325 0.08318289 0.0717799 0.015574609 0.060882382 -0.06933018 -0.058104035 0.019962559 0.10864973 0.12230168 0.046430644 -0.057926998 -0.0019648622 0.041978005 0.14644714 0.07996604 0.017367825 0.18712132 0.05741579 -0.2529512 0.10983403 -0.061896615 -0.051506422 0.07652206 0.036168262 -0.00370619 -0.07165767 0.026360448 0.14067753 -0.0012401909 0.10860892 -0.14072405 -0.051283702 -0.16428617 0.09859155 -0.07034083 0.076975405 -0.055192508 0.14809242 0.03200163 0.015238473 0.013860839 -0.12534605
यः -0.07037705 -0.06954315 -0.060294863 -0.06569175 -0.049463734 0.17365839 0.015623838 0.012478892 0.034556508 -0.22156715 -0.0345772 -0.030333078 -0.06110634 -0.10836875 0.08311441 -0.10909299 -0.08241074 -0.038821068 0.038956292 -0.14071053 0.07138487 0.18657684 0.029038502 -0.063974686 0.15342483 0.13302745 0.11243826 -0.031029815 0.02966331 0.042186305 0.15044667 0.099183604 -0.009654217 -0.0021948079 0.12007921 -0.02499283 -0.035156664 -0.15891406 0.032444544 -0.022552658 -0.09026047 -0.04258419 0.06359819 0.10558762 0.103246056 0.0025699502 -0.14251679 0.14550067 0.07882169 0.25923994 0.0013253917 -0.1074827 -0.06313396 0.13466932 -0.055557802 0.0028428594 -0.00036023918 0.043530777 0.086417034 -0.046050645 0.10157868 0.047851574 0.08257035 0.13964707 -0.09578643 0.11849319 0.10353128 0.049429294 -0.04731518 0.007999621 0.08030454 0.047377214 0.08852771 -0.015261329 0.098457485 -0.09334049 -0.14419313 -0.069898814 -0.014560525 -0.13682981 -0.057613198 0.011090921 -0.059018835 -0.15424256 0.08745432 -0.03599048 0.33322772 0.082727455 0.03640231 -0.03997929 -0.04261947 0.19527727 -0.16046385 0.07068194 0.015003267 0.07974206 0.20316653 -0.058175184 -0.025629636 -0.12456771
सिंह 0.011324081 0.06404048 -0.04334953 -0.033406273 -0.011501317 -0.1367097 -0.0064439825 -0.14491628 -0.09945087 -0.0635858 0.016111119 -0.03839169 0.014930853 -0.11337504 0.041459426 -0.11266946 -0.07308126 -0.122410536 0.020723157 0.11974267 0.017928949 0.026419003 0.042201474 -0.03525509 0.00935357 -0.012996266 0.124910995 -0.1781682 -0.15644902 0.12373955 0.08235182 -0.011668763 -0.025583884 -0.021078229 0.19304663 0.124576606 -0.004789444 0.052992202 0.08114595 -0.05450316 0.14350414 -0.031520154 -0.041890647 0.005072249 0.25396386 0.14427298 -0.06159974 0.13274963 -0.12153915 0.078967236 0.16655913 -0.095800325 -0.11679289 -0.018870391 -0.05790051 0.16412343 0.062294725 -0.045252178 0.17890468 0.09347838 0.044132207 0.026444584 -0.11885107 0.13169956 0.09462113 0.081396624 0.052696913 0.20097679 0.060802925 -0.15213813 0.09766709 0.09907145 0.18202777 0.12137463 0.040820666 0.09406101 -0.046145372 0.02160009 -0.12385305 -0.12286084 0.117836006 -0.15683813 -0.047003273 0.05325715 -0.08507396 -0.064811975 -0.014691918 0.25755557 0.06163202 0.11847488 -0.02293888 0.102518275 -0.09228326 0.115415335 0.07792496 0.045508537 0.089651376 0.08349409 0.00069301133 0.07214176
वणिक् -0.03206449 -0.10551204 0.039746635 -0.039315447 0.02059064 0.14395887 -0.03313102 -0.058547255 -0.0389333 -0.22025792 -0.113958955 -0.13124126 0.016691023 -0.0004354442 0.081313774 0.0871732 -0.09462623 0.010673654 0.033102058 -0.10718474 -0.00087286497 0.052051507 0.034689225 -0.06386901 0.1527435 0.18346338 0.0750921 0.02501655 -0.04522068 -0.031263586 0.021918735 0.21355143 -0.06707481 -0.15235652 0.14129023 -0.16697751 -0.06478804 -0.09900555 -0.02690996 -0.090530865 0.01944486 -0.16826184 -0.04533903 0.03754337 0.029663606 0.07047649 -0.1307309 0.19814426 0.076987974 0.14208356 0.04915659 -0.1954386 -0.0660762 0.28272083 -0.0033432394 0.08875131 -0.006694714 0.020444106 0.057071652 -0.031104537 0.06328676 -0.072887205 -0.039153073 -0.10268964 0.0011370865 0.08929518 0.099372886 -0.07940305 -0.059864555 0.12014662 0.040331688 0.056507684 0.13615346 -0.010148981 0.14717259 0.0011657594 -0.10077947 -0.03271432 -0.0048744106 -0.113321625 0.028005755 0.045551825 0.1718137 -0.1394997 -0.03546211 0.06084004 0.06574876 0.1618801 -0.11167071 -0.081131555 -0.059955407 0.22983287 -0.039215975 -0.039086718 0.049261548 0.022616267 0.14738703 -0.09070012 0.17714286 -0.054413095
स्यात् -0.11431052 -0.031212205 -0.101713896 -0.07864245 -0.10208568 -0.11728992 -0.06205389 -0.06370413 0.05857252 -0.073429435 0.0069211675 -0.12007258 0.04347642 0.1168192 0.1558386 -0.12656866 -0.0443437 -0.0047930405 0.03988541 0.032797303 0.04419062 0.069542296 -0.00227203 -0.067261346 0.06793693 0.1705946 0.093431324 0.044636503 -0.039645284 0.0902023 0.093262196 -0.028458219 0.07576163 0.07977143 0.0784957 -0.043469235 -0.07395898 0.0875593 0.12562025 -0.117243804 -0.14067245 0.021497639 0.004564904 0.20803562 -0.013782918 0.17560324 -0.16408078 0.13496555 0.18850568 0.21999939 -0.07203602 -0.050514717 0.06721645 -0.023903534 -0.06223158 -0.038986083 -0.10778848 0.16441092 0.10541102 0.0057681436 0.046244368 0.05569554 0.034546074 0.15895997 0.043628752 0.005704139 0.10636996 0.023122493 -0.09318588 0.05033029 0.06313558 0.020708045 -0.08472184 -0.15030165 0.07547714 -0.09608489 -0.07733827 0.06151461 -0.11843425 0.009296309 -0.111796595 -0.11285348 0.08209811 -0.15684554 0.09495583 -0.03575352 0.28170443 -0.056867424 0.046817645 0.0032777714 -0.1323019 0.10029867 -0.16462572 -0.056245014 0.085963145 0.07458319 0.21554245 -0.0757084 0.0637638 -0.12530504
महान् 0.00031284653 0.028996916 -0.121232376 -0.062036723 -0.05889606 -0.31163418 -0.029712489 -0.19607286 0.08835024 0.118829995 -0.006244242 -0.035589162 0.037466 0.030416606 -0.075044855 -0.1997161 -0.07507166 -0.1063936 -0.0467599 0.13456397 -0.01972089 0.05228997 -0.115653805 -0.12796393 -0.08627845 0.07422374 0.053100638 -0.13400769 -0.009495899 0.07892404 0.01961417 -0.11459391 0.13221954 0.0473462 0.103644505 0.10704461 -0.036940854 0.20816363 0.043889806 0.027390944 0.13108659 0.018243682 0.008413838 0.15304157 0.10831715 0.067499466 -0.034971982 0.24026287 -0.03301834 -0.03752154 0.012004283 0.0685735 0.035718016 0.017499413 -0.08244247 0.13992055 -0.019343298 -0.09956887 0.12347606 0.17094511 -0.031031631 0.01906638 -0.027475482 0.14374685 0.18107395 0.038964067 0.049354143 0.15912423 -0.029372778 -0.036086347 0.076435 0.08901894 -0.012362596 -0.11101541 0.09655002 0.2120964 -0.087770335 0.047657024 -0.15521157 0.024890892 -0.056223225 -0.17596124 -0.031119073 0.042636562 -0.07475557 -0.043491513 -0.001103423 0.029217867 0.02771645 0.13635606 -0.04945057 -0.03091226 -0.15778044 0.07853239 0.11561294 0.09690212 0.045123216 0.13807096 0.070575796 -0.014729065
वरं -0.15109117 -0.03488383 -0.07868158 -0.114085376 -0.004114787 -0.106796645 -0.06514928 -0.0051894975 0.16233088 -0.059429664 -0.055272464 -0.14406553 -0.041817293 0.10564319 -0.018435903 -0.124623254 -0.045689814 0.0086316755 -0.060014464 0.03274481 0.02817296 0.11434262 0.049226392 -0.042620547 0.06459109 -0.035454363 0.18482117 -0.1172735 0.043327685 -0.07188495 0.07941367 -0.04010227 0.04723146 0.05334782 -0.0019343758 -0.06863804 -0.024388352 0.1491811 0.0034699957 0.10953909 0.18265177 -0.0001272434 0.11749188 0.18292052 -0.011051592 0.0005750634 -0.046177793 0.18360014 0.06322257 -0.014471311 -0.032778118 0.19672823 0.013740508 0.057673756 -0.23684505 -0.08898151 -0.14432201 0.0040017073 0.15491728 0.080501534 0.0038061675 0.062073577 0.06957905 -0.015128481 0.13907978 0.06877951 0.20076263 0.043541968 -0.09373864 0.042775963 0.039527845 0.058278356 0.030091409 0.014560347 0.08286054 0.20675798 -0.04543364 0.07060865 -0.17486943 -0.05830949 -0.12110489 -0.04877143 -0.012902506 -0.03550439 -0.06673044 0.037398826 0.15235221 0.03587025 -0.14412637 0.012984622 -0.050874732 -0.0119559625 -0.30328396 -0.041603986 0.042736024 0.12342694 0.047751892 0.057689536 0.17854369 -0.19482413
मास -0.013460618 0.00944835 -0.17290471 -0.0046413606 -0.073270336 -0.17823263 -0.08027424 -0.25528023 0.08181036 0.002886702 -0.040123306 -0.17929606 0.16629858 0.14990492 -0.008360381 -0.061039425 -0.06841906 0.10474401 0.002850222 -0.041866355 0.002366378 0.04805535 -0.021393972 -0.10014947 -0.030964853 0.11811394 0.17165928 0.15393074 -0.13253482 0.07415333 -0.045980133 0.1142314 -0.0031079124 -0.00917784 0.08493333 -0.002285645 -0.15505295 0.110492595 -0.0025970426 0.022250714 -0.052637063 -0.09777889 -0.056241844 0.07888298 -0.07901613 0.041507278 0.046666965 0.20828022 0.020262318 0.093224116 -0.06948188 0.043350086 0.009815358 0.21481882 0.009132815 -0.020157438 -0.055382878 -0.029615082 0.19553293 0.025083859 -0.015565083 -0.079376176 -0.096124284 0.0013060697 0.16453855 0.060310654 0.07286417 0.023279214 -0.15650018 0.10247946 0.06748022 0.11045542 -0.057680987 -0.19935082 0.08425544 0.10008711 -0.09791983 0.117865324 -0.0441184 0.021722678 -0.12929903 -0.12309702 0.03980618 -0.21964778 0.052431148 -0.020929681 0.007571561 -0.10520036 0.042413916 -0.05858555 -0.085971855 0.010018195 -0.15700002 -0.19215749 0.08895894 -0.026655953 0.13713336 0.08956726 0.027517121 -0.09391377
करोमि -0.044476677 -0.023099598 -0.14089973 -0.05564695 0.028049463 -0.052401762 -0.13022216 -0.15810241 0.034825396 -0.16620447 0.050763786 -0.13396595 0.15256682 0.15315238 0.016776323 0.050381146 0.023826247 0.13327461 -0.036680356 -0.0841759 0.015282799 -0.0654632 0.0920138 -0.092013404 0.011536035 0.09875862 0.15371267 0.10153848 -0.045023747 0.14133945 -0.08111647 0.1607716 -0.024195649 0.0043449397 0.06282316 0.074443325 -0.05931644 -0.02284182 -0.08693766 -0.03640564 -0.04582037 -0.12204307 -0.12065308 -0.00325593 -0.12758376 0.13832904 -0.030231722 0.1277427 0.03623585 0.035414916 0.050925814 -0.061890364 0.07733723 0.23388484 0.011939542 -0.004982702 -0.029217932 -0.010242592 0.18896458 -0.012557535 0.03540968 -0.07301097 -0.028967129 -0.010375286 0.120168485 0.080061466 0.13526657 -0.0012590036 -0.21451315 0.11544318 0.1135827 0.050948996 -0.0037790951 -0.21163109 0.056708384 0.07054694 -0.04394914 0.09631082 -0.04602577 -0.020236144 -0.09085856 -0.116948344 0.11062628 -0.15350941 0.0049567586 0.09038161 0.0281583 -0.13074292 0.05748391 -0.10001941 -0.14489582 0.1092513 -0.16394012 -0.16404654 0.096480936 -0.0679134 0.25873315 -0.0005341893 0.11332731 -0.06311585
अर्थः 0.05405623 -0.07209601 -3.0341847e-05 -0.018282894 0.01258245 0.119567975 -0.01722076 -0.007426623 0.07694387 -0.101194985 -0.09006327 -0.08567971 -0.095115796 0.033320136 0.14538786 -0.01797545 -0.092841655 0.0349388 0.10560195 0.0010287891 -0.046959635 0.15157782 -0.095417276 0.007729726 0.16677524 0.20563304 0.16856132 -0.010568225 -0.11727181 -0.043194152 0.016086444 0.01393365 -0.08176966 -0.07559672 0.03657874 -0.111172125 -0.018439284 0.027162943 0.012373447 0.036508776 0.019356068 0.04286132 -0.0070479386 0.11485224 0.054924022 0.07650837 -0.05387693 0.07723785 0.21573646 0.30824628 -0.062248226 -0.103114925 -0.14372094 0.028695479 -0.14930984 -0.029430518 -0.057813145 0.18782891 0.056350205 -0.035779893 0.13923281 -0.005921745 -0.010383805 -0.047508772 0.08856208 0.057797734 0.07335914 -0.08235062 0.07599022 0.113502644 0.08945998 0.04470317 0.099378765 0.15575843 0.23744808 -0.19598031 -0.030558228 -0.020359542 0.019330159 -0.12739688 0.01981983 0.032822635 0.037173096 -0.15169837 0.03415347 0.053851105 0.25752467 0.06817574 -0.07873596 -0.05333064 -0.08927072 0.16181073 -0.05155926 0.0592802 0.024761917 0.0376328 0.12622017 -0.17437178 0.13081323 -0.037755296
किंचिद् 0.07241366 0.04245227 -0.011255215 0.010240013 -0.042457566 -0.13439728 0.053168062 -0.03373995 -0.032147847 0.02861679 -0.019174349 0.0018475425 -0.093204774 0.08334002 0.12434294 -0.020841647 0.12593322 -0.010091807 0.110499635 0.100196116 0.033517804 0.008348886 -0.08342448 0.010573877 -0.12971546 0.1260016 0.10862973 -0.15581414 -0.09094352 -0.0064673754 -0.08655919 -0.09427322 -0.018938003 -0.00485173 0.04475721 0.03897867 0.10032252 0.21380153 0.076748535 0.14056772 0.18921855 -0.059194133 -0.014959863 0.063921176 0.10385048 0.07290646 0.033702515 0.13376787 0.13132444 0.16534032 0.10934632 -0.03884195 -0.18926609 0.021097267 -0.10750046 0.030310977 0.10701821 0.104597494 0.13508026 0.0740278 0.118111834 -0.05359969 -0.1315645 -0.08044944 0.23529492 0.09236573 -0.012367646 0.09142652 0.09077641 0.0031933973 0.08171276 0.16728222 0.053436026 0.11300703 0.30253154 -0.14716579 -0.15668383 0.15265875 -0.18071711 -0.041576423 0.061394863 -0.027465522 -0.023740403 -0.034288928 -0.13395542 0.14705661 -0.06001794 0.048384525 -0.09066928 0.03997145 -0.14909303 0.027167954 -0.0020897845 0.020537715 0.09868716 0.035357416 0.047261063 -0.05960529 0.061460957 0.07542781
उच्यते -0.068005316 0.07016077 -0.013588261 -0.046118274 0.023792561 -0.22117145 -0.012316958 -0.023355426 0.018887196 0.0051843035 0.04001792 -0.0694539 -0.06435703 -0.04294967 0.013854012 -0.14571404 -0.0059819627 -0.13788883 -0.09475337 0.20344704 0.06369428 0.04137304 0.061134923 0.03208738 0.016433416 -0.009119697 0.121508844 -0.2981617 -0.0025404883 0.03974796 0.12975767 -0.16837347 0.061415493 -0.002352188 0.15314823 0.045761056 0.07381447 0.15263867 0.04427326 0.029111218 0.15658188 0.1211169 0.048556574 0.076595046 0.13914102 0.11553766 -0.10257104 0.10787974 8.1516904e-05 -0.010674644 0.08957678 0.07621769 0.028183106 -0.077185124 -0.1645224 0.06750343 -0.042568546 -0.07794487 0.14268611 0.11542895 0.050957765 0.060347844 0.03608245 0.051592 0.14879669 0.021754589 0.09439361 0.14647697 0.005997677 -0.104761854 0.062279917 0.045515098 0.11161754 0.103838734 0.0791874 0.15342134 -0.0036018477 0.032324046 -0.22135763 -0.087121926 0.030854525 -0.15772592 -0.058310147 0.07548588 -0.19552724 -0.032600347 0.05714777 0.1762285 0.012681837 0.1846074 0.0033802143 -0.04317625 -0.13908169 0.13853224 0.049243566 0.15429097 0.0785788 0.028767599 0.09250383 -0.010843779
अर्थ 0.12892278 0.024007354 -0.06171845 -0.019585082 0.005129893 0.06995622 -0.005470924 -0.0777129 0.1060728 -0.014763659 -0.15311885 -0.071207374 -0.071789145 0.07296512 0.10929124 -0.04963374 -0.074636586 0.029077772 0.11758153 0.014394015 -0.026431434 0.16078733 -0.18870765 -0.0013165886 0.13389614 0.18135653 0.15628076 -0.039144892 -0.12515193 0.012504357 -0.030872183 -0.02116233 -0.09237455 -0.022289485 0.011680354 -0.060169004 -0.011494297 0.059332658 0.018105688 0.065032646 0.09311871 0.08886934 -0.025072156 0.14523616 0.07367595 0.098162346 -0.021185152 0.048658144 0.2130866 0.3203753 -0.097073235 -0.035590746 -0.13487366 -0.0061574797 -0.14098117 -0.07161114 -0.07107263 0.21977955 0.088063136 -0.0031556396 0.15209326 -0.0268584 -0.051623106 -0.03185691 0.17097592 0.03706246 0.020062214 -0.083511315 0.09587902 0.095242836 0.09383479 0.05118503 0.10866848 0.17419256 0.22218254 -0.1431925 -0.009605702 0.032158818 0.029170921 -0.102933675 0.029108593 -0.017930388 0.0018429013 -0.1323277 0.055105675 0.062615305 0.22208089 0.042613193 -0.058977243 -0.04409789 -0.11146381 0.14728084 -0.04124447 0.058782358 0.03347258 -0.003264685 0.09015956 -0.12389313 0.12924922 -0.05745889
नमः -0.013368363 -0.09211393 -0.0016877535 -0.13949701 -0.07418067 -0.18383564 -0.084759064 -0.066627726 0.044410415 -0.055007864 -0.055865552 -0.14614184 -0.054744266 -0.16309471 0.117627 -0.18462767 0.08675563 -0.024296863 -0.038328953 0.060281787 0.022480877 0.080170184 0.14667235 -0.007971156 -0.13209811 0.016084377 0.22061785 0.010146669 -0.11122797 -0.026791312 0.05527847 -0.039250802 -0.008822328 -0.09440676 0.20328955 0.07389112 -0.013470549 0.004332862 0.059091344 0.035689104 0.054543853 -0.09893579 0.120306686 0.07062236 0.22810054 0.0014373156 -0.0924032 0.20122662 -0.12635802 -0.021660574 0.074325666 -0.009752219 0.015859475 0.012570713 -0.18017629 0.17041945 0.031500854 -0.12051367 0.09175872 0.0066524055 0.08680332 -0.07080797 -0.053199876 -0.10118078 0.098900095 0.13137561 0.18334638 0.2270959 -0.0043304753 -0.03274093 0.028830677 0.13356772 0.16101834 0.02746315 0.062098987 0.06427533 -0.051162306 0.02147584 -0.05862489 -0.19864874 0.00840221 9.899532e-05 -0.15449785 -0.052210785 -0.015539754 -0.0016513891 -0.026000887 0.14732423 -0.040167194 0.06836475 -0.045845475 0.052154224 -0.18139817 0.009251125 -0.017984377 0.10019835 0.17346795 -0.10665483 -0.031177033 -0.040384293
महा -0.008721969 -0.06552964 0.06997021 -0.10990758 0.0787633 -0.15042582 -0.0659145 -0.14093165 0.046315033 0.028894765 -0.097781606 -0.03286351 -0.008504425 -0.12862086 -0.036367744 -0.1243776 -0.05528696 -0.12997802 0.022958247 0.052195646 -0.030099323 -0.039212476 0.07970609 -0.073245205 -0.1399184 0.06032094 0.09231286 -0.05329893 -0.010168467 0.04497292 0.0006523698 -0.018740606 0.057137057 -0.12148427 0.1793267 0.09945305 -0.0017971639 -0.052566227 -0.031321246 -0.008680321 0.19419056 -0.112679005 0.030368416 -0.04224798 0.21462071 0.011332463 -0.08619215 0.18255971 -0.15755701 -0.08240462 0.15558355 -0.08286237 0.0025292346 0.1553481 -0.07003489 0.2547668 0.093957074 -0.19606398 0.09071393 0.063987106 0.07644712 -0.036191277 -0.08359986 0.015272335 0.058274694 0.08937609 0.14969878 0.21389987 -0.029884068 -0.044004753 0.06480594 0.06839911 0.12657596 -0.04464158 0.06873099 0.14206931 -0.056002703 -0.014927417 -0.10320574 -0.15140826 -0.002414935 -0.117819026 -0.05354195 -0.013515305 -0.103386454 0.037402824 -0.19111621 0.15983047 -0.0021981879 0.14185657 -0.0010349539 0.06899355 -0.18036309 0.08905706 0.035235744 0.097427815 0.1737821 0.006578556 0.016390676 0.0282978
इव 0.035286043 -0.13842541 0.122632995 -0.05398925 -0.025119873 -0.051232856 -0.04231756 -0.038391154 0.22573774 -0.104835466 0.044230845 -0.14607756 -0.11518702 0.050789252 0.16533138 -0.2060049 0.002725482 -0.024229288 0.06482459 -0.024334043 -0.074040055 0.12518747 0.2004671 -0.011351063 -0.006662298 0.06353276 0.15197761 0.03669819 0.014498087 0.0061991606 0.090019815 -0.06664454 -0.025482997 -0.08402255 0.121965304 0.033641532 0.005097131 0.016286582 0.018198011 0.13883267 -0.06116097 0.061992336 0.13671818 0.01185813 0.109622166 -0.07756371 0.025085002 0.11540308 0.06775999 0.06629725 -0.06770764 -0.070066355 -0.017525112 -0.007904597 -0.16424835 0.08984336 -0.04232714 -0.026930574 0.106469944 -0.07045492 0.10979979 0.0040134396 0.06462536 0.035010237 0.0032018134 0.10362386 0.12994045 0.15602349 0.003590319 0.015523763 -0.013862623 -0.024864351 0.09097627 0.06375156 0.13514277 -0.08623211 0.00042010925 -0.06238424 -0.05862529 -0.081924506 -0.21039468 -0.116753615 -0.26188326 -0.16858163 0.04819695 0.03930004 0.18074597 -0.0059844046 -0.053493477 0.004472116 0.08445482 -0.05900588 -0.21958145 -0.110150166 0.075664096 0.14524439 0.21091402 -0.18435271 0.021043506 -0.087783925
ब्राह्मणः -0.12148191 -0.02286704 -0.051761765 -0.102254294 -0.010387946 0.01669174 0.006772061 -0.06562318 -0.001829955 -0.047254357 -0.13113591 -0.08622443 0.09011032 -0.13483755 0.004588782 -0.10882868 0.045300934 -0.063521214 -0.05453373 -0.0718912 0.09296349 0.00017543836 0.08530313 -0.037470207 -0.17589845 0.092007935 0.12068416 0.057156753 -0.06440304 0.120775804 0.011523287 0.14138916 0.020163164 -0.05508338 0.19392833 0.08977951 0.02506516 -0.1983291 -0.0037834225 0.035517104 0.022019386 -0.16654277 0.051420044 0.021394877 0.20384285 -0.036456563 -0.16105689 0.14914724 -0.14644098 -0.0021762198 0.09790367 -0.07043595 0.040970597 0.2415982 -0.018497022 0.048322383 0.12568825 -0.14062594 0.12957178 -0.0279638 0.11563355 -0.0028021499 -0.09267688 -0.021904705 -0.023548992 0.1292263 0.17026776 0.1705044 -0.17704047 -0.022170767 0.1272032 0.07211793 0.124537855 -0.08879012 0.016662436 0.07267289 -0.10237193 -0.0117178345 -0.03937516 -0.18876524 0.011864703 -0.09856185 -0.06290579 -0.1321639 0.03838449 0.02715382 -0.095903054 0.09719235 0.042880133 0.025463376 -0.07499302 0.13861762 -0.16344263 0.06608058 -0.07322176 0.07172815 0.21530882 -0.06432742 -0.09136012 -0.044044368
सा 0.021643085 -0.038846575 0.18549302 -0.080901876 0.048760287 -0.24035509 -0.077208035 -0.008639994 -0.021999605 -0.119125456 0.09653788 -0.054048277 -0.0027551313 0.07917081 0.087513804 -0.006485141 0.07970817 -0.0058596306 -0.016811382 0.16414739 -0.04968894 -0.18857992 0.11426078 0.08469548 0.053033553 0.040502157 0.21456204 -0.20455685 -0.09207218 0.10109784 -0.0033365851 -0.12915777 -0.021179028 -0.13415146 0.1004687 -0.009248015 0.039772145 0.13211858 0.024105137 -0.029932031 0.11072433 0.014373822 -0.08431047 -0.050915275 0.06416108 0.1502029 0.010628856 0.014899716 0.04148152 -0.062221106 0.12129346 -0.08570171 -0.021713542 -0.038213708 -0.16964854 0.15644865 -0.009532417 -0.06690973 0.14973071 -0.021379657 0.08194304 0.015240746 0.054058257 -0.16366264 0.18762305 0.051512264 0.11292057 0.14063077 0.059010923 0.0068342984 0.02315609 0.043367952 0.13330635 0.13693869 0.11437371 0.055065792 0.11709577 0.078939006 -0.16505097 -0.058783285 0.029022975 -0.11778793 -0.009213012 0.03671753 -0.20915365 0.05835766 -0.055781513 0.10354865 -0.10711497 0.12019742 -0.0043403925 -0.020070983 -0.09335912 -0.035073407 0.14990762 0.04412452 0.1098712 -0.05571225 0.22751348 0.02744455
शास्त्रम् -0.1518687 0.06841856 0.019009473 -0.0034979493 -0.007995342 0.050272133 0.029201953 0.031276945 -0.0428484 0.02880428 -0.1294614 -0.09790666 0.05394 0.062397435 0.0054896506 -0.17961289 0.038824987 -0.073146045 0.02660595 -0.019356929 0.06441346 0.0832783 -0.037640095 -0.0072575314 -0.17825139 0.1451566 0.01738339 0.0002298152 0.0086624455 0.114884384 -0.029559962 0.05068434 0.03571688 0.035539597 0.10960914 0.043855086 0.0027872303 -0.037317846 -0.022126485 0.2661289 0.005971455 -0.15726188 0.0865004 0.0633674 0.15221342 -0.24961871 -0.07994758 0.10555884 0.09355695 0.069469765 -0.0163962 -0.17680824 -0.08631957 0.099309996 -0.11262314 -0.102656744 0.11571806 0.062477004 0.09248428 -0.056933362 0.10447175 0.0040349383 -0.14017545 -0.06563917 0.060518887 0.046157796 0.21575682 0.15050067 -0.09768775 0.056335814 0.09179181 0.09331421 0.12861943 0.046389483 0.12695293 -0.1461771 -0.16993122 0.08526252 -0.026257034 -0.10380995 -0.018236516 -0.022541692 -0.24770412 -0.12295317 0.052731708 0.13749844 -0.015381428 0.04913189 -0.17143051 -0.07500876 -0.15043877 -0.014740671 -0.018065227 -0.061255936 -0.005356657 0.040985048 0.15211593 -0.1598843 -0.09065602 -0.0068094167
त्वम् 0.14212465 0.028112441 -0.006006945 0.0066897837 -0.018489867 -0.122590765 -0.13584799 0.021360392 0.072066255 -0.08323766 -0.03618267 -0.16355683 -0.12864104 0.048788276 0.050230302 -0.08872446 -0.015545637 0.028726602 -0.040355153 0.111005165 0.030872092 -0.010491053 0.14677134 0.0647613 0.019090243 0.059215475 0.27978083 0.000772722 -0.07603566 -0.02497457 -0.016174598 -0.15179777 -0.06410578 -0.13589895 0.18913065 -0.01200157 -0.13300633 0.109403655 -0.074994795 0.13221015 0.0056397407 -0.020178827 -0.003946713 0.004777656 -0.06933201 -0.063949846 -0.016644036 0.16272299 0.13077661 0.100296356 0.030130288 -0.004744774 -0.07823609 -0.02724823 -0.19708353 0.019115115 -0.037455354 -0.019519195 0.16787587 -0.037080724 0.13108633 -0.14850393 -0.036297087 -0.17116374 0.21355774 0.03804011 0.09106452 0.036179706 0.045473974 0.0054876246 -0.04843344 0.07778583 0.056914646 0.02779282 0.20258261 -0.07439883 -0.03845782 0.093147546 -0.14361595 -0.11841461 -0.15388674 -0.049925644 -0.041168354 -0.16329971 -0.095256336 -0.07548097 -0.0034964106 0.053846475 -0.18828674 0.031253375 -0.10555874 -0.052248985 0.014208553 -0.19325541 0.09467994 -0.032200396 0.18737178 -0.059151135 0.063958496 0.15303086
उपायम् 0.08192601 -0.07651666 0.09960302 -0.054994665 -0.019401077 -0.17173609 -0.12467547 0.024645213 0.14636792 -0.003817909 -0.06192609 -0.15806079 -0.15267499 0.027307263 0.08293242 -0.104022115 0.015040732 0.0019954669 -0.02918613 0.08491179 -0.014605557 -0.09242231 0.23186545 0.03498432 -0.13830106 0.025487833 0.24434623 0.10468881 -0.02840645 -0.09126811 -0.03501729 -0.1638649 -0.003259787 -0.18140925 0.15055116 0.0015273071 -0.09536528 0.06291767 -0.08435694 0.12897633 0.030205732 -0.033125512 0.052548774 -0.046225786 -0.06733558 -0.08978615 -0.022019047 0.1717017 0.06357643 9.7536475e-05 0.050097708 0.04050113 -0.03170688 0.024569243 -0.19278024 0.09654556 -0.007070223 -0.114402145 0.08988551 -0.036393642 0.11693281 -0.09961952 -0.029765192 -0.1730132 0.13430692 0.0391247 0.13828437 0.09254189 -0.022259315 -0.0035364863 -0.07745933 0.013307722 -0.016008893 -0.04468955 0.15767519 -0.054352723 -0.028757542 0.056190837 -0.13980706 -0.13062204 -0.18653792 -0.08234794 -0.0034451822 -0.16238786 -0.07638018 -0.043333527 -0.14385271 0.0039773453 -0.1684271 0.06359871 -0.075340696 -0.06706281 -0.091886625 -0.18418051 0.019417074 0.050572637 0.18477014 -0.09850682 0.045671873 0.08284096
अधुना 0.18069977 -0.031430308 0.026260015 -0.07470782 -0.07509174 -0.16585891 -0.123600975 -0.08051627 0.12024009 -0.036339 0.024301114 -0.060030542 -0.042237587 0.08115813 0.122726664 -0.16039836 -0.0010003205 -0.02139207 0.16729803 0.07182664 0.08142758 -0.03773292 0.12678823 -0.023454797 0.08048166 0.095882006 0.28328872 0.008029052 -0.115172714 0.065562904 -0.061432086 -0.17769353 -0.11251257 -0.104752176 0.07792351 0.08392411 -0.048071038 0.037604585 -0.04677428 0.050767638 -0.0027707138 0.042676315 -0.10956387 0.0155540975 0.015224225 0.11105387 -0.054447304 0.07921043 0.095285624 0.2291663 0.06882485 -0.018302713 -0.08990269 -0.04751324 -0.08220019 0.13359943 -0.011040247 0.014267243 0.1402069 -0.029408878 0.18532188 -0.12018693 0.0077141654 0.005572456 0.18423761 0.117317684 0.06889227 0.14264818 0.08809858 -0.031538386 -0.026790949 0.019358637 0.018000254 -0.029349133 0.23899335 -0.084387556 0.010879063 0.039996576 -0.09814356 -0.044787854 -0.19681428 -0.14029258 -0.078605235 -0.1675424 -0.009860087 -0.0018109528 0.09654369 0.029211435 -0.09441438 0.047735814 -0.02259096 0.027428174 -0.122780524 -0.08018929 0.17199612 0.06756997 0.1729347 -0.023959514 0.07902574 0.08483685
एनम् 0.049455408 0.036767934 0.0871613 0.040576767 -0.03629902 -0.15023905 -0.023991454 0.045237325 0.027214577 0.028862376 -0.07712851 -0.14698642 -0.13066995 0.08260837 0.1207079 -0.08907091 0.107383266 -0.012472373 0.0037765852 0.1493541 0.009502713 -0.05878216 0.0521871 0.06345942 -0.16943051 0.046559926 0.17181708 -0.02559977 -0.05980391 -0.10007381 -0.028100189 -0.12750427 0.018905384 -0.08329164 0.15670134 -0.010686303 -0.009867032 0.15703672 0.03148489 0.1524331 0.12444215 -0.13382466 0.06108972 0.025667625 0.05796425 -0.07103747 -0.008771789 0.18291813 0.10962777 0.049878456 0.083397254 -0.010698342 -0.15556276 -0.0071998336 -0.1897715 0.04282625 0.07389902 -0.004719421 0.08527349 -0.000474218 0.1176149 -0.069591865 -0.11787646 -0.24242957 0.20460883 0.04366375 0.09155835 0.08853137 0.027239583 0.0105917435 -0.010793082 0.14179496 0.037731268 0.065450735 0.23424678 -0.089649774 -0.1197782 0.10485145 -0.1565083 -0.10933518 0.0039226585 -0.029727649 0.0017187195 -0.13069457 -0.11486917 0.08786429 -0.15440717 0.055681944 -0.20969887 0.042526193 -0.15975125 -0.05158947 0.03933175 -0.096266516 0.052489895 0.05276775 0.0804398 -0.11609351 0.017860193 0.11213371
करटकः -0.03511546 -0.06543011 0.15942155 0.068673365 0.06586141 -0.1390007 -0.035372186 -0.052874323 -0.08402942 -0.15655386 0.06555479 -0.17537259 0.072243944 0.11608168 0.13996518 0.047662064 -0.009203434 -0.065779895 0.06436243 0.12834673 -0.012959455 -0.18480146 0.10506902 0.01315701 0.015629634 0.05827538 0.15183784 -0.051165797 -0.18455845 0.08407939 0.007782437 0.09983875 -0.008452758 -0.04511088 0.110639215 -0.014184716 0.014265745 0.007227671 0.022507958 -0.13310172 -0.009080385 -0.12902202 -0.07836258 -0.0716083 0.19901033 0.11558059 -0.10143386 0.10236782 -0.0028588516 0.02536845 0.12429246 -0.24622285 -0.07297406 0.09862941 -0.06497235 0.23476183 0.06111066 -0.032927588 0.061712902 0.031602662 0.06028722 0.028536439 -0.046459217 -0.055852406 0.15044855 0.10640621 0.12707478 0.15186997 0.017139371 0.0077287457 0.13452283 0.1573668 0.1361458 0.065776646 0.121949375 0.0023752109 -0.07486166 0.022444796 -0.05055014 -0.044442542 0.12494171 -0.08293288 0.06661168 -0.021320453 -0.11256158 0.12701982 -0.1580435 0.16121489 -0.030393628 0.02603225 -0.027940318 0.07110866 -0.02965889 -0.030112358 0.1581672 0.067073375 0.18690653 -0.064745106 0.11904694 0.09624096
तस्मै -0.102517545 0.04523923 0.024573501 -0.03957239 -0.074682936 -0.28825673 0.003907384 -0.0928758 -0.21790382 -0.033475332 0.123597264 -0.04658133 0.18460135 0.1323495 0.1011891 -0.13264066 -0.022987813 -0.06418575 0.0592394 0.16863556 0.09603763 -0.108244054 -0.022686966 0.041573614 0.05976966 0.16930698 0.15813002 -0.026799127 -0.24023703 0.19402675 0.16618145 -0.0016162709 0.030884951 0.035509527 0.14614496 0.056565557 -0.01938886 0.010092099 0.16373049 -0.12189506 -0.0544764 -0.076289825 -0.13526894 0.07551506 0.14993882 0.10747298 -0.06558628 0.02626794 -0.031455055 0.15211977 0.07863561 -0.15325052 -0.020083195 -0.03181238 0.042186107 0.115491144 0.1748137 0.02868169 0.19152337 -0.01799188 -0.0185559 0.018711599 -0.05981901 0.1169396 0.1358341 -0.037854217 0.032507997 0.15115003 -0.0025813335 0.044191454 0.13390042 0.04734424 0.057142578 -0.047854137 0.088655345 -0.0176625 -0.05488441 0.039081704 -0.08351157 0.016394671 0.08483187 -0.10166711 0.034371868 -0.07736253 -0.047363553 -0.08713938 0.022173218 0.12788083 0.03090413 0.04840785 -0.031674813 0.050096072 -0.03595206 0.01672533 0.13644515 0.0662739 0.1517022 -0.035334684 -0.07660885 0.00645147
किं 0.06855079 -0.08614218 -0.0039817607 -0.05298904 -0.08101702 -0.019573223 0.11952266 0.011602649 0.19668098 -0.040805515 0.02204166 -0.0036398587 -0.1069931 0.044117846 0.27290067 -0.09512655 0.101831265 -0.022070928 0.10018247 -0.005145598 0.09001459 0.1585201 -0.050022908 0.000104694474 -0.089988515 0.10619978 0.1329124 -0.13485274 -0.015754204 0.0110913 0.00014680599 -0.11390851 0.011330126 0.05844241 0.09124947 0.06985027 0.17089742 0.08625704 0.14378873 0.16434865 0.08738203 0.017360827 0.08898162 0.10387712 0.15626343 0.011246539 -0.021564208 0.08218002 0.11417132 0.1552007 -0.001860176 -0.033330802 -0.0718784 -0.044099048 -0.07409682 0.017503617 0.10810803 0.10712215 0.121576644 0.03576909 0.13125436 -0.046000507 0.06310077 0.049037788 0.02768393 0.17037319 -0.03811953 0.093694754 0.067519754 -0.050418038 0.07409428 0.12007224 0.12491376 0.07099869 0.2530636 -0.15976742 -0.19392714 0.05552064 -0.14350851 -0.06750727 -0.019032145 -0.09996591 -0.17832617 -0.11245134 -0.014998038 0.0972239 0.12615865 0.07379562 -0.020760067 0.03491868 -0.0024800473 0.06373626 -0.15613458 0.05858097 0.006165099 0.11446011 0.14415634 -0.1457349 -0.035045877 -0.07916663
आरब्धम् 0.078518756 -0.07967302 0.07051315 -0.038410127 0.07542011 -0.06326952 -0.069377564 -0.1553514 0.06805352 -0.08069535 -0.12826732 -0.17967267 -0.011690467 0.0062944777 0.017728377 0.016005207 -0.10278731 0.007998545 0.0375328 -0.022489127 -0.06662247 0.026899893 0.09547392 -0.052445494 0.051604923 0.15609747 0.14214796 0.041873645 -0.046858102 -0.09748417 -0.022772657 0.10308851 -0.06749933 -0.2520502 0.18343937 -0.15678953 -0.131213 0.038361218 -0.05456006 -0.0409962 0.057172824 -0.16429472 -0.040788934 -0.048246924 -0.038457774 0.0004371558 -0.00031195275 0.22934327 0.015917666 0.07451842 0.08311621 -0.103598 -0.044588912 0.270017 -0.049244482 0.14285812 -0.04384007 -0.14299993 0.077963196 0.026948309 0.032776725 -0.1509452 -0.048754454 -0.17990634 0.15054856 0.05742624 0.06803336 -0.019183103 -0.006876717 0.099733815 -0.0072291805 0.07343132 0.08988617 -0.06259428 0.17334041 0.07268046 -0.061722253 0.05897103 -0.09037264 -0.11846214 -0.040371183 -0.025514198 0.11328664 -0.16811179 -0.11183172 -0.007153115 -0.118692495 0.13690326 -0.15037629 0.0038531474 -0.002922996 0.09341745 -0.03543815 -0.16349511 0.08594261 0.018783279 0.14081103 -0.0035394735 0.18116145 -0.041182447
